-0.05719191,0.34695133,-0.32591848,-0.03262085,0.21896998,-0.33223645,0.23830907,0.22928996,0.48958761,0.32793719,-0.14494202,-0.18699626,-0.45173339,0.40619221,0.25215490,-0.04498505,-0.06862650,-0.19054883,0.28320093,-0.27236523,-0.23129944,0.25769112,-0.32088817,-0.27877676,-0.47973210,0.36478354,0.03075860,0.13808618,-0.00521838,0.35586034,0.22325017,0.47559718,0.26776202,0.09583629,-0.15318864,-0.23874494,-0.29070591,0.19297824,-0.17547679,-0.08074326,0.19550636,0.23170518,0.39781141,-0.33546830,0.10819056,-0.13219000,0.42934917,-0.08739635,0.25148397,-0.33352236,0.49046941,-0.20782367,-0.15851844,-0.29586012,-0.10030622,0.00119591,-0.22616575,0.08027046,0.27361539,-0.47119772,0.12289950,0.09658605,-0.30998702,-0.21673140,-0.47871930,0.14285714,-0.46087020,-0.14150791,-0.34486224,-0.04802272,0.26955362,0.10091103,-0.20226247,-0.15715891,-0.08763422,0.17273249,-0.19258053,0.44768722,0.38840337,-0.05541246,0.15907768,-0.41163065,0.41767391,-0.02343196,-0.03655415,-0.08067252,0.15463453,0.11691617,0.19264532,0.29032234,0.17021945,-0.35604961,0.26602886,0.22509474,-0.33347239,0.03141191,0.06920577,-0.22987369,-0.22373859,0.09064301,-0.47795928,-0.00288658,-0.29245302,0.41544377,0.00063025,-0.28170615,-0.03074025,-0.45450347,0.29424758,-0.21089377,0.25905663,0.07970181,-0.06788992,-0.17527383,0.39927228,-0.31098030,0.29735876,-0.22079606,-0.12780568,-0.40398106,0.18146018,0.05823737,0.24433170,0.00956984,-0.30771857,0.44174581,0.23732923,-0.19516291,-0.13860604,-0.05370195,-0.39134872,-0.41643853,0.28882374,-0.11506214,0.01681419,-0.27511129,0.44033740,-0.02350488,0.29118899,-0.15187754,0.46388423,0.11179371,-0.35272532,0.31377561,-0.32087583,0.39366574,0.42475624,0.11660597,0.24524653,0.26628986,0.23797654,-0.49993685,-0.49679934,0.10747412,0.02521110,0.27986027,0.08713200,0.30383538,0.09813395,0.35319727,0.20194956,-0.49624161,0.30815229,0.08011137,-0.32865611,0.47565858,-0.31457018,0.32614097,0.05070763,-0.02848972,-0.02053541,-0.30990546,0.11307141,-0.15578207,-0.09446395,-0.12135580,0.30026224,-0.37221117,-0.21222774,-0.19537980,-0.19610729,-0.49526173,-0.45281488,0.07660156,0.05591135,0.44714137,-0.35970094,-0.20430347,0.41317391,-0.30689339,0.09738946,0.08427432,0.43745055,-0.00715255,0.22891915,0.33245715,0.15465424,-0.42510411,-0.39762409,-0.14055689,-0.36210068,-0.26070818,-0.02793218,-0.11298485,0.29519077,-0.49889113,-0.10509733,0.28765254,0.15789976,-0.22356819,-0.13262316,-0.11880372,0.02703655,0.15437491,-0.41862362,-0.04815017,-0.23351612,-0.16932951,-0.29801812,-0.10016564,-0.18350391,0.42070850,-0.14143493,0.19489998,0.12863248,0.39056327,0.19724716,0.28617551,-0.15195661,0.42277597,-0.11836473,0.04117332,0.09430682,-0.20377851,0.38526859,0.18470166,0.16348989,-0.04604067,0.07960643,0.08991025,-0.02640903,-0.30118025,0.24858958,-0.05861184,0.48309813,-0.19948192,0.06486687,-0.26535478,-0.38350320,-0.19614026,0.08980109,0.12832576,0.27275944,0.06874418,-0.26540970,0.11611183,-0.31096327,0.40853297,-0.20176276,0.43369247,-0.32488033,0.05135283,0.24712047,0.10521291,0.31264647,-0.14628255,-0.08415898,-0.18462154,-0.47825605,0.11939939,0.38581012,0.13203070,-0.46027138,0.03310696,0.17899411,0.08524989,0.36448352,0.48451053,-0.42084118,0.30284937,-0.16829599,0.31210491,-0.19568300,-0.27708096,0.21923531,0.16077978,0.30200102,-0.32123538,-0.11742646,-0.37004041,-0.18927960,0.19806950,0.42900238,-0.17094100,0.16336644,-0.34556120,0.49507765,-0.21061483,-0.13956804,0.23939083,-0.33092085,-0.46185238,-0.15842188,-0.17273836,-0.08208452,0.38160209,0.44475170,0.06521933,-0.11414831,-0.11717174,-0.45495710,-0.09927341,0.28076136,-0.37634830,-0.45909134,-0.01040931,-0.16368439,-0.17647084,0.11237031,-0.06729816,0.15692205,-0.10576231,0.09075924,-0.16275220,-0.22656105,0.31173969,0.26598917,0.19388505,-0.07311842,0.47694784,-0.12229016,0.34543623,0.33987031,-0.08075434,0.18433350,0.22972771,0.39975512,-0.12444192,0.18124347,0.44654793,-0.26939920,0.03572975,-0.02915396,-0.15696090,-0.28684383,0.09597758,-0.04952124,0.23174031,0.15527051,0.25712557,0.24882494,0.17434087,-0.20457325,0.42758083,-0.16607029,-0.42847968,-0.19601951,0.47473899,-0.28191536,0.17900246,-0.17072782,0.34705006,0.28501495,-0.29795721,0.34924658,-0.17405728,0.09474656,0.18980560,-0.27088366,-0.40769141,-0.33377889,-0.20327859,-0.10029262,-0.08534107,-0.44695223,0.07975496,-0.17861063,0.30687872,-0.19451679,-0.35737630,-0.34800246,0.15759324,0.36922644,0.29888137,-0.31589190,0.13849153,0.46816826,-0.13029464,0.32622027,-0.12067634,-0.26613218,0.08394965,-0.29686430,-0.34271551,-0.43900789,0.34906311,0.41628032,0.37461210,0.01918681,-0.04532363,0.29161850,0.40434711,0.09436310,0.19103757,0.02052979,0.32586484,-0.32178967,-0.34275554,-0.16410263,-0.06176792,-0.21714767,0.12102346,-0.14032968,0.34767986,-0.42188312,-0.17004722,0.31460358,0.22415540,0.23206534,-0.44558682,-0.17843871,-0.34255230,0.09035533,0.25483296,0.42981544,0.15500788,-0.22135690,0.13697525,0.20880614,0.23312762,-0.12771767,-0.46122643,0.41005710,-0.17113780,0.27254030,0.33412569,0.38226991,-0.36164179,-0.02181172,-0.40258329,0.23414167,0.28158645,0.14008822,0.37045689,-0.07541774,0.27976830,0.04168670,-0.19877216,0.08188898,0.39261750,0.24063897,0.00083690,0.08395448,0.40531009,0.15981124,0.41260195,0.41102129,0.36587977,0.02734445,-0.38605114,-0.44543081,-0.10042452,0.40280686,0.10516286,-0.34648277,-0.47910983,-0.42836932,-0.33569665,0.41024899,0.38148618,0.14380911,-0.11484666,0.35332943,-0.35033319,-0.35842553,-0.05170761,0.36047869,-0.22336986,0.30128368,0.35983352,-0.38441723,-0.16405165,-0.23947240,0.03552417,0.01474339,-0.01433481,0.13190869,-0.38214241,0.14528397,0.04149472,0.36545329,0.20982781,0.29154046,0.43025576,0.30813196,-0.36158201,-0.32651073,0.19193336,-0.02519996,-0.32890737,0.49109964,0.38186325,-0.19079758,-0.23769249,-0.15860114,0.19997778,-0.32959143,0.28114231,-0.03095294,0.28834205,-0.08251358,0.33528743,0.25598578,0.42170613,0.30502021,-0.32852274,0.37143226,0.13740299,-0.20545815,0.48855499,-0.33906713,0.49894896,0.28321557,0.31873954,0.48988884,0.35574193,-0.04429284,-0.15867987,-0.22360327,0.48325606,-0.23109838,0.31423360,-0.13620858,-0.07291211,0.32730561,-0.04499970,0.08783102,-0.28920656,-0.41617336,0.28773902,0.35250958,0.28280807,-0.47908561,-0.35279129,0.39068646,0.04911651,0.05753046,0.40843577,0.10541436,-0.38075907,0.43872057,-0.36517459,0.35921460,0.24399469,0.27846369,0.19769740,-0.14267143,-0.00005366,-0.19630618,-0.39036502,0.31593710,0.49766337,0.05690506,0.12669179,0.26723844,0.41378824,-0.49732039,0.45002394,-0.33352953,0.29016101,0.04085007,0.18398568,0.22303045,-0.02847595,0.02647293,0.33105827,0.05350056,-0.02083535,0.19148482,-0.33442737,0.12735355,0.45424369,-0.46024474,0.00825943,0.38603077,-0.38461742,-0.19151146,-0.14924392,0.33870591,-0.17971415,0.26479428,-0.16316680,0.46432636,-0.27834089,0.44677333,-0.00175961,-0.44984662,0.04103189,0.11469721,-0.08623726,0.33357761,-0.16179944,-0.17313973,-0.29645942,0.07811377,-0.19249580,-0.22518602,-0.38662407,-0.12536153,-0.27082851,-0.16924467,0.06280436,0.45822118,-0.41094344,0.38777123,-0.30475244,-0.35984347,0.26470717,0.38661423,0.42083395,-0.48394338,0.16094453,-0.20986554,-0.34919875,0.46181009,0.08996925,-0.09148954,0.46635433,-0.39422162,0.22821726,-0.49256051,0.24650028,-0.33051934,-0.30802923,0.28205470,-0.31228529,-0.47525341,-0.38905474,-0.04782276,0.44556433,0.01768571,-0.15938917,-0.22475054,0.28125188,-0.06205469,-0.27707975,-0.17764777,-0.17883503,0.27475812,-0.10044042,-0.09649764,0.25846352,-0.21241210,0.28029926,-0.47555703,0.06136718,0.11284925,0.42312412,-0.49854973,-0.25208191,0.48007294,0.25034571,0.37119256,0.37149103,-0.05733669,-0.05091332,-0.35230246,0.36427336,-0.31678784,-0.24442686,-0.39117979,0.35445999,0.32574869,-0.16404099,0.30907082,0.19556481,-0.28675084,0.11734277,0.15628160,-0.01857375,-0.36938460,-0.09933470,-0.20525181,-0.29690526,0.27086946,-0.41206147,-0.38371039,0.31596738,0.10087417,0.42172748,0.48491877,-0.03927287,-0.00016847,0.00155159,0.31111060,0.41643888,0.11863910,0.44907189,-0.35274410,-0.30300663,0.35918807,-0.20083980,0.01887193,0.26822792,-0.28915129,-0.22000164,0.40363548,-0.34480780,-0.28813690,-0.45939871,0.15009053,0.43831212,0.29273815,0.19853702,0.37636128,-0.16692585,-0.02733458,-0.12164125,-0.26212304,0.36612119,0.12773359,0.08037680,-0.06840430,0.01063947,-0.22115955,0.00653450,0.16720809,-0.26574536,-0.29499880,-0.09401069,0.17664055,-0.25263934,0.44807560,-0.27553789,-0.16027598,-0.27433556,-0.38694476,0.30283263,-0.13224045,0.03682000,0.08350099,0.30526377,-0.12147928,-0.25347105,0.14439404,-0.29617680,0.42520255,0.19231659,0.01034284,-0.23682787,0.46185889,-0.04062743,-0.19977120,0.47577702,-0.38535260,0.20665099,0.05684644,-0.39594591,-0.39908856,-0.49265890,-0.13718816,0.23316226,0.29786228,-0.16338588,0.29607780,-0.23359964,0.38343922,-0.43253433,-0.34921944,0.36982092,-0.28414833,0.06495506,-0.12437582,0.13053872,0.13872681,0.05442754,0.19345732,-0.33157144,0.21431178,-0.03340691,-0.21867986,0.49080362,-0.06761807,0.40021549,0.23766474,-0.10042752,0.48952947,0.27029156,0.14665045,0.18528699,-0.22498145,0.35444731,0.08936661,-0.15299312,0.44030792,0.01959525,0.16287376,-0.46784842,0.31578366,0.02948731,0.01034268,-0.42112149,-0.09543224,-0.26692166,0.38952351,0.11080719,-0.17074334,-0.18740144,0.33269142,0.39094155,0.27278281,-0.20867773,-0.36061288,-0.09858151,0.07410718,-0.41877290,-0.27501931,0.49128387,-0.08677256,-0.32671202,0.03213710,0.35487326,0.32669441,-0.26517225,-0.16030443,0.29009987,0.18744743,-0.24198615,-0.48976536,-0.41418688,0.20201591,-0.33115267,0.11519273,-0.30483825,0.42103864,-0.09855690,0.45654431,0.48967814,-0.28589852,-0.27064647,-0.17136331,0.28148644,0.12523101,-0.06601722,-0.39787437,-0.20534137,-0.04991646,0.02883722,-0.38834364,-0.38775274,0.42537107,-0.48717739,0.45478840,-0.36016918,0.37270562,0.01603963,-0.13361968,0.39087592,-0.19511061,-0.49617232,0.16650127,-0.47283933,0.24080091,-0.43596807,0.48429878,0.49276564,0.37822284,-0.19415103,-0.36391223,-0.17983255,-0.40903149,0.47923761,0.41296909,-0.42067892,-0.24552277,-0.29005975,-0.04382559,-0.33234445,-0.21731379,0.25298038,-0.20103653,0.05809979,-0.36107923,-0.01152825,-0.16411521,0.02104212,-0.07965530,0.44665903,-0.29790710,0.05992024,-0.40256447,0.16802225,-0.06074071,0.32614776,0.11655152,-0.47725841,0.46214299,-0.29102363,0.38354355,-0.28988517,-0.11537992,0.00547927,-0.40024443,-0.09879130,-0.44329238,0.35990781,-0.36283604,0.25162502,-0.45561666,-0.06029861,-0.03698973,0.45408414,0.32167406,0.25265733,-0.40570317,0.09503740,-0.21590577,-0.24696783,0.35106709,0.19617668,-0.49985962,0.10761091,-0.24964942,0.31122839,0.46129186,-0.29691916,0.45365152,-0.34731682,0.14534362,0.20038701,-0.47252234,-0.04388596,0.00860480,0.25960028,0.15205346,-0.13556785,-0.08275783,-0.03410508,0.06598901,-0.16136335,-0.12876352,0.15659891,-0.48870337,-0.09649263,-0.11539955,0.22888295,-0.11402410,0.22631378,-0.47131745,-0.31661178,0.06099353,0.18560108,0.03385890,0.09704129,-0.01082923,-0.33425898,0.40683070,0.08677418,0.41265946,-0.10093073,-0.27966095,-0.46351711,0.31599045,0.44337998,0.21918832,-0.39691130,0.18642630,0.13190779,0.16805169,-0.20866479,-0.19456953,0.03883285,-0.31970711,-0.45979195,-0.20228895,0.28102475,0.37857265,-0.30962467,-0.03176566,-0.05414620,-0.33994675,0.37360275,0.06723628,0.32999076,0.09587922,0.20518106,0.29350657,0.41057974,0.15805418,0.19906834,-0.39641154,0.31095605,0.08705652,0.40266491,0.15223509,-0.08298870,0.01344499,-0.06798261,0.02918272,0.47619244,0.41640005,-0.48178698,0.38922212,0.34580090,0.04109172,-0.42976701,-0.16265351,-0.20521085,-0.49832997,0.30133335,-0.31813636,0.18491207,-0.48980453,-0.21083972,0.22860226,0.32496160,0.33814589,-0.07999734,-0.36389580,0.15018655,-0.49422131,-0.23473252,-0.29860473,-0.34664619,0.36467969,-0.13986201,-0.45201009,-0.02594042,-0.00246132,0.43197246,0.19580024,-0.31387300,0.47076009,0.34000206,-0.05994438,-0.06452087,0.31821691,-0.34426565,-0.23709783,0.09693224,-0.44382253,0.17249915,0.37685164,0.20293887,0.26984687,-0.34587739,0.24456936,0.36904832,-0.22795783,-0.47790511,-0.28768969,-0.45832659,0.36249415,-0.40180838,0.27551836,-0.03625749,0.12531232,0.21750416,0.30101047,-0.03977029,-0.05063691,-0.34956104,-0.47455916,-0.20001782,0.20238645,0.10995649,-0.05702268,0.11289270,-0.48408530,-0.43658212,-0.40057227,0.32943431,0.33305869,0.16368357,-0.06456329,-0.29822330,-0.06104215,0.03722980,-0.01020363,-0.13525314,-0.13379703,0.39666981,0.12887297,0.23004926,-0.48795917,0.08513779,-0.22487371,-0.23292738,-0.42650956,-0.14384258,0.17451666,-0.42697456,0.17506740,-0.32494931,0.48576146,-0.43425154,-0.39506629,0.46991869,0.30706829,0.43736217,0.21318679,0.13146189,-0.32877760,0.31598316,-0.35357257,-0.46478932,0.29645532,0.47977996,0.36660077,-0.22879239,0.19379781,-0.05434719,0.38655401,0.24767345,0.28648158,0.37160518,0.01213526,0.44828206,0.01238314,-0.49307734,-0.42913043,0.04444318,0.01571447,0.41232366,0.44685019,-0.29431102,-0.33402694,0.45236435,-0.02245382,0.26304422,0.31486076,0.49164414,-0.14517778,0.22305845,-0.08677880,-0.24097544,-0.18014917,-0.02677883,-0.40302625,-0.13102413,-0.23393961,-0.27389565,-0.00501868,-0.34687007,0.43872592,-0.47598767,-0.36431101,-0.39590169,-0.04700045,-0.40701298,0.17729041,-0.09543874,0.25311943,0.38194250,-0.47658517,0.15926561,0.42510369,-0.04348069,0.17880907,0.23813197,-0.47321399,0.37823451,-0.41801462,0.43967642,-0.05505172,0.21997153,-0.17283058,0.00173499,0.26999806,0.42988996,0.15397977,-0.29420607,-0.31735993,-0.30483773,-0.41241774,0.02765664,0.28929309,-0.13626823,0.12746228,0.27472968,-0.48196162,-0.44973294,-0.00689828,-0.32364992,-0.23836549,-0.29905627,0.08744588,0.41289971,-0.07515991,0.11062359,-0.13378431,-0.12882480,0.07412884,0.12112776,0.00075488,0.27552272,0.37441683,-0.01414812,-0.48055743,-0.47097913,-0.32054714,0.23210786,-0.21625321,-0.46072487,0.20568598,0.08292131,-0.17228332,0.48495091,-0.07400616,-0.06337495,-0.20379939,-0.48595765,-0.47671048,-0.17503306,-0.43408018,0.22243954,-0.46001769,-0.43568205,0.16557158,0.39858610,0.08304186,-0.33769307,-0.06764023,-0.35913703,0.26431598,-0.01624644,-0.36771605,-0.04971786,0.32828088,0.03460164,0.04209910,0.03725806,0.17605435,-0.35070838,-0.03896362,0.12790591,0.18419103,0.32332108,-0.39321490,-0.12206911,-0.08665073,-0.30975502,-0.11422608,0.32104319,0.45292428,-0.02051507,-0.46554850,0.35131325,0.25048571,-0.31821842,-0.47661372,-0.48178520,0.14088637,-0.13330194,0.38812680,-0.04373283,-0.08007975,-0.12809000,0.26086554,0.13275231,0.25879710,0.48894918,0.27240829,0.11643990,-0.25925753,0.28489580,-0.11775981,0.35340597,-0.29567270,0.35334141,0.38666371,0.37196874,-0.33500454,0.09183220,0.43112682,-0.30837335,-0.48256293,0.38984848,-0.25191099,0.46772149,-0.21571560,-0.15473558,0.39590768,0.35330234,0.04000777,0.27147337,0.48838093,0.34023820,0.26158083,0.25855994,-0.31866061,0.21814696,0.15727083,-0.26596622,0.02542912,-0.20991098,0.17140162,-0.01250930,0.24653176,-0.07718669,0.12655824,-0.19603907,-0.03915249,0.23790354,0.36710913,-0.07840626,-0.13477996,0.30262129,0.35543340,0.13468548,-0.29078796,0.15632610,0.18175631,0.29715526,0.43113655,-0.09654540,0.07404385,-0.38892161,0.25358810,0.39312508,-0.22574582,-0.12709179,-0.40514734,-0.08932553,-0.30241671,0.20301534,0.18545730,-0.07522709,-0.43906337,-0.12711145,0.01246970,0.41089685,-0.05875245,-0.00791961,-0.10021697,0.00907375,-0.28823901,-0.44253591,0.05700882,0.34331364,0.05593890,0.38695117,0.36083389,0.25266195,0.22973635,-0.11544429,0.22687352,-0.10435294,0.41106338,-0.26610235,0.39983864,0.02055361,-0.48510997,0.27301396,0.25653363,-0.35680307,0.30397278,-0.28861516,-0.19921305,0.40217062,-0.05285930,-0.01555262,-0.14855279,-0.14515222,0.24720315,-0.34254535,0.03619275,-0.46693883,-0.12847116,0.46164155,0.15194615,-0.17971171,-0.25166606,0.05990206,-0.40249126,-0.31156492,0.23497396,0.36716576,0.48498229,-0.00708133,-0.23967918,-0.32915386,-0.47717520,0.22966010,-0.33175321,0.38061565,0.21990605,-0.00457650,0.20356060,0.43550510,0.48426817,-0.22118119,0.27271732,0.10241825,-0.34640901,-0.46952757,-0.49632956,0.05094931,0.02638090,0.26077053,-0.11468799,0.23831255,-0.09248554,-0.24564826,-0.02874367,-0.41275951,-0.39576725,-0.36354346,0.15534043,-0.40767380,-0.48598079,-0.01648765,-0.10137839,0.24315523,0.30616387,0.08472776,-0.25838889,-0.48547209,0.30232417,-0.07464911,0.41497945,-0.23301439,-0.49212812,0.48616870,0.42342544,0.07026080,-0.19860282,-0.10847909,0.44812824,-0.36976323,-0.26202813,-0.46210749,-0.34551984,0.29960933,-0.23650397,-0.33261372,0.14152893,-0.07230946,0.38443519,-0.46391902,0.14096472,0.49394125,-0.32607771,0.10294610,-0.16095508,0.18244170,-0.18724159,-0.19749209,0.34749530,0.38199320,-0.30176693,0.32051722,-0.17912162,-0.17911893,0.12740470,0.07293844,0.41863046,-0.01517729,-0.46313027,0.36251009,-0.32919080,0.44997880,0.36616002,-0.04736812,-0.30013395,-0.14749232,0.08626117,-0.24317549,0.29487977,-0.24336722,-0.12026334,0.22921108,-0.32905023,0.16176750,-0.33463481,0.08896232,-0.23840950,0.44383624,-0.15965877,-0.12445456,0.10965129,0.25967942,-0.16489952,-0.39359086,-0.33416675,-0.00045886,0.31073031,0.49427162,0.27896053,-0.02741628,-0.25468308,-0.41844487,-0.13299306,0.33347584,0.49262015,0.40505419,0.14732112,0.43383791,-0.04552577,0.03808212,0.25651111,0.22560770,0.36972939,0.10689291,0.43140462,0.38469182,-0.20443655,0.31909890,-0.25607024,-0.34956976,0.48251688,0.06546701,-0.18687925,-0.39103488,0.06083278,-0.11614980,-0.03339752,0.35403470,0.29592792,0.03656028,0.48873973,-0.07993547,-0.23400669,0.35688072,0.19090100,0.25058294,-0.12961927,0.32185336,-0.34162955,-0.07474866,-0.38632033,0.12530085,0.07873233,0.32410599,0.05782509,-0.41421453,-0.49828803,-0.45886223,-0.11735211,-0.32079469,0.02458785,0.49461440,-0.15684292,-0.12457536,0.23394905,0.11411821,0.04419864,0.17123958,-0.43801854,-0.35229959,0.47919535,-0.08563480,-0.03622169,-0.03647014,0.49058600,0.10667033,-0.12994834,0.22256571,-0.04136570,0.39104666,-0.04135938,-0.44344950,-0.44621079,-0.12088039,0.13119982,0.24972470,-0.48341848,-0.31929862,-0.26924649,0.22340275,-0.06222159,-0.42818740,-0.48267005,0.12897203,0.33148377,0.17741912,0.36786214,-0.06152839,0.27202308,-0.23776581,-0.21332166,-0.40830282,0.21282012,0.20510037,-0.39106863,0.12968228,0.44294588,-0.36428636,-0.18601188,0.43214686,0.23619953,-0.33466246,-0.10727938,-0.34861521,-0.07557486,-0.41192938,-0.45394191,0.24886587,-0.12355409,-0.35665185,0.22998326,-0.25664211,-0.31702173,0.12005409,-0.05343514,-0.34807200,0.02308939,-0.41011616,-0.47877800,0.09966257,0.00837626,-0.34187029,-0.16600659,0.17971495,0.01036009,-0.07577271,0.25779957,0.46357545,-0.39220583,0.06723383,0.25638355,-0.24853762,-0.46157534,0.36715808,-0.37273613,-0.41998152,-0.42021856,-0.38096621,0.43654623,0.08755481,-0.19282291,0.27960569,0.46981489,-0.29660762,0.38263357,-0.21022175,0.14905525,-0.40202536,-0.19895163,-0.09097142,-0.32273665,0.45148310,0.13893043,-0.28352894,-0.18225592,0.34221528,0.01962858,-0.32950530,0.09020194,0.35964771,0.43925987,0.48415702,0.04392369,-0.47258426,0.13918134,-0.18447501,-0.01597528,-0.07836511,0.15522087,0.41841698,-0.47377818,0.20734409,0.00006646,-0.35831484,0.24356690,-0.20070683,-0.29993382,-0.32360691,-0.22738088,-0.49541515,-0.19227037,-0.46191424,0.24294100,0.23652423,-0.33277722,0.02221528,0.37845252,-0.22939203,-0.07420216,-0.18789335,0.20749831,0.20013123,0.04447657,-0.28040600,-0.19280929,-0.05804158,0.11138196,0.23166038,-0.34670264,0.00293314,0.06605205,-0.28622297,0.37655755,0.42671743,0.37376049,0.42530476,0.06958679,0.02043980,-0.08760446,-0.27891829,0.05100178,0.12104484,0.05500503,-0.41799978,0.16200156,0.00944743,-0.27522972,-0.08456167,0.13554469,-0.33262236,0.32873117,0.17431604,-0.09107402,0.12524310,0.14306411,-0.21870521,0.25216022,0.02818785,-0.36451263,-0.15285618,-0.25059620,0.15542545,-0.15084419,-0.39297111,-0.24075049,-0.35475551,0.18968719,0.33593671,-0.22774460,-0.31414604,-0.14711962,-0.16453527,0.44959606,-0.35038819,-0.04386414,-0.21328224,0.11635622,-0.17727851,-0.15146264,-0.42185783,-0.05987318,-0.26564521,-0.30056418,-0.18414662,0.31608299,-0.18629030,0.02635045,-0.34040820,0.23036139,-0.12649740,-0.06864003,0.14792342,0.06953337,0.07113615,-0.41317493,0.27015301,0.28198436,0.33096917,-0.02115586,0.23642036,-0.29959801,-0.36667979,-0.32352299,0.24127307,0.20572337,-0.18820591,-0.06299245,-0.37364321,-0.48960508,0.00552894,-0.06321427,0.05180331,-0.31129817,0.06394961,-0.33955775,-0.19615416,-0.39762778,0.09196247,0.29196543,-0.35158918,0.47584042,0.20230951,0.46450759,0.17888007,0.30641718,0.44009420,0.30680118,-0.41153852,-0.29791189,0.12430757,-0.40301724,-0.45500913,0.24941029,-0.41775136,-0.22732451,0.36081737,-0.13069494,0.15319212,0.00923486,-0.08561740,-0.45003256,-0.44249398,-0.15512449,0.01605021,-0.07827671,0.26715878,-0.14134739,0.12640629,-0.25896888,-0.22220286,-0.19478302,0.20763754,-0.46512125,-0.07660423,0.49379338,-0.42676439,0.01716777,-0.37131224,0.25805858,0.17854065,0.24380074,-0.18704305,-0.01566298,0.40105088,-0.44732638,0.00706042,-0.45523341,0.10962912,0.29140310,0.49184812,-0.28530662,-0.33725671,-0.30065056,-0.43088075,0.14010962,0.02873659,0.35576958,-0.26730557,0.26359910,-0.04208214,-0.47340551,-0.46374771,0.33006229,0.22116271,-0.25710877,-0.45725758,0.17859070,-0.25070372,0.01426942,-0.47239263,-0.30037252,0.46753714,-0.27633525,0.07657993,-0.36913460,0.24152013,-0.04156961,0.24743515,-0.32389881,0.09017520,-0.49066326,0.25469726,-0.13139199,-0.16284525,0.29391360,0.08819133,-0.22196064,-0.41288375,-0.22105444,0.29081606,0.32081018,-0.43988636,-0.40741341,-0.44969108,-0.31861236,-0.07734122,-0.34907167,0.28560737,0.48304717,0.04164795,0.13187699,0.27945981,-0.08243795,0.21780329,0.10274142,0.32996860,-0.18557181,-0.32246839,-0.31235182,-0.04803495,-0.30998829,0.42234620,0.42154337,-0.01064262,-0.14356449,0.31183737,-0.10477801,0.12125182,0.37429104,-0.35043811,0.06434805,0.12293093,-0.32503332,0.47506746,0.06178674,0.22730229,-0.17102279,0.18124121,0.09579471,0.11354423,0.05043709,-0.05246518,-0.29676879,0.09859377,0.02270816,0.24268273,0.19968242,-0.47624144,0.33074235,0.15467639,-0.02623191,-0.06022061,0.23697524,-0.46240175,0.18165145,-0.16125810,0.30264797,0.44703147,-0.22106059,0.10915835,0.05833833,0.46199842,0.42578692,0.38581573,0.08530728,-0.32426895,0.08796617,0.38619335,-0.31656502,0.37633907,-0.08932249,-0.18534322,0.24987637,0.38511676,0.02592059,0.16074342,0.29696121,-0.17288654,0.31288766,-0.00587054,0.38711792,-0.10346818,0.11466294,0.14464876,-0.36553600,0.15382005,0.30585349,-0.35675758,0.15613648,0.34282309,0.00117477,-0.22790178,0.45679302,0.31171911,0.48468693,0.01835106,-0.12906564,0.32515752,0.21740994,0.27495203,0.34935861,0.26806140,-0.34370311,0.32830479,-0.23350460,0.38581807,0.15766165,0.10322614,0.24203161,-0.07384990,0.02797582,0.28001330,-0.34170586,-0.27794981,-0.36190515,0.03958779,0.43454612,0.34631806,0.46406619,0.31020563,0.39431708,-0.23902632,0.26907453,0.32236917,-0.39139596,-0.43587917,0.16754502,0.15574588,0.01223976,-0.20599308,0.30930881,0.24046894,-0.42147483,0.25962024,-0.13712995,0.26533459,-0.28461380,-0.31127123,-0.11222413,0.39308528,0.43058049,-0.37899794,0.27391331,0.14089367,-0.25668693,-0.33007335,-0.19279136,0.25195242,-0.09788990,-0.12490666,0.02518496,-0.19396500,0.38534726,0.18569149,0.16707368,-0.20407287,-0.09205768,-0.05564285,0.49209478,0.30492236,-0.23127651,0.47981171,0.40466359,0.16995510,-0.23030049,-0.05189215,0.38640125,0.26191259,0.16894494,-0.40348989,-0.48222256,-0.49317236,-0.30521504,-0.02701538,0.37154562,-0.17759657,0.42194687,0.26239525,0.02978230,-0.19736805,0.18103220,0.24740623,0.13865641,0.49516507,-0.10013105,0.19755369,0.23075172,-0.24951587,-0.33206754,-0.01232076,-0.42616794,0.03925607,-0.24181078,-0.23859469,0.42296796,-0.05566544,-0.32042960,0.08946807,-0.13958137,-0.10665714,-0.48732821,0.44426976,-0.35088965,0.23351934,0.39803094,-0.24734737,0.09444140,-0.16246893,0.32879007,0.44694150,-0.18384482,0.41312701,-0.02254057,-0.07363472,0.23221237,0.18625194,0.15377266,-0.05596284,0.48999664,-0.08983969,0.00971853,-0.10693204,-0.17755549,0.24342981,-0.25855693,0.13892395,-0.32807464,0.47573820,0.49675817,-0.06260870,-0.38551436,-0.33142321,-0.25861864,0.35038919,-0.08733703,0.02151551,0.38439098,0.34225006,-0.43072592,-0.10178183,-0.06528796,-0.38119761,0.11005763,0.26655915,0.00343261,0.01866599,-0.46771685,-0.02289936,-0.32322354,-0.15174651,0.08925546,-0.48739746,0.03822683,-0.48402038,0.17752227,0.24472190,0.36720065,-0.20983060,0.47139697,-0.49520247,0.43452290,-0.33541160,0.09408820,-0.25219763,-0.30206781,0.26420144,-0.47820851,0.09813075,-0.39636125,0.31581404,0.41463625,0.18008786,0.34036525,-0.07107136,-0.48298588,-0.16141837,-0.41852114,0.41253426,0.29972609,-0.01410626,-0.46562904,-0.30882138,-0.49889540,-0.40853148,-0.19450449,-0.49139293,0.17763116,-0.06334265,0.42023213,0.49958035,0.34242322,-0.45092248,-0.43962650,-0.38149693,-0.25079435,0.28060265,0.07083777,0.44312137,-0.12923047,0.07421977,0.32516211,0.25979592,-0.24546192,0.49807654,0.28433761,-0.03427675,-0.46584029,0.38477482,0.37432173,-0.40393581,0.12903352,-0.07597240,0.47321098,-0.30387507,0.37717876,-0.35766008,-0.28809915,0.10121265,0.29252661,-0.04192943,-0.29104108,-0.04445207,-0.25878724,0.33897931,-0.01184440,-0.35153167,-0.46674969,-0.30808706,0.24498456,0.00412980,0.30362273,-0.46268490,0.44641787,-0.04484578,-0.31043862,0.31530257,-0.33389593,0.32938453,0.12990314,0.49726361,-0.37682901,0.05787530,-0.03841395,-0.23689337,0.22598239,0.38311312,0.15852918,-0.35624762,-0.38384993,0.37750494,-0.48726827,0.40103682,0.21362219,0.01430796,0.18311737,0.24791413,0.40391937,0.09502864,0.10010865,0.30622943,-0.12484626,0.14322505,0.08523431,0.33094417,0.30078733,-0.30805295,-0.28116249,0.33573191,0.47953179,-0.22972717,-0.20125294,-0.12525712,-0.33334167,0.06285178,0.40510563,0.46824050,-0.38343489,0.45116310,0.10884621,0.20748334,0.37390945,0.10246645,0.19164085,0.34690045,-0.07777128,-0.03554181,0.14926305,-0.12097132,0.26990061,-0.49853607,-0.35865272,0.02848642,0.35590778,0.30424403,0.32881835,0.34371864,0.26099003,0.45916297,0.40791014,0.26105060,0.18431776,-0.37238828,0.08798155,-0.01536975,-0.17348081,0.20789587,-0.26150743,0.19185893,-0.13714156,0.38725318,0.31556583,-0.13066630,0.01237295,0.12819124,-0.29911749,-0.33417915,-0.36798982,0.26176579,-0.49528293,0.06161493,0.21936009,0.03971868,0.22101921,-0.46963760,0.00872629,-0.18653401,0.16245926,0.44744641,-0.34670056,0.36048067,0.35940983,-0.44231403,-0.35477099,0.04769163,-0.30432885,-0.35808302,0.26489537,-0.18379580,-0.47253057,-0.18821329,0.08271989,0.36681399,0.49098300,0.19646431,-0.26602959,-0.24115757,0.26653346,0.35941084,-0.29284408,0.29633906,0.15460569,-0.00774958,0.26363442,-0.31733357,0.07892286,-0.14111077,0.24890912,-0.46969945,0.21990700,-0.25784815,-0.39593576,0.15685159,-0.06410917,-0.37965527,-0.39902931,0.44650364,-0.37397682,-0.48506391,-0.23055530,0.49447671,-0.49862711,0.23300088,0.04890059,-0.15997969,-0.43157107,0.11717884,0.40322886,0.09848580,-0.06452764,-0.19952706,-0.05624121,0.17026180,-0.30272192,-0.27291622,-0.06583454,0.20823348,0.43210658,-0.28110958,0.25866323,-0.34071468,0.27003078,-0.26931089,0.41715629,-0.40118132,0.42385927,0.00125024,0.38328926,0.05688583,-0.30113728,-0.30639744,-0.43386856,-0.48550823,0.16452107,-0.45717753,-0.24890072,0.45922094,-0.43421510,-0.35026875,0.12805854,0.01421581,0.09282615,0.07811158,0.06505976,-0.36734223,0.07285444,0.09440374,0.42853930,-0.38567160,0.05849368,0.45607227,0.48246926,-0.30007938,0.06672154,0.35307835,0.28275324,-0.21904006,-0.41784455,0.01752698,-0.12805980,0.01903907,0.40241303,0.23167679,-0.40652745,-0.22407099,0.05547017,0.04080015,-0.39684744,0.45081648,-0.16093105,-0.24564778,-0.40976031,0.19076607,0.33397028,-0.01946745,0.29113582,-0.07055324,0.29885948,0.12478854,-0.04365932,-0.39206689,-0.33896761,-0.02917918,0.23814866,-0.33893276,0.05058178,-0.26598004,0.18103189,0.20618566,0.41347514,0.42691780,-0.32580886,0.43724674,0.03621753,-0.01151840,0.20463929,0.14997988,-0.43453305,0.31837755,0.15435870,-0.35141908,0.40104817,-0.33909449,-0.25498538,0.20583511,0.46830153,0.38903605,0.38795374,0.03306459,-0.47158644,0.40071756,-0.25760928,0.08574057,0.02197599,-0.07425203,0.24437004,-0.06177576,0.10416095,0.34875004,-0.02108811,0.26845470,-0.46301400,-0.32311500,-0.07117169,-0.26798291,0.03470627,-0.37937857,-0.12044955,0.18480754,0.38257393,-0.14220867,-0.41927864,0.45685582,-0.33485418,-0.32391878,-0.22366443,0.07636364,0.23722809,0.02457776,-0.42345582,-0.23979850,0.01772896,0.09821062,0.03351011,0.36857919,-0.14527385,-0.27307145,-0.12894593,-0.27966801,-0.39415425,0.31857878,0.17481390,0.06451914,0.38427251,0.44529307,0.18600746,-0.20879862,-0.07305782,0.14381108,-0.37074164,-0.21251982,0.05928071,0.39071365,-0.06175595,-0.11623255,0.17809937,-0.14457006,0.26553370,-0.43325552,0.18822896,0.35388107,0.45676411,-0.09347989,0.09560220,-0.15192234,0.21672961,-0.18439188,0.02510021,-0.34634673,-0.09784838,-0.32009614,-0.07927383,-0.29648944,0.13003747,0.21339518,-0.42211766,-0.35477557,0.41751145,0.21432014,-0.20304256,0.41735109,0.42101077,-0.27809832,0.31315470,0.09959380,-0.36322883,0.35183886,0.42260863,0.10168987,-0.30583575,0.31101304,0.11109951,0.42692284,0.08863257,-0.25851813,0.33549085,-0.24679941,-0.01180442,0.25440013,-0.02810859,-0.34302746,0.40448272,-0.47909009,0.39332568,-0.35378674,0.01468959,-0.11069383,0.32469464,0.14077238,-0.38022210,-0.14149905,-0.31640341,-0.21374474,0.12784432,-0.39727948,-0.45475799,-0.08380194,-0.22527324,-0.20375887,-0.21098426,0.18888883,-0.26281402,-0.45630144,-0.06438498,-0.23760165,-0.25578848,-0.05598541,0.47846304,-0.06996559,0.35556366,0.38190916,-0.09455224,-0.20380797,0.14891571,-0.15240542,0.46529951,-0.15703467,0.27346461,0.43036476,0.23694179,0.02437716,0.42832413,-0.30156125,-0.01182434,0.15626650,-0.29152666,0.41094202,0.20093827,0.03152868,0.40912968,0.28333231,-0.22589391,0.17598811,0.25227204,-0.23461845,-0.02959862,-0.34830443,0.02717811,-0.12629770,0.21554355,0.47648752,0.19849815,-0.18578609,-0.29086321,-0.01575724,0.41692087,0.47672390,-0.24688624,-0.16096559,-0.20604036,-0.20699478,-0.29529966,0.28912405,-0.44175559,-0.18848063,-0.22507241,0.31234408,-0.14733490,-0.37474821,-0.33528944,0.03580975,0.32507561,-0.27083515,-0.07992221,-0.14427113,-0.17176425,-0.45760912,-0.39074293,-0.44074056,-0.10361412,0.29233349,0.25456929,-0.09932618,-0.14556787,-0.38967513,0.17143796,0.03437113,0.42125745,0.36284428,0.03685223,0.43671042,-0.30074289,0.36503787,0.48483821,0.18479422,0.10747164,0.05325724,0.34762767,0.26809312,-0.08897453,0.31199858,0.18326630,0.49420670,0.28304573,-0.25315712,0.31596287,-0.27593989,0.47712865,0.33538945,-0.00655154,0.11173462,0.18248517,0.18173325,0.46159020,0.09961189,0.41616437,-0.28207188,0.10722838,-0.38330135,-0.40619455,0.43594117,0.19387931,0.39984332,0.07845976,0.41364685,0.34541219,-0.27551334,0.00037548,-0.10612318,-0.16487599,-0.42457968,-0.24471486,-0.02182630,-0.47555800,0.30404703,-0.25665267,0.38372776,-0.20031425,0.35926179,-0.17060021,-0.06164781,0.32832742,0.24688040,-0.29220455,-0.29375156,-0.39177917,0.43927483,-0.11023073,-0.14706365,-0.20693557,-0.07989820,0.14970852,0.22682585,0.00435584,0.49605075,-0.20723812,0.45088505,0.42480760,-0.37811039,-0.44775533,-0.30355630,-0.19094534,0.12984249,-0.35680060,-0.22381446,-0.47393892,-0.07143483,0.09028809,0.11640010,0.13358040,-0.19102229,-0.49994135,0.16826912,0.37832588,-0.44276198,0.41204281,-0.38077670,0.12066313,0.16060901,-0.16364383,0.26514998,-0.00291201,0.05070761,0.08155484,0.09192452,0.02715092,0.15263995,-0.29598529,0.26555480,-0.41929653,-0.38697614,-0.08172161,0.20628109,0.48121485,-0.35347436,0.16594266,0.18670005,0.46007094,0.19496369,-0.02949697,0.49536956,-0.10441415,0.10471914,-0.45601344,-0.24850376,-0.43249037,-0.04321405,0.35968956,-0.01838022,-0.26783787,-0.02969774,-0.28193057,-0.09083564,0.12761189,-0.36119567,-0.01541146,-0.05716603,-0.24808170,-0.41062767,0.13321752,-0.31562594,0.17399242,-0.29315922,-0.14120952,-0.15239315,-0.13586940,-0.35764001,0.43834829,0.45560669,-0.04750807,0.21003047,-0.30353816,-0.26206855,-0.23804813,-0.12464437,0.09210604,0.10724270,-0.33217841,-0.27936521,0.41067382,-0.22765438,0.04456799,0.34353748,0.40667312,0.34166385,-0.12028158,-0.09548477,-0.47325877,0.34930127,0.04930527,0.41415350,-0.19825638,-0.29503530,0.40906245,0.38548226,-0.26392293,-0.32908907,-0.28724830,-0.23836527,-0.19250874,0.46833603,0.35498029,-0.43700187,-0.28777110,-0.48480225,0.35094559,-0.35352206,-0.21742448,0.11348047,-0.03384741,-0.34345414,0.43990919,-0.27018463,-0.00115762,0.48313428,0.06894965,-0.44176030,-0.29429667,-0.36696981,0.09297890,0.26763485,-0.27424886,-0.03949799,-0.27592528,-0.43993968,0.00463846,-0.11115378,0.25441426,-0.03642395,-0.34685431,-0.03845662,-0.16878293,-0.43432113,0.17466333,0.44645732,0.06784092,-0.16371636,0.33835712,0.18554945,0.13939570,-0.21199184,0.34260882,-0.22394567,0.12984986,-0.02319303,-0.13385213,0.35707959,0.05058616,0.06180221,-0.37665531,0.41017445,0.03543980,-0.42744348,0.14605022,0.05449004,-0.20173888,-0.22083582,0.16011472,0.48261273,0.35546978,0.25464410,0.15884716,0.32662637,-0.47626919,0.43656494,0.37997324,0.33176907,0.31092650,-0.49083751,0.43446454,-0.43701813,0.16416115,-0.39488409,-0.35650616,0.36432471,0.45354255,0.24930060,-0.44745979,0.16454155,-0.44933526,-0.02306232,0.23094155,-0.10625865,-0.02516403,0.29656895,-0.30608154,0.08614651,0.48721355,0.21640515,-0.23434218,0.13289070,-0.21872856,0.42337380,0.24745312,-0.26384668,-0.26169523,-0.16522530,0.44908093,-0.15699580,-0.12217829,0.04271880,-0.33364213,0.49548265,-0.20076283,-0.25361566,0.04984247,0.19343242,-0.30752576,-0.38375990,-0.47572778,0.07038504,0.47433527,-0.20866486,-0.26644619,-0.41183140,0.35617501,0.49321373,0.41904591,-0.49584013,-0.15234691,-0.18675330,-0.19016175,0.25179070,0.41835325,-0.02007070,0.02981903,-0.44782967,0.36387359,-0.00634124,0.28185150,0.44388306,-0.48161293,-0.37176470,0.02564022,0.12212058,-0.01402401,0.37283685,0.47348903,0.21912394,0.46822971,-0.44283740,-0.18929846,-0.02982623,0.26402035,-0.26584185,0.11860126,-0.41758573,0.47250125,0.23990643,-0.43107926,0.41571384,0.17570033,0.46647243,0.40223924,0.46321186,-0.01310882,-0.12835112,-0.47084495,0.43690860,0.42539489,-0.31219286,-0.30047594,0.29885262,-0.40928139,0.42251888,0.22169639,0.05036228,-0.16675880,-0.12733919,0.04599243,-0.13602286,0.41879890,0.06632800,0.36765528,-0.27265513,0.25140547,0.00786570,0.19118179,0.01269200,-0.08668728,-0.43389276,0.48881644,-0.08454026,-0.37170301,0.24773554,-0.42403815,-0.48057972,0.08708415,0.16103961,-0.12834577,-0.47741973,-0.39921879,-0.33046084,0.16982541,-0.48923827,0.12107859,-0.33871199,0.14705579,0.40355740,-0.04494468,-0.45911782,-0.39542902,0.00485531,-0.16833496,-0.05030520,0.39194785,0.10322786,0.15884850,-0.02771942,0.31538971,-0.35085513,-0.15398350,-0.39087975,-0.43493398,0.15726221,0.14737441,-0.25875956,-0.02277084,0.26444487,-0.38657652,0.44016822,0.47771877,-0.27488184,0.30619095,-0.36984366,0.46046917,0.00310566,-0.49119704,0.37511816,0.21020518,0.32627569,0.23997528,-0.01165061,0.45801886,-0.39150073,0.12900258,0.04024539,0.49037165,-0.27838426,0.06020643,-0.20032603,-0.21436085,-0.00896153,-0.17073411,0.18732386,-0.24247049,-0.10537122,-0.33452698,0.27965963,-0.19243114,0.18150152,0.29195858,0.46147172,-0.04583519,0.15270423,0.44019057,0.35038136,0.46736149,0.42196502,-0.04786613,0.09908703,-0.30551643,-0.32735827,0.26555993,0.00859788,-0.14026089,0.46128001,-0.30623223,0.43950279,-0.36576363,-0.12181109,-0.28346798,-0.32668207,-0.15031977,-0.19579159,0.03801051,0.33051249,0.31605973,-0.02118285,-0.29088955,-0.27848637,0.45411419,0.48066573,0.19644914,0.34119528,0.06191007,-0.14462952,-0.08417387,-0.01361772,-0.27890712,0.19704394,-0.40854956,-0.21096131,-0.05076383,0.16130074,0.46865433,-0.32088926,-0.38754407,0.31609607,0.25275232,-0.46153616,-0.22437470,-0.12652627,0.15248884,-0.24056340,-0.37187365,0.20285315,-0.34163509,0.46823894,0.33387117,0.49408442,0.17694092,-0.12176527,0.43364638,-0.10202457,-0.01869154,0.48830603,0.49494014,0.22838573,0.35663959,0.49406669,-0.24583274,0.32152788,-0.40806443,-0.13082604,-0.10392386,0.05056327,0.15452196,0.37404704,0.07341346,0.15084497,0.27058215,0.19570798,-0.32992079,0.04536717,-0.44316560,0.02145893,0.17708528,0.16445732,-0.13871966,0.17087823,0.25432725,-0.28978080,-0.39210622,0.25338933,-0.45696651,-0.15046408,0.13930797,-0.26187813,-0.05823998,-0.06721676,-0.49802796,-0.42120740,-0.21309112,0.38009137,0.10926152,0.12946908,-0.49391489,-0.12418290,-0.06281726,0.49528043,-0.48369722,0.42124363,0.42140912,-0.25465507,-0.36925439,0.02540660,-0.13375379,0.06396082,-0.27789647,-0.11306386,-0.12116931,0.11565667,-0.13831776,0.41900761,0.32112563,0.15791927,-0.19771714,-0.44417139,0.27614843,-0.18728438,0.41708688,-0.37045549,-0.12005949,-0.00061513,0.38412131,0.46990021,-0.46148644,-0.37690214,-0.45186641,-0.12886944,0.03892466,-0.28503762,-0.39380054,0.46966665,-0.12259309,0.35889033,0.46149769,-0.20031427,0.46842654,-0.04411982,-0.44005926,-0.24262432,0.01684367,0.25624058,-0.33419186,0.46069358,0.35970415,0.26565596,-0.41700396,0.04454277,0.18559544,-0.39444737,0.18329218,0.10478131,-0.47638178,-0.43147324,0.30154068,0.21895911,-0.34472096,0.04719444,-0.44729682,-0.24543403,0.03067599,-0.05319283,0.30556702,-0.06487351,-0.45920713,-0.01315786,0.48635372,0.47548522,-0.03890296,0.40437391,-0.47286533,0.07799373,-0.29051552,0.38110698,-0.39253730,-0.37192963,-0.15961378,0.41109552,-0.04191255,-0.28184759,0.37426286,-0.30855081,-0.16881529,0.03676509,-0.38137768,0.29715134,-0.26175777,0.16057798,0.45354529,0.26752299,0.09623583,0.20973791,0.44157802,0.15211053,0.14632124,0.37470618,-0.03057201,-0.41356256,-0.20440808,-0.19848669,0.31068487,-0.21236013,0.49104431,-0.20027091,-0.06985139,-0.31439841,-0.37778065,-0.01551802,-0.00481752,0.12400415,0.19021668,0.06416857,-0.33449862,0.30611998,0.34175396,0.45095629,0.04484141,0.48119418,0.22420019,-0.05194953,-0.07739976,-0.05625969,0.00881508,0.00778027,-0.16365441,-0.38533026,-0.42971363,-0.47991217,0.00817867,-0.49473503,0.39479742,0.20445609,0.26593815,0.28989859,0.22595891,-0.05145271,0.23316368,-0.29652767,0.26929420,0.02580998,0.39471929,0.46302495,-0.40883342,0.29635160,-0.13128065,-0.20329419,-0.26791531,0.06821899,-0.47229999,0.37944378,-0.39333948,-0.29112312,-0.44064030,0.41841875,0.42967432,-0.45372985,0.42113446,0.40000833,0.43914175,-0.35177745,0.07936735,-0.36771217,0.43933016,0.01297735,0.49822853,0.10532777,0.27415293,-0.12626004,-0.46048245,0.12703523,-0.13325413,-0.12817918,0.47584242,0.38804381,0.10875317,-0.42811502,0.29995049,0.13376902,0.26945185,0.26049103,-0.43827563,0.47560727,-0.45752949,-0.42135089,-0.44183620,-0.44747471,0.47882537,0.25837401,-0.27312441,0.10961201,0.16674541,-0.38088230,0.22924807,-0.46481327,0.49794875,-0.30070625,0.34799910,-0.27652326,-0.47995430,0.49762243,-0.03593856,-0.10518137,0.42707340,0.43477020,-0.05251391,0.33917658,0.46068336,-0.15808499,-0.35833056,0.32395960,0.22480958,-0.33294004,-0.46162798,-0.29714760,-0.04365324,-0.12219538,-0.18366640,0.41676707,0.38388869,0.03870030,-0.44989456,-0.01552730,-0.04335899,0.38808448,-0.25078082,0.24503583,0.03701597,-0.43718029,-0.33398950,0.10146026,-0.16569679,0.39031405,0.14374502,-0.09897796,-0.40030823,-0.23409123,-0.33695731,0.23113764,0.31519009,0.20527365,0.17981289,0.20946176,0.28146020,-0.29814923,-0.45874523,0.25242317,0.08267524,-0.10770073,0.11938960,0.20256971,0.37440158,0.36730064,-0.26427196,0.26791622,-0.18113505,-0.09710042,-0.21297399,0.15328107,-0.13282031,-0.20582955,-0.16937259,-0.47642658,-0.00350235,0.30199930,0.44220288,-0.41630400,0.42390237,-0.03151890,0.40726070,0.14944073,-0.01760943,0.05426656,0.40781220,-0.34073395,0.33753312,-0.29658435,-0.47595290,0.22860122,-0.07036301,-0.30080623,0.46988333,-0.34001052,0.22651495,-0.42073791,-0.28762637,0.08490944,0.05639600,-0.45144036,-0.12460155,-0.12415680,-0.45036075,0.32473326,-0.37646048,-0.01811425,-0.29353717,-0.37350168,0.35674559,0.40130224,0.03944456,0.33515525,0.11303921,-0.41840875,0.05582780,0.09569319,0.20393589,-0.22281343,-0.29154913,0.08024458,0.28781914,0.14614847,-0.29977083,-0.23384694,-0.10548340,-0.04660660,-0.03666390,0.44160652,0.49907133,0.02797022,0.18339987,-0.11259627,0.17198636,0.05849173,-0.34366189,0.43618228,-0.05515640,0.22705675,0.40924625,-0.04169949,0.04167856,0.21141972,0.37621405,-0.17116199,0.37953203,0.26353170,0.11886990,-0.48040681,0.41663752,-0.09255254,-0.33090005,-0.31298761,-0.32605559,0.40905284,0.10343218,-0.21495223,0.01195665,0.06599082,0.13614501,-0.35297462,0.42993310,0.47780870,-0.00357343,-0.04929389,0.15684915,-0.46243758,0.29618576,-0.09298457,0.44109697,0.36543964,0.46000128,-0.12978407,-0.23407227,0.19800868,-0.29649319,0.02112410,-0.14411024,-0.26343038,-0.47779221,-0.25001304,-0.26995976,0.43241707,0.20632673,0.16099545,0.17180132,0.21174892,0.01219293,-0.00317872,0.02470735,0.09941925,-0.47316891,0.39033449,0.31845331,0.01725757,-0.37928514,-0.49648689,-0.27697409,0.19576987,-0.40657371,-0.02735111,0.07088059,0.22272527,-0.12171999,0.43861006,-0.12479700,-0.00322860,-0.14736851,-0.08412962,-0.36288641,-0.35296584,-0.08748297,-0.19324091,0.37250800,-0.37245469,-0.46941972,-0.33104567,0.17274856,0.12471402,-0.26043285,0.00371250,-0.37854207,-0.48915232,-0.49331275,0.46816309,0.24622639,0.33527092,0.06503612,0.30902893,-0.22914014,-0.26054058,-0.25332302,-0.32575548,0.16409456,0.09190808,0.06903342,-0.19817983,0.21142507,-0.08648952,-0.24163075,0.23187280,-0.48693412,-0.44824766,0.43199820,0.04890055,0.43974417,-0.18494535,-0.33872924,0.22077176,0.08177276,-0.19452074,0.02935880,0.47594717,0.24290164,-0.45479711,-0.44562659,-0.07575250,-0.36521333,0.36617464,0.17028719,0.27126146,0.36234799,-0.13712307,0.42944968,0.37980994,-0.34433737,-0.49460940,-0.21786155,0.32537312,0.08837508,0.46841325,-0.18165682,0.09885890,-0.02606607,0.22424705,-0.08184671,-0.17078847,0.35828476,-0.00238993,0.41189039,-0.26913236,0.42658222,-0.47209708,0.05174535,-0.37246758,-0.25780535,0.25106338,-0.41753568,-0.08049629,0.16124514,-0.27881099,0.15003171,-0.32274137,0.01979437,-0.21660423,-0.29276809,-0.45932225,-0.32913500,0.39253125,0.31108594,0.40250591,0.08199384,-0.33099927,0.37880159,-0.44190994,0.20796108,0.17767196,-0.42873807,-0.48797398,-0.07666502,0.09476979,0.29407359,-0.20087611,0.09544738,-0.03473275,0.13966577,0.12878081,0.19949347,0.12203568,0.16280501,-0.13955699,-0.06562366,-0.26072657,-0.08406375,-0.44521928,-0.33410768,0.12606864,0.39894900,-0.12698396,0.20311887,-0.15866710,0.02383865,-0.43367283,0.47313966,0.13858587,-0.14668838,0.46787212,-0.16196805,-0.41243674,-0.38585829,0.17683810,-0.21822594,-0.44333612,-0.21848386,0.25522073,0.14595405,0.05948464,-0.03560987,0.13775437,-0.15515090,-0.18789244,-0.37895594,-0.24116796,0.22044471,0.02745943,-0.28065168,-0.24838848,-0.48075060,0.44061349,0.40450072,-0.09135568,-0.44696007,0.34187600,-0.19692709,-0.22138849,-0.14286190,-0.19370451,-0.44080750,-0.18742563,-0.48168888,0.28750721,-0.11565760,0.49361843,-0.16022711,0.25481023,-0.49182772,0.45475391,0.05532539,-0.28097848,-0.49331465,0.25726074,-0.24022271,-0.00347871,0.09777352,-0.37226767,-0.34207446,0.31607070,0.26013044,0.38233764,0.27891519,-0.04752729,0.21348998,-0.14613313,0.10162628,-0.09184287,-0.12346738,-0.30443014,-0.07060895,0.48800438,-0.04031433,-0.07539554,-0.04105700,-0.07191764,0.05528250,-0.49834259,-0.23232009,0.45600557,0.29333367,0.03950242,0.48405468,0.28097542,-0.27919627,0.46100818,-0.01338767,-0.28962385,-0.15546673,-0.23092404,0.43597924,0.46217493,-0.25851939,0.29807690,-0.06836641,-0.06549545,-0.28306327,0.47132403,-0.45208512,-0.38450567,-0.34953159,-0.37410491,-0.15335954,-0.42105646,0.02193838,-0.31586157,0.25243670,0.29729938,-0.01178848,-0.35682482,-0.10964928,-0.24333183,0.43457230,0.10873048,0.30641703,-0.44438067,-0.30755707,0.06571258,-0.34585635,0.11127695,0.07910670,0.19278419,0.02662579,-0.44184494,0.23958289,0.09796723,-0.29653012,-0.17661624,0.12133333,0.09887989,-0.02373832,0.42159950,0.38545691,0.40296929,0.20793603,-0.29559843,0.49607380,0.43087288,-0.25719552,-0.01125535,0.20693741,-0.46798810,0.36861582,0.23538705,-0.07762203,0.19933234,-0.00761411,0.43608326,-0.39404317,0.35990198,0.23200276,0.42247805,-0.26523861,0.28207197,-0.09820271,-0.23222775,-0.47595300,-0.21731781,-0.09564943,-0.33567728,0.04609913,-0.32291581,-0.28602419,0.47478708,0.35675782,-0.40251591,-0.19404513,-0.26716646,0.32427472,-0.15220287,-0.36182195,-0.32364822,-0.31253004,0.01774168,-0.29038259,0.44499266,-0.49617035,-0.27048107,-0.18094688,0.30227481,0.16409317,-0.30876342,-0.32010942,-0.26944560,-0.27339285,-0.31841271,-0.03834337,-0.36019279,-0.25215984,0.21603361,0.13827543,0.35548032,0.24492116,0.02898617,0.29457276,0.25915210,0.28502494,-0.15641327,0.14007063,0.18232463,-0.31291022,0.21101951,-0.48040826,0.26525863,0.23276891,-0.16049147,0.02053334,0.14471726,0.23026918,-0.20551286,-0.16763539,0.38268526,0.00617960,-0.19372501,0.15169251,-0.09448261,0.41743277,0.26840492,-0.16169283,0.45637283,0.41040058,-0.06520454,-0.49324349,0.13875763,0.08607199,-0.16385030,-0.20195203,-0.27182846,-0.30911452,0.23875573,-0.43501301,-0.05035361,-0.08219145,-0.32727200,-0.17847615,0.19754626,-0.09092126,-0.44765173,0.37697623,0.24810851,0.36910187,-0.15934760,-0.33334470,0.28658192,-0.25776894,0.43321171,-0.20566196,-0.48504895,0.04473099,0.10822669,-0.30397474,-0.26193904,0.33794739,-0.07409626,-0.00106513,0.21156572,0.33652910,-0.19550932,-0.43322128,-0.40916537,0.36972978,0.24289651,0.33431762,0.31634190,0.37072106,0.32609769,0.33884468,0.39624713,0.02405765,0.17189231,-0.29376377,0.04416315,0.06577479,0.48211558,-0.19048836,-0.36775462,0.16736281,0.45398256,0.04737473,-0.28523680,0.26249899,0.09444551,0.26952742,0.45730992,-0.16115304,-0.29167891,-0.13260972,0.41721961,0.25819649,-0.43982521,-0.27123491,-0.13993630,-0.24669195,-0.14449367,0.45747171,0.02894179,0.10535977,0.10934305,0.33984969,0.29116033,-0.46696347,0.15369726,-0.16902007,0.04832591,0.39402458,0.37006796,-0.14599924,-0.16146980,0.46878312,0.38047523,0.26690509,-0.28848340,0.16909042,0.07413123,0.38995663,0.16803478,-0.04254445,0.01448863,0.02432142,0.12057929,0.14747447,-0.21490743,-0.46804803,0.41187606,-0.11016057,0.00165696,0.26701715,-0.45311114,0.14263952,-0.22266317,-0.43537263,0.46700232,0.18206340,0.20346984,0.41223449,0.19258063,-0.47200241,0.22967562,-0.27717699,-0.38962285,-0.06006761,-0.08045190,0.44529018,0.38254019,-0.47565096,-0.17388041,-0.08353854,0.15824972,0.48624816,-0.46562938,0.02154276,-0.26879426,0.12378838,-0.48221486,-0.27351992,-0.42024142,0.08400463,0.09023345,0.01631433,-0.21257028,0.34895670,-0.35826196,0.23453570,-0.41014556,-0.24350582,-0.36637686,0.20490841,-0.05729511,0.05709329,0.43337137,0.05528881,0.31270370,-0.22196599,-0.00644409,0.04311854,0.00370954,-0.38562362,-0.33830969,0.00052773,-0.42803173,-0.28701527,0.04010646,-0.02160016,-0.08555076,0.49446910,-0.45920016,-0.47178882,0.38050634,-0.00278801,0.02470389,0.24981072,0.13163897,-0.35391189,-0.29019377,-0.04820305,0.38477797,0.35600333,-0.01609339,0.17812154,-0.21584251,0.02745769,0.49445816,0.09685604,0.00067314,-0.35516188,0.49930347,-0.42400830,0.42105886,0.23110044,-0.12929322,-0.05643938,0.04312445,-0.31126947,-0.43892463,0.05049346,0.48192898,0.16330081,0.15399948,-0.07377816,-0.23551322,0.26291238,0.20508632,-0.36515033,-0.23406662,-0.31596871,-0.18727933,0.41866549,0.45451081,-0.09423312,0.07318344,-0.25488502,0.25937221,0.18153762,-0.48047119,0.29218240,-0.43469350,-0.21174146,0.23986369,-0.07779603,-0.45115946,-0.16816936,-0.26918472,-0.12855952,0.22930087,0.49309934,-0.18853946,0.02253156,0.19318842,-0.28268865,-0.21697279,0.08101061,-0.44105901,0.35099544,0.40081446,0.25693415,0.13612121,0.00381754,0.37747440,0.16562198,-0.38838325,0.23141783,-0.13094246,-0.25969789,0.23562479,0.27912024,-0.04966214,-0.21551914,0.29440840,-0.27337581,-0.14158602,-0.41621231,0.27927959,0.24570539,0.05171526,0.21647599,-0.29728779,-0.34114063,-0.21659342,-0.03136415,0.18798074,0.00448510,-0.13008237,-0.00717551,-0.26654231,-0.02812292,0.21873422,-0.47550842,-0.32996219,-0.07817213,-0.42982202,0.40200731,-0.04640046,0.46351447,0.03778233,0.49627777,0.03944639,-0.46100778,0.01336537,-0.16940421,0.45076771,-0.35980641,0.46717749,-0.03613343,-0.33789758,-0.44691625,-0.05309101,-0.21837608,-0.44258766,0.22515492,-0.18613653,-0.23468629,0.04642827,0.04020279,-0.18974299,-0.09859223,0.33091548,-0.42233528,-0.41092229,0.09414376,-0.42050289,0.05810667,0.11166452,-0.21421179,-0.25701268,-0.21128335,0.02601576,-0.21198231,-0.48636249,0.31605485,0.35927536,0.32721713,0.41477547,-0.33862236,-0.41457656,-0.43410116,0.38070806,-0.18987938,0.42529825,-0.35340931,0.16761292,-0.22910725,0.43592917,-0.26398386,0.17760503,-0.00099545,0.16234495,0.15442747,-0.43364926,-0.09353972,0.29668519,-0.21173478,0.26145850,0.27973779,-0.36061694,-0.21808794,-0.26257201,0.43209378,-0.22259771,-0.20466299,0.08668604,0.39120030,-0.33359190,-0.49881772,0.47948076,-0.06439761,0.47522751,-0.44817110,-0.39241086,-0.45831589,0.01620789,-0.29023091,0.17336409,-0.25487179,0.21368094,-0.11341616,-0.42047529,0.03564132,0.35055218,0.20663809,0.26181176,0.13353710,0.15993028,-0.37384625,0.24841914,0.29829323,0.05637406,0.40375574,0.16723033,0.04990506,0.43843145,0.35631319,0.01161642,0.13617308,-0.48151476,0.38955910,0.08223016,-0.06079952,0.14990350,0.10496628,0.18616758,-0.01605916,0.26409371,0.28613213,-0.47570905,0.36709225,-0.16301546,-0.12888779,-0.49043843,-0.15022687,-0.23230167,0.34960964,0.06740837,-0.40476687,-0.12714981,0.24594676,0.46389966,-0.20547691,0.42209553,0.17039076,0.21772488,-0.30576223,-0.04859233,0.14805889,-0.30125899,0.10255919,-0.43136211,0.19408973,0.34676166,-0.11815020,-0.40405769,-0.24353331,-0.37196352,0.13888056,0.12530696,0.22733745,-0.06055019,0.42250623,0.17962676,0.01777447,0.25289824,-0.40219015,0.23938917,0.29027484,0.03328311,-0.10018289,-0.20665758,0.15779276,0.30899499,-0.45385579,0.43168542,-0.02863085,0.10789160,0.34331899,0.09415397,0.49265113,0.23478923,0.13621073,0.45802732,-0.36935553,0.22105479,-0.26033599,-0.23002866,-0.22187380,0.37446176,-0.04250149,-0.06675114,-0.01205349,0.35469627,-0.00092919,-0.07006887,0.22265045,0.24436194,0.01065965,-0.29193518,0.28458536,0.14950563,-0.30125754,0.02608484,0.13630976,-0.49602299,-0.20827705,-0.38773160,-0.31563013,-0.14057247,-0.25474634,0.48253184,0.18854688,-0.01376679,0.49373717,-0.13009622,-0.40421198,0.05825503,-0.36002529,0.44814478,-0.31531008,-0.37067096,0.45755719,0.33265633,-0.37629426,-0.44524873,-0.23579630,-0.49451172,-0.44067637,0.44561923,0.38066702,0.18340007,0.29382103,0.19885552,-0.28370821,0.45262209,-0.46100076,-0.08630591,-0.03231060,-0.20092735,-0.36131212,0.07193655,-0.33531983,-0.25169996,0.34004400,0.12512754,0.20230379,-0.05030501,0.48424523,0.08730267,0.31427713,-0.00558121,0.09453229,-0.36415853,-0.34751824,-0.42564596,-0.43635737,-0.17252833,0.31334264,0.30870724,-0.13449447,0.11389017,-0.47078682,0.28036662,-0.19197341,-0.47450552,0.04330278,-0.40656234,0.38977279,0.01783522,-0.02433097,-0.16247520,0.41167368,-0.35392154,0.47210894,0.16454275,-0.47603707,0.38861399,-0.10975830,0.45006560,-0.41737543,-0.01544364,-0.36623707,0.48543300,0.38724084,0.35959168,-0.40897779,0.19884312,-0.39374615,0.39211029,-0.44047189,-0.42009336,-0.11939372,0.38835777,-0.47571339,0.31950211,0.34995872,0.43478796,-0.28436030,-0.05654566,-0.30183716,-0.22595863,0.08125690,-0.37825417,0.46614261,-0.11505922,0.15574180,-0.03693996,0.14613433,-0.17505989,-0.15185389,-0.44132926,-0.08760196,0.29731111,-0.25588635,0.04962685,-0.42927009,-0.29121947,0.42628932,-0.37050361,0.00332338,0.42036322,0.05180079,0.06482381,0.42857631,-0.34923551,0.09941580,-0.04957589,-0.15480377,0.15177397,-0.42632532,0.26143234,0.39716113,0.46744392,0.08248822,0.24162025,0.07992920,-0.43038004,-0.34508495,0.11603189,0.05581274,-0.36376069,0.26992326,-0.00405164,-0.17587883,-0.13957634,-0.48328004,0.27847365,-0.02090208,0.20804956,0.00043601,-0.42936299,-0.27865068,-0.38196025,0.29146478,0.03564243,-0.33328760,-0.45674828,0.37803346,-0.47346260,-0.49074629,0.32140096,0.02574702,-0.45423290,0.00134599,0.32241404,-0.44455619,0.27450094,0.00144073,0.14991326,-0.03027549,0.10985751,-0.24948224,0.22140093,0.06122740,-0.08447103,-0.19933080,-0.45511744,-0.03908869,-0.23818987,-0.36636677,-0.48931981,-0.13041208,-0.35190864,0.30365460,-0.03053813,0.15566035,-0.11738496,-0.16395939,0.31833686,0.22135615,-0.46906757,-0.18821234,0.29811076,0.45281952,-0.36049634,0.27132928,0.07508102,-0.30700728,-0.38396173,0.25234247,0.01438937,-0.30503737,-0.17907329,-0.33691353,-0.34943009,-0.00703510,-0.39184293,0.47473335,-0.41640457,0.05083206,0.49847719,0.20530492,0.05807302,-0.03819003,-0.32600381,-0.27632860,-0.14097960,0.43314052,0.35801016,0.17700766,-0.02519881,-0.42349395,0.47504993,-0.22407718,-0.35340145,-0.22477796,0.31037193,-0.16897509,-0.41286524,0.22424342,0.18587469,0.23169411,0.27624663,-0.05250186,-0.37526722,0.17045198,0.41856991,0.46218201,-0.20313870,0.11242278,-0.32223450,-0.04453163,-0.07534900,0.27473038,-0.31704156,0.12495934,-0.23431633,-0.42463413,0.08657082,0.23992815,-0.22229028,0.29211192,0.01366540,0.04622568,0.26118914,-0.01887568,-0.40251064,0.27203320,0.02738367,0.22808950,-0.42409089,-0.22044722,-0.06284674,0.19810921,0.04261019,-0.31154451,0.47842409,0.10699004,-0.31457621,0.03645192,-0.36309732,0.08725705,-0.24008808,-0.01976390,-0.00685176,-0.07706462,-0.21546413,-0.47541295,-0.14810455,0.11678602,0.30097511,-0.43940019,-0.03488271,0.41788774,0.49437233,-0.12607050,-0.09418721,0.44554585,-0.30241461,0.00389718,0.30431243,0.44654038,-0.08495285,-0.33557121,0.01567319,0.49510329,0.34551450,-0.15998951,-0.09480754,0.01570724,0.15278677,-0.05245436,0.14477672,0.11098618,-0.10768224,0.17259047,0.43681127,-0.26296326,0.35851062,-0.29784097,-0.31387936,-0.33431863,-0.13919760,0.06677062,-0.18982342,0.28054640,-0.21169454,0.07080017,0.16179285,0.42871620,-0.19862364,0.35612192,0.35176563,0.36419780,-0.16806648,0.35900731,0.35743993,-0.43982104,-0.22262577,-0.47998634,-0.07830759,-0.24429072,-0.15394461,0.35345830,0.12563891,-0.06929932,-0.49398090,0.31221041,0.03233090,0.32160010,-0.44904150,-0.09171060,-0.24986107,0.16147742,0.40087765,0.42025159,-0.40164818,0.20816745,-0.16336073,-0.28426859,-0.42886894,0.04627329,-0.37467004,-0.39934236,0.11907131,-0.35761073,0.28029495,-0.16742856,-0.17841789,0.35377832,-0.02496518,-0.15591851,0.32909515,0.49639172,-0.33144739,0.01210743,-0.18863655,0.01975065,-0.00433127,-0.07065560,-0.42565789,-0.49143670,0.26699906,0.11494524,-0.49550950,-0.49074460,-0.15307932,0.06296002,0.41386039,0.08639331,0.19274997,-0.14511379,-0.12666775,-0.48972117,-0.19351514,0.38913878,-0.18209444,-0.23170188,-0.29593120,0.34871645,-0.27382305,0.36088095,-0.36477378,0.44601255,-0.47424503,0.33542727,-0.35407500,0.32385772,0.02931488,-0.03323030,-0.06110141,0.38535803,0.40224386,0.42456016,0.05554298,0.35516361,-0.44050197,0.25584398,-0.30788162,-0.06820351,0.00161955,0.49372360,0.09267890,0.04664742,0.46644089,0.34588104,-0.13346792,0.31300410,-0.31851052,-0.21687235,0.17992716,-0.46766642,-0.05706021,0.13580961,0.47189593,0.36363287,0.32139255,0.36297668,0.11220479,0.09004703,-0.48350413,-0.26020943,-0.14505730,0.05792007,-0.49454037,0.32706004,-0.49834234,-0.21077687,-0.33513435,-0.09244272,0.48228295,0.26215353,-0.36030566,-0.12065936,0.33148720,-0.44607012,0.22783809,-0.03548992,0.31952123,-0.43365051,0.33439991,-0.27925435,0.30580055,-0.10656161,-0.23692961,0.08365427,0.20710560,-0.45975277,0.29265331,-0.38884928,0.44238989,-0.18900143,-0.44453665,-0.18096878,0.05273223,0.11454938,0.28370239,-0.32260438,-0.02614768,0.05984584,0.17685292,0.00434785,0.10249295,0.09997026,0.24941890,0.08647026,-0.33592865,0.03479419,0.04562560,-0.01909655,0.49481467,-0.08920587,-0.32491699,-0.10492619,0.38421034,-0.22976993,-0.25652704,0.28663159,-0.15331259,0.03455767,-0.07882153,-0.34034790,-0.12461069,0.29640775,-0.29117898,0.25601829,-0.19560402,0.10008745,-0.08618132,-0.09238707,-0.47097650,0.24075809,-0.18371908,0.24086343,-0.34777643,-0.03799729,-0.22679353,-0.43840624,-0.06304596,-0.14175084,-0.14299397,-0.25929939,-0.32399264,-0.49684998,0.08782545,0.38401381,-0.47566997,0.04247706,-0.12770789,0.09279289,-0.29311924,0.24438961,0.00956855,0.04102411,0.41022017,0.37556027,-0.25963483,-0.35032442,-0.11469977,0.13792586,-0.18764261,0.34482188,0.17485341,0.22241949,-0.24804865,-0.48230157,-0.03642513,-0.15901771,-0.29934333,-0.17854276,-0.06335005,-0.45128154,0.35827469,-0.32442010,0.16076234,0.19625732,0.06316808,-0.04167473,-0.42267469,0.13271211,0.43182462,0.49849005,-0.35548024,-0.43922165,0.14158381,-0.14224720,0.07892156,-0.39899507,-0.28915024,0.00797795,-0.14860158,-0.24638780,0.39511664,0.15456495,0.19424017,0.20322081,-0.38587320,-0.39541373,0.36769854,-0.01264983,0.16610697,0.28227023,-0.28931737,0.21746611,0.35869630,-0.13327121,0.21792128,-0.30062416,-0.30830621,0.19255216,0.11618431,-0.34868432,-0.12095835,-0.08003821,0.27963320,0.33466592,-0.08306049,-0.48237580,-0.30603207,0.18398545,0.45812514,0.24556676,-0.19976700,0.36357872,0.42252219,0.04872621,-0.10376782,0.40123860,-0.27171452,-0.36936588,-0.46625975,-0.19243390,0.45082640,0.04425631,-0.47712862,-0.14819245,0.06229450,-0.37138752,-0.45627183,-0.03833180,-0.02208097,-0.42853487,-0.16529522,-0.45203917,-0.19914283,0.19721868,-0.21242963,-0.33810614,-0.15674576,0.23274448,-0.21141033,-0.39943121,-0.12282059,-0.03349611,0.35751811,-0.43411661,-0.24182947,0.14583882,0.09150169,0.37701951,0.31834938,0.13237792,-0.43978092,-0.10756026,-0.13742374,0.36468698,0.35485874,-0.07088900,0.34436793,-0.17144298,-0.30147378,0.15360316,-0.24600363,0.00874865,-0.00093192,-0.36857380,-0.32426189,-0.30047938,-0.28088401,0.29660051,-0.42666914,-0.04274019,-0.09631485,0.15370022,0.06722680,-0.25763502,-0.04275352,0.39392358,0.14166787,-0.03475217,-0.26038639,-0.00686428,0.20666856,0.08786239,0.04959660,0.08384277,0.16296156,0.46518987,0.17675420,0.31682445,0.33163362,-0.39870148,-0.05483241,-0.33738345,-0.06510860,-0.07741751,-0.12621839,-0.10963390,0.42114715,0.42760195,-0.23686564,0.00782748,0.03433852,-0.08078309,-0.40114324,0.00670625,0.31375720,-0.31376962,0.36058421,0.08533367,0.45692865,0.14019450,0.42609668,-0.05465478,0.45953963,0.42509138,-0.23831111,-0.45864402,0.43714390,0.02759377,-0.30382282,0.31105161,0.49269050,-0.32605697,0.04745692,-0.02114210,0.41299845,-0.16666724,0.00399102,0.48845276,-0.23343419,0.37077659,0.12172999,-0.16067499,-0.09809576,-0.32109707,-0.26525543,-0.04345699,-0.27922901,0.06765621,0.41740339,-0.21081105,0.28578636,0.10259684,0.29519714,-0.06011523,-0.21561499,0.34228266,0.46153068,0.22343883,-0.40134449,-0.20537740,0.25049200,0.46419437,0.19923476,-0.01981350,-0.07280541,0.44220004,-0.18356785,0.02407966,0.07404586,-0.49041299,-0.01605937,0.19396274,-0.02676359,0.19095478,-0.37812058,0.46063371,0.39703852,-0.44451132,-0.07200120,0.21466067,0.07557817,0.18794117,-0.23338544,-0.31927968,-0.35671406,-0.05617923,0.13578889,0.15710962,0.48866117,-0.23828474,-0.40228595,0.24371889,0.30806971,0.09958685,-0.23858469,0.22932984,-0.09720184,-0.32143234,-0.39729067,-0.46128314,-0.46132243,0.33654366,-0.25968662,-0.16246227,0.22287810,0.28749656,-0.08693364,0.44268777,0.14324660,-0.17203581,-0.49853096,0.48106353,0.04041207,0.25809810,-0.48136297,0.23868355,0.27998177,0.05043766,-0.44758552,0.40496598,-0.04273540,0.38442320,-0.39448730,0.29615387,0.25514774,0.44811926,0.38593052,0.04568469,0.35072546,0.25591340,0.11535770,-0.38789682,0.34618550,0.48106949,0.14558514,0.34570338,0.25509965,-0.46757989,0.36474806,0.11881549,0.22670155,0.20769418,0.31804160,-0.39371683,-0.02146826,-0.15516465,-0.02989256,-0.15409606,0.01994874,-0.43240534,-0.21582191,-0.31456770,-0.37628339,0.32194115,0.21102329,-0.12816065,-0.47261779,0.36186087,0.41814797,0.35094922,-0.42540338,0.16404445,0.36299008,-0.22571681,-0.11628205,-0.39873899,0.10754136,-0.28154924,0.26817705,0.29789761,-0.33166510,-0.42648635,-0.44150671,0.25710473,0.03090330,0.36606919,-0.47352549,-0.15507470,0.26832411,0.09451515,-0.13995494,-0.39251683,0.05164663,0.30546197,0.44846003,0.32992102,-0.40129974,0.39868462,0.23213153,0.43245617,0.32985273,0.26509994,-0.23344286,0.44045141,0.06114509,0.01879201,0.19970866,0.49019439,-0.21475934,0.23887200,0.27820226,0.18134269,0.28338883,-0.30158182,0.39455326,-0.30843073,-0.20359967,-0.37918470,0.11152716,0.20460965,-0.03407535,0.15215723,0.32053330,-0.34177742,-0.13152999,-0.17683509,0.11227391,0.04014063,0.07481981,0.12178633,0.08006629,0.02045421,0.00482118,-0.04630887,0.06273903,0.48754374,0.12500513,-0.26882169,-0.13455546,0.10632921,-0.46850657,-0.33780668,0.42230811,-0.20625887,0.48229408,-0.35867345,-0.18647500,0.07699567,-0.35422308,-0.16036209,0.25443339,-0.22340440,-0.24738505,0.25143248,0.37479539,-0.08388314,0.31882740,0.06810597,-0.37504569,0.00277810,0.24784962,0.18802444,-0.04172788,-0.42128094,-0.13308028,-0.49308549,0.27358965,0.47247593,-0.45612478,-0.28943943,-0.33194830,-0.17173787,0.44498652,0.45560759,-0.05604914,0.39094496,-0.12449411,0.44914682,-0.16602358,-0.33880506,-0.08305625,-0.39287660,-0.26560981,-0.49033966,-0.41329523,-0.17468281,0.06443258,-0.25763748,0.30481171,0.22995398,-0.47482592,-0.34198749,0.33107059,0.17224190,0.03905890,0.41678842,-0.12913846,-0.44587774,-0.22122961,-0.19581730,0.17956688,-0.42573146,-0.27142230,-0.21610394,-0.01956929,0.36041355,0.00659048,0.34810548,-0.15312296,0.36459566,-0.23723516,-0.08157673,0.15305444,-0.22623480,-0.20228839,-0.03154194,0.36799853,0.33439411,0.48991623,0.28789192,-0.17893007,0.14400716,-0.37610841,-0.29524686,0.41099320,-0.35983368,-0.01617991,-0.15905236,-0.01397255,-0.28428576,-0.45162789,-0.40449580,-0.36147946,0.19785122,0.27463805,-0.40387914,-0.25476608,0.04970482,-0.14413150,0.05836228,0.22192657,-0.30701557,0.16242723,-0.34088741,-0.02195810,-0.05838292,-0.16593466,-0.38576716,-0.42887947,0.26601232,-0.46555498,-0.37298560,-0.13037604,-0.29727325,0.38100829,0.24438085,-0.45934170,-0.35369918,-0.43425386,-0.00347446,-0.10913188,0.15460027,-0.02914764,-0.17627722,0.31826318,0.38107472,-0.44764015,0.40977028,-0.07787107,-0.17470586,-0.30055879,0.03401605,-0.35278617,0.03032763,0.26445525,0.23660971,0.27126951,-0.35218186,-0.29246623,0.32416184,0.25149023,0.06740055,-0.20067018,0.47348321,0.43886186,-0.16143776,-0.13457422,0.12277554,0.13721870,-0.27841325,0.49807940,0.33122701,0.42306426,0.42837074,-0.09992665,0.38224651,0.33021616,0.37970768,-0.28192835,0.26713697,0.40797371,-0.09503399,-0.03369169,-0.19453047,-0.19667871,0.24981170,-0.21142112,-0.02184941,-0.14170738,-0.24271378,-0.19715254,0.15140133,0.21094493,0.28793298,-0.37045792,-0.37570407,0.20194320,-0.12490045,0.46140421,0.46390031,-0.01380471,0.45151332,-0.49515228,0.42969892,0.36887214,0.17965990,-0.47752550,0.10501638,0.27691118,0.04581458,-0.49897945,0.05445865,-0.07934032,0.04703359,-0.05791466,-0.40484032,0.33039220,-0.27510269,-0.07630417,0.15372371,0.45323046,-0.45701186,-0.06486108,-0.01048842,-0.24994160,0.18635620,0.21277429,-0.36925825,-0.12965545,-0.27268168,0.43407350,-0.05287981,0.49293591,0.02701058,-0.06222026,0.40504533,-0.49026571,-0.29798190,-0.49230819,0.38292360,0.41898674,0.11176736,0.40998059,0.20331517,-0.20230064,-0.15251341,0.15929474,0.23216116,0.44835204,0.25986717,0.27547548,0.32968166,0.33184616,0.08742325,0.20593768,0.13811959,0.42211895,0.11349664,-0.28205603,0.12649151,-0.44906444,-0.45402694,0.29913793,-0.33686323,-0.14081837,0.30860166,0.36472276,0.35363299,-0.45214613,-0.49212733,-0.13942578,0.48111782,-0.46649559,0.09120876,-0.38633725,0.12071514,-0.14121686,-0.22391702,0.01867446,-0.05678994,0.23844101,-0.37452393,0.11390330,-0.38201357,-0.45701006,0.07542766,-0.00437600,0.04816851,0.24487405,0.30182606,0.21843076,-0.02841288,0.02439546,0.37955542,0.29218772,-0.01862333,0.48240042,-0.31771148,0.06844251,-0.32687975,-0.13586603,-0.23382328,0.39254867,-0.33057796,-0.28025955,0.30497104,-0.43138977,0.41887893,0.32017032,0.15931342,0.19670623,-0.08740843,0.38384333,0.27387790,-0.01754890,0.02781844,-0.01762294,-0.22420502,-0.22608838,0.19373901,-0.11456678,0.07476656,0.43223105,0.35567691,0.27848158,0.07808026,0.33324128,0.04125926,0.14931857,-0.20819836,-0.33076461,0.31714867,0.30657991,0.17656753,0.44084100,-0.20581410,-0.42014217,-0.21459457,-0.15974413,0.22725677,-0.33155396,0.47732006,0.19250736,-0.49891250,0.36458997,0.32428626,-0.31237267,0.14796359,0.42846648,-0.39866361,0.48292638,0.13531789,0.22941673,0.16190056,0.49827382,-0.37325894,0.05247179,-0.07779592,0.48892016,0.08177283,-0.49516036,-0.03343534,-0.34277580,0.00137721,0.22520244,-0.08315570,-0.17799488,0.10056317,-0.10555709,0.23641737,-0.42213206,-0.07070482,-0.14777190,-0.00386865,0.22605075,0.08413478,-0.49002311,-0.45572726,-0.29601043,-0.08265995,0.08903268,-0.07346655,0.14075494,-0.23530188,-0.26579721,0.08921365,-0.22788062,-0.06857357,-0.13592235,-0.22282075,0.21898093,0.32563478,0.26039138,0.15022507,0.40805008,-0.02859487,0.22971728,-0.18405815,-0.14042796,-0.24779847,-0.18203892,-0.07397954,-0.30449307,-0.32028821,0.08935439,-0.17252135,0.26322096,0.44954480,-0.32607586,-0.28709136,-0.19699347,0.23229669,-0.30947266,-0.38538755,0.32482929,-0.29089312,0.08096973,0.33231334,0.48220174,-0.48628913,0.46293390,-0.25441445,-0.19161212,0.25982500,-0.01925505,-0.21348867,0.31139356,0.31654930,-0.13340796,-0.34010699,0.15274963,-0.02010132,-0.21809321,0.47615019,-0.16449991,-0.17728691,0.20969681,0.41476696,-0.04075555,-0.26744906,0.45647439,-0.36037643,-0.04237931,0.48019849,-0.30011018,-0.41738849,0.08500075,-0.41999992,0.03944957,-0.32444423,-0.14164322,-0.47460307,-0.22768189,0.26974598,0.07435688,-0.47783128,-0.22031938,0.40926288,0.42618876,-0.20436399,-0.30070630,0.02785508,0.21759989,-0.35515340,0.29700685,-0.15202040,0.28981420,0.16876146,0.42696186,-0.20824187,-0.19608274,-0.23140653,-0.29813869,-0.41679680,0.16168184,0.22913788,0.37723092,-0.23812082,0.36182734,-0.05478369,0.34809644,-0.06875760,-0.27361764,-0.40744927,-0.14853116,0.15136497,-0.22804716,0.23590312,-0.09330469,0.40167627,0.18662324,0.15130362,0.38586816,-0.28216001,-0.22646870,0.16272969,-0.34647598,-0.44173904,-0.31942450,0.12877383,0.39003123,-0.14070961,0.05641017,0.15520675,-0.14795492,-0.46159825,0.07241878,0.29027200,-0.26327609,-0.33710347,-0.34132175,-0.03762783,-0.26079048,-0.43367173,0.18448830,0.25905613,-0.34217747,0.34381024,0.49457904,0.47877574,-0.34066260,-0.44686834,0.49128534,0.36202378,-0.01642496,0.20972104,0.37226982,0.34379918,-0.42493470,-0.11630417,0.29074773,0.48710905,0.24380609,-0.23399741,0.03360771,-0.25129694,0.36894251,0.27443700,-0.38968042,0.41580850,-0.21186052,0.47170097,0.33033301,0.24313119,0.22865912,-0.35225402,-0.33849353,-0.04208616,0.46006135,-0.07297481,0.29494140,-0.48072905,0.46527566,-0.20812974,0.00011340,0.33101076,-0.40394600,0.37559399,0.39720773,-0.44843479,-0.06456665,-0.40250534,-0.23504669,-0.41304526,-0.01930584,-0.36433945,-0.25243854,-0.02658142,0.19294274,0.27658859,-0.44794959,0.24713314,0.35917690,0.26879219,-0.28814861,0.21857837,0.48477038,0.40381169,-0.10779223,0.07226847,0.45010793,0.08140049,0.47840894,-0.15246296,0.14771738,0.24592926,0.14512209,-0.31186713,0.04869618,0.35271604,0.43500124,-0.07956130,0.38794174,0.31506187,-0.00764871,0.34191509,-0.36727953,-0.08493424,-0.27194499,0.11671059,-0.43950784,0.00184538,0.13026605,-0.38833983,-0.24328866,0.17681599,0.44238504,-0.23197610,0.04740861,0.47727420,0.07446035,-0.26292018,-0.44965134,-0.11158549,0.04390090,0.29188012,-0.26526390,0.45091588,0.41354683,-0.39634881,0.24448953,-0.37859521,0.39020980,-0.29177904,-0.22259645,-0.49382150,0.41670575,0.23772215,-0.37983366,0.25168098,0.23597957,0.37576165,0.19500110,0.13080128,0.09040182,0.01976280,-0.39550757,0.14483233,0.09540160,-0.44794812,0.46952094,0.41008577,-0.43058168,0.49879990,0.37651631,0.21329160,0.33099088,-0.24613374,-0.35301619,0.06320703,0.00273832,-0.44815364,-0.15870505,0.42811112,0.40189828,0.04135720,0.45019481,0.00222448,0.16802717,0.05087351,-0.15855466,-0.29204272,0.08796611,-0.10032376,-0.14615663,0.05815524,-0.26502191,0.24617643,-0.42982101,0.16336192,-0.13546961,0.45122456,-0.09611942,0.37850095,0.28244328,0.19580951,0.23864723,-0.31371029,-0.28981903,0.15043747,-0.33793964,-0.31732069,-0.30185987,-0.15003476,-0.22420435,-0.27390303,-0.31910085,-0.06344317,-0.07458009,0.21990870,-0.32135723,0.14678933,0.11494457,0.49148691,-0.14050330,0.32533950,0.20858366,0.06157738,-0.00132755,-0.20344298,0.45227986,-0.35755138,0.27298219,0.24350921,-0.31775789,0.04560707,0.09648924,-0.18663299,0.36788298,-0.05590290,0.40529718,-0.41445926,0.06626737,-0.11626347,0.05154884,0.00958274,0.22490628,0.14430067,-0.16836231,-0.13833281,0.11587072,0.17495484,0.04387457,-0.30191772,0.32780162,-0.19883140,-0.04799812,-0.47913409,-0.18414812,-0.11229913,0.39496224,0.08975711,-0.08450826,0.37393907,0.03545595,0.30090491,0.09015233,-0.16611400,0.16030130,-0.15828598,0.15315723,0.25249447,-0.20350237,-0.44138830,0.13749376,0.14291956,0.09114232,-0.02396754,-0.17475652,-0.48973946,-0.44378353,-0.05735667,0.22006750,0.25330472,-0.48407579,0.49482809,-0.40334125,0.16197405,-0.22803604,0.17566739,0.11504571,0.23752234,-0.31404363,0.42895362,0.45659139,0.01777741,-0.39341515,-0.34876503,-0.27497217,0.40116969,-0.46946866,0.01476249,0.07768866,0.15303287,0.04802184,-0.03779748,-0.08315578,0.12079887,-0.33658891,0.36746129,0.48736996,0.12756587,-0.19513642,0.29563612,0.22991069,-0.26187357,-0.17318556,0.27881956,0.24120624,0.21211824,-0.47475581,-0.47548555,-0.39220307,0.36110089,0.13709503,0.03128494,-0.23538480,0.19090018,0.25937234,-0.14666826,0.20252806,0.40428183,0.32168546,-0.33732257,0.26011803,0.20477486,-0.36008590,0.38856726,-0.04072378,-0.21546091,-0.05767462,-0.27342862,0.33722519,0.46662226,0.26613536,-0.23323557,0.21801051,-0.49946095,-0.26116863,0.08964417,-0.24577174,0.41700078,0.41742338,-0.19436996,0.34458735,-0.19382289,-0.26915740,-0.06711543,0.41339107,0.03830369,-0.44268773,0.30061931,-0.05788193,-0.29090977,-0.49612814,0.34057812,-0.28320494,0.43737205,0.47982576,-0.47523031,-0.16046889,0.23940227,0.24105343,0.39219472,-0.07998281,-0.20559145,-0.37456028,-0.12200241,-0.24823306,-0.07707686,-0.20448389,-0.09555054,-0.35865586,0.28494767,-0.22241430,0.22876803,0.38230316,0.21487261,-0.11458137,0.01030843,-0.27848662,0.48775430,-0.17485899,0.34896812,-0.14021938,-0.06483393,0.06408795,-0.21953761,-0.09266193,0.45228981,0.37907254,0.02193223,0.06399107,0.48111557,0.03747136,0.48649130,-0.46404651,0.39911835,-0.33875120,-0.49255854,-0.38399351,0.14834084,-0.32938110,0.07451340,-0.26886784,-0.02683607,0.42221726,-0.29654342,0.47322250,-0.03855498,-0.28285498,0.03662539,0.04458240,-0.01617305,0.44521061,0.32417242,-0.27487182,-0.48300598,0.05919886,0.44751140,-0.33348985,0.35500885,-0.01552728,0.23201805,-0.13803668,0.04369509,0.10310180,0.30453043,0.05828568,-0.47690552,-0.44554971,0.20869452,0.01928955,0.12329024,-0.26064495,-0.01822071,-0.01973693,-0.36692437,0.10248337,-0.19205158,-0.39540025,0.32448509,-0.04594588,-0.31987777,-0.21650230,-0.13717917,-0.49222647,0.17090033,-0.35297620,-0.20790196,0.16748311,-0.30882143,-0.33865031,0.35582443,0.45766694,-0.04378714,-0.31573834,-0.40210216,-0.06240200,-0.42264513,-0.00532669,-0.13343346,-0.15142462,-0.21731647,-0.07173177,-0.03566891,-0.10178233,-0.01030904,0.03750688,-0.27262702,0.39402015,0.20628701,-0.47593583,0.39499761,-0.23694747,0.36467835,0.01197921,0.03144661,-0.35837375,0.14824463,-0.47825121,0.05338657,-0.41841632,-0.26331406,0.12808067,-0.25268242,-0.41119311,-0.02389750,0.32473460,0.49193835,-0.20640063,0.39621272,-0.00029699,-0.00699041,0.39673555,-0.12599615,0.24861472,0.15414203,0.35507794,-0.20272709,-0.17974320,0.45726479,0.49189413,0.38336502,0.25128734,-0.22905320,-0.26247517,0.15332036,-0.35283316,0.37560338,0.43386449,0.31335683,-0.23146076,-0.11205121,-0.27739853,0.04782008,0.22020411,0.12048587,-0.49017753,-0.25373630,-0.47564703,0.01291069,-0.21639828,-0.13515854,-0.49508178,-0.15494314,0.18890475,0.17202749,0.05695452,0.40877209,0.08962297,0.24279753,0.45392457,-0.06710217,0.15643422,0.05758134,-0.08592267,-0.36060264,0.24581130,-0.28821841,0.12249816,0.21869980,-0.43479859,-0.29563430,-0.20364381,-0.46077106,-0.14479437,0.47629520,-0.27303450,0.40935136,-0.04187130,-0.24745113,-0.02114143,-0.45802499,-0.22302022,-0.34185922,0.34537507,-0.30790848,-0.45128807,-0.26879151,-0.36615915,-0.07820819,0.33898378,-0.23755970,0.16657162,-0.01400345,0.28336661,-0.24801681,-0.06376334,-0.42312011,-0.00593659,-0.07297364,-0.37891519,0.22518742,0.44961914,0.20672197,0.12285475,0.41983044,0.06646438,0.01130581,-0.18532489,-0.13801129,-0.15534825,0.03579211,-0.37345412,0.07962834,0.36342714,-0.37767490,0.14203186,0.14755870,0.42667700,-0.00333024,0.22606046,-0.33407464,0.12446778,0.20341309,-0.24757877,0.37876964,0.06549526,0.33662266,-0.18561788,0.23672060,0.22459148,0.24421990,-0.08302416,0.30197314,0.13435595,-0.05336271,0.18613892,-0.07141171,-0.26889825,-0.32017484,-0.04446399,-0.33563527,0.13271278,-0.31813224,0.25115865,0.27966687,-0.35926910,0.03621908,-0.23410231,0.31905430,-0.34617860,-0.22048938,-0.45882564,-0.26826179,0.30899679,0.43249068,-0.42069125,-0.00956618,0.42329658,-0.36557911,-0.13055899,-0.48007420,0.48245723,0.07530759,-0.34775046,-0.39928082,-0.15936109,0.47461813,-0.03662769,-0.25650944,0.12615448,-0.36919678,-0.28172655,-0.39106988,0.19446102,-0.32263237,0.04641223,0.45289814,-0.43136117,-0.26616062,-0.38137887,-0.20606107,0.48342675,-0.02938919,0.17221044,-0.49907621,0.11618192,-0.17852320,-0.45111216,0.45827204,0.02121892,0.40258993,0.24525644,-0.20272716,-0.15996268,0.19460981,-0.25633222,-0.17744479,-0.45983332,-0.19747585,0.36795527,0.15695800,0.22526246,0.40871642,-0.32173125,0.26792880,-0.21455452,0.38848072,-0.45710309,0.10972754,0.10410429,-0.20846770,0.06616793,0.01390887,-0.16854453,-0.24782700,-0.31560287,-0.20382318,-0.17030413,0.00628547,-0.27215133,-0.39674642,-0.37521937,0.13187069,-0.29060842,-0.43773731,0.47837979,0.45162599,0.43214307,0.41652008,-0.31649172,0.35242386,0.01105572,-0.36070215,0.24321698,-0.19394354,-0.10588132,-0.35699190,0.01050829,0.48790330,0.22495167,0.23850282,0.14471340,-0.44344385,0.43175036,-0.13657037,0.18026616,-0.30174102,-0.47240396,-0.04291692,-0.01490242,0.16358492,0.13134098,-0.28038081,-0.29484878,-0.17828836,-0.03096553,-0.06437169,0.18712569,0.11208595,0.44669205,-0.08456798,0.28392338,0.17841189,0.28993402,-0.29945857,0.01801181,0.31496787,-0.26869427,0.23945436,0.39207385,0.46956373,0.25924632,-0.41762010,-0.22078080,0.20465084,-0.02698656,-0.26378381,-0.35544697,-0.35555023,0.40094384,-0.27005712,0.45783793,0.44715311,-0.20060349,-0.40964090,-0.47815171,-0.30153811,0.01749541,-0.40354020,0.25737072,-0.03213266,-0.42566221,-0.18995861,0.09077258,0.07716590,-0.29902909,-0.03170004,-0.34826391,-0.38125338,-0.09952431,0.26140086,0.07315685,-0.24439468,-0.34909146,-0.00863007,0.21281916,-0.40843503,-0.13495162,0.16134464,0.12598812,0.12286144,0.03451110,-0.05697597,0.26224377,-0.37129267,0.32207225,0.20329975,-0.00401433,-0.43853159,-0.29564118,-0.32792196,-0.39471248,-0.09889093,0.08466127,-0.31309813,0.28951595,0.24323953,-0.05872957,-0.03288867,-0.22908991,-0.31861008,0.06811197,0.03649044,0.05041415,-0.31993217,0.04502085,-0.46056572,0.29367258,0.49491732,-0.14104720,0.08539454,0.22239580,0.14522447,0.49377143,0.18388236,-0.28256350,0.48552005,-0.05874520,0.15597706,0.35572224,0.32137396,-0.30136544,0.12391261,0.05420445,0.33398690,-0.37893394,0.03464139,0.15966304,-0.32301857,-0.05027347,-0.22649172,0.24403802,-0.09664866,-0.19020783,-0.00739805,-0.39683563,0.09036943,-0.02761370,-0.40375756,0.07963193,0.03541049,-0.09512046,0.12156761,-0.42996378,-0.41743481,-0.47457346,-0.38339034,0.21248846,0.47017199,0.40775311,0.03306477,0.02777365,-0.16110282,0.20235956,0.13674019,-0.08479296,-0.10152878,-0.36086006,0.42681913,-0.07402319,0.09890931,0.12447245,-0.37572488,0.31527459,-0.24953454,0.14070223,-0.06438286,0.14633256,-0.44948567,-0.30792645,0.09685716,-0.46940063,0.37810602,0.18572378,0.36234820,-0.28741634,0.30791705,0.07292914,-0.49593902,0.31088965,-0.16979515,-0.30381863,0.28499319,-0.49901848,-0.02835317,-0.32988349,0.24109826,0.14309094,-0.22592040,0.17064369,0.08731434,0.09780288,-0.12033262,-0.05280934,0.18829857,0.18070396,0.11341105,0.47298579,0.39245046,-0.37556419,-0.18175613,-0.32959289,-0.02720761,-0.31134743,-0.14893400,-0.30804989,-0.06169294,0.31219466,0.10208457,0.25747864,0.13444967,-0.28989587,-0.33689305,-0.28768958,0.35725691,-0.04031399,-0.44036338,0.37132106,-0.35592496,0.48782505,-0.14744821,-0.49888916,-0.30292649,-0.10389502,-0.42586149,0.22484867,0.42366379,0.39406430,0.29868399,0.15472049,0.21521501,0.31244491,-0.32929351,0.41966149,0.49554869,-0.27104494,-0.47773164,0.12640090,-0.14273149,0.06349745,0.23323533,-0.32656408,0.11712282,0.35917980,-0.28060884,0.15245546,0.34242509,-0.02494270,-0.20539038,0.45042441,-0.00668799,-0.33661600,-0.49230810,0.44462117,-0.45506349,-0.07802869,-0.29732257,0.33363588,0.31176760,-0.32356291,0.32336070,-0.42025892,0.45247551,0.22059483,0.23552333,-0.40413001,0.15527170,-0.09439782,-0.49765231,0.41714841,0.13795491,-0.40908657,-0.24169839,0.14201799,0.46893239,-0.17141841,0.10223553,0.23597922,0.02536060,-0.38478012,-0.15152916,0.12517231,0.36651450,0.20506868,0.15766425,0.31299935,-0.24041810,-0.40172940,-0.21966989,-0.22643440,0.23109320,-0.20380157,0.37733397,-0.47002208,0.46457872,0.39780723,0.14767605,0.36955101,0.29332436,0.05570969,-0.36780550,0.34845341,0.31274044,0.39653244,-0.09359924,-0.28206809,-0.10825684,-0.09031084,-0.19237964,0.03229506,0.31549041,0.28829570,0.02387072,-0.34863328,-0.43538858,-0.26589403,0.02384041,0.05583629,0.47990079,-0.36630341,-0.02057011,-0.34535301,-0.13664180,0.12155048,-0.17840832,0.18330772,-0.42555819,0.26494664,0.15786234,-0.02003874,0.21104836,0.05542832,-0.21723934,-0.30674647,-0.31564451,-0.07563425,0.09606295,0.28011440,-0.24377248,-0.37934311,-0.48520485,-0.08418360,0.24968825,-0.21397481,-0.45740105,0.13386843,0.38678244,-0.15651923,0.44172431,-0.05954887,-0.12265385,-0.17136944,0.39895355,0.32499046,-0.24894841,-0.48729943,0.20002712,-0.11070047,-0.04132721,-0.05439392,-0.46474738,0.19603393,0.36680605,0.40489433,0.16439110,0.24804806,-0.07417981,0.06045315,-0.34919570,0.42613576,0.47815747,-0.30832267,0.01364467,0.23015745,-0.36784906,-0.43857849,-0.21147929,0.17998335,-0.46954016,-0.08633362,0.22300653,0.08603733,0.03185209,-0.07429004,0.22086320,0.32359678,-0.34914522,-0.17697121,-0.13134167,0.40013784,-0.36592281,0.33073581,-0.25750141,-0.28166831,-0.49960254,-0.01611067,0.07231629,-0.30737307,-0.15142830,-0.08036357,-0.31170110,-0.12858669,0.14839823,-0.21773574,-0.13549321,-0.02607068,0.38998919,0.41709416,0.07139605,0.41212047,-0.06906009,-0.18709638,0.36161539,0.16429523,0.41948899,-0.14542046,-0.03417367,0.06019855,0.03227272,-0.10338012,-0.27801902,0.19329315,-0.38405340,-0.32631113,0.05261263,0.01025214,-0.41658107,0.26778157,-0.30031879,0.39326682,0.49843609,-0.49196527,0.10909203,0.21692049,-0.29842531,-0.01595192,0.17154369,0.12852975,-0.29237602,-0.43145445,-0.46349645,-0.42427105,-0.39332299,0.04130860,-0.18284662,0.01904122,0.42756306,0.37732621,-0.22519770,0.16041066,0.11763010,0.13100439,0.02786588,0.17004878,0.13561078,-0.15206949,0.28465838,0.06510486,-0.31330363,-0.32336854,0.35388222,0.14055843,-0.46166344,-0.34780477,-0.46644803,-0.10360944,0.39399807,0.34171140,0.13865141,-0.25321384,0.18914106,0.40738549,-0.41814435,0.12748283,0.47440180,0.48118717,0.13870830,-0.07825203,-0.38718721,0.16058845,0.20905341,-0.03161715,-0.09316444,-0.32477029,-0.47431446,-0.02817854,0.45153628,0.10136937,0.20495981,0.22630821,-0.05052769,-0.24105200,0.10874066,-0.31310486,0.40401030,-0.32133565,0.09419960,-0.49697457,0.11398892,0.31843220,-0.43005021,-0.00904519,0.04437295,0.00984232,-0.33961046,0.12219985,0.39796259,-0.35538030,-0.33190890,-0.26261822,0.23366041,-0.26264039,-0.41996367,-0.42759344,0.32933088,-0.02393571,-0.45841690,0.12604740,-0.06251975,0.15205147,0.48300975,0.22189633,0.24120873,-0.46197420,0.44683399,-0.18471118,0.24051016,-0.29291597,0.10482149,-0.28388085,-0.18117962,0.19603391,0.19043717,0.28928359,0.28779197,-0.25320151,-0.28576129,-0.31084350,-0.45708978,0.13854697,-0.09832094,0.33696232,-0.36894551,0.35263289,-0.27084387,-0.29264069,0.20752142,-0.17112472,0.32358076,-0.15182565,0.37625597,0.37047643,0.07255019,-0.00884198,0.48327319,-0.48319978,-0.34911513,-0.17571388,0.30998496,-0.24748020,0.29256737,0.20905294,0.37272649,-0.05475840,0.24786017,-0.06826450,0.20462721,0.05044577,0.16295895,-0.23421416,0.37252584,0.25697375,-0.08449167,-0.18819514,-0.11802635,-0.12148763,-0.45242099,-0.25617140,-0.37153554,0.21864649,-0.39687427,-0.03662525,-0.07301817,0.44044515,0.16618441,0.33023350,0.00324948,0.44633060,0.48134912,-0.17473258,0.27325593,0.29888294,-0.29908794,0.19482965,0.10762384,-0.20364080,0.49126826,-0.08820229,0.40125478,0.30311564,-0.22542933,-0.20600167,0.07380231,0.19876847,0.27905810,0.32398831,-0.14570446,0.30336128,0.14005721,0.28252089,-0.31974315,-0.05670846,0.39211048,0.00104771,0.08083009,-0.22341382,-0.15098338,0.46748253,-0.23592392,0.35588484,-0.20387525,0.47982695,0.21837224,0.09997228,-0.19968215,-0.12728978,0.20276650,-0.31383201,0.11809569,0.24084519,0.16659085,0.09950562,-0.31309776,-0.40319773,0.17296787,-0.10960134,0.10339911,-0.27106762,0.11092592,-0.04797589,0.30057524,0.10982139,0.26551671,0.48801837,0.43332850,-0.02224892,-0.31931388,0.23306173,-0.05203389,-0.08653558,-0.18429969,-0.09457083,-0.37747382,0.07331109,-0.18017345,0.28953903,-0.26175758,0.02937053,0.46461974,0.20411762,0.12820104,-0.27411136,0.12377548,-0.39930210,0.36779722,-0.27934207,0.16500908,-0.07516781,0.04291187,-0.03198689,-0.29146856,0.31382852,0.16836714,0.40005426,0.44198963,-0.25154706,-0.09315979,-0.12940666,0.40902179,-0.26893420,0.17442988,0.35799615,0.45869693,0.44808311,-0.29085765,0.01000565,-0.22574347,-0.15475147,0.09230368,0.21534409,0.22545842,-0.13019621,-0.48451852,-0.45186769,-0.10017286,-0.03717413,-0.46112185,-0.08346828,0.45040894,-0.27122750,0.17735827,-0.19066398,0.34407930,-0.35781521,-0.39123546,-0.10631439,0.02594842,0.04005774,0.36806790,-0.10491402,-0.17254690,-0.13182526,0.31598434,0.19212698,0.14454905,-0.31316030,-0.48927940,-0.24275669,-0.05305503,-0.40723120,0.19308230,0.16688785,-0.33821141,0.28080330,-0.22851049,-0.20690349,-0.43998720,-0.40619304,-0.46608774,0.38386924,-0.06859532,0.28099943,-0.25234469,-0.36034618,0.03881377,0.08891351,-0.05658051,-0.25189190,-0.11855286,-0.24695609,0.03971311,-0.49315048,-0.11843845,0.17822652,0.20216582,0.25522142,-0.00908859,0.44235000,-0.35649638,0.36247520,-0.43373836,0.19949314,-0.47169460,0.25000791,0.20644306,0.15016175,-0.11091318,-0.17799133,0.49298668,-0.18103990,0.25880952,-0.37225923,-0.01930891,0.37776288,0.05621915,0.48921214,0.03765922,0.26889857,-0.45566298,0.49828843,0.19423720,-0.01325067,0.10062247,0.34724545,0.27227322,0.23343878,-0.06623885,0.23901607,-0.16363818,0.03969964,-0.48197555,-0.13114821,0.15421124,-0.26534658,0.41735222,0.09237264,0.43493686,-0.20837420,-0.45299722,-0.04280753,-0.42076131,0.00058173,0.07288954,-0.29138316,-0.30153724,0.35346195,0.10489603,-0.29742196,0.08842304,-0.18885520,0.27853156,0.45172084,0.05876638,-0.01335261,0.00966366,0.37869981,-0.44111478,-0.12667184,0.48345435,-0.47377753,-0.47467970,-0.29258340,-0.32701192,0.15016891,-0.06692281,-0.15369313,0.19607334,-0.07533850,0.06229629,0.03886868,0.17889763,0.08402528,0.33652527,0.28000171,-0.36784647,0.28500985,-0.36647151,0.34527283,-0.25230273,-0.09645999,0.01801237,0.43297431,0.11868824,0.23622454,0.09547712,0.25998331,-0.05842782,-0.06023831,-0.19359108,-0.36657170,-0.42945772,-0.26463555,-0.38266214,-0.44979798,-0.39506771,-0.10288020,0.09722985,0.09030129,-0.23028522,-0.39500092,-0.08010135,0.37288904,0.05253045,0.26868841,-0.32348206,-0.21829183,-0.25825420,-0.18433375,-0.07283072,-0.19813462,-0.11774641,-0.08125808,-0.31712036,0.38937710,-0.18397659,-0.11162481,-0.41998686,-0.48492754,0.36496414,0.35361858,-0.16440020,0.14779611,-0.15012611,-0.23484051,0.36069962,-0.45966240,-0.14993474,-0.15430192,0.22792130,0.26032003,-0.16505064,0.49012635,-0.19239417,-0.46757135,-0.20355826,-0.11906804,-0.16016164,0.16443348,0.03592492,0.21491998,0.37575586,-0.28736251,0.43188615,-0.38688794,-0.21474768,-0.20229023,0.38749329,0.00622198,-0.14291270,0.11321252,0.29757153,-0.29618323,-0.23031525,0.06170249,0.31329992,0.25395617,0.45882238,-0.14419057,-0.08882438,0.00690712,-0.34583288,0.49364362,-0.32823334,0.11277471,0.16499587,-0.26389761,0.40277587,-0.26096382,0.40519377,0.38024910,0.42995393,0.04108308,-0.28811604,0.14643373,-0.41513592,0.26231629,-0.15887312,0.48045168,-0.40017220,-0.24418379,-0.48398904,-0.08794540,0.15647404,-0.10641562,-0.24843639,0.10399041,-0.05059199,-0.30534353,0.25949139,0.13221221,0.36373887,0.33221808,-0.29405163,0.07730259,-0.23263856,0.22658936,0.05290398,0.01234573,0.20560822,0.48349779,0.23802493,-0.44419932,0.29781813,-0.05581828,0.45553999,0.29753325,-0.46189822,-0.40513634,0.43612860,0.06432637,-0.33950314,-0.41586532,0.33131591,0.13038247,-0.30882784,-0.03664839,-0.38913374,0.31561690,-0.02712304,0.31846783,-0.10335476,0.06848873,-0.02006351,0.05995052,0.47535803,0.41160326,0.16539488,-0.31425710,0.49457808,0.20049523,0.17937271,-0.39317838,-0.05013162,0.21628528,0.11778913,0.14714268,0.43971377,-0.17777733,-0.32681445,-0.46257423,-0.43263771,0.17697883,0.20514396,-0.22116823,0.07064280,-0.31910886,-0.48876961,-0.46385282,0.21584053,0.07686368,-0.42398861,-0.19346414,0.29223066,-0.31561528,-0.23903991,0.17490394,0.38828089,-0.09821018,-0.07886834,-0.10181766,0.20286633,0.32279293,-0.09774635,-0.19996060,0.18788385,0.45037877,0.24901883,0.22300336,-0.35975900,-0.07831782,-0.19561735,0.22896257,0.08951007,0.33530717,0.25400367,0.33126930,-0.42590080,-0.10927978,-0.45422608,-0.42252024,0.49621698,0.04492343,0.33573732,0.47698066,-0.43663194,0.32019500,0.42183188,-0.13106062,0.47418572,-0.01089741,-0.34428239,-0.34990192,-0.03267618,-0.26860253,-0.44235374,-0.42089814,-0.29291415,0.20152198,0.07305104,0.14306226,-0.03214739,0.08641564,0.31811377,0.39995522,0.08624994,-0.17478670,-0.30066931,0.45398450,-0.31268191,0.25842786,-0.01973950,-0.38058164,0.32302478,-0.13265608,-0.37119346,-0.43542935,-0.02442321,-0.02317601,-0.28749956,0.21686628,-0.47755290,0.07768286,-0.19172144,-0.01364702,-0.06072367,0.14443483,-0.22438911,-0.43012389,-0.06485190,0.37411435,0.12103400,0.14201286,0.24370426,-0.13970440,0.42808598,-0.33417560,0.06006636,0.35399330,-0.24903623,0.34517740,0.07824353,-0.25154230,0.14159078,-0.07918632,0.43439413,-0.43280773,0.49977525,-0.24955366,0.34666619,0.25321908,0.30816686,-0.32085734,0.45200331,-0.25493844,-0.18696489,0.32460868,-0.08667291,-0.10499854,-0.20156962,0.33299051,-0.00062179,-0.15253179,-0.00533659,0.35748610,0.09145198,0.02578653,-0.22696661,0.28157372,-0.40860354,0.08577249,-0.13077469,0.33681960,0.39474360,-0.18072363,-0.13398909,-0.09322903,0.06750396,0.44726223,-0.02105589,-0.46888888,-0.10642696,0.00571161,-0.30464295,0.03009885,-0.11137902,0.00125157,-0.17520675,0.24904728,-0.03205981,-0.26768912,-0.19764729,-0.35539358,0.48243488,-0.45909324,-0.09448997,0.48692499,0.27213808,-0.03007084,0.06994163,0.42584788,0.40000111,-0.31669594,0.07076955,-0.27288417,-0.19237708,-0.30105068,-0.35026470,0.01453317,0.23690338,-0.33882856,-0.47871162,-0.03411846,0.16426628,-0.07144553,0.48694350,-0.42257376,0.16897885,-0.46469395,-0.12297847,0.07384862,0.15490782,0.26489290,-0.01871605,-0.47040340,-0.21522994,0.36999404,0.16607223,-0.25079962,0.06677503,0.40415271,0.38811311,0.29647732,-0.15118107,-0.22707298,0.26669611,0.49480408,-0.33805439,-0.01046412,-0.01772742,0.29733574,0.13023188,0.38311207,-0.46394230,0.34775471,0.00767232,-0.18093551,-0.04286611,-0.20269694,-0.31014328,0.28429146,0.17010249,-0.45998299,0.22816671,0.48035563,-0.06682597,-0.07478969,0.18734098,0.33125903,-0.43101622,0.45810008,-0.35287222,0.12840540,0.22887385,-0.29957866,-0.21625728,-0.01209779,0.07368026,-0.20885633,0.32172671,0.44062261,0.42670799,0.44054970,-0.34986532,-0.32258814,0.48170452,-0.40202976,-0.31344838,-0.37678731,-0.44847549,-0.18472908,0.30309490,0.43538513,-0.40355855,-0.20617017,0.48963371,-0.23386784,0.22991691,-0.41540414,0.27051255,0.06287882,-0.38580905,-0.04470779,0.40526916,0.49381159,0.26953552,0.19244590,0.42367854,-0.18687900,0.29162701,-0.17205092,0.41325988,-0.24446355,0.34826411,-0.03033011,0.13993333,-0.28530778,0.48563715,0.30545442,0.04926583,-0.48786937,0.29025832,0.27197863,-0.49200675,0.43598086,-0.38001246,0.12310971,-0.22371458,-0.31561874,-0.38552709,-0.19234941,0.04790644,-0.36899831,-0.36347198,0.19309889,-0.02415399,-0.03875703,0.25664451,0.09086906,-0.41611745,-0.23474505,0.10459684,0.31455242,-0.12094030,0.11220353,0.04925752,0.38234512,-0.13398076,0.37435230,0.45181755,0.41358471,-0.29434656,-0.17044697,-0.08427918,0.38753423,0.36660371,0.16459937,0.01350005,0.32048857,-0.30927326,0.26577829,-0.10521424,-0.42123380,0.44029283,-0.46597505,0.39681796,-0.33145912,-0.38734399,0.04593356,-0.21182086,0.40113939,-0.10702090,-0.08404024,0.12440488,-0.04038733,0.16098710,-0.28259561,0.30942640,0.30949645,0.00278924,-0.38345837,-0.09592068,0.30435006,0.45034469,0.22471996,-0.07511558,-0.30744387,-0.01428576,-0.45493227,0.38249784,-0.05694434,0.05390115,-0.22187827,0.36507131,0.33982600,0.03925316,0.17506798,0.10731739,0.05704350,0.29948315,0.29830922,-0.08026564,0.39686527,0.34413735,0.47387482,0.10345666,0.36526505,-0.37068161,-0.33828896,0.01502129,0.14356738,0.24917539,-0.11420718,-0.20379070,-0.13941779,0.04761661,-0.15687524,0.23186170,0.12511734,-0.44550734,0.07915266,-0.40489629,0.29068234,0.05128465,-0.28330315,0.38947236,-0.01627697,0.21002367,0.03799897,-0.36176807,0.16079776,-0.43197165,-0.16605584,0.19928331,0.12955089,0.15954156,0.05844310,-0.11199868,0.30230822,-0.06603446,-0.23965787,-0.44673386,-0.38838855,0.31841391,0.47087353,-0.46606463,-0.41594536,-0.29714449,0.34125556,-0.28747058,0.07159121,-0.12106713,-0.08202616,-0.49247275,-0.49432789,-0.42173743,-0.01913512,-0.31247473,-0.10220176,-0.25489666,0.17756727,-0.05156009,-0.20348357,0.10682483,-0.32299953,-0.45894663,0.23142636,-0.43680366,0.10244453,-0.24581482,-0.46730991,-0.48753317,-0.18341739,0.05788233,0.42851688,0.44677508,-0.25896056,0.19245446,-0.36382266,-0.05225765,0.24288206,0.31621844,0.28722432,-0.41355699,0.32377267,0.15020752,0.38239439,-0.24081784,0.24212982,0.14075249,-0.29353968,0.00593912,-0.29477270,-0.16545103,-0.20959247,-0.10163534,0.41771585,-0.32944354,0.17687493,0.34957097,-0.39982563,-0.13592151,-0.16660419,0.00769994,-0.09298961,-0.38509947,-0.39760911,-0.10868068,0.13038518,-0.10894451,-0.30288982,-0.46761926,0.05658103,-0.04914862,-0.48512275,-0.00237488,0.19054915,0.12796689,-0.08546784,0.21195467,0.03721765,-0.39436938,0.23862233,-0.21082029,-0.07338296,0.41167586,0.35280905,0.35077626,0.32579614,0.37201205,0.46397242,0.39580335,0.28246246,-0.16386758,0.24816371,-0.03100906,0.03434323,0.26897395,0.06608977,0.05275228,0.14555668,-0.02751154,0.19710872,-0.33684987,0.33293969,0.28177919,-0.06774768,-0.30799347,0.23259056,-0.28776362,0.27456315,0.04820918,-0.21955806,-0.30981164,0.13698502,-0.48990427,0.19187478,0.12792895,0.29562227,-0.22154512,0.26086399,-0.40554293,0.37144518,0.40301998,0.22859440,-0.09446806,0.06746282,-0.48011858,-0.44578716,-0.05752248,0.22125490,-0.47794171,-0.13141094,-0.48150403,-0.31958882,-0.30630355,-0.48196325,-0.31536152,0.34180148,0.22323967,-0.06739596,0.42836912,-0.05212210,0.15273793,-0.07063392,-0.03995813,0.48075622,-0.13608391,0.25994942,0.03319213,-0.11391791,-0.10670709,0.08561427,0.37546017,-0.16230264,0.26964657,-0.01487059,0.04976621,-0.25565290,-0.07189468,-0.19410907,0.03859166,-0.37721473,0.32986629,0.17398820,0.00154495,0.31793585,-0.05771716,-0.10762781,0.02050565,0.17469160,-0.37038273,-0.06003792,-0.03234365,0.45061813,-0.26295715,0.32511864,-0.23142731,-0.30123884,0.30150044,0.41355878,0.36631431,-0.02020942,-0.11175062,0.11107332,-0.09580156,0.31789986,-0.22906999,-0.34610915,-0.47294019,-0.22731253,-0.40824831,-0.14982157,0.07185078,0.28258860,0.49387804,0.03325437,0.37876020,0.28607931,0.01387083,0.15778045,0.30170824,0.02367110,0.16022913,-0.39340171,0.37078271,0.05904322,-0.19413778,-0.26935213,-0.17195424,0.31189895,-0.42587764,0.39543023,-0.28638941,0.01569775,0.40512898,0.26156141,-0.20837477,0.04935022,-0.29288946,-0.31224309,-0.03295470,0.11669952,0.06285304,-0.10833712,-0.40635076,-0.30035241,0.21158125,-0.20704039,-0.45792113,0.42500881,-0.38759554,0.16734237,0.16191708,-0.07672692,-0.04702725,-0.24493671,0.01407332,0.03029862,-0.37018233,0.43956475,-0.25150959,0.36896398,-0.16129025,0.21405943,-0.03109794,-0.27310309,-0.40214580,-0.10442324,-0.23666507,0.28911025,-0.15294881,0.11705869,-0.17941146,-0.19258730,0.39526291,0.27144864,-0.06088643,0.41362202,-0.13131671,0.12084723,0.36749073,0.14302394,0.32393431,-0.37108952,0.31625614,-0.04289316,0.13187746,0.22698818,0.22766618,0.27186162,0.43577812,-0.33438923,-0.43249011,0.30267129,0.34696676,-0.06369067,-0.23561518,0.25213914,0.17520755,-0.38801176,0.34096094,0.29184181,0.27421492,0.13663601,-0.09188084,-0.04392303,0.26576825,0.31113004,-0.25760421,-0.27244768,0.04458758,-0.04020091,0.49072408,0.45897258,0.21430972,-0.47320160,0.47445696,0.19113863,0.33270606,-0.20349769,0.31107087,0.12910197,0.24780709,-0.36044492,0.47100426,0.18454658,-0.21482925,0.40751380,-0.46919217,0.16739475,0.08544124,0.40810386,-0.19512662,-0.14793479,0.19833923,-0.11702650,-0.38625743,-0.09987788,0.39657414,-0.36047957,-0.16834413,-0.40974749,-0.01129836,-0.14791925,-0.02666774,-0.16925339,-0.46398280,0.21972912,-0.42574280,-0.40729983,-0.15788487,0.39542688,0.21221238,-0.03696552,-0.12330956,0.29134428,0.10375780,0.20160118,0.09531066,0.26230319,0.33707796,-0.48404768,0.16285683,0.32957256,0.24413783,0.42452132,0.18623446,0.38428484,-0.13840539,0.08712863,-0.16607459,0.35594810,0.15988781,0.08778225,-0.18444914,-0.42107122,-0.21824416,0.29569704,-0.47797741,0.46578284,0.10937860,0.24481325,0.27424709,0.34734963,-0.35187639,0.00270459,-0.13166708,0.15806739,-0.29012593,-0.36136152,0.12058710,0.05014890,-0.36497761,-0.31753730,-0.22648434,-0.22276248,0.46360249,0.13800037,-0.13453293,-0.16480192,-0.43115060,0.41695427,0.21251835,0.28401583,-0.03360168,-0.04408538,-0.24032771,0.40894671,-0.39562783,-0.23397135,0.31547722,0.07287986,0.14642951,-0.20792940,-0.15491412,0.47840368,-0.47181069,0.01307419,0.13257805,0.11313842,-0.45941006,-0.43858793,0.09272451,-0.25797494,0.18474313,0.02231170,0.42999878,0.15005330,0.49255036,0.33298003,0.28589776,-0.43530369,-0.22029610,-0.31655905,-0.16938847,-0.44857649,-0.28158409,0.25468052,0.24825687,-0.31828151,-0.30626631,0.01565022,-0.14667665,-0.40163314,-0.35334858,-0.43015175,0.05108569,0.39972958,0.24252292,-0.37574479,-0.21856985,0.36447629,-0.21252230,-0.11007209,0.49660650,0.25182071,0.27332238,-0.43471447,0.06108557,0.00625044,-0.29452333,0.00975534,0.19426678,-0.11457631,-0.18604764,0.22757960,0.07391089,0.36568722,-0.19008444,-0.22624874,-0.11116221,-0.31363722,0.00107469,-0.18806172,0.47045623,-0.17094637,-0.33020031,0.07905088,-0.44844198,-0.07481535,-0.29563553,-0.25675066,-0.19792443,0.13766218,0.12977973,0.38005965,-0.19172977,0.11432063,0.32210738,-0.41307295,-0.06801453,-0.35361305,0.14955670,0.08483647,-0.45197879,0.43291446,0.25520485,0.40398713,-0.31696685,-0.26256346,-0.03128474,-0.28808698,-0.34735754,0.16541965,-0.03587349,-0.11678683,-0.16238087,0.48234659,-0.33654370,-0.08094709,-0.34641607,0.31268837,-0.03014151,-0.46767292,0.33408163,0.32015352,0.37070295,0.43998770,-0.24266616,0.07513447,0.29378322,-0.20865841,0.18455944,0.16160060,-0.07089106,0.24766040,0.27393819,0.24082809,0.12826242,0.43243082,-0.42753425,0.22275889,0.28061097,0.18079730,0.36927935,-0.37158890,-0.43533898,-0.23129473,-0.00110242,0.34332281,-0.22254996,0.43918800,0.18394906,0.01576898,-0.34721849,0.06081736,0.49765548,0.29898405,-0.08527541,-0.16781745,-0.02282775,0.26539783,-0.15454385,-0.41521865,0.42561126,-0.34016246,-0.49902731,0.44805818,0.06616498,-0.20520401,0.33716390,0.11585754,0.04878514,0.28587187,0.31886241,-0.03317904,0.28056587,0.07974354,0.48284852,-0.11619524,0.27352302,-0.13409911,-0.05060129,0.36578428,0.42864158,0.48190097,0.05760629,-0.11073120,-0.18734516,0.46365697,-0.10370720,0.05565231,0.09135860,0.36399578,0.43125506,-0.02358253,-0.03986357,0.00930786,0.06523902,0.13498632,0.19148216,-0.43813201,-0.35517864,0.10570005,0.03344605,0.20255515,0.42734496,0.38589451,-0.35721549,-0.28595588,0.16119205,-0.21837244,0.37163804,0.39421211,-0.44127962,0.10197343,0.44060749,0.00371370,0.08971322,0.06432868,-0.13605911,0.43377413,0.36323640,0.04340350,0.13462532,-0.24617179,0.03948551,-0.31287234,-0.32926716,-0.23729849,-0.41045141,-0.15198654,0.01685362,-0.20133277,0.46343219,0.06867476,-0.39797678,0.35693471,-0.49132141,0.40361459,0.24989081,0.06734567,-0.31544263,0.21606812,0.33415930,0.31117887,-0.45564461,-0.49515226,-0.05092834,-0.21892608,-0.12223035,0.38093852,0.26177702,-0.35083030,-0.41712889,-0.43672235,-0.00925361,0.44777107,0.03070487,0.19202213,0.03478141,-0.03339943,-0.30834053,-0.23053404,0.43644713,0.27993406,0.43880393,0.03138458,0.43880121,0.46302140,0.17895176,-0.18775972,-0.42604888,-0.23157350,-0.44751829,-0.13064254,-0.47406460,0.11978334,-0.04713362,0.24013035,-0.22167170,0.46071315,0.08104134,-0.32871813,0.07986448,-0.48546436,0.22411276,-0.21432813,0.28362484,-0.35666918,-0.45408646,0.12568139,0.07000429,0.41957791,0.03102288,0.01530446,-0.32655936,-0.20919023,0.25801153,-0.27870366,0.11200570,0.26919978,-0.13636240,0.35686710,0.44612581,0.37694475,0.43739179,-0.03875088,-0.07052015,-0.16527217,-0.11738291,0.13993925,0.28474770,-0.01710305,0.48187438,0.23787189,0.42418591,-0.03272341,-0.33578453,0.25352058,0.04276720,0.41989739,-0.10043394,0.13959425,0.35541684,-0.37815738,-0.15370574,-0.30618486,0.04882576,0.28438620,0.17457184,0.18911379,-0.08307785,0.11293609,0.26771034,0.30312609,0.37894579,0.26609655,0.02971776,-0.17576240,-0.22668548,-0.41306285,0.04472666,0.45975916,0.18163842,-0.42572160,-0.03110290,0.11792681,-0.25639521,0.32323469,-0.44651403,-0.18528821,-0.18634216,-0.01517084,0.12980223,0.05001895,-0.47471054,0.36177141,-0.45798702,0.33733327,0.22864815,-0.05471182,-0.12885044,-0.25233439,-0.40782661,0.38305472,0.42892503,0.05144855,-0.45109485,-0.45544821,-0.39575740,0.07921791,-0.02195989,-0.23641975,0.37297091,0.36345906,-0.09050491,-0.20132411,0.32482960,0.44327164,-0.44391638,-0.09847463,-0.03660702,0.02130907,0.25367644,-0.32157589,0.44606963,0.32929171,0.21464598,0.47782005,-0.34405819,-0.26111826,0.19168025,0.33663773,0.02082527,0.02614592,0.49082383,-0.30258534,-0.38089987,0.35359327,-0.26577935,-0.31512713,0.35155646,-0.40084136,-0.39954226,-0.10977054,-0.46220839,0.35309692,0.47254580,-0.42609097,-0.13689463,0.06487673,-0.09095071,-0.25844777,0.24246648,0.24541932,0.16308159,0.21246421,0.15751636,-0.17493391,-0.49432826,0.18220560,-0.23232692,0.41828061,-0.49419147,0.01610606,-0.42582278,-0.49980364,-0.40556474,-0.02493202,-0.05678667,0.05193002,0.32520377,0.36866235,-0.12703632,0.37567969,-0.22467793,0.21576629,0.26075446,-0.05136852,0.34351307,0.28485314,-0.19009526,0.15147659,-0.49854178,-0.48605326,0.11206617,-0.11332051,-0.47290289,-0.38975303,0.16951739,-0.10542695,0.02167156,0.09122951,-0.35628800,0.32018923,-0.15441483,0.40715511,0.32706216,-0.04196337,-0.05884296,0.17762678,0.02289417,-0.13702933,0.37017729,-0.45286721,-0.44510358,-0.01313298,-0.11005914,0.41789951,0.28282778,-0.39392798,0.02366839,-0.23262875,0.04069390,0.03603742,0.47021463,-0.30900822,-0.39070957,-0.36420463,-0.21028006,-0.21447353,-0.13854231,0.00346744,-0.02037359,0.14036141,-0.33667515,-0.40080646,0.45170065,0.11008507,-0.34795850,-0.19682945,0.07226022,0.25023524,-0.25434221,-0.07909329,-0.48066858,0.06051603,-0.05027550,-0.49741285,0.11019266,-0.27135704,-0.29459923,-0.49056073,0.29940151,-0.17432060,0.25346959,0.41697666,-0.27504304,0.02367383,0.49573528,-0.35225575,