0.24865086,-0.09145140,-0.44522631,-0.30089295,0.48562378,0.14701395,0.47257852,0.33247914,0.43099889,0.23278612,0.38006312,-0.35965262,0.36990376,-0.03687843,0.01931474,0.25917246,0.05262197,-0.46188385,-0.01438243,-0.04871928,0.01156967,0.15979490,-0.38676917,-0.25587862,0.19169589,0.00609578,-0.23153417,0.16759108,-0.19869496,0.18256383,0.17535522,0.21322682,-0.09033215,0.20555231,0.22704979,0.47900317,0.35025570,0.26269073,0.24595250,-0.12496653,-0.21705286,0.35615670,0.15494535,-0.42338083,-0.08865777,0.09537473,0.10257147,0.45914720,0.30087472,-0.46340630,-0.03402927,-0.19245801,0.35698720,0.45457959,0.15463619,-0.44390465,0.45434183,-0.04428064,0.27748194,0.35081542,-0.32011614,-0.11305849,-0.06891706,0.17911090,0.29038808,-0.35156803,0.18458098,0.43503502,0.12021271,0.37936688,0.05516777,-0.18664134,-0.43645698,0.27899418,-0.31932640,-0.08341105,-0.29057173,0.35997110,-0.03583109,-0.00240183,-0.36542930,-0.35738614,-0.24105767,0.41937005,0.23813502,-0.37054590,-0.12014922,-0.27283009,0.30910396,-0.22813926,0.44282986,0.13385503,0.18911425,-0.46825429,0.16615284,0.04035260,0.25795518,-0.08331509,0.44406254,-0.06978509,0.41842859,-0.40829764,-0.17485476,0.44442045,0.20705620,0.02852827,-0.28008596,-0.30227654,-0.49066999,0.43414833,-0.13322721,0.29866917,0.39536934,-0.37895464,0.07599452,-0.33947577,0.06755731,-0.49478877,0.20060635,0.09381211,-0.15965892,0.46731198,-0.04754303,-0.00943334,0.43767078,-0.39947289,0.33616843,0.26947204,-0.14286278,-0.49449717,-0.32689592,0.07355102,-0.39825588,0.23891568,0.38741900,-0.03788681,0.40079291,-0.38252794,0.10290758,-0.37534274,-0.30468647,-0.07201741,0.01741108,0.41241663,0.05693893,0.46212244,0.06090132,-0.05551964,0.28566251,-0.06776973,-0.08125198,-0.24346692,-0.09007696,0.31323710,0.31558425,-0.44595801,-0.30784417,-0.03854169,0.35338864,0.05665783,0.28784314,-0.45992642,0.08143258,0.17323389,0.12745027,0.49331368,-0.48837667,-0.31254515,-0.25324265,0.18934480,-0.01358256,0.01511182,0.31876599,0.29715566,0.44765290,-0.29710528,-0.11151615,-0.47225166,0.32611313,0.13994158,-0.19066973,-0.26344128,-0.01002113,0.03159579,-0.04672250,0.06758915,-0.03650537,-0.43144222,-0.25324207,0.19962854,0.46177643,0.20014141,-0.02094504,0.08167093,-0.18424573,-0.45576449,0.04035963,0.15583642,-0.02586915,-0.09265957,-0.45861015,0.06459202,-0.02786065,-0.10469858,-0.21123884,-0.20136866,0.22484451,0.07752346,0.01956958,0.03311692,-0.09081394,0.46685245,0.03459216,0.15075867,0.36560271,0.49611459,0.40845909,-0.48555657,-0.47367348,-0.24487939,-0.29202470,0.05599065,0.01814698,-0.42331278,0.47975477,-0.20869688,0.39074418,0.28433349,0.48594448,0.07509052,0.28275176,-0.27688764,-0.10012853,0.43259371,-0.05303357,0.20076754,0.49468654,0.13028286,-0.40126391,0.12063953,0.36669066,0.39511785,-0.46255747,-0.01586418,-0.23880885,-0.11665890,0.23467278,0.30886594,0.15789364,-0.47342853,-0.15167174,0.44351852,0.49679270,0.02133969,-0.49473346,-0.19571650,0.04326702,-0.10890947,0.48579579,-0.02253492,-0.23002844,-0.43777892,0.11429335,0.31540587,0.38733969,0.11167302,-0.10652643,0.15716470,0.20887531,0.17383836,-0.34496220,-0.49380761,0.44449526,0.27780670,-0.30323237,-0.32181114,0.22449774,-0.12078991,0.21261738,0.03677931,0.24816496,-0.29005542,0.04963157,0.25878305,-0.30096481,-0.17559630,0.23764677,-0.12866901,-0.33124987,0.38408081,0.12191908,-0.08601555,-0.21193982,-0.47268432,-0.08169901,0.24000736,-0.41080818,-0.47140017,-0.02499904,0.14786080,-0.42321856,0.20298435,0.17331919,-0.18141070,0.07582769,0.07973632,0.40803292,0.23833308,-0.30981574,0.42001064,0.03125151,-0.17965604,0.18934716,0.40746993,0.00287351,0.31247583,-0.30702649,0.20360247,0.21085592,-0.25682711,0.26845429,-0.40013351,-0.01519692,0.44779323,0.18098380,-0.08543073,-0.36529122,-0.49601114,-0.28081156,0.31933190,-0.02750623,0.39589249,0.09076378,-0.44463740,-0.29910397,-0.14118296,0.07565143,-0.36459079,-0.01462470,-0.41416921,0.04517727,0.22150694,-0.14587229,-0.48695317,-0.21897265,0.06975683,-0.32700894,-0.39802611,-0.00772726,0.14520290,0.11344302,0.17091616,-0.01283936,0.32938567,-0.26082291,-0.11951307,0.02066579,-0.06724143,-0.42431261,-0.19602085,-0.43627027,0.07166025,0.41058500,-0.26644251,-0.18340052,0.21369427,0.04475019,-0.00387597,0.29793269,-0.40942655,0.28116146,0.24406807,-0.19008615,0.21533273,0.42389983,0.47164706,0.11049949,0.37618182,-0.42435128,0.39043244,0.00274497,-0.37599315,0.40551222,-0.20503884,-0.41902053,0.00541236,-0.07552756,0.09956580,0.07456571,0.33466827,-0.00242529,-0.46688101,0.02500340,-0.46597587,-0.13642376,0.07231646,0.29408772,-0.21561123,-0.07366156,0.10917056,-0.17818197,0.22210594,-0.16108532,-0.44828309,0.30876511,-0.16417431,-0.16547045,0.07643012,-0.38554954,0.07482359,0.32274971,0.33644113,0.14505876,-0.09633466,-0.05946088,-0.34855483,0.31906229,0.35001505,0.12036952,-0.48426634,-0.20720668,0.20543570,0.38613231,-0.12528296,-0.12030546,0.46462883,-0.38574604,0.33654675,0.41854841,-0.08952630,0.09408925,0.39854812,0.39698498,0.30497512,-0.44789936,0.42162245,-0.11280049,0.29748498,0.43196666,-0.37145302,0.28691006,0.03872270,-0.00686818,-0.10417121,-0.16681692,-0.27957875,-0.33100946,0.24559993,-0.26297337,-0.49692663,0.03642455,0.09638538,0.33461793,-0.11758241,-0.41179265,0.34035728,-0.40496532,0.11267550,0.31593017,0.26102292,0.24014115,0.14417898,0.37577823,-0.01917906,0.26873800,-0.21593978,0.14917910,0.00158807,-0.11350568,0.37325467,-0.13783655,-0.26101648,-0.07121605,-0.25828698,0.24407689,0.35398221,0.45070868,-0.18510094,-0.01556401,-0.20504482,-0.18889739,-0.42831888,-0.18386972,0.48765576,0.44096348,-0.22670585,0.15622165,-0.13575849,-0.17899069,-0.10593793,0.09335425,-0.21569784,-0.48518137,-0.36647457,-0.22935464,0.41196526,0.28824925,0.00534346,0.29880039,0.35744382,-0.45115115,0.32385652,-0.02458824,0.02066290,0.48557380,-0.11015819,0.10681384,0.22500228,-0.34672561,-0.34997545,0.10934382,-0.44522984,-0.10284386,-0.17859095,-0.03780231,0.44493814,-0.26943245,0.45725048,-0.20996837,0.32492008,0.14074585,0.43959384,0.25839702,-0.26042065,-0.29496382,-0.09680431,0.25922474,0.13892163,-0.48043553,-0.43982199,-0.12476942,-0.42097721,-0.29281443,0.27573779,-0.20875496,0.14413023,0.02044934,-0.25753153,-0.21047365,-0.15547434,0.18466128,0.49370775,-0.33914054,-0.10489684,0.33272141,-0.44460114,-0.02518056,0.17752357,0.47733033,0.39031210,0.29944361,-0.26307688,-0.08282542,0.17377045,0.41471947,0.02773661,-0.38941826,-0.05778725,0.18235243,-0.05934071,0.08714129,0.13920530,-0.41876711,-0.46663072,0.13242243,-0.18453439,0.34251445,-0.06430237,0.35779866,-0.02483608,0.39110543,-0.26162897,-0.26165400,-0.15833782,0.45877860,0.43418792,-0.43667005,-0.06150370,0.09774686,-0.20501056,-0.43066966,-0.05769933,0.23912550,-0.16166557,-0.37141236,-0.36893530,-0.32881672,-0.43555003,0.02054103,-0.15855031,0.39013216,0.40169729,0.43175516,-0.22469765,-0.19040855,-0.36018802,0.34837990,-0.12304512,0.18285373,0.47728490,0.34627982,-0.24949296,-0.24781803,-0.13579264,0.18594082,-0.26785900,-0.23946017,0.48461257,-0.39049010,-0.40628363,0.27265559,0.33150237,0.09146078,-0.32405776,-0.24246718,-0.14356056,0.03501489,-0.36567823,-0.30919781,0.25156522,0.38142703,0.04229177,0.13150684,-0.06987041,0.45478824,0.13496197,0.16472151,-0.05351627,-0.15620819,-0.47994580,0.04418234,-0.27400416,-0.13569551,-0.02090854,-0.00189224,0.43005046,0.37164034,0.01737929,0.39540639,-0.20222801,0.22693160,-0.15001826,-0.23448686,0.06084514,0.38216225,0.24000274,-0.14986345,0.38221286,-0.00320935,-0.00659844,0.11416914,0.24625098,-0.20340782,-0.12137845,0.41126902,-0.38647148,-0.00325386,0.34612489,-0.22039685,-0.18784826,-0.27154945,0.27887425,0.28141425,0.11441784,0.46205053,0.14683301,-0.04496254,0.03298509,-0.17554865,0.47095087,-0.25997580,-0.30609298,-0.39097988,0.40576326,0.38839007,0.43213152,0.37262021,-0.27858509,0.06297011,-0.18477364,0.36048707,0.36798196,0.42605260,0.17719082,-0.29850237,0.24993074,-0.10004237,0.01708178,-0.18447902,0.20176936,-0.06412302,-0.23910605,-0.45616885,-0.32529969,0.16596988,0.49540666,0.17268681,-0.37361787,0.01902083,0.05962095,-0.43777140,-0.43025663,-0.33054558,-0.30129536,-0.46495427,-0.28062355,-0.00214004,-0.26304186,0.39689483,-0.25315896,-0.09848413,0.30626137,-0.29007109,0.18482928,0.46545798,0.14785863,0.33960577,-0.03230363,-0.17120659,0.25735128,0.24374505,0.03174380,0.37755016,-0.36091449,-0.38586789,0.46914253,-0.13186231,-0.20747714,0.18954118,0.17246396,0.45452777,0.42206254,-0.15922442,-0.18113484,-0.30950958,-0.17163313,-0.30581501,-0.02435422,-0.36623531,0.20526777,-0.15921687,-0.47231049,0.20226481,0.05266795,0.49122254,-0.02594168,0.00183507,0.07524319,-0.25779111,0.36037216,0.18346101,-0.20173513,0.18342456,-0.00439872,0.49307009,0.41424582,-0.13397881,-0.45945468,0.30458590,-0.05440625,-0.08631977,-0.17202821,0.15658814,-0.18372040,-0.48426082,0.39428109,0.09562988,-0.08639021,-0.41421745,0.39576262,0.35620036,0.37416304,0.26418101,-0.21149030,-0.16233048,-0.38625456,-0.10026562,-0.42350692,-0.12459405,0.33336161,-0.33885940,0.10380706,-0.41632648,0.05913466,0.45405416,-0.08528541,0.38326162,-0.06720483,0.02092639,-0.28803771,0.45173391,0.23819790,-0.04675214,-0.41690849,-0.33104889,0.41990746,-0.05224721,-0.02150433,0.20864845,-0.11354928,0.16140082,-0.11194289,0.26459619,-0.29868050,-0.37127522,0.19581305,-0.21472734,0.47293007,-0.07499572,-0.47103720,-0.05568286,-0.21430625,-0.45359065,-0.24477038,0.28395719,0.41863644,-0.44193830,0.42058303,-0.09735396,0.09457697,0.11899396,0.01440924,-0.28490860,-0.01248390,-0.48104922,0.49823463,0.39866753,0.49053018,0.48582275,0.16414934,0.20272165,0.20059338,-0.33573031,0.08860983,0.09615833,-0.09303240,-0.20207122,0.12798120,-0.06035222,-0.41428863,0.47627019,-0.45077923,0.40444624,0.37545645,0.03589843,-0.29062516,0.09459558,-0.08435976,0.29711561,-0.22823517,0.01096607,-0.04587125,0.24812941,-0.30738581,-0.49922458,0.05458333,0.25054487,-0.31332517,0.34922966,0.01754393,0.32803301,-0.09544975,-0.15774490,0.23072721,0.15016421,0.21028332,0.37674399,0.25196066,-0.08085250,0.42407650,-0.11554352,0.13673815,-0.42674363,-0.41764541,0.32825008,0.43349177,0.17339940,-0.10718114,-0.36176178,0.41001582,0.44399907,-0.09712056,-0.16539370,-0.11827094,-0.31310712,-0.43477341,-0.20948283,0.30892761,-0.03676463,-0.05466368,-0.40055316,0.34108666,-0.29868647,0.32766452,0.10969367,0.46879863,-0.03351248,0.20245878,-0.13212841,-0.17749605,0.46717579,0.29848892,0.28132238,-0.43147597,0.24271200,-0.00130867,-0.25639125,0.42252286,-0.42723939,-0.21606597,0.47566238,0.23879013,-0.01559791,0.37371644,0.24694765,-0.02723930,-0.48906222,-0.48535019,0.40325938,-0.25466314,0.24199066,0.30031529,-0.45151026,-0.32286195,0.30207796,-0.48136575,0.21168624,-0.37685798,0.48439800,0.47218573,-0.35526320,-0.06483407,0.08240140,0.47530133,0.35272245,-0.03791893,-0.11834115,0.28083358,0.01630535,0.33738772,-0.35629838,-0.24464573,0.46567991,0.17465682,-0.03290362,-0.43862921,-0.45792205,0.09043700,-0.38450640,0.26896983,0.48242788,0.21481638,-0.12390640,-0.19226419,0.34505731,0.07386250,0.19520774,-0.15197773,0.44220911,-0.31265983,0.27513420,-0.06547595,0.18725802,-0.30546586,-0.13232516,0.22519876,0.23770986,-0.37777651,-0.46417839,-0.06080574,-0.00994335,0.49181707,-0.40034505,0.47009000,0.35851986,0.46951751,0.24652973,-0.42685835,-0.43781791,-0.41731788,-0.38178862,-0.25219036,0.14353934,0.19924444,0.10165540,-0.28471881,0.16444109,0.28324717,0.16604312,-0.48543642,0.22914020,0.37899759,-0.06586124,-0.48480429,-0.37217583,-0.16113676,0.20987195,0.49936682,0.18148720,0.17873254,-0.34837779,-0.45185156,-0.27331134,-0.29659718,-0.09648076,-0.18409117,-0.25283410,0.38698611,0.10916997,-0.24535135,0.46864443,-0.03778584,0.20824097,-0.08138634,-0.09540932,0.34758768,-0.14002484,-0.40591840,-0.09617581,0.38709388,-0.35710385,-0.26130900,0.25845602,0.32717237,0.10207249,0.30991492,0.46298900,-0.03126724,0.14301083,0.27121841,-0.31695428,0.28134531,-0.08180697,0.26843997,-0.09909278,0.34804409,-0.38525371,-0.44830341,-0.19637570,0.17001275,0.00278678,-0.14290157,-0.36157036,0.44867877,-0.28255660,0.46027868,0.09201676,-0.43963961,-0.31559380,-0.21784727,0.05733258,0.35886205,-0.49478931,0.10787585,-0.24758875,0.46850736,0.19923805,0.46105994,-0.42741353,-0.09683988,0.47450603,-0.11241887,-0.08468096,-0.07593170,0.33370855,0.05245969,-0.29786778,-0.18474095,-0.48846655,-0.30100092,0.07698257,0.44406213,0.42160921,-0.14747631,0.03356043,-0.05156359,-0.26794978,-0.22124885,0.43357873,0.05055318,-0.00010302,0.31721051,0.28268634,0.04698883,0.41751295,0.23437832,-0.19988332,-0.08165398,0.19432547,0.39755827,-0.18195013,-0.49750995,0.27531634,-0.33924451,-0.43027948,0.49298353,0.39770982,0.06617831,0.00777777,-0.09130543,0.28035103,0.03439009,-0.48770193,0.06724780,0.20542135,0.07066520,0.24725980,-0.37055646,0.15698101,0.03433778,0.17856595,-0.35539364,0.31880232,-0.00542542,-0.01985174,-0.21066690,0.23468194,0.20287573,0.27493275,0.41534673,-0.41355071,-0.01383577,0.30039305,0.21489490,0.20785681,0.02933892,0.45720434,0.13289139,-0.38066667,-0.32957219,0.22190345,-0.45116499,-0.45759243,0.28161691,0.16187805,-0.12602484,-0.21269345,0.29020735,0.33770671,0.41054091,-0.07789357,0.20448618,-0.07682911,-0.04392539,0.27062300,0.20737881,-0.43184728,0.18471499,0.10377641,0.16068514,-0.10554661,0.03740306,0.21903551,0.45070938,0.29888828,0.19149009,0.20613838,0.03302573,-0.12901780,-0.08045447,0.19769595,-0.20879231,0.11684986,-0.39295751,-0.49353376,-0.03432405,0.11799818,0.00076474,0.06552433,0.00142544,0.38970817,-0.23448323,-0.44389485,-0.14975179,0.05575806,-0.14096979,0.32325888,0.33547602,0.41855311,0.35829249,0.19829658,0.45358773,-0.19259609,-0.06766022,-0.09007052,0.40983682,0.10126027,-0.06877224,0.14616053,-0.01962507,-0.37426024,0.33448710,-0.27270369,-0.48340488,-0.22552423,0.41047134,-0.37616185,-0.32828744,-0.19306392,-0.34473618,-0.27941692,-0.09525710,-0.12289836,-0.48153022,-0.18651480,0.44213041,0.11168056,0.26129623,0.13663579,-0.28786864,0.00916159,0.14320749,0.30369295,0.17110214,0.34354494,0.42701320,0.24726035,-0.14783033,-0.04297022,0.32222484,-0.16496724,0.36177058,0.20645324,0.13219355,0.25565848,0.23177859,-0.21887589,-0.25396356,-0.31348094,0.42289069,0.19600109,-0.09175906,-0.48380347,0.40610646,-0.27627064,0.25489425,0.25885162,0.18203564,0.05320363,0.44555066,0.11094352,0.44484127,-0.49684670,-0.15129032,-0.31547925,0.30296010,0.05905912,0.49210261,0.27844924,0.03282610,-0.35804135,0.33867561,-0.32967201,0.18382396,-0.39064236,-0.37630652,0.06992195,0.04754061,-0.30704842,-0.27685673,0.10908046,-0.25192596,0.00349000,-0.20801005,0.38191363,0.32737643,-0.46837318,-0.33002270,-0.34663247,-0.34753752,0.34087145,0.10481231,-0.25321354,-0.06539088,0.02421956,0.31161815,-0.11507323,-0.12009477,-0.08252150,0.47501326,-0.37736576,-0.13271754,0.08499360,-0.31431518,-0.12650267,-0.22485882,0.08075820,0.03191988,-0.34908709,-0.09717536,0.01654163,0.28642529,0.13396881,-0.04670215,0.38039783,0.00681702,0.41132931,0.13317970,0.21338236,-0.38134210,0.05262911,-0.13814812,-0.48299379,0.39814797,-0.07242898,0.17431316,-0.00407530,-0.32524071,0.13269297,-0.01993671,0.11900470,-0.30392972,-0.31621352,-0.48340373,0.37769365,-0.45642190,-0.38463878,-0.46939046,0.32368187,0.23044778,0.19034898,0.36559518,0.31649846,-0.05511456,0.02973363,0.38812291,-0.35099499,-0.14870677,-0.38672007,-0.11726855,0.45719002,0.09672955,-0.28829178,-0.21070493,-0.21674748,0.43677053,0.28696180,0.32511782,-0.12349806,0.47591056,-0.32589470,-0.25600632,0.40460742,0.41779836,-0.47541043,-0.24765710,-0.14818763,0.07199569,-0.16300687,-0.31431065,0.43813004,0.08734517,0.11587129,-0.06614754,0.27235394,0.40166396,-0.36276975,-0.21573736,-0.11983887,-0.44826092,-0.20455787,-0.12132298,-0.48537887,0.28294936,0.20965894,0.24327799,-0.34851609,0.41280865,-0.30930642,-0.18677472,0.49665200,-0.42440233,0.16766321,0.40486635,0.08524306,0.07076890,0.12767926,-0.36906005,-0.40410462,-0.45962101,-0.09043229,-0.37609595,0.45883963,0.17746911,-0.16400995,-0.17232912,-0.27920254,-0.25476823,-0.43273709,0.47938248,-0.10454961,-0.22365716,-0.18485060,-0.06317615,0.16315699,0.38580551,-0.15585810,0.47210742,-0.02210651,-0.20925001,0.25485532,-0.01426682,0.49858544,0.19725804,-0.03022421,0.42135663,-0.04911333,0.00101572,0.16450894,0.16197884,0.37799106,0.27166551,0.01771031,-0.22222305,-0.15523455,0.11273354,-0.24096354,0.24745241,-0.20278024,0.14924316,-0.00710150,0.47885819,0.31756960,0.30625122,0.27099428,0.10403538,0.05987112,0.49515127,0.19346865,-0.29729210,-0.08172372,-0.33152748,0.08128157,0.29526938,0.20209039,0.17280688,-0.27997498,0.08669555,-0.39595273,0.08330823,-0.29927481,-0.45862038,0.28258294,-0.05751556,-0.03364057,-0.43678117,0.07835282,0.47087250,0.15254990,0.32216424,0.00035484,0.43960252,0.09369175,0.24955381,0.31108444,-0.02325208,-0.19516582,-0.38682801,0.28161391,0.35779110,0.15953975,0.15595847,-0.16675336,0.07792545,-0.22181922,-0.33267714,0.47438069,0.38540891,0.20619300,0.36652252,0.17435131,0.43777982,0.42034151,0.07005164,0.14702119,-0.21845365,0.23426807,-0.34497191,0.11050400,-0.07821058,0.12016618,0.41408352,0.17600925,0.20561548,-0.49106425,0.22107354,0.22672499,0.37285150,0.13147410,0.02488454,-0.18826132,-0.25138928,-0.38619361,0.27219238,-0.39194963,-0.27636211,0.14784469,0.05570046,0.36216899,-0.35919539,-0.15248634,0.38304904,-0.43419170,-0.15035843,-0.37541263,0.08226158,-0.29129012,0.13363130,0.34444763,-0.12327840,0.28883577,0.43269173,-0.14832822,-0.34277913,-0.19996342,-0.31114609,0.00971494,-0.17209417,0.18021454,-0.02830352,-0.07492085,-0.12956354,-0.42990156,0.31947010,-0.20418419,-0.16133275,0.15050792,0.48887638,0.37652043,-0.32004831,0.10264572,0.02252504,0.49560211,-0.30470106,0.12562454,0.09708932,0.09623063,-0.05405408,0.08343790,0.11475467,-0.17198733,-0.04875222,0.01138741,-0.13341575,-0.06588439,0.12266284,0.35605214,-0.40290674,-0.22482370,-0.37930793,-0.19866485,-0.20619961,-0.31658261,0.36284653,0.04284754,0.33493993,-0.17821894,-0.24588556,0.15344987,-0.17321267,-0.39619852,0.17692982,0.17997678,0.36292730,-0.08995550,0.26866638,0.21241768,-0.08171588,0.23915549,-0.46853081,-0.01479890,0.35003859,-0.22413681,0.03885807,0.10029766,0.08256395,-0.21578604,-0.41050650,-0.08122330,-0.08010811,0.17441815,0.38402346,0.20923030,-0.29807267,-0.35939784,-0.03554093,0.28462268,0.49499016,0.00639218,0.34869285,-0.00369643,-0.16216941,-0.42726384,0.34518741,0.09656515,-0.03496033,-0.44479200,-0.27764602,0.12815368,-0.32080977,0.35239713,-0.14833350,0.03679652,0.46201016,-0.30186950,-0.09699441,0.20828223,0.37058694,-0.49310148,0.02020235,0.43360493,0.17544986,0.34062085,-0.47045684,0.15059907,-0.44515979,0.02293070,0.10204503,0.14113807,-0.02560403,0.25497670,-0.42246346,-0.45746785,0.41227628,-0.42137371,0.16506622,-0.44200043,-0.33422666,-0.20515743,-0.24938924,-0.33801536,-0.14510497,0.06059582,-0.46776002,0.04132716,0.02975864,-0.13961732,0.35220791,-0.32662541,0.43495952,0.04182265,-0.02942390,-0.32162439,0.41095671,0.33592750,0.22861572,-0.43774045,0.43617066,0.19791670,0.30924490,-0.05503199,0.47146918,0.13264152,-0.31932543,0.27614228,0.00125131,-0.11663010,-0.46139389,0.24760347,0.38625088,-0.20264201,0.10865460,-0.47308103,-0.18104771,0.48994168,0.10639093,-0.34297232,-0.13672586,-0.12122028,0.46111662,0.07500647,-0.44473881,-0.29673149,-0.27208049,0.33915094,-0.48365923,-0.27830617,-0.06682602,-0.03771672,-0.14916825,-0.19831531,0.44461142,0.16878767,-0.46506861,0.33726573,0.36531170,-0.49039154,-0.45768693,0.35613392,-0.10461999,0.32092123,0.26285833,-0.39651953,-0.32207299,-0.30061564,-0.34338248,0.09384863,-0.32575382,0.25476309,0.45140814,-0.25760303,-0.43608706,-0.06988176,-0.21288562,0.00160252,0.21929362,-0.20911585,0.43451971,-0.37004413,0.48739829,-0.42253994,0.31377034,0.13513965,0.10074889,-0.50001057,-0.16356793,0.19670228,-0.30820653,0.31577174,0.20933400,-0.40231670,0.05265700,-0.41713517,-0.23709830,0.22703924,0.33679486,-0.48053664,0.32473542,0.31113589,0.45437838,-0.33597353,-0.18194941,0.24742609,-0.13893649,0.43307118,0.29802075,0.09618360,0.05435456,0.04689223,0.11991192,-0.38799686,0.15324180,-0.41197543,-0.13086619,-0.09295724,0.47056676,-0.46083076,0.28276026,-0.22803241,-0.40790485,0.21841876,-0.33440527,0.46166934,0.11459768,0.32921600,0.44107057,-0.43906526,0.28463505,0.23939967,0.18816525,0.10818199,-0.49300157,0.14843652,0.25650947,-0.36135911,-0.19359329,0.48031552,0.16522686,-0.03477480,0.29496299,0.45257980,-0.15498340,-0.16592130,0.02256212,-0.06639110,0.15941561,0.08401415,-0.00034178,-0.36651758,-0.46136041,-0.40874549,-0.19243076,0.22080434,0.22657049,0.23736612,0.11308242,-0.05840685,-0.04926954,0.11887549,-0.41584591,-0.40511232,0.24461314,-0.23624470,0.44562211,-0.38482920,0.49745642,-0.44783938,0.18482102,-0.44626502,-0.46848285,0.18620411,0.00149115,0.22570619,-0.45485261,0.31161033,0.18180744,0.05345705,0.49014149,-0.22189804,-0.10279222,-0.44629032,0.12318676,-0.40917240,0.47057414,0.33157049,-0.19703643,0.42088211,-0.33995436,0.07437631,0.13706215,-0.42488433,-0.45530376,0.22876578,0.40054571,-0.14596088,-0.48358117,0.16281121,0.39155696,-0.06488678,-0.40074055,-0.37763921,-0.19435524,-0.11457123,0.05171112,0.17312268,0.14444155,-0.42296490,0.42763001,0.04391710,0.46473731,-0.38896046,-0.46056952,-0.30993693,-0.42889408,0.00178904,0.19386402,0.27860393,0.33268628,-0.32823204,-0.43219113,-0.42322330,0.37377805,0.14932310,0.42301984,0.17609576,0.27233987,0.27426947,-0.29291271,0.15350723,-0.25375799,-0.08523481,0.00758478,0.25366372,0.46084835,-0.10136035,0.38119749,-0.31620053,-0.25007296,-0.27634954,0.41377504,-0.30410848,-0.09060540,-0.05756628,0.09740572,0.36044707,0.28272168,-0.08448580,0.06645725,-0.33700362,0.32958033,-0.41150091,0.00635636,-0.12992635,-0.26482288,-0.26361242,-0.06958321,-0.12580901,-0.20055567,-0.33466341,-0.47959435,0.30729305,-0.12387309,-0.15340786,-0.18555945,0.24459291,0.41217227,0.19101543,0.36536884,-0.47962173,-0.33753246,-0.04552292,-0.12236399,-0.38940522,-0.16654729,-0.10986894,-0.34486149,0.48654471,0.48721450,-0.42290165,-0.45972404,-0.30069134,0.18739358,-0.23746705,0.16178721,0.48556341,-0.17324859,-0.03533533,-0.46181758,0.24600943,0.18660508,-0.26842253,0.16464155,-0.44183065,-0.10432417,0.30424341,0.31408706,-0.32110402,-0.25435480,0.43115561,0.28188833,-0.46317381,-0.21982224,-0.00607342,-0.49169695,0.43411032,-0.15303927,0.05881143,-0.18269837,-0.21296837,-0.36848717,-0.28513342,0.36320329,0.23857418,0.00336643,0.40430134,0.37541810,0.48552489,0.04196051,0.05055941,-0.16879325,-0.42870821,0.19664784,-0.18238130,0.40922333,-0.25695201,0.18557949,0.23045134,0.27594935,-0.01118721,-0.33398978,0.13262780,-0.38850823,-0.42651186,-0.26307830,-0.13874170,0.37122416,0.07086344,0.44427355,-0.48215179,-0.26779529,0.09095400,-0.41278538,-0.37357974,0.03338706,-0.06685961,-0.29572664,0.34900233,0.07750035,0.08455495,-0.02720699,-0.24813457,-0.35852820,-0.12106388,-0.18841180,0.41176331,0.31754149,0.25807171,-0.08706393,0.37826275,-0.38187751,0.41668588,0.41889429,-0.25452679,0.15423992,0.16293155,0.23134508,0.12881082,0.28400040,-0.32910877,-0.25594134,-0.48090258,0.40004255,-0.31078195,0.34100928,0.32797207,-0.29692387,-0.21889344,0.34439534,0.49469335,0.07553143,0.06883083,0.47720477,0.49237588,0.39688338,-0.09137522,-0.03902976,0.09572701,0.20871522,-0.29659626,0.16453926,-0.08313186,-0.01336574,-0.05188982,0.15778408,-0.45876416,0.47619306,-0.27135247,-0.44677006,0.10885681,-0.15598713,-0.25677774,0.27445605,0.09900494,0.26070220,0.10595319,-0.37969419,0.46440962,-0.46605904,0.20242590,-0.16150356,-0.25449569,-0.20238990,0.48236456,-0.28032613,0.09800302,-0.46246840,-0.24337854,0.26203102,-0.44974007,-0.11222802,0.46252144,-0.19549481,0.15882907,-0.07670561,0.25571842,0.16625624,-0.16122426,-0.01821144,0.21462595,0.35983513,-0.05679174,0.01139641,-0.21358613,-0.05525162,-0.25177734,0.25225226,-0.17955246,0.12313665,0.32713335,-0.16120409,0.47203352,-0.13605833,0.42773462,-0.18828076,0.25863518,0.00643578,-0.27943483,0.23884071,-0.25601238,-0.05807312,0.34442746,-0.24153458,-0.45640851,0.14160069,-0.07204768,0.43925869,0.23281160,0.33910529,0.30023748,0.04371574,0.01321864,0.36092193,-0.13989785,0.39254070,0.06421601,0.45558607,0.00091978,-0.18436616,-0.12136783,0.46100699,0.45124165,-0.13171644,0.35773722,0.17867579,0.04900686,-0.16995063,0.34027034,-0.03666407,0.30759240,0.44191750,0.45636754,0.39338372,-0.05939386,0.14003641,0.06829810,-0.32595737,-0.23522867,0.16995520,0.05146491,-0.02647180,0.16304797,0.01115112,-0.02351420,0.39263082,-0.33241289,-0.26111483,-0.19654190,0.28523396,0.05016405,0.23178929,0.09502600,0.18028208,0.04631297,0.40899234,0.00701785,-0.13349743,0.33787192,-0.15900248,-0.16302482,0.32667420,-0.28555107,-0.33311801,-0.31568227,-0.06702073,0.12944271,0.34068536,-0.13248468,-0.12533014,-0.29742460,-0.03980201,-0.46536588,-0.06673330,0.26577704,0.42597046,0.21406972,0.12123463,0.35585141,-0.03357734,-0.28921128,0.13975410,0.35747552,0.15834744,0.21001313,0.15936206,-0.18994175,-0.15531944,-0.16113683,-0.04280130,0.42622096,-0.36271148,0.43739705,0.02206413,-0.10291028,-0.25864334,0.44287634,0.29796008,0.06817210,0.19115871,0.04356174,-0.14794599,0.33821633,-0.03581988,0.31594400,-0.37092496,-0.23692936,-0.03498311,0.00893940,0.39131378,-0.40611817,0.49722526,0.28802496,0.19468505,-0.42336437,-0.01368485,0.37577942,0.30871776,0.05039566,-0.35724648,-0.15398994,0.48008636,-0.06470706,0.36918923,0.10171057,0.32577089,-0.35609551,-0.01995728,0.39524369,0.11001652,0.46340139,0.46832784,0.01365270,0.37543735,-0.17129904,0.20949931,-0.26241990,-0.18079811,-0.11767307,-0.27129538,0.19335475,-0.28388737,0.03140090,-0.45518490,0.44288715,-0.25003118,0.06282100,-0.29263006,-0.39200744,-0.29628856,0.40870436,0.41568093,0.43839434,-0.28126266,-0.19691812,0.25669754,-0.28907524,-0.02105761,-0.26183618,-0.20876748,-0.47007733,-0.01538752,0.10900207,0.29117160,-0.07595250,0.16760545,0.30445909,0.17940389,0.30841384,0.33478858,0.39619059,0.08501409,-0.33302088,0.06567234,-0.03397739,0.35925344,0.18698682,-0.11441740,-0.21020580,-0.03837430,-0.32393856,-0.25629866,-0.08261103,0.08762519,0.24159345,-0.40222506,-0.32565902,0.06165770,-0.35391393,0.21065244,-0.24373092,-0.31595996,-0.42492214,0.18168892,-0.08940161,-0.37557023,-0.04236883,-0.23340753,0.03199516,-0.39720855,-0.39737302,-0.03183232,-0.48645232,0.37526152,0.44713280,0.15202370,0.04364330,0.42192266,0.28034668,-0.32105182,0.36087576,0.12685806,-0.24162452,0.19146094,0.24328034,0.47610183,0.10139857,0.42418747,-0.06049519,-0.01534892,-0.48684304,-0.42759701,0.04770237,0.31645350,0.16637306,-0.03597828,0.01099101,-0.09129501,-0.48318705,-0.46228125,0.47738213,0.18788086,0.10421848,-0.19803703,-0.39579086,0.37549864,0.43536884,-0.23007138,-0.06555584,-0.06473403,-0.12647464,0.20599655,0.45378992,0.09699805,0.20087736,0.19152236,0.31402195,0.02278213,-0.44437725,0.41346638,-0.23040212,0.10690763,-0.45211558,-0.14316151,0.38778334,-0.03202483,-0.48002420,-0.40693542,-0.07744124,0.20929544,-0.46555370,-0.43587684,0.01803712,-0.29978776,-0.09432824,0.42324670,-0.05095200,0.02541612,-0.15228726,0.09265884,-0.05912094,-0.22745808,-0.26181178,0.16415499,0.39069979,0.46045845,-0.35695584,-0.01834220,-0.12352509,-0.47814518,0.08140952,0.17073712,-0.26412540,-0.14779021,0.13126127,-0.29644876,-0.40932604,-0.22364241,0.03312915,0.34804989,0.07276038,0.43918995,-0.26104555,0.42418132,0.31025625,-0.41911852,-0.26874113,-0.32828091,-0.00028321,-0.21734950,0.44737035,-0.11661061,0.14300189,0.43577981,-0.15090121,-0.19632642,-0.48608464,-0.44097999,-0.16786830,0.14849049,-0.03342568,-0.34520512,0.16725019,-0.05013166,0.23155879,0.10575602,0.40096759,-0.26664892,0.07255338,0.34454147,-0.15031334,-0.24410176,-0.33216444,0.16902443,0.45455601,-0.28106696,0.11284993,0.15057893,-0.23870714,0.21101939,0.43328468,-0.16849403,-0.19662575,-0.37735229,-0.31851981,-0.46493320,0.26115960,-0.02629649,-0.19925499,-0.44499060,0.21693493,0.28706826,0.47430753,0.29399460,0.05044459,-0.23071231,0.10373879,0.06622693,0.29969299,-0.49426413,0.29839747,0.35267475,0.14780066,0.21523406,-0.10183251,-0.26705851,-0.49223805,-0.39116801,-0.08573175,-0.33627055,0.01402686,0.12066080,-0.10223597,0.13940461,-0.06084687,0.22006499,0.37677527,-0.35103434,0.02712385,-0.27398664,0.48762835,0.25363238,0.27641212,-0.16872922,0.33734737,-0.36258178,-0.12808908,-0.48484848,-0.28012446,0.46734039,-0.30222965,-0.34103581,-0.00551140,0.42706285,0.45541290,-0.39622207,0.25386118,-0.19527789,0.25417042,-0.25141268,-0.04862439,0.06827070,-0.11199170,-0.12458467,0.22387991,-0.02430989,-0.13537402,-0.29063919,-0.07156570,0.28403619,0.23763226,0.08633421,-0.34175262,-0.43527054,-0.11752731,-0.49149264,0.09353769,-0.23475587,0.06354533,-0.11773351,0.07089462,0.29248304,0.36561229,0.24440256,-0.24347017,-0.33579186,0.36140340,0.18773859,0.33422414,-0.32455365,0.30011450,0.48263002,0.18781980,0.05610555,-0.34027263,-0.42431652,-0.25136939,0.20326741,-0.34533430,0.38380818,-0.25546907,-0.19639808,-0.28496446,0.13659937,0.27246320,0.05608879,-0.36989277,-0.34119880,-0.37791029,0.45547246,0.18775072,-0.42456428,0.41264279,-0.23916636,0.06813773,-0.24431716,0.42252913,-0.47363605,0.33325272,0.32203722,-0.18790919,0.27128128,-0.13944788,0.25419446,0.15357744,-0.42813279,0.02432243,-0.49820115,0.19653460,-0.37638372,0.44490253,0.37545673,-0.44082390,0.23394092,0.32042293,0.35254902,0.39022902,-0.16504588,0.17864868,-0.37952947,0.08594407,0.45556614,-0.19174709,-0.15281369,0.31915956,-0.41720991,0.32547881,0.34941128,0.20592423,0.41908484,0.20488916,0.07100803,-0.05307945,-0.07205269,-0.48681763,-0.34587152,0.32224097,-0.07051219,-0.15123357,0.00622488,0.00810809,-0.17617286,-0.07195833,0.05666146,-0.42777323,-0.38560785,0.19682156,-0.23549792,-0.08083973,0.05874035,0.21964174,0.32412627,-0.03936695,-0.49155219,-0.10622346,-0.23585758,-0.21412634,-0.31277772,0.02408817,-0.18146489,-0.20929973,-0.19604232,0.35410642,-0.01359415,-0.37100402,0.10252452,0.26062977,-0.19021068,-0.42818779,-0.41997638,0.07595050,-0.19911019,0.26745972,0.22697167,0.07009710,0.25227397,0.46315134,0.44172642,0.13772495,-0.02119212,-0.33781456,0.05901136,-0.12322650,-0.02141215,-0.10105951,0.32689546,0.35276915,-0.10272885,0.45981990,0.27823818,-0.31853399,0.46593758,-0.44973297,-0.01369913,-0.11942475,0.38039134,-0.14204527,0.35864430,0.16618720,-0.41201859,-0.15582448,-0.39936557,-0.07448801,0.17754528,-0.32725240,-0.48809932,-0.33881582,-0.01229077,-0.06095920,0.26904305,-0.14670497,0.15851147,0.12188971,-0.12278174,-0.45359691,-0.35299513,-0.33363089,-0.36709306,0.30688239,0.26039846,0.47289974,0.08400601,0.45757246,0.14984548,-0.40699816,0.49455499,-0.01988942,-0.11153084,-0.26262967,0.39689017,0.37453456,-0.41801897,0.26836913,-0.07390339,0.42999554,0.38541317,0.26489924,-0.41301377,0.10532400,-0.32175097,-0.31318413,-0.08757002,-0.09633300,-0.48310124,-0.28540471,-0.37856077,0.28889380,-0.01160192,-0.26999998,-0.30854675,-0.24500662,-0.31489960,0.38060981,0.12710525,0.02108102,0.08264871,0.39910736,0.14762432,-0.11140595,0.33296327,-0.33991158,-0.29219840,-0.42219440,-0.33133705,-0.25519014,0.18850271,0.27320063,0.09661972,0.42196181,0.12814912,-0.14845003,-0.13397158,0.24896940,0.43703408,-0.14217604,0.36502056,-0.40592327,-0.30306996,0.13504565,0.08188893,0.09010768,0.02368116,0.31488107,-0.05010921,-0.11513206,0.16627023,0.46416303,0.40442673,-0.46446808,-0.18586363,-0.42648178,-0.33843314,-0.30146609,-0.11900983,-0.30960867,-0.46773950,-0.46561056,0.39596781,0.49465424,-0.23158174,-0.38622921,0.15169257,-0.03850545,-0.38404010,0.20472632,0.45248190,0.16974957,-0.41289777,-0.34336388,-0.17692925,0.29252859,0.27421501,-0.49719924,0.16206671,0.40195481,-0.19595664,0.06568008,0.10251657,-0.43704839,0.39991972,0.21413528,-0.31025946,-0.22761576,-0.27043463,-0.44322687,-0.47528511,0.49180407,0.13217241,0.23082764,0.05103376,-0.24167720,0.04719438,-0.05284087,-0.37763016,0.46051758,-0.18129208,-0.25020867,0.42476343,-0.34831004,0.01920132,0.16113639,-0.19240673,0.01838988,0.07560584,0.30633408,-0.11370414,-0.20248448,-0.22160241,-0.41546955,0.28357156,-0.47476195,-0.30626371,0.25635710,-0.19433954,0.04524198,0.47237439,0.26506536,-0.15459852,-0.45788467,-0.32773388,0.23336765,-0.42716507,-0.34951654,0.46648372,-0.22261172,-0.20254730,-0.31940486,-0.24923914,-0.04594229,-0.14053035,-0.25320802,-0.18756476,-0.20020236,-0.49655648,0.32901399,0.10717868,-0.16390322,0.32963749,-0.13870106,-0.49591831,-0.17385995,0.31009299,-0.44704950,0.23385910,0.04774945,-0.20150937,-0.26420048,-0.24639744,-0.28056355,0.01835348,-0.16292539,-0.17015162,0.28236002,0.01198926,0.03301269,0.42482148,0.17425747,0.23595662,-0.42677424,0.29323187,0.01500256,0.34947717,0.40170025,-0.35638689,-0.30896476,-0.15950481,0.48260184,-0.20990305,0.40377281,0.30511557,0.12140732,-0.46112797,-0.10559572,-0.33377673,0.20242057,-0.09410780,0.24788450,0.45917048,0.05945980,-0.36693294,0.13312827,0.29175745,-0.38093587,-0.22685867,0.34272920,0.09918121,0.29057218,-0.17423397,0.15210867,0.19009472,0.09125312,0.37171536,-0.06319845,-0.44327853,0.13905461,0.40352693,-0.15400518,0.21557604,-0.36144102,-0.41603591,0.48176277,-0.46322030,0.03988983,-0.01962440,0.02727030,0.36047302,0.15204075,0.31096280,-0.41429371,0.44708563,0.02653103,-0.41916136,-0.01424736,0.20609652,0.34197330,0.21841185,0.43018321,0.29525522,0.08539249,-0.14955907,-0.01476671,0.49464201,-0.12160885,-0.03587959,-0.44761828,0.09951227,0.02118851,0.02641679,-0.02500364,-0.45686411,0.13280733,0.14684294,-0.06399383,-0.23995535,0.48242955,0.09278040,-0.37221402,-0.03929279,-0.30102908,-0.13662583,-0.33748209,0.24994114,-0.03234846,0.07340553,0.39106907,0.23936415,-0.24548451,-0.22660793,-0.36128121,0.21458333,-0.30742693,-0.00986321,-0.12301509,-0.42734309,-0.08671923,0.37074581,0.48508949,-0.01814147,-0.45725575,0.01872697,-0.44442445,0.08226853,-0.04731048,0.41714970,0.24607762,-0.16126500,-0.10553018,-0.02679007,-0.44306070,0.02125324,0.16392392,-0.14255642,0.30675962,-0.34175409,-0.05775526,0.08154453,0.45955844,0.14025025,0.33089611,-0.24655692,-0.47378645,0.13136104,0.06465596,0.43438396,0.04221538,-0.14596551,-0.14982030,-0.32454801,-0.44272460,0.05166213,-0.28211208,0.45021518,0.12957609,-0.24961139,-0.14699552,0.10594643,0.08010953,-0.26223510,-0.07530252,0.38003313,-0.04430133,0.38299280,-0.46301446,0.11411906,0.20582272,-0.46041394,-0.13980262,0.34949855,-0.36011909,-0.46218190,0.09623083,-0.23971033,-0.42973296,0.13473151,0.09012905,-0.36070471,0.30698197,-0.07159727,0.19082916,-0.00418036,-0.31393439,-0.18084959,0.03941222,0.20577004,-0.00608217,-0.34617088,-0.14484403,0.39544507,0.36210893,-0.29484975,-0.39760117,-0.05545159,0.43597391,0.09093109,0.06983038,-0.17388685,0.09943346,-0.04680240,0.37614460,0.10973104,-0.36865521,0.41896110,-0.25985099,0.48201468,0.23339633,0.06525316,-0.00121910,0.06912172,-0.15213445,-0.20801165,-0.25065518,0.19227120,0.22763777,-0.46738827,0.03174437,-0.35643625,0.42332097,-0.14748977,-0.13361291,0.42075733,-0.19311811,0.39890125,0.20237916,-0.32944864,-0.04681915,-0.06490684,-0.19679608,-0.21191726,0.30699212,-0.38734522,0.04330165,0.48042110,0.09631971,-0.36008636,-0.49669370,-0.19660101,0.33847080,0.19997105,0.27856407,-0.45158674,-0.20313845,-0.49150887,-0.14101125,0.02893296,-0.27135212,-0.05992037,-0.35207478,-0.31903364,-0.07759123,0.08044237,-0.05020929,0.47961990,0.39691371,0.01553905,0.06813191,0.42812034,-0.19582568,-0.36471995,0.13430254,0.37410017,-0.42154556,0.35398927,0.38960916,0.14274946,-0.31748895,0.42046191,0.45472560,-0.34091945,-0.02249112,0.13394300,0.36163181,0.19342070,0.23611862,-0.45812944,-0.34437548,0.10333206,0.10071096,0.28939729,-0.16899533,0.09611172,-0.14596506,0.18261545,-0.19926001,0.36143049,0.05610784,-0.49350883,0.23560933,0.32820319,0.36223895,-0.05672913,0.00277718,0.21681899,-0.43113578,-0.48925713,-0.10364940,0.30140667,-0.15818486,0.25967617,0.41180861,0.49169044,0.24060207,-0.32820749,0.11718795,0.15503570,0.49947494,0.35562262,0.01395902,0.21643517,-0.23920338,-0.12257803,0.47301264,0.35803195,0.04564353,0.11224406,-0.26777136,-0.15844185,0.23436130,0.06194393,0.47121372,0.30686109,0.26492955,0.20501169,0.37903059,-0.45061612,-0.27593654,-0.01560591,-0.34339118,0.34420414,0.12248999,-0.40535295,0.09873531,-0.14534987,-0.33553693,0.15735683,0.34318844,-0.17304897,-0.13482647,-0.17368526,0.21915095,-0.46160692,0.12133044,0.39102676,-0.42924014,0.02830697,-0.01769195,-0.45251306,0.47894788,0.22812177,0.37428468,0.08589867,0.03000669,-0.29701065,-0.17812892,-0.15582010,0.08651865,0.45854005,0.05650677,0.22741000,0.25271734,0.36456537,0.04357815,-0.12566454,0.09107555,0.14667697,-0.35170586,-0.08870989,0.09522114,0.40391518,0.30718993,-0.09804685,-0.01023403,0.18956132,0.49239665,-0.28722629,-0.44799586,0.28185809,-0.22555189,-0.41134833,-0.43111160,-0.46949882,0.35583077,-0.07973046,0.27646928,0.15385847,-0.01775744,0.18216936,0.49888637,0.46598582,-0.00683994,-0.46482354,-0.24603075,-0.21984261,0.16976084,-0.45374471,0.08198485,-0.45452732,0.23169212,0.06858493,-0.26937683,0.08258639,-0.44385109,0.00011634,0.25920046,0.08279181,-0.28701429,-0.31811168,-0.12747689,0.03388289,-0.16427622,0.23143687,0.24249908,0.01049128,-0.14172822,-0.25618613,0.13909988,-0.14715678,-0.01412348,-0.29092147,-0.22745681,-0.13458910,-0.37428031,-0.36899929,-0.41413592,-0.43923645,0.15915832,0.39341935,0.12478589,0.37080329,-0.11809185,0.24227975,0.12622639,-0.45698339,-0.04330093,-0.41345451,0.22806463,0.05961295,-0.00487088,0.13414084,0.33261498,0.01255382,-0.01480980,-0.40668805,-0.30793003,0.15488804,0.49743250,-0.09808205,0.32557400,-0.08693733,-0.02393929,0.05911657,0.46823398,-0.44770486,0.13831445,0.31494606,0.16139383,-0.31982456,0.45062974,0.21449180,0.09440692,0.42793180,0.32290377,0.07993436,0.37131246,0.00097788,0.23696436,0.23639828,-0.00449377,0.00008319,0.02175136,-0.05164471,-0.16128862,-0.18850104,0.33934942,-0.42010653,-0.39746143,0.28137989,-0.03691383,0.01070971,-0.47147025,-0.22230036,0.42560666,0.33598172,0.47013773,-0.12736156,0.33204220,0.26312290,0.06176185,0.21599799,-0.32503331,-0.23322232,0.23906629,0.18286041,0.02850582,0.14617639,0.43131619,0.38701209,-0.08832693,0.27312657,-0.20076286,-0.32170217,0.26598617,0.35401992,-0.00894496,-0.37610383,0.01606841,0.31298468,-0.35400603,-0.34677753,-0.26348675,0.32833292,0.16306812,0.19433628,-0.27644053,-0.21522398,0.31812974,-0.16527086,-0.02196607,-0.25709691,0.37706602,0.41353649,0.30435042,0.49877170,-0.24184751,0.24390572,-0.02955493,-0.33184805,-0.07417245,-0.11886290,-0.38523416,-0.30015091,-0.27795615,-0.00956603,0.26156121,0.32642659,-0.20246386,-0.40261482,-0.37035019,0.36580886,0.15280155,-0.18594559,0.42450221,-0.17920648,0.39358164,0.23020826,-0.13938156,-0.28294339,0.45844961,0.00895120,0.49723258,-0.07222725,0.13712563,0.39004306,-0.38514137,-0.28932622,0.09988157,-0.31843077,0.41867720,0.40856385,-0.49090443,-0.36231546,0.19838990,-0.09151799,-0.19114603,0.16247265,-0.01432462,0.09023002,-0.26233183,0.28485908,-0.18793738,-0.25757819,0.21102739,0.43978287,0.02288116,-0.05063557,-0.44486081,-0.00847609,-0.27345999,-0.35875062,0.43418909,0.43506781,-0.34310150,0.34169288,0.38343619,0.12401891,-0.12564916,0.05469002,0.14890570,0.33663802,-0.24350277,0.02763956,0.06788961,0.34799915,-0.07206302,0.26644969,-0.33938599,0.10133799,-0.24576557,0.35009496,-0.36205155,0.28594473,0.30602648,-0.27796512,-0.34604487,-0.42270520,0.31208187,-0.07711749,0.03730145,-0.02799871,-0.39747110,0.46322718,0.34855271,-0.47431481,-0.22677878,0.38515668,-0.19565096,0.46082893,-0.24395928,-0.45144607,-0.43481141,-0.03422151,-0.13139982,-0.48637004,0.19419179,-0.06766018,-0.10163682,0.42676073,0.33590327,-0.46960675,-0.14196884,-0.27737686,0.46086994,0.23724176,-0.06707592,0.19626524,-0.08431729,0.19265653,0.34755920,-0.24390250,0.06105795,-0.35552592,0.08641564,0.34311501,-0.11906594,-0.49977698,-0.47105589,0.42943682,0.26860562,0.49914611,0.31213688,0.38418953,-0.26584030,0.28423652,-0.34932641,0.38108592,0.37974836,0.17762079,-0.16771481,-0.46722446,-0.12553997,-0.27541151,0.31524138,0.47918787,0.47003618,-0.03893384,0.00536213,-0.43545660,-0.38319951,0.12195714,-0.01032190,-0.38825953,0.36557959,-0.20586913,0.44581589,0.08161145,0.30988486,0.26299689,0.41428422,0.23833085,0.16611444,0.24579785,-0.27943170,0.26576411,0.08970391,-0.49776195,-0.30874002,-0.23358761,-0.30378743,-0.13450700,0.33810939,0.30605240,0.06730401,-0.28021759,-0.16141565,0.25658802,0.43394131,-0.34743583,-0.23210699,-0.37011552,0.18041892,0.14886075,-0.30599639,-0.34631122,0.43775902,0.36519417,-0.18967724,0.45272429,-0.28875156,0.26906080,-0.48922218,0.39008752,0.04986512,0.43657055,-0.05773039,0.40242042,0.44759530,0.44681825,-0.35300149,0.42215616,-0.49723917,0.29069988,0.25233989,0.27892442,-0.45310112,-0.25586775,-0.19429689,0.33549178,0.01237658,-0.06216548,-0.16749778,-0.14130500,0.01104648,0.41891518,0.42933336,-0.41456933,0.27037215,-0.22691888,0.13192653,-0.37476166,-0.01683328,-0.30532733,-0.13458538,0.07288605,0.17255355,-0.30555647,0.20727678,-0.21324700,0.05042029,0.13539470,-0.16682250,0.13197437,-0.19920802,0.05716735,0.45396675,0.08912425,0.17030233,0.07453152,0.39533939,-0.27240029,-0.35585049,-0.26537064,0.19738730,0.25297042,-0.10853805,0.38665976,0.31676631,-0.11654957,-0.07889837,-0.04182101,0.20507494,-0.14935527,0.12030257,0.19711122,0.26673186,0.36507531,0.35320445,0.13123952,-0.16477660,-0.47175763,-0.04214071,0.23896798,-0.33373495,0.22036710,0.04388434,-0.05757370,0.09389749,0.42804792,0.36744239,-0.37297233,0.23265895,-0.48920484,0.29377034,-0.05676469,-0.04344519,0.45781188,0.32782689,0.21435082,-0.08239826,0.14217416,-0.42787818,-0.39515326,-0.05589562,0.09809945,0.47689437,-0.35147906,0.47128910,-0.20061389,-0.19936780,0.26029598,-0.08209843,-0.16738058,-0.08148775,-0.05346993,-0.07418907,-0.41347130,0.11465517,-0.16423955,0.38139209,0.05167857,0.49540056,0.06532625,-0.32954391,-0.25970023,0.32132805,0.24417945,-0.27269133,0.38914405,-0.03183435,0.04325924,0.03197630,0.10503203,-0.14835867,0.10845695,0.08249267,0.10529285,-0.01994607,-0.44280007,0.29545070,-0.28445270,0.41247489,-0.35381253,0.49460213,0.04013487,-0.09959316,0.47754252,-0.41666851,-0.47160889,-0.00731830,0.16604972,0.35265103,0.28389918,0.38960748,0.41248644,0.11273237,0.44791146,0.07074565,0.44915792,-0.30392381,0.31489309,-0.16426872,0.20657148,0.45727733,-0.04755700,-0.29449559,-0.43254947,-0.12791425,0.48359352,0.11521286,0.01532177,0.18530400,0.07179384,0.02078768,0.40137230,0.42450600,-0.00619643,-0.14128374,-0.26187582,-0.33590534,0.20179833,-0.33401712,-0.20133698,-0.08250052,-0.13820780,0.47222076,0.34550823,-0.43698570,-0.04982445,-0.31131320,-0.02501649,0.47553177,-0.11774816,0.41577433,-0.46065318,0.05092934,-0.03340516,-0.43711921,-0.01272879,-0.18106440,-0.46211514,0.11946944,0.27090195,-0.23161705,0.30658204,-0.32484381,-0.40208543,0.44635015,-0.25066402,-0.01248051,0.43925481,-0.01528052,-0.39397825,-0.14620102,-0.00413659,-0.31703218,-0.37121476,-0.27619249,0.24569233,-0.30208952,-0.36618180,-0.38896719,0.40347857,-0.22298264,0.26980724,0.14739971,0.25006655,0.45129926,0.21566595,0.08310650,0.03813705,-0.11158549,-0.44442295,-0.48347554,0.08682580,0.37045775,-0.42918258,-0.33522683,0.13438165,0.30982660,-0.03536810,-0.45914787,-0.08126487,0.05858609,0.39226975,-0.12141002,-0.43636831,0.29513580,-0.48664216,0.16179129,-0.05894761,0.46512370,0.05512965,-0.06130486,0.26547132,0.36532284,0.12530937,-0.43951180,-0.19356119,-0.42043051,0.25989113,-0.12284584,0.46080267,-0.07790500,-0.00674263,-0.18305080,-0.00614861,0.35802829,0.09091566,0.08549019,-0.04241552,0.46732784,-0.05238660,-0.49333776,-0.34160697,0.44272871,0.26365747,0.23981152,-0.03150699,0.46966368,-0.43712767,0.04484680,0.37621469,-0.18943936,0.26447988,-0.48634074,-0.23309984,-0.24946638,0.05573612,0.44043142,0.40764928,-0.13664563,-0.34000783,0.28554425,-0.43477388,0.21007171,0.07702761,0.08215745,-0.02540888,0.41782021,0.47603755,-0.27232790,-0.22306286,0.18861404,0.01840690,0.20695193,0.26948617,0.14416340,-0.02570638,-0.42802956,-0.18802181,0.14836478,-0.38246705,-0.35237237,0.39750474,0.22023527,-0.12870170,-0.24797990,0.06090974,-0.33748997,0.42317077,0.46502507,-0.24868915,-0.46759230,-0.39409512,0.11640159,0.08341640,0.48474648,0.10481844,-0.40411077,0.11421432,-0.29556682,-0.43532458,-0.22736192,0.06635552,-0.00107225,-0.46626781,0.38972135,0.36646825,0.15308833,0.06090860,0.02880037,-0.18147908,0.20680238,0.27429747,0.45261666,0.22244341,-0.14387237,-0.43662809,0.49960943,-0.48634094,0.38276456,0.28765148,-0.34446489,-0.00565964,-0.42536773,0.06472854,-0.19343167,0.41184247,0.01659059,-0.27107422,0.34256345,-0.31900447,-0.49327369,-0.26153247,-0.19280807,-0.08558763,0.12808409,0.28430147,-0.08728309,0.37601521,-0.40648586,-0.14891407,-0.13973692,-0.37493928,-0.40996752,0.06793277,0.38846915,0.08744860,0.17041395,-0.13749739,-0.44065971,-0.45375629,0.38500521,-0.33608724,-0.00131226,0.27075842,0.03674338,0.19221309,0.45510819,-0.38294668,-0.36753615,0.33255999,-0.37150208,0.41295617,0.05846373,0.31766472,-0.21035227,0.27461548,-0.21329515,0.42611498,-0.19432876,-0.44582442,0.01790449,-0.42435076,-0.22034415,0.34858011,-0.47892015,0.37337754,0.37715605,-0.36769996,0.19078112,0.37976409,0.25912166,-0.16318351,0.14497784,-0.30002437,-0.27227185,0.14603028,-0.48972211,0.15903212,0.03617053,-0.37344611,-0.38411739,-0.05142570,0.15867932,-0.08113816,-0.25424331,0.07381559,0.18272435,-0.16612275,-0.24016344,-0.28923475,-0.26420828,-0.46571315,-0.44731550,0.16414506,0.16007604,-0.43835561,0.26024375,-0.48079273,-0.11567475,-0.08236439,0.27592164,0.14175947,0.24119767,0.27603725,-0.18890881,0.31524280,-0.44169537,0.23988574,-0.19933348,0.42088865,-0.25284087,0.12231851,-0.13575014,0.47828801,-0.15607825,0.19386189,-0.38378153,0.04276368,0.42994350,0.05830441,0.16653863,0.00983716,0.24715551,-0.18734297,0.16330152,-0.41316805,-0.38214290,-0.09136002,-0.21857339,0.04901904,0.19336981,-0.08609182,-0.48068225,0.25303982,0.02814486,-0.25729279,-0.15217043,0.24506378,-0.17273951,0.41094471,0.10202897,-0.37128408,0.29616445,0.19108066,-0.00522066,-0.20749292,0.04218075,0.05402522,0.01003404,0.27270836,0.38378549,-0.08864968,0.23148684,-0.19920136,-0.30724286,-0.38099580,-0.22195252,-0.17496170,0.01620654,0.28156733,0.14069910,0.36861869,0.46532310,-0.40776293,0.46228596,0.40618349,-0.36234453,0.24425969,-0.40018794,0.11285535,0.25640115,-0.25125902,-0.34838744,0.47531582,-0.40241858,-0.23146321,-0.32353002,0.05904639,0.47198659,-0.22113591,0.47026627,0.04402873,0.14367902,0.19600073,-0.30327798,-0.15092544,0.41688121,0.44258455,-0.39571545,-0.10170433,-0.39861735,-0.24980700,0.34105017,0.02791432,0.04536297,0.43263898,0.05121830,-0.13337789,-0.42219783,-0.05380879,0.35211924,-0.16724128,-0.32018324,-0.33635938,0.28070538,-0.17549878,0.44943353,0.34192398,0.39737659,0.20684535,-0.08100895,0.49099336,-0.26063637,-0.23473868,0.21862365,-0.40111201,0.40518758,-0.30573236,-0.21010406,0.03514637,0.11410327,-0.23881053,-0.01660863,-0.35683604,-0.21538342,-0.17343343,0.09408135,-0.06312373,0.18334446,0.06272383,-0.00328221,-0.13702039,0.04986904,0.49226603,0.15029390,0.20235901,0.36568552,-0.12431892,0.01384475,-0.40553040,-0.30478562,0.03357771,0.47545087,-0.27971753,-0.07543025,-0.39852427,-0.28765113,0.13085315,0.37917191,-0.36923781,-0.19202264,-0.49587654,-0.32892736,-0.37699774,-0.41104365,0.14922342,0.32249886,0.25215937,0.15562173,-0.48500320,-0.06043028,0.03741716,0.00487674,-0.13983251,0.29113510,0.47200354,-0.00843279,0.38364542,-0.20410336,-0.21338826,0.31156379,0.40411919,-0.44377860,0.12823292,0.01911324,0.19126658,0.04882188,-0.16912305,0.37685526,0.44966061,-0.01014184,-0.41248714,0.08817493,-0.18409136,0.33329846,0.12375099,0.29506964,0.25830591,-0.42224205,-0.33102535,0.26304787,0.14170554,0.05688092,-0.09183039,-0.23462542,-0.13198113,-0.27155247,0.13544700,-0.08454885,-0.19434610,0.47458252,0.09989790,0.44031910,0.31097024,-0.42417905,0.19300948,-0.07041234,0.29147715,-0.17918431,0.13418360,-0.34022724,-0.17941283,0.46048105,-0.07371264,0.01545555,-0.17594761,-0.06788561,0.32374921,-0.00233851,0.44788480,0.08141807,0.43372565,0.03837449,0.15074628,0.34801009,-0.00531289,0.47650865,0.49334890,-0.37190088,0.00758151,-0.21739187,0.09237031,0.49854867,0.03488699,0.25414250,-0.32173879,-0.30432131,0.27563545,0.24152556,0.12202372,-0.12045056,0.34364969,-0.20230333,-0.47205415,0.11896309,-0.27945729,-0.24441581,-0.27587930,-0.25126345,-0.41430485,-0.45977353,-0.23579510,0.27271543,-0.26361807,-0.22812422,-0.26302505,0.31221400,-0.26753796,0.18416877,0.20663193,0.43314639,0.42286826,-0.01778548,0.08891024,0.00013726,-0.07995671,0.46530023,0.34775941,-0.18597222,-0.30301776,0.20085581,-0.29567725,0.05651441,0.49638832,0.34372815,-0.15375066,-0.15453763,0.20407468,-0.06302586,0.43697005,-0.02748704,0.36201953,0.26778601,0.19419751,0.46616167,0.22008154,-0.02331718,-0.27459191,0.42472374,0.18376907,0.32451466,0.33058041,-0.45736585,0.15721360,-0.05281085,-0.07870851,0.37586390,0.45674522,-0.08205966,0.16615589,0.36332399,-0.26411292,0.05216226,0.23952548,0.06535463,0.29328862,0.22038636,-0.29579002,0.27935851,0.40726669,-0.06052025,-0.46124730,-0.35714375,-0.23121821,0.14018631,0.44896742,-0.37853342,-0.16454706,0.15983253,0.29257804,-0.34079745,-0.11781379,-0.14921007,-0.24704931,-0.35503474,-0.02585662,0.30828053,-0.43464802,0.08693029,0.24015803,0.41796667,0.00418191,0.25774301,-0.49089855,-0.20692999,-0.30374291,-0.01482269,-0.10016558,0.29846027,-0.12714628,-0.02097725,0.08514601,0.02870463,-0.04701744,-0.07765441,-0.18655006,0.41203028,0.30729628,0.29534993,-0.16790689,0.44102511,0.09670520,0.35404793,-0.47294988,-0.42828934,-0.00329759,0.47297901,0.07522550,0.40734708,-0.11875430,-0.25125277,-0.42611824,0.49836564,-0.37739497,-0.39028746,-0.40428065,0.22045446,-0.22614634,0.08483488,-0.10333276,-0.06129992,0.32965956,-0.01427535,0.27097828,-0.42845924,-0.18591046,0.27557172,-0.44919481,0.08545082,-0.25113751,-0.09749519,-0.00266138,0.35098510,-0.49335597,-0.43742251,-0.45045918,0.42956761,0.46234921,-0.05854221,0.01818980,-0.23646702,0.14757274,-0.17754447,0.19503812,0.33691725,0.42140745,-0.44015087,0.44908207,0.15776847,0.07489160,-0.15825529,-0.26476654,0.20368116,0.32386126,-0.18595381,-0.13868295,0.24342700,0.35557826,0.29287765,0.00063494,0.48573677,-0.37362496,0.19368420,-0.11302902,0.35343809,0.07820460,0.34824127,-0.46922343,-0.19411949,0.36680471,-0.12316887,-0.22638612,-0.44124165,-0.04879144,0.19274278,0.35483363,-0.06728433,0.13435503,-0.44694327,-0.02216942,0.01233333,0.06533648,0.13162569,0.29766504,0.02798505,0.31322484,-0.41115839,-0.31239668,-0.16692947,0.06901052,-0.17650534,0.49171408,0.13017182,-0.12057524,-0.10304674,0.29447746,0.29577700,0.33487688,0.48789793,0.06655199,-0.37238574,0.44421850,0.48639543,0.23743085,-0.49663952,-0.33734207,-0.32659856,0.36133317,-0.10436825,-0.08898642,-0.47828173,-0.14063990,-0.36719960,0.38462174,0.49560712,-0.29183624,-0.15584482,0.15450571,-0.19573196,-0.26780268,-0.22123514,-0.32556659,0.17710291,0.07487085,0.07504029,0.39421029,0.35280240,-0.16477526,-0.49225447,-0.16102805,-0.25236049,-0.12963244,-0.29815648,-0.13182880,-0.05641408,-0.03424688,-0.38990445,0.46776392,0.03980922,0.05043790,0.36006645,0.38906592,-0.09834465,0.05304842,-0.14932608,-0.47231195,-0.34519468,0.47927441,-0.12168711,0.33502559,-0.32909704,0.31119827,0.47077654,-0.34261444,-0.24240329,0.45764528,-0.15896049,0.26659616,-0.17374981,-0.28367713,0.39607187,-0.16143380,0.41047826,-0.42138471,0.35139572,-0.46686763,0.11682800,0.42908140,0.26581459,0.25269609,0.40452143,0.45964203,-0.45664647,-0.15366416,0.39227678,-0.23193874,-0.03918965,0.03526773,-0.42915332,-0.18677581,0.39470254,0.40769711,0.23619527,-0.27062341,-0.43214066,0.26338950,0.47638371,-0.38203683,-0.04503570,0.42064622,-0.45232853,0.18385764,0.04740338,-0.45001539,-0.11342029,-0.28152358,-0.09186627,-0.08639888,-0.47241112,0.12198527,0.28348171,-0.30860892,-0.01569998,0.11062245,-0.40398773,0.15948046,-0.45328776,-0.46246520,0.03865868,0.04325182,-0.23894752,0.43370434,0.32659569,0.43569534,0.24665108,-0.28764858,0.15640968,0.32703751,0.02910743,-0.41885818,-0.06931525,0.06123636,-0.21530878,-0.20378428,0.35232631,-0.21869130,-0.27738628,0.11567463,-0.17921719,0.49756543,-0.29232812,-0.07365056,-0.30544826,-0.00854230,0.49953429,-0.49980981,-0.02376485,0.12589252,-0.46685046,0.03290735,-0.29179492,0.18614648,0.38354911,0.11051587,-0.43594526,0.34867998,0.41337637,0.49437134,0.47483548,-0.43293767,0.22541763,0.18043133,-0.36844419,-0.34313299,0.43265323,-0.46973999,-0.46868630,-0.12338687,-0.46978619,0.08889859,-0.42501269,-0.46441610,-0.49897178,-0.47944624,-0.05790791,0.30127950,0.08624700,-0.36069911,0.36210304,0.26625930,-0.09297697,-0.42476914,-0.28834214,0.19922763,-0.42546503,0.42165179,0.26277772,0.47375666,-0.16063090,0.43075958,-0.43699333,-0.48885392,-0.21731918,-0.36263865,0.34156254,0.24403273,0.39632085,-0.15182022,0.13064129,-0.03642883,0.41530387,-0.00931795,0.07387338,-0.45064208,0.11238541,-0.08065701,-0.28917487,0.37478315,-0.21453448,-0.00077582,0.48167160,-0.12916455,0.38562816,0.42218100,0.21511763,0.07819983,0.30852595,0.13799166,-0.36149494,-0.09294997,-0.05624395,-0.35578077,0.18869266,-0.13755935,-0.07132837,-0.20840999,-0.24826497,-0.35295541,-0.33773887,-0.18683205,-0.18913997,-0.09784988,-0.10565333,0.20443138,-0.38396690,-0.21959753,-0.45482535,-0.34110042,-0.19519865,-0.01330847,-0.05941637,-0.21951018,0.29936509,-0.30422494,0.05947469,-0.16635357,0.49388869,0.10843748,0.41415255,0.35468729,-0.29839434,-0.26867458,0.19648741,0.22664243,0.14712201,0.13747498,0.38415009,-0.09058814,0.41549728,0.12971591,-0.00899607,-0.19842525,-0.15490646,0.47040262,0.48411110,0.39413549,0.35604798,0.04939906,0.11815166,-0.26090728,0.10124173,0.49399861,-0.37252089,0.23219540,-0.18369121,-0.14881630,0.49167986,0.28659467,0.16809587,-0.09709602,-0.47702012,-0.30097448,-0.21757218,0.13944655,0.31869055,0.18668659,-0.06083183,0.46045061,-0.06426192,0.05468541,-0.13421444,-0.20336221,0.18776715,0.15279790,-0.19503569,0.26719400,0.10820784,-0.01293244,-0.28745877,0.37556893,0.10582704,0.09121263,0.39683781,-0.12825528,-0.09715600,0.40185147,0.12475116,0.30611770,0.23810179,-0.31364944,-0.23725613,-0.37767854,0.03172797,-0.00623788,0.08977461,-0.08215027,-0.40070091,0.30868843,-0.09776751,-0.02991396,0.41070430,0.03478220,-0.49411800,-0.02996440,-0.14063287,0.42982878,0.20114938,0.24097033,-0.15700611,0.31514633,0.15010457,0.23460756,0.08002259,0.49375583,-0.23038192,0.48960554,-0.07185070,0.34593785,-0.27010116,0.17959555,0.31905964,0.07289293,-0.26233689,0.07059902,0.00463368,0.32984732,-0.40234472,-0.13802288,-0.11805662,-0.33116757,0.34842527,-0.24791063,-0.42276045,0.47699077,-0.02620612,0.26286845,-0.37307900,-0.41001486,-0.42024350,0.20196119,0.11642454,-0.42601002,0.34342565,-0.14217991,-0.43515357,0.02344845,-0.41260527,-0.21599587,-0.09810956,-0.19388648,0.31580247,-0.33348687,0.47175574,-0.35209561,0.01634937,0.48219555,-0.43452797,-0.01280487,-0.24143347,-0.03627239,0.11216634,-0.40962747,0.09752425,0.48297102,-0.02479547,0.28314375,-0.48687916,0.49140205,0.22804334,0.06286119,0.29671433,0.06642292,-0.12610196,0.49563809,0.36218257,0.14482647,0.49949005,-0.31978191,0.14817058,0.25237088,0.06033024,0.18835003,0.19629389,-0.49969026,-0.20245895,-0.04831047,-0.31585244,0.21505854,-0.37713739,-0.19380054,0.15913241,-0.24155791,0.14736563,0.02344345,-0.27238115,0.02508902,-0.36486416,0.45447876,-0.48907894,-0.13138953,-0.09116325,-0.19841074,0.12267998,0.15891281,-0.01181104,-0.16025909,0.42374220,-0.02898875,0.43605207,-0.04958236,-0.30939716,-0.48961605,0.18454133,-0.14870740,0.01092686,0.05014610,-0.34996798,0.00867468,-0.06318149,-0.14515750,0.11515104,0.31194827,-0.47851624,-0.13890256,-0.28360655,-0.02604380,0.46697028,0.42418619,-0.06083671,-0.02812476,-0.04300798,0.09863720,-0.26965486,0.24499787,0.29706315,0.15503089,0.44412993,0.41153460,-0.09166667,-0.18186437,0.37755849,-0.06169506,-0.33143834,0.15520293,-0.12283993,-0.38135626,0.33430430,0.40801856,-0.04753869,-0.33734893,-0.25990685,0.02614115,-0.27151305,-0.16383011,-0.00884585,-0.33911491,-0.40660249,0.37803857,0.24094322,0.14679545,0.06350208,0.11006519,-0.36601819,0.27470580,0.20571894,0.12570775,-0.01131178,0.39618493,-0.31464786,-0.48116136,0.14028494,-0.29311928,-0.12156727,0.20142764,0.13523719,0.15029269,-0.44301403,0.14991542,0.15089466,0.29396286,-0.26102845,0.12926393,-0.12156869,0.40127544,0.17206556,-0.14178114,0.34817049,0.20747077,0.25118454,-0.06295419,-0.28957113,0.14349785,-0.44109326,0.31735614,-0.11019325,0.37869867,-0.28152855,0.46090265,-0.05277792,0.26254845,-0.43424724,-0.33105703,0.33535289,-0.28249266,-0.32558430,0.35058318,0.02922652,-0.44469554,0.16045206,0.02776718,0.41757038,0.02786351,0.12969260,0.21342809,0.42115476,-0.26758629,-0.44581559,0.38386457,-0.17992528,0.18622046,-0.38027487,0.09805676,0.03384720,-0.19885177,-0.07689556,0.24766792,-0.15926582,0.02964499,-0.10010178,0.15895654,0.05453721,-0.48486739,0.26484106,0.24695062,-0.01657728,0.07553732,-0.12027352,0.44407304,0.40011706,-0.44927350,-0.30970602,-0.25925878,-0.18092541,0.14063541,0.37865265,0.33738886,-0.28358719,0.19794786,-0.10480537,0.07301768,-0.41090255,-0.26696902,-0.13203283,-0.42893288,0.27227664,-0.05894654,0.00274875,-0.28064039,-0.21512128,0.27519616,-0.21002361,0.33537532,-0.31106040,-0.04920603,0.01149816,-0.19389200,0.12780546,0.32910688,-0.27988502,-0.00735964,0.01387038,-0.26390037,-0.29685981,0.24071174,0.28746892,0.01499490,-0.44185677,-0.04453255,0.03285173,-0.22900462,0.15487096,0.27414626,-0.07156027,0.40226299,0.11221148,0.50059018,-0.21519283,0.47102604,0.00552651,-0.32902183,0.39987300,0.04108021,0.17322423,-0.03760256,-0.25236124,0.41559624,-0.21305877,-0.20044893,-0.09734158,-0.20544804,-0.06645677,0.44733565,-0.05978336,-0.44923858,-0.40286799,0.44947029,-0.29908872,-0.32640939,0.28778290,0.28997102,0.43021917,0.34862749,0.34851939,-0.19461669,-0.45687362,-0.31298487,0.16801311,0.43818128,-0.03609072,-0.09146610,0.44142658,0.37713399,0.37591490,0.28731677,0.18493854,-0.08502206,0.27532973,-0.44171397,0.49726796,-0.36286759,0.16113129,-0.03652256,0.12392115,0.03550721,-0.27138701,-0.34761223,0.32038967,0.36182121,-0.43941046,0.27758859,0.42878257,0.18579559,0.10433780,-0.35604783,-0.06699925,0.46001665,0.06212655,0.47958541,0.08233329,-0.11793821,0.08443679,0.24348655,-0.25517004,-0.21491343,-0.47964435,0.12804373,0.39303826,-0.38758538,0.35088137,0.06475568,0.03420752,-0.24102144,0.08480464,0.42411449,-0.32341272,-0.41269589,-0.12671136,0.38712578,-0.19831948,0.21918011,-0.36617790,0.08309949,-0.39996682,-0.15718908,0.04973507,-0.26128701,0.26687695,-0.44170062,-0.14774366,0.26600997,-0.09792938,0.00907084,-0.33191815,0.12611736,-0.29645067,0.19717352,-0.34271677,-0.48803499,0.37171597,-0.08784191,-0.41865676,0.24106474,0.28996795,0.31653167,-0.40772092,-0.31999106,-0.49054436,-0.31514593,0.46026550,-0.18730546,0.00696908,-0.18400917,0.16875176,0.20664774,-0.09134132,0.49786011,-0.47371407,0.04883157,-0.48276627,0.49351721,-0.38886667,-0.02217590,-0.23922308,0.37246411,0.40658765,0.35212126,-0.09767532,0.08189673,-0.47492386,-0.24246251,0.44666122,0.16461537,-0.10902219,0.03668873,-0.22705834,-0.49038951,0.00816288,0.17671255,-0.15781059,-0.46010002,-0.19564081,0.01643140,-0.18644572,0.44660531,-0.33444769,0.41804983,-0.36585042,-0.27588377,0.29601066,0.35883846,0.35933788,-0.44689633,-0.44911942,0.33637810,-0.24951701,0.05803810,-0.14317881,-0.00245907,-0.05740178,-0.15427597,0.00323679,0.05690550,0.45951074,0.04271893,-0.31020504,0.36012513,-0.00794514,-0.22309100,-0.01736644,-0.36335292,-0.15906463,0.46862720,0.06106479,0.09454941,-0.24713175,-0.10706038,0.00316709,-0.41662542,-0.28635390,0.24426722,0.27306290,-0.37509586,-0.09035799,-0.11613315,-0.28154351,-0.35495584,0.36039541,0.46431493,-0.12940020,0.42454376,0.07528873,0.33856752,0.49499627,-0.46282185,0.28279343,-0.34342445,-0.39879566,-0.35504445,0.15854976,0.35024135,-0.32959120,0.18089901,0.24666166,-0.38339613,0.06580795,0.22144956,0.39963228,-0.00295720,-0.42657693,0.13831755,-0.46212347,0.26733904,0.10004540,-0.30699518,-0.25256471,0.38813059,-0.04948261,0.28204254,-0.09930993,-0.08937788,0.37289009,-0.09720380,0.46554329,-0.10519145,-0.35550053,0.20065366,-0.05220378,0.07965994,-0.47149970,-0.28979486,0.17975762,-0.43767210,0.13294254,-0.22602409,0.49762268,0.25936637,0.31562942,0.17384781,0.47439366,-0.13612164,0.36962209,0.09028630,-0.15125990,-0.02955593,-0.22467342,0.37348977,-0.11449099,-0.29269455,-0.36164352,-0.49598409,0.10999842,-0.10860756,0.48314593,0.08213295,-0.12636466,-0.18040556,-0.35858523,-0.35173698,-0.10742450,0.23376535,0.49412515,0.11937213,-0.34314682,0.45920773,-0.25084334,-0.19876305,-0.38245512,-0.39202091,-0.05091658,-0.23988283,-0.01942410,0.26857715,-0.20518165,0.23980081,-0.19202796,-0.02252164,-0.29206841,0.01416639,-0.11765915,-0.14245732,-0.09311030,-0.03762367,-0.41191155,-0.14479081,-0.09922283,0.13599320,0.36572688,0.23291812,0.08356497,0.48466958,0.02584542,0.19780179,0.20612551,-0.30910419,-0.25254894,0.49012582,-0.34329096,-0.39346564,-0.40986544,-0.18923775,0.07140101,-0.40672957,0.36578599,0.47341405,0.09587801,0.43694517,0.00022155,-0.03335449,0.40894758,-0.23729880,0.26029818,0.19241031,0.25207078,0.12307273,0.49451609,0.09797442,0.49107143,-0.23792219,0.31860488,0.39373686,-0.09977267,-0.27839727,-0.41015563,0.02035036,-0.21930323,0.34113312,-0.25121873,0.19294934,-0.12335655,-0.04270509,-0.13169582,0.21653757,-0.23991897,-0.12967310,-0.31131372,-0.48969788,0.32181600,0.48908474,0.03500989,0.09895007,-0.05166954,0.44178728,-0.31377326,0.10479912,-0.04216410,-0.36769422,0.14788170,-0.24251508,-0.40797143,0.30804306,-0.13787449,0.30434630,0.10641877,-0.44871267,-0.28779331,0.32782478,-0.05771675,-0.34750326,0.45055533,0.42180864,0.05926544,0.21311045,0.17622210,0.09862092,0.21265147,-0.08127665,-0.25440661,0.42697354,-0.35847484,0.32170698,-0.04190293,0.48346413,0.35344469,0.32200706,0.23018705,0.43553859,0.09331787,0.45707737,0.30013808,0.33966956,0.21189611,-0.43203891,-0.03045400,-0.30564372,-0.44518920,0.35599929,0.22625975,-0.13646465,0.36967933,-0.16114666,-0.06266694,0.21598255,-0.19426663,0.12624219,0.28334767,0.46083643,-0.33062201,-0.28246142,-0.02240204,-0.35076449,0.00266730,0.18726409,-0.08559834,0.01378565,-0.40290795,0.44247642,0.16689572,0.14126495,0.00046599,-0.34008843,0.09373317,0.25584497,0.41499103,0.44810483,-0.46947560,0.48780072,0.35523519,-0.16625529,-0.01319774,0.42365342,0.30399668,0.09930465,0.06320306,0.43351833,0.00975823,0.24635349,-0.18099776,-0.15276135,-0.09576080,-0.22376435,-0.22799750,-0.17601862,-0.29849717,0.15674821,0.22392576,0.45963350,0.12221481,0.25339693,0.28192378,0.43669685,0.27275135,-0.30971299,0.33269696,0.24254682,0.07481581,0.42100165,0.33450694,0.41763109,-0.22831250,0.28066487,0.34496115,0.14964899,-0.29655380,-0.18102265,0.49430822,0.45210291,0.44660349,-0.32604829,-0.30619818,-0.40890219,-0.08041056,-0.41109985,-0.07595447,0.27713198,0.09582511,-0.22338431,0.46047652,0.25821985,0.11793571,-0.20948711,-0.02047797,0.29742831,0.31081507,0.41252202,0.33370154,0.09221215,0.09068449,-0.42856051,0.20897798,-0.22113732,0.14662208,-0.10848440,0.03563077,0.33080378,0.17765247,0.37074783,-0.14075043,-0.00349555,0.36248352,0.03392555,-0.07545030,0.34550646,-0.22764922,-0.16063256,0.04949410,0.31258560,-0.00140374,0.42479088,0.29836508,-0.11797734,-0.08205717,0.13951781,-0.18784466,-0.30167236,-0.07074710,-0.43739950,0.11923030,0.35475013,0.07132198,-0.04634429,0.35051396,-0.02622241,-0.15948494,0.36066482,-0.16596427,0.27877905,-0.33093085,-0.16598152,0.05306760,-0.19687555,-0.13206991,0.21801411,-0.22518550,-0.37408531,0.09809381,-0.31277937,-0.08406509,0.03207314,0.47159321,-0.38911143,0.17337269,0.08829744,0.42845487,0.16530725,0.02210817,-0.13266061,-0.39245300,-0.38625587,0.18497200,-0.44140453,-0.14322593,0.38329052,0.49995076,-0.35464237,0.10942305,-0.29079172,0.13618753,0.46701393,-0.43118050,-0.34347062,-0.37647433,0.18332029,-0.27299957,-0.19890460,-0.34373049,0.12823659,0.42275147,0.25024062,0.22767705,-0.22737739,0.19026127,0.20068274,0.45773107,-0.05285097,0.17225397,-0.00323690,0.21201416,-0.30310217,-0.03537261,-0.08606456,0.42831493,0.07050378,-0.05475570,-0.14017330,-0.15228355,0.24738843,0.36827964,-0.29462513,-0.27234903,-0.40032505,0.41536499,0.37658487,0.44279777,0.01675954,-0.08452133,-0.28353823,-0.41700392,-0.34103901,-0.00747748,0.42378641,-0.26487110,-0.45105683,0.30672023,-0.03304882,-0.16197792,-0.31587692,0.05303168,0.08911034,0.14921407,0.25466627,0.12767359,-0.24257509,0.03425124,-0.06416644,0.32209220,0.10029801,0.11470062,-0.09869402,-0.12602560,-0.07393401,-0.30590573,0.40510222,0.28413321,0.32070496,-0.36119794,-0.39663521,-0.06652118,0.27234914,-0.14686185,-0.40268366,0.09449267,0.16338838,-0.32128256,0.37861324,0.04906659,0.34410567,-0.13135121,0.29265939,0.47383789,0.28852903,0.23288166,-0.05676379,0.37504907,-0.25578470,-0.21754345,-0.10984600,0.01741756,0.36582081,-0.11065527,0.46867511,-0.03470313,-0.12354553,0.16815102,-0.25994998,0.49706480,-0.07705448,-0.01432780,-0.14121464,-0.44666469,-0.26206989,-0.45493604,-0.35533811,0.35458878,0.49143958,0.43060256,-0.32744900,-0.27146417,-0.33426209,-0.34236129,-0.18380150,-0.07070796,-0.38995968,0.21616854,0.05807844,0.43895243,0.25911337,-0.46934497,-0.17815084,0.49016701,0.01789859,0.12672193,-0.23701572,-0.06340695,-0.43546305,0.33107532,-0.37813523,-0.05483504,0.45439496,-0.08458334,0.09193316,0.06736069,-0.40066523,0.46146386,-0.30776139,0.09344080,0.36354196,-0.07800611,0.22124035,-0.21034361,-0.44113703,-0.48502237,-0.02768020,-0.42261700,0.37381210,-0.41230707,0.38000474,-0.13061348,0.20323382,-0.16509270,0.19655086,0.01794466,0.30701419,0.22741799,0.48758632,-0.29316603,0.39176195,-0.18966781,-0.39816010,0.32795113,-0.05166142,0.05214849,0.02496021,-0.40077378,-0.23000051,-0.36864849,-0.31791063,-0.30557779,-0.02746071,0.33812819,-0.14532040,-0.30282595,0.39863884,-0.27447036,-0.19413936,0.07253415,-0.36999495,-0.17796666,-0.26683096,-0.28876158,0.22812485,0.21669258,0.47036510,-0.26764718,-0.00250941,-0.35249275,0.23302211,-0.42799332,0.01472891,-0.17901602,0.38976771,-0.36605938,0.40251898,-0.13725851,-0.38278860,0.32259662,-0.35738639,0.18738931,-0.16486425,-0.13060695,0.42931671,-0.25766035,-0.14576952,0.15305276,0.46965495,0.39502510,-0.04692395,0.05062211,0.23920229,0.49116794,0.09502422,-0.14402938,-0.25480677,-0.26995044,-0.11493513,-0.07246487,-0.44171800,-0.41088187,-0.28534932,-0.36943639,-0.40747073,-0.07925815,-0.24137935,0.12660385,0.30043020,0.24688514,-0.28392785,-0.08289187,0.43402071,-0.28444658,0.13039938,0.08340574,0.29574824,-0.28019180,0.47342405,0.33291573,-0.12431899,-0.34467706,0.01243093,-0.29117459,0.21669769,0.11732157,-0.47087589,0.34994392,0.29839735,-0.40226999,0.21706440,-0.44113724,0.30229206,-0.29702552,0.42504007,-0.45375521,0.39075572,-0.39644819,-0.11008123,0.14644271,0.25037682,-0.18136597,-0.34821688,0.44794576,-0.46732176,0.26246700,-0.20155844,0.12570607,0.16834987,0.03325069,-0.05376200,0.20991152,0.17957553,0.12549579,-0.25028972,-0.28723296,-0.20568394,0.26613291,0.26263581,-0.01318246,0.24210335,0.42199247,0.36997643,-0.47485857,0.16192366,-0.26802149,-0.30771666,0.45332107,0.08510839,-0.21529919,-0.38205508,0.37184548,-0.27041802,-0.02175917,-0.38220115,-0.04732082,0.26085349,-0.05497466,0.27174264,0.06932454,0.29086855,0.34046197,0.01908095,0.07210425,0.48638757,-0.41315435,-0.48617771,0.20213881,-0.09972718,-0.30664105,0.19156570,-0.23824098,-0.33643640,0.14194046,0.31812646,0.05677636,0.09626239,0.06267915,-0.03773614,-0.07690942,-0.32703116,0.43135265,0.37748729,-0.13041350,0.13887178,-0.32588571,0.19013564,-0.37181019,0.44433310,-0.09585899,-0.38232650,0.08477603,0.24649173,-0.32915009,-0.06415877,-0.12991164,0.18172859,0.34658686,-0.21019611,0.46138470,0.12687923,0.23728798,0.39003070,-0.36343573,-0.46327305,-0.22651705,0.31874270,0.42300114,-0.21927478,0.18151312,-0.28395370,-0.41729295,0.42418029,-0.49937357,-0.33828160,0.25111284,0.02393764,0.01297938,0.05405212,0.28483987,0.23189595,0.07559146,0.03395214,0.26374199,0.02464151,-0.41502005,0.31095318,-0.17796010,-0.04935944,0.41652054,-0.24238223,0.01324934,0.14660909,-0.46117927,0.31840090,-0.23327471,0.41263026,0.36407875,0.13433012,-0.48279187,0.11648222,0.09012072,0.10849727,-0.41710847,-0.34272570,-0.49707225,0.06927939,0.14077146,-0.07174758,-0.43922213,-0.23527043,-0.23758882,-0.23685202,0.15943065,-0.18743318,-0.27964100,0.49446982,-0.24901538,-0.28461583,-0.40561407,-0.21235323,0.38210065,-0.30204188,-0.06239229,0.30762942,-0.47172480,-0.28802051,0.11633920,0.49278274,-0.08728710,-0.44337200,-0.09727989,-0.31295966,0.35060341,-0.16294922,0.30572557,-0.06985909,0.04257989,-0.07913314,0.30200443,0.04642527,0.29818906,-0.15408338,0.06624391,0.47759349,-0.34159926,-0.00488971,-0.07196474,0.47566729,0.15492082,0.47464949,0.27493350,-0.18580839,0.00832146,0.16809478,0.10658977,-0.49825116,0.05798347,-0.24863832,0.36237313,-0.04135736,0.19751084,0.11687838,0.19723418,0.30460259,-0.42169148,-0.14967908,0.49403487,-0.12409999,-0.19553042,0.11571274,-0.04857018,-0.19410994,0.43197295,-0.05389708,0.35175043,0.38626421,0.15922887,-0.37427251,-0.29069949,-0.43204780,0.17907894,0.03627697,-0.46565273,0.27769024,0.01782066,-0.02098916,0.34505552,0.02872990,0.46497534,0.45056946,0.16599720,0.33581510,-0.15898252,0.40420477,-0.10891698,-0.43810593,-0.41690753,-0.04473283,0.00439558,0.42818799,-0.25429577,-0.38720636,0.04180327,-0.06395538,0.27565924,-0.27018908,0.23546449,0.47458716,-0.17616793,-0.29114697,0.33749931,-0.16827869,0.17342033,-0.34619470,-0.35714917,-0.17333921,0.40349303,0.14763862,-0.44011598,-0.32631478,0.36226121,-0.22774733,0.04681050,0.11497224,-0.34571481,-0.30613221,-0.16011638,0.06211131,0.10781145,0.17228438,0.24672935,-0.07460964,0.49018868,-0.01537705,-0.23443641,0.47936314,0.01820649,0.05287729,-0.19594597,0.23125646,-0.15499713,-0.09408800,0.33941135,-0.01328715,-0.04670746,0.43979335,0.32436819,-0.15719662,0.02400830,-0.40054350,-0.09567399,0.10527778,0.40986103,0.45909502,0.14325779,-0.07141637,-0.02903412,0.06378582,-0.24373275,-0.06226896,0.21281129,0.00339875,0.37704268,0.31630672,0.17250406,-0.04346502,-0.14979527,-0.25732440,0.25691643,-0.40018937,-0.02003506,-0.43126196,0.11909985,0.38849566,-0.43790660,0.02234696,0.08107185,0.40536158,0.34746862,-0.02413343,-0.38300802,0.23253930,0.14501512,0.43813341,-0.00526381,0.02820150,-0.21134671,-0.15381625,-0.17439949,-0.01378625,0.27284067,-0.22045700,0.30860948,0.45943239,0.39854069,-0.39199597,0.12482440,0.30241190,0.01995083,-0.43106378,0.40257967,-0.46467071,-0.04322587,-0.29492856,-0.37775433,0.46217906,0.22948995,-0.01838692,-0.29901400,-0.28805639,-0.09554746,0.02842556,0.05453606,-0.49464402,0.26264550,-0.42820084,0.39412636,0.42425686,0.23208676,0.16612924,0.46743930,-0.49324924,-0.01789191,-0.35634400,-0.28642725,0.07430323,-0.06100113,0.28620429,0.13086742,-0.45233340,0.00435686,-0.24628285,0.18334854,0.14597812,-0.18911355,0.32440865,-0.17314782,0.01126794,0.02790529,0.22484193,0.06979727,-0.33008014,-0.18676470,-0.40501717,-0.48390580,-0.32171605,0.20125849,-0.04170297,0.32613344,0.10170448,0.26163540,0.06442007,0.06387324,-0.49911172,-0.38613954,0.02555259,0.45421989,0.12716979,0.06919996,0.27419979,-0.05825517,-0.06070702,0.37212734,0.26372022,0.45636454,-0.02519192,-0.49838902,-0.06173922,-0.44072494,0.24258714,-0.45931676,0.21748478,0.48999139,0.48814435,-0.40286107,0.36251464,-0.47306093,-0.36934310,-0.47119397,-0.48492331,0.40097064,-0.46523481,-0.39180250,0.32056833,0.35743374,0.06676010,-0.16508488,-0.23240141,-0.27004697,-0.02767113,-0.10959743,-0.26391311,0.28655342,-0.27006722,-0.35960595,0.47223121,0.28408946,0.24642728,0.15166278,-0.27314266,0.28477059,-0.30508427,-0.42619254,0.17730043,0.18764338,-0.25762329,0.27664295,0.24935969,-0.31718112,-0.46595795,0.19872967,-0.47279166,-0.04185785,0.17974831,0.30129357,0.29981261,-0.30687455,0.38635722,0.34458603,-0.04737261,-0.34802481,-0.08393085,-0.44795695,-0.36552237,0.33219850,0.36966783,0.45561835,-0.46390930,-0.27817903,0.39697252,0.31438462,-0.27119302,-0.06801311,-0.29358318,-0.03212016,0.15447329,-0.37222827,-0.19178981,0.40142318,-0.08119835,0.34345811,-0.32716687,-0.12301600,-0.10703010,-0.37843761,-0.08756987,-0.48732590,0.05160981,-0.10778954,-0.17849587,-0.48187251,-0.39132655,0.05961099,-0.13701853,0.15592786,-0.08882232,0.44016014,0.14223251,0.31032814,0.33344309,0.10292915,-0.12642137,0.03631231,0.17587568,-0.13803790,-0.46014944,0.10156039,-0.00256838,-0.48290629,0.02168284,0.06299518,0.46203582,0.02674041,0.09781231,-0.08140591,-0.19898366,-0.48611495,0.33749754,0.05360983,-0.13738138,0.25627876,-0.30754232,0.39416852,0.18423011,-0.20966779,0.33001766,0.22555083,0.22352928,0.45788397,0.46544944,-0.27728657,-0.14935878,-0.27755869,0.13201108,0.48337920,-0.38646202,0.12272046,0.47653570,-0.46858732,0.14745151,0.31130238,-0.34648494,0.20764929,-0.10724792,-0.12381818,0.42667503,-0.40842099,0.47053287,0.27373740,0.33577097,0.33710115,-0.44108644,-0.14176464,0.09900694,0.33161348,0.01048846,0.45586018,0.42472851,-0.12071252,0.48044805,0.23046702,-0.46614488,0.27390737,0.27928921,-0.48972917,0.09087958,0.14882385,0.27814265,0.25108462,-0.44839328,0.16074046,0.06004489,0.46953413,-0.02741790,-0.04102779,-0.39000161,0.14294814,-0.09639330,0.38168294,-0.26386593,-0.25781619,0.21576513,0.32650050,-0.18828056,-0.21007314,-0.04186968,0.33262755,-0.12321140,0.10547518,0.47107132,-0.10664643,-0.13955081,-0.28395756,0.14634729,-0.07007468,-0.26514539,-0.33792919,-0.45493692,0.29382501,-0.14951465,-0.38792544,-0.43373598,-0.16680563,0.16736568,-0.40833127,0.08865965,-0.09684464,-0.20272359,-0.40600809,0.06705887,-0.22371565,-0.42819139,0.35967353,-0.48450272,0.30276611,-0.04725874,-0.44174395,-0.26172137,0.11758815,0.39340730,0.18073718,0.15300507,0.26798865,-0.47708155,0.31850096,-0.31800025,-0.41678519,-0.19166141,0.43224399,-0.37014288,0.22101982,-0.02719844,0.18092697,0.29713369,-0.11641777,-0.22793208,0.03125418,0.18961430,-0.45048529,-0.12914356,0.22613423,0.01051532,-0.29616327,-0.34208639,0.18761869,-0.31917520,-0.38558826,-0.05279510,-0.42583088,0.18964969,-0.18367935,-0.49687569,-0.18956572,0.04915664,-0.14043282,-0.20967310,0.15721791,0.26290626,0.36322567,-0.07866081,0.26289689,0.40944907,0.33649249,-0.09775394,0.00943796,0.42187437,0.09511138,0.07811955,0.11878043,0.38276340,0.38073430,0.46228238,-0.40341312,-0.28717827,0.24812627,-0.20075443,0.12251922,0.20209087,-0.08988965,0.25333051,-0.18835130,0.09673370,0.39771180,-0.20453683,-0.23511398,-0.21741465,0.40703352,-0.20899300,-0.31125097,-0.37080004,0.01175078,0.15940042,-0.42197058,0.16232035,-0.25489563,-0.12686515,-0.12972163,0.16933507,-0.20664830,-0.04329190,-0.41005889,0.04190286,-0.36515216,0.14285828,0.09876716,0.19640778,0.45150207,-0.03914207,-0.16722103,0.06061386,-0.20137471,-0.00806539,-0.06549927,0.12730632,0.18374599,-0.48650702,0.23509162,-0.22350105,0.21896323,-0.33619364,-0.37140751,-0.38227811,0.30080849,0.36312103,0.45400961,0.15358685,0.34768496,-0.15954696,-0.14273091,-0.49676129,0.28884327,-0.28468216,0.07491670,0.00989592,0.37268335,0.27793166,0.01790692,-0.21262016,-0.13097499,-0.42745938,0.11330140,0.14931049,0.06256299,-0.13930791,-0.26285876,0.31400989,0.29335718,0.02553755,-0.34836106,0.00812576,0.47174298,-0.19066130,0.42762965,-0.49513986,0.25376424,0.03564679,0.45798301,0.25932738,-0.30830820,0.26604629,0.02705467,0.06003823,-0.25194250,-0.25904636,-0.45812994,-0.09128614,0.07872973,-0.40340201,0.39418732,0.36624662,0.36689873,-0.22690917,-0.09148369,0.49421551,0.00455218,0.10408526,-0.27212729,0.34451569,0.15323505,0.10403669,0.45413112,-0.30216704,0.24844831,-0.13844997,0.24087458,-0.23810197,0.07725892,0.20107733,0.31882622,0.49412188,-0.01982178,0.33126409,-0.31659971,-0.44055252,0.01382832,-0.35779206,-0.28156941,0.01056914,-0.26544002,0.28952091,-0.23101822,0.31216929,0.31500399,-0.16293677,-0.46928967,-0.49893320,-0.16808837,0.16981636,-0.45012580,-0.21866589,-0.10837467,-0.11134142,0.10825328,-0.38903322,0.25064643,-0.09592346,0.25786516,-0.46504472,-0.34373698,0.37421611,0.14745817,-0.19871938,0.06386452,-0.40229713,-0.28567234,0.34544317,-0.06557691,0.30805451,0.23341670,0.49665252,-0.07155024,0.03791235,-0.04426926,-0.39350256,-0.22667199,-0.29860145,-0.19600890,-0.42449509,0.11483265,0.12416581,0.45598603,-0.19709658,0.23191714,-0.14245437,0.07269514,0.47036367,0.47486620,0.38119224,0.38710444,0.23791620,-0.16173622,0.44180359,0.38035459,-0.17402592,0.23536009,-0.41699281,-0.31050352,0.32556064,-0.42668636,-0.34615860,-0.40184200,-0.28209684,0.25148793,-0.09734492,-0.38423748,0.05354049,-0.04890106,-0.07996127,-0.40649455,0.13457989,-0.42138430,0.31283579,0.44466546,0.22563289,-0.03596297,-0.03851154,-0.32543341,-0.40810321,-0.13303063,-0.30569118,-0.03418776,0.20874919,0.21181076,0.48128744,-0.16543653,0.01882224,0.33006361,-0.35511582,0.13370542,0.36800955,0.38144461,-0.01484054,-0.13320473,0.19327596,0.20695618,-0.21738242,0.37684287,0.15784413,-0.30845504,-0.21706515,0.35946744,-0.24269837,-0.00977678,-0.11235648,-0.05105581,-0.16212362,-0.16598051,0.44211085,-0.26287372,0.28827566,0.20637235,-0.32188966,-0.24311035,0.35236442,0.46678294,0.46499862,-0.44245221,0.17700085,-0.06565128,0.41821301,0.30502376,-0.08038234,0.29078614,-0.42173316,0.44030818,-0.22864306,-0.33630562,0.43757352,0.30270746,-0.20679378,-0.03414883,0.05395804,-0.29469180,-0.30540265,0.30491013,-0.48651860,-0.48385812,0.17363377,-0.42873352,0.05934385,0.14412880,-0.29146261,-0.23819925,0.41198422,0.48132872,0.44695618,-0.10404392,0.35594490,0.34319202,-0.28618025,0.48792526,-0.35280063,0.20246560,0.36982020,0.14838270,-0.06478342,0.22869541,0.23494928,-0.43595242,-0.14121336,0.34559180,-0.42053684,-0.35594468,-0.13585020,-0.15438041,-0.48935605,-0.11698671,-0.27730918,0.09111384,-0.00942217,-0.32449345,0.37645825,0.35976095,0.27976592,-0.24194465,-0.13901640,0.08628502,0.46219289,-0.18128343,-0.40401569,-0.15778530,-0.32226440,-0.17865411,-0.01830021,-0.25220658,-0.29976258,0.39584925,-0.06425852,0.27224393,-0.22086580,-0.39333185,0.07607686,-0.06385049,0.12294370,0.41840526,0.40407475,-0.03783631,0.42227941,0.26031543,-0.28837689,-0.40144046,0.12155512,-0.32512236,0.21973862,0.32282994,-0.36427352,-0.31975861,-0.42159416,-0.07090377,0.15556065,-0.16025858,-0.05560924,-0.20102716,-0.02539286,-0.11666088,0.14485115,0.15475151,0.14076885,-0.14068553,-0.34835748,-0.21464921,-0.20970914,-0.01416739,0.08867198,-0.25740346,-0.22689688,-0.15965050,-0.37940556,0.11474123,0.31073323,-0.31196341,0.36601831,-0.33095676,-0.32418449,-0.21368473,-0.49798596,0.48402188,0.07501563,0.28816945,0.49705796,0.27557459,0.32473791,-0.37925151,-0.10748546,-0.33496102,-0.21163126,-0.41644565,-0.47872648,0.00920923,0.15119805,0.16906044,-0.11224880,-0.38378690,-0.07542094,-0.05191930,0.10759230,0.16596405,-0.17262435,0.48633927,0.08824138,0.04253230,0.36970929,0.17769015,0.42507924,0.23078405,-0.43888414,-0.29276473,-0.07297910,-0.23608095,-0.32208150,0.42613167,0.01321219,0.07743588,-0.26494979,0.27258996,0.28708133,-0.44582373,-0.08631465,-0.10857197,0.02557689,0.32291311,0.23999395,0.42190984,0.02316146,-0.02366292,0.27828644,-0.16798414,-0.13520487,-0.27335574,0.38469616,-0.49090030,-0.01963921,-0.01800319,0.25361339,-0.31197456,0.30675025,-0.17630473,0.02362233,-0.38272275,0.08419704,0.46482562,-0.28107493,0.37454659,0.23640010,0.43480358,0.49577797,-0.41742157,0.27278564,0.03267711,0.46532442,-0.27971542,-0.11279945,0.17156726,-0.09621861,0.46399609,-0.37269750,-0.03511754,-0.04670665,-0.28093399,-0.03694567,0.45720424,0.10711518,0.37565047,-0.05437478,0.45171459,-0.02285979,-0.42403559,0.23853818,-0.19707409,-0.48827117,-0.00927498,0.02499236,0.41867925,-0.29778586,-0.39575650,-0.47407282,-0.30624206,-0.49001400,-0.43865844,0.14804191,-0.04012280,-0.45947863,0.33805665,0.32522754,-0.26069216,-0.10936827,-0.22648321,-0.28084943,0.43275931,0.06265823,-0.27124315,-0.43817093,-0.10637528,0.19806189,0.03530130,0.35177470,0.15392044,-0.15239507,0.07930840,-0.15395052,-0.29954874,0.18617494,-0.17813450,0.11167993,-0.04358426,0.20024925,0.21825150,-0.29696280,-0.40537316,-0.21450110,0.47627430,0.18405673,-0.47610013,0.16220810,-0.08320641,0.29298850,0.20464356,-0.24153530,0.46617368,-0.38658370,-0.12057008,0.19966540,-0.15001385,0.10057225,0.43918785,0.19058756,0.28333801,0.43644248,0.25970964,-0.05284200,0.03256671,0.30418271,0.11143349,0.22621558,-0.03477351,0.35164513,-0.37962961,-0.32387296,-0.30449040,-0.20581585,0.37542357,0.04367163,0.15447632,-0.20317971,0.39295880,-0.48853514,-0.15067830,-0.42977169,0.25040469,0.31365105,0.12600527,0.41952321,0.00098154,0.18502875,0.03217725,-0.45928238,-0.08368589,0.47996329,-0.39456917,0.13623088,-0.27120101,0.36890583,0.38413454,-0.09341802,-0.00726971,0.24549500,0.05665946,0.19569355,0.13969277,0.37423809,-0.06131855,-0.25167279,0.29116862,-0.32139159,-0.32076815,0.34120725,-0.31534303,0.42052698,0.23086498,-0.21504160,-0.39482188,0.26331260,0.32802225,-0.41011266,0.17485349,-0.15480236,0.47662294,-0.35941614,0.05479273,0.43957771,-0.33284219,0.45784620,0.13743394,-0.44914276,0.31875149,-0.40774624,0.01929105,0.15268511,0.19610815,0.47549550,-0.00307866,0.01382033,-0.41119994,0.29232982,-0.27017560,-0.19089328,0.17790585,0.34675435,-0.08582918,0.27349396,-0.36597483,0.08560697,0.11581054,-0.40102448,0.20745466,-0.44904630,0.40219801,0.27910792,0.16257333,0.34835183,-0.26010389,0.20535268,-0.32916657,-0.13587608,-0.21861732,-0.30644870,0.08647693,-0.44756676,-0.42169448,-0.43214917,0.18838477,0.23153073,-0.43937702,-0.46988593,0.34407423,-0.36142625,0.30570279,-0.45221583,-0.40307735,0.04307875,-0.09905269,0.09365621,0.13883701,0.34693985,0.18471522,-0.31800645,-0.29719201,0.35727844,-0.13848550,0.30976207,0.49087757,-0.08295393,-0.02757936,0.05190546,0.29583929,0.11739825,-0.13666747,-0.26698386,-0.46313425,-0.25858963,-0.41791631,0.45421509,-0.20553418,-0.16437566,0.05808339,-0.08794694,-0.15891695,-0.41658090,0.49985052,-0.45762284,-0.44830728,0.47521041,0.17306220,-0.23814266,-0.08989624,-0.14788815,-0.44043440,0.31727517,0.22858918,-0.07566451,-0.45279602,-0.25001716,0.03440221,-0.00780337,-0.04867232,-0.44755751,0.41071791,0.25751597,0.47011695,0.38005795,0.42904978,-0.47090073,-0.36483631,-0.28627688,-0.40011037,0.26736405,-0.31999208,0.41603048,0.15138963,-0.26400442,0.28543033,-0.32349690,-0.05352761,-0.16856218,0.39868126,-0.40500841,-0.43100498,-0.21756062,-0.02372212,0.21190440,-0.08859930,0.18088156,-0.17256778,-0.20888142,-0.43109886,0.49891737,-0.37483485,0.49247278,-0.01431749,-0.35743038,0.36005213,-0.18251187,0.01365678,0.42374138,-0.04965235,-0.18888452,-0.26312901,-0.16960482,0.29637580,-0.06759664,-0.16252646,-0.32721341,-0.07339275,0.00520991,-0.04674037,-0.27192259,-0.28464450,-0.23610562,-0.04474173,-0.25405562,-0.48204918,-0.28977320,-0.41224272,0.47519620,0.02630920,-0.26483681,0.17092440,0.39822552,0.17163139,-0.47450479,0.18613094,0.42362050,-0.42339201,0.34549170,-0.06989288,-0.05654220,0.21658065,0.20515970,-0.05627598,0.47148283,-0.12736979,-0.07832433,0.48487860,0.30624626,0.12370470,0.33225697,-0.13339543,0.03495658,0.14676861,0.23698833,0.21291537,-0.41579390,-0.39786031,-0.20072941,-0.00444570,-0.22576132,-0.16480246,0.46214777,0.08956556,0.47984601,-0.31182544,0.22714184,-0.04651143,-0.45051634,0.41537593,-0.16248827,0.31189565,-0.20256289,-0.30480912,-0.27133002,-0.47076098,-0.45236815,-0.41363115,0.17875163,0.42135093,-0.09004381,0.06300376,-0.01510056,0.10843671,-0.17355209,-0.28902290,-0.34315883,0.06214470,-0.08552875,-0.08284653,0.33038929,0.10596782,0.17255571,-0.03966600,0.49440444,0.47289985,-0.30712727,0.12628642,0.25466038,-0.31845982,-0.14330240,-0.11077615,0.06554951,0.28339420,-0.43544217,0.38735024,-0.06913630,0.46478445,0.44866743,-0.42669745,-0.18770591,-0.21804829,0.17065408,0.04276393,0.37094579,-0.25011059,0.36190355,0.18166664,-0.36137897,0.03131364,-0.11022854,-0.27630837,0.39873743,-0.15076489,-0.02562162,0.36111443,-0.28324101,-0.43821270,-0.44014240,-0.13777229,0.25427943,0.04446928,-0.23803895,0.44482317,0.06387804,0.24014096,0.38449249,-0.04890332,0.16958514,-0.28736357,-0.27214495,-0.21449368,0.49717277,-0.48672308,-0.31196094,0.06568053,-0.19596293,0.19070034,-0.31213695,0.12153989,-0.44599296,0.44988454,-0.39890764,0.45336790,0.05806868,0.06728900,-0.16881315,0.20420963,-0.43865550,0.22460634,-0.46767593,0.13812021,0.43691673,-0.09579703,0.46532944,-0.40428796,-0.02075032,-0.29110177,0.04000400,0.19301191,0.45447802,-0.29913246,0.28091755,-0.48260468,0.10487912,0.45257210,0.18149568,0.04485109,0.42773115,-0.03979471,-0.47571630,0.30977089,0.07642988,-0.40883357,-0.04212893,0.48027702,0.17764970,0.20813619,-0.48072519,-0.26782496,0.32015525,-0.43386743,-0.43022535,-0.29179114,0.32239888,0.43665497,-0.32999471,-0.03364551,0.47016746,0.43201310,-0.27306080,0.20238864,-0.00816429,-0.25346423,-0.38336810,0.46952444,-0.39664868,-0.19966743,0.49067820,-0.22279011,0.23257214,-0.33234017,-0.42309719,-0.46182203,0.33682744,0.19066194,0.14415602,0.44812707,0.06717779,-0.47237124,0.23716734,-0.38737083,0.45813360,-0.34892260,-0.38013019,0.33070273,-0.34072138,-0.25590856,-0.10417628,-0.15460305,-0.44796116,0.38779974,-0.25066354,0.44919052,-0.47989869,0.40324303,-0.46459819,-0.36330321,-0.41270049,0.33576399,0.23933713,-0.26663657,-0.22721602,-0.44051710,0.27719277,-0.37898413,0.27027375,0.13574903,0.22498918,-0.03624464,0.18628317,0.36300594,0.07982327,0.06391858,0.25203357,-0.16946178,0.24721460,-0.16359541,0.41619082,0.29378744,-0.23741277,0.24766105,-0.15245097,-0.07066707,0.15538472,-0.08725814,0.12769143,-0.25327453,0.32401868,-0.16411616,0.25824424,-0.23015956,-0.00172695,0.05152361,-0.06681803,0.25495954,0.02903292,0.18382489,0.34943922,0.49681267,-0.17974742,-0.22269485,0.02848768,-0.28378625,0.13895707,-0.08476147,0.19288067,-0.10734264,-0.36946147,-0.15091729,0.31040039,-0.12681054,0.07203927,0.12971681,-0.42245394,-0.05258888,-0.19973278,-0.05091418,-0.46703519,-0.11998202,0.32697046,-0.18699927,0.01927958,-0.45532163,0.49003292,-0.05697611,0.33792485,-0.00335953,-0.29078122,0.45082956,0.38224985,-0.06656882,0.44723085,-0.24950825,0.41835855,-0.42094823,-0.05279780,-0.26672647,0.36280244,0.27715547,0.48791033,-0.12972610,-0.05040374,0.33033972,-0.35108193,0.34887110,-0.30625645,-0.38613348,0.35468825,-0.26313375,-0.33604588,-0.49049084,0.27724643,0.01697836,-0.20498221,0.20865652,-0.43718102,-0.27379736,-0.13089972,0.45726535,-0.40261848,-0.25896068,0.47211994,-0.01429682,0.44043354,-0.21525511,-0.25775845,-0.02264862,0.03647430,-0.23811625,0.03716641,-0.15672564,-0.08234724,0.20068104,0.19341465,-0.13738324,0.26618582,0.22845810,-0.20270411,-0.12181009,-0.42370706,0.20638963,0.20232027,0.43904059,-0.14914658,-0.20877358,0.11864798,0.18082380,-0.49707978,-0.04714468,0.11312537,0.43774291,0.43178026,0.26573838,0.30382167,0.36617492,-0.38678833,-0.05606742,0.45100313,0.34765034,-0.28239846,0.20180978,-0.35437202,0.25214823,0.25356454,0.38929645,-0.30008670,-0.25975115,-0.28083413,0.27552963,-0.17990892,0.23307160,-0.04255406,0.20083813,0.00300977,0.35036353,-0.29556764,0.23316091,-0.32486918,0.39483570,0.00680268,0.38465022,-0.49618207,0.05171977,-0.49033377,-0.10786800,-0.10220895,0.02192758,0.43761696,0.14136025,0.28114551,-0.32958772,-0.48181109,-0.27281592,-0.20920434,0.33270957,0.18397614,0.42124272,0.20677203,-0.08493560,-0.37817904,0.01143097,0.39555477,0.30464613,-0.45400931,-0.19260553,-0.36844491,-0.29108251,0.35809492,0.08214339,-0.19844899,-0.00555607,0.34370811,-0.00425274,0.32794493,-0.12916587,0.13757546,0.45317951,0.07705582,0.46016931,-0.41212702,0.37630190,0.18870557,0.11351569,0.26315019,-0.43077317,0.35144332,0.48964320,0.12027385,0.33556656,0.41427506,-0.00291229,-0.10210587,-0.01832307,0.38235591,0.28218983,0.14824198,0.16829153,-0.48603357,-0.36975681,-0.03572255,0.14008048,-0.24513916,-0.31080162,0.18916641,0.07065300,0.21444780,0.30635041,-0.37789370,-0.13339500,0.23953703,0.09317462,0.10931295,-0.20614957,0.21396551,0.16977569,0.35212726,0.20915468,-0.20301068,0.17787495,0.16391130,-0.21074978,0.21906360,0.05388274,-0.19653100,-0.37489702,0.36872410,-0.02289069,0.39059904,-0.03216171,-0.19334181,0.49660949,-0.13865647,-0.27541141,-0.37733098,0.31489186,-0.40807733,0.23588261,-0.13195504,0.23463739,-0.14146795,0.05793456,-0.35128230,0.44787220,-0.10958629,-0.13876757,0.48880152,0.15526682,0.07885670,0.21777720,0.29603472,-0.20752673,-0.25893421,-0.41876684,0.29174783,0.29957396,0.00218833,0.27837469,-0.13732440,-0.40840515,-0.19554114,0.09976605,0.39376765,0.44282791,0.11813254,-0.40554833,0.25330125,-0.21718404,0.49429920,-0.49671377,0.22786538,-0.23215691,-0.17666135,0.08201513,-0.44529642,0.32732214,-0.00087073,0.09902191,-0.28378342,0.02747095,-0.19578237,0.45333356,-0.36294366,-0.20412648,-0.06505691,-0.45244156,-0.03326596,0.29448225,0.32537142,-0.35392733,0.43388148,0.14073204,0.34370252,0.39230080,-0.14054526,0.27949980,0.09728305,-0.05619653,0.18979247,0.46629004,0.12762480,-0.16589065,-0.30183426,-0.16123285,0.37140344,-0.08604238,0.22169357,0.14654452,0.06189047,0.34377053,-0.42078766,0.40665074,-0.27237071,0.25697555,0.09643681,0.39015751,-0.01736183,0.19515375,-0.32724611,0.23745228,0.33999183,-0.39427892,0.13656973,-0.06277043,0.28875791,-0.42423167,-0.28009523,0.24477755,-0.23550829,-0.48750962,-0.25729531,0.37857377,0.26998979,-0.20874864,0.35884918,0.41070110,-0.03439947,-0.06159869,0.37054312,-0.00381102,0.05441591,0.01240193,0.41976358,-0.22014664,-0.17439623,0.32823808,0.37970144,-0.40631077,-0.33666975,-0.17548302,-0.21157294,0.49542852,-0.13859598,0.39592388,-0.46813817,-0.09931943,0.25764177,0.43884278,-0.30667507,-0.30063928,-0.28658613,0.33365583,-0.33204718,0.44546623,-0.34820387,0.39884137,0.22793716,-0.37478443,-0.15357018,0.21480529,0.14024095,0.30943646,-0.44418298,0.48009331,0.17364799,0.17319106,-0.46368960,-0.16835514,-0.02655121,0.17835492,0.34107926,-0.22779678,0.41424339,0.22422270,-0.33753096,0.46991970,-0.30101155,0.19941070,-0.08566041,0.44515579,0.36211272,0.01720749,-0.28502261,-0.47367370,-0.31354028,-0.42708808,0.22326742,0.14961445,-0.22137678,0.30222208,-0.26113339,0.38698521,0.31043445,0.22603054,-0.46711469,-0.36171869,0.11041659,-0.40501030,-0.48718644,0.25306900,-0.38288824,0.07349569,0.23380884,-0.09751646,0.05370504,0.05833436,0.06107445,0.32526893,-0.49502190,0.47669344,0.49786072,0.12557525,0.05619328,0.42062356,0.36651066,0.04868206,-0.21182856,-0.29132450,-0.14814378,0.18147188,-0.32313969,0.43753215,0.04170444,0.18321059,-0.31757923,0.31542852,-0.30598866,-0.02963230,-0.41728966,0.00904710,0.14948456,0.47227798,-0.34130103,-0.18395443,-0.17473795,-0.39269104,0.05140257,-0.13938302,0.05445000,-0.28962875,0.45888465,0.30874389,-0.05975299,-0.26365382,0.31153307,-0.36225090,-0.07615629,0.37185172,0.26641363,-0.13817605,0.45360368,-0.38989041,0.02221953,0.20953924,0.30451124,0.41951688,-0.36242483,-0.39302952,-0.49103613,-0.21335427,-0.39391773,0.13001770,-0.44986500,-0.49475720,0.40153536,0.16288816,-0.47984091,0.02421551,0.43227354,0.22537461,0.07946651,-0.36366049,-0.15384128,-0.49979246,0.18555690,-0.00868876,-0.28292468,0.09612890,-0.25186369,0.13128970,0.17667812,0.08760109,-0.38470644,-0.35029783,0.25593484,0.23580223,-0.41809047,-0.25975078,0.23691907,-0.45354661,-0.05361628,-0.12340395,0.14105667,0.18542463,-0.00217783,0.16992095,0.11326792,0.39209435,-0.25738097,-0.20005397,0.39629860,-0.34075830,0.24287065,-0.09828073,0.33817015,0.42232306,0.06560276,0.48114711,-0.46860785,0.30116460,-0.44889740,0.38705921,-0.43224794,-0.10949195,-0.26502412,0.17039079,0.23477430,-0.23392946,-0.46256277,-0.16725507,-0.08560281,0.29144401,-0.04701118,-0.03357765,-0.28581767,0.20717112,-0.23066772,0.17127932,-0.25376512,0.40337464,-0.19838846,-0.34577776,0.08946382,0.29436042,-0.49325467,-0.04982814,-0.35564331,0.15569550,0.35975310,0.30017782,0.12580466,0.28244945,-0.32571786,0.42756914,-0.38358505,0.07230500,0.06891520,0.01154646,0.05128335,-0.03834749,0.37486831,0.12725556,0.47250216,0.30602742,-0.17471849,-0.40166212,0.24207420,0.36797829,-0.25056393,0.09495818,0.01386464,-0.41684113,-0.15671630,0.46870323,0.47392852,0.16610501,-0.40958082,-0.46161233,-0.45855494,-0.37556389,-0.18338459,0.19035803,-0.19989866,0.16319325,0.38688692,-0.07810686,0.13806844,0.30498473,-0.47199822,0.33817238,-0.19217290,0.48128176,-0.37638109,0.22786552,0.20027156,-0.24976295,-0.35966168,0.13662611,0.01627475,-0.06755116,-0.36703322,-0.35278484,0.27732505,0.20406959,-0.03915863,-0.02716032,0.18470241,-0.00719402,-0.46441931,-0.09083872,-0.16646365,0.47467961,0.08874391,0.16159300,0.38831379,0.25147652,-0.16113223,-0.34142915,-0.02947593,0.10076916,-0.07900445,-0.40981417,-0.00139761,0.41206310,0.22743308,-0.21223736,0.23022961,0.45850392,0.10390492,-0.17394721,0.26982833,-0.36859505,-0.10185263,0.34126192,0.35176488,-0.31144110,0.12663077,-0.42844601,0.00068685,-0.35183301,-0.29799557,0.32900723,0.17721193,-0.33373977,0.00055292,0.21746424,-0.15480100,0.02147104,-0.37256022,-0.18039294,0.29910173,0.24428734,-0.39631482,-0.23483823,-0.32431496,0.22516155,0.28937430,-0.30961298,-0.04109605,-0.32080997,0.35649406,-0.01348767,0.15168825,0.12528488,-0.00814578,0.10448023,0.10224464,0.17901844,0.18429378,0.36850035,-0.27430511,-0.48310483,0.44509999,0.06195767,0.22611678,0.47128850,-0.08279650,0.38891605,0.07892908,-0.41443820,0.27592159,0.34527003,0.35177026,-0.04638434,-0.03215197,-0.00597164,0.47351304,0.33604094,0.41731602,0.39144737,0.23343994,-0.44494164,0.37904812,-0.05826174,-0.19368090,-0.14391994,-0.12372826,-0.00017224,-0.19405937,-0.49505146,0.48665805,0.28512797,0.34531246,-0.14131361,-0.25189323,0.14979193,-0.23957687,0.04907272,-0.09025538,0.05712040,-0.29398266,0.31149648,0.42778601,0.43598453,-0.25339404,0.26417535,0.49657355,-0.38032934,-0.27529952,-0.29021500,-0.47255337,-0.12967046,-0.12451311,-0.37258450,0.46316209,0.44021758,0.33904013,0.40243949,-0.06740266,0.27579410,0.38716453,0.41098777,0.26956838,-0.23108185,0.41195953,-0.10003194,-0.16039766,0.12436306,0.31812281,-0.21636172,-0.18000415,-0.17670030,0.20849043,0.13485191,-0.29031134,0.37585968,-0.24901308,-0.49297162,0.44910410,-0.19825901,-0.48960125,-0.20336943,-0.45141332,0.04187196,-0.25655621,-0.14291973,-0.37828479,-0.04963277,0.22994163,0.24211622,0.26651884,-0.37100837,-0.48673841,-0.44310185,-0.05802811,0.07707530,-0.03662744,0.16089679,0.07412589,0.38386156,-0.24412556,0.44388167,0.04001827,0.38626254,0.32208459,-0.01232709,0.26838197,0.21947423,-0.37618453,-0.20633645,-0.15491978,0.48912237,-0.23628251,0.03407121,0.28770901,0.18743518,-0.38936818,0.40578895,0.34118763,-0.25122253,0.47664245,-0.24966921,-0.02698935,0.46545813,-0.20914026,0.12544945,-0.23697664,-0.17909402,0.40277797,-0.35312904,-0.49130534,-0.24048801,0.08186067,0.10361026,0.03972676,-0.22400205,0.36823107,0.28951738,0.12509104,-0.19836557,-0.44851383,0.29508322,0.21637005,-0.23619622,0.33671970,0.22185574,0.03884244,0.25840941,-0.15479873,-0.44766454,0.16439072,0.04436739,-0.14171528,0.10540552,0.11151163,0.08606556,0.29821179,-0.04062290,0.38848999,0.10608379,0.31248944,0.10590409,0.16466601,-0.10551988,-0.47308191,0.35880307,0.28241981,-0.45631669,-0.41489990,-0.06138404,-0.29989922,-0.05903050,0.41518867,-0.15911772,-0.44046799,0.48366153,-0.19759809,-0.35210648,0.42241553,0.35862085,0.27021764,0.02989704,-0.21180637,0.00763162,0.08805445,-0.22416973,0.20824518,-0.12188962,-0.46837662,-0.17967481,-0.00317492,-0.38199706,-0.27645515,-0.35748325,-0.27521033,-0.30363998,-0.10264065,0.47646371,-0.12254882,-0.29855730,0.34409024,-0.25598442,-0.29006354,-0.30501092,0.08784734,0.24282401,0.45320718,-0.06987349,-0.09580119,-0.33494327,-0.30827102,-0.29136741,0.38474396,0.39051570,0.49388080,-0.41952766,0.12433122,0.24232340,-0.42312470,-0.14178422,0.41100068,-0.29442899,-0.20208575,0.32599599,0.00615262,-0.40702789,0.47518816,-0.38365627,0.12525033,0.21954314,0.21110720,0.25130601,0.11807559,-0.40185620,0.46008889,-0.44072396,-0.07456662,-0.39248430,-0.21852589,0.46852105,-0.47087232,0.10057697,0.20096802,-0.18824115,0.37014361,-0.29111579,-0.28871654,-0.37258368,-0.42495573,-0.48237027,0.36155989,-0.43096281,-0.09073774,0.48669826,-0.33197758,-0.17264202,0.37477209,0.00356082,-0.24523642,-0.49491746,0.44217382,0.26157058,-0.20816073,0.33771672,0.15613081,0.15024937,0.32794019,-0.46145943,0.26167425,-0.00246873,-0.05805488,0.26867163,0.28727490,-0.30025691,0.35602700,0.12685294,-0.38182713,0.30886016,0.32350235,-0.36406449,-0.09560050,0.26814305,-0.03172744,-0.16066382,0.02875335,-0.10772022,0.06980617,0.19241049,-0.03246401,-0.36664845,-0.05356190,0.43917074,0.11253656,0.28983034,-0.08745198,0.18573439,-0.19642408,0.26445194,0.39513692,0.43660227,-0.48633534,-0.28507550,-0.06560807,-0.02775404,-0.40144995,0.00208534,0.32828481,0.43611453,0.05244806,0.21558688,-0.03288842,0.42694507,0.17897724,-0.18958893,0.33513708,0.08614404,-0.02383533,0.29774974,0.13123891,0.00671417,-0.41473086,-0.13947258,-0.39970298,-0.41605307,-0.42496070,0.32193601,-0.19129476,0.10453469,-0.46659578,-0.38750060,-0.24289032,-0.05996250,-0.17503578,-0.01911115,-0.12050719,0.43332654,0.38354559,0.47082614,0.43556771,0.07353805,0.12127748,0.42719572,0.27429951,0.23886445,0.16451077,0.46348818,-0.31670947,-0.39821651,-0.41244917,0.08754984,-0.32525466,0.00579366,0.33327005,0.15867615,-0.34212098,0.36231339,0.16129771,0.49336697,-0.34129132,0.40963967,0.40187746,-0.34976540,0.34836721,0.04615287,-0.39314922,-0.47573464,-0.33241967,0.14917906,-0.05582982,0.04574028,0.32206704,-0.05321510,0.03537132,0.27700581,-0.04379771,-0.07619197,0.11061233,0.43389478,-0.06110348,-0.40838340,-0.10725367,0.01348587,0.33544674,-0.16380638,-0.48814883,0.11657538,0.02170518,-0.38526723,-0.00985988,0.26981402,-0.09212795,0.42463600,0.21960933,-0.46353503,0.43154871,-0.03058628,0.44357726,-0.35760142,-0.26222253,0.41484935,0.07218047,-0.46363400,0.19132663,-0.40343805,-0.21022365,0.34336496,0.36256491,0.39824413,0.30453057,-0.10497487,-0.39800781,0.40427655,-0.48192662,-0.33583890,-0.44741183,-0.10510960,-0.03234393,-0.07583306,0.29402176,-0.40575648,0.45178690,-0.32113883,-0.08308490,-0.32947147,-0.18887420,0.13158487,0.18029823,0.07937625,-0.00572961,-0.18974486,0.21565389,0.03782448,-0.39083302,0.30871142,-0.11228123,0.40856519,0.25671805,0.46838942,0.15158905,-0.21128771,0.16237961,0.40252962,0.37223657,0.19410792,0.49693625,-0.08605171,0.30038516,-0.15296231,-0.22968286,-0.21639026,0.14446030,0.35535437,0.22102555,0.24605872,-0.41094340,-0.01671918,-0.26553269,-0.27038520,0.31020250,0.07064518,-0.14947298,0.01486125,-0.47719624,0.18338010,-0.46134637,0.20434764,-0.12742859,-0.38452257,0.31476525,0.39274083,-0.34628059,-0.17893886,0.47922163,0.45652442,0.18327829,-0.06304652,-0.38120760,-0.36763564,-0.30392113,-0.02116937,-0.20754514,0.32901094,-0.14379077,-0.13259038,-0.01075267,-0.48229230,-0.14147227,-0.15347343,0.35314438,0.07392260,-0.33930667,-0.22153185,0.40552492,-0.30827081,0.10151362,0.37514685,-0.41234922,-0.09411383,-0.29432437,-0.25103481,-0.15610742,-0.45694218,-0.37473651,-0.42159345,-0.27215350,0.09974027,0.24464686,-0.20372123,0.00540983,-0.29771314,0.30824368,0.09031485,0.36541892,0.35462844,0.49398342,-0.16681667,-0.22832239,-0.00771648,-0.05482708,-0.48200684,0.26358579,0.43556778,-0.07236114,0.36299576,-0.24729538,0.48156480,-0.26533402,-0.36019615,0.04428119,0.33802895,0.43086096,-0.40851430,0.36456430,0.33982695,0.18787877,0.40476222,0.27074703,0.49607391,-0.11944763,0.10709458,0.30514376,-0.22409341,-0.35309452,-0.36442876,-0.00732019,-0.14783079,0.22823113,0.35062669,0.37814202,0.40135594,-0.31650309,-0.38097590,0.44519709,0.44731206,-0.31813509,0.34064305,0.15515787,0.37160185,0.02778717,0.35558613,-0.07933778,-0.44854904,-0.26096456,0.04238294,-0.44157995,0.34777501,0.16989078,0.36414679,-0.27936353,-0.38951508,0.46233742,0.35374150,0.16096909,-0.25536915,0.29244469,-0.07264112,0.19522650,0.10246806,0.40355860,-0.02065617,-0.15359705,0.22859571,-0.27941759,-0.30942225,-0.26066530,0.05308758,-0.39913845,0.45091206,-0.11052006,-0.15574134,0.00334070,0.13455046,0.44296175,0.30172616,-0.32610665,0.47162915,0.29898521,-0.32633353,0.21262761,-0.24887021,-0.08882480,-0.24350108,-0.33260815,0.44766460,0.03325238,-0.40601804,-0.15827440,-0.07536098,0.03216024,0.30814425,-0.11155318,0.15681579,