-0.37329224,-0.46965394,0.30483797,-0.34240362,0.12432656,-0.29460036,-0.07834005,0.43843766,0.03481185,0.29383734,-0.29977953,-0.11004207,-0.08351247,0.03824580,0.38883299,-0.14750528,-0.08039087,0.40765676,-0.48731407,0.18676816,-0.36413201,0.29759928,-0.36845925,-0.30783589,-0.11894343,0.43797628,-0.14774156,0.31865483,-0.29124075,0.10575197,-0.24464509,-0.16453298,0.13609802,-0.43980712,-0.00693660,-0.23957542,-0.23440748,0.41472336,-0.30114543,0.30035679,0.20856069,-0.10101057,-0.30986796,-0.37501430,0.43728096,-0.42088331,-0.02249739,-0.14306235,0.48685205,-0.00977113,-0.45629419,-0.37727996,-0.21217185,-0.32475344,-0.18511586,0.16888472,-0.38677716,0.16714258,-0.01246045,-0.17801790,-0.22710545,0.24289446,0.15744912,0.40899257,0.30308734,-0.34948748,-0.33071245,-0.43172468,-0.43476427,-0.13169465,0.36890611,0.27348565,0.26634207,-0.44146797,0.39834848,0.20457521,-0.36128680,-0.12350707,-0.43833450,-0.37450371,0.36661660,-0.39466590,-0.25178611,-0.34555524,-0.21941935,0.06309803,0.32332948,-0.10619650,-0.26975939,-0.18913097,0.21582753,0.00325470,-0.44592103,-0.12632731,-0.08759461,0.35697057,0.02373141,0.08157803,0.42566235,0.08906856,0.44966641,0.29502959,-0.13585928,0.21851552,0.35487949,-0.23802288,-0.07807120,0.49270518,0.13801219,-0.01649468,-0.38180292,0.00462879,0.08883942,-0.13358903,0.15907354,0.36942007,0.42953391,-0.01742607,-0.23644291,-0.33996497,0.29360475,0.47942118,0.16267715,0.34640146,-0.15035857,-0.42761507,0.20221692,0.37399977,0.15636082,0.13022323,-0.03389905,0.10936578,-0.07161013,0.33098050,-0.17472193,-0.22103228,-0.41059787,0.24544512,-0.22920344,0.22739052,-0.27104956,-0.11100635,-0.26798069,0.31779220,0.25552061,0.39153562,0.18757146,0.18520602,-0.12602808,0.45038904,0.34486916,-0.33459884,0.42407076,0.00131706,-0.49003532,-0.21993086,0.08321403,0.21877966,-0.34119811,-0.26171970,-0.15029765,0.12680579,0.34712677,0.27251744,-0.04954163,-0.33092681,-0.45093937,0.03978406,0.41451283,-0.17997132,-0.23282542,-0.35653229,0.20896912,-0.00072246,0.46133276,-0.03541722,-0.11015146,0.14776583,-0.35204449,0.26064657,0.09222842,0.48490548,0.42451378,0.02742502,0.00325360,0.44455869,0.31032429,-0.41676347,0.16390723,0.47122395,-0.17509396,-0.48988289,0.09047651,-0.33139833,0.28000075,-0.45955291,-0.16220239,0.32952155,0.08056829,-0.24811502,-0.35068223,0.34794095,-0.10330035,0.35973644,-0.15305731,-0.14325719,-0.17901310,0.23343377,-0.50138990,-0.03361443,-0.00089230,0.10746449,-0.03090972,-0.06790217,-0.36722020,0.46958623,-0.11836490,0.45004783,-0.44495548,-0.46105258,0.41114672,-0.12429783,-0.45306213,0.00048214,0.04396830,0.32737123,0.04159024,0.38156236,0.15731245,-0.37659048,-0.36410197,0.30869455,0.47172576,0.02968882,0.16270864,-0.18465883,0.38575780,0.48877043,-0.44151129,0.39857575,-0.03778989,0.05355030,-0.00263629,0.43296343,0.49827303,0.14026189,0.39938344,-0.13519179,0.07443373,0.44794790,-0.09974358,-0.01731487,-0.17815873,-0.05255535,0.48353677,0.36622137,-0.22403878,0.02660178,0.24948657,0.43338868,0.14863662,0.38118989,0.23799569,0.12099139,-0.08499885,-0.09032726,0.43947843,-0.20022584,-0.11366910,0.48579474,-0.30688973,0.36139258,0.05667812,0.19849394,0.28268658,0.03243931,-0.18024133,0.17370719,0.39151387,0.38920803,0.11935532,-0.20824013,-0.12795720,0.44201212,0.24058563,-0.14306652,0.30898508,-0.48464621,0.38100754,0.05436231,0.44785351,0.03459861,-0.05496790,0.19091966,-0.35762639,0.33738425,-0.42355775,-0.42504582,-0.35052247,-0.01266861,-0.42281957,-0.15398562,-0.16637917,0.11126949,-0.47473740,-0.39249593,-0.36214499,-0.15866381,0.28011671,-0.47063297,-0.26933995,-0.09970851,-0.17763860,0.10381233,-0.15782047,-0.43934518,0.45750855,-0.35093504,-0.41996245,0.34956037,0.21260798,-0.48035441,-0.15020241,-0.38208355,0.18962380,0.00484966,0.48823025,0.29643057,0.09763446,-0.35995626,-0.22807782,0.15734590,-0.02992637,0.09677406,-0.23593711,-0.00644249,0.20409075,-0.09818250,0.33492465,-0.01533615,-0.06794119,-0.43347681,0.38423420,0.25166251,0.16856706,-0.27162490,0.32252637,0.13824552,-0.12263924,0.37245913,-0.06444193,-0.45101606,0.39017378,0.32509395,-0.28481845,0.11548441,-0.15081467,-0.29371925,-0.09632677,0.43171331,-0.16830500,0.16653137,0.08471000,0.30053281,-0.23665841,0.34851115,-0.20582786,0.46759095,-0.24939977,-0.37108045,-0.04992588,0.18100788,-0.30266992,-0.15693570,-0.05322345,0.37382055,0.05770583,-0.27829190,-0.04252466,0.40661302,-0.38097766,0.44914092,-0.49030793,-0.45362045,0.28983104,-0.27430277,0.15139630,-0.37664895,-0.08222818,-0.45274059,-0.44817593,0.24906705,0.21420622,0.13640454,0.04959986,0.47772436,-0.01521006,0.34254934,0.44303152,0.23587138,0.47929678,-0.09133956,-0.06854407,-0.32400276,0.22396418,0.32535557,-0.49826714,-0.23014196,-0.40947857,0.01849501,-0.26935578,-0.26089727,-0.02313488,-0.26566269,-0.22881070,-0.24855795,-0.05211044,0.41739815,-0.12638319,0.36573875,0.46516180,-0.07459240,0.11480580,0.17948717,-0.43836132,-0.33555524,0.15853196,0.05259298,-0.48196779,0.11422636,-0.20668211,0.48258690,0.48300026,0.17155602,-0.37927409,0.21510417,0.04814338,-0.31749697,-0.46809008,0.15597053,0.20196603,-0.25131513,0.37740794,-0.33496871,-0.02520957,-0.35447620,-0.08438801,0.42263093,-0.43722451,0.28886896,0.28837610,-0.47198039,-0.28511886,-0.09385302,0.21353384,-0.21367652,0.07985511,-0.12549081,0.32635112,0.06630964,0.44527106,-0.42258087,0.03293684,0.45650946,0.30566086,0.21134651,0.20621256,-0.13596202,0.38689080,0.21977132,0.50023715,0.07680383,0.46311679,0.37549414,0.24041654,-0.06286565,-0.47961589,-0.34448100,-0.14022072,-0.41672949,0.44581025,-0.34599055,-0.37789605,-0.32750338,0.06419302,0.32362258,-0.07147039,-0.39707016,-0.33870057,-0.26756354,0.17874530,-0.35384851,-0.13356274,-0.24143058,-0.37574278,-0.32473964,0.45998848,0.31007370,0.01937203,0.33805471,0.02644185,0.01786082,-0.08687417,-0.01187926,-0.10707340,-0.34662717,0.42532925,-0.08669649,-0.18795528,-0.20614161,0.01189665,-0.22889570,-0.05576339,0.10823301,-0.09954352,0.46772430,-0.09159681,0.32937541,-0.40339531,0.11045998,-0.39199067,0.30616506,0.26725367,-0.02678199,-0.44760407,0.37197619,0.13337284,-0.49463593,0.17998259,-0.34860656,0.34117175,-0.29521954,0.16894813,-0.24570242,0.19309381,-0.43780290,-0.08842501,0.12796795,-0.00819654,0.23479115,0.41455606,0.47141226,0.46056955,-0.17313518,0.07211372,-0.12198022,-0.17988247,-0.49377461,-0.26895493,-0.06946633,0.12119711,-0.16261739,-0.27562663,-0.12747125,0.30030178,-0.22825370,-0.25785783,-0.06807448,-0.22470766,0.42099386,0.08308054,-0.38353591,-0.37386859,-0.24736008,-0.12442146,0.32858912,-0.17003173,0.29383341,-0.05289508,0.28975116,-0.00644176,-0.16040344,0.26293733,-0.03302282,0.17416820,-0.16243959,0.34710196,0.50184553,-0.15021513,-0.42163251,-0.07633334,0.45978226,-0.09121879,0.14410267,-0.16953111,-0.29269807,0.41449274,0.07188862,0.13911455,-0.31031156,-0.00697515,-0.27748124,-0.19019562,0.12785232,-0.01296100,0.19019877,-0.05644018,0.29013368,-0.04387285,0.37674572,0.08101536,0.45046939,-0.28944731,-0.16578913,-0.08557926,0.39149977,0.17894840,-0.23707258,0.38932852,-0.47593534,-0.16221099,-0.19050364,0.48211864,0.24484903,0.45229647,-0.18790387,0.45199896,0.36671418,0.38389475,0.09071283,-0.44253275,-0.11732760,0.32194595,-0.13125050,0.49450306,-0.21570586,-0.46319334,-0.06601493,-0.42177113,-0.00740608,-0.19736315,0.14834950,-0.06000900,0.01763871,0.48889325,0.35959722,-0.08789518,0.16898077,-0.37769057,-0.20069405,0.19183910,-0.04091914,0.10839664,0.17388442,-0.29619662,0.06061942,0.48596663,-0.34443546,-0.07298568,0.37091271,0.24922126,-0.01537531,-0.25654170,0.05227255,0.34060426,-0.26048821,0.34482505,0.38036586,0.17031711,0.41794728,-0.12473443,0.47803439,0.07360131,0.32524536,0.00339645,0.06707629,0.18597571,0.41504205,-0.26417240,0.30819884,-0.28551038,0.42774319,-0.23276191,0.32279095,0.10162761,-0.02910466,-0.11709956,0.08690954,0.12615637,0.31069192,-0.04319401,-0.13059978,-0.20966129,0.20209337,0.43178167,-0.36012504,0.44632018,0.28041078,-0.47498514,0.12089914,0.20499626,-0.09265065,0.10447813,-0.21838020,-0.26721564,-0.39246407,0.34851251,0.41890715,-0.47723236,-0.41553196,0.22710599,-0.26274274,-0.48778876,0.49432022,-0.44015183,0.11368610,-0.03404550,-0.05478239,-0.29676335,-0.40634623,-0.24413828,0.16027959,-0.03319417,0.05105170,-0.13416638,-0.09905240,0.18997057,-0.19004884,-0.31861560,0.21603734,0.43216522,0.38686628,-0.37700228,0.03623958,-0.33170924,-0.14406361,0.14400831,-0.48310347,-0.22515646,0.16677596,-0.39863542,-0.49805796,0.40400576,-0.38618957,0.49720801,0.46512586,0.22851856,-0.03751134,-0.09154985,0.42979743,0.05468737,0.16286328,0.08888107,-0.47933076,-0.28929076,0.45117345,-0.08018719,0.39990825,-0.23851937,0.10158010,0.11586608,-0.30633817,-0.01154435,0.23896122,0.23003496,0.15677567,-0.40510239,-0.12595673,0.17367220,-0.13025885,-0.45918077,0.27504788,-0.12819156,0.44510509,0.38880484,-0.13196159,0.40897751,0.11615726,0.32986026,-0.18331022,0.04509381,-0.11620917,0.47843584,-0.36711589,-0.09649279,-0.31135327,-0.41592046,0.32333994,-0.41147867,-0.15442299,-0.07507553,0.20438742,0.03923884,0.41338012
-0.05665137,-0.23072619,0.07015579,0.03824624,0.14331708,-0.25617201,0.40798739,0.18413631,-0.48113523,-0.22032193,0.12898876,0.40747736,0.14766235,0.03792264,0.02350460,-0.02267423,0.35439654,-0.43160649,0.36089768,0.33261301,-0.29883548,-0.23563294,-0.47874522,-0.21475595,-0.41229300,-0.39022388,0.13082107,0.01263147,0.31416353,-0.32994009,-0.07398841,-0.24248784,-0.06066628,0.49616738,0.29575840,-0.41734920,-0.26000463,0.20374579,0.26679179,-0.24111082,0.48342386,-0.10423155,-0.33367332,0.13110545,0.43372658,0.18984504,-0.39158673,0.28809505,0.25823560,0.46930965,0.12070806,0.45940011,-0.26632328,0.14196285,-0.25535583,-0.17861628,0.25173897,0.37546523,0.33401519,0.06590250,-0.45447486,-0.23997322,0.32341467,-0.01514114,-0.24380584,0.11917307,0.06754579,-0.00377249,-0.17706692,-0.16562747,0.25514212,-0.19348362,0.23033433,0.42171721,0.43774545,0.16388946,0.11130188,-0.45411784,-0.04815982,-0.13054086,-0.48484944,-0.42742575,-0.17113506,-0.25117273,0.21453710,0.07350911,0.07021099,-0.03372394,-0.05102566,-0.09577381,-0.46781875,-0.00550454,0.16406885,0.35526812,0.47903237,0.42004207,-0.02557685,0.04694532,-0.08254330,0.29879266,0.38207233,-0.32731957,-0.39503666,0.11239329,-0.40585108,-0.45770407,-0.22483707,0.20429813,-0.41270229,0.22687472,-0.42623245,-0.39755173,0.29944897,-0.09736751,-0.14872445,0.01398606,0.47614091,0.42149024,0.48027807,-0.07491516,-0.17509482,-0.48925270,0.41748786,0.48770086,0.36575518,0.39791926,0.41168288,-0.15394165,-0.05055071,-0.17023515,-0.35655829,-0.17119996,-0.00108194,-0.25677646,0.43668312,0.09136536,-0.21386936,-0.28674752,-0.20388799,-0.12673221,0.44012720,-0.13012044,-0.02428393,0.23958228,0.27266981,0.32726413,-0.24623508,0.24861669,0.24732051,-0.26838857,-0.32851619,-0.42570544,-0.25192562,-0.40254007,-0.42704042,-0.37470470,0.50447673,0.48626433,-0.03266463,-0.05449207,-0.19535129,0.09692543,0.26273963,0.29851961,0.34122875,0.20301931,-0.10770047,-0.37193208,0.41670359,0.18827604,0.00133571,0.35691839,-0.44134697,0.47776460,0.09735122,0.33127407,0.30276986,0.34859733,0.08164691,0.05753220,-0.40970233,0.26117644,0.13508281,-0.16379821,0.35142625,0.19683988,-0.05163974,0.34249850,0.17006301,0.40327648,-0.22409460,0.46443460,-0.00259988,-0.45808660,0.26806275,-0.15812617,0.24569365,-0.34042391,-0.03076913,0.16298897,0.34894003,0.47207137,0.02096292,0.40666873,0.44709378,-0.38212320,0.24340510,0.26058294,0.47167104,-0.18264885,-0.19932982,-0.46094478,-0.44351075,0.41923829,-0.12964029,0.40950851,0.12071116,0.32622709,0.25500402,-0.21398823,0.22371935,-0.46867574,-0.24471285,-0.27514951,-0.42632375,-0.47835131,0.06547291,0.32002845,-0.31752849,-0.46368565,-0.01674379,-0.46960457,-0.49452359,-0.49513871,0.43980811,0.45618510,-0.38414547,0.16533086,0.19242415,-0.43317100,0.47045479,-0.50572975,-0.38155394,-0.45212107,0.43626408,0.01243164,0.47449252,0.06209484,-0.16503631,0.22586420,0.34860341,-0.43982787,0.25823988,-0.39737123,-0.21549289,0.33228653,-0.37476072,0.35145041,0.15259455,-0.19504127,0.38421698,-0.36666374,-0.16700751,0.38581945,-0.37309830,-0.24241781,0.32869604,-0.25997476,0.43387724,0.03913074,-0.17518061,0.42478680,0.05516782,-0.03360758,0.48992126,-0.00174625,0.47640430,0.45843585,-0.44376869,-0.18946576,0.18523098,0.40466751,-0.12930800,-0.05627957,-0.49209687,0.15566504,-0.22496392,-0.37060025,0.00112603,0.41826370,-0.07169604,-0.11880560,-0.44684196,0.26361416,-0.22500164,-0.30611200,-0.45798903,-0.37944161,-0.05743010,0.48173781,0.17005329,0.27793276,0.41214828,-0.27399029,-0.25789261,0.39806497,0.21996567,-0.28245756,0.35630947,0.27609064,0.02807180,0.04144244,0.18090209,0.39775083,0.48186336,0.18272730,0.04395574,-0.25374545,0.30742175,-0.44688670,-0.31330784,-0.24138124,-0.04780421,-0.24787214,-0.46662286,0.23379759,-0.05620220,-0.42916529,0.34945646,0.38094828,-0.45150832,0.01712018,0.16146712,0.46410594,0.24410535,0.40430025,0.36200330,-0.03592001,-0.37813496,0.21824737,-0.25973972,0.14835159,-0.24551970,0.41220985,0.03441917,-0.27219917,0.09605382,-0.40127276,0.01104960,-0.05937087,-0.32443700,0.20462001,0.19508681,0.11632109,0.44021778,0.21056158,-0.16613727,-0.12587727,0.27679458,-0.31423047,-0.23599783,0.33524237,0.20874300,0.42711875,0.29943113,-0.04685287,0.33141484,0.16149166,0.41663850,0.45041784,-0.12608149,-0.35269392,0.08703088,0.12194620,-0.43449750,-0.35236448,0.39352629,0.20232696,-0.23101137,-0.09906615,-0.37677112,-0.08376327,-0.42506653,0.29550994,-0.47799732,-0.48571790,0.00843361,-0.13746562,-0.09948248,-0.20218712,0.05515375,0.16562560,-0.36701849,-0.23595539,0.09274435,0.43254897,0.21671823,-0.07993582,0.08786036,0.12409898,-0.13811557,0.45786359,0.27875705,0.47508923,0.12144886,0.38232680,-0.35620411,0.00634100,0.05822579,-0.12163458,0.37745299,0.16857347,0.29780227,0.46178035,-0.03184098,0.32724767,0.48998254,0.48916567,-0.30385116,-0.10845995,-0.21330776,0.25130521,-0.44283436,-0.08033697,-0.48526895,0.14494114,-0.15510888,0.22391801,-0.43751900,0.43390277,-0.13969439,-0.04351364,0.43402891,-0.32432599,-0.05369048,0.03945503,-0.47475215,0.05395429,-0.47635472,0.08300813,0.44526519,0.41048357,-0.24569094,0.25162957,0.38619554,0.23460346,0.08545031,0.37786177,0.22311260,0.28146230,-0.23060020,-0.49026178,0.03164401,-0.17777202,-0.07779830,0.03890438,0.46740989,0.27755184,-0.21266257,-0.43252680,0.24963337,0.16634158,0.01544956,0.15071405,0.30464330,0.42810725,-0.32395083,0.33145108,-0.00584972,-0.29460065,-0.08266887,-0.05229094,-0.37304711,0.18168545,-0.29447720,-0.48488068,-0.08456152,0.29074044,0.39296389,-0.36171894,0.07088197,-0.34144357,-0.35926294,-0.40454192,-0.01600630,0.08294252,0.17068029,-0.01190381,-0.12250466,0.44456493,0.02259961,-0.41214461,0.07842220,-0.48513601,0.23222405,-0.11729580,0.44865813,0.41103196,-0.27969033,-0.05117355,-0.37687620,0.14493683,0.40131930,-0.24829566,-0.17389785,-0.39326642,-0.23324222,0.24113429,0.39622489,-0.34413894,0.37130255,-0.04007475,-0.17890281,-0.45886927,0.09594466,0.32832542,0.11580414,-0.26900787,-0.22117215,0.46533410,-0.33953032,0.28975499,-0.44937077,0.23927313,0.30739589,0.28513252,-0.37061008,0.26165195,0.19968650,-0.14631831,-0.28631744,0.32398093,0.49843945,-0.38499814,-0.42435838,-0.17575297,-0.27911156,-0.16154095,-0.44349841,-0.39101382,0.00234333,0.45856148,0.10361489,0.33241116,0.47586744,-0.33882977,0.13498603,0.08073817,-0.10995554,0.40864746,0.04519912,0.05188083,0.20319761,0.09833495,-0.20581500,0.01414561,-0.11498384,-0.07385614,-0.22192444,-0.41415381,0.27989064,-0.00824187,0.40980873,0.27803050,0.10563424,0.48127373,-0.40553415,0.32217383,-0.16998931,-0.32458197,0.45219774,0.32660329,-0.39155508,0.03203238,0.15514705,-0.41009784,0.19759604,-0.21403113,0.17160953,-0.40865089,-0.29889160,-0.28393208,0.14287951,0.40694500,0.31616815,0.43953638,-0.07735753,-0.29792690,-0.13405950,0.20082835,-0.21208148,-0.35405612,-0.30809900,-0.30543309,0.41834633,0.29519012,-0.31613988,-0.47484282,0.12453185,0.00502895,-0.30835616,0.07696604,-0.15630575,-0.18937507,-0.39178615,0.49291443,-0.09815009,0.31109491,-0.21486946,-0.42988954,0.40333491,-0.01018801,-0.21140176,0.04764584,-0.10314870,-0.39483980,-0.01246879,0.31979196,-0.19272284,0.35365146,0.02049267,0.09342084,0.49589024,0.21276959,0.29566578,0.42331508,0.01430511,0.47766045,0.45510345,-0.35385561,-0.00843171,-0.35276874,0.21244368,0.32649654,-0.04248400,0.32577809,0.32357866,0.35733117,0.14053991,-0.38755255,0.42991277,0.04394857,0.10193151,-0.28126333,-0.40820897,0.49907947,-0.17608918,0.07940629,0.31890330,0.13074148,-0.06942319,-0.16286590,-0.27290606,-0.06503995,-0.44298980,-0.47333962,-0.13346673,0.07625256,0.50210935,-0.19196262,0.20457193,-0.01859166,-0.04893779,-0.07967633,-0.18984706,0.40964445,-0.25051311,-0.36255258,0.26858416,0.39001047,-0.25023284,0.19858360,-0.06599346,0.35180745,0.41732027,0.02582802,0.35100506,-0.25894913,-0.39711805,0.16633745,0.37229188,0.04085383,-0.48733773,-0.39715282,0.47525891,-0.43112718,-0.37673156,-0.17106513,0.12752194,-0.38849252,0.12928287,-0.16881813,0.09454962,-0.41648228,0.25421289,0.40774181,0.49429235,-0.49589527,-0.45490516,0.26291455,0.39411520,-0.20513800,-0.03850185,-0.17188074,-0.35353844,-0.12279938,0.35117463,0.49414497,0.11672884,0.45547560,0.16260168,-0.01118214,-0.00438268,0.17548771,0.08963171,-0.03607269,0.23473729,0.20512199,0.29038377,-0.13566756,0.32049266,-0.07609671,0.19847843,-0.08213438,0.00832646,-0.04700271,-0.17433514,0.00264649,-0.04289799,-0.12924030,-0.23443896,-0.14889433,0.16473359,0.22617495,0.17811414,0.31089248,-0.39550729,0.03131250,0.30807166,0.22528650,-0.00737267,-0.02207513,-0.28164067,0.48837186,-0.34828520,0.30717925,-0.04500464,0.39184647,0.01797846,-0.25129229,-0.24204576,-0.15988993,0.17291260,0.45651538,0.25801532,-0.31875226,-0.09048734,-0.41631982,0.18389423,0.36661467,-0.04556012,0.44943841,-0.28221756,-0.38004514,0.17632399,0.39700026,0.43224480,0.28248227,-0.06936381,0.24241072,0.00827883,0.42254030,-0.28086792,0.22644612,0.41174900,-0.12700228,0.03591028,-0.13180975,-0.23467013,-0.44595591,0.11693872,0.02328410,-0.10584585,-0.21014868
-0.02020052,-0.34783053,-0.02890094,0.38931214,-0.26415036,-0.34500671,0.25592681,0.19028952,-0.39555144,0.47375869,0.31035110,0.28096302,0.37092952,0.24270383,0.06335509,-0.19864142,-0.01509594,-0.42833967,-0.27591501,0.20426651,0.29826162,-0.36393839,-0.42264405,-0.16582810,0.00425185,-0.15731418,-0.11178402,-0.37880943,0.36596992,0.28237014,-0.08895811,-0.15423060,0.43453960,0.38214095,-0.26491846,-0.32961075,-0.46286577,0.49100835,0.36068281,-0.35839214,0.46476704,0.17108114,0.42264519,0.33574169,-0.08614483,-0.01414677,-0.36298183,0.39863776,0.05756123,-0.13885987,0.10290427,-0.14417715,-0.00279826,0.18026022,0.18999474,-0.49854641,-0.47705396,-0.42178927,-0.37735584,0.38891596,0.36058086,0.03368605,-0.26531464,0.29512047,-0.08417300,-0.03023310,0.46554503,-0.04702328,-0.03904229,0.32660400,0.09516311,-0.07419918,-0.00283672,0.01676997,-0.23917275,0.41085655,-0.49684535,-0.10173681,0.30954319,0.06054994,0.25943412,-0.08750592,0.41637481,-0.24336414,-0.40724569,0.10636955,-0.24191054,-0.38429965,0.18458028,-0.11926638,-0.49537773,0.04520150,0.41489726,-0.25994823,-0.15887601,-0.16860527,0.21030289,-0.19229000,0.28574380,-0.32756888,-0.36571555,-0.12038282,0.09571558,0.12939050,0.39551559,0.35653870,0.03993270,0.39783087,-0.24508105,-0.15025997,-0.04161554,-0.48564693,0.26223411,-0.12524073,-0.22901107,0.35498842,0.48112984,0.02909791,0.47075382,0.16607825,0.41043554,0.47540070,-0.28881153,0.32485784,-0.28384783,0.05438188,-0.34133742,0.42690395,0.35865010,0.43909616,-0.40653663,0.48575463,-0.19127698,0.18318488,0.11383845,-0.29150551,0.04543523,-0.34172863,-0.39188755,0.30044914,0.00801139,0.06649691,0.31480221,-0.22975480,0.44142969,-0.41387167,-0.37465784,0.42308918,0.11524589,-0.40340650,0.08901789,0.02649707,-0.42425750,0.30462938,-0.14514905,-0.21079977,-0.14713214,0.00557681,-0.29033317,-0.29367070,-0.06217899,-0.20461812,-0.31363675,0.24934965,0.48810555,0.31287606,0.46684911,0.03746440,0.47237495,-0.42509155,-0.16208647,-0.01951965,0.14204332,-0.34612082,0.25244799,0.08555417,-0.25892155,0.37807589,0.00993201,0.36056740,0.48047188,-0.39687979,-0.11525803,-0.45301715,0.39563608,0.22957492,-0.17244526,-0.25946170,-0.27096067,0.03266601,-0.05912175,0.16283991,0.33503237,0.14389590,-0.07181340,0.33365059,-0.04063330,-0.10524730,-0.12918074,-0.06744694,-0.02892801,0.21090995,0.41610857,-0.38432310,0.36590417,0.17036576,0.20519432,-0.38887093,0.05006797,-0.29353064,0.46117064,0.01744221,-0.20227973,-0.16615864,0.05544103,-0.31512830,-0.44108023,0.37834843,-0.08152834,-0.21978768,-0.08626355,0.37229326,0.46006512,-0.23776859,0.02078538,-0.11190999,-0.40461991,0.48106566,0.28460507,-0.03043938,-0.08231888,-0.23987265,-0.31896866,-0.16407813,-0.12550937,-0.45669175,0.49109422,-0.44156417,-0.36088534,0.03165378,-0.23603255,-0.39988502,-0.45689135,0.04994805,-0.08022524,0.08411920,0.22453583,-0.02822370,-0.03434069,-0.34714972,0.26752401,0.39217412,-0.46622756,0.22802614,-0.34569755,0.05552038,-0.38157013,-0.24557616,0.04147458,0.40600240,0.22223421,0.45651179,-0.34332516,0.38483204,-0.23689188,0.00237266,0.42035695,-0.23827171,0.08401639,-0.42471842,0.29124390,0.33279677,-0.34708280,0.31599164,-0.12852580,0.06889681,-0.09717993,-0.39414262,-0.44776040,0.37941920,-0.23337286,0.32037624,0.27181053,-0.19835403,0.05073187,0.43031271,0.35991606,0.16816692,-0.32244983,-0.11280145,0.05438035,0.37317945,-0.18541761,0.19575161,0.27642007,0.11672498,-0.25086644,0.22788101,0.38160088,0.31488697,0.27816877,0.14678798,0.12573334,0.42068068,-0.03618814,-0.49337474,-0.00265875,0.37363894,-0.38471986,0.04973463,0.25320833,-0.11741392,-0.12835146,0.02676559,0.18251245,0.41610176,-0.05530797,0.02400734,0.05994709,0.10008861,0.40529181,-0.36311435,0.02499974,-0.21700094,0.38591573,-0.17411531,0.39288660,-0.39500741,-0.48854717,0.22932238,0.38625765,0.27391538,-0.12043617,0.02372382,0.20211330,0.34727108,0.03063053,-0.30055321,0.22092109,0.14616528,0.24986967,-0.02685821,-0.47674700,-0.38705164,0.48642823,0.18548494,-0.49488829,-0.07935870,-0.26614987,0.12865684,-0.40018728,-0.29548932,0.29499202,0.11611520,-0.04793975,0.13339881,0.38451706,-0.20231784,0.21005768,0.39223648,-0.45942529,0.11260093,0.17536508,-0.07645765,-0.36377941,-0.12233479,-0.22923952,0.16682641,0.07716630,0.48871002,-0.19396367,-0.18479996,-0.05379523,-0.19229655,-0.09092387,-0.06247635,-0.45344261,0.00503355,0.44574088,-0.17083800,-0.37379499,0.50100113,-0.02684035,0.36745692,0.06867572,0.39665272,-0.00996271,-0.03425353,-0.28340383,-0.28082306,-0.13263982,-0.24041735,0.33120777,-0.45718229,0.18312500,0.46735947,-0.07994564,0.44904570,0.12526789,0.48361856,0.42357804,0.41704126,-0.20559527,-0.10553589,-0.20583681,0.29680732,0.40739950,-0.13483129,-0.23600589,0.28758968,0.12930962,-0.15418288,0.26273232,-0.40501670,-0.28117861,-0.14683928,-0.48205832,0.22786823,0.32756081,-0.26367015,0.44618356,-0.30507723,-0.00408750,0.27709076,-0.26318188,-0.32770612,0.23432777,0.14459758,-0.38852775,-0.14535347,0.13893472,-0.41890518,-0.15252289,0.51249617,0.02638856,0.14047367,0.25844376,-0.13777372,0.44067375,-0.51390738,-0.36167372,0.07672638,-0.14784948,0.42762539,0.19653332,0.08762331,-0.21056896,0.21611017,-0.18556667,-0.38312610,0.45245049,-0.23975761,-0.19038178,-0.05869342,-0.47298562,0.03488517,0.10864546,0.26653824,-0.29329273,0.27857437,-0.30784194,0.39905905,0.37496049,0.01350821,0.35584117,-0.17218692,-0.41165523,0.07535456,0.18001414,-0.45464745,0.09021899,0.34642680,0.14240940,0.45388829,0.28142612,-0.16023879,0.04034151,-0.42931958,-0.44411292,0.35466477,-0.31433309,-0.49806240,-0.39636121,-0.01613677,-0.05818975,-0.35097554,-0.43770764,-0.38905417,0.46598215,-0.20974376,0.37382861,-0.38347754,-0.37343908,0.17858604,0.07626642,0.44888693,-0.49881662,0.18343453,0.05505596,0.20684934,0.24336049,-0.34828885,0.05642224,-0.11561137,-0.39617797,-0.16221823,0.22427907,0.14472026,-0.09122352,0.27445529,-0.01617119,0.07761763,0.27825466,0.11911772,-0.38385827,-0.22858946,0.29474560,-0.32890189,-0.15061518,0.21295851,-0.09783547,-0.33197490,0.29196044,0.01009875,0.35088189,-0.11218915,-0.01468313,0.37019598,-0.42239641,-0.45909912,0.07638200,0.31835313,-0.30893341,-0.36719576,-0.29702758,-0.20389167,-0.02702230,0.42334964,0.42208269,0.35670190,0.19690043,-0.05771225,-0.01106467,0.01100396,-0.43225272,0.08549994,0.25291245,0.32284253,0.21403494,-0.43515433,0.01743066,-0.38860446,-0.25816895,-0.17315285,0.13749581,-0.40031182,0.21461827,-0.37854610,0.46896900,0.29084290,-0.33800896,0.04535100,0.10947971,-0.14573955,0.17964057,0.30785324,0.13390588,-0.36750830,0.22821511,0.08443879,-0.47118720,-0.05454926,-0.47433041,0.00290506,0.44337814,-0.42355829,-0.42849324,0.17477904,0.39642931,0.28888038,0.25135787,-0.07729721,0.40475965,0.49448282,0.24820306,0.04058225,-0.40712778,-0.03805272,0.16165992,-0.43808980,-0.24684372,0.32480728,0.10886796,0.35896438,-0.33240454,-0.22616829,0.16555604,0.31580057,-0.07548451,-0.09725052,-0.09447656,-0.04085779,0.35516824,-0.06814112,0.45870977,0.29544854,0.01460687,-0.46233389,-0.01871446,-0.08857942,0.32678222,-0.26812172,0.33271656,0.22969206,-0.27554528,0.08017225,-0.23008091,-0.18253947,-0.45777622,0.43253537,-0.11954743,-0.20606731,0.25003560,0.48318548,-0.34172060,0.43082195,-0.23183941,0.32571294,0.25177523,0.20273991,-0.25914430,-0.33426067,-0.33368290,-0.39812031,0.10592314,-0.36905421,0.40082759,-0.38183245,-0.32895363,-0.11782957,0.03000233,0.49707453,0.11343144,-0.13716500,0.22673266,0.33801879,0.44301808,0.49714614,-0.34332093,0.48570893,0.42720516,0.03482238,-0.21604664,0.18893737,0.02628837,-0.06051477,0.11896694,0.29723553,-0.22910404,-0.12573397,0.00361058,0.01315561,0.03982744,0.16643348,0.11270223,-0.35477771,0.30049558,0.01487535,-0.23604334,0.47188661,0.39721138,0.29412275,0.46899083,0.01071085,-0.34304225,0.19611481,-0.15034534,-0.39863438,0.19361452,0.00694958,-0.40729369,0.13210998,-0.44854969,-0.12503921,-0.18743079,0.06718223,0.30790784,0.42696954,-0.13918879,-0.42729645,-0.20773061,0.35418332,0.08143323,0.33194043,0.02167641,-0.30553502,0.47680901,-0.17745808,0.20947981,-0.25920420,-0.20557148,0.10669119,-0.46508145,-0.23656995,-0.38240200,-0.30789225,0.46036391,-0.03143051,-0.20383896,0.15567291,0.47445908,-0.11880524,-0.22320524,-0.48706018,0.24548264,0.07925002,0.07276191,0.04518884,-0.00372091,0.42410306,0.11377419,0.28712022,0.27780013,-0.30496271,0.11880561,-0.20048260,-0.11039309,0.09564004,0.12205932,-0.40091328,0.33643585,0.41646912,0.20562340,0.37139127,-0.31891515,0.32490516,-0.43522186,-0.35917674,-0.20868615,-0.14370737,0.29225685,-0.23839997,0.23358629,-0.43583641,-0.23006526,-0.02598545,0.13870651,0.33897524,-0.48181481,-0.36546096,0.26300446,0.13212341,0.42165539,0.04082427,0.32719711,0.04046897,0.34034167,-0.28319598,-0.36389099,-0.03759901,-0.18410926,0.47258648,-0.12085548,-0.47794567,0.34406905,0.05882520,0.34487184,0.40719527,0.19797649,-0.36559866,-0.23751285,-0.01122193,-0.10573458,0.49443783,0.05108169,0.16283394,-0.03172657,-0.31001048,0.00185686,-0.01353818,-0.17547060,-0.23513868,-0.38141476,-0.25381522
0.30568560,0.44578235,0.28665375,0.14602727,-0.33741362,0.42276277,-0.39157174,-0.02152288,0.39530763,-0.01268291,0.00014577,0.23920689,-0.45388688,-0.15500563,0.14633686,0.24395919,-0.02084540,0.40853883,-0.26762660,0.37296708,0.40274587,0.28347985,0.03583145,-0.12898070,0.47346937,-0.46231169,0.35748112,-0.20200124,-0.19745036,0.47606636,0.04418355,-0.39176477,0.42184871,-0.16916270,0.25426250,-0.41556491,-0.24639994,0.36269076,0.06288369,-0.35126910,-0.14999214,-0.43694235,0.38803678,-0.10401494,-0.09195255,0.03445047,-0.35992030,0.38720695,-0.05700972,-0.12754644,0.26017404,-0.15426385,-0.34406659,-0.20399451,0.21675545,-0.37059722,-0.16630620,0.07423657,-0.07259846,0.13624344,0.05030293,0.47158509,0.24447867,-0.02784835,-0.19757762,-0.00125883,0.05636935,0.05568721,-0.13811177,-0.37999186,0.20520886,0.21155129,-0.31791655,0.09157029,-0.39472467,0.08838478,-0.37334377,-0.25343043,-0.02300397,0.07039923,0.12009448,-0.26200973,0.41622260,0.27602788,0.03399575,0.13297805,0.40543066,0.36768955,-0.29278538,-0.16716780,0.00395405,0.25758435,-0.19538388,-0.25126280,-0.27003859,0.10816144,0.24901135,0.28944681,-0.33346681,-0.38848677,0.40591606,0.36580252,0.31631285,-0.41608621,-0.04201153,0.42587238,0.17799284,0.08826301,-0.32477375,-0.34326270,-0.34118038,0.29532072,-0.10527243,-0.42495778,0.07134861,0.42872333,0.20805178,-0.02297489,0.29683004,0.41568492,0.31063080,-0.19748793,0.17520143,-0.38211244,0.05616450,0.41179235,0.22913423,-0.19641624,0.19415675,0.38838583,-0.09044321,0.09781792,0.25114811,-0.27483263,0.18412968,-0.28740751,-0.34788458,-0.13833471,0.30069294,-0.17266874,0.01840259,0.45951256,-0.37734801,0.41312222,-0.46485098,0.19547137,0.34415379,0.24465178,-0.32809309,0.13922396,0.16050722,0.48581998,0.44848530,-0.15996359,-0.39834357,-0.00668243,-0.25825701,0.32777324,0.29589926,0.43292100,0.20651276,-0.30753023,0.02004705,-0.04723369,-0.08641943,-0.30081712,0.16292469,0.06439996,0.06050345,-0.03640544,0.39173123,-0.42119143,-0.07625912,-0.48382087,0.49374818,-0.04097944,0.20782185,0.33445964,-0.29852689,0.38289354,-0.02243262,0.36254371,0.36267988,-0.08490477,-0.30112365,0.46955447,0.41775340,-0.05897015,0.28165788,0.18852123,-0.15222734,-0.02716878,0.37276286,0.36043829,0.41881623,-0.21859508,-0.44181318,0.08172603,0.34585788,0.11833673,-0.45492881,0.23852058,0.19845953,-0.03159430,0.25057942,0.18624728,0.42093715,-0.04508413,0.02077546,-0.37426260,-0.16157443,0.49730174,0.49247957,-0.28917231,-0.07550024,-0.30825922,-0.33431216,-0.18872913,0.09868897,0.42598845,0.48919682,0.43973942,-0.10874633,0.35509759,0.29717918,-0.19054913,-0.36334120,0.35485989,0.39117723,0.48302038,-0.02682988,0.43305591,0.21562799,-0.33364458,-0.10351494,-0.03696938,0.35655790,-0.17269088,0.42996151,-0.11505696,-0.04249938,-0.22080582,-0.10570492,-0.04762535,-0.02138382,0.29062020,0.11631457,0.12601654,-0.40691520,-0.28899287,0.04670744,-0.42248008,-0.35289634,0.43710990,0.43267570,0.44399212,-0.25261956,-0.43062805,0.29902399,-0.36509902,-0.45028933,-0.22961749,-0.43108069,0.26673861,-0.05761638,-0.02204654,-0.25423477,-0.19071404,0.31245865,-0.31801124,0.20068524,-0.22683465,-0.04770341,-0.42688289,0.20845303,0.42076030,0.35976361,-0.17509185,0.04464017,0.45038531,0.03337997,-0.40872695,-0.47226511,0.18028815,-0.47047216,0.46100136,0.12366762,-0.22641732,-0.47117857,-0.07669176,-0.08914227,-0.42142391,0.19506934,-0.01335076,0.36141955,-0.34492082,0.47539846,-0.39545756,-0.04546933,0.27867460,-0.22397984,-0.35869642,-0.45638110,0.22310909,-0.28688582,0.25442848,0.14478630,-0.42762447,-0.42144674,-0.31050786,-0.47741837,0.11177298,-0.21897573,-0.44954603,-0.20853661,-0.19149207,-0.48772881,0.41895196,0.08400722,-0.46422739,-0.16625214,0.49548918,-0.36413209,-0.44355216,-0.00491141,0.48086677,-0.31883900,-0.04923165,-0.42355936,0.13320452,-0.27169605,-0.14990070,0.27457688,-0.22509575,-0.42401273,0.48839680,-0.47061041,0.22087139,-0.43935584,-0.39220592,0.41062095,-0.41666133,0.21969575,-0.30791620,-0.36263741,-0.48469791,-0.00300791,-0.36463637,0.41900777,-0.41145551,-0.29434386,-0.21142469,-0.41028698,-0.19137761,-0.19318670,0.06751890,-0.21148647,-0.00666968,-0.48058386,-0.13742186,-0.37319339,-0.24883673,0.21501450,0.40219911,0.02611884,0.29104470,0.39058571,0.05540804,0.01188401,0.45127636,0.16395103,-0.07601790,-0.46188270,-0.11662379,0.10594742,-0.34081356,-0.10986451,-0.36987836,-0.16023251,-0.15621181,-0.29769980,-0.00285139,0.09258447,-0.21984631,0.30984168,0.40357745,0.34765038,-0.40231707,-0.09968651,0.37224867,-0.03737273,0.02826646,-0.37656830,-0.32233698,-0.06953443,0.14944988,0.46854218,-0.17926138,-0.29437866,-0.01726101,-0.22505593,0.36570402,0.39665620,-0.19664134,-0.23795189,0.04342497,0.00520568,0.16406234,0.13000037,0.28641115,0.46859070,0.32428546,-0.21166710,0.06246594,-0.39204841,-0.39774494,-0.02513252,0.46263337,-0.29703942,0.37664871,0.33495267,0.16558145,-0.09508483,0.45831632,0.34311822,0.33552069,0.10926515,0.31565387,-0.34158830,0.31083921,-0.20864435,-0.06595084,0.20071120,-0.27545985,0.26115391,0.44080177,0.20671460,-0.29121905,0.07751018,-0.16463022,-0.50231482,0.04835711,-0.33038623,-0.20484911,-0.37857145,-0.21681443,-0.09989260,0.09777231,-0.25407439,0.10290054,-0.02558298,-0.41906919,-0.23122000,0.38098503,-0.45670494,-0.38388727,0.21715296,0.14758104,0.42272604,0.38032995,-0.01951128,-0.25755704,-0.17928468,-0.35144705,-0.08966877,-0.46526964,-0.43062241,-0.38408456,-0.25702171,0.15465086,-0.03364250,-0.24756723,-0.29072174,0.13742473,0.04865402,-0.16872809,0.42038372,0.44852913,0.42909341,-0.33347624,0.05268601,-0.09210382,-0.24588124,0.32547610,-0.21596533,-0.21688417,0.42910387,0.50372340,0.44817902,0.37783216,0.38557809,-0.09792134,-0.42541290,-0.33188135,0.03077055,-0.02305115,-0.29915576,0.11211529,0.10996646,-0.04382679,-0.23199113,-0.42682895,0.20633506,-0.02439933,0.20964209,-0.24508436,0.30691666,0.13027243,-0.29467293,0.24313249,0.30773178,0.26238441,-0.36137265,-0.45887764,0.07452950,-0.07160854,-0.15468414,0.02647461,-0.06480542,-0.22798268,-0.13384589,-0.21166790,0.15436400,-0.06875535,-0.03933633,-0.29973819,0.42381993,0.16690890,0.30588146,0.02398518,-0.38415705,-0.43002361,0.09595676,0.32217802,0.04553858,-0.19405326,-0.41969993,-0.13888355,0.44924662,-0.20971605,-0.40849731,0.23493216,-0.45776284,-0.26132938,0.28942374,0.12728550,0.16413502,-0.38589006,-0.38037867,-0.42768355,-0.12935816,-0.01836014,-0.13540632,-0.46517138,0.41843675,0.31858435,-0.27923718,0.32870835,-0.02286775,-0.47690146,-0.14823617,0.09297520,-0.40675683,0.44824272,-0.08198288,0.14743624,-0.23459724,0.00417102,0.49991201,-0.30048686,0.28541475,-0.40447300,0.43645138,0.32241176,-0.18125776,0.20182376,-0.07814911,0.46084429,0.30477883,0.04163036,-0.46645374,-0.32392773,-0.48248285,-0.11280088,-0.30145339,0.42521283,-0.30011932,-0.08301375,0.25335519,0.17702878,-0.05986113,-0.39479470,-0.22820876,0.03813568,-0.43993119,0.19623280,-0.31672374,-0.17954898,-0.30814129,-0.32320737,0.00568215,0.45678855,-0.25369801,-0.07894271,0.26231338,0.05311522,-0.38306167,-0.31856665,0.01173084,0.41806560,0.21482405,0.03545439,-0.41433335,0.22517719,0.41850019,-0.21739140,0.15024986,-0.38177990,0.19946234,-0.09672769,0.29614289,-0.35880226,0.01169797,-0.42848481,0.18224377,0.07288370,0.26170311,0.35353597,0.37167995,0.42768333,-0.49280971,-0.13656474,0.38112966,-0.24725215,0.28180141,0.14019149,0.30284904,0.39379812,0.31518047,-0.19271123,0.30559586,0.02497351,0.33980235,0.39061538,-0.24983058,0.25814155,-0.32681339,0.40021387,0.37635361,0.37262939,-0.19515497,0.17425007,-0.48542863,0.31640640,0.23862141,0.18431606,-0.13203682,-0.01920702,0.02652238,-0.25804502,-0.08266449,0.04039808,0.10727408,-0.20496149,0.28949008,-0.11489330,0.43055268,0.08808828,-0.22506180,0.24265760,0.39333220,-0.41961875,-0.23236206,0.23315018,0.47099663,0.01766035,-0.00868906,-0.35559737,-0.08101840,-0.13387535,-0.48604666,0.22023420,-0.46093959,-0.47493055,0.02751169,0.26691994,0.20704506,0.40636719,-0.23656348,-0.25368640,-0.34830278,0.17892730,0.28298167,0.25653148,0.47164752,0.07008242,-0.36009351,0.40106146,-0.34304062,-0.08518014,0.14371906,-0.44970842,-0.00479889,0.41135406,0.28335214,-0.03400395,-0.07152531,-0.22727632,0.10683368,0.34475573,0.14046683,0.12377689,0.06478027,0.17636186,0.15283038,-0.39653750,-0.04279840,-0.12739426,-0.48592984,0.22117042,0.11692249,-0.33466779,-0.10032266,-0.10083307,0.42150882,-0.12875337,0.46907073,-0.43859382,-0.22769190,-0.37396989,-0.02377396,0.41603621,-0.32361747,0.47137537,0.32668391,0.45853621,-0.06320780,-0.24410897,-0.26627926,-0.45302504,-0.39832386,0.37403371,0.17380465,0.17246849,0.05803149,-0.16704305,0.27831140,-0.48366400,0.20438436,0.29218018,0.23749155,-0.17889598,0.45747503,-0.36284124,0.22025789,0.37898098,0.00840540,0.18932862,0.44038717,0.28071349,0.31535873,-0.08340387,0.19644741,0.49122764,-0.11208937,0.02412475,0.45144380,0.32566484,0.28042627,-0.31456239,0.37346264,0.38459643,-0.43718650,0.04920602,0.05819676,0.12136038,0.38170615,-0.16358246,0.13767188,0.08607419,-0.37140656,-0.12483657,0.40717822,-0.41393154
0.01232219,0.12743610,0.46504944,-0.47927242,-0.18323528,0.40543661,0.30144108,-0.36787656,-0.17795018,-0.00181827,-0.37619614,0.21009018,-0.47769345,-0.42475227,0.03575543,0.30297991,-0.23881146,-0.09053609,0.18759284,-0.17598685,0.45867340,-0.25421264,0.44537235,0.34037955,0.08220490,0.08304423,-0.07354626,0.21079833,0.45820766,-0.16636804,0.29686680,-0.02947015,0.46106806,0.26191624,-0.00874257,-0.22216722,0.16735285,-0.20730149,-0.09002661,0.48950906,0.29088024,0.03387421,0.19988041,0.31371443,0.10953334,-0.26431277,0.11636520,0.37019636,0.14471217,-0.19624048,-0.30579049,0.10338557,0.04954689,-0.36041814,-0.05623488,-0.36824821,0.22262609,0.37021886,0.34255012,0.18083375,-0.29614918,0.13941692,-0.34863640,-0.33508111,-0.09866685,0.14262103,-0.05705302,-0.43056269,0.43601243,0.35356273,-0.43962161,0.22874216,-0.10849681,0.26345770,0.04401173,0.49838021,0.49386932,-0.34342206,0.36610616,0.13756230,-0.04068723,-0.44011833,-0.25907250,-0.49114034,-0.30053647,0.18469262,-0.35938856,0.42208962,0.05491148,0.48316157,0.10293478,0.25889587,0.12274482,0.25447137,0.42451147,-0.47441872,-0.10055256,-0.13021567,-0.40135619,-0.15815010,-0.26849909,-0.33780952,-0.43260192,0.11284696,0.41225102,0.09989751,0.10170367,0.40111395,0.25336714,-0.03324331,0.03863950,-0.28732009,0.02663836,0.27956700,-0.27846044,0.22610189,-0.03574278,-0.13779530,0.14840902,-0.48047186,-0.15483730,-0.24913431,0.27785205,0.46838786,-0.49400534,0.20418394,0.49791394,-0.09018148,-0.42549372,-0.41170701,0.23409812,-0.21350908,-0.26522811,0.29179461,0.39110682,-0.35721285,-0.10932379,-0.00611854,-0.45554801,-0.35585424,0.46063815,0.08309148,-0.14317434,-0.01274064,-0.13740089,0.07851807,-0.28661993,0.32631789,0.43907187,0.35965976,0.34668184,-0.21280694,-0.38977024,0.12172666,-0.24481006,-0.38090275,-0.17783861,-0.26245498,0.01082505,-0.11657694,-0.18002654,-0.25421272,0.17621165,0.06285495,-0.45342436,0.07341627,0.20825199,-0.06132276,-0.43244876,0.25281593,0.08282299,-0.47208374,-0.16461036,0.43873646,0.01357732,0.19547194,0.01389403,0.22568396,0.02307930,-0.04526707,0.08191482,-0.13932094,0.23342393,0.18961997,0.47595187,0.47642473,0.30107537,-0.19891975,-0.27344551,-0.17086569,0.20713406,0.06985226,0.09399679,-0.10482497,-0.36170058,0.14424240,0.46946027,0.34689771,-0.41689814,-0.46414688,0.09798007,0.16347360,-0.43801804,0.43115318,0.09914299,0.07447466,0.12826143,-0.38267293,-0.20462143,-0.35603975,0.06358527,0.37803086,0.00439728,-0.20027740,0.07843338,0.00249937,-0.19415178,-0.08868628,0.33872477,0.06243686,0.26273335,0.06160117,-0.35894777,-0.13776028,0.45878103,-0.21979547,-0.49327000,0.42691097,-0.37512403,-0.41245812,0.46248894,0.22230030,0.25155949,-0.47356767,0.15947705,-0.14432612,0.10175130,-0.21685287,-0.03224433,0.39937267,-0.06797870,-0.45843912,0.29623343,0.46482574,-0.12435691,-0.08624168,0.00656363,0.21216656,0.34417353,-0.14008270,-0.21433958,0.11358243,0.42544232,-0.07215152,0.47592463,0.38319827,0.20608302,0.48071405,0.31094721,0.33341332,-0.42703377,0.27678703,0.06231406,0.32910105,0.30613553,-0.28497342,-0.32835030,-0.10358817,-0.00627619,0.14798261,-0.18267660,0.45923929,0.23192133,-0.34305403,0.46098881,-0.36927620,0.08088688,-0.02245725,0.35248823,-0.06814842,0.34165362,-0.36113475,-0.45433136,0.26641975,0.06558451,-0.47923769,0.15172974,-0.22340457,-0.49264462,-0.03264117,-0.38656152,-0.41989914,-0.26037694,0.15920096,0.37687046,-0.48638882,0.36109572,-0.43220203,-0.04919826,-0.09118619,0.26914620,0.31227561,-0.10432847,0.00903912,0.46928417,-0.14123886,0.14425582,0.05342836,0.33838049,-0.00296213,0.48546418,0.18009025,0.13569191,-0.46897112,-0.05153843,-0.29287123,-0.44404756,-0.39780390,-0.01822126,-0.44407656,0.05476286,0.06171884,-0.41030566,0.25997872,-0.27524200,-0.48551926,0.34225961,-0.34347399,-0.36051101,-0.16686405,0.07661421,0.40121042,-0.36794890,0.46626304,-0.09125040,-0.39937357,-0.17456522,-0.44700978,0.15410075,-0.33604145,0.04987383,0.14014736,0.34639781,-0.31021518,0.17378302,-0.20494830,-0.11036186,0.21682853,-0.12906614,0.32548861,0.22575941,0.40534781,-0.07780184,0.39484943,0.25293217,0.22093094,0.46424103,0.12344913,0.37434454,-0.41871807,0.43244572,-0.06149121,0.47723346,-0.43756544,-0.09550801,-0.11414612,-0.33674326,0.22989299,-0.06140156,0.31800212,0.39755168,0.49380477,-0.03928707,0.24399224,-0.32462172,-0.38340653,-0.49791933,0.01394444,0.29361472,-0.12759663,-0.10059551,0.11345124,-0.12796780,0.39662779,0.05627655,-0.35748605,0.10280669,-0.01151036,0.23523996,-0.03991322,0.06238009,0.16503799,0.39785790,0.03954963,0.22747255,-0.19770505,0.42518912,0.39157252,-0.46314848,-0.12919098,0.21446033,0.43477424,-0.14290772,-0.34445611,0.13234159,-0.01965632,-0.25489237,0.15546883,-0.43352190,-0.37588406,-0.39142677,0.03358500,0.28427070,-0.00313867,-0.08830317,-0.19235419,0.10637887,0.49560196,0.28717186,-0.16123702,-0.04508407,-0.15044916,-0.49619903,-0.14772717,0.38845010,0.23289034,0.16097225,0.32608270,0.13686699,0.20346486,-0.31154812,-0.17534511,0.09216967,0.00388631,-0.03334937,-0.24181895,-0.45623235,0.26916222,0.46554671,-0.33744184,0.43919916,-0.40725557,0.18018742,0.19441590,0.06113019,-0.42655583,0.49193758,-0.33586657,-0.43147475,0.27922750,0.00290686,0.02296128,-0.37318127,0.00726522,0.38419811,-0.46705633,-0.24036826,0.05368613,0.34644505,0.36084959,-0.28834393,-0.50273284,-0.32733962,0.31564020,0.02852499,0.16766091,-0.39163214,0.11296551,-0.02019843,-0.40968040,0.26101375,-0.10512357,-0.33987617,-0.07477633,-0.42058902,0.21702112,-0.00175198,-0.42849182,0.38112417,0.06617946,0.34793998,-0.11554811,-0.40236240,0.49436092,0.41385049,0.48925678,0.51201546,-0.36562473,-0.00043302,0.32142705,0.47523907,0.20083060,0.32656504,-0.33290438,0.04768288,-0.10686213,0.37257425,0.16570057,0.49071516,-0.16912997,0.23851593,0.24097955,0.21775358,0.39403875,-0.33447937,0.29721163,0.11105610,0.16285139,0.36685642,-0.00853167,-0.26613219,0.22932612,0.39614081,-0.15946491,0.21193973,0.27704855,-0.20846357,0.18821790,0.38426014,0.27143936,0.01261560,0.37644471,0.00207354,-0.12586317,-0.43098331,-0.44590659,0.25265991,0.42494340,0.20898702,0.23785635,-0.25004842,-0.05576970,-0.02182069,0.46770516,-0.16165096,0.14269869,0.26262641,0.44660966,-0.19377316,0.13731287,-0.04640112,0.05037734,-0.13840249,-0.17102904,0.36379397,-0.45404169,-0.42990249,-0.37284505,0.23673198,0.47714248,0.43287742,-0.22233692,0.36744933,-0.06531100,0.14237236,0.42804119,-0.01719729,-0.10740897,0.34923105,-0.30952517,-0.36975080,-0.40081737,0.13457071,0.10677768,-0.43750359,0.46605984,-0.25393789,0.32768179,0.42379390,0.06208985,-0.03027881,-0.13138628,-0.39948922,0.31024397,0.16172440,0.43758775,0.35934920,0.26190229,-0.39689235,0.12122268,0.24996125,-0.46549725,0.39512117,0.11341833,-0.03346859,0.03540736,0.03861336,0.44809719,0.42776453,-0.11220329,-0.36195503,-0.44402403,-0.01833220,0.26503003,0.15543598,0.04084588,0.23319993,0.40715133,-0.12352061,0.16018750,-0.03131983,0.33655139,-0.48822062,0.05637574,0.15792397,0.20981330,0.03296895,0.04222843,-0.01706771,0.13552564,-0.33969684,-0.27183391,0.16840757,-0.44704506,0.33922090,-0.36668668,0.08803116,-0.12204948,-0.41885131,0.01389373,0.26164823,-0.28607360,0.06263028,-0.26376354,0.47103313,-0.28333967,0.28365212,0.21556917,-0.36415735,-0.33146946,-0.11360353,0.12224258,-0.46577461,-0.06375547,-0.28849612,0.21380386,-0.34422027,0.24504453,-0.24683634,0.13507056,-0.12051737,-0.08745422,0.36266948,-0.45289629,-0.03463427,0.20200730,-0.31960853,-0.44750919,-0.42304593,-0.24314571,0.06075419,0.33059213,-0.04021311,-0.38201248,-0.42563338,-0.04897316,-0.13794718,0.38604789,-0.30157047,0.02985150,-0.41189776,0.11759177,-0.32314714,-0.35936734,-0.43764591,-0.10925888,0.35337994,-0.28230317,-0.36328014,-0.39304091,0.35269111,0.01613985,0.01948434,0.21531355,0.06324356,0.48425756,-0.08512486,0.23912316,-0.46756037,-0.00974854,-0.50290413,0.09699408,-0.16918220,-0.02339332,0.24019686,-0.06546374,0.45741726,-0.37075611,-0.15764699,-0.32642342,0.17305300,-0.05786941,0.29820288,0.35403187,0.08407897,0.36261765,-0.25337479,-0.06190575,-0.41965707,-0.11658329,0.04505334,0.43303405,0.39955656,-0.43550612,0.14775169,-0.03850249,-0.45204674,-0.43530335,-0.29413000,-0.41340271,0.06010421,-0.29176222,0.19145853,0.40333395,0.19784891,-0.05678304,-0.15559864,0.15865866,0.07742042,0.19335365,0.33802897,-0.24517374,-0.36258875,0.13806671,-0.39020037,0.22191907,0.00086674,-0.14351075,-0.33998668,0.08120968,0.23990595,0.20502277,0.01391789,0.13926622,0.26990252,-0.33684807,-0.39740788,0.31896994,-0.27199372,-0.19167942,0.40632347,0.29115973,0.02030344,0.10092175,0.19585833,-0.28178505,-0.45333280,-0.45552530,0.38141411,0.12639614,0.23827093,0.22009813,0.38140994,0.37578937,-0.14174293,0.49122977,0.09770844,0.35912381,-0.15228099,0.25772176,-0.05966651,-0.41233759,-0.03706038,0.45482548,0.22735055,-0.26740048,-0.38268909,0.32943566,-0.44853072,-0.15452338,-0.36189897,0.45803271,-0.36338726,0.15871486,0.05964412,0.33374140,0.37866496,0.10692925,0.37825702,0.26019926,-0.26664307,0.11652795,-0.01970260,-0.38523313
-0.00768268,0.33855447,-0.39400336,-0.40997423,0.19767828,-0.04628435,0.34774753,-0.36198823,0.04134061,-0.18946406,-0.40741101,-0.23157190,0.04292868,-0.29024246,-0.40222177,0.09431349,0.05518587,-0.26414829,0.05232505,0.19182111,0.39459741,-0.38796242,0.02559413,0.27326237,0.21896683,-0.09614885,0.03346163,0.45232376,-0.47962089,-0.48624097,-0.43290937,0.01269643,0.35231350,-0.32691273,0.10272220,0.04999177,0.12680292,-0.04953028,0.18798963,-0.33194274,0.26100566,0.28055556,-0.06354134,-0.19627271,0.49012488,0.03423604,0.39821181,0.04553594,0.27020157,-0.04942713,-0.26264295,0.16479898,0.06261045,0.26295118,-0.06193865,-0.21842272,-0.33319767,0.47152298,-0.26609896,-0.31281856,0.48528201,-0.19900832,0.19987787,0.33759551,-0.02592106,-0.19739993,-0.11253486,-0.39940628,0.25285814,-0.42474558,-0.23181862,0.01297077,0.35367136,0.20255868,0.31562647,0.34502369,-0.26056517,0.21573871,-0.10820502,-0.48985435,-0.33316951,0.12942642,0.17494741,0.22944094,-0.10762239,-0.38699124,-0.48898178,0.05917994,-0.41546826,-0.25508074,0.24635989,-0.43017137,0.04589634,-0.05378479,0.40717804,-0.48035721,0.24820672,-0.20623418,-0.38211062,-0.00284554,-0.13493835,-0.11529471,-0.48778012,-0.27609391,-0.40621742,0.33264609,-0.42711462,-0.16456124,0.05025197,-0.03462645,-0.15441056,0.21708246,-0.40520002,-0.47946315,-0.05347660,-0.01282242,-0.36645484,-0.04246098,-0.45363026,-0.28176883,0.20266593,0.29250413,-0.21273889,-0.25265013,-0.26189244,-0.30645031,-0.23751457,0.47902668,-0.01842516,-0.11840416,-0.01530329,0.35779335,0.27648583,0.00363003,-0.41307062,0.37450147,-0.16030077,-0.33904081,-0.28993430,0.38993749,0.12633275,0.05565513,0.10701995,0.22113611,0.07606477,-0.44679385,-0.29206372,0.20971309,0.01090925,-0.24580740,0.42549015,-0.29094831,-0.45649720,-0.29047678,-0.05026143,-0.22884439,-0.10245051,0.21957941,-0.23313890,0.39646964,-0.38358171,0.26244171,0.26164743,0.39871404,-0.23010622,0.34991546,0.27326605,0.10922561,-0.48919819,0.48333374,-0.00083691,0.13723570,0.03902983,-0.39397633,-0.14091431,-0.38440773,-0.34109142,0.06346206,0.31842179,0.16351874,0.31387320,0.24279528,0.37249074,0.35563519,0.45741450,-0.16343284,-0.35260802,-0.12690882,-0.42786930,-0.07228726,-0.21924645,-0.30406022,-0.30687539,-0.45708065,-0.40534424,-0.03757731,0.39277935,0.36797843,-0.42818845,0.40424535,0.35198762,0.07122477,0.04154527,-0.10846987,0.17767389,0.39762050,0.00345179,0.33263069,-0.03801267,-0.17518121,0.00160985,-0.21839811,-0.42079169,-0.11217357,-0.34850899,-0.45302127,0.23311164,-0.19131364,-0.06898060,0.31448497,0.23957136,0.21180157,-0.48928930,0.43245577,0.25470484,-0.39441839,-0.10492381,0.14831744,0.47372250,-0.03262721,0.05194269,0.32750741,-0.46070412,-0.40723941,-0.28589002,0.21273119,0.49060301,0.22032463,0.05235472,-0.04023191,-0.44323925,-0.43723030,0.24408548,-0.36763542,-0.05315645,0.39515669,-0.31567613,-0.31213288,-0.29215509,0.11655710,-0.49594501,0.44851828,-0.17145054,-0.48495105,0.38109800,-0.41578525,-0.37869614,-0.22282868,0.23188089,-0.40333658,0.24391831,-0.21826042,0.41607341,0.27564459,-0.12841764,-0.36603145,-0.00109676,-0.12893967,0.36360201,-0.44670521,0.32335917,0.40416685,-0.39755209,0.05978433,-0.46349369,0.05429995,-0.03927455,-0.27442130,0.24627616,0.17135662,0.34267821,0.25048845,0.12009723,-0.32748968,0.26725725,0.00257219,-0.24442109,0.38604901,0.27686629,0.48189210,0.47308836,0.01126968,-0.23864670,0.39751125,-0.19654737,0.14706032,-0.45836787,0.30165607,-0.49222381,0.38613115,0.33740115,0.32041193,0.29050272,0.44529347,-0.11129285,0.33439282,0.00460446,0.35180860,-0.43948422,-0.24899070,0.02328774,0.40402684,-0.49679352,-0.35672681,-0.42668874,0.26530568,0.14221195,-0.17613869,0.14377531,-0.09075887,-0.19362181,0.13320393,0.44545324,0.08649467,0.03904512,-0.25678616,-0.27932880,0.06267794,-0.46948766,-0.27847995,-0.04917353,0.37551673,-0.44821876,-0.25041984,0.32560329,-0.05821687,-0.41574111,-0.16964356,-0.20644683,-0.35474743,0.08253658,0.31610174,-0.45358822,0.08138214,0.45672791,-0.38455236,-0.15950905,0.09455406,-0.05413167,-0.49546782,-0.47190068,0.26668888,0.13707119,0.46351770,-0.15805740,-0.33569288,-0.30095228,0.06210666,0.23106833,-0.26146564,0.29403509,-0.30871772,-0.38031615,0.34738708,-0.05897546,0.44538769,-0.21084383,0.02535152,-0.22405590,0.08168876,0.16728868,0.35376736,-0.10570903,0.20947123,-0.06851384,-0.14862362,0.33634172,0.28865630,0.46119113,-0.21172222,0.29056962,0.48632052,-0.44663586,-0.07520077,0.44552284,-0.10422773,0.09335745,-0.34527755,0.47047102,-0.16474649,-0.09950151,0.26705930,0.02683685,0.02023210,0.11444638,0.46788829,-0.03483293,0.40161856,-0.01158011,0.23603345,-0.02201596,-0.34955821,0.08585806,0.37704746,0.37532452,-0.46588698,-0.26082324,0.21629587,0.32873046,-0.28981858,-0.48630243,0.11717105,-0.31201787,-0.43712694,-0.45477819,-0.35538458,-0.02745373,0.15012621,-0.19260167,-0.05379800,0.48556675,0.20790461,-0.28673870,0.01240089,-0.27226391,0.32429195,-0.02621930,0.18543158,0.21789682,0.45717862,-0.08032412,-0.29392814,-0.37264098,-0.47528792,-0.40555767,-0.48756477,-0.42652099,-0.14762986,0.24019255,0.39548303,0.04990726,0.24680965,0.01707264,0.24951555,0.32192731,0.07269889,0.40166498,-0.20248362,-0.27735537,-0.29088978,0.24373043,-0.29174002,0.41678342,0.45296808,0.21320114,-0.36456898,0.27117203,-0.31472598,0.32369458,0.00249349,-0.33818452,-0.23713893,0.22403595,-0.19162153,-0.19128277,0.33853682,-0.17349856,-0.12615815,-0.32281513,-0.43908026,-0.22439937,0.23906238,0.31857652,0.30137486,-0.00383215,0.14441527,-0.12580905,-0.10210039,0.44192930,0.09700841,0.10708908,0.18216519,0.29724079,0.01310957,0.12809820,0.00986094,0.15379149,-0.08698213,0.21346189,-0.00169406,0.43714583,0.40085477,0.28229119,0.17470624,-0.29429835,-0.41880729,0.00225791,0.03156863,-0.03668543,0.19497072,0.10491583,0.24842391,-0.05630898,-0.07020509,0.05108209,0.43988137,-0.42571986,0.42576879,-0.16200762,-0.48691438,0.01404981,0.43300506,0.18644885,-0.19059745,-0.04875487,-0.17170746,0.33900308,-0.37116408,0.26744621,0.07829612,0.14335298,0.20956226,-0.02803845,-0.08091015,-0.11958407,0.18265662,0.01133846,0.40126305,-0.27049702,0.48690390,0.10695475,0.34111835,0.23674480,-0.44935423,-0.22892211,-0.21153759,0.49136563,-0.15677641,-0.29431494,-0.18277130,-0.15403135,0.21622776,-0.24651099,-0.45616151,-0.45310210,0.23504515,-0.09449056,0.41569214,0.37749353,-0.32671676,-0.01335971,0.01718884,0.38538845,0.46685254,0.44978905,-0.21627678,0.16606178,-0.02794763,-0.30713633,0.39906255,-0.04058177,0.29981842,0.24030099,-0.30330428,0.35152017,-0.48916065,-0.02015332,0.33225066,-0.15720319,0.17994329,-0.34966996,0.19958398,-0.08242482,-0.06559363,0.27936375,-0.00436948,-0.31646576,-0.31657141,-0.09614926,-0.44336531,-0.13963567,0.40000469,0.08788261,-0.23973390,0.37893831,0.04434405,0.04787884,0.04577557,-0.48353380,0.24077964,-0.05492996,-0.02372413,0.04162888,-0.31389764,0.17147689,-0.11285463,-0.31251549,-0.35606612,-0.28093394,0.03964652,0.34079492,-0.10668229,-0.23059098,-0.21179689,0.34442636,-0.45341914,0.27366914,-0.47823047,-0.26651345,-0.31232192,-0.40884519,0.10508909,-0.40595166,0.18242678,0.36708453,0.47343580,-0.27314474,-0.08495478,0.01928360,-0.25634012,-0.34348337,0.46514826,0.22120914,0.19657192,-0.35422671,-0.11302220,-0.41766950,-0.15988545,0.04072859,-0.18426002,0.39746094,-0.09696312,0.22107471,-0.33568336,0.18115713,0.06029004,-0.28419926,-0.03462286,0.09227118,-0.04412359,0.15589245,0.18497422,-0.43837557,0.25018251,-0.13252600,0.42879030,0.22362205,0.09462118,-0.15538672,-0.25599744,0.33977102,0.00188407,-0.29140442,0.05784800,-0.30442023,-0.14719548,0.44388363,-0.21997931,0.19999740,-0.00426460,0.10335243,0.09711462,0.39380287,-0.17709811,0.26596451,0.08176249,0.38839911,0.48322799,-0.45240903,-0.01865082,-0.06029912,0.20345893,-0.33366062,0.00136192,-0.04635856,0.03400529,-0.06928239,-0.32148404,-0.37027101,0.27606107,-0.07713301,0.46840962,-0.22392518,0.12898591,0.02531113,-0.02689783,0.48592434,-0.02921488,0.25318313,0.18362416,0.46667144,-0.14311818,-0.21695595,0.36205826,0.18039817,-0.45146863,-0.05636136,0.06904783,-0.46769555,-0.00876348,-0.44960299,-0.02799467,-0.30530455,-0.28326642,0.47342469,0.14865427,0.25140488,-0.09499976,0.32782092,0.38091518,-0.31957807,-0.25074565,0.34976083,-0.04134526,0.37952148,-0.12878554,0.42364646,0.35642764,0.33869514,0.17458798,0.03962642,0.30406980,-0.46940978,0.32229729,0.16603471,0.21099948,0.37096056,-0.39032163,-0.21995270,0.40326501,0.10091489,-0.16955576,-0.12472848,0.29565387,0.04780325,-0.15039886,-0.05518630,-0.20119923,0.25346441,-0.22921431,-0.32125046,0.43320787,0.01846761,-0.47623600,-0.11732196,-0.11151745,-0.11148305,-0.19796168,-0.25651277,-0.27405124,0.47589292,0.28307220,-0.47000289,-0.49351348,0.10537667,0.19603340,0.21748600,-0.02366277,0.30571177,0.49753330,-0.12039776,-0.09329920,-0.17188609,0.25505840,-0.29753047,0.37529124,-0.39638833,0.14640829,-0.32662691,0.35629092,0.41621456,-0.15017003,0.28585282,-0.06882344,-0.12968308,-0.33381218,0.31884252,0.25826498,-0.03214264,-0.43770198,0.48420541,-0.05624972,0.34537022,-0.48579748
-0.04976319,-0.04925311,0.21023591,-0.33227720,0.42708412,0.01594768,-0.33474390,-0.19331364,0.42257434,-0.00676629,-0.43844107,-0.37518866,-0.13160799,-0.33493092,0.27099556,0.04128079,-0.47926372,0.18672363,0.39059248,0.30606774,-0.38231840,-0.23918711,0.47221878,0.43652412,-0.48092213,-0.05992386,0.49882214,-0.49671672,0.38382643,0.34419236,-0.48251421,-0.16593677,-0.20506075,0.22772171,0.00178604,-0.27797663,-0.25633061,0.16704214,0.02868482,-0.33391076,-0.33972416,0.09024286,-0.20904477,0.02830596,0.25483919,-0.43857136,-0.43035043,0.27607403,0.24877426,0.46054112,0.08214177,0.36645587,-0.27864599,0.05436054,0.30297999,-0.25956812,0.49443669,0.30180213,-0.25628485,0.37826311,0.14599449,-0.23879905,-0.28767366,0.44093374,0.48892265,0.21411238,-0.33728439,-0.26819523,-0.11912696,0.19147697,-0.10247968,0.03881838,-0.22237062,0.18542277,-0.43329913,-0.46469287,0.25130366,-0.36041884,0.31314067,0.00069319,-0.39941204,-0.10451094,-0.13282839,-0.17805803,0.44984960,-0.32984840,0.06237385,0.44428629,0.47195373,0.30608901,0.32256442,0.11795242,-0.43232185,-0.46453418,0.05892414,-0.44428945,0.24798872,0.22112684,-0.21354925,-0.37512302,-0.09311719,0.18088406,0.16626289,0.19079228,-0.12483766,0.24056625,0.23242818,-0.37054540,0.38171804,0.04606200,0.13018848,0.48230600,0.44155106,0.49736009,-0.19575203,0.39140066,-0.33244793,0.36671755,0.33578676,-0.36051545,0.17314620,0.15913621,0.25716660,0.23884446,0.19082374,-0.18632563,0.29264217,-0.06359043,-0.46870186,-0.42294487,0.06427226,-0.05429512,0.27013298,-0.25669156,-0.35290739,-0.34957451,0.48546823,0.37979680,-0.22033755,0.36720507,-0.07414119,0.40985093,0.34951107,-0.13258751,0.40740141,-0.34598896,-0.24094121,-0.42514075,-0.47889290,-0.40458961,-0.28525556,0.19441576,0.25193195,0.46895422,-0.06982453,-0.05739293,-0.21641911,-0.27451393,0.38345722,-0.17782067,-0.18624623,-0.03793316,0.27951387,-0.41142613,0.20490060,0.42489842,-0.26277918,0.18949181,0.30455160,0.01683451,0.05669688,-0.26948222,-0.07293067,-0.09340866,0.09813618,-0.16541564,0.06089791,0.35828166,-0.08824716,0.08324564,0.45125043,0.12126353,-0.22956137,0.20085247,0.09339918,0.20767707,-0.34805719,0.38454674,0.43750767,-0.45925837,-0.28836688,-0.24750684,-0.00079278,0.48635822,-0.16257302,-0.29776193,0.41076599,0.07431622,0.39147913,0.21577941,-0.40805365,-0.05108841,0.44722132,0.02114373,0.35740675,0.04892547,0.35885969,-0.07803755,-0.09416397,-0.23674450,0.49560988,-0.14619615,0.38634213,-0.22685959,-0.43647644,-0.01310638,0.48159534,-0.28951046,-0.13614638,0.41343171,-0.25636966,0.06862522,-0.33873091,0.24073675,0.05422415,-0.00232510,0.44233479,-0.03444015,-0.42688632,0.33550553,-0.31612819,-0.33015710,-0.21127691,-0.36566032,0.19101017,-0.35120326,0.17910144,0.03788120,0.05514993,-0.42544169,0.29736845,0.05414716,-0.06750098,0.19080971,0.32643513,-0.01320867,-0.33946777,0.29089708,0.18301990,0.01442658,0.19796025,0.42364912,-0.41812309,0.35812807,0.16411769,0.13657118,-0.14295921,0.10965650,-0.39306793,-0.06463149,-0.05114588,-0.20736480,0.10217343,0.23391543,-0.08398416,-0.22517612,0.35859504,-0.42171838,0.30890340,-0.08133761,-0.33874707,0.11614053,0.46970301,0.08300465,-0.21717668,0.26881969,-0.45423020,-0.07182274,0.05172409,0.22520981,0.44127750,-0.25080009,0.14923257,-0.47611289,-0.39083137,-0.18285170,0.16556433,-0.02896413,0.42927286,0.27071839,0.40126011,-0.13190413,-0.45373143,-0.01903837,-0.42440098,-0.05282185,0.25685770,0.44800101,0.04296195,0.07965740,-0.13415413,0.18772138,-0.33675860,-0.20062963,-0.25852042,-0.07056066,-0.43854033,-0.21507466,0.35692458,0.11303102,-0.48945434,0.29893933,0.36438275,0.16277479,0.32645870,0.47707294,0.48010371,-0.00948948,-0.05945669,0.39650889,-0.25793350,-0.17976287,-0.25587064,-0.21973984,0.30769140,-0.15813559,0.24869019,0.07770833,-0.21575174,-0.23350214,-0.38053178,0.11358531,0.43095800,-0.22871102,0.40948920,-0.32810301,0.20061128,0.47096074,-0.04286784,0.05796029,0.08586779,-0.03004893,-0.13979203,-0.04734445,-0.36756513,-0.31531657,-0.07891026,-0.40037275,0.15796044,0.34573856,0.48405283,0.39588392,-0.32445417,-0.24954243,-0.30392390,0.48911808,0.07447387,0.41355324,0.03202035,0.33665727,-0.32878776,0.14933463,-0.05035694,-0.39759937,0.42077438,-0.14065638,-0.22568975,0.12158771,-0.16858681,0.23343804,-0.31758399,0.41796965,-0.29849089,0.03663259,-0.13819716,-0.17495770,0.21343476,0.27423828,-0.08197978,-0.13298592,0.13126873,-0.07503429,-0.22081089,0.30011147,0.14549470,-0.05622810,0.26788010,-0.28263763,-0.13717507,-0.19534156,-0.44452375,0.03408424,0.45426717,0.00522391,0.13648487,0.37525243,0.36544261,0.41273230,-0.00108400,-0.30242926,0.14362697,0.17374817,-0.39122449,0.34350438,-0.28313372,-0.02909541,-0.33944424,0.42045616,-0.24413551,0.10001184,-0.20036978,0.37071191,0.48916753,0.05002787,0.16102536,0.14453804,-0.49100709,-0.06341147,0.36457902,-0.12841090,0.24143339,0.42005043,0.40567333,0.19579277,-0.07412664,0.04328373,0.07303604,-0.20731109,-0.04600743,-0.43482067,-0.01376700,-0.39642111,0.25234085,0.09791266,0.43704388,0.45992825,-0.42159336,-0.38806134,0.38211163,-0.19103843,0.17688301,-0.34382909,-0.32494611,0.18007870,0.22497155,0.34526709,-0.17244990,0.23369940,-0.21833061,-0.30815347,-0.39470353,-0.47692847,-0.38797645,-0.48773515,0.22139579,0.03938429,0.05319600,-0.21017969,0.33262905,-0.48369410,-0.13449730,-0.18494541,-0.39360316,-0.38536805,0.42533698,-0.45144721,-0.44252937,0.46684124,-0.37286192,0.41913139,-0.22460108,0.31894593,-0.40763547,-0.04146515,0.00064664,0.31641573,-0.19686950,0.32779594,0.05013159,0.08482427,-0.48033915,0.15724285,0.11050994,-0.36866943,0.16406967,-0.17369733,0.17264845,-0.27413412,0.12043169,-0.00169542,-0.26527801,0.48985923,0.32291057,-0.16757454,-0.42728899,0.20784966,-0.14289499,-0.37805149,0.18132126,-0.00209918,-0.44840998,0.46153176,-0.18400742,-0.35843664,-0.08109110,0.31650534,0.45809754,0.22200887,0.14461928,0.00963013,-0.19052448,0.16256375,-0.34005150,0.41299382,0.29459600,0.32817997,-0.25855251,-0.03312957,-0.44296327,0.36822495,0.46651126,-0.22517590,0.32776176,0.26296015,0.09917902,0.40327459,-0.01934735,0.46439807,-0.47194402,-0.33715839,-0.03974231,-0.42317159,-0.37653764,0.27625027,-0.28147861,0.04225692,0.09307414,-0.32222457,-0.23358510,-0.26334971,0.18011710,0.06646061,0.39628116,0.34220992,-0.01650880,0.19800784,0.18305548,0.23163498,-0.33841763,0.22449804,0.08273225,-0.38013100,-0.49784031,-0.08338933,0.38835008,0.10391272,-0.18102780,-0.13153418,0.06693689,-0.15450732,0.03104698,-0.47280542,-0.07765233,0.15425495,0.30342992,0.14097824,-0.30163035,-0.10292406,0.31525813,-0.04245187,0.12981601,-0.00392097,-0.47112068,0.03476396,-0.14898051,0.01788364,-0.27186680,-0.47407740,-0.25297882,-0.10525852,0.25630736,0.33180880,0.01290575,0.25726315,-0.25269143,-0.09988171,-0.14008035,0.06558704,0.26837106,0.42693458,0.41108878,-0.20080023,0.45360925,-0.16770341,0.45342086,0.25806244,0.47312444,-0.35229862,-0.34900817,0.28981003,0.11284409,0.28855186,-0.20662179,0.14321468,-0.18122539,0.14291906,-0.33369881,0.05501244,0.17265529,-0.08865462,0.44516903,-0.07507742,-0.25935766,-0.04449599,-0.31948547,-0.01282381,0.35544495,0.04068910,-0.44725897,0.12355785,-0.03312774,0.46252467,0.42160412,-0.07937719,-0.20266548,0.37742373,-0.31734235,-0.22057839,-0.46211547,-0.15846176,-0.43191415,0.14204328,-0.37901873,-0.14166580,-0.21085098,-0.05469990,0.50078568,-0.05042846,0.49424930,0.16717301,0.35697241,0.43687179,-0.40881359,-0.40271164,-0.10762865,-0.22804521,0.08445803,-0.25252829,0.31155592,0.13552429,0.36905821,-0.22182717,0.10049060,0.29624215,0.20687907,0.40835363,0.18459266,0.39250097,-0.32103638,0.20665803,-0.28092334,-0.26272079,-0.15629345,-0.16237259,0.08924638,0.12559985,0.27615915,0.08509731,-0.42734905,0.26945889,-0.24775860,0.42968745,0.20636428,-0.15649523,-0.47302420,-0.40167095,0.11433524,0.11016159,-0.15425117,-0.07070878,-0.24884180,-0.27795279,0.21416585,0.35675428,-0.48072279,-0.08209528,0.25673939,0.19205451,-0.20153972,0.42251164,-0.11193219,0.00864450,-0.34852907,0.22571806,0.34094493,0.23753081,-0.15007892,0.11677337,-0.17743347,-0.07742520,-0.11376774,0.07480792,-0.14773775,-0.40744011,0.41800784,-0.12063073,-0.30719433,0.03698235,0.49448037,0.04183451,0.46559758,-0.25780531,0.25864195,0.17351937,-0.40647212,0.27218274,-0.41708249,0.33843823,-0.04480272,-0.12686808,0.25528557,0.33935717,0.37860185,0.40482506,0.06441663,0.21933291,0.14229597,0.41433147,-0.16389372,0.46486249,-0.16309373,0.22235573,0.03982588,0.18964909,0.31677951,-0.03988664,-0.42924161,-0.49149799,0.49377295,-0.43952382,0.04547233,0.45519935,-0.20000393,-0.19809258,0.12542855,-0.11177645,-0.43026026,0.20484692,-0.27532321,0.02354160,-0.42310733,0.47951975,-0.13719090,0.45545670,0.38433588,0.42722378,0.17478961,0.02663184,0.34155525,-0.48910410,-0.00850566,-0.32150578,0.23338699,-0.46858416,0.36780665,0.04823909,-0.01080406,0.43606847,0.05457459,-0.01890668,0.49551478,-0.40089207,-0.06493042,-0.20614117,-0.10105902,-0.44156568,0.18107001,-0.03185344,0.26292785,0.40572569,0.49168262,0.33982052,0.38524544,-0.14550828
0.29527722,0.26958132,-0.21828450,-0.02993316,-0.20378684,-0.37672925,-0.01903727,0.28770750,-0.19826772,-0.28580282,0.31887226,-0.33063768,0.26236671,-0.19197988,-0.39460106,-0.18319649,0.28892334,-0.39947948,-0.08460832,-0.27654242,-0.10592638,0.31419957,-0.21813043,-0.42485636,-0.21765387,-0.45520258,0.48086933,-0.22597125,0.38461794,0.36611477,0.12852048,0.17989516,0.13569609,0.41023598,-0.35003800,0.43190925,-0.46649327,0.13092473,0.21961664,-0.16476164,0.34512191,0.03849411,0.00461230,0.10749299,0.34652023,0.11000686,0.42429522,0.13543246,0.21052078,-0.16031619,0.35889004,-0.39540559,-0.34611662,-0.35924039,-0.32026196,-0.06377049,-0.31444297,-0.33939263,0.21025827,-0.42982504,-0.47327786,-0.16122126,0.25007012,0.16241823,-0.25098528,0.40003212,0.09434220,-0.21722776,0.03204145,-0.18496362,0.11881875,-0.12349988,0.35282567,-0.37727289,0.48361667,0.19885782,0.23238020,0.40783772,-0.16565246,-0.05711937,-0.25245668,-0.30673515,0.04747722,-0.09857330,-0.16597554,0.22721526,0.33765621,0.01958148,0.38782263,0.04791448,0.08981696,0.41480825,0.38773913,-0.15859116,0.07924192,-0.36093047,-0.25629628,-0.32462287,-0.07672390,0.27561237,-0.01127991,-0.46135191,-0.35202210,-0.16170036,-0.34112136,-0.36941298,-0.46340586,0.39071187,-0.46167884,-0.12901493,-0.16640357,-0.21413552,0.06424992,0.38107365,0.18729118,0.39827438,0.10829953,0.02522874,-0.08135026,-0.00262037,-0.42444797,-0.48886836,-0.08505921,0.46522978,-0.14550752,0.49694069,-0.39341894,0.09842354,-0.33200710,0.02071033,-0.13666049,0.14816844,0.05109601,0.00514379,0.48168828,0.20775350,0.13545478,-0.48157733,0.09854747,0.17379019,-0.11059226,0.43214390,0.45965468,0.45365895,0.31338126,0.14798878,0.35404282,-0.07580023,-0.32494410,-0.22664944,0.42411135,-0.24677859,-0.21328739,-0.16051603,-0.28226118,0.13816826,-0.17126444,-0.18813179,-0.27809184,-0.01805648,0.31707315,0.07094355,-0.38079141,-0.13743288,-0.42470936,-0.39940409,-0.42960128,0.21072613,-0.38081702,0.16892923,-0.11548368,0.00860369,0.10128994,-0.15462511,-0.03582205,-0.08367522,0.49334594,-0.18174852,0.34240663,-0.32991361,0.09245417,0.26240232,-0.08373609,0.37045262,-0.40827699,0.12222522,-0.00526154,-0.09592728,0.41702662,0.20096497,0.37274895,0.22445002,-0.23160966,0.49131365,-0.41276285,-0.15617573,-0.40790527,-0.34235595,-0.44543965,-0.28860957,0.32685776,-0.05984635,0.22135196,-0.07119632,0.28471415,-0.31535333,0.34438509,0.27665433,-0.00086468,0.18024218,0.43927098,-0.41907407,-0.06619340,-0.15130116,0.44482029,0.01469711,0.45948620,-0.07096122,0.41073234,0.36797219,-0.37455282,0.28268193,0.09358956,-0.10523205,0.27414278,0.18085750,0.23861633,0.36619587,0.33914562,0.29423131,-0.42174039,0.16481232,-0.26710812,0.29823956,-0.40768375,-0.48684845,0.47714955,0.43070637,0.28597270,-0.02805228,0.11051559,0.22774010,0.05608519,-0.46017482,-0.43160873,-0.00565650,0.05379031,-0.47278844,0.42342239,-0.03450215,0.39857535,-0.44827514,-0.25038918,-0.00786539,-0.05361819,-0.47649222,-0.32664025,-0.31477557,0.38971733,-0.48995325,0.47779091,0.46646623,0.17366036,-0.29442503,0.25917243,0.26207576,-0.28006281,0.24098625,0.20233923,-0.48368802,-0.28213465,-0.18892939,0.23744439,0.27015610,-0.14376525,0.31367423,-0.22746311,0.41561816,0.34570077,-0.30051240,-0.11686544,0.24432207,-0.24944387,0.13206862,-0.26420943,0.19670088,0.15487608,-0.09238313,0.38033664,0.04309517,-0.08475089,0.35379693,0.00635680,-0.40883521,-0.43034177,-0.21940779,0.37014195,-0.20063571,-0.47892380,0.06698592,-0.19114406,-0.26111317,0.38525079,-0.44298770,-0.48041148,-0.25254792,0.37375140,-0.20633512,-0.33613460,0.21942531,-0.00739451,0.04611003,-0.03786306,0.24317890,-0.32169424,0.19841919,-0.06144500,0.33035831,-0.39743376,-0.18415613,-0.12470727,0.02768956,-0.31144614,0.40441371,0.13623740,-0.23767450,-0.32563751,-0.00750621,0.05212345,-0.30386234,-0.43331706,0.36984125,-0.05757970,0.45475997,0.42794119,-0.03792494,-0.29771927,0.30165327,0.25554361,-0.13447512,0.01962094,-0.25218877,0.41152607,0.48237925,0.48892289,-0.41271655,0.17740443,-0.07281327,0.42401585,0.29705559,0.27070780,-0.17526716,-0.16541601,0.44886415,-0.29466351,0.45006668,-0.29870022,-0.11677303,-0.04894771,0.26041585,0.08350728,0.01820841,0.13063834,-0.47452924,-0.02720410,0.05859424,-0.01247082,0.17495630,-0.14068683,-0.25813595,-0.45978173,0.37945836,-0.01101427,0.45100971,0.36045535,-0.02042261,-0.45491142,0.05983430,0.43635968,0.49045891,-0.14766908,0.17866947,-0.21723677,0.16754105,0.12547635,-0.00293269,0.12789394,0.33241657,0.38150263,-0.42155225,0.09223910,-0.03580314,0.09616213,-0.27711528,-0.01033238,-0.43118769,0.28086153,0.47610777,0.24349792,-0.35883226,-0.27859277,0.28602186,-0.47889595,0.21079046,0.24301738,0.40199172,-0.28634667,0.29736538,-0.06151228,-0.38789021,0.25731896,0.28348676,0.29993330,-0.44719888,-0.04002974,-0.07166638,0.04893137,-0.41345890,-0.24075557,-0.07049969,-0.33552709,0.35146587,0.39369717,0.26059417,-0.42589796,-0.11744603,0.33046939,0.35903096,-0.13460863,0.07734104,0.50073142,0.08720781,-0.12803173,-0.46185837,-0.19180811,-0.39787967,0.40437543,-0.01380832,0.38230923,-0.15040012,0.11138251,0.15007205,-0.36074789,-0.08728392,0.20104144,0.09651626,0.33834481,-0.25135580,0.18259133,-0.40268971,0.17811789,0.34702189,0.44872698,0.07270273,0.11119023,-0.47171222,0.46099273,-0.05639226,0.38700709,-0.17009836,-0.47019836,0.39516247,0.40623841,-0.13276784,0.39166601,-0.31189231,-0.03111086,0.30812834,0.18476762,-0.14212635,-0.33869918,-0.20381392,-0.49484042,-0.20509455,0.20408939,0.20262372,0.39059456,0.04201636,0.45126048,0.07313824,0.13968184,0.13226942,-0.07447792,0.09490980,-0.29175699,-0.46427383,0.12344638,-0.32626140,-0.01676307,0.00426426,-0.02448441,-0.02838543,-0.13811969,-0.13221671,0.34857819,-0.23114508,0.06688592,-0.17826916,-0.42261991,-0.25233930,0.17183155,-0.27054493,0.03544834,0.17039338,0.02238211,-0.26061958,-0.12715782,-0.08696391,0.28281751,-0.17129442,0.49284884,-0.07084940,0.46219089,-0.08161026,-0.47543989,-0.32772961,-0.04986559,0.12800769,-0.18714386,0.39799174,-0.39109714,0.28481311,-0.11996331,-0.01697244,-0.33816442,-0.26949680,0.24737200,0.21718264,0.03883587,0.31206835,0.45469740,-0.29598460,-0.46046085,-0.00985426,0.37430144,0.06263109,0.23202788,-0.24719786,0.48207584,0.01857464,0.08106629,0.47386653,0.44707085,0.03894240,-0.12360949,0.44467496,0.18404311,0.30464329,0.06421693,0.49682818,0.20781092,0.17858611,0.28425343,-0.41444824,-0.34716390,0.43136612,-0.19984642,0.38873915,0.14068295,0.33495513,0.19998792,0.09538035,-0.46053835,0.24049802,-0.41231847,0.41779912,-0.19258670,0.32187715,-0.33141060,-0.21412756,-0.16456318,0.23943844,-0.25824697,-0.23851440,-0.23639208,0.11130439,-0.29570802,0.44439632,-0.08509745,0.26846161,0.43910069,-0.38540684,-0.06558801,0.20907103,-0.31298820,0.07763874,0.13367464,-0.01570206,-0.03442921,-0.22563698,-0.18039244,-0.33364142,0.37134851,-0.13892934,0.40912825,0.46011834,-0.22282432,-0.28750046,0.27519512,-0.06485099,-0.01449153,-0.39987959,-0.33042480,0.22553183,-0.14005407,-0.07051939,-0.16728656,0.05903372,-0.13273362,0.23638047,-0.18501650,-0.20603085,0.34113837,0.24024925,0.49673789,-0.47460318,-0.18286974,0.13035572,0.00969645,0.28275648,0.40505171,0.32964022,0.44914374,0.27670063,-0.30953132,0.35507781,0.23167683,-0.04163381,-0.44135694,0.00028141,0.39263870,0.04556108,0.10036765,-0.43978917,-0.23250220,0.45421472,-0.01849817,0.09030652,0.00409706,0.34066203,-0.17970882,0.31291418,-0.36872709,-0.33986623,0.05294440,-0.37204609,-0.31446953,0.37010090,0.25837088,0.19514284,0.15266704,0.16195611,0.02168788,0.09884535,-0.06564885,0.20744216,-0.04968863,-0.33496391,-0.33093025,0.01504923,0.16841374,-0.43797077,-0.44136638,-0.23512289,-0.38214226,-0.17960033,-0.28603825,0.09646763,0.40825413,0.21617536,-0.06354806,-0.27162128,0.02909188,0.06773020,-0.11148751,-0.41794047,0.19569755,0.07370809,0.45146569,-0.04972015,-0.23608313,0.10044311,-0.38808308,0.28807664,-0.29975862,0.04998234,0.00164372,0.16036391,0.22120886,0.17372257,-0.32598616,-0.11069613,0.23647318,-0.26825452,0.15250018,0.35349177,0.05158945,0.36652950,-0.05002230,-0.04006579,0.08270485,0.38642964,0.18831293,-0.38820335,-0.04592737,-0.42396704,-0.30846943,-0.35440322,0.14599421,-0.35847139,0.09880359,0.41516665,0.24621432,0.21630712,0.21035943,0.45528047,-0.22626582,-0.28268797,0.11691476,0.49726145,0.39326158,0.29159217,-0.11397988,0.12934506,-0.47682452,-0.46124768,-0.01690971,0.07485635,0.40528182,0.43306798,-0.46520944,-0.01202354,0.31934120,0.22251176,0.09788616,-0.22862330,0.29802947,0.29220706,-0.07831111,-0.05094899,0.43804066,-0.47435877,-0.13042871,0.18932526,0.24717794,-0.41616748,0.14685563,-0.47652093,-0.19712626,-0.23580125,-0.47932173,-0.30385305,-0.44418059,-0.09320481,0.32562291,-0.42097644,-0.05445248,-0.19128680,0.15387991,-0.14917066,-0.25821882,0.18850704,0.33840929,-0.43919803,-0.08850732,-0.06146970,-0.16510998,-0.28830317,-0.26793550,0.25811016,0.16220135,-0.32845274,0.28554712,-0.46668106,0.36213354,0.03397229,-0.38205267,0.00931099,0.05754702,-0.07917534,0.27351068,0.07822529,0.11697161,0.32933009
0.48502048,-0.05740548,0.40835365,-0.06943200,0.25130772,0.06223356,0.28139734,0.49308890,-0.24909597,0.12021335,-0.44563230,0.16267800,-0.44118723,-0.11069603,0.37438089,-0.20897139,-0.35225833,0.03688117,-0.03719517,0.43351848,0.07031575,-0.17502796,-0.03250578,0.18826308,0.33428303,-0.47495877,-0.39091226,0.10779370,0.10326652,0.22605935,-0.06287621,0.08828700,-0.33134613,-0.15452256,-0.48114500,0.41996159,0.40771099,0.30025234,0.41303413,-0.34148634,-0.07953431,0.46728877,0.32095780,-0.02113056,-0.14390254,0.19514131,0.27005794,0.00446382,-0.26744493,-0.26688811,-0.06201770,0.30287083,0.05808393,0.40547652,-0.00886609,-0.10763304,0.43051775,0.10022165,-0.49983934,0.03378427,-0.17371901,-0.06271555,-0.37792872,-0.00506514,0.28276189,-0.35907372,-0.08532016,0.18982988,0.44093203,-0.17247387,0.34778894,-0.14024306,-0.20772606,0.16672151,0.33761229,0.14987053,-0.13442659,0.11101829,-0.34357379,0.09859231,0.34434171,0.09453338,-0.09851928,-0.09757436,0.00000990,0.39261462,0.29479260,-0.06947235,-0.00716373,0.29495326,0.46432266,0.31911355,-0.26764538,-0.41342274,-0.18600466,-0.48533175,-0.27363690,0.22714636,0.20191229,-0.33713246,-0.44974493,0.04773425,0.02453389,-0.15177998,-0.27645587,-0.12972006,-0.49588161,0.09098197,0.48228497,-0.33910105,-0.31039400,0.32662667,0.25543233,0.09108671,-0.27094769,-0.24455777,-0.01631560,-0.47616710,0.18600929,0.47664444,0.31923089,0.15055772,0.29527617,-0.44967409,0.23478560,-0.39370370,-0.43985428,0.45578758,0.33008230,0.26479851,-0.37045918,0.39439147,-0.17642433,0.16050681,-0.25339858,0.05089130,-0.46642462,-0.24784043,-0.35799426,-0.48406496,-0.08694148,-0.16838827,0.34256172,-0.33150170,0.42268481,-0.42831764,-0.07629677,-0.09326052,-0.40337760,-0.38908641,-0.11774817,0.40912664,0.25195798,-0.33319992,0.44914911,-0.02059496,-0.22590980,-0.47889259,-0.04667708,-0.37621285,0.29960419,0.09002897,-0.48001346,-0.37222882,-0.24438082,-0.22956791,0.17991349,-0.21046824,0.02247715,0.32192018,-0.19453320,0.43563436,-0.34628778,-0.35131297,-0.39589586,-0.42311067,-0.28035370,0.02613665,-0.02267858,-0.19305359,0.12784272,0.35447600,-0.28029136,-0.10635525,-0.45163615,-0.29901877,0.39864939,-0.16634821,-0.27746257,-0.14912223,-0.04522099,-0.47448321,0.44704774,-0.01852568,-0.34228926,-0.29515199,0.25223729,0.33763582,-0.00558595,-0.22479207,0.16008203,0.30048577,-0.28998062,0.31115458,0.44484367,-0.19057914,0.38221801,-0.33944453,0.33990157,-0.12492690,-0.00882931,-0.00458079,-0.24380519,0.22961278,0.39128454,-0.21188848,0.40386846,0.26624775,0.10720376,-0.37358379,-0.37486461,-0.42861677,-0.33960182,-0.42226068,0.05546825,-0.18081086,-0.21734672,-0.19219755,-0.34299012,0.27667472,0.08044900,0.31302882,0.07196537,0.28762196,0.12388690,0.02306337,-0.38760677,0.02492070,0.19989836,0.45744047,0.40537103,-0.30639422,-0.05587339,-0.36382356,0.38813231,-0.19662673,-0.09703108,0.28714903,-0.42471322,-0.47967109,0.42553020,-0.29076443,-0.40238959,-0.41219335,-0.21304519,0.15287590,-0.09319409,0.06795964,0.45863707,0.06089497,-0.15829478,0.03830633,-0.12245754,0.42443022,-0.15783663,-0.48856604,-0.05429265,-0.05611434,0.03759116,-0.34665754,-0.09362756,-0.06885405,-0.17690226,0.32329621,0.04407367,-0.30138525,-0.37546106,0.45577333,0.49690964,-0.29081546,0.48154554,0.42353746,-0.08173892,-0.42094200,-0.48878316,0.20377775,0.23134406,-0.08244360,-0.22688645,0.19050282,0.48134129,0.12217587,-0.26750035,-0.15032497,0.03534622,0.07316171,-0.11522379,0.51156062,-0.46644405,0.41842449,-0.35292373,-0.08604285,-0.17896602,-0.04975918,-0.27268002,0.36772137,0.15472714,-0.14307899,0.32551935,0.15182787,0.06589138,0.30683770,0.07446519,0.48412242,0.38698607,0.08821730,0.19116614,0.12114369,-0.49606520,0.45845724,-0.20325185,0.47287389,0.08494942,0.05830187,-0.13034848,-0.34540764,-0.36071204,0.24042322,-0.36011694,-0.35738454,0.12501063,-0.23844840,0.04110055,0.44495684,0.21324042,0.26984202,0.31304819,-0.13191113,-0.37345103,0.13830482,-0.48082762,0.19312314,-0.05235943,0.09943920,0.18426201,-0.16462065,-0.32052950,-0.14351580,0.43328838,-0.32278319,-0.16435605,-0.22636142,-0.30480509,0.44048050,0.32522192,0.03492394,-0.44680236,0.42875953,-0.25282582,-0.32298313,-0.43701861,0.37385173,-0.05969790,0.10562149,0.31915687,-0.34624131,-0.12451144,0.13211787,0.02231182,0.00353107,-0.22688419,0.04624924,-0.29598849,0.22403420,-0.36347995,0.36411205,-0.46223507,-0.18302210,-0.25573053,0.50937845,0.02364441,0.09066331,-0.22631151,0.18295912,-0.01607084,-0.43542559,-0.29375537,0.04192191,0.49788013,-0.04244151,0.22178590,-0.43690837,-0.16772871,-0.33780502,0.16871312,-0.34864413,-0.18337341,-0.45334366,0.28644162,0.34237386,0.05420238,-0.44150316,-0.11816884,0.24534101,0.27774420,0.03018430,0.12411299,0.32924999,0.34919375,0.36854378,0.32479864,-0.16594184,-0.08661397,-0.43046754,-0.47853198,0.41618013,-0.35328136,-0.26697813,-0.03905273,-0.35307919,0.19149930,-0.31726523,-0.28998756,-0.47700259,-0.15521433,0.38047492,-0.32200523,0.16275274,0.42424262,0.45947688,0.00310831,-0.02045819,-0.47091354,0.39291876,-0.27745418,0.29710686,-0.08565190,0.33927336,0.10323717,-0.28219000,0.16374849,-0.08928882,0.06871543,-0.39689428,-0.00215347,0.09796791,-0.47743258,0.14655636,0.33152252,-0.01677686,0.29347688,0.02218576,0.16365516,-0.49805191,0.04858856,-0.48962202,0.37655693,0.21571429,0.17164669,0.31375356,0.19136034,-0.32033852,-0.21627928,0.21229861,-0.42943615,-0.00362857,-0.02886069,-0.07361813,-0.20501362,-0.42891982,0.16970158,0.48718162,0.00142243,-0.25245090,-0.40660549,-0.49927833,0.34572574,-0.38440120,0.14746617,0.17686502,0.09587208,-0.06191156,-0.30153713,-0.23977478,-0.06574256,0.23796535,-0.22827417,-0.17069363,-0.02433068,0.45698480,-0.35366435,-0.32917210,-0.36765009,-0.09552234,0.32834621,-0.35105794,0.37524805,-0.18766480,0.10591004,-0.29974033,-0.09720383,-0.21562806,-0.31012174,0.40525632,0.03203879,-0.21680831,0.40639413,-0.12170574,-0.10255232,0.04910889,-0.45188763,0.48535923,0.47965008,-0.25929142,-0.24573493,-0.06513278,-0.49576951,0.04396494,0.27681311,-0.01663984,-0.01088329,0.38574323,0.10257139,0.08844545,-0.20910691,-0.04280058,0.26627817,-0.30742379,0.28715959,-0.11978820,-0.10523599,-0.30946436,0.16463741,0.08464227,-0.40421295,-0.30257364,0.36933950,-0.49913179,0.06654330,-0.25004140,0.03401253,0.10796368,-0.25136781,0.03646476,0.37728021,0.02645296,0.49407508,0.39091583,-0.43988425,0.23753945,-0.15800309,0.03942809,0.13993870,0.47359092,-0.34822344,0.45007951,-0.05480123,0.42370151,-0.35588417,-0.26776917,-0.19625271,0.03887984,-0.07716962,0.46921349,-0.37431027,0.01954553,-0.33874053,0.47916483,0.00174552,0.22007312,-0.26168275,-0.44164294,-0.14349746,0.01798429,0.12838189,-0.24693514,-0.45866252,0.09927603,-0.37113000,-0.39402865,-0.14212990,-0.00354177,0.16308953,-0.48832729,-0.02100009,0.31730237,0.46251255,0.42398051,0.24087593,-0.39329181,-0.34363037,-0.45480627,0.14753528,0.08070630,-0.48800765,0.26361088,-0.41154658,-0.33283755,0.24618191,0.10358838,0.40873055,-0.48430746,0.19453350,-0.21671760,0.03331406,-0.19026804,0.03135577,0.08279623,0.42586820,0.18040233,0.20316851,-0.20708646,-0.31978839,-0.13329108,-0.19507281,0.15925486,-0.31592820,-0.23242238,0.08329839,0.42537118,-0.12487331,0.24061372,0.47006765,-0.47925816,-0.17930891,0.48119550,0.28282820,-0.08732706,-0.33963933,0.05058324,-0.46620348,-0.42560043,0.06341272,0.22133000,-0.14251342,-0.39517406,-0.45531776,0.40579338,0.19828505,0.47430973,0.08598540,-0.09891646,-0.23314024,0.26619555,0.26788684,0.07192372,-0.07454473,0.45215320,0.33968756,-0.49134935,0.37733833,-0.28312943,0.25320393,0.35139773,-0.26148206,-0.42701293,0.33453556,-0.47477244,-0.01886966,0.48428996,0.06844884,0.01431749,-0.43243392,-0.35841986,-0.25394387,-0.06533759,-0.25058876,-0.21131094,-0.16204990,0.44662500,-0.23800840,0.42357768,-0.15225710,0.02893007,0.18977323,-0.38433001,-0.39926661,-0.38470132,-0.43067898,0.44279016,-0.37411530,0.44943514,-0.33499869,0.38440418,0.29941986,-0.10871727,0.43744585,0.11719017,-0.08901677,-0.07678121,0.11219492,0.48558551,0.44012096,0.17881370,-0.37658047,-0.31845075,-0.38935699,-0.12891114,-0.03111080,-0.05205385,-0.18228615,0.23088080,-0.12847616,0.16545660,-0.24004042,-0.43733476,0.28300899,-0.13715586,-0.32106632,0.35405788,-0.18862986,-0.18830611,0.30335733,-0.03675894,-0.32230391,0.08938105,0.34709030,-0.38589622,-0.29437247,-0.24612073,0.03317840,0.31413216,-0.26346154,-0.02967796,-0.00829638,-0.14150730,0.15049467,0.10187554,0.22958156,-0.38061613,-0.45017830,-0.45260606,0.35103221,-0.07820617,0.21304548,-0.38938093,-0.01581327,-0.00397580,-0.02722192,0.16037813,-0.15675629,0.27192360,0.46040970,-0.36360644,-0.27154131,-0.36679419,0.22067336,-0.43003827,-0.25676606,0.42402024,-0.17669895,0.27532404,0.23789654,0.05925813,-0.25502850,-0.27054758,0.41775083,0.39546617,0.33132796,0.14733239,-0.48514996,0.38114847,0.19453992,0.36495001,-0.19758239,-0.09262918,0.47518401,0.28513515,0.40113207,-0.05417177,-0.05580211,-0.25644164,-0.28254270,-0.09618946,-0.12010054,-0.05514346,0.03596000,-0.40075992,0.01449993,0.27909640,-0.47676527,0.33780098,0.05442044,0.26113127
-0.10294088,0.29939194,0.49058369,-0.18519005,0.19485811,0.32191165,0.46214234,0.20970815,0.20306131,0.15677014,0.07482286,-0.49444349,-0.43584989,0.05001310,0.29069431,0.46536873,0.49594354,-0.26500458,-0.29089912,-0.28636603,0.13888996,0.08851616,0.15824648,-0.32515004,0.18775625,-0.32725359,0.45394635,0.21099098,-0.48945261,0.00836679,-0.02787775,-0.09239349,-0.19224127,-0.03729406,0.22241646,-0.49738316,-0.21538241,0.18455880,0.21231545,0.48761972,-0.15867106,-0.21293424,0.49302006,-0.09473259,0.33687219,0.28368486,-0.12926549,0.33310449,-0.48107486,0.07994866,-0.45326154,0.15781511,-0.33153518,0.20498494,0.33266506,0.35622107,0.37773135,0.28661142,0.06721204,0.38827874,-0.20502180,-0.46066571,-0.20411475,0.10273693,0.00204023,-0.48169829,0.10520597,0.28608099,0.20279765,-0.18231668,0.27368559,-0.45688648,0.10251757,0.26467698,-0.05288600,-0.06004892,0.05066146,0.32005422,-0.22520820,0.07038915,-0.09953506,-0.17816947,-0.27175789,0.06892977,-0.47318453,-0.43909283,-0.07484917,0.40454682,0.34751859,0.49236288,0.29281560,-0.35752591,-0.46827350,-0.41122039,0.24504589,0.03332070,-0.39333157,-0.14944639,-0.18046305,0.30675739,0.16307479,-0.41132204,0.34919366,-0.23114800,0.35999544,-0.19716440,0.21475510,-0.08622452,-0.37575273,0.49017253,0.48423292,0.02471221,-0.18799694,-0.28752497,-0.40635802,-0.16118147,-0.22661942,0.01875198,-0.25669347,-0.37935691,0.01103205,-0.46330317,-0.23674675,0.04222914,-0.37780687,-0.49473724,-0.42836732,-0.27272867,-0.14606950,-0.11048585,-0.46684457,-0.47889379,-0.00766801,0.40013046,-0.19519488,-0.14402425,-0.29993760,-0.48434160,0.26782736,-0.17617198,-0.49416907,0.25206029,0.34854023,-0.18216659,0.46442334,0.44192639,0.15679341,-0.26242455,-0.03886115,0.39968825,-0.14184489,0.47143857,0.43333694,0.11683606,0.00994102,-0.44277711,0.12721943,0.08491700,-0.21472908,0.48433618,0.49224512,-0.15531392,-0.47237861,-0.01262559,-0.26650288,-0.18117900,0.33425499,-0.06975737,-0.16621261,0.10212546,0.25407066,-0.16041760,-0.14609477,0.10239823,0.15716776,-0.18107859,0.04625467,-0.18474002,0.05669261,-0.49383843,-0.28831537,0.40963123,0.47506416,-0.34887169,0.03837391,-0.01019073,-0.29057113,-0.33030176,-0.40838190,0.01505889,-0.33083508,-0.41816837,0.34490863,-0.32230918,0.05319601,-0.43031859,-0.00573397,-0.11240977,0.00026844,0.32798524,0.48979002,-0.24503486,-0.33065183,-0.15355468,0.35973568,0.32767520,0.16483534,-0.09469683,-0.35793248,-0.27719432,-0.08930702,-0.13967162,-0.35889565,-0.11124352,0.00449479,0.17437081,0.38344279,0.22147910,0.34787987,0.46902368,-0.27673486,0.50138673,-0.46404704,-0.44135103,-0.32436613,0.08897131,-0.37112142,0.16993185,0.47728978,0.13085293,0.00056855,0.47033930,0.38839299,0.16967334,-0.18489143,0.25086302,0.00012172,0.47865639,-0.35322370,0.13636987,-0.30614473,0.04823993,0.48196111,-0.17023551,0.43965245,-0.00895046,0.50315343,0.31703358,-0.29503969,0.34250005,0.27539399,-0.07826986,0.33957886,0.31109899,-0.01932215,-0.48469440,-0.09904330,0.11161077,0.18836300,-0.11959125,-0.25648738,-0.31150488,-0.14727012,-0.36294372,0.35789787,0.15772536,0.36339087,-0.16298163,0.12142461,-0.49735450,0.47239778,0.32451793,0.05838422,0.45698253,-0.35118525,-0.00821848,-0.05589948,-0.35377382,-0.19998420,0.14189871,0.48396047,-0.42460110,-0.43600633,0.32400079,0.38824746,0.04645626,0.34160132,-0.21050169,-0.34143720,0.03206417,0.17521517,-0.09535801,0.21413469,-0.49144533,0.00977751,0.04869016,0.15440794,-0.12382453,0.40028155,-0.20978211,-0.11908563,0.36523264,-0.39630298,0.43273591,0.31810218,-0.25210636,-0.08097550,-0.24301143,-0.10855102,0.21904370,0.39934349,-0.12391383,0.29607812,0.46444892,-0.29865285,0.18345414,0.01285579,-0.45353436,0.47847400,0.17049732,0.06687158,0.12988105,-0.45531247,-0.23937836,0.13331848,0.06626785,0.32533356,-0.20496830,0.43850579,0.21680819,0.07892120,-0.17987108,0.08378791,0.18341879,-0.24757666,-0.09911247,0.43100141,0.17148098,0.15827402,-0.17723523,-0.10849045,0.05788500,0.19907009,-0.31398130,0.02327128,0.40433520,0.37642540,-0.46607031,0.43679377,0.32559940,0.17307951,-0.01240230,-0.03879042,0.24110406,0.26618064,-0.40160458,-0.19894368,0.08447685,-0.10611515,-0.25415635,-0.19262765,0.47648130,0.06729596,0.39152812,0.16004148,0.31974565,-0.20759786,0.09110093,-0.00855606,0.45060621,0.41299947,0.38167301,0.00839723,0.11467981,-0.42828364,-0.46871256,0.00622285,0.42030020,-0.46309486,-0.06819372,0.26374546,0.24336021,0.44224617,-0.27107195,-0.02721068,0.19696543,-0.17370004,0.28077580,-0.20885265,0.22587282,-0.47071677,0.09987457,0.20281048,0.09659223,-0.00859731,-0.13711757,-0.08363023,0.28385152,0.45306392,0.40625262,0.23331754,0.36715559,0.29109782,-0.25686778,-0.02232503,0.34403062,-0.24841411,0.47436904,0.28956508,-0.17348113,-0.06333875,0.05692803,-0.44555833,-0.13836062,0.28064034,0.03404442,-0.42925252,-0.38576244,-0.18109012,-0.13635643,0.34061649,-0.15180606,0.46351815,0.04354509,0.44492318,-0.04464413,0.40522252,-0.14148891,-0.26496045,0.35588591,-0.23407341,0.47001866,0.21529050,-0.46211644,-0.30736201,-0.30516092,0.41508399,-0.01016155,-0.29551144,0.20699101,0.29938771,0.11769467,-0.24602529,0.35854225,0.49040446,-0.45868162,-0.10371219,-0.43726191,-0.34415050,0.21518821,-0.07361342,0.49657584,-0.43547615,-0.10825543,0.03933785,-0.49549055,0.33986840,-0.05993647,-0.13691005,-0.42807107,-0.21315781,0.11438887,-0.46324677,-0.47151076,0.19951918,-0.21967169,-0.24925787,0.11549818,0.25017177,-0.07052255,-0.18900457,0.05262966,-0.44401112,0.07007576,-0.08667263,-0.45270214,0.11128576,0.30960182,-0.38999165,0.26717183,0.02627785,0.03906096,0.26505032,0.08616011,0.42083136,-0.20476761,0.08298238,0.25143343,0.22698421,0.44126895,0.33987561,-0.44408226,0.11030186,0.42080747,-0.40333015,-0.19827764,-0.32013042,-0.17117320,0.40999036,0.43446798,0.26401817,-0.27726122,-0.01321903,0.31974431,0.29215333,0.40010394,0.36702068,-0.09660505,0.21096375,0.48072594,-0.32213413,-0.26040417,0.01029160,0.42553136,0.30249933,-0.08316801,-0.28279626,-0.09720302,-0.29545952,0.49029741,-0.10792341,-0.42772085,-0.45183019,0.48908696,0.47725996,-0.36458511,-0.21003795,-0.34020786,-0.03577085,-0.30224167,-0.40824483,-0.27305581,-0.08022435,0.07853614,-0.45324940,-0.28809999,-0.02091278,0.41734432,0.12655107,-0.30127752,0.39334865,0.27860063,-0.09602782,-0.11383271,0.20893312,-0.25892646,0.34220768,0.46270870,0.16909633,-0.43833296,0.44972005,-0.45054299,-0.37693673,0.49193316,-0.46089393,-0.40184201,-0.37802516,-0.17459602,-0.24423922,0.08513546,0.02274457,-0.15248405,0.31206735,0.44306751,0.42707431,0.36442222,-0.33487773,-0.08483094,0.28040941,0.26825847,0.08326453,0.15554067,0.05379517,-0.47965923,-0.43069563,-0.22266739,-0.23507730,0.41647170,-0.26474303,0.42703196,0.46954203,-0.32019094,0.47547481,-0.41246820,-0.33269727,-0.48743087,-0.31501898,-0.21100124,-0.16224883,-0.05924847,0.37411082,0.36107813,0.28931884,0.18956269,0.31039680,0.22485782,0.05276039,0.46025790,-0.38175470,-0.17898751,0.23547312,0.21907342,0.48427981,-0.21558467,0.23005295,-0.45027485,0.05904247,0.48991227,0.46137952,0.29308581,0.41562874,0.42711834,0.47149660,0.39032039,-0.48564813,-0.36136532,0.40277499,-0.30056354,-0.07238972,-0.25949358,0.14021389,-0.19824554,-0.39507950,-0.06649928,0.48939770,0.40701616,-0.35208998,0.04433502,0.37759258,-0.22810564,0.35495954,0.08772511,0.47231523,0.33064279,0.37098026,0.20109774,0.37953799,-0.06941771,0.19123669,0.33979898,-0.27662772,0.10630683,0.26668328,-0.30529341,-0.00339580,0.28113859,-0.16666467,-0.10071304,0.48014535,0.26019210,0.14083225,0.12277918,-0.43736787,0.23991028,-0.44730105,-0.43989795,0.15501040,-0.30423211,0.08455833,0.00543845,-0.04752864,-0.06682490,-0.40710575,-0.07382032,-0.23520698,0.46685832,-0.37065154,-0.35508283,-0.10216738,0.32046785,0.48476184,0.12116059,-0.07322112,0.25145471,0.31586718,0.42316860,0.03247466,-0.35070112,-0.17669322,0.01529647,0.41332644,0.46421835,-0.36300056,0.47660024,0.20648340,-0.31508462,-0.47509111,-0.15089140,-0.12414653,0.10778169,0.35502878,0.32907348,-0.45796209,0.45063552,-0.24340306,-0.19316016,0.41736722,-0.11407616,-0.04816881,-0.18480892,-0.29360831,-0.06340697,0.43635167,0.13316562,-0.31204725,0.25214594,0.05668399,0.22133777,0.40210983,0.38110342,-0.26283469,0.31457533,0.34407232,-0.12967121,0.28714433,0.04832942,0.05383975,0.30917897,0.39410891,0.42603333,-0.08441748,0.24916987,0.25496368,-0.04300016,0.19945042,-0.48850119,0.26382384,0.11681124,-0.10257735,-0.28434496,0.43200232,0.10381113,0.15222988,0.36837792,-0.26264116,0.34078302,0.12093751,0.29407670,0.06218394,0.02336697,0.17428879,0.29616653,-0.16522776,0.01670705,-0.33556156,-0.38105031,-0.43955813,0.21336818,0.42633261,0.45455508,0.13941192,-0.15814600,0.20372153,-0.10563007,0.29884468,-0.09683006,-0.09413126,0.06266852,-0.48001882,0.30329139,0.27832356,0.45198789,-0.09285905,-0.06935183,0.32039566,0.14410187,-0.22912423,-0.05907508,-0.06233006,0.33190835,0.46336218,-0.38887097,0.12725469,-0.20303981,0.12530131,0.28895405,-0.08533238,0.18573803,0.00241538,-0.15900050,0.14029292,-0.35817270,0.18285350,-0.15598555
0.03619722,-0.01830183,0.24718439,0.44206596,-0.45563331,0.26716558,0.24535735,0.32269025,0.21914908,-0.34753693,-0.24673813,0.03948658,0.29655370,0.02412931,0.48039692,-0.26581714,-0.14406639,0.44330741,-0.15533352,0.48248418,-0.26017152,0.46998809,0.27152180,0.15449610,0.15572612,-0.22606282,0.49549560,-0.20398096,-0.08423552,0.17834910,0.14003349,0.45196170,-0.33995273,-0.11278212,0.39402767,-0.29558604,-0.34561655,0.13938502,-0.47291064,0.37344048,0.29184809,-0.21967984,-0.08714694,0.08811558,0.30408070,-0.10715783,0.32228537,-0.33957099,-0.16327655,-0.33274887,-0.35708681,0.07655193,-0.36276079,0.41443499,-0.26895197,0.29296533,-0.31162783,-0.27345637,-0.41101563,0.10413665,0.40489272,0.22901786,0.05609836,-0.43506001,-0.38376427,-0.04987397,-0.23081029,-0.22969873,-0.40916542,-0.20215586,-0.35577420,0.37949536,0.07201304,0.05072901,-0.03648117,-0.12361194,0.44915310,-0.20836353,0.04136524,-0.21272792,-0.04040330,0.18466184,0.36386224,0.09683591,0.09909683,-0.40508973,-0.11019876,0.28746901,-0.17854610,-0.02121439,-0.10826712,-0.27338916,-0.29062167,0.45009949,-0.20637107,-0.17248010,-0.09838991,0.06469251,0.09686494,-0.01575582,0.34972915,0.22807377,-0.14209074,-0.07481340,-0.20708993,0.33787687,0.31490294,-0.25346295,-0.36919328,-0.14300872,0.03387812,0.09040342,-0.45834688,-0.10225964,-0.31276067,0.14074995,-0.00730231,0.07740832,-0.07093247,0.31508132,-0.44075412,0.32478995,-0.45364654,-0.22828623,0.27813074,-0.15695071,0.09460214,-0.33360130,0.38831663,-0.32258738,0.14924537,0.24737809,0.42183596,-0.47509417,-0.31455695,-0.28273552,0.35991413,0.49864269,-0.03631391,0.49066786,-0.14436604,0.49756421,0.08107128,-0.10268723,-0.10392202,0.27052711,-0.45811827,0.39316588,-0.14727177,-0.02417514,0.21593020,-0.08107839,-0.19635698,0.25727644,0.17588292,-0.44104437,-0.42029757,-0.24059423,-0.27418300,0.47384137,-0.05424946,0.38181856,0.22344116,-0.14053941,0.39597180,0.39991899,0.07301958,0.25292884,0.39814681,-0.46325520,0.24359670,-0.24580584,-0.46410177,-0.17132256,0.15714745,-0.06201074,-0.39666197,0.20250969,-0.16564305,-0.04204590,-0.32706034,-0.46993410,0.33865869,-0.06502792,0.25621006,0.00178165,-0.00013740,0.34714520,0.27220651,0.22792783,0.31315497,-0.30215864,0.08978519,0.01960597,0.04750895,-0.02114457,-0.08137677,-0.37940782,-0.26832103,-0.18193052,-0.34025845,0.48000920,0.07722706,-0.29934269,-0.19002346,-0.26605233,0.13544866,-0.09519394,0.41785469,0.42687890,0.30437229,-0.46309209,0.43766888,0.16088467,0.00980792,0.22724783,-0.31219403,-0.48456901,0.06853088,0.43963597,0.22168514,-0.13747872,-0.37556541,-0.19761728,0.37911842,0.17099353,0.28103252,-0.20102895,0.29421891,-0.48289161,0.11963929,0.45626354,0.49631517,-0.30559968,-0.35426339,-0.21462201,-0.11257643,0.22531851,0.14413457,-0.20904059,0.18656607,0.01102520,-0.11172861,0.16291774,-0.31020200,0.39753233,-0.11317397,-0.13510741,0.39822399,0.44111757,-0.20966108,0.11018724,-0.20330683,-0.08673033,0.41240376,-0.32327360,-0.41369511,0.19595935,-0.02325357,0.37965379,0.21113682,-0.40868656,0.31691092,0.17063813,-0.26669828,0.42507584,0.45767715,0.17194379,0.23509217,0.17707872,0.50477918,-0.07359874,-0.32523910,-0.12321339,-0.41337312,-0.13992083,-0.22706805,-0.03146533,0.21621623,-0.33469047,-0.09663273,-0.49414060,0.27510985,0.20047460,-0.08051586,0.18761359,0.37497174,0.00080468,-0.12111031,-0.15986431,-0.14579280,-0.45426445,-0.10169206,-0.31576147,0.28380138,0.22792685,-0.31132555,0.27748334,-0.10948901,0.38504682,-0.08486198,-0.12450607,-0.18045212,0.10033163,0.26700017,-0.08825165,0.46030896,-0.45994016,0.37816508,0.17637908,-0.29488468,-0.21873628,0.18202823,0.47871833,0.47675058,-0.40423794,0.15999691,0.33694614,0.07068291,-0.49170765,-0.31991983,0.48074276,-0.34661256,0.16790324,-0.29603807,0.42060198,-0.16182608,-0.16619411,0.16255611,0.22859259,-0.25297668,-0.39225401,-0.36892995,0.07879180,0.21302722,0.40140604,0.49046364,0.17376682,0.44148307,0.36837955,-0.14999143,-0.35506005,-0.35522687,-0.47583199,-0.38806793,-0.39148205,-0.39560743,0.26825467,0.47673622,0.24798409,0.36942769,-0.28553860,0.22333481,0.47024777,0.31241000,0.38298268,0.38013786,-0.32073562,-0.24076517,0.08377766,0.43820098,0.02276741,0.19955716,-0.42602475,-0.39773661,-0.08671874,0.47533346,-0.40722887,-0.41336101,0.41473331,0.45714257,-0.07017690,-0.45398337,-0.41361712,-0.05613909,-0.32635954,-0.26001098,0.11454916,0.50080152,-0.26515204,-0.16962887,0.31482556,-0.09689262,-0.45673574,0.29915077,-0.24904659,0.46509048,0.21872370,-0.03805808,-0.25602949,-0.18695944,-0.09451417,0.26801520,-0.48705741,-0.02053892,0.37029968,-0.07377091,-0.04819208,0.45985958,0.00793785,-0.14068049,0.40527159,0.42485059,-0.08090590,-0.46444775,-0.07364397,0.12983822,-0.22746016,-0.49174695,0.10060558,-0.00413167,-0.14726177,-0.06643622,0.42407409,-0.07897157,-0.23589039,-0.29295845,-0.09425229,0.49334860,0.17389835,0.15081011,-0.19357943,-0.42061582,-0.08063478,-0.18011242,0.05673761,-0.21275620,0.24500080,-0.49253628,-0.26508163,-0.25925243,-0.12336311,-0.32201786,-0.28651830,0.31967670,-0.29963995,0.11141393,-0.06328070,-0.01348661,0.14510353,-0.45053502,-0.50683898,-0.48701334,0.00880863,0.44209655,-0.05125946,0.28054371,-0.34730322,0.35449683,0.27395982,0.32657477,0.00589699,-0.41687212,0.40972479,0.42591898,-0.09942587,-0.04056928,-0.29832196,-0.36565052,-0.02418472,-0.03317421,-0.09406474,0.35944803,0.13052196,0.10240692,0.18203821,0.35355813,-0.26374862,-0.37604151,-0.15860450,0.39522033,-0.30526664,-0.15014186,0.41444084,0.20596139,-0.20782712,-0.13771535,-0.01346006,-0.05532881,-0.28259261,-0.23463223,-0.21934270,0.23041802,-0.15535529,-0.32830316,0.13423193,0.23034088,0.13710647,0.35462542,0.38277216,-0.39113916,-0.18647982,-0.21517524,0.48363486,0.46484817,0.39654347,0.16700255,0.32666720,-0.34613253,0.30814746,-0.32876920,-0.45598968,0.49577255,0.01524834,0.45609231,0.20169693,0.30684862,-0.18123584,-0.30574535,-0.23511370,0.05028859,-0.04390834,0.01821983,-0.25151805,0.28067364,0.19495780,0.39857295,0.02271066,-0.17065199,0.25139504,-0.08648940,-0.03400037,-0.41571464,0.20338460,-0.04101400,-0.43024848,0.12187309,-0.37494627,0.37983962,0.25700228,0.41967988,-0.45842108,0.29875960,0.41545243,0.05676371,0.25629750,0.12403471,-0.12264230,-0.40809512,0.31749843,0.11869329,0.10741251,-0.24737743,-0.36583104,0.35820281,-0.46904929,0.32795889,0.26306076,0.07692035,-0.30883242,0.03617055,0.49878396,0.16643854,0.13553821,0.20571351,-0.39699370,0.17645734,-0.19319548,-0.28363972,0.04922942,-0.43694835,-0.36395984,0.09121530,0.36440341,-0.44148324,-0.33915632,0.13507881,0.18675496,0.02258190,0.19634167,-0.02494622,-0.37604476,-0.21595349,0.21166042,-0.24016733,-0.33788498,0.27947361,-0.37876579,0.44484786,-0.13599818,-0.18531970,-0.02410843,-0.15756890,0.44850006,-0.41276406,-0.46705126,-0.45773600,0.25889312,-0.16093046,-0.24111841,-0.19156915,-0.09503902,-0.09866776,0.40906907,-0.22265588,-0.03637117,-0.43993309,0.38990160,-0.38183556,0.05434190,0.05542253,0.07375571,0.18180041,0.37223942,-0.17486051,0.46656970,-0.45241241,-0.39749241,-0.42288358,0.47237473,-0.05977975,-0.13573426,-0.06793475,0.27105542,-0.19506610,0.01553140,0.30360235,-0.15210729,-0.22550507,-0.35599875,0.11025238,0.08733451,0.05154499,-0.48995097,-0.01222405,0.31487401,-0.04709597,0.02495064,0.18133181,0.05688574,-0.41491100,-0.23703549,-0.34215646,0.28239405,-0.36046776,-0.02407242,0.23307779,-0.33522775,0.06093440,0.29562202,-0.37282991,0.49349926,-0.34450450,0.05768926,0.26465306,-0.03887936,-0.42675651,0.06877651,0.31083692,-0.15021888,0.21259142,-0.08467021,0.42668710,-0.24776536,-0.08822045,-0.09775932,-0.44041066,0.36551163,0.44340800,0.25963072,-0.06596659,-0.46789450,-0.48352070,0.08227954,0.30116587,-0.35600527,-0.44864154,0.02938017,-0.19658160,0.10911134,-0.17669332,-0.06963985,0.10272139,-0.02094408,0.48804941,-0.13234983,0.44097536,-0.43770071,0.43560490,0.24614574,-0.09511182,0.14115205,-0.34632659,-0.17195454,0.39653213,0.08078787,0.25108025,0.46590269,-0.05420827,0.18896534,0.21942734,0.37666960,0.21658505,0.23456120,-0.04206979,0.01643729,0.37620119,0.00832640,-0.45518026,-0.32037394,-0.38256226,-0.13187358,0.10998621,0.22017524,0.34713578,0.09622287,-0.41623438,0.28226865,0.15378014,-0.48444295,0.02513287,-0.44165381,0.16185452,0.19547505,-0.09712288,0.06681607,-0.22096209,-0.34474867,0.03675628,0.23153844,0.34802102,-0.24087397,0.10881158,0.06526484,0.49327083,-0.43331294,-0.41841991,0.36949659,0.07501346,-0.37360017,-0.45087734,0.19236948,-0.00634058,0.15788249,-0.08953944,-0.16077351,-0.24631603,-0.00342731,-0.37425522,0.41449803,0.02208672,0.16446641,0.48312307,-0.30803197,-0.13512228,-0.11018862,0.26308439,0.15058253,0.05004659,-0.19626778,-0.11682654,-0.10129595,0.06295989,0.49203259,0.46400408,0.05623843,-0.44128035,-0.45441583,-0.07426498,0.13373311,-0.32801600,-0.02524061,-0.17400884,0.16626654,-0.36637895,0.23850616,-0.49197709,-0.10896312,-0.26117976,-0.36284700,-0.19250945,0.26225533,0.30294877,-0.20783400,0.45412347,-0.33051298,0.18423199,0.22029999,0.32117588,-0.26566229,-0.47595228,-0.29565066,0.13304177,0.08700761
