-0.15355376,0.24238703,0.00764709,-0.03583076,0.31359010,0.13401709,0.32148642,-0.06555782,0.43370527,-0.23328780,0.13571549,0.27412763,0.27409744,0.37810911,0.31490438,0.33080350,-0.06767966,-0.31299577,-0.25183411,0.33514971,-0.49488784,-0.38790682,0.07502370,-0.45966429,-0.21207282,0.03928328,0.25933849,0.06843880,-0.26571988,0.37446009,-0.28779126,0.08072636,0.11684712,0.21985583,-0.45510439,-0.06956278,-0.14612707,0.36638203,0.36499470,-0.21170695,-0.36690577,0.00107081,-0.43700615,0.40856836,-0.11970690,0.37720830,0.23816814,0.31102434,-0.43638557,0.48616106,0.14617406,-0.43127341,-0.40174576,-0.27880225,-0.39093770,-0.11381858,0.26048103,0.36840079,0.45462023,0.49476115,0.24286088,-0.33317103,0.07548752,-0.14029200,0.38668480,0.12038313,0.29124480,-0.25668980,-0.01254193,0.15535146,0.03056281,0.12252549,-0.34144992,0.09425411,0.03255057,0.03912898,-0.03208646,-0.23418606,-0.15430042,0.03006762,-0.24879272,0.49152190,0.09879295,-0.15053848,-0.28728035,0.20785526,0.23564295,0.47320069,0.07625605,0.19026318,0.46779600,-0.18119025,0.35605477,0.04191765,0.18026026,0.24672508,-0.33230341,-0.02780927,0.48881952,0.15574540,-0.36914419,0.02209633,-0.22065777,-0.21104252,-0.39315677,0.29823770,0.31430760,0.06876527,-0.43744570,-0.34071441,-0.40116938,-0.18623842,-0.34919251,0.19762358,0.16322311,-0.13647286,-0.09461257,-0.10166630,-0.16428276,0.48080391,-0.41274649,-0.19809336,-0.19787744,0.44976590,0.35403333,0.48524627,0.19483576,-0.48081640,-0.04314978,0.18324099,0.17293419,0.08161186,-0.31058246,0.43324402,0.35223392,-0.21127959,0.23064967,0.16619363,0.35788016,0.29308854,0.32547922,0.45671078,-0.39314988,0.47626472,0.15387635,0.26837701,-0.16091403,-0.44192160,-0.33486366,0.17156096,-0.45715945,-0.23814014,0.49063285,-0.14829584,-0.28454448,0.34603837,-0.16190282,0.40940682,0.35118115,0.27686573,0.06732768,-0.00232552,-0.15901229,0.25392815,-0.06634339,-0.30563694,-0.45522387,-0.33252852,0.36181467,0.40242080,0.46056003,0.18685924,0.35812177,-0.43449860,0.16288747,0.01119000,0.32973710,-0.50211293,0.07586168,-0.48671759,0.18730252,0.12441800,-0.22111068,0.17877639,0.47188737,-0.01975615,-0.00368870,-0.22004277,-0.14198214,-0.17699453,-0.45913446,0.42716017,0.33414507,-0.10750510,0.18743073,-0.22671117,0.08901346,0.23165580,-0.05986302,-0.05039202,0.13205385,-0.10130902,-0.36278889,-0.00898379,-0.03778808,0.30370456,-0.48534708,-0.18951854,0.30203267,0.07720512,-0.18396801,-0.00767385,-0.30039935,0.06846192,-0.36200771,-0.35236657,-0.46433038,0.12892721,-0.07735990,-0.09373361,0.46902353,-0.01851872,-0.15907281,0.30468869,0.37473104,-0.47277720,-0.42290976,-0.03761444,0.25632851,0.01565373,0.41210400,-0.11133774,0.41780893,-0.43782628,0.38900574,-0.11963896,0.35119629,0.39528358,0.20193893,0.17040998,-0.02849991,-0.51102341,-0.36816105,0.15739973,0.06929555,-0.21995512,0.31523000,0.12796697,0.43517322,-0.24600671,-0.46553002,0.39608538,0.23222873,-0.12591292,0.20043759,0.10598394,-0.10051995,0.27600817,-0.43338310,-0.34505910,-0.20027348,0.49469223,0.05357896,-0.29269525,-0.46012910,-0.05246718,0.11472436,0.40530925,-0.17238993,-0.22202369,0.03564585,0.28881650,-0.22103777,0.18223486,-0.03105808,0.38020734,0.49237376,-0.20533608,0.00173839,0.41458602,0.04332338,0.03600668,0.31079539,-0.22522049,0.40885889,0.00739635,0.37574207,-0.19326912,-0.20689532,0.45881379,-0.03377316,0.07514852,0.43787464,-0.46450277,0.31786588,0.49328469,-0.03585587,-0.11474135,0.34746466,0.27508771,0.16845957,-0.09142092,0.09814709,0.48149556,-0.38234056,-0.42310026,0.35850930,-0.39579357,-0.13111321,-0.13980814,-0.48114935,0.41176353,0.39461955,0.32354654,-0.31919436,0.30369355,-0.15378635,-0.42894167,-0.38963332,0.11608788,-0.47664522,0.10394561,-0.26190375,0.48221858,0.11635488,-0.50197210,0.41635901,-0.43986214,-0.10670931,0.30135073,0.37725971,-0.40967908,-0.27273011,-0.01466012,-0.42401473,-0.15493469,0.06189672,0.43474571,-0.05077753,0.43063498,-0.20739937,-0.03822681,0.33552606,-0.30913746,-0.19919010,-0.47305964,0.47952868,0.12009682,-0.40039823,-0.36416281,-0.19733715,-0.34756770,0.20781155,-0.03239755,-0.42789801,-0.18849353,-0.01201432,-0.47299356,-0.09146061,0.39469968,0.33197589,-0.20848158,0.49038312,-0.43978907,0.27681545,-0.43311413,-0.09474542,-0.16136765,-0.50179598,0.34776843,-0.23695223,-0.20931307,-0.18176784,-0.39918075,-0.03189483,0.10715661,-0.35213683,0.01517458,-0.20357175,-0.23582478,0.09676086,0.00442162,-0.14453776,-0.19667869,-0.49402432,-0.04222059,0.13729929,-0.00138457,-0.01951598,-0.45321351,-0.10554847,-0.18751589,-0.16240546,-0.11490926,-0.12730496,-0.38566923,-0.05180720,0.27144882,-0.05697267,-0.05678607,0.11993132,0.20924250,0.23704899,0.44296507,0.34077296,-0.23361685,0.11071533,0.49775129,0.20393544,0.30464526,-0.29399905,-0.18059686,-0.14228736,0.09437476,0.14002907,-0.13148717,-0.45248292,-0.22614606,0.36352953,0.02697434,-0.18042404,-0.24192712,0.33945845,0.15710103,0.14040963,-0.29652333,0.25992321,-0.41781750,0.47532222,-0.28580460,0.03884970,0.12040937,0.46012367,-0.16876503,0.11174786,0.28937043,0.01511342,-0.36911460,0.24422727,-0.25206960,0.48460072,0.48896904,0.09150027,-0.15136806,0.07475672,-0.27714716,0.21112351,0.12155505,-0.00360821,0.07578537,-0.35146260,0.31597103,0.33193511,0.48010749,-0.03972817,-0.03783895,-0.31150251,-0.26045906,0.07209135,-0.29579400,-0.00640927,-0.34501687,0.33986835,-0.08601846,-0.09761453,-0.12872869,-0.31780958,0.44525451,0.04238415,0.46544399,-0.27920595,0.02957659,0.44203929,0.30257098,0.37586318,0.01818975,-0.47348488,0.08861110,-0.36033275,0.02258672,-0.33787429,-0.21939303,-0.17052283,0.49179041,-0.22163898,0.31766210,-0.00811765,-0.00061022,-0.41934900,-0.42900175,0.17658843,0.01361388,-0.34490258,-0.02702718,0.43706495,0.08514434,0.37122950,-0.35331791,0.04929039,-0.08568089,-0.39703137,0.26163110,0.44434740,-0.45462788,0.06544563,0.32076794,0.06342429,0.09097940,-0.09534457,0.19779625,-0.38738085,0.07684669,0.50339530,-0.02504371,0.09765453,-0.20813615,-0.20953037,-0.43013947,0.25199948,-0.18202554,-0.40573177,-0.08777786,0.35260759,-0.23511661,0.39315351,0.29743390,0.35490815,0.26191543,0.43323675,-0.10404360,-0.32524179,-0.46438661,-0.34188096,-0.38089439,-0.41899884,0.22153957,0.43499548,0.13606490,-0.18709483,-0.14871335,-0.13470029,-0.04216158,0.45378082,-0.13092892,0.41173399,0.01689473,0.12127866,-0.34448483,0.04894046,-0.14234405,-0.02304408,0.14001586,0.26596577,-0.17694765,0.39948291,0.15313319,-0.38889473,0.25143839,-0.08630466,-0.45384879,-0.35236411,0.08845355,-0.41840255,-0.19619378,0.20421834,-0.34514752,-0.47741650,0.14940137,0.32061316,-0.13734010,0.52401634,-0.31841017,0.29605134,0.43977002,0.01023776,0.17026172,-0.07609386,-0.39097925,0.31628488,0.45943195,-0.04652058,-0.21966292,0.09190663,-0.28422083,0.10234214,-0.00522823,0.36857171,0.21521086,-0.25406180,-0.21754188,0.26104823,-0.10783459,0.36714684,0.33573687,0.19175015,0.07635770,-0.49092408,0.23531281,-0.26087141,0.32313153,-0.41871190,-0.26427070,0.47585236,0.35903706,-0.35007696,-0.03076530,0.01096361,0.06018329,0.06196075,-0.18950518,0.01004489,-0.48311162,0.09834721,-0.39161308,-0.26626016,-0.29833042,0.10291083,-0.39724496,0.41672979,0.34791089,-0.11732837,0.17288260,-0.26174869,-0.24428559,0.01874388,0.44309267,0.34004482,0.02864808,0.17393925,-0.43284975,-0.15311185,0.25383187,-0.20846188,-0.18590592,0.09556821,-0.07181050,0.26514148,-0.40612368,0.47978976,-0.16453881,-0.08222447,-0.00340753,-0.14558960,-0.48288883,0.10513284,0.08859108,-0.28124612,-0.29249040,0.18922031,-0.36772990,-0.44768092,-0.42860740,0.31177213,-0.19682001,-0.16800945,-0.16491157,-0.25694178,-0.33135809,0.36213708,0.41574636,-0.26528738,-0.29169263,0.15859206,0.00756478,0.00509068,-0.25660342,0.43425798,-0.21819508,-0.15175686,0.41872118,0.11977747,0.26682065,-0.08460409,0.47437628,0.28393182,-0.48027832,0.06115639,-0.49976849,-0.27694786,-0.25269327,-0.36495177,-0.21615433,-0.17313919,0.44891143,0.08408083,0.16250312,-0.21203609,0.32814589,0.32951216,-0.34955194,0.23423237,-0.44663712,-0.15101687,-0.10896276,0.06793290,0.36330887,0.14021840,0.00573969,-0.35196368,0.48938989,-0.07553913,0.26781379,0.25621054,0.33985320,0.24181784,0.03887472,0.35738686,-0.19985223,0.03827028,-0.41762058,0.05210798,0.17480754,-0.13027821,0.38609620,0.13055374,0.45262593,0.04848990,0.41897996,0.28338970,-0.11718871,-0.42998933,0.02214705,-0.05736581,-0.07680752,0.41484497,-0.48716467,-0.21117287,0.05572081,0.01857502,-0.06313655,0.04511070,0.44300048,-0.29578513,-0.19990298,0.28055350,0.44427823,0.33673503,0.13992874,-0.24978580,-0.11778386,0.23106136,0.31082806,-0.43445285,-0.39497225,0.19822166,0.19721843,-0.43495183,-0.24486807,0.11983835,0.35084494,0.14047693,0.19123552,-0.12671328,-0.41617029,-0.38463059,-0.21166213,-0.40333496,-0.09580346,0.34405867,0.11524007,0.34105999,-0.11083745,0.05826730,-0.45430589,0.19041556,-0.15885995,0.49258298,0.03191079,0.48445277,-0.25535110,0.41618320,0.21612325,-0.44474928,0.48135360,0.32319614,0.25791485,0.18087332,0.38920540,-0.48629616,-0.19901683,0.24012159,0.15418078,0.49221869,-0.38659170
0.23801049,-0.39241190,-0.09825383,0.33467553,0.01178464,-0.25419516,-0.05008440,-0.14715538,0.13497421,-0.49180845,-0.10141815,-0.17453519,-0.15063983,-0.10881363,0.35741901,-0.16619302,0.13581560,0.27369174,-0.44951007,0.19194043,0.25551170,0.37383209,-0.05009550,-0.06361498,0.26303749,-0.03639165,0.23736820,0.00315908,-0.38221088,0.22958689,0.11656738,0.35579961,0.33717499,-0.48168645,0.19047514,-0.15104038,-0.23588161,-0.35960926,0.20182202,0.39920281,-0.35141771,-0.39926618,-0.27444913,-0.00098283,-0.00736365,-0.41743659,0.33195655,-0.37261194,0.35566816,0.38223937,0.31932848,0.11117986,0.25607146,-0.23076701,-0.45243512,0.01910895,0.23284133,0.28493308,-0.47773197,0.35063045,0.01451996,0.13883541,0.20643006,-0.14830505,0.15714897,-0.10309480,0.20083935,0.42159041,0.03660959,-0.09741994,0.32274993,0.18796136,0.00686947,-0.44935977,-0.31130802,0.49791726,-0.37032386,-0.48038520,-0.37584479,0.48266435,0.39780951,0.44113391,0.09374181,0.15388097,-0.28963311,0.14130669,-0.32701007,0.44320822,-0.07376023,-0.30474204,0.29384446,0.44110629,0.33425925,0.00055010,-0.20685748,-0.00814515,0.39861153,0.49620269,-0.07853646,-0.05573122,-0.09287646,-0.25473451,-0.36938652,0.40769917,-0.21253694,-0.18870556,0.39542090,-0.09523682,-0.18026105,-0.48536424,-0.11275725,-0.28245154,0.45576967,0.48098456,0.37142944,-0.33386344,0.12216998,-0.45578989,-0.39016805,-0.44919779,-0.25697000,0.40494792,0.49181563,-0.42099075,-0.08530621,-0.20558439,0.08212810,-0.17936914,-0.21065684,0.49192982,0.24955141,0.18378943,-0.28399031,0.35753331,0.06674364,-0.01528775,-0.34126417,-0.03833395,0.39286019,-0.02064809,-0.02369819,-0.21989705,0.19690038,-0.06797361,-0.23962753,0.06763194,0.09999930,0.38709979,0.11566866,0.20971059,0.43367781,0.35214537,0.11495117,0.41833289,0.41813380,-0.49564108,-0.32120877,-0.03766257,-0.20243652,-0.02721942,-0.03954492,-0.46471532,-0.36472627,0.16884213,0.40066680,0.21588293,-0.33269872,-0.43503225,-0.32127490,-0.43983514,0.04431966,0.15414192,-0.16243881,-0.26079637,-0.40970295,0.10514134,0.31017254,0.18084505,-0.02962614,-0.09332752,-0.12323699,-0.10243142,-0.23375243,-0.50974844,-0.19219659,-0.33363509,-0.51259394,0.01276580,0.16750037,-0.19504089,-0.50618332,-0.35506894,-0.12599864,-0.33475875,0.33898879,-0.21345459,0.38387331,-0.49270422,-0.14704059,-0.43890205,-0.43536653,0.39501310,0.21919457,-0.09175186,-0.36848773,0.28965032,-0.50720512,0.43053606,-0.02767998,-0.00935058,-0.11326338,0.39426202,0.40931482,0.14211551,0.37842716,-0.26776290,0.32182854,0.38171730,0.26669660,0.01820960,-0.27348095,0.30223352,0.19611758,0.11845662,0.47450155,0.03885846,0.40734534,0.35787430,0.04459772,-0.24054335,0.41605796,0.10758088,-0.34788298,0.12546874,-0.49441285,-0.21813538,-0.06136451,-0.46494904,-0.23260255,0.46417785,0.05113346,0.13002855,0.32634567,-0.07657575,-0.26791488,0.17498420,0.15624982,-0.41526943,0.09405572,-0.03600896,0.14141769,0.34386328,-0.22020358,-0.15851073,-0.03650874,-0.24527864,0.38045842,-0.13179806,-0.39260878,-0.07906483,0.12188191,-0.48134218,-0.46957033,0.27703644,0.16737543,-0.43176191,-0.38489200,-0.34215259,-0.38097241,-0.16490274,-0.44896540,0.09705327,0.41412962,0.33327766,-0.47746840,-0.31975935,0.05772592,0.22936540,-0.19627577,-0.32511643,-0.29410737,0.44642606,-0.48068383,-0.01273984,-0.21124878,-0.02073879,0.23686515,-0.33809194,0.34467902,0.34124604,0.08086384,-0.03347613,0.36288252,0.13093357,-0.19740234,0.09492042,0.20328027,-0.14817505,0.16687046,0.27137911,0.16212728,0.20222827,-0.11137571,0.11364756,0.08696764,-0.04684936,0.32044086,-0.34391417,-0.31156948,-0.37512889,-0.16865539,-0.10338595,-0.42764238,-0.15545650,0.37410933,-0.14284412,0.32809467,0.10863210,0.00623559,0.15098866,-0.06147298,-0.38475511,-0.31037423,-0.12067234,0.24924310,-0.07533774,0.40449800,-0.05840243,0.28771012,0.08998346,-0.26350183,-0.02829745,-0.18495732,0.14376387,-0.40529707,0.40286780,-0.40127059,0.41593425,-0.44104531,-0.21133490,-0.45998510,-0.11392375,0.18012745,-0.38453677,0.24415481,0.04852172,-0.06033531,0.03431256,-0.35589290,0.48209800,-0.24113810,0.14892542,-0.39780415,-0.09378495,-0.49991825,0.37109543,0.36671044,0.43664817,-0.16724345,0.15332816,0.02365432,0.06972246,-0.37407698,0.33693702,-0.28664652,-0.27897021,0.23981054,-0.18796895,-0.36474736,0.29680923,0.09622877,-0.31906445,-0.30637223,-0.22513775,-0.23288856,0.39065749,0.29770925,0.23795680,-0.00958459,-0.48535514,0.25122378,0.24434511,0.18196782,0.38799928,-0.31465128,0.19621992,0.25818659,-0.46017205,0.12243898,-0.41355432,0.19143341,-0.35611077,0.15483488,0.31755628,0.48082625,0.36828883,-0.46468786,0.21814862,-0.32477875,-0.32603072,0.02521005,0.27835294,-0.15871996,0.18222630,-0.48855768,0.12263518,0.12908534,0.39578914,-0.10267836,-0.36398907,0.43347565,-0.32751197,0.39830742,0.10912976,-0.45306302,-0.42883365,-0.20342651,0.30122070,-0.39229650,0.41665629,0.38571897,0.29915583,-0.43945448,0.04007224,0.11301612,-0.46456967,-0.09696417,0.15172360,0.26298564,0.08920849,0.31897071,-0.24778122,-0.15674658,-0.32214086,0.48832421,-0.07850914,0.31880616,0.13004419,-0.16136761,-0.26382669,0.26274976,-0.23842443,-0.09943902,0.15836878,0.36507178,-0.05887418,0.22228334,-0.34351383,-0.26073781,0.32996010,-0.42682942,-0.37507746,0.12590542,-0.37206738,0.16289590,-0.25997967,-0.32391134,-0.42683427,0.38127312,0.41526806,0.15297201,0.24154897,-0.27486640,-0.48480275,0.39431343,-0.29575622,-0.03925200,0.24604619,0.33208777,0.29221213,0.47744454,0.09784361,-0.44813508,-0.12801687,-0.25115957,0.41067192,0.30967360,0.47108357,-0.43284294,-0.45094657,0.30061146,-0.36149381,-0.32874834,-0.07311735,-0.22325263,0.33981564,0.15952767,-0.06041164,0.42638056,0.10383691,-0.09570974,0.07115685,-0.20993677,0.09842358,0.10046511,-0.27218679,0.31428960,-0.43324452,0.46948169,0.14937337,0.36539565,0.44520195,-0.25805946,0.41045781,-0.18559310,-0.00923428,0.32128159,-0.37561553,-0.03768433,0.38789952,-0.32968476,-0.24014788,-0.46950818,-0.15969424,0.18462115,-0.19226370,-0.29032541,-0.10094566,0.27891099,-0.39260411,0.43710167,-0.36989445,0.16731081,-0.25069976,0.24215339,-0.21891081,-0.01955750,0.05943317,-0.14151235,-0.05030110,-0.29895674,-0.28336666,-0.10696208,-0.05701620,-0.37260509,0.20782599,0.43450837,0.44679504,0.32424376,-0.11450029,0.32792221,-0.50383002,0.15763740,0.37809697,-0.12234051,-0.11587475,-0.30483756,0.04765823,0.21473753,0.41055369,0.12518358,0.15663403,-0.44309478,-0.19068866,0.42052985,0.30098166,0.10247894,-0.09749628,-0.14587690,0.45647582,0.35165195,0.05516636,-0.32678954,-0.25507648,0.49788983,-0.20333058,0.44038272,0.41398296,-0.26616846,0.27466768,-0.17311695,-0.39743741,0.31749088,0.50243307,0.46172997,-0.35736348,-0.17387565,-0.39545522,0.16121865,-0.45421205,-0.46963989,-0.18967777,0.22263528,-0.40562370,0.13122985,0.14690754,0.39322350,-0.26830064,-0.45070661,-0.25250428,-0.31168434,0.40115450,0.30227768,-0.14000587,-0.36391063,0.28243816,0.14724297,-0.40566792,0.23326000,0.42283100,0.39089847,-0.44075367,0.49323027,0.15890253,-0.46698557,0.42944484,0.29129522,-0.13127900,-0.44613218,-0.01916463,-0.06133641,-0.40114774,0.30230712,-0.33336145,-0.30602553,-0.06702603,0.31355147,-0.41302813,0.16474411,0.36302460,-0.16639982,0.35262925,0.25879830,-0.37660229,-0.29665880,0.40104157,0.42065292,0.35442224,-0.52135819,0.14336934,0.27112295,0.37919999,0.22281143,0.26948022,0.03650430,0.26047001,0.21841911,-0.13564856,-0.34097183,0.28815774,0.35442021,0.10259058,0.38720206,0.15676372,0.26936721,-0.41905165,-0.41024671,0.08294319,-0.33302628,0.25377982,-0.05684656,-0.00563437,0.09754906,-0.30222919,0.11382979,0.28185048,-0.42769394,0.03092668,0.16180178,-0.40123600,-0.27038578,-0.03623557,-0.49982222,0.47168019,-0.23754038,0.07316662,0.25557655,0.48816921,0.44100008,0.41684259,0.27589899,0.29502957,0.01949738,0.16324809,-0.04820670,-0.21129092,0.24348865,0.04183952,0.37264311,0.41499451,-0.20435787,-0.19071913,-0.09509880,0.39224388,0.01653556,-0.47111756,0.20165349,0.12940631,0.11736554,-0.08764098,0.26564558,0.37833483,0.40361437,0.28637013,0.35826351,-0.33276026,-0.13951061,0.11461424,-0.34485750,-0.19926924,0.03145683,0.43104149,-0.40423966,-0.44904471,0.09468926,0.04901923,-0.15728734,-0.15493062,-0.40306754,-0.28059289,-0.23768155,-0.10215618,0.04074063,0.17545507,-0.20071726,-0.43340793,0.22758797,-0.48207719,0.20553002,-0.14783786,-0.06541977,-0.02535229,-0.26922038,-0.16064597,-0.23818985,-0.41122327,0.00559130,0.12174677,0.20339097,0.16073380,0.42247753,-0.26515753,0.09206299,-0.48038808,-0.21113194,-0.31062889,0.06916122,0.12911830,0.02842728,0.15785891,0.34033270,0.27839092,-0.45497323,-0.12817646,-0.05518125,-0.16897812,-0.07465818,-0.33911772,-0.15894031,-0.37502197,0.01000016,0.27537877,0.09953313,0.24020500,-0.38605874,0.36116992,0.32898173,0.11953256,-0.01708331,0.03237271,-0.21973364,-0.09440577,0.26783910,0.37272283,-0.07615218,-0.44696527,-0.44188446,0.48943924,0.17895340,0.08324220,0.14487784,0.01634876,-0.14167969,0.18446736,0.38261090,0.29823408,-0.48766654,-0.19514106,0.45746151,-0.14671352,-0.07019103,-0.03253833,-0.37133475,-0.47065790
-0.29233333,-0.25739349,0.39051202,-0.46335159,0.36213907,-0.12657129,0.06902112,-0.35759457,0.27882294,-0.16375837,-0.48555293,-0.29754497,-0.11073584,-0.42744641,-0.30812137,-0.43209249,0.15521100,0.33617836,0.08377371,-0.48697802,0.02038086,-0.03398839,0.31109369,0.03271432,0.27087054,0.26855520,0.38600080,-0.29932048,-0.26398312,-0.48533395,-0.26997838,-0.05631645,-0.24272744,-0.37946636,-0.01966804,-0.38058837,-0.00603765,-0.45064692,-0.23810188,-0.22671214,-0.11440529,-0.22373450,-0.02446871,0.27537755,-0.15113313,0.16713207,0.34277273,-0.49597128,0.00329731,-0.07345991,-0.48294930,-0.47632183,0.39255170,0.32814440,0.05639249,0.16342225,0.09669960,-0.05760671,0.36410176,0.33271648,-0.04294066,-0.40587662,-0.22359997,0.21433190,-0.28534298,0.25673199,0.33436465,0.20961011,0.30512273,-0.40576884,0.48134305,-0.30778999,-0.12726560,-0.04110868,0.46873741,0.22243573,-0.37612284,0.30883298,0.22446018,0.12706974,-0.26415488,0.24172187,0.15073941,-0.37160318,0.06986627,-0.29286810,0.29181907,-0.33343413,0.14952520,0.15592083,0.49925274,-0.39346051,0.24869397,-0.22609812,0.31988520,0.46306398,-0.46996268,0.15342814,0.17475534,0.34233516,0.25698789,0.16161202,-0.46427915,-0.37344308,-0.38721818,0.49694586,0.34251925,-0.26485895,0.30602289,0.06735888,0.36219547,-0.45813199,-0.19091925,0.01293489,-0.32973516,0.37894702,0.22005837,0.46190027,-0.45476921,-0.13059205,0.11620795,-0.45749360,-0.02503670,-0.13349094,-0.17862051,-0.20088430,-0.15758040,-0.13155942,0.47024202,-0.47789843,-0.29444197,0.21381777,0.16949660,-0.27083703,0.32950380,0.27507848,-0.28103725,0.16670649,-0.49269940,-0.47568863,-0.26593463,0.36949607,-0.43382062,0.04314676,-0.11760425,-0.26394350,-0.07790562,-0.39691893,-0.30268224,-0.03377854,-0.02714427,0.31759848,0.01681507,0.45933756,-0.29872656,0.35481415,-0.23003413,0.04908030,-0.28429659,-0.27586163,0.04478506,-0.10527811,0.41419820,-0.30375511,0.10598217,0.22514407,0.45643342,0.31702134,-0.11018912,0.46366591,0.34133271,0.12391806,0.33358735,0.40784425,-0.33325838,-0.28482001,-0.35828925,0.09037418,-0.17575989,-0.15260122,-0.44083941,0.29156375,-0.34209511,0.06435722,0.23420488,-0.15079157,-0.08256810,0.50747496,0.38712192,0.11644816,-0.29756313,-0.09930565,0.47606430,-0.41832490,0.06870874,0.06386993,0.30310806,0.02489819,-0.11932658,-0.30702269,-0.01159334,-0.27787349,0.31524188,-0.18124118,-0.37172769,0.48509474,0.03755477,-0.22918504,0.06251839,0.33294274,0.08295388,0.08594738,0.10473641,0.23520010,-0.32241424,-0.11619068,-0.36649382,0.12190403,-0.11270316,0.49563868,-0.30132457,0.05216853,-0.13474237,-0.34630346,0.12876439,0.43238890,0.21714054,-0.06856559,-0.04291521,-0.40369807,0.12018796,0.44055734,-0.18257436,-0.06116496,-0.24109902,-0.07274847,-0.10023987,0.28047993,0.19471281,0.46262212,0.11753906,-0.21054842,0.09063126,-0.21208547,-0.38341591,0.33510999,0.20526747,-0.25138707,-0.06278318,-0.43552587,-0.28693370,0.11610000,0.10653638,0.07537898,0.26938827,-0.26530954,0.00810343,-0.01491052,0.16321539,0.45992445,0.08029811,-0.21210768,0.39255965,0.37827304,0.21037927,-0.33068823,-0.15154437,-0.34696659,0.47264997,-0.45124898,-0.37054822,0.12476778,-0.08915542,0.28552042,0.46349782,0.04508167,0.12016155,0.14379226,0.26196353,-0.46039771,0.19773504,0.47381300,0.15500282,-0.19680014,0.04859298,-0.07397618,0.03635754,-0.44681159,0.40477041,-0.29732252,-0.49355164,-0.02196281,-0.00234067,0.45460116,-0.06602602,-0.23970423,-0.37894565,0.23327712,-0.14385821,-0.43300530,0.30992724,0.03905165,0.24691330,-0.24665817,-0.16396521,0.19264936,0.27670740,0.44584767,-0.16838106,0.03858391,0.48497277,-0.47128655,0.01207389,0.14370570,-0.16826595,-0.44373483,-0.44546367,0.35948683,-0.39183200,0.47821109,-0.39915169,-0.31738659,0.01537134,0.11168773,-0.41642741,0.35058869,0.26582362,-0.34891430,0.10360586,-0.30866048,-0.21009053,-0.03661215,0.25099667,-0.46898810,0.20991252,-0.41556606,0.22266083,-0.01339170,-0.46972930,-0.44588812,-0.47460355,-0.48203871,-0.41866325,0.02720757,0.13752428,-0.10144216,0.09870795,0.23847878,-0.17354118,0.26307275,0.24673146,-0.09886226,0.35828981,-0.35639885,0.40968901,0.41467935,-0.46287838,0.25498922,-0.36791332,0.18296375,0.46238072,-0.07733010,-0.35325841,0.21273807,-0.04632940,0.35666962,0.29703996,-0.32350341,-0.15649982,0.32917185,-0.26973053,-0.14199624,0.31869400,-0.20758484,0.40838986,0.02329538,0.27148305,0.05288996,-0.23564634,-0.46306850,-0.29552743,0.38717716,-0.13749984,-0.42216314,-0.39809932,-0.16073178,-0.47156229,-0.34554496,-0.39846384,-0.33624899,0.33914357,-0.43652176,0.08635529,0.48589284,0.27621631,-0.45981991,0.34348704,0.07518201,-0.28138211,-0.32155389,-0.12141831,-0.06948968,0.05145368,-0.24760566,0.29612057,-0.00202140,0.27702937,0.00184455,0.43313936,0.43026018,-0.00178720,-0.30398988,0.39675509,0.40588470,-0.21888907,0.49538039,-0.25216233,-0.18877314,-0.35017886,-0.15016762,-0.02497217,0.48896780,-0.08668938,-0.43814922,0.47559927,-0.30924944,-0.39630624,0.31688535,0.25359788,-0.19066498,-0.50102483,-0.32752049,0.29372749,0.09760048,-0.05486164,0.03032722,-0.51350622,-0.38100500,-0.49054714,0.49518061,-0.37720765,0.03313677,-0.32081854,-0.48720424,-0.06026729,-0.04287287,-0.49329660,0.18883484,0.26861027,-0.34338573,-0.46136783,-0.25615255,-0.35298226,-0.04467364,-0.19237012,-0.37744360,0.13653359,-0.09545377,0.44036052,-0.08199980,0.24353715,0.47031176,0.09333239,-0.02329375,-0.03052466,0.45673568,-0.47927799,0.03031585,-0.36884376,-0.46563549,0.00537365,-0.25079686,0.06669692,0.17743673,-0.24075819,-0.49272801,-0.36541848,-0.23394783,0.19593603,0.40247539,-0.07506379,0.23818024,-0.34955043,0.06927204,-0.31614439,-0.04899250,0.20209166,0.34460189,0.37612823,0.13715254,-0.27655007,0.05798067,0.05465464,0.30313214,-0.41421658,-0.42339791,0.28098883,-0.41490939,0.08517913,0.40546320,-0.38118172,-0.41662793,-0.34812940,0.18672307,0.26140297,-0.08886807,0.19338458,0.39391684,0.17694979,-0.10646820,0.30488119,-0.39479657,-0.37292051,0.46215270,0.19339356,-0.16868377,-0.09188866,-0.14178574,-0.37237459,-0.25275546,0.48691617,-0.11408770,0.35410660,0.06002056,-0.32413013,0.41191520,0.12006827,0.45218833,0.49553154,-0.30021065,0.35488871,-0.38385203,-0.21539864,-0.49324069,0.30244747,-0.45626380,-0.08499728,-0.00326253,0.45079553,-0.38970519,0.40588540,0.26738475,-0.27458843,-0.46594098,0.19742784,0.36103910,-0.18237242,-0.40858023,-0.26872213,-0.02296220,-0.14157493,-0.29162373,0.33895468,-0.31575112,0.25715979,-0.49002736,-0.41023455,-0.12859201,0.45956359,-0.41387692,0.07213117,0.31445230,-0.29790010,0.35494559,0.31801960,-0.49319222,0.41097107,-0.23943155,0.03377471,0.37579372,-0.13479970,-0.08933407,0.09335963,0.02509541,-0.09971522,-0.21755165,-0.09369602,0.24044871,-0.12687320,0.10989666,-0.31259951,0.20108306,0.31430894,-0.47793348,0.37801546,0.06797934,-0.46710728,0.46885014,0.44092294,0.49246204,-0.44513243,0.01253352,0.30492479,-0.24284006,-0.12258537,0.14815180,-0.20480869,-0.19845287,0.39593027,0.27900394,-0.38012839,-0.29374384,-0.33525335,0.22590459,0.25219106,0.06880965,0.48164738,-0.37816109,-0.22178673,-0.16688131,0.23247284,-0.03543652,-0.46776379,0.04900055,-0.01008576,0.41259150,-0.38100534,0.02259511,0.38145084,-0.44010351,0.01526564,0.43372301,0.07702289,-0.16265330,-0.28762271,0.46331039,0.47797656,-0.03158857,-0.27877681,0.32877507,-0.25568062,-0.14051907,-0.46516509,-0.11853664,-0.45781072,0.24818885,0.42332621,-0.48967827,0.37103690,-0.29418277,-0.15402936,0.10646642,0.17260977,-0.12028392,-0.34383971,-0.33768792,-0.20769224,-0.22498856,0.18474783,-0.32765440,-0.16643983,-0.29912853,-0.38565330,0.42348552,0.03351161,-0.19061154,0.34852742,-0.02178033,0.26750325,-0.42412455,-0.21181214,0.47775980,-0.10340187,-0.19499527,-0.15029931,-0.06787290,-0.44300409,-0.21792240,-0.05387020,0.42922146,-0.01139431,0.29232555,0.03569035,-0.33877890,-0.32795837,0.19176787,-0.17788957,-0.03930009,0.46170323,-0.50054970,0.13077871,-0.20222095,-0.30298613,0.23367434,-0.30348899,0.22252690,-0.45544022,-0.44560757,-0.31078124,0.30261639,-0.37729943,-0.01169399,0.28774492,0.02417960,0.29955638,-0.35364833,0.45989255,0.35716309,-0.07149620,-0.09392838,0.28638455,0.41710949,-0.30160283,-0.17808117,-0.42469671,-0.13868704,-0.49990164,-0.11430577,0.31971581,0.46345436,-0.11693376,-0.05415305,-0.24012828,0.09607595,-0.29452886,-0.01981909,-0.16765612,-0.23839157,0.04931331,0.05000497,-0.41677429,0.18079394,-0.45695580,0.37741166,-0.29331728,0.34298258,-0.47616553,-0.33339664,0.20014567,-0.04766173,0.07267499,-0.01375899,-0.13329017,0.26646478,0.30235121,-0.05980588,-0.36836950,0.31343367,0.34131976,0.46956360,0.29782556,-0.24530310,-0.05648651,-0.41950433,0.37290734,0.16756246,0.07670357,-0.27303291,0.44352271,-0.36635246,0.27912766,-0.47124233,0.31472601,0.32228418,0.40620956,-0.47858246,0.16526676,0.43004403,-0.31197910,-0.13458757,-0.11761771,0.26054039,0.35068703,0.25010554,0.03135427,0.16054765,-0.30039179,0.17327739,-0.01714319,-0.45122017,0.14934699,-0.21350368,-0.19086495,-0.40132098,-0.12788532,-0.31259040,0.26909761,0.45261417,-0.08444372,0.21266643,-0.41372619,-0.30531605,0.24142409,0.40099982
-0.48303187,0.14763365,0.42241735,0.18223489,0.07767768,-0.38956175,-0.45235268,0.46005997,0.37113414,0.39958997,0.21189001,-0.09709782,0.06013772,0.41149839,-0.42381882,-0.45678386,0.46074887,0.22575914,-0.17024364,-0.23005440,0.32452248,0.20276769,-0.04220259,0.09362009,0.15538187,0.37335370,-0.19371348,0.24165568,-0.43196236,-0.45228939,0.14265549,-0.41499423,0.19534426,0.06507285,0.26724067,-0.22697806,0.17551110,0.31488799,-0.26691327,0.04667516,0.21447795,0.44514929,0.45005110,-0.22510188,0.35659099,-0.47423702,-0.18216687,0.31721917,0.25148773,0.14758818,-0.41283523,0.07601021,-0.14964413,0.04496219,-0.33036970,-0.49426226,-0.08168412,-0.02408318,0.24739342,-0.01364648,0.02362743,-0.10995109,0.07135930,-0.28102831,0.45512176,-0.16140004,-0.00790415,0.13105984,-0.34521564,0.22643585,-0.32162117,0.36865552,0.17072061,-0.37264612,-0.35702924,0.02687322,-0.34726263,-0.03944756,-0.15617607,0.40405422,-0.39199843,-0.06909832,-0.01994797,-0.04164256,0.47586386,0.14968233,-0.03590482,-0.10582025,-0.37440085,-0.28851140,0.38054085,0.14926938,0.10175166,-0.04748276,0.36951935,0.05872479,0.29390048,-0.13596969,-0.30900118,0.44634838,-0.41311940,-0.13355323,0.31367482,0.25634138,-0.00784812,0.45493004,-0.21807775,0.14395980,-0.08505867,0.12556952,0.04799165,0.02294290,-0.44352880,-0.47195631,0.48130035,-0.46766494,0.17770786,-0.05459904,-0.07310555,0.30482378,0.16048458,-0.18976595,-0.04422881,-0.23816137,0.26259659,-0.17651766,0.31704921,0.05226717,0.18347033,-0.49557753,-0.00640980,0.26714464,-0.13197814,-0.19389291,0.02187695,0.35798895,-0.24019906,0.30335682,0.00228884,0.17482930,-0.07107367,-0.44971951,-0.30222780,-0.01466761,-0.42185925,-0.32060450,0.02148555,0.26550955,0.13414504,0.45221220,0.06533615,-0.21658540,-0.24810768,-0.49227384,0.03097467,-0.49739225,-0.17156551,-0.14949004,0.05695096,-0.48792398,-0.14253756,-0.44842312,0.27888087,0.22220963,-0.14302536,-0.19903356,0.08250855,0.11833091,-0.39529057,-0.41520104,-0.20683979,0.03296140,-0.36654351,-0.00753298,-0.47297347,-0.27627437,0.17979759,0.04311062,0.46897651,-0.20617726,-0.02003355,0.02490306,0.07233677,0.23217694,0.04217443,-0.38755702,0.23854906,0.37269732,-0.02825632,-0.20070845,0.38429112,0.32566455,-0.14598178,0.16680681,0.05178525,0.21372209,0.46823356,-0.36563701,-0.16807451,-0.42735234,-0.28159867,0.12702137,0.11270295,-0.14101355,-0.37983299,0.12268434,0.06420847,0.28198778,-0.33991704,0.03286505,-0.42050963,0.14358955,-0.43284909,0.15168469,-0.13030503,0.10536441,0.27268017,-0.38227478,-0.02004174,-0.25675244,-0.07941096,-0.13258875,-0.42989761,0.27575543,-0.46594861,0.12205440,-0.01061760,-0.49787703,0.25645634,0.32427306,-0.42703364,0.47186998,-0.05626416,0.17204821,-0.17926100,0.05297574,-0.19978123,0.39257898,-0.15443243,-0.03176788,-0.06820624,-0.07902706,-0.39252440,-0.00586282,-0.42151786,-0.01435883,-0.39146326,0.36083422,0.10961567,0.08866464,-0.39919052,-0.47240843,0.45446548,-0.32900412,0.30330476,0.48896578,0.29356853,-0.20648518,0.48708377,0.04427100,-0.39420615,-0.44510023,0.01337229,0.04657638,0.24097491,0.35223737,-0.37641674,-0.44124199,0.24952184,-0.03621416,0.01466413,-0.32962180,0.38948447,0.13059559,0.18605554,0.49141190,-0.37083180,0.29556616,0.34761819,0.23426020,-0.11810700,0.44843603,0.26201891,-0.16231923,-0.38053130,0.06225315,-0.18245727,0.40095703,0.34464545,-0.19907119,-0.05656625,0.45545726,-0.12645898,0.48648724,0.04276970,-0.35887403,0.34150636,0.14553133,-0.33226647,0.07311908,-0.38653019,0.20142571,0.27943452,-0.46625050,-0.15165505,-0.03128970,-0.47651973,-0.02478208,-0.23667212,0.37113163,-0.29039766,0.14567177,0.31865204,0.46376849,0.46908420,0.42240188,0.02090433,-0.20990457,0.33461076,-0.12083271,0.11591372,-0.18382871,-0.12007341,-0.48675997,-0.20784370,0.38349396,-0.38345946,-0.37957862,0.04411358,-0.18739023,0.23515320,0.18813250,-0.47222595,0.01843908,0.22386120,-0.12387805,0.48718232,0.24737616,0.35135575,-0.24978938,0.11678779,-0.44668130,0.38264988,-0.07830648,-0.48320964,0.36154582,-0.13517929,0.06242505,-0.32044152,-0.26921112,0.46837730,0.30232598,0.02783416,-0.18327424,0.29400629,0.32700092,-0.27783184,0.43977654,0.48429241,0.28769432,-0.23952752,0.22300645,-0.02086016,-0.21066903,-0.25857544,-0.29700151,0.16544088,-0.27232265,0.44792098,0.00974231,-0.03274668,0.05373828,0.05976433,-0.14345065,-0.50263823,0.10774804,-0.24828860,-0.11580114,-0.32089982,-0.07048361,0.10222812,-0.37396825,-0.26930615,-0.35520801,-0.03578425,-0.45302628,0.49469806,0.20150854,0.49367915,0.48403942,-0.00759115,-0.24402549,0.20696306,0.47154742,0.04530548,0.44735737,-0.32891807,-0.29558674,-0.33318760,-0.38836365,0.21061660,0.14238261,0.18323968,-0.20397061,-0.47574710,0.19689189,0.41259371,-0.22502259,-0.42902507,-0.42027379,0.21124601,0.18924977,-0.27194998,0.45415815,0.34969406,0.20587568,-0.48894594,0.35091976,-0.09007186,-0.49290515,0.33486293,0.40233547,-0.23693063,0.04084095,0.37067925,0.30190677,-0.02029456,-0.46555322,-0.49678434,0.15067601,-0.34100799,0.23039965,-0.18984927,0.35510869,-0.45850916,-0.16412284,0.04645078,0.45423476,0.12984277,0.14689612,-0.44607813,-0.14692391,-0.15141627,-0.20575493,-0.18351589,-0.29685566,-0.49781210,-0.17027774,-0.44604592,-0.08790524,-0.16317472,0.38880473,-0.18778457,0.09480636,-0.07797761,-0.32486376,-0.10915015,0.40119409,-0.28240347,-0.08721650,0.07754008,-0.09761715,-0.33338614,0.39553587,-0.23936064,-0.28736450,-0.24329057,0.34093985,-0.31083571,0.40074298,-0.00292640,-0.24832721,-0.24109174,0.34827394,0.04799343,0.07680364,-0.44862802,0.05014959,0.40652743,-0.39473029,0.46220364,-0.25811538,0.49002045,-0.23078595,0.33220993,-0.08898102,-0.05154481,-0.26691696,-0.16950631,0.19112581,0.17298932,0.42737641,-0.39776609,0.34282338,0.33527498,-0.11503267,-0.42547560,-0.38948333,-0.26556387,-0.22836551,-0.48630665,0.23205004,0.02439841,-0.22668203,0.08043273,-0.42762001,0.35016865,0.13175875,0.12325488,0.25910255,0.23836501,0.08242952,0.49209397,0.22216899,0.35199605,0.33405202,-0.35073020,-0.17904534,-0.41018235,-0.00258229,-0.47632062,0.26714032,-0.07215737,-0.36678957,0.12344755,-0.22026892,0.02957430,0.20589358,-0.10861988,0.26337191,0.47703287,-0.09492586,-0.00458078,0.00143128,0.17847805,-0.42401642,0.07490069,0.03156488,0.21090790,-0.30262697,-0.21668832,-0.05886273,0.27796924,-0.21848220,-0.32629283,0.14151341,-0.37417387,-0.17229668,0.46707706,-0.27813114,0.32703801,0.49079459,0.49671510,-0.23162186,-0.36281029,0.12326970,0.05013543,0.16625470,-0.17130964,0.44099278,-0.07051980,-0.19427677,-0.15390477,0.42517424,0.30933399,-0.47222696,-0.49633959,-0.11718351,0.05208755,0.20462497,0.07537757,0.33893614,-0.34571591,-0.13994508,-0.37654979,-0.17522174,-0.49831316,-0.24888912,0.15470660,0.46409024,-0.02443538,-0.00600765,0.46684277,-0.02773833,0.26534323,-0.39576460,-0.40533969,-0.18582886,0.27050576,-0.07665028,-0.24480144,-0.29918527,0.23294661,0.10587126,-0.37126540,0.03938661,0.12679929,-0.37639379,0.41041619,-0.32541629,0.33457876,-0.00336669,-0.48070300,0.48789445,0.35744236,-0.36316517,-0.19174326,0.34691325,-0.11039614,0.47522292,0.32444356,0.36768291,-0.02619797,0.29103012,-0.16209623,-0.26248754,0.39534189,-0.06744029,0.05169059,0.16704902,0.35924396,0.31096731,0.37058928,0.08860187,-0.08992293,0.49174582,-0.38346959,-0.47283894,-0.38763988,-0.46283210,-0.28481573,0.45502982,0.03137771,-0.27793278,0.42720106,-0.12495574,-0.13419352,-0.24630532,-0.26012380,0.26077957,-0.26800684,-0.43637913,0.12753222,0.20508969,0.35466037,0.46543163,0.44260244,0.25060332,-0.09952926,-0.00249813,-0.08085818,-0.24352146,-0.19644904,-0.21489240,0.33924971,0.20610014,-0.23246287,0.45751598,0.24156051,-0.11724595,0.49071328,0.44284660,-0.17445117,0.02460615,-0.31663138,-0.22348201,0.41614561,0.05337350,0.03075480,-0.34304652,-0.18500075,0.26295013,-0.27942606,0.44253054,-0.03196018,-0.42394476,0.41001578,-0.08603649,0.32893730,-0.18866240,0.41105001,-0.25189169,0.06693620,-0.28765932,0.03169513,-0.09548020,0.41263735,0.28625281,-0.15694437,0.14401638,-0.32453668,-0.14634524,0.11176474,0.02204691,0.38749284,0.29760788,0.29969698,0.30594877,-0.14774928,-0.16917367,0.46290225,0.16724997,-0.40622354,-0.31649960,0.10987665,0.06110740,-0.24273084,0.01671269,0.47483514,-0.41139286,0.32885518,0.38330337,-0.16864600,-0.11394119,-0.41739255,0.34452586,0.27681515,0.49521193,0.14151057,-0.35968408,0.15592098,0.32668047,-0.00193613,-0.22976498,-0.15009130,-0.11282961,-0.43106234,-0.35011452,-0.30688084,-0.07881163,-0.01928819,-0.34399693,-0.41174257,0.07421546,-0.16109200,0.19771662,-0.36446325,0.09786614,-0.28415580,-0.39131434,0.18217227,-0.45998121,0.48645989,-0.49328674,-0.07959189,-0.43207046,0.35395206,-0.29466065,-0.43168288,-0.00203115,-0.15338548,0.22528767,-0.17512467,0.34505939,0.49592335,0.17487177,-0.26777022,-0.43513899,0.32475726,-0.07465106,-0.01395062,-0.19453053,0.08142280,0.07452784,0.37991489,0.42086404,-0.22729060,-0.48364649,0.01920376,-0.01118885,-0.37481682,-0.29868181,0.02832304,-0.38892390,-0.29247626,0.45109730,-0.31923069,-0.43658782,-0.34296979,-0.25091525,0.06138059,0.00364472,0.47437242,0.38625592
-0.15129589,0.47029577,0.06112769,0.08093389,-0.46484322,-0.11411505,-0.49371717,0.02120617,0.19135401,0.08765317,-0.40430611,0.07131136,0.00852111,-0.13159954,0.08757326,-0.47240286,0.35706857,0.21259798,-0.27117168,-0.11460559,0.32377150,-0.06275179,-0.16307154,-0.49545919,0.00066038,-0.00604133,-0.24637444,-0.43795902,0.49760340,-0.27200202,0.44829690,-0.15369249,-0.30170624,0.00942459,0.42724139,-0.26654946,0.39530954,0.43352422,0.25472447,0.08708369,0.02117739,0.35021171,-0.34237800,-0.46976967,-0.28041007,0.24598551,-0.44257330,-0.42418038,-0.04185386,-0.21387604,-0.03878597,-0.21808236,0.22337217,0.29814249,-0.21354154,-0.27596745,-0.20789883,0.04008402,-0.21392647,-0.21029544,0.26808201,-0.26562957,0.13601207,0.46637576,0.24379501,0.06325346,-0.29957932,0.14021983,-0.00242181,0.45505042,-0.27312790,-0.48127854,0.30527927,-0.11599631,-0.45260910,-0.47679484,-0.37103716,-0.39537282,-0.40066354,0.08743623,-0.10892681,0.06061832,0.36935496,-0.38555464,-0.14123919,-0.34418659,-0.16152209,0.15086198,0.19589744,0.12455144,0.44063288,-0.03565733,0.35901674,0.07667890,-0.06851529,0.10371034,-0.35859637,0.13252535,-0.25596299,0.13889762,0.08534455,-0.03266555,0.15326477,-0.11225703,0.35033680,0.20113308,-0.08723748,0.48062283,0.30716764,0.01248710,0.06806101,-0.30175918,-0.42689459,-0.06258403,-0.18731382,-0.06813377,0.09326394,0.15115623,-0.41652973,-0.20946615,-0.22362299,-0.47918001,0.25147783,-0.36105230,0.10958643,-0.30552625,0.25061923,0.25095129,0.32140120,0.48886270,-0.11919623,-0.10511632,-0.06003427,-0.47505510,0.28445794,-0.20342566,0.23262854,-0.29911155,-0.22127855,0.04026606,0.21337554,0.34678247,0.23850689,0.28648205,-0.21541744,-0.44883923,-0.28151326,0.37710528,0.19923992,-0.20400468,-0.33614807,0.47924652,-0.16786590,0.43039185,-0.37301482,0.43882480,-0.38663520,0.35543754,0.16408742,0.41434364,0.31893350,-0.47253472,-0.19743779,-0.23591560,-0.43833193,-0.39961160,0.07424710,0.30424253,-0.19623306,0.35282446,-0.15549140,-0.48282385,0.20010879,-0.41888160,0.29972549,0.47835502,-0.37430874,-0.48791037,0.35622687,0.33558810,-0.16772227,-0.45907126,0.32217071,0.15635930,0.46059285,0.43867653,0.07808622,-0.44889008,0.26915124,-0.27705709,0.44914024,0.08899891,-0.23779273,-0.22094180,0.38335721,-0.15205467,-0.11471227,-0.04323894,-0.34883634,0.18899580,-0.19138945,-0.00687420,0.19997881,-0.50254619,0.06251041,-0.00584481,0.47873929,0.21027582,0.03577251,0.36096161,0.05898030,0.36828628,0.39169606,-0.12193901,0.02062202,0.34436480,-0.20817354,-0.43303566,0.36117625,-0.45049098,-0.20495412,0.34117474,0.17466257,0.08597031,-0.37021581,0.05826810,0.43233264,0.01437481,-0.48744733,-0.41916001,-0.30034858,-0.18950644,0.06491675,0.39618509,-0.17533806,-0.34528211,-0.08110470,-0.17360481,0.37421159,0.45513252,-0.31684558,-0.06968186,0.31848210,-0.43241289,0.28588813,-0.18968720,0.38474514,-0.43201413,-0.12319424,0.26579448,-0.35540499,0.19246067,0.11993566,0.32100341,-0.22236116,0.24885984,-0.12384359,-0.29194543,-0.23922121,-0.11739217,-0.21773852,-0.04163172,0.21550398,0.37092769,-0.12271610,-0.44979834,-0.46689489,0.29663931,-0.13155374,0.39945337,0.25571061,0.06814498,-0.16431342,0.07377183,0.13480923,-0.38756452,0.36660027,0.01403947,-0.31497016,-0.24994002,-0.21122383,-0.16948166,0.44227867,0.40751555,-0.35250238,-0.28252870,0.15454148,0.02634141,-0.07608544,0.41865525,0.41787686,0.21222556,-0.11463053,0.13913683,0.09197457,0.25255969,0.17263870,0.11381193,0.07079776,-0.41250890,0.05519087,-0.14724155,0.15682613,0.36304086,0.38024524,-0.24104942,0.46428086,0.24730788,0.27726684,-0.35045869,0.49721106,-0.43687026,-0.02605201,0.43927871,0.47753756,0.13421325,-0.34382063,0.13326759,-0.34492780,0.07987768,0.04459931,-0.42812548,-0.20063771,0.42709854,0.20304006,0.38872340,0.21543257,-0.05738965,0.07016754,-0.17626867,0.02840748,-0.41391477,0.11651623,-0.35618990,0.43230555,-0.00701460,-0.09548009,0.39575605,-0.25971427,-0.32107399,-0.46203140,-0.26441690,-0.24673736,0.02834032,-0.31817366,-0.27345196,-0.35108340,-0.18110053,0.33427017,-0.19969403,0.41535934,-0.10642368,-0.12423992,-0.28657126,-0.15604691,-0.35556998,-0.31615117,-0.38845747,0.08919195,0.21390045,-0.12300561,-0.42404062,0.27677701,0.48417315,-0.28113477,0.20722704,-0.02207620,0.12246162,0.09691188,0.21438243,0.31192854,0.15457281,0.46556131,-0.43107498,-0.32440804,-0.38194995,-0.24318374,-0.18297678,-0.03891129,-0.38215149,0.11668277,-0.14211511,0.02183696,-0.44210259,0.16302004,0.43085638,-0.28169346,0.31455827,0.49067573,0.26748554,0.00174433,-0.14368496,0.34255186,-0.22239691,-0.15951181,-0.43943989,0.48094155,0.31785638,0.19125387,0.09797944,0.05430241,0.01267211,-0.25219287,-0.01411387,0.02657043,-0.09729954,0.11639179,0.29616936,0.19543136,-0.45526185,0.42410392,-0.11716387,0.00320727,0.01386373,-0.03655728,-0.35200057,-0.09718912,0.14635753,0.43699601,-0.11733010,-0.08622452,-0.06137626,0.23898494,-0.24447713,0.21363541,-0.41514298,-0.16998436,0.21867325,0.42361911,-0.47291966,-0.19551022,-0.06608428,-0.01490443,0.01575353,0.40995852,-0.49128742,0.39688029,0.00308909,0.32230558,0.16136453,0.14748375,0.31655373,-0.42664245,-0.36009235,-0.19882886,0.01383785,-0.23249219,0.19516588,-0.33872089,-0.29588362,-0.42217545,0.07418895,0.13897737,0.32379693,0.34911838,-0.11679203,0.42241081,-0.32990839,-0.42875257,0.29639309,-0.34975570,-0.15942545,-0.29036266,0.11746575,0.34551074,-0.38538710,0.15024233,0.29759876,0.20260062,0.04795183,-0.01241720,-0.16276008,-0.15833627,0.04951716,-0.03659703,0.13516355,-0.43574280,0.23036168,-0.16957042,-0.27520694,0.43067064,-0.08365909,0.31941335,0.10178756,-0.24571641,0.15277154,0.45234885,-0.37348604,0.27668776,0.48681222,0.40074571,0.40716135,-0.18318111,-0.38826168,0.05946923,-0.28128396,-0.19740200,-0.23416219,-0.46834400,0.48485559,0.29364460,0.01052663,-0.18622616,-0.37186697,-0.43918778,0.27699370,0.26346753,-0.37527686,0.00728793,-0.39977500,-0.13690452,-0.04048889,0.02831269,-0.32301580,-0.46126572,0.23249891,0.28275747,0.45071646,0.33727765,0.03605628,0.42691759,0.24905044,-0.00497728,-0.19792842,0.41285803,-0.42418565,0.01760088,-0.30643119,-0.16641260,0.04308326,-0.32678278,-0.37893062,-0.44575341,-0.01300894,-0.25091530,-0.38540941,-0.23432539,-0.48203682,-0.25247108,0.27435221,-0.37963449,0.11366538,-0.26463677,0.11943890,0.24226640,-0.27011799,-0.16895754,0.00341644,-0.33061078,-0.32326733,-0.41393733,-0.35173497,0.44999942,0.08852941,-0.06161734,0.35098896,0.16168594,0.45107602,-0.45995985,0.49108051,-0.00600057,-0.28674263,-0.38788753,0.04669231,0.20190460,-0.13405347,0.16929383,0.46280123,-0.12515226,0.41365071,0.25445252,-0.00901576,0.00199545,0.45295345,-0.41644935,-0.27139299,-0.32401688,-0.07886806,0.26098143,-0.12281441,0.11112192,0.35520157,0.01034251,0.05178478,-0.06329386,0.44290211,-0.09990169,-0.40260682,0.39376490,-0.06054666,-0.41159821,-0.11381451,0.15374294,-0.29376429,0.44091534,-0.14424559,0.06094098,0.10043355,-0.18221680,0.43508824,-0.00035804,-0.45763213,-0.09510571,0.48792659,-0.49855160,0.00794391,-0.25964264,-0.31194487,0.43194280,0.49776498,0.05237053,0.03009570,0.34288838,-0.44132291,-0.41634846,-0.21824647,-0.49894151,-0.01813226,-0.12088668,0.39462105,0.42167832,-0.02595209,-0.21371097,0.07623285,0.17194232,-0.28039094,0.42695720,-0.27411515,0.31241618,-0.26537622,-0.34386579,-0.18094645,-0.19832990,0.08902410,-0.17837260,-0.19479316,-0.41034431,0.05042235,-0.02002482,-0.49019777,0.04354596,-0.46784037,0.04412194,-0.11042257,-0.40987512,0.12590088,0.17132595,-0.40889198,-0.39325412,-0.44844606,0.48768556,-0.47212898,0.01828199,-0.23206539,0.10266159,-0.31419038,-0.01284986,0.02418029,-0.09163248,-0.19735779,0.27847468,0.08603457,0.13136757,-0.42620923,-0.33712687,0.44317990,-0.13145156,-0.25091109,-0.00619959,0.35065208,-0.23816540,-0.46126621,0.38251673,0.30528094,-0.07168877,0.47257379,-0.06946886,-0.40269477,-0.43963860,0.03497830,-0.35585664,-0.46015338,0.05418265,0.15699529,-0.19040859,-0.34138743,0.34541599,0.30727634,0.20251525,-0.22901147,-0.38921563,-0.02368398,0.35456847,0.23729724,0.04676977,-0.48207186,0.17983670,0.41652024,-0.23180328,-0.32623072,0.26717232,0.03003133,-0.28749692,0.14974844,-0.16458309,0.14018769,0.12138517,0.26554487,0.23717494,0.17870418,-0.20090852,0.38707544,0.23307608,0.36500634,0.05105226,-0.44788328,-0.45653444,-0.08708997,0.36143921,0.24647997,0.18521472,0.47093819,-0.27844416,0.03820921,0.20724903,0.26830423,0.05639773,-0.11291569,0.18482447,0.32459445,0.06085360,-0.04804793,-0.14565419,0.27278675,-0.39888337,0.18936122,-0.08730292,0.22167788,-0.04756808,-0.34797974,-0.09141841,0.25785657,-0.45840154,-0.35812131,0.13303052,0.10366407,-0.29826817,0.18029130,-0.48253785,-0.43936592,-0.07407198,0.20182864,-0.46863790,0.14741802,-0.25996418,0.23861069,-0.08427775,0.29643355,-0.37430500,-0.39945328,0.12102801,0.18578122,0.05121237,0.47466728,-0.04064176,0.15403351,0.16544889,0.37385778,-0.12230692,-0.37879210,-0.47172362,0.28814352,0.38355933,-0.42620278,0.43553047,0.01974341,0.17790571,-0.36484962,-0.30073024,0.19525813,-0.30424433,0.12519779,-0.10291323,-0.27288223
-0.22738419,0.13712260,0.46572846,0.18833806,-0.06644385,-0.40857654,0.28888478,-0.44541584,0.27797206,-0.15857171,-0.46976206,-0.26212267,0.49565765,0.19582979,-0.38804641,-0.12609652,0.31785378,-0.35934267,-0.33767858,0.20175447,-0.28543509,-0.40310119,-0.27898346,0.39247061,-0.26795081,-0.07971370,0.08772874,-0.07219514,-0.45451591,0.48481551,0.15492263,-0.18190010,0.12193810,0.12065109,-0.49356204,-0.44450575,0.21207455,0.29532274,-0.38989685,-0.00979999,-0.36324897,-0.35928224,0.22908106,-0.36674105,0.33673642,0.34005846,0.00634511,0.15399992,0.48053487,0.16863358,-0.14424561,-0.30490023,0.26553239,0.07677093,-0.41242961,0.49758159,0.49705724,0.17529912,-0.07461355,-0.45745867,0.16011463,-0.41969092,-0.13935878,-0.21794726,0.20096017,-0.13292082,-0.16226832,-0.08675856,-0.33827996,-0.05242050,0.40426751,-0.19980985,0.08906027,0.13168086,-0.06670849,-0.07467058,-0.02914275,0.43743271,-0.42223222,-0.04858145,0.10650736,-0.06615780,0.14651747,-0.12796025,-0.48938687,0.23408786,-0.13037866,-0.49232963,-0.09061302,0.29500779,-0.44981992,-0.43056807,0.37516195,-0.08938041,-0.14906685,0.07649459,0.27815109,0.18787607,0.48789605,0.43967618,-0.36337271,0.39239239,-0.26084382,0.22474737,0.02282866,0.17052923,-0.35136345,0.49428192,0.10892236,-0.27315580,-0.05430107,-0.28457028,0.16068640,-0.40778360,0.08746948,0.17129954,0.32631686,0.45678793,0.17844677,-0.26437805,0.25100145,0.22856199,-0.19210855,0.12678748,-0.36342901,0.14796435,-0.30896450,0.40669626,-0.16277506,-0.31458130,0.35128541,-0.02645542,-0.42155752,-0.40549102,-0.29389733,0.10764584,0.26893738,-0.14399983,0.10307704,-0.12224149,0.08284437,-0.45122403,0.09318823,-0.25643342,-0.35863390,-0.31964743,0.41627571,0.47051969,-0.35882698,0.09966874,-0.28987574,0.38825662,-0.18764363,-0.00606335,-0.00459135,-0.05996365,-0.35467305,0.19837077,-0.13827856,-0.00520140,0.40628793,-0.26388395,0.49442091,0.50366849,-0.15890299,-0.29879890,0.10808905,-0.39409272,0.05659573,-0.28877038,-0.01633420,-0.35991624,-0.23896571,-0.41967652,-0.10798350,-0.08852600,-0.22783563,-0.18815418,-0.12432362,-0.10068437,0.38622966,0.06352607,-0.22382641,-0.29843550,-0.43956155,0.27718548,0.15370980,-0.27495991,0.02020364,-0.43759727,0.26266790,-0.05469420,-0.19582987,0.24933701,-0.06348218,0.13476026,0.44911491,-0.45520618,0.24091215,0.00937520,-0.23834632,-0.26684692,0.15872240,0.03243139,-0.17841429,-0.45101240,0.44090845,0.07502902,-0.16488191,-0.21361768,0.45337919,-0.29299956,0.33653486,-0.28155392,-0.08684746,0.42018425,-0.46491844,-0.39007744,-0.31084564,0.07226712,-0.32932585,0.43619969,-0.49779463,-0.03416136,0.18414527,-0.06113561,-0.39884561,0.13717935,-0.00968196,0.34985540,-0.35253179,0.25462458,-0.41307428,0.30688147,-0.22233728,-0.12149381,0.31574640,-0.33081268,0.42387217,-0.36070257,-0.03580261,0.37516629,-0.15539491,-0.19762495,-0.38766294,0.28404618,-0.24367616,-0.33314421,0.39695725,-0.06740355,0.22630558,-0.43420580,-0.13318525,0.22892789,0.03216107,-0.44606243,-0.32797613,0.13884423,0.18767884,0.16293153,-0.01310240,0.33509012,-0.10779978,0.02824628,0.09124648,0.13247724,0.40848196,-0.06559120,0.34142672,0.34484490,0.04851028,-0.23811159,0.20912063,0.40679407,0.09389730,0.33647834,0.19919499,0.34400445,0.49844696,0.09871448,-0.22586227,0.22512985,0.16548938,0.14433477,-0.04325354,-0.30222493,0.19198540,0.12128812,0.33034223,-0.13342643,-0.24983176,-0.22586187,-0.33334353,0.14494789,0.35481265,0.33459607,-0.15885573,0.27358657,-0.27497674,-0.38603459,0.07293223,0.26699908,-0.09886014,-0.19304206,0.19685990,-0.49929461,-0.35557522,-0.10146422,0.34306067,-0.35685713,0.49791641,-0.38053898,0.37121483,0.15997884,0.25121569,-0.18494901,0.35057190,-0.06967807,0.41326168,0.14833881,0.29785194,-0.28889252,0.51811205,-0.43960053,0.41749645,0.36295676,0.33413053,-0.32736903,0.06928091,-0.46267741,-0.18721032,-0.31727740,0.34041002,0.22959398,-0.00884072,0.03958806,0.23020439,0.13679410,0.43815179,0.07405634,0.28326514,0.43323508,0.18127650,0.14001918,0.08554315,-0.07079651,0.44732326,-0.06346529,0.38731685,0.42285087,-0.32979342,0.25829345,-0.33919403,-0.34395442,0.25597005,-0.49748761,0.44965451,0.06770055,-0.30188031,0.05912250,0.13806326,0.02579608,0.25016388,-0.01684025,-0.24357134,-0.25689412,-0.47762298,0.48613517,0.38195022,0.45870281,0.05040644,0.15277164,0.38531147,-0.26780877,-0.20877855,-0.01639201,0.19261468,-0.21273258,0.46593432,0.11864083,-0.28784228,-0.38729493,-0.16706979,-0.17520565,-0.28134751,-0.43900200,-0.17204959,-0.30745996,0.15276797,0.04017686,0.26697624,-0.20363187,-0.43320702,0.01802234,0.27952788,-0.17744438,0.26241964,0.29811600,-0.19821210,0.13172869,0.24753002,0.34761264,-0.22051776,0.14808530,-0.38084389,0.11365629,-0.33451551,0.33113919,0.40090981,-0.37766853,-0.06833373,-0.40816572,-0.30354636,0.23459581,-0.10209050,-0.08552943,0.30934477,0.24084812,0.12078421,-0.03233735,-0.21902721,-0.11212793,0.26403078,-0.15271280,0.40500782,0.03346277,0.15595113,0.14956780,-0.18065474,0.44971178,-0.22217812,-0.41050890,0.34576527,0.10940539,0.27648173,0.48087678,-0.26671575,0.44355919,0.30195260,-0.38091234,-0.47696198,-0.29170089,-0.31300209,-0.28636167,0.44496293,0.09067752,0.13590968,0.25800705,-0.16995365,-0.24288452,-0.27428231,0.11086027,0.14190541,0.47595760,0.43991370,0.03006288,0.00284229,0.09452840,-0.31255452,0.35943217,0.09792116,0.02238249,0.49023275,-0.02899701,-0.34915408,0.27432016,-0.06422635,-0.14309441,0.17458836,-0.28113156,-0.03976225,0.19665445,-0.07513455,0.14288306,0.41601819,-0.12592342,-0.26726243,0.05250165,-0.36796166,0.06124502,0.30630590,-0.15549161,-0.34701639,-0.06934081,-0.18752918,-0.40419882,-0.53036731,0.35284436,0.24721347,-0.28066625,0.25441732,-0.11849477,0.26287196,0.26230675,0.33164572,0.37543152,-0.00550658,-0.23488350,-0.26332277,-0.32173873,-0.01651210,0.19371382,0.38217176,0.41608262,-0.16201330,0.29836234,-0.20964083,0.06897393,-0.15265038,-0.08767258,-0.39036749,-0.37011852,0.24091031,-0.23433192,0.07756781,-0.39297697,-0.07157150,0.12309340,-0.48827583,-0.29073553,0.35662071,0.27081621,0.06040218,0.07671509,0.00751732,-0.09095201,-0.02406669,-0.48460220,0.17115325,0.21371985,-0.29789016,-0.33665818,-0.09078505,-0.41571840,-0.41992069,0.24697099,0.38252798,-0.13770365,-0.20358671,-0.29813423,0.25269761,-0.09204210,-0.14572946,0.04656833,0.25200163,-0.47871182,0.20302668,-0.29207093,0.13463195,0.20195096,-0.11554957,-0.04183391,-0.02802925,0.47484878,-0.43423305,0.48720568,-0.11549444,0.04427937,-0.48856255,-0.43892257,-0.24111565,-0.28645272,-0.27512621,0.16958180,-0.20154063,-0.19703171,-0.09832668,-0.34101701,0.14153910,0.19036610,-0.12632701,-0.06259105,-0.31959593,0.31239871,-0.45455538,0.44569977,0.31865050,0.22862407,-0.37351502,-0.06743424,-0.06020963,0.04394629,0.41906608,0.41707584,0.01898269,0.48689412,0.40978607,0.40464950,0.03167244,0.42188175,0.46657926,0.29474141,-0.35920950,-0.30611296,-0.04171690,-0.07366595,-0.02030638,0.35317165,0.09802583,-0.33701855,0.10854789,-0.46768608,0.13113808,0.28364194,0.32920693,0.15847398,0.21975528,0.14152593,-0.10080831,0.37537791,-0.40288675,0.34868025,-0.08158319,-0.48081240,0.26803743,0.43934964,-0.49305653,0.17951380,0.34431589,0.04204191,0.10978902,0.31554509,-0.16464964,0.24191237,0.50069928,0.29248927,-0.32516232,-0.00644584,0.15690364,0.27714718,0.14898576,-0.24171395,0.30291152,-0.21818017,-0.44878685,0.13520028,0.45964328,0.29646468,-0.20088730,-0.13110298,0.17254197,-0.10093409,-0.28097467,-0.40637590,-0.08093064,0.48874392,-0.46699218,-0.07221077,0.18010682,0.39221527,0.48480375,-0.20955316,0.20690823,-0.18752792,-0.47972659,0.18313299,-0.42741569,-0.33592188,-0.33287789,0.23291168,0.45489006,0.33214128,-0.49970427,0.26795525,-0.36202316,-0.42485239,-0.08101673,-0.40130350,0.36892143,0.21903608,-0.03084568,0.04263336,-0.38161461,0.18882875,0.13625746,0.04046180,0.18906105,0.18694734,0.48395752,-0.12966519,0.07404239,0.45414527,0.13500909,-0.25722431,-0.26632938,0.12875980,0.42339226,-0.19547367,0.29733635,-0.40260825,-0.45345801,0.26033688,0.44320323,-0.43900816,0.03101893,-0.42303026,-0.36771690,0.44989812,-0.32335666,-0.49820410,0.16893420,0.14579766,0.04442926,0.28752888,-0.16155753,-0.31415449,-0.16822301,-0.47775172,0.36160671,-0.19908723,-0.13467267,-0.09951082,-0.27797898,0.48106289,0.13490762,-0.06000821,0.09698738,0.04779141,0.24279783,-0.10501289,0.14775989,0.28868433,-0.34748932,0.08951155,0.34792487,0.18368580,0.16730955,0.48056770,0.13358392,0.34395289,0.48236360,-0.19753427,-0.01073572,0.02663965,-0.40908586,0.32612812,0.20929710,-0.08214223,0.34116415,0.06000244,0.20633794,-0.30059517,0.45699941,0.42103335,-0.33144784,0.08139425,-0.14330350,0.26397490,-0.36895951,-0.40080867,-0.34241023,0.27945031,0.38790012,-0.18951825,-0.13052303,0.23593781,0.49416756,-0.46321348,0.21650551,0.12775148,0.38073942,0.19902450,0.43087124,-0.12844245,-0.27361534,-0.47985629,-0.30510847,0.43314878,-0.06464929,-0.46735876,-0.00882199,-0.36227116,-0.27379391,-0.05591317,-0.44378272,-0.10610379,-0.47339697,-0.08580617,-0.34223962,-0.34235330,0.01338600,-0.18464985,0.43709701,-0.09871388
0.12583191,-0.19342602,-0.36277607,0.11999946,-0.15663950,0.35372944,-0.25224906,-0.27590008,0.05259854,-0.32197946,0.09458990,0.27826049,-0.30187213,0.28945684,0.21140202,0.13284726,0.32089982,-0.29805895,0.27042064,-0.45305169,0.14599957,0.32718625,-0.05888457,0.17260260,-0.25861992,0.09887582,0.33024930,0.25476608,0.41422597,0.26734631,-0.34394780,0.04005787,-0.42607971,-0.20672387,-0.33994267,-0.08271920,-0.35299443,-0.09219173,0.14149095,0.20028755,0.08582882,-0.26393071,-0.02171931,0.28436982,-0.47442715,-0.31069684,-0.08318471,0.34632727,-0.10879233,-0.31277542,0.39327559,-0.46279275,-0.48558917,-0.16560898,0.20980985,-0.24420909,0.43326684,0.04005915,-0.48944301,0.34749281,-0.19259454,-0.33339081,-0.11244932,-0.11867425,-0.04011468,0.04760801,0.29944740,0.10807448,0.45394245,-0.06142327,-0.19297815,0.04289510,0.18057592,0.29005512,-0.17028842,0.20454724,0.47416683,0.24210026,0.04788599,-0.13514800,0.42923030,-0.05901180,-0.09795886,0.44364113,0.27537922,-0.38814901,-0.30056796,0.20864606,0.15191014,-0.29001097,0.05612096,0.45911386,-0.12458736,0.44183738,-0.16021066,0.33614421,-0.00950279,-0.36291765,-0.05780763,-0.05326594,0.08124785,0.25622187,0.49359201,-0.23916846,0.03662545,-0.18760128,0.45577604,0.00786982,-0.44483357,0.00429100,0.37268915,0.48439673,0.44527919,-0.22526971,0.42803786,0.22065841,-0.11362819,-0.37328937,-0.07144894,-0.46236319,-0.16337143,0.48256433,0.49761980,0.21355622,0.42946822,-0.16742122,0.04380110,-0.08490970,-0.02481544,0.49567847,0.37131339,-0.44155967,0.24311989,0.35692855,-0.18442645,-0.22162244,-0.33198268,-0.23129711,0.28586882,-0.27656969,0.27299388,0.15855796,-0.29217296,0.21823348,0.43188922,-0.36637925,-0.06476358,-0.18425904,-0.24179082,0.35993887,-0.15367901,0.08592087,0.34342669,-0.15723030,-0.20096505,0.26722392,0.17186373,0.34243219,-0.31206389,-0.33393510,0.35173322,-0.43601478,-0.27105025,0.09928663,0.42209541,0.04011815,0.38095005,-0.40624614,0.31007143,0.16697360,-0.18281582,0.08223708,-0.17660439,0.02042207,-0.20531255,-0.24686805,0.15362517,0.22795311,0.06101023,0.39709742,0.09058385,0.42695067,0.02720626,-0.02813551,-0.21236710,0.32575291,-0.27378959,0.47484616,0.18821258,-0.07524924,-0.35547731,0.05563120,0.01388276,-0.11169965,-0.33360979,-0.05739175,0.43075983,-0.45125025,0.03788167,0.23943742,0.21357740,0.34956258,-0.18511637,-0.46826376,-0.13102812,0.10806262,-0.21827283,-0.48063229,-0.14144032,0.39561351,0.50569560,0.51442401,0.33450768,-0.01050650,-0.07421628,-0.39904105,-0.18358057,0.16013695,-0.42347356,-0.47930252,-0.37627217,-0.24744001,0.09667137,0.14724299,0.14640580,0.26745894,-0.40780846,0.07659763,0.31359601,0.12358539,-0.19411316,0.01800105,-0.02970587,0.12843539,0.06521068,0.36061947,-0.21370939,0.40923880,0.45165511,0.17214625,0.26403973,0.36637084,0.10299382,0.06333643,-0.15127368,-0.47563314,0.15636782,0.17356411,0.21441302,0.26635904,0.22532095,0.35346592,-0.46924525,-0.17352999,0.00178332,0.17691299,-0.40752081,0.08633142,-0.25590936,0.39941728,-0.28834083,0.06908511,-0.05289602,0.21679034,-0.25507809,-0.45346078,0.11596797,0.01050866,0.38164385,-0.04073352,-0.39727621,0.12964668,-0.16291282,0.20197343,-0.31336492,0.19728059,0.25769348,0.38262358,-0.09587059,-0.01250495,0.15903486,-0.36906898,-0.15767744,0.19084141,-0.04350854,0.33717313,-0.13857741,0.04617541,-0.06104062,0.12620277,-0.02771430,0.18044185,-0.28679399,0.42091627,-0.10808479,-0.08163029,0.40056406,0.42032846,0.37288298,0.29399152,-0.08817827,-0.50629730,-0.06463817,0.27014863,0.22160432,0.15497282,-0.01342585,-0.01277647,0.04183779,0.39137112,0.47563767,-0.29658470,-0.47695885,-0.18975744,0.38967902,-0.01890697,-0.32973808,-0.23239635,-0.45928973,0.10063741,0.37438870,-0.00664403,-0.22735568,-0.41708507,-0.11770771,0.10505910,-0.02387332,-0.19115221,0.06655308,-0.12887335,-0.37972846,0.49015272,-0.12772372,0.07067248,0.26269642,-0.40363439,-0.27237922,-0.24973740,0.08359669,0.27084988,-0.35803771,0.05245548,0.47298246,-0.32735846,0.38858304,0.36679820,0.14106993,-0.47690297,-0.39936525,0.17265826,0.14559611,0.50720158,-0.33867281,0.37700461,-0.42826982,0.06571203,0.01402235,0.05270901,0.38393087,-0.42810050,0.41944301,-0.49766015,-0.44177560,-0.20764385,0.07346981,0.32170640,-0.11143884,0.30097808,-0.42663105,0.47110406,0.06841865,-0.27955622,0.04231884,0.04924945,-0.13333897,-0.11657853,-0.11912563,-0.47478679,-0.03667066,0.04996580,0.20937795,-0.44069900,0.01527547,0.36975648,0.44856441,0.09426527,-0.06989825,-0.05050453,-0.36276248,-0.19278087,0.01766184,-0.44200378,-0.19048490,0.07627500,-0.14964763,0.38275664,-0.10237458,0.23910310,0.17938501,-0.03135423,0.21506334,-0.23879457,0.18337970,-0.26936198,0.27444927,-0.43177933,0.16552901,-0.27266710,-0.40390644,-0.42927927,0.20984196,0.27447545,-0.34361244,-0.25331830,0.14512949,-0.40890039,0.32333926,-0.42972597,0.03862528,0.46203466,-0.12311631,-0.44365412,-0.47996912,0.18619261,0.13209583,-0.12923858,0.06642468,-0.48290452,-0.40990393,-0.25761590,-0.00950507,0.29896460,-0.01670606,-0.32231053,-0.42670019,-0.18438555,-0.25605520,0.19741379,-0.01654273,-0.18091845,0.30099774,-0.27302270,-0.39043518,0.44099533,-0.04502315,0.24868492,-0.47011138,-0.22154988,0.31777150,0.06880443,-0.25944671,-0.30509759,0.12498894,-0.24363758,0.37377656,-0.26140402,0.11167571,-0.06156057,-0.22393647,0.22092328,0.18600776,0.28867723,0.06600639,-0.29301507,0.45305616,0.10620430,-0.01087262,-0.28962719,-0.16417529,-0.48330465,0.04372398,-0.37693157,-0.26855161,0.15108562,-0.43437364,0.19002383,-0.10028877,-0.40405522,0.46866403,-0.28150558,0.16558035,-0.29585980,-0.09892807,-0.22683939,-0.04225223,-0.20744663,0.05032093,-0.40462406,0.24053893,0.34252997,0.35401334,-0.05560166,0.10124669,-0.11693207,0.14807642,0.09807420,-0.47845549,-0.33116534,0.31133283,-0.14530958,-0.31378368,-0.13920700,-0.01420207,-0.07302137,-0.48629968,0.05158204,-0.38216733,-0.08494834,0.14660420,-0.42040585,0.12083016,-0.20055728,-0.21976456,-0.46629743,0.10125001,0.26165853,-0.16418197,-0.33576577,0.37991184,-0.42642021,0.46118627,0.19577824,0.02234468,0.10654388,-0.40176572,-0.32232047,-0.30094179,-0.37367542,-0.14401192,-0.47606442,-0.00761278,0.05357877,-0.11290087,0.47818515,0.48115324,-0.09840946,0.02636682,-0.40894563,0.30575999,-0.33561112,-0.33516608,-0.06905812,-0.01814273,-0.02316653,-0.00966607,-0.39088648,-0.24749339,0.31139633,-0.27941980,-0.39899958,0.39223087,-0.28575722,0.30379070,-0.07769441,0.32906299,0.41188253,0.11629610,-0.45304750,-0.44946940,0.48044699,-0.42769425,0.04291782,0.03377665,-0.04067903,0.01564084,0.00409737,0.34637420,-0.46580238,0.08853917,0.15790866,-0.28074242,0.29448653,-0.37071711,0.23062822,-0.22389036,0.09425328,0.28750369,0.00564603,-0.08082194,-0.46192808,0.11360157,-0.16859376,-0.22867301,-0.07593434,0.26508674,-0.38385114,-0.15230193,-0.11368697,-0.33589614,-0.10148127,-0.13351987,-0.26465189,0.43545916,0.38762691,0.18245629,-0.05445874,-0.10590001,0.04450080,0.00981711,-0.47097301,-0.25348975,0.25284416,0.32112734,-0.16836138,-0.05606166,-0.40934489,0.44975047,-0.23771982,0.10789228,-0.11522156,-0.18689319,-0.27508119,0.22445075,0.09783437,0.15926283,-0.00630216,0.21531127,-0.49257176,0.37989778,0.37893432,-0.09738882,-0.26061276,-0.39219530,-0.16407035,-0.36308885,0.30499739,0.29933325,0.05882972,-0.13677823,-0.18793273,0.07770086,0.08391400,-0.43593521,-0.07876875,0.44386466,0.02191573,0.01077075,0.40625663,0.29075487,-0.38221867,-0.20473503,-0.38726256,-0.15337282,-0.47883994,0.21127617,-0.49364668,0.01483304,-0.07359113,-0.48809419,-0.10677719,-0.19629305,-0.08235643,0.13611615,-0.09026889,0.25541906,0.27648204,-0.27952022,0.04974056,-0.17104374,0.09125881,0.40849528,0.44620129,-0.30075231,0.46571014,-0.13787917,-0.34733982,-0.00911861,0.36458233,-0.44676242,-0.21750818,0.48200380,-0.15178364,-0.10464585,-0.17108299,-0.13062358,-0.39365964,-0.16673005,0.38483667,0.03535061,-0.14927156,-0.22475995,0.32986483,0.27126125,0.42614197,-0.23050489,0.02345692,0.19667898,-0.00741562,-0.38102527,-0.43935225,-0.40513994,-0.48729086,-0.49047779,-0.20083335,0.48021575,-0.13908980,-0.05755932,-0.03194086,-0.27553162,-0.00495663,0.25055097,-0.29352782,0.34325973,-0.35414819,0.03463555,-0.28561541,-0.24319025,0.37719094,-0.39858433,0.29011729,-0.26290555,-0.10515688,0.14105954,0.50064939,-0.19653546,0.39736763,0.03647661,-0.48055244,-0.11636395,0.13747619,-0.42749519,-0.02232171,0.15138317,-0.42599332,0.27117651,0.12917742,-0.06635428,-0.28685067,-0.40276344,0.15811410,0.20819270,0.34785183,0.36559529,0.05341233,0.49652381,-0.09651997,0.26675347,-0.25195760,-0.22745477,0.36214402,-0.46608461,-0.00723496,-0.25799368,0.16022869,-0.01740917,0.03855643,0.04840809,-0.49329793,0.04152073,0.42383049,0.14053457,0.10902022,-0.10031467,-0.20885797,0.18235694,-0.32928489,0.42031945,-0.38399733,-0.11613556,-0.48244399,0.27411677,-0.40801126,0.36538220,0.13880170,0.14343758,0.35902827,-0.46132481,-0.09236898,-0.39443651,-0.19025938,-0.23125412,-0.36277634,0.29973301,0.00572945,0.29640276,-0.22043319,-0.46086155,-0.16282382,-0.21827932,0.07944247,-0.23931260,0.42225524,-0.31153730,0.16037273
-0.28660273,0.37081964,0.33108784,-0.36628328,0.48682231,-0.28504773,-0.34872727,0.26093908,-0.19299059,-0.48338372,-0.10035788,0.45051896,0.37565247,-0.06167938,-0.14188292,0.48091674,0.24763410,0.12667421,-0.38183774,0.04729395,-0.36783611,0.41236256,0.32579204,-0.32869766,-0.25046126,-0.39248728,0.25074482,0.01022614,-0.47023204,0.43920751,-0.32940113,-0.25683477,0.31002715,-0.49831330,-0.12311805,0.29684946,-0.28336102,0.02815468,0.05782421,0.02386955,0.04477096,0.45738286,-0.02625118,-0.07998101,-0.10409110,0.33227608,-0.09869251,-0.35661462,-0.04104136,0.01950243,0.19067933,0.09112253,-0.06813502,0.01647138,0.26242487,0.18140372,0.12398410,0.01316969,-0.30837014,0.15375206,-0.04762280,-0.13777128,0.39691729,-0.23759565,-0.13608457,-0.22620076,-0.44047885,0.08075739,0.30192209,0.11724885,-0.39574877,-0.15341864,0.07397913,0.07820204,0.26635597,0.46977725,-0.08936569,-0.33152078,-0.38639183,0.36961362,0.18799089,0.30428900,-0.03926428,-0.38014413,-0.17923962,-0.27683940,0.30125959,0.44474447,0.23633028,0.49288945,0.09854282,-0.31118262,-0.14542071,-0.00602162,-0.05034124,0.21840803,0.26937917,0.01187504,-0.19585377,0.07670934,-0.36686077,-0.08889021,0.42373645,0.20602993,0.48619221,0.18572393,0.17181571,-0.10718418,0.35352863,0.28571493,-0.23757132,0.04151952,0.09000393,0.22316440,0.16137539,0.41076431,0.44632819,-0.03716005,0.35579290,0.18200076,-0.04327816,-0.04788820,0.36630228,0.30816750,0.44687456,-0.18128610,0.02430448,0.21434318,0.32911725,0.32965103,-0.20583915,0.46708331,-0.25795366,-0.28600769,0.16546595,-0.28360765,0.39287892,-0.16576553,0.10803140,0.24625982,-0.38005060,0.37046007,-0.21222066,0.20984554,0.09301840,0.44933378,0.11688811,0.03071797,-0.09856361,-0.04631498,-0.30201342,0.34857589,0.41680516,-0.42318775,0.16558325,0.36743839,-0.10070874,-0.30547418,0.09171637,-0.24612845,-0.45002830,0.39845189,-0.28429538,-0.22897904,-0.40627409,0.37101468,-0.01473954,0.48850444,-0.29410581,-0.40680059,0.23476426,-0.17625812,0.45830776,-0.48745665,-0.48170695,0.03587591,0.44610795,0.12275861,-0.43118254,-0.13602643,-0.38284503,-0.19205863,-0.26224486,-0.46455019,-0.12322735,0.39267569,0.41620421,0.31936503,-0.36889856,0.03863048,-0.42342344,-0.33190722,-0.07496624,-0.21208433,-0.05681532,0.02468297,-0.33927963,0.42840903,0.01355455,-0.14055626,-0.48582203,-0.25965617,0.17867387,0.47502383,-0.24916723,0.20454696,0.03147802,-0.25650260,-0.11956843,0.14228220,0.11794886,-0.00191402,0.43823166,0.34096053,0.05432054,-0.13563320,0.29610256,0.02066517,-0.30809474,0.42611933,-0.44349769,-0.22009877,-0.38553102,-0.00707378,0.07226770,0.05824348,-0.48200556,0.22971756,-0.01612644,0.03227870,-0.39642403,0.02198202,0.28897903,0.29828007,-0.00155015,-0.43033013,0.04995616,-0.43077286,-0.17360006,0.42732681,0.17781706,0.41318120,-0.07804560,0.13914758,0.29289447,-0.49638956,-0.50127361,0.08529746,0.01825189,-0.29249014,0.04073119,0.09019987,-0.00419732,0.15682647,-0.41585171,-0.43332009,-0.28551182,-0.39263951,0.31108030,0.21682154,0.14673233,0.41824796,-0.26778801,-0.05438315,0.23840000,0.24591265,0.00401114,-0.25825682,0.24333903,0.26224887,-0.36380429,-0.06751448,0.18063676,0.05038019,-0.45385000,-0.04381232,0.04026178,-0.44214424,-0.43594354,-0.43001482,-0.22809351,0.10539210,0.16461409,0.27146455,-0.23071718,0.25391167,0.34908130,-0.00318852,0.36694833,0.16047589,-0.30024256,0.00121625,0.05459455,-0.09549666,0.40050278,-0.27584757,-0.42650852,-0.14616210,-0.03511324,0.35482744,-0.36784331,0.08249839,-0.25340331,0.26606742,-0.39830362,-0.20611605,-0.26443804,0.14590008,-0.14669663,-0.20044974,0.21894973,0.13582789,0.41933007,-0.11483618,-0.09560585,-0.31270938,-0.35714048,-0.25719295,0.14863654,0.44113615,0.33268963,0.29308247,-0.09179787,-0.13628401,-0.32083772,-0.17037704,0.14643452,-0.17541847,0.21252704,-0.39832565,-0.37116566,0.27351590,0.13801673,-0.13168071,0.04683119,0.23999835,0.16252223,0.28286405,-0.11398144,-0.47636794,-0.40637882,-0.39387214,0.14931009,0.50549616,-0.00315561,-0.45904295,-0.37812725,0.03204699,-0.30560089,0.24120432,0.01166790,-0.41653034,0.09042291,-0.50729183,0.03427645,0.34776411,-0.14057280,-0.32440222,-0.38112970,-0.49611681,-0.25877591,-0.25630936,0.28049664,0.37889412,0.11248444,-0.17169660,0.11890707,-0.22379170,-0.38425690,-0.49271867,-0.21141303,-0.29953654,-0.38224668,0.42674331,-0.37474153,-0.00243639,0.37742847,-0.22115277,-0.35827795,-0.30279480,-0.38985262,0.22300248,-0.15085118,0.25558224,0.24981211,0.38671996,0.06738270,-0.42908995,-0.44753959,0.18894924,-0.42250191,-0.20663112,0.43299585,0.35847751,-0.32773700,0.04620162,-0.31354092,0.28855506,0.31328494,-0.20423139,0.30529334,-0.40425892,-0.05686466,0.33372042,-0.52439160,0.14100702,-0.01447979,-0.48883076,-0.49709321,0.16027717,-0.27248858,-0.37331562,-0.10820384,0.08100504,0.38182074,-0.34863836,-0.01695186,-0.04427458,-0.27120905,0.03441105,-0.35567361,-0.19374091,0.32777993,-0.42213474,-0.33608551,-0.50405447,0.11776207,-0.14651028,0.28927730,-0.07147889,0.12592111,0.05796915,0.03172818,-0.35596572,0.01407225,0.12676415,0.32984177,0.49624302,0.12136344,0.29824935,0.12297144,0.32924382,0.45144659,-0.44422302,-0.06313713,0.34622126,-0.28621416,0.42047733,-0.20095054,-0.05872869,-0.04489021,-0.05624351,0.24942733,-0.21775935,0.02055958,0.41024642,-0.21787543,-0.35882681,-0.23926293,-0.42079066,0.10491356,0.44390649,0.19937928,-0.32421193,-0.42301405,-0.33034044,0.24378407,0.35759926,-0.39567620,-0.16779206,0.17834587,0.26446362,-0.31387133,0.14824398,0.33018171,0.12872623,-0.00964665,-0.45794091,0.04928821,0.29042221,-0.01609554,-0.49576534,-0.26016493,-0.27018882,-0.21313452,0.25839715,-0.34317176,0.09688546,0.43868878,-0.03314715,0.21048940,0.03350132,-0.15964663,-0.19166528,0.11197458,-0.14124999,-0.05923014,-0.14867271,-0.26848880,0.07665534,0.20745275,0.43126404,-0.14486829,0.40064779,0.07673913,-0.31536954,0.03082928,-0.43105923,-0.27157624,-0.41835956,0.36049332,0.20872763,-0.41165334,-0.39741833,0.46514040,-0.10007655,0.38805650,-0.34628758,0.50655571,0.28010530,-0.00215155,0.07982445,-0.28911240,0.29406877,0.36854558,0.33418790,-0.32508446,-0.16090618,-0.28767773,-0.07159741,0.42436454,0.42338201,-0.14230207,-0.22050375,0.32588296,0.43599931,-0.03418346,-0.14589931,-0.50159165,0.18187844,-0.06920702,0.37245749,-0.06845186,0.05649133,0.49621437,-0.10557452,0.42537789,0.30066475,-0.08116579,0.30773340,0.01188851,0.38955010,-0.11499316,0.23728613,0.21573012,-0.21147850,0.09641398,0.41336801,0.13385549,0.31495691,-0.15923017,0.05822003,0.23730023,0.19834463,0.34126099,0.05792797,0.12235032,-0.21011034,0.41014116,0.14213503,0.51992172,-0.11388497,0.02893383,-0.08366533,0.35837289,-0.07809157,0.20319054,0.21120521,-0.30064824,-0.36666659,0.05133393,0.24693047,-0.42893012,0.47118559,0.01039344,0.30540054,-0.23364641,-0.38520774,0.21853539,0.40056929,0.42767950,-0.44400253,-0.04503818,0.16315444,0.24480337,-0.21690901,-0.28499168,-0.11852796,0.10064541,-0.33674697,-0.46529962,0.08799526,-0.02464270,-0.01313631,0.44220474,-0.18058253,0.43162530,0.20298599,-0.40275481,-0.31830045,0.37767280,0.17218175,0.44921912,0.45806105,0.14675580,-0.04042113,0.26355085,0.41378688,0.07348110,-0.02168145,0.30213036,-0.00759203,0.02946530,-0.24145503,-0.34372795,-0.21890491,0.04849609,-0.10968564,0.17036402,-0.35729120,0.02576585,0.19283035,0.24344045,-0.47514036,-0.28142529,0.23737955,-0.10022473,-0.31025224,-0.03532018,0.00276396,-0.12241584,-0.15627521,-0.32587386,-0.17628760,-0.19788277,0.32155443,0.28317292,-0.43534162,0.22433717,-0.15574199,0.03668200,0.03519343,0.34086506,-0.44384522,0.28711506,-0.49774857,-0.14257332,-0.13898450,-0.08152547,-0.42044844,0.06884129,0.48962643,0.29594324,-0.18628935,-0.47121119,-0.47299806,-0.43698874,-0.07217190,-0.28479801,0.02623861,0.42983499,0.09247815,0.37011850,-0.39568366,0.41619055,-0.33052880,0.41550794,0.19134273,-0.27192434,0.15355052,-0.45007875,0.27208530,-0.30731198,0.39798178,0.35284191,-0.47606859,0.46354963,-0.22212506,-0.05856588,-0.09956258,-0.16255994,0.48149082,-0.12621587,-0.36586489,-0.19444834,-0.09721400,-0.34039504,-0.13074619,0.33124885,-0.12450764,0.39549242,0.26108384,0.46797051,0.26503612,0.36054102,0.38074824,0.43482440,0.29180490,0.08725080,-0.32289165,-0.04803762,0.14283292,0.46457574,0.18067673,0.08764105,0.35909896,0.21383777,0.01588509,-0.40427789,-0.37878488,0.40198442,-0.05939850,-0.39048472,-0.22350417,0.07478319,-0.08362626,0.18088509,0.23497155,0.28562755,0.01213394,-0.38953609,0.18110155,-0.22600043,-0.41785081,-0.04853344,-0.35376082,0.46947351,-0.10860294,0.43922485,0.05374385,0.06799725,-0.10622759,-0.29994259,0.03529718,-0.44646185,0.24725580,-0.13973587,0.24448660,-0.24066622,-0.04273431,0.36630135,-0.33842254,0.39786854,0.47643343,-0.06109133,-0.02716531,-0.10719283,-0.38020624,-0.29219377,-0.32156528,0.13192770,-0.18076714,0.36235975,0.40846547,-0.10181365,-0.19354691,-0.45608988,-0.14009987,0.19212843,0.47545489,0.40713070,-0.24651588,-0.14106132,-0.40598089,0.27371112,-0.09790398,0.33930324,-0.36912333,-0.35530158,-0.40132543,0.08815220,-0.48900023,-0.23974797,-0.01397926
0.48743320,0.19916070,0.45885543,-0.11975963,0.31895446,-0.33333834,0.05867509,-0.04911784,-0.01506819,-0.08177021,-0.14397237,0.38163637,0.22451539,-0.10020894,-0.25906359,-0.08462147,-0.12655660,-0.35352519,0.16656965,0.22946767,-0.26096135,-0.06050268,-0.36874355,-0.42165811,0.07037398,-0.22404513,-0.32298354,-0.34147381,-0.21304536,-0.06273152,0.14454693,-0.22561216,-0.36357082,0.10340236,0.15462821,0.45538364,0.27006402,-0.28669670,-0.09380480,-0.24544194,0.13153309,0.26225105,-0.36390446,-0.14491967,-0.33833147,-0.12265989,0.27132449,0.03552790,0.02404341,-0.06200333,-0.23500443,0.26308206,0.37749399,-0.10374798,0.34142395,-0.05213202,0.17220690,-0.48155959,0.10639416,0.45916154,-0.04429111,-0.24905891,-0.26645062,0.09213807,0.35434345,0.38817758,0.04692939,0.12302568,-0.39949646,0.45295293,0.37713313,0.23078312,0.21278131,-0.48923840,-0.41725621,0.37268393,-0.10840730,0.35929581,-0.08651475,0.41762466,-0.20151385,0.17868894,0.18072957,-0.32401985,-0.42505904,0.02215353,0.12384812,0.24714786,0.04059394,-0.26975771,0.20631619,0.49601603,-0.01871196,0.44040158,0.08815055,-0.16656020,0.32478151,-0.36729518,0.45556977,0.42486982,-0.41768236,0.32743727,0.14973841,0.29396590,0.34948203,0.24817484,0.18319191,-0.25104120,0.11208316,-0.40231007,-0.33337531,0.41056931,0.27637887,0.34735426,-0.41345054,0.35131983,-0.13046932,0.21065876,0.09860827,0.41009069,0.44126638,-0.19582642,0.40334239,-0.08023982,-0.25435383,-0.00372144,0.25695914,-0.42982458,0.12200258,0.20926246,-0.50552685,0.20856492,0.04059968,0.15381115,0.01922764,-0.09110798,-0.08450574,-0.28961413,0.16097221,-0.47160247,-0.19192419,0.32759690,0.43896684,-0.41551267,0.17550169,-0.47317905,0.43638285,-0.45364405,0.23780913,0.03671883,0.45506800,0.17496523,0.33671369,0.35466131,-0.41294482,-0.43639038,-0.17076059,0.33114257,-0.36731759,0.46557627,0.05604639,-0.35336161,0.19736357,-0.37623479,0.32188708,-0.26662609,0.04136629,-0.26044807,-0.05604786,-0.29739939,-0.23205055,0.25242370,-0.46861662,-0.29058314,0.33629430,0.20509776,-0.26810105,0.27054818,0.24549897,0.45970612,-0.19743792,0.19766653,0.13289910,-0.36184268,0.05866183,0.23374419,-0.28102856,0.41251942,0.09139468,-0.12562778,0.39626506,-0.33793443,0.03850651,0.11351016,-0.19908882,-0.13342568,0.34830615,0.34327750,0.10685758,-0.20675451,-0.45303203,0.37615689,-0.45820207,-0.43218514,-0.42741865,0.37142631,0.27145849,-0.18992954,0.16237915,0.04362224,-0.19753315,0.48044195,-0.25029494,0.44790630,-0.38225890,0.31203248,0.17757979,-0.16946439,0.20862599,-0.24685976,0.21038555,0.12368589,-0.06088898,-0.23668106,-0.25661928,0.24329898,0.13103003,-0.40764834,0.08810927,-0.26313704,-0.12223196,0.12058555,-0.39791224,-0.07698693,0.20597799,-0.30246942,-0.18228384,-0.01328488,0.01118163,0.47306898,-0.45683180,0.32650263,0.44419715,-0.22721799,0.23691606,-0.46629271,-0.45590712,-0.12918005,-0.15612453,0.26716731,0.15751629,-0.41946753,-0.09456094,-0.39995533,-0.15594764,0.14873179,0.34358100,0.47128359,0.23315131,-0.07456477,-0.28959229,-0.37596905,-0.43723454,-0.17879324,0.04833557,0.26180535,0.01649900,0.37021915,-0.21921717,-0.44978646,0.34514873,-0.20130868,0.34634781,0.25483986,0.02640933,0.01956968,0.25883727,0.08784429,0.42583179,-0.36732965,-0.13063806,0.08429428,-0.28774758,0.27318471,0.18324288,0.05365317,-0.07784707,0.03008878,0.03653478,-0.34102543,0.44989627,0.23692512,-0.22105830,-0.49962438,-0.44041352,0.34389277,0.30280201,0.10948336,0.22515859,-0.41992496,0.14968901,0.04279038,-0.16970722,-0.06746085,-0.23340256,0.36820003,0.47551454,-0.45622618,-0.03772744,0.40144068,-0.32420659,0.32989660,-0.01570085,-0.11049057,0.11163561,-0.32094390,0.45316262,-0.47093827,0.18596810,-0.03002932,-0.32733001,0.13317328,-0.27990323,-0.00865245,0.19134470,-0.18780840,-0.15310097,0.00255788,0.42112416,-0.45327006,0.02134120,0.00907300,0.05183471,0.35087733,0.44633871,0.32554366,0.22057354,0.42177738,0.36930072,-0.31796372,0.32311385,-0.45160835,-0.47447250,-0.17646516,-0.04690163,0.12539188,-0.02267855,-0.13521748,0.11893094,-0.35549805,0.35303105,0.34938935,0.34806439,-0.39953525,-0.15190203,0.03725320,-0.09354915,0.16169133,0.47744894,-0.22469699,0.17763166,-0.00789613,0.28132454,-0.26745773,-0.15702854,0.22746161,-0.44159607,-0.43638414,0.15223687,0.43182892,-0.24353560,-0.00743636,0.49863695,-0.22176620,0.28818212,-0.10674821,0.34756649,-0.26534300,0.28148931,0.03567027,-0.05398569,0.16716393,-0.10484332,-0.21396051,0.24865137,0.20962860,0.27983013,-0.37281305,-0.14302483,0.25122339,-0.09992737,-0.46330494,-0.25651652,-0.31870261,-0.23076266,0.08641350,0.41173558,-0.16691627,0.16284901,0.07756962,-0.21861542,0.41586177,-0.46034978,-0.26944442,-0.35581258,0.31213968,0.13410105,-0.45220911,-0.40943589,-0.05361051,0.08149430,0.01002333,-0.41984897,0.44567784,0.27805970,0.32226274,0.15520535,0.05634568,0.44919432,-0.48665821,-0.19219466,-0.15074776,-0.44996315,0.05064573,0.03182231,-0.17359809,-0.34558012,-0.04462544,0.16413679,0.29776516,0.50472428,0.40442925,0.19033071,-0.46690829,-0.36893915,0.35946617,0.37268035,0.28958212,0.37888621,0.39830913,-0.31888203,-0.05882456,-0.08279268,-0.22670898,-0.09756534,-0.29927400,-0.40287947,-0.44245196,0.25714255,-0.45394188,-0.42915783,-0.43601611,-0.10751727,-0.37699722,0.13215070,0.44114688,-0.05539403,0.25222432,-0.14277072,-0.41608628,0.04060520,-0.13931419,0.48717794,-0.26021545,-0.08447596,-0.36262845,-0.43994639,-0.29069369,0.36402011,0.43315429,-0.36269245,-0.42208450,-0.09883791,0.06338072,-0.14939552,0.30194919,0.26408089,-0.05256463,0.35974657,0.02089487,-0.00905011,0.43298153,0.09285473,0.39210074,-0.45676874,-0.30840330,0.29388374,-0.02490753,0.44829670,-0.31762048,0.08820944,0.01472083,0.05150038,0.06712422,0.21006132,0.41558028,0.16462783,0.27829415,-0.34012477,0.06928185,0.24039322,-0.19514971,0.14306103,-0.36110386,0.36758903,0.49362823,0.44116585,0.13229916,-0.05778381,0.30037054,-0.35136994,0.41651143,0.20611346,0.20970317,0.29842989,0.26918271,0.43997498,0.14226981,-0.21889153,0.39862149,0.31118237,0.34233816,-0.12696627,-0.15979748,-0.09182593,-0.38801009,-0.20941696,-0.39700747,0.41224911,-0.04446886,0.16887309,0.15010672,0.25934126,-0.18806588,0.28862411,0.12832031,-0.18754750,0.23361897,-0.25151274,0.21379965,-0.01590453,-0.13653387,0.14843739,-0.26002037,-0.36532803,-0.00225493,-0.45697311,-0.41591545,-0.37099684,-0.19898887,0.46707961,0.44816642,-0.33511758,-0.11874486,-0.18016266,0.08601970,0.00673623,0.11358509,0.18877884,-0.08301394,-0.43158034,-0.14234807,-0.43268909,0.32927629,0.17550740,0.36129137,-0.04812762,0.45016277,0.03851321,0.17094239,0.18263648,-0.41691475,-0.39944683,-0.10876562,-0.12489846,-0.23490479,0.39214134,-0.09746617,-0.15094250,-0.45370524,0.23778095,-0.14425151,-0.48975667,0.40408582,0.24266867,-0.16910730,-0.00829349,-0.25105500,0.44438741,-0.31958909,0.16631578,-0.48588251,0.04309707,0.24040590,0.34310899,-0.30087361,0.06861568,-0.22119409,-0.33869355,-0.34871092,-0.50897106,0.39491705,-0.21710956,-0.38344608,-0.20861528,0.15701821,-0.09795468,-0.28625248,-0.40711150,0.27729846,-0.23511308,0.32337121,-0.36730370,-0.22447775,0.23008754,0.37645245,0.10668348,-0.27862274,-0.37445276,0.05275258,-0.09514876,0.29680856,0.06782745,0.44247808,0.03300825,-0.09191634,-0.36381779,-0.39975273,0.18958400,-0.18119611,-0.22395024,0.19303743,-0.27245571,0.07689274,0.33533466,0.04296792,-0.24556363,-0.24576644,0.25728443,-0.16405065,-0.47398387,-0.47743912,-0.33885709,-0.34035732,-0.20187464,0.39081470,-0.46388496,0.40526253,-0.38615747,-0.33567551,-0.03672523,0.02653194,0.46179335,-0.47925752,-0.04663729,-0.02777521,-0.08426047,0.09170854,0.08160460,-0.38255511,0.42936680,0.37609813,0.33339463,-0.32599509,-0.03225076,0.18030815,0.21046381,0.20835308,0.42449980,-0.03367660,-0.45684332,0.45034907,-0.01114777,-0.29577382,-0.39000825,0.28741290,-0.40386977,-0.35157387,0.20385814,-0.28208760,-0.19430540,-0.35396735,0.22944948,-0.22682225,-0.32426147,-0.32851057,0.23042495,0.09020857,0.28202590,-0.17073514,0.22193335,0.21657321,-0.28425315,0.05195468,0.37642780,0.16761747,-0.27807452,0.08339566,-0.12678768,-0.35451736,-0.45028094,-0.08363100,-0.40416829,0.03862721,0.12147182,-0.28967173,-0.16759591,0.22068599,-0.14646956,-0.48097680,0.43673054,0.17366983,-0.32505159,0.14929574,0.42193630,-0.15591443,0.32897103,0.16202520,0.42723621,0.09842317,0.48916234,0.14069497,-0.19550222,-0.30593858,-0.31249580,-0.32199477,0.35939651,-0.09125329,0.26140089,-0.26739116,0.05422934,0.31146690,0.15198074,0.15314367,-0.14890497,-0.22962996,0.35865883,0.17811992,0.48688066,-0.29071025,0.19281627,0.40504938,0.36570637,0.35751101,0.05519101,0.28865819,-0.30689031,-0.12638467,-0.05451963,-0.38572421,0.46678703,-0.06967675,0.25364431,-0.22970833,0.12340668,0.44093433,-0.05170311,-0.01719680,-0.15031897,-0.29030222,0.21541204,0.40375552,-0.47943863,-0.13576804,0.05390398,-0.12951783,0.13391193,-0.09070496,-0.45499878,0.11847151,0.11725130,0.23780801,0.02670440,-0.01516995,0.09803960,-0.41951967,-0.22788946,0.28590373,-0.04930441,0.21675005,0.39995887,-0.08251738,-0.35292669,0.15360318
0.18777429,0.27047999,0.09453751,-0.36392882,-0.24671681,0.44421854,-0.15423104,0.46869523,0.34812892,-0.13341331,-0.16691490,-0.09789966,0.23709566,0.46704798,0.31195627,0.28284475,0.08621993,-0.07039294,0.02116928,-0.38653016,0.41454251,-0.38292926,-0.30712041,-0.31334695,0.40297446,0.14357518,0.40340311,0.30293333,-0.43894220,-0.44952359,-0.04346349,0.24883209,0.32095640,-0.44892598,0.38490328,-0.42576041,0.49529256,-0.26932777,-0.45693157,0.34424987,0.09725892,-0.12365318,-0.25351484,-0.16466143,-0.15611320,-0.44218771,-0.38271823,0.42928783,-0.01291486,0.13836861,-0.45724233,-0.09837234,0.25543935,-0.26436274,0.08828071,0.15841381,0.37921244,-0.00831618,-0.03865286,0.44027024,0.04216023,0.41788366,0.18910234,-0.13688337,0.46895768,0.07400561,-0.06128523,0.46735004,0.30695989,-0.01703514,0.31223070,-0.09485249,0.35987158,-0.43975452,0.24336380,-0.29538500,-0.38680682,0.35553136,-0.37027719,0.09785071,-0.00814072,-0.32857564,0.49938443,-0.25270138,-0.09293838,0.08766514,0.40571243,-0.21372594,-0.42065105,-0.13294042,-0.27345634,0.12195241,-0.21462840,0.41656362,0.48993363,-0.23927506,-0.00260378,-0.06772571,-0.26985999,-0.19458395,0.41577697,-0.45638292,0.21205516,0.27238117,-0.41238078,-0.06320890,0.45930492,-0.31023642,-0.21395113,-0.41337045,0.28744478,0.27790815,-0.24194609,0.28682921,-0.47479322,0.16511552,-0.12564275,0.43118594,0.45275935,-0.04393044,-0.19951936,-0.31820186,-0.41695666,0.09111618,-0.39767886,-0.43219517,0.34354031,0.09866847,0.00091718,-0.42778632,0.39260862,-0.10374179,-0.40876716,0.07918639,-0.35548004,-0.33838612,-0.49291896,-0.39921976,-0.15049866,-0.20756318,-0.31259021,-0.36305388,-0.42965503,-0.05454445,0.42330406,-0.40346187,-0.38477020,-0.19608579,-0.46781824,-0.43248141,0.26050889,-0.16779085,-0.25677998,0.33071576,0.41625022,-0.14720183,0.41024661,0.26227630,0.43126116,-0.12155793,0.30851804,0.29951946,0.25845358,0.37958760,-0.13263757,0.39574833,-0.46021082,-0.12550347,0.49723500,-0.11071962,0.16693335,-0.31585531,0.02471480,0.23811330,0.13703797,-0.04317223,0.33962831,0.24653677,0.24880125,0.36145835,0.30539232,0.00421807,-0.30074070,-0.43447714,-0.15448277,-0.40036934,-0.12284162,-0.28376492,0.34377657,-0.20216021,0.08697020,0.13235785,-0.41225575,-0.16089406,0.01463182,-0.04428730,-0.26521020,0.05423078,0.32962162,-0.26863805,0.44078868,-0.00358404,-0.07596963,-0.02693494,-0.26283510,-0.45354101,0.42076909,-0.43248064,0.28804590,0.17628063,0.44448052,0.11762012,-0.31111067,-0.39138751,0.11891244,-0.01469564,-0.29869513,-0.48278330,0.21316971,-0.46158039,-0.19235629,-0.19821356,0.17237059,-0.11111134,0.13457170,-0.31488654,0.34364916,0.36875208,0.23693743,0.17391580,-0.39911441,0.18105357,-0.33370713,0.01483689,-0.34962463,-0.09982197,0.07063885,-0.41653752,-0.00740364,-0.11622878,0.25410867,-0.10890362,0.43343829,0.39612748,0.00196475,0.08616127,-0.08528316,0.21851305,0.09949631,-0.37103119,0.24385962,0.38530911,-0.08723993,-0.08599624,-0.22581936,-0.45352072,0.09567828,-0.38481211,0.41215849,-0.16800466,0.28302593,-0.49233349,-0.48272143,0.45624065,0.03526745,-0.31992375,-0.11326630,-0.37839677,-0.24637440,0.33177708,-0.05465022,0.47728512,-0.26878099,-0.09446027,0.40189275,0.24921793,0.48219054,-0.19490833,-0.05555344,0.05462132,-0.08333325,-0.31241534,-0.05798764,0.33008529,0.09894453,0.20820368,0.36857319,-0.31274855,0.31679217,0.28282361,0.02907594,0.10987076,0.29836798,0.06342895,0.09604370,-0.13610110,0.23741693,0.44016696,-0.06203706,0.46383527,0.26818595,0.39515606,0.45934057,-0.48601424,-0.19936178,0.36125710,0.25062807,-0.23160937,-0.33865714,-0.30497561,0.32443481,0.07907733,-0.11964640,-0.24719418,-0.10765140,0.46194228,0.45787342,-0.23084275,-0.33121806,0.28411389,-0.42923459,0.22766456,-0.05534930,0.39951806,-0.22544330,-0.50372765,-0.27442811,-0.49975252,0.44487296,0.17092614,0.48351092,0.23813032,0.08774598,0.46181226,0.25470597,0.38498328,0.32320254,0.00577806,-0.34661518,0.48470464,0.19617009,0.46640187,0.04032909,-0.44664683,-0.28401895,0.45078990,-0.45446101,-0.29939241,-0.24869331,-0.24255899,-0.46566738,-0.16690742,0.45761943,-0.05756457,-0.27786174,-0.24880012,-0.04283885,-0.05540303,-0.23614492,-0.07843054,-0.35692727,-0.23032319,-0.33182021,0.23072551,-0.26816538,0.42367156,0.11560487,-0.44626451,-0.07740162,0.25512133,-0.48691943,-0.40141892,0.21817416,0.07683225,-0.30758251,0.47825550,0.07552861,-0.21542705,-0.29752159,0.32057846,0.02056802,-0.27912997,-0.33612998,0.00840120,0.16930997,-0.13426953,0.25420634,-0.35942013,0.33597001,-0.46104634,0.07211983,0.48035633,-0.19127941,0.24068849,0.21108184,0.03955889,0.15651352,-0.19236180,0.06319772,-0.44057233,-0.43226678,0.12083459,-0.28915003,0.33355566,-0.26532060,-0.06698442,0.32364265,0.30301981,0.20703772,-0.47592133,0.14383123,-0.25169109,-0.25571902,0.28170365,0.25167520,0.42759058,-0.32784932,0.02435742,-0.42388985,-0.48991553,0.06289988,0.14826138,0.49044080,0.37012819,-0.11783215,0.18439565,-0.11278713,-0.47319230,-0.50113988,-0.50651521,-0.36058337,-0.38007717,0.13670368,-0.13314467,0.46703342,0.37476553,0.29685294,0.29565807,0.19270248,0.02096042,0.31427046,-0.17795204,0.27702633,-0.43055702,-0.38095183,0.03955696,-0.49894897,-0.20757320,-0.43787600,-0.42292071,-0.19738262,0.12544550,0.22323800,-0.21591298,-0.01547184,-0.40519049,0.47489277,0.40163717,-0.33700374,-0.48124260,0.41789549,-0.17764937,-0.33867846,0.06561357,0.18540924,-0.39178613,-0.06454808,-0.00615793,0.40502187,-0.36852705,-0.47817262,0.21999188,-0.04395244,0.30305785,0.29328456,0.07429763,-0.16035245,0.29418662,0.36658867,-0.09732292,0.37577831,-0.32733467,-0.47087956,0.09842781,-0.03504940,0.02526361,0.21469606,-0.04125481,-0.06532645,0.38706768,-0.00574109,-0.13951261,-0.29705801,0.12752023,0.41042432,0.39034143,0.25082265,-0.14394889,-0.11868355,0.14997259,-0.01657434,-0.10101210,-0.13409921,0.43258654,-0.30214519,-0.34089063,0.00717386,0.03867877,0.46023067,-0.11190175,0.46000122,0.34867126,0.06065299,0.47905220,-0.07258691,-0.48360469,0.01432194,-0.34253668,-0.01609828,0.43700906,-0.48101743,0.44873527,-0.21366028,-0.27856154,0.08102914,-0.31143274,-0.40660181,-0.18408831,0.03275385,-0.04207940,0.44959632,-0.49518965,0.35312839,-0.18450290,0.43845602,-0.44776502,-0.01599721,-0.03842648,0.11947959,-0.03562110,0.35000542,0.05608414,-0.22334312,-0.10863651,0.03652509,0.21889158,-0.10725239,0.50140192,0.31757858,0.34457009,0.42067674,0.32573117,0.27164502,-0.32249391,-0.47534722,-0.15990433,-0.14367152,-0.39673065,0.14267331,0.38188114,0.05975068,0.09226962,0.38673693,-0.08554392,0.41905483,0.34308163,-0.00695798,-0.07902994,-0.19154695,-0.41330469,0.35048818,-0.36858983,0.13200350,-0.39377087,-0.03110375,-0.41143332,0.24923106,0.32171016,-0.43866220,0.03979403,0.13435972,0.45684851,-0.14133971,-0.08868112,-0.36073602,-0.12158967,0.24471019,-0.00717525,-0.01868163,-0.11232636,-0.12526119,-0.45794820,0.48872969,-0.22076871,-0.02777146,0.41572640,-0.38072301,0.44843675,-0.20191359,-0.11498857,0.50653308,-0.39249424,-0.04851961,0.05438028,-0.35481278,0.37679618,0.10864118,0.36611871,0.18805179,0.17355508,-0.07906646,-0.15786591,0.14508153,0.27970086,0.24839663,0.28196177,-0.34174809,-0.00608857,-0.22522276,0.13975357,0.38311285,0.15720609,0.19073822,0.37483672,0.42236131,-0.35115749,0.26073692,0.50352975,-0.43481872,-0.47504002,-0.15009373,-0.48366526,-0.41360849,0.26328984,0.04379747,-0.27927073,0.16114669,-0.31189697,-0.37936347,-0.12333415,0.37881372,0.04366917,0.21711908,0.02235565,-0.17632971,-0.03368371,-0.19568593,-0.01818891,0.45885130,0.07822340,-0.38009613,0.33916206,-0.27233663,0.30380419,0.20794467,-0.35650158,0.44010633,-0.05309684,-0.37838978,0.46968042,-0.05006969,-0.04535410,-0.51730146,0.05361037,-0.23460901,0.07718636,0.31095491,0.45148573,0.28056198,0.43661150,-0.16879065,0.16001667,-0.01959441,-0.45138545,-0.31762768,0.30346996,0.01360223,-0.01576697,-0.21943898,-0.02448002,-0.42419452,-0.08356151,-0.17624993,-0.20153453,-0.28355411,-0.47820582,-0.06809505,-0.35705303,-0.04216752,0.05037319,-0.38150088,0.43446318,-0.45046720,-0.35536373,0.01274938,-0.17065988,0.23058472,-0.16926529,-0.21384167,0.01314433,-0.23265380,0.11736769,-0.32683900,0.24768805,0.16559349,-0.14624965,0.05033183,-0.31581783,0.35035464,0.34491071,0.15996356,0.41392837,-0.24740222,0.47651104,-0.29697300,-0.04612218,0.49203567,0.13286103,0.09878364,-0.03560826,-0.29622615,0.23630260,-0.09073736,-0.24032211,0.38339482,0.42741452,0.09411939,0.11549734,-0.24185078,0.38027772,-0.37135833,0.02536638,-0.00350635,-0.19882121,-0.22637895,-0.33399208,0.15953388,0.32868538,-0.15024792,0.00338616,0.16642160,-0.49676317,-0.08969922,0.40910468,0.47159108,0.10780177,-0.13832642,0.46685306,-0.25375031,0.46443162,-0.06674168,-0.04771354,0.20117475,0.34429865,0.21413777,0.08504557,0.27171316,-0.19174284,-0.29945710,-0.47013762,-0.31146512,-0.16982649,0.05772747,0.18843339,0.13173314,0.32862588,0.34983465,-0.21145907,0.15414853,-0.30493287,0.28827003,-0.18325867,-0.30486525,-0.30455308,-0.27641053,-0.33197890,0.30544065,0.08795298,-0.36437273,-0.44829378,0.05238876,0.06888559,0.00399269,-0.24643649
-0.08681577,-0.28186955,0.33860908,-0.31510260,0.02638761,-0.46084802,-0.28524022,0.21492249,-0.13166344,0.27011759,-0.09889723,0.49932379,0.09872261,-0.24908930,-0.21235299,-0.24759748,-0.05474065,-0.42447072,0.06898305,0.14022036,-0.22901267,0.29378049,0.30883675,-0.42357202,-0.11826654,0.44446401,-0.37186580,0.43412223,0.01334960,0.13212689,-0.31231426,0.42653383,0.35025734,-0.47370518,-0.38856877,-0.12335505,-0.43455320,-0.17380899,-0.40856648,-0.06704699,-0.40369140,-0.00814839,-0.06910689,0.19369702,0.24250447,0.21998042,0.44711099,-0.31115974,0.29628344,0.01641677,0.32906062,-0.43272922,-0.18980275,0.13789737,-0.35630124,0.19193072,0.08236138,-0.22816704,0.12605294,-0.40428902,0.40395985,0.31373868,-0.47775519,0.25421719,0.34003350,-0.36632396,-0.37028191,0.40342984,-0.03915095,-0.27715311,-0.16261935,0.05296113,0.21122235,0.26602894,-0.25517948,-0.04605867,-0.00738627,-0.30058170,0.14786551,-0.21057147,0.21505735,-0.02341840,-0.14332080,-0.47474540,-0.38552103,0.00037796,0.21718532,0.19684035,0.27221092,-0.15676174,0.29272578,0.17676637,-0.34038210,0.31907257,-0.06635024,0.50137715,0.45236646,0.06221465,0.40087277,-0.09593087,0.27607637,-0.26932491,0.45347676,-0.01220492,-0.49100985,-0.28483882,0.45795076,0.00726638,-0.08563769,0.10498118,0.29665863,-0.37058034,-0.41843722,-0.34666217,-0.34532574,-0.30395825,0.15377555,0.37279523,0.39508035,-0.07123033,-0.27962521,0.19605298,-0.38776711,-0.12136841,0.00211369,0.03618571,-0.13060513,-0.05945731,-0.42601026,-0.25261798,0.32872267,0.35058896,-0.00745424,0.30714158,-0.13289893,0.02464360,-0.46337301,-0.16634510,-0.46529417,-0.04836006,0.43863608,0.33136446,0.08105960,-0.47978311,0.48518470,0.23884600,-0.27746592,0.14837194,0.12232670,-0.36925030,-0.41503943,0.32454103,0.28275511,-0.35036425,-0.33237040,-0.24934459,0.14415686,0.00313491,0.18584426,0.23464920,0.29169501,0.07826976,0.15988241,-0.14799913,-0.06722117,-0.45130007,0.37513629,-0.04063797,-0.12007197,0.41091913,0.41100197,-0.18108813,0.24303485,-0.00086741,-0.15299233,0.23974674,-0.25031034,0.07519919,-0.13768218,0.32083771,0.14775890,-0.09606760,0.12766135,-0.08360568,0.03891816,0.29112643,0.20901286,-0.24806531,-0.11701411,-0.01191935,-0.40379147,-0.23524913,-0.39685898,0.25848414,0.09671399,0.01461331,0.30413348,-0.02290425,0.47902949,-0.31390421,-0.10737605,0.39928564,0.01197524,-0.36363450,-0.10837130,0.33464732,0.33511440,0.08942580,-0.11660370,-0.28324211,-0.06438614,-0.46334352,0.12417209,-0.40723338,0.01872457,-0.25929227,0.45022602,-0.22663319,0.06396413,-0.11663445,0.27125594,0.12625165,0.11647815,0.36387961,-0.11061093,-0.27419034,-0.11324853,-0.30398150,0.20966521,-0.12672601,-0.12170008,-0.40961473,-0.24485763,0.36695261,-0.29378804,0.12845810,0.21141755,-0.44264906,-0.27202912,-0.39835948,-0.19907955,0.20571213,-0.30027470,0.46372270,0.29412569,0.19758241,-0.29758481,0.24025714,0.44181157,0.23574190,-0.37785209,0.24000400,-0.12246787,0.24973232,0.10710464,0.26836871,0.47916229,0.49194747,0.45777972,0.17825397,-0.14594466,-0.18227404,0.24771353,0.09232469,-0.29783218,0.47243401,-0.27551571,0.42084286,-0.42126825,0.01989406,-0.41710671,-0.12750366,-0.31078270,-0.27758875,-0.19837903,0.45458136,0.40614506,0.01830044,0.23970747,0.40442387,-0.22796568,0.36462140,0.14361042,0.14993705,0.11309534,-0.25003225,-0.08415317,0.08630773,-0.26859615,-0.15375219,-0.26909277,0.08421650,0.19699137,-0.48636422,-0.31412452,0.41097822,-0.46880174,-0.01186400,0.38603910,-0.40483849,0.46476791,0.41632945,-0.04763338,-0.35314118,-0.34017036,0.28961486,-0.34779790,-0.39876179,-0.18348902,0.39226188,-0.49490484,0.08800923,0.25415953,0.14974815,-0.26307285,-0.13166258,0.38665249,0.13282206,0.43371845,-0.37034689,-0.49754714,-0.31156549,0.20751718,0.22400006,-0.22979763,0.47768476,0.18240308,-0.20221388,-0.06981732,0.04253682,-0.11968398,-0.09047960,-0.01667578,0.35656357,0.07970482,0.15077077,0.14710804,0.23205367,0.25198576,0.46282726,0.12403075,0.26251125,0.05805059,-0.11690940,-0.09180468,0.28529144,0.26198613,-0.18314327,-0.07795465,0.16017364,-0.10542544,-0.06199120,0.43927080,-0.28698533,-0.27559157,-0.29518632,-0.34082431,0.38662521,-0.00707768,0.11837652,-0.04742877,0.39002985,-0.46161069,0.43887931,0.24720533,0.11813520,0.08960582,-0.10544096,-0.14388059,-0.14762093,-0.12984370,0.49184808,-0.38539025,0.43232708,-0.10153027,0.03204860,0.17097064,-0.45703784,0.24743266,-0.39600510,0.31346077,-0.20094613,0.15050227,0.26677255,-0.02620504,0.33404772,0.46482811,0.15333117,0.24157311,-0.03143412,-0.21675601,-0.29756417,-0.13906258,-0.17834638,-0.35868486,-0.39178431,0.44766206,0.24555910,0.02664803,-0.18122099,-0.39389583,0.38858260,-0.20800005,-0.30795323,0.23569945,0.06067916,0.11587625,-0.07330551,0.24364100,0.05024553,0.15078141,0.06138727,0.27309130,-0.26291912,-0.19180194,-0.25890292,-0.42318328,-0.21936696,0.40961189,0.32944582,0.25146381,-0.30718831,-0.46811836,-0.38691120,0.02019143,-0.31502626,-0.25589186,-0.01013820,0.45155522,0.25655265,0.26631406,0.47481856,0.06113981,-0.52587501,-0.39728597,-0.15225051,0.17109176,0.37288513,0.35805243,-0.11491386,-0.16788860,-0.05599662,0.40977339,-0.40906711,0.17628508,-0.28194174,-0.15813766,0.26091114,-0.00151550,-0.24949466,0.09031607,-0.24999395,-0.05225763,0.13366757,-0.11733255,0.49078966,0.32833801,0.09218121,-0.10045365,0.16943307,-0.23107895,-0.37844712,0.15094346,0.40825754,-0.30151507,0.36456021,-0.22406905,0.31409797,0.14926719,-0.43338435,-0.33861256,0.48084460,0.00826845,-0.44287672,-0.43169607,-0.31267459,-0.22577632,-0.09115157,0.44828819,0.27268965,0.16478949,0.04972659,-0.46516378,-0.38651069,-0.34683950,-0.14568435,-0.50777213,0.38636050,0.42830491,-0.05114537,0.14355114,-0.19790826,0.15090345,-0.16004493,-0.33728826,0.29145242,-0.35312110,-0.09829915,0.09075745,0.31651711,-0.02502682,0.24132865,0.28650966,0.48284566,0.29531016,0.35441835,-0.32990058,-0.42950842,-0.22886597,-0.37539172,0.33992774,0.40030951,0.11916541,0.30086021,-0.56050715,0.25707807,-0.29074441,-0.44496862,0.26075240,-0.27065015,0.06780577,-0.07217759,-0.03714653,-0.33948549,0.25473933,0.15351281,0.48233800,0.42602740,-0.43195842,0.07009277,0.22987084,0.03502379,-0.19319436,0.01638050,0.01783129,-0.39420524,-0.11842069,0.19947199,-0.33707206,0.10280233,0.24629147,-0.57272431,-0.02494951,-0.09981005,0.33077999,0.05559816,-0.23610468,-0.37687140,0.17408511,-0.44544502,-0.17751464,-0.29453443,-0.01061144,0.34174468,-0.08374010,-0.25111419,-0.00346204,-0.10553135,-0.33285001,0.05367342,0.46201878,0.39702083,-0.41034079,-0.22760649,-0.07906398,0.11520052,-0.13687449,0.24666773,-0.27214054,-0.03676250,-0.16117901,-0.45807293,0.01208737,0.44857920,0.04978673,-0.07660969,0.05607155,0.34102837,0.04271295,-0.27922432,0.40717918,0.41097055,-0.04935075,-0.11359034,0.25229610,0.36446673,0.13406648,-0.25866918,-0.24276381,0.30123163,0.29660844,-0.27720906,0.20454224,0.39295382,-0.01687646,-0.41589262,-0.06228147,0.30577745,0.34794865,0.25861902,-0.12696053,-0.21321010,0.36821080,0.43817267,-0.21072218,-0.05911593,-0.11809032,0.33949773,-0.20643460,0.45877364,-0.43020871,-0.30215531,0.37039887,0.02170305,0.08391730,0.11635634,-0.11518366,-0.28200753,0.35824166,0.14563471,-0.47623134,0.15475663,0.35469150,0.19481972,0.00014813,-0.19425356,0.28131792,-0.50360253,-0.32699244,0.18880093,0.27899800,0.08989074,-0.46975719,0.18826551,0.05508315,-0.18279355,-0.35246704,0.46620888,-0.32618973,-0.05567173,0.41924992,-0.25517657,0.14150091,0.28659345,0.26609047,-0.27457331,-0.09698708,-0.34736121,-0.05053875,-0.23412674,0.29955797,-0.03470523,0.39424131,0.11645184,-0.35837072,-0.09592281,-0.54379557,-0.53092365,-0.04774162,-0.30303326,0.22048572,-0.22613921,0.31435262,0.27860724,0.49652602,-0.10559534,-0.39757027,-0.36590043,-0.14809116,-0.22430843,0.07741085,-0.22954842,0.02052153,-0.28107329,-0.44295497,-0.21086154,-0.04695919,-0.02956359,-0.04103332,0.40832469,0.22134382,-0.27285276,-0.15319460,0.13426351,0.38370346,0.02183902,-0.43183215,0.36770472,0.02933697,0.05663189,-0.39110386,-0.21373066,0.35583489,0.42552615,-0.45167817,0.33393279,-0.18712405,-0.35112653,0.46665409,0.16437108,-0.07543496,0.04406494,0.43482266,0.44530725,0.26707090,0.50051907,-0.25681803,-0.28401650,-0.04040866,0.18263484,-0.39309885,-0.32074310,0.40657171,-0.04693009,0.31129877,0.28898389,0.47857684,0.39172055,0.17683937,0.01935911,-0.04667666,0.27396800,0.29026576,-0.20149012,0.19590563,0.33723452,-0.36845188,-0.49144805,0.48610799,-0.40179779,0.17292303,-0.08910439,0.14442589,0.11080274,-0.14261151,-0.09569177,0.10040956,0.08911694,0.11317163,-0.44774859,-0.24286411,0.20858329,-0.27623374,-0.34264301,-0.34326147,-0.46709257,0.44247317,-0.36962051,0.42115019,0.11380598,0.14517925,-0.12924058,-0.11305042,-0.06494526,0.16894048,-0.41721680,-0.22771074,0.30048860,-0.40866485,-0.24160275,0.39869081,0.26389096,0.16770136,0.03924678,-0.12860102,-0.47517438,0.44620954,0.47154281,0.11193616,0.05825308,-0.47730929,0.36874436,-0.23354903,-0.25284581,-0.47361551,-0.07969305,-0.22251218,0.46614657,0.04912129,-0.30195194,0.07979774,-0.30569946,0.06880748,0.46674733
