-0.34766499,0.47209687,0.35389688,-0.03872570,-0.33655271,0.19368511,-0.12363596,0.22843092,-0.36746611,0.19415332,0.00946120,-0.01598397,-0.29800986,0.34773967,0.22682635,0.37329406,0.42268117,0.38238931,0.18251744,0.48191943,-0.18518909,0.11389221,-0.16617467,0.10165704,-0.37447645,0.10456048,-0.02799022,-0.44617989,-0.29869234,-0.20478816,-0.05898486,-0.14635733,-0.23269130,-0.20508798,0.31491697,-0.06924400,0.48859713,-0.30871899,-0.34081291,-0.37886791,0.38543433,0.16865186,0.10517250,-0.41254205,0.01639616,-0.16801912,0.46072227,-0.06093105,-0.28563730,0.14323598,-0.07901162,0.02917362,-0.24287182,0.25481371,-0.36916935,-0.11734827,-0.14062581,0.10284043,-0.06352816,0.06068185,0.39805227,0.37748698,0.41432452,-0.33463903,-0.32760100,0.22924150,0.09612306,-0.33895105,0.42054702,0.25532161,-0.21776086,0.30609503,-0.07561446,0.38791970,0.39399568,0.44083279,-0.28058609,0.35423943,-0.12049735,-0.06638259,-0.00266418,0.30039711,0.46278391,0.25446400,0.05521082,-0.40638543,-0.36288427,0.41458501,0.19645500,0.07358757,-0.02473191,0.09451530,-0.04891561,-0.11039744,0.25991814,0.12355052,-0.38103990,-0.14384486,0.28487077,-0.45987546,-0.38749710,-0.43191296,0.34665211,0.03633224,0.45451275,0.23908199,-0.02426502,-0.32687568,0.09279339,0.35498961,0.10672890,-0.40987079,0.15538672,0.06951282,0.34459320,-0.28940246,0.16312878,0.48171902,-0.37479927,-0.14038867,0.05530570,0.10039887,0.45399743,-0.49364653,0.49015829,0.21418405,0.13044097,-0.39001537,-0.42836898,-0.08316208,-0.34911571,-0.31682561,-0.01848729,0.49348323,0.21629204,-0.06529637,0.23221347,-0.30794583,0.10790071,-0.17497174,-0.45295623,-0.28537039,-0.08484253,0.20243147,0.28415259,-0.24021924,0.41301995,-0.05279998,-0.25872869,-0.46206993,0.30665363,0.29656467,0.13846224,0.26073849,0.30303006,0.12924179,-0.02382594,-0.06504911,0.23962816,0.04634084,0.34736160,0.38531905,0.22575405,-0.17188543,0.37944328,-0.05741009,0.26296214,0.11157979,0.13460251,-0.12912007,0.43660806,0.18165433,0.08554234,-0.14821711,-0.11598101,-0.13057376,0.11103223,-0.20351851,0.31641316,0.35254655,-0.16527340,0.12309303,0.14919105,0.47350033,-0.11547425,-0.04668266,0.10319541,0.35962970,0.38513339,-0.16028868,-0.09578224,0.23297913,-0.27400431,-0.36951243,-0.43870806,-0.39461649,0.07308184,0.32429320,0.21698140,-0.29235960,-0.30485367,0.15360635,0.38924158,0.28044016,-0.49515245,-0.22688318,-0.34972919,0.11683014,0.07023662,0.46671978,-0.03062726,0.40543413,0.09131662,-0.38003552,0.38033837,0.47578472,0.07224721,-0.01762635,0.33530422,-0.04194792,0.32256482,-0.26032663,-0.30872483,-0.45122726,-0.12964616,-0.24730269,-0.34581355,0.44339968,-0.42300997,0.37120692,-0.34883495,-0.22782044,0.02458110,-0.45943750,-0.44692239,0.03033351,-0.18576637,-0.29623120,-0.35238339,0.38567015,-0.32755455,0.11864111,0.29157757,0.26216726,0.23682375,0.17052931,0.23744077,-0.19143164,-0.34796049,0.07235827,0.26702510,0.47521023,0.31239638,0.45848941,-0.47599359,-0.31721538,-0.28875059,-0.32174178,-0.37371357,-0.21170223,-0.45054051,-0.22236936,0.06069726,0.07452210,-0.18109645,0.11433594,-0.39425654,0.13426163,0.31969091,-0.24620139,0.01747697,0.48777304,0.36909630,-0.19309024,0.24840451,0.10400746,0.47585720,-0.01464820,0.41317475,-0.37133589,-0.44194805,0.18029535,-0.39608976,0.37055249,0.13891068,-0.37194045,-0.44656556,0.35035128,-0.19347215,-0.32029265,-0.36182964,-0.14393297,-0.04245124,0.19930003,0.43094447,0.27677158,-0.18547229,-0.46410687,-0.09259606,-0.37056268,-0.21377645,0.42257962,-0.38537845,-0.34754541,-0.27187959,0.36298541,0.25718341,-0.29558665,-0.15149524,0.17038530,-0.16689249,-0.09330944,-0.14911136,-0.06282761,-0.22285484,0.48996162,0.06509148,-0.17004892,0.33952514,0.37147538,0.01007140,0.47796487,-0.27255316,0.46812070,0.17840852,-0.34231531,0.24257054,0.48983903,-0.30907088,-0.35272424,-0.38467624,-0.02595922,-0.43119137,-0.26969583,0.12704619,-0.20293693,-0.40666293,-0.11576194,0.00149087,-0.05806646,-0.44520699,0.33474430,0.34859516,-0.09434732,-0.22865751,-0.37501597,-0.10500727,0.33686201,-0.04450449,-0.26587050,0.20835561,0.46716031,-0.28593508,0.43564531,0.43406381,0.39030319,-0.40924008,0.17268772,0.37509556,-0.22157113,0.31899509,0.49073905,0.25282034,0.38781968,-0.27897059,-0.12012231,-0.31512267,-0.18561739,0.26422511,0.18648623,0.25644891,0.31889973,0.02052487,0.10429799,-0.27565305,0.29258385,0.22976664,0.11957105,0.13045851,-0.31213326,0.35558175,-0.16141303,-0.34640579,-0.43302863,-0.22922921,-0.41727257,0.45223484,-0.14153415,0.25452525,0.32744178,0.13715751,0.07347176,0.31812126,-0.11001662,-0.03870855,-0.46083554,0.26991391,0.14632967,-0.14613954,0.03428361,-0.16765711,-0.39020795,-0.14696265,0.35350704,0.21451462,0.07836869,0.14841645,-0.05241265,-0.30175059,-0.22255083,0.13236699,-0.44981057,0.11151903,0.28115900,-0.38696662,0.37986078,0.36312358,-0.43463093,-0.26148999,0.11754557,0.39272771,0.37566735,-0.30898267,0.21084079,-0.23433430,0.15230808,0.25036967,-0.46379388,-0.20086048,-0.39537976,0.07052849,0.13195152,-0.28465250,0.42588449,-0.01060292,0.43235933,0.00220523,-0.36728278,-0.12629965,0.19583951,-0.09449823,-0.49807106,0.24296447,-0.48446936,0.28275182,0.35618584,0.39543631,0.14571088,0.42145062,-0.36606497,-0.23674235,0.31416064,-0.49052151,-0.04596326,0.02526529,-0.22400440,-0.39203103,-0.22291511,-0.18712910,-0.09236131,-0.11742966,0.38571879,-0.45775507,0.09658332,0.30547436,0.02238672,0.02107374,-0.19759107,0.15110664,0.39115620,0.49575179,-0.44425628,0.39318317,0.23897790,-0.42869481,0.17580637,0.09507412,0.46672462,-0.17849317,0.01652167,-0.39962297,0.08437059,-0.16953190,-0.38935344,-0.45960949,0.35769549,-0.11191603,-0.35067342,-0.36393978,0.20270398,0.05651139,0.01325770,0.07901357,0.08813980,-0.39803776,-0.12056419,-0.39280347,0.11985510,0.17995353,0.25803397,0.01178465,0.17638691,0.31400612,-0.09511963,-0.08470108,0.38530498,-0.41932176,-0.48961064,0.35180138,-0.09830302,0.02605127,0.45238295,0.48777294,0.35920053,-0.43384976,-0.46919849,0.21922321,-0.04561185,-0.32361142,0.34732227,-0.35364090,0.22299348,-0.14645943,0.22100834,-0.19152194,-0.04630240,-0.40026554,-0.08366816,-0.42501741,0.28069416,-0.32535427,0.08664845,-0.04296874,0.48865185,0.49155119,0.37236895,0.37389640,-0.42836729,0.38149344,0.22493821,-0.02579886,-0.08899389,0.18249694,-0.03299208,-0.22655419,0.24667249,-0.00899437,0.48273664,-0.30875217,0.15920783,0.32444074,-0.16601730,-0.11949244,-0.32282717,-0.44435257,0.19039524,0.13249645,-0.34360657,-0.39299231,0.20741041,0.43707471,-0.21834658,-0.20594104,-0.10587105,-0.22980695,-0.21490131,-0.23481072,-0.35700972,-0.14236569,-0.34926316,0.37392733,0.33725342,0.06356728,0.05214855,-0.20435472,0.32707197,-0.20939369,0.28029236,0.30568494,-0.02039177,-0.06082322,0.13054798,0.31515098,0.32143211,0.30909973,0.37160256,0.01210166,-0.05840578,-0.47200484,0.11911347,-0.35099856,0.46507742,0.40068329,-0.05735636,-0.14183075,-0.33017579,0.22844561,0.12687363,-0.18224926,-0.41038700,0.27703887,-0.31308134,0.41917281,-0.16705252,0.23340750,-0.28900312,-0.34160110,-0.47593158,0.49269000,0.46559296,0.00549150,-0.06661673,0.09700655,-0.17881480,-0.24499067,-0.09388709,-0.30720934,0.26711458,0.34770570,-0.27920289,-0.11378729,0.49650812,-0.31475095,-0.21354798,-0.05964478,0.04595989,-0.04078387,-0.33117461,-0.33000252,0.27249271,-0.24599628,0.44430800,0.45773621,-0.32772207,-0.22203587,0.19290906,-0.11445445,-0.06184911,0.21845588,-0.12085001,-0.09577862,-0.27575027,0.31265114,-0.49876467,0.04543824,-0.43233600,-0.09265179,0.23822887,0.33474517,-0.24502617,0.45886040,-0.27890124,-0.24752244,-0.35396566,0.00865328,0.19104373,0.18871891,0.46494272,0.35879067,0.35927133,0.23804849,-0.38620123,0.30549048,0.19828174,-0.21167797,-0.41528954,-0.10809247,0.17427300,0.02314836,-0.38950594,-0.44654154,0.42737739,-0.16525444,0.36611367,0.42861272,0.38018508,0.43375046,-0.16406056,0.11854372,0.26895824,0.09165468,0.07845520,0.49019929,0.34299175,0.22207266,-0.00280950,0.03363141,-0.08889105,-0.03727090,-0.10618541,-0.22739594,-0.29694177,0.00905675,-0.42137056,0.40155252,0.29756199,-0.33648808,-0.20649776,-0.02818443,0.18666027,-0.09600371,0.02527403,0.11403767,0.23874124,-0.10860947,0.04270322,0.11915558,-0.17435821,0.37937112,-0.26178455,-0.40576746,-0.03019868,0.31487895,-0.41660159,-0.18754452,0.03675203,0.08057344,0.34649882,0.44918376,-0.45550263,-0.25896615,-0.27799420,-0.25241697,0.25017489,-0.19930644,-0.35085756,0.04772860,-0.03579356,-0.05735532,-0.48045583,-0.34913328,0.34663957,0.04480970,0.26492507,0.08556600,0.43652287,-0.19205728,-0.29526073,-0.23823866,-0.31359829,-0.05818103,-0.14464209,0.15593644,-0.24354589,-0.06168821,0.46812182,0.29343994,-0.48077589,0.31494197,0.24273929,-0.43629149,-0.44402615,0.46474765,-0.18870625,0.30615013,-0.23455849,-0.03956381,-0.14612127,0.22964795,0.40308087,-0.12657710,0.38051670,0.24974508,0.41829834,0.14546466,-0.16488905,0.35445277,0.45300107,0.03948042,-0.38410872,-0.36082209,0.48108608,-0.02905343,0.29496123,-0.26252703,0.40928390,0.26313874,-0.46905131,0.42851496,0.07808079,0.27368800,0.49222346,0.13405465,0.23843565
-0.19648278,-0.05979523,-0.49612284,0.26395341,0.29408350,0.23352511,0.16703428,-0.33249360,0.11403978,-0.08324387,-0.41425250,-0.24054117,0.25186080,0.44019449,-0.28756736,-0.20872603,-0.44398724,-0.14842742,-0.22766602,0.02692392,-0.35349366,0.00980657,-0.06378751,0.40964508,0.04075526,-0.13527255,-0.01227412,-0.18555674,-0.14304909,-0.37821948,-0.44712109,0.16046813,0.06198530,-0.44324394,-0.07557846,-0.14393120,0.29028117,-0.40854418,0.02357244,-0.09569610,0.00821195,0.10929937,0.16371695,-0.23997432,0.04947502,0.37619182,0.05134018,0.10552994,-0.27221500,0.32368070,-0.36754614,-0.12570866,-0.16651273,0.06866635,-0.21606357,0.37424252,0.43339380,0.27166230,-0.31131422,-0.20965529,0.39344282,-0.25843531,0.45081284,-0.04457188,-0.20167925,-0.12476562,0.31146753,-0.41147063,-0.03331106,-0.16495573,-0.00721801,0.47473633,0.44405407,-0.34362004,-0.26528726,-0.00623994,-0.46710899,0.28631648,-0.40055845,-0.23929992,0.11000234,-0.26810421,0.13499142,0.44348961,0.30056214,0.41892785,0.31773213,0.23395594,0.19059015,-0.49358209,-0.47569818,0.08403398,-0.25201043,0.47512163,-0.46057902,0.04621905,-0.14977001,0.35087969,0.13466076,0.31657689,-0.31452915,-0.37265073,0.29165483,-0.36990990,-0.21570748,-0.47321793,0.12429011,-0.18255413,0.31323677,0.22377881,0.07814595,-0.07676089,0.45567460,-0.28686263,-0.13327129,0.25623674,-0.36794501,-0.31554702,-0.00978976,0.32266777,-0.30905264,0.01456386,-0.09336668,-0.06127015,-0.01074737,-0.05437723,0.48425483,0.33881835,-0.20414735,0.11885812,0.15592765,-0.01765349,0.24720727,-0.05141332,0.11347126,-0.46758365,-0.02412553,-0.26210067,-0.15012524,-0.21091512,0.46167814,0.42802071,0.21232399,0.41734952,-0.35890082,-0.42098229,0.17361645,-0.22673958,-0.23631036,-0.33603519,-0.40426349,-0.04611389,0.17750664,0.00143534,0.39205614,-0.33339682,0.44751469,0.37737647,-0.49319967,-0.25494683,-0.00194669,0.16458249,0.22901038,-0.25366584,-0.38614853,-0.15743996,-0.22117237,0.08961086,0.08042313,0.12868999,0.37869574,0.04204700,0.05661176,0.09098931,-0.04044799,0.19807008,0.17045680,-0.36681775,0.47077112,0.43283164,-0.20424399,-0.43429027,-0.11324938,0.47354242,0.06803387,-0.22024276,-0.35837120,0.01703269,-0.34120014,-0.34970071,0.26389990,0.15799904,0.31576186,-0.00689147,0.40455133,0.42944270,0.33556310,-0.31666000,0.01902804,-0.08406231,0.31195824,-0.10231901,0.45827117,-0.13088374,0.48921943,-0.08206807,-0.43303030,0.15861519,0.05024759,-0.46287684,0.09155028,0.34661432,-0.39595190,0.47945358,0.32157954,0.17271288,-0.23993749,0.46454490,-0.30784115,-0.07885189,-0.38363788,0.45668790,-0.42049886,0.43198520,-0.05041874,0.48392111,0.36138419,-0.21484972,-0.33269269,-0.11937616,0.20151787,0.47997915,0.27882062,0.15989522,-0.15177692,0.26694291,-0.42321513,-0.08553102,-0.07428686,0.12790995,-0.04696779,-0.48131121,-0.02512318,0.05615837,0.49686205,-0.20406438,-0.26939084,-0.24017210,-0.23712486,-0.07618945,0.18135457,-0.12092218,-0.11976907,0.26072885,-0.18893394,0.32987693,0.24482201,-0.32719790,-0.38449629,0.41259998,0.05342688,0.31636656,0.39086633,-0.17007493,-0.02569618,-0.26156374,-0.40209483,0.05327618,0.15569973,0.02540570,-0.31976215,-0.39441147,0.03994933,0.15274954,0.16229525,0.03976964,0.45159773,0.39453816,0.30006620,-0.28580638,-0.18187317,-0.01863065,0.09333431,0.19845314,-0.25773848,0.40458802,0.02851999,0.48678287,-0.42340343,0.14212369,0.39663250,0.12699856,-0.04316002,0.28837968,0.46046590,0.43604181,-0.46862682,-0.43924223,-0.01225583,0.18219192,0.08005582,0.16408378,0.28761446,-0.37715409,-0.17985656,-0.04766927,0.16337297,-0.22841106,-0.15330298,-0.03659068,-0.01415980,0.16495365,0.44496769,-0.42103713,-0.13718232,-0.31393880,0.48212267,0.38899959,-0.32945821,-0.44317399,0.03230278,-0.42843557,0.19059230,0.49552259,0.36426079,0.15228874,0.42875852,0.38966400,0.20636415,-0.08780490,0.07183360,-0.21065171,-0.41946080,-0.13719094,-0.08638969,-0.09905544,0.31508073,-0.42298907,0.17256921,-0.33809793,0.04052712,-0.34195101,0.32577299,-0.01628242,-0.26519722,-0.31381285,0.16828399,-0.28207104,-0.41994073,0.34625337,-0.21739625,0.11759455,0.41982652,0.47204812,0.10911637,0.27784938,0.11769099,0.03447359,0.16841217,-0.17186556,0.45192118,-0.25564662,0.11946047,-0.46690376,0.10722020,-0.46684685,-0.06596344,-0.07766315,-0.38987575,-0.39390645,0.08270140,0.14814527,-0.23899052,-0.09404884,-0.36840461,-0.00019537,0.09985567,0.30927686,0.22499260,0.18338916,0.15502586,-0.49523593,-0.20395573,0.06885137,0.47096780,0.40315513,-0.15137838,0.09386217,-0.05639676,-0.47853438,0.42424900,-0.10366020,-0.23408330,0.04375023,-0.07056396,0.37316746,0.07674984,0.36263686,-0.20662899,0.18353365,0.46535930,0.37443000,-0.16643817,-0.26758565,-0.21025256,-0.02535275,0.23856370,0.39191637,-0.21759666,-0.03965538,0.07084975,0.43211020,-0.03951717,0.36631054,0.00381125,-0.06273275,0.27561522,0.35679490,-0.46653319,-0.27998392,0.37831102,0.45771942,0.11635588,-0.35576481,0.00130651,-0.45540274,-0.48526096,-0.42550596,0.40432404,-0.19198194,0.26193664,0.37775209,-0.30761527,-0.39602290,-0.38473777,-0.01637516,0.07692385,0.35118818,-0.12807232,0.35535868,-0.19145801,0.44304894,0.29089502,0.27474629,0.31467742,-0.20152216,-0.28587324,0.09089008,-0.34482208,-0.25241302,0.31090785,-0.46649866,-0.29486003,-0.07417952,-0.32497907,0.20286127,-0.03143170,-0.30857014,0.28320545,-0.11789926,0.00876631,0.05186203,-0.23673283,0.20182029,0.15404528,-0.12467603,-0.31904926,-0.27223282,-0.27536321,0.05378295,-0.41324416,0.03819303,0.00110167,0.38048667,-0.18525027,-0.18376571,-0.32113364,0.02886527,0.40711944,-0.16593869,0.27617963,0.21661694,-0.13487369,0.47833602,-0.35819072,0.04284194,0.18774914,0.11889954,0.24121705,-0.02498895,-0.49746753,-0.25035396,-0.47578057,-0.23927978,0.44572807,0.17505675,0.13551474,-0.37041415,0.40741379,0.36509759,0.18689084,0.49616352,-0.09538415,-0.31163942,0.37663805,0.21936035,0.00459349,-0.44448501,-0.25215844,-0.08947984,-0.11243897,-0.47789788,-0.37282756,0.25545654,-0.49394560,-0.22467047,-0.19700465,0.19626207,0.39494677,-0.45690161,-0.33247782,0.39142554,-0.21192327,-0.30951918,-0.34553094,-0.26165738,0.37029324,0.29429426,-0.12966217,0.27904588,0.16016950,-0.44253748,0.27520263,-0.43521465,-0.25415228,0.15188248,0.28370080,0.24938475,0.20581462,-0.46928765,-0.33936030,-0.40412058,-0.44338959,-0.20828090,0.35429381,-0.43566729,0.06734654,-0.34421698,0.25633079,-0.04234735,-0.30330090,0.42535415,-0.14688894,-0.01094110,-0.38035280,0.01056819,0.22911819,0.49092848,-0.19466768,-0.40042496,0.26997017,0.46550182,-0.34294097,0.04523195,-0.47016257,-0.09794328,-0.30420331,0.31346160,-0.34741884,0.40364562,0.34595642,-0.18557175,-0.49963315,0.40334610,0.10634203,0.35340574,0.46491949,-0.32804653,-0.49000214,0.22471164,0.13359698,-0.29019983,0.15256728,0.48885310,0.20035883,0.27293812,-0.00035756,-0.07050275,0.26387274,0.30500518,0.02907689,0.03388317,0.27020914,0.18535954,-0.42195958,0.29993924,-0.41188331,-0.22504933,0.11391366,-0.25884636,-0.32085127,-0.03925475,0.05620720,-0.32023465,-0.13598740,-0.33662270,-0.46420122,-0.16749631,-0.16150713,-0.45199033,-0.44109793,0.47382222,-0.24104660,0.21190771,0.46262987,0.45926294,-0.01512369,-0.03765035,-0.11124541,-0.25126985,-0.23289172,0.41722787,0.28187653,-0.46270184,0.10340614,0.36119160,0.33820032,0.19261881,-0.36282876,-0.04683436,0.43412467,-0.18334418,0.41478786,-0.00806970,-0.00077920,-0.21868489,0.15730993,0.03623699,0.11492783,0.49701837,0.08494770,0.17402923,0.47071489,0.34384544,-0.11402988,0.43342168,0.30310810,0.37082323,-0.10431320,-0.30833309,-0.38065133,0.16300484,-0.39020803,0.40232958,0.20120733,0.21398601,0.26431830,0.03996821,-0.09331057,0.40122815,0.49333022,-0.15839786,-0.28068642,0.40910915,0.33423906,0.21894484,-0.30881375,-0.00769964,-0.24435004,0.30626275,-0.01066562,0.34059054,-0.01969492,-0.03992073,0.18443598,0.36625868,-0.10651955,-0.01239707,0.23718685,0.28957964,0.18027456,0.35789908,-0.04618158,0.29028124,0.26023547,-0.34531867,0.00360949,0.02295820,0.19304554,0.40931338,-0.07596395,0.18633908,-0.24911765,0.14352282,0.09594472,-0.41446386,-0.13729492,0.28723881,0.07791635,0.11836420,0.09350156,-0.43274927,-0.04104526,-0.42619342,0.02732121,-0.35661956,0.44012797,0.42102127,0.13129135,0.17763695,0.21074373,-0.18882471,0.03496601,-0.33635639,-0.39964132,-0.20690558,-0.18385734,0.10231438,0.31556486,-0.49117632,0.01145528,-0.26035309,0.19546675,0.26255429,0.38324298,-0.20852555,0.34814104,-0.25404486,-0.42128673,-0.07394261,0.36431934,0.17220753,-0.00674411,-0.17675217,0.24611189,-0.47918178,-0.03318129,0.18633064,0.44191202,-0.40185398,-0.13598036,0.15235534,-0.09151789,0.39756099,0.31423453,0.00752040,-0.30989927,-0.37004226,-0.39037656,-0.49442402,-0.36111961,0.12116202,-0.25476579,0.33435619,-0.11627356,-0.37152059,-0.37416935,-0.26813252,-0.12556546,-0.29545608,0.15792486,-0.26121721,0.37682115,-0.34870144,0.06206224,0.12278088,-0.32812661,-0.47127568,-0.19098345,-0.38647230,-0.37362236,0.17221178,0.26493212,0.03424890,0.06942333,0.07898893,-0.45834958,0.25947025,0.20894827,-0.34872038,0.26504774,0.34782866,0.27244164,-0.48971805
0.18218486,-0.34383193,-0.36123864,0.30801550,-0.11196445,0.01319590,-0.48744058,-0.45403959,0.25194978,0.38931816,-0.30280661,-0.18602226,0.01209837,-0.13093553,-0.15732950,0.32098189,-0.01759539,-0.03103685,-0.00682781,-0.25268299,-0.49679631,-0.43741014,0.32630331,-0.45514589,0.32206011,0.03525158,-0.30386627,0.08710786,-0.11691975,0.46857537,0.09738981,-0.43473490,-0.37525656,0.23615117,0.37328061,0.01277899,-0.25065293,0.38584003,0.05873922,-0.49870425,0.27515819,0.25592573,-0.18474013,-0.21274254,-0.37500323,0.15794452,-0.39176166,0.10740187,-0.37309175,0.10141064,0.35471888,-0.36988806,0.16400050,0.18102219,-0.32503395,-0.01393939,-0.28372623,-0.12890022,-0.42683153,0.09935402,-0.16032486,0.17055828,0.16461913,-0.03558142,-0.09329055,0.03789973,0.47719609,0.15605388,-0.07627306,0.03591536,0.15735299,-0.30110926,-0.20819075,0.47255279,-0.01392813,-0.08320514,0.13057063,0.09439444,-0.47572803,0.25748188,-0.30419640,0.37898778,0.38759326,0.35980410,0.06000997,-0.43744069,-0.15413528,0.27628374,-0.06634091,-0.08096681,-0.12435933,0.27334231,-0.41037612,-0.45969393,-0.26218893,-0.00364078,0.07817978,-0.28500623,-0.34761675,-0.49818016,0.25074188,0.30957613,-0.29937146,-0.45743960,0.28227578,0.18693418,-0.04038654,-0.08708770,-0.21865819,-0.01610696,-0.32960682,-0.02285459,-0.13711918,-0.44201356,-0.16305049,0.42289078,-0.37945711,0.18281193,0.19918804,0.05422613,-0.39807617,-0.42514366,-0.17252393,-0.30880613,-0.38545592,0.06469627,0.18684613,0.19217514,0.27903005,0.33861578,0.19376489,0.02983793,0.14866448,0.39520707,0.07352285,-0.06800670,0.08285224,-0.46648908,0.34505866,0.36420715,0.01740397,-0.48454816,-0.15864744,0.38028354,-0.42657262,0.17831593,0.30320306,-0.30599383,-0.13887911,0.00207773,0.24757359,-0.03800846,0.07582358,-0.42622496,0.15183609,0.18914950,0.13746737,-0.16139396,-0.11776171,-0.08148083,-0.31978298,-0.42085273,0.45163536,0.33151178,0.47639303,0.02625093,-0.23580738,0.05936135,0.05978953,-0.39074690,-0.07643150,-0.42282228,-0.37531637,0.26492156,0.45757601,-0.30184801,-0.05701790,0.25982112,-0.10922913,0.30283659,-0.23899581,-0.36229893,-0.23576316,0.33654915,-0.28798285,0.41763273,0.02844758,0.35349955,-0.23897636,0.41567758,-0.22298866,-0.05463239,0.49825014,-0.26931160,-0.22185886,0.47493102,0.25699654,0.04232980,0.03431278,-0.18317531,0.15155215,0.45779486,-0.10599411,0.27626996,0.22241127,-0.14938913,0.47370122,-0.33489716,-0.38914653,-0.13510786,0.46836691,-0.12714865,0.00442729,-0.26513940,-0.28770638,0.21977710,-0.34347269,0.24533286,0.07856334,-0.07754014,0.16542556,0.35829923,0.36929342,0.16396955,-0.41097349,-0.35257578,0.13891758,0.34610056,0.18970944,-0.32675051,-0.33711365,-0.15853749,-0.36912133,0.05653065,-0.38265348,0.35349367,0.40757069,-0.40888218,-0.48108468,-0.48036820,-0.04184440,0.48960275,-0.10563913,0.46352722,-0.27445556,0.10855532,0.18701781,-0.11340918,-0.14164878,-0.23158394,0.31038051,-0.47602951,-0.37330195,0.17967814,0.18796749,-0.28418436,0.32716694,-0.17298060,-0.43813183,0.01711835,0.00019521,-0.27519714,0.35836939,0.13037135,0.28036796,0.47463347,-0.01586693,0.18948825,-0.43173628,0.00550894,0.20992805,0.02506907,-0.00708404,-0.39645452,-0.00960610,0.22207066,0.21602468,-0.31959759,-0.39003934,-0.42538473,-0.05123127,0.42034304,-0.40133832,0.07560614,0.10019234,0.28674934,0.29133632,-0.07283217,-0.38639118,0.35305236,0.44313376,0.11166529,-0.42493802,0.29960021,-0.25702488,0.35860978,0.27841302,0.23029424,0.04876375,0.34493064,-0.26772036,-0.24376268,-0.12960701,0.22819664,-0.13640009,0.36427649,-0.04813015,-0.42001312,-0.45532631,0.06183948,-0.34533384,-0.00643028,-0.01757738,-0.24681856,-0.43131691,-0.41809871,-0.46054352,0.35924268,0.00744686,-0.34988833,0.20965365,-0.04929447,0.26536654,0.29026958,-0.24424766,-0.48823627,0.14994594,-0.46676663,0.23887553,-0.30449112,0.37694176,0.47346218,-0.04408144,-0.24845840,0.20360125,0.31999957,-0.38414130,-0.34447533,0.40001417,-0.33939726,0.21752025,-0.44558536,0.15350494,-0.30106870,-0.19327357,0.22095051,-0.22087872,-0.15560818,0.08003147,0.28918579,-0.00015767,-0.20423898,-0.25514572,-0.23157647,-0.41229846,0.00005544,-0.22368080,0.23325075,0.03075971,-0.48285806,0.43336024,-0.08760508,0.49288560,-0.11006295,0.16398033,0.19656152,-0.29006713,0.27985137,0.35207725,-0.39040383,0.43946779,0.06802343,-0.33746605,0.09183274,0.26626099,-0.03020855,-0.18500955,-0.45047255,0.31916705,0.40031390,0.34327473,-0.17740458,-0.30238231,-0.41397822,0.08505348,-0.22032824,0.08336971,0.36401801,-0.48171070,-0.38093193,0.38379308,0.45247789,0.03149533,0.37671563,-0.15758506,-0.30450669,0.07315710,0.05178693,0.47379473,-0.07696453,0.15945610,0.41288426,0.49279865,0.32559317,0.00934839,0.26344246,-0.20100866,0.32792689,0.31687743,-0.37843039,0.22875448,0.15540546,-0.06372396,0.42045777,0.24003726,-0.47481759,-0.29393965,-0.17160462,0.39201359,-0.27475294,-0.05253160,0.27581034,-0.32227505,0.47895001,0.15236669,0.01912003,-0.32772716,-0.27722032,-0.43107923,-0.35309966,0.14967866,0.23443681,-0.43467133,0.14589128,0.06180490,0.07678614,-0.08758762,0.36323932,-0.09657036,-0.27732293,0.47643691,-0.37266411,0.37860509,-0.08255145,-0.44648097,0.12318252,-0.05471524,-0.23955811,0.45156408,-0.16270446,-0.01430828,-0.10097246,-0.38712982,0.16190801,-0.12460750,0.26203405,-0.32011717,0.04994005,0.49023491,-0.24459651,0.20167066,0.14230643,0.49125901,0.26927362,-0.20915073,0.05409764,-0.15737518,0.19608236,-0.09015720,0.24307481,0.42095257,-0.10864589,0.37562676,0.30338799,0.31115322,0.42997740,-0.07342090,-0.24356591,-0.30957364,-0.12182689,0.09327079,0.17435540,0.27434652,0.20314813,-0.16427755,-0.34757302,-0.02923258,0.02177873,0.20671731,-0.03595046,0.28027319,-0.08855439,-0.39214355,0.27010591,-0.32438962,-0.10785751,-0.18083221,0.01840784,-0.40797176,0.23433844,-0.23399972,-0.48379995,-0.37224261,-0.35758432,0.31957440,0.43890938,-0.42757279,-0.25376194,-0.30519426,-0.23887422,0.12157749,0.28547041,0.43523532,-0.10154947,-0.00635271,-0.22294342,0.05638198,0.46918819,0.30295762,-0.23481242,-0.06776713,0.07918066,0.17145697,0.03581992,-0.15188295,0.34978290,0.43264534,0.17214671,-0.12818149,-0.47267048,-0.09184406,0.13837134,-0.45650549,0.03591333,0.28081960,0.36313213,-0.02565237,0.35180578,-0.39326094,0.16692374,-0.38762131,0.23008301,-0.04354084,-0.44656230,-0.36499413,0.45597810,-0.16618879,0.19124137,0.42184722,-0.36753791,0.45319622,-0.14679835,0.21357506,0.12847708,0.39371250,-0.43436642,-0.01866594,0.32844865,0.23895619,0.35341702,0.35577593,-0.35288788,-0.00820309,0.39930775,0.18257726,-0.22843412,0.26024665,-0.34520700,-0.37802077,0.36780585,0.32495177,-0.26018634,0.10391788,-0.21363359,-0.20482843,0.23772572,-0.26037804,0.12733204,-0.07057726,-0.33578248,0.26351944,-0.11334886,0.02121272,-0.01977408,-0.48243518,-0.08369076,0.04646595,-0.00105639,-0.25523632,-0.21455030,-0.14763394,-0.39950758,-0.06776378,0.34324772,0.49798959,-0.38751085,-0.38739620,0.25776630,-0.23031875,-0.26007785,0.13153258,-0.40093979,-0.01864163,-0.26438030,-0.11426384,0.27861339,0.47721609,0.12999598,-0.08989429,-0.08996410,0.29680957,-0.32418041,0.29820195,-0.18125919,0.15615506,0.31569915,0.23507012,-0.29730270,-0.18536396,0.47975025,-0.01219194,0.16623457,-0.42103423,0.41839839,0.00790922,-0.42329831,-0.46723232,0.12493255,0.33945045,-0.19349313,0.36706284,-0.02702780,-0.09101790,-0.14687724,0.21389817,0.29919205,-0.36494807,0.19348500,-0.06909227,0.04641845,-0.39570400,-0.27199189,0.22214952,0.40244011,0.04677806,-0.12161950,0.21813695,-0.21815085,0.08103986,-0.46751828,-0.23892740,-0.43183399,0.19821950,-0.15994137,0.48775182,-0.29132764,-0.07996103,-0.47628416,0.33656175,-0.23700009,-0.16475609,0.20872423,0.24026502,0.24691314,-0.43628977,-0.04449676,0.04701941,-0.30078731,-0.35084328,0.47801684,0.24560802,-0.24657542,-0.29396318,-0.03221527,-0.34413531,0.25283187,0.34623414,0.37412899,-0.46517898,-0.07239583,0.40729906,-0.20301770,-0.00275418,0.10706101,0.13852384,-0.01394630,0.31714467,-0.43940289,0.01297088,0.15657053,-0.17459178,0.34872047,-0.13435783,-0.43409587,0.09572407,-0.07077753,0.02128030,-0.35723775,0.12847905,0.17043061,-0.37922091,-0.12591293,0.42385519,-0.17318376,0.34189348,-0.42015164,-0.42001979,0.18868320,0.45465118,-0.38450346,-0.38323008,0.36189663,-0.08820028,0.11258802,-0.03217835,-0.45024434,-0.40114740,-0.21501539,-0.39005406,0.11093900,0.44107586,-0.06506659,-0.04061686,-0.19358774,0.00071736,-0.44489201,0.23565885,-0.47800488,-0.30212976,-0.13586210,0.19242573,-0.18134973,0.23824552,0.11634263,0.14573133,0.08050591,0.19650513,0.22575475,-0.23106978,0.15031122,0.33977824,-0.11624205,0.01057330,-0.24961074,0.49551248,0.47750734,-0.20078802,-0.40659362,-0.23805415,-0.09124264,0.20409160,-0.29718031,0.34363660,-0.33653542,0.00922832,-0.15564684,-0.28142743,-0.25511283,-0.13365172,-0.08355719,0.10902507,-0.44120980,0.23513372,-0.15267181,0.17512671,-0.11943168,0.42735454,-0.12893646,-0.39429927,-0.30444933,-0.47915268,0.44511335,0.07897422,0.03106180,-0.30486371,0.07408306,0.00833022,-0.00585976,0.16736723,0.27023601,0.40288709,-0.12854117,0.47305570,0.24652369
0.03492341,-0.01771599,-0.40912315,0.25349598,0.22717118,-0.04277486,-0.33006121,-0.16380374,0.01599915,0.40503093,0.18344630,-0.30894593,-0.21441169,0.11079312,0.06210978,-0.10875828,0.30627373,0.08289010,-0.16371499,-0.11483182,-0.38609521,0.03135709,0.45922435,0.12223501,-0.47450267,0.12659158,-0.10752898,0.42838441,0.49805041,-0.13447329,0.17490810,0.03297381,0.34781073,0.26578496,-0.21353021,0.07498191,-0.27698991,-0.04359142,0.41117814,0.23900910,-0.13856049,0.09462375,0.43007253,0.14705609,-0.29456983,-0.00782392,-0.46173056,-0.48830869,-0.42493681,-0.12544546,-0.10314051,-0.31103202,0.40591163,-0.14391616,0.31120299,0.43140896,0.48267542,-0.29632599,0.35979338,0.48072582,0.06920072,0.03470148,0.01369964,-0.08298855,-0.19951356,0.30016943,0.49199316,0.02349052,-0.24351570,0.40308205,-0.23752428,0.11803145,-0.00218763,-0.30743075,-0.23495498,0.20321694,0.18474247,-0.19668570,0.21490464,0.25980539,0.17786942,-0.38823561,0.44877335,0.08378106,-0.03215177,0.25997634,0.01519002,-0.04947636,0.46365034,-0.12501661,-0.06875813,0.03281988,0.40953984,0.44475229,0.44964255,-0.29009166,0.24483599,0.44156748,0.23333984,-0.49856242,0.34484723,0.49611999,0.11971875,-0.15719525,-0.31129252,0.38470998,-0.45396671,0.37348490,-0.31192570,0.26094188,0.13329025,0.36594373,0.37270627,0.08206359,-0.05027522,-0.15944551,-0.15796387,0.46488068,0.29099861,-0.19439955,-0.16031511,-0.27795822,0.33832502,-0.25059833,-0.33268055,0.28849719,-0.04010333,0.41265026,0.23057006,-0.30614387,0.41453035,0.07544342,-0.31047723,0.03367349,0.41802525,-0.12168898,-0.08144055,0.46414751,-0.24817660,0.10663958,0.22508939,0.38511365,-0.02741669,0.09779895,-0.03282955,0.42221328,0.43819286,0.30919644,0.38719966,0.22947495,-0.38508802,-0.27267307,0.45245696,0.45441819,-0.02257835,-0.38052189,0.24213241,0.43666169,-0.46839690,-0.02774759,-0.37036611,0.44522537,-0.45282513,-0.18065077,-0.02075963,0.46548849,0.19781172,0.39789074,0.42965754,0.44963845,0.00453032,0.15479509,0.33482507,0.47719898,-0.24734392,-0.19785426,0.39980296,-0.30856363,-0.38829427,0.28722308,0.42121524,-0.27321068,-0.48585890,0.37191934,-0.32095571,-0.01025074,0.49058340,0.42099546,-0.07340949,-0.47785464,-0.10678804,0.05663969,0.46795930,-0.05915932,0.37627387,-0.05262309,-0.09362277,0.07410056,-0.15472687,-0.16374501,0.02401837,0.35005869,0.49097874,-0.14130334,0.32737674,-0.25632981,0.16059312,0.22650519,-0.06551622,0.27165780,0.01292538,-0.14578857,0.49702467,0.02595605,-0.27415001,-0.32330560,-0.48318270,-0.28276115,-0.40184742,-0.05604596,-0.25981017,-0.00809095,-0.49906291,-0.29168477,0.43281386,0.37724165,0.15570105,-0.16061317,-0.04843442,-0.49898882,0.17516698,0.47495073,0.35066702,0.16568366,-0.16679447,0.17698074,0.40872802,0.49368294,-0.09590028,-0.15622457,0.26551281,0.41622718,0.19729133,0.26255262,-0.05673505,0.42425556,0.44001390,-0.03913659,-0.35763015,-0.46124718,0.40512587,-0.11731156,0.03072977,0.40608885,0.09100655,-0.03640489,0.28337188,-0.25332313,0.30257083,-0.26554812,-0.25281455,-0.02295256,-0.29154624,-0.40288632,-0.35684027,0.04349348,0.27722284,-0.44549738,0.03797988,-0.32061838,-0.10423254,-0.19801295,-0.40327429,-0.40540386,-0.43393741,0.04099500,-0.48036051,-0.49365484,-0.49804339,-0.33793543,-0.45485410,0.40708961,0.04475150,0.07590056,0.31316946,-0.36424801,-0.46053861,0.09626794,-0.11824625,0.34095755,0.32962301,0.12873543,-0.18021150,-0.45801845,0.23079339,-0.03402874,0.08485534,0.00354519,0.01584012,-0.37973182,0.18423722,0.41396443,-0.07524338,0.28241284,-0.49077137,-0.00949917,-0.17686911,-0.47119417,-0.00312354,-0.17490637,-0.30913031,0.04202714,-0.26782661,0.23563624,-0.38202801,-0.45490231,0.37050253,-0.34387539,0.14070266,-0.24692486,0.49983201,-0.02533812,0.38671014,-0.17869448,0.01362042,0.11068510,0.28164511,-0.40350507,-0.38335345,-0.19890181,-0.27969768,0.30273159,-0.28458298,0.14427066,0.08450771,-0.27554868,-0.36521454,0.40764173,-0.24674283,0.13167052,-0.26726790,-0.05578860,-0.32615737,-0.03547700,-0.32097031,-0.20925462,0.00987520,-0.44874814,-0.05035974,-0.34603267,-0.19291010,-0.05078126,0.12396546,-0.31325614,0.26582799,-0.36236051,0.30109784,0.05189386,-0.26201631,0.41938078,0.35280386,-0.04278078,0.22133598,-0.43203902,-0.39849424,-0.19416019,-0.20758767,-0.26370385,-0.28650510,0.04580040,0.36814848,-0.05405518,0.48925968,-0.45885662,0.41109732,-0.33021265,-0.16615050,-0.07752472,-0.27843311,0.28185289,0.07209891,0.02385932,-0.27087682,-0.30211119,0.21451223,0.49878544,-0.16154171,0.01665636,0.05019699,0.07531443,-0.06473853,-0.09724928,-0.46741247,-0.34340447,-0.02928830,-0.36590543,-0.03756512,0.26329437,-0.12939747,0.17578938,-0.19154238,-0.26203937,-0.37821431,-0.20162635,-0.22030636,-0.46680973,-0.03202594,0.11248006,-0.04654637,0.18768814,-0.10512837,-0.47172947,-0.28526449,0.12626328,-0.27255317,0.42955956,0.12435106,0.06490734,-0.05458070,-0.32567473,-0.35970416,0.38068182,0.07707599,-0.32711904,-0.46272291,-0.45205761,-0.19284771,-0.00038844,0.31045391,0.17666742,-0.32529561,-0.38162187,0.41431004,-0.20302407,-0.08218583,-0.30530166,-0.17042658,0.38544593,0.30856246,0.28615521,0.07589675,-0.29523477,0.31429075,0.29004759,0.33004631,-0.45911074,0.21887611,-0.04576040,0.10591167,-0.33568225,0.12856482,0.24620424,-0.45501340,-0.29420511,0.41925891,-0.41773028,-0.24693356,-0.27479678,0.08048068,-0.43798611,0.40110862,0.25646452,-0.31665334,0.31772602,-0.44652301,0.10103563,-0.48553197,-0.11308307,-0.01039742,0.32428741,-0.32751689,-0.43568719,-0.47207737,0.48604503,0.35376446,0.35784069,-0.47293538,0.07267238,-0.18792049,0.13297973,0.23704703,0.44085002,-0.12067728,0.28200097,-0.35406326,-0.20275843,0.36240691,-0.10273982,0.02231047,-0.05466764,-0.03678651,-0.07398011,-0.29805361,0.14696840,-0.25324102,-0.24009546,-0.24880334,-0.23773315,0.14589281,0.23929086,-0.41468986,0.31768359,0.30324559,-0.38677675,0.30389992,0.15702077,0.47106316,0.33099482,-0.27018919,-0.21664237,-0.03610650,0.46661785,-0.27658654,0.34188619,0.24690154,-0.13150160,-0.36001441,0.11227925,0.26860641,0.16380476,-0.44251859,-0.26688359,-0.40647423,-0.23631377,0.38243232,-0.15948428,0.02231699,-0.36773830,0.10194062,-0.33212121,0.37160206,0.18748103,0.48580677,0.17484765,0.30070571,0.28976942,-0.16788401,0.27211742,0.12077160,0.06150593,-0.44558489,-0.41645539,0.02692892,-0.22250610,0.42654962,-0.22424515,0.14713179,-0.43254282,0.38879409,-0.08189427,0.23499004,0.44949328,0.15267765,0.32837746,-0.28796818,0.03425085,-0.33124860,0.23441844,0.16674342,0.27091189,0.40245556,0.03834548,-0.04160538,0.38833706,-0.28652372,-0.24045763,0.17826881,0.04517339,-0.46934757,-0.20194913,-0.39409452,-0.41502802,-0.11798152,0.13322292,-0.13689893,-0.18990590,0.41165864,-0.48655029,-0.11951139,0.30174350,-0.06801073,-0.38501667,0.25053310,-0.41603280,0.44316034,0.46272832,0.11859541,-0.38780652,0.19727438,-0.21466261,0.38312839,0.09979567,0.32395448,-0.15804976,-0.01158608,-0.46276081,0.10097216,-0.33369468,0.08212829,0.13098170,-0.03677575,0.18698095,0.21660510,0.34840490,-0.17556376,-0.41767737,-0.34072450,-0.26459056,-0.40498616,0.03890502,-0.46334941,0.02649318,0.15377561,0.28751110,0.11104793,0.09736271,0.25037518,-0.27036917,0.20956843,-0.05228072,0.01509502,0.09293249,-0.45215929,-0.16102044,0.43465995,0.03616833,-0.12378357,0.03483587,0.20085908,0.45746558,-0.33268064,-0.33224839,0.14727915,0.38416547,-0.48580877,0.46960280,0.46519300,-0.32732983,-0.29544078,-0.43994833,0.21157515,-0.25847298,0.08695094,-0.13443101,-0.47091931,-0.30201362,0.46293282,0.27947067,-0.07234689,0.17257076,-0.27269753,0.44274876,-0.23456486,-0.22498054,-0.21818051,-0.30040163,0.31013401,0.15746754,0.23544720,0.01255698,0.11497017,0.40053923,0.17727732,-0.23965204,0.28381423,0.19100665,-0.27033752,0.24884418,0.36353844,-0.06562368,0.30905915,0.07514232,0.17590273,-0.10399132,0.44071131,0.20500010,0.09401155,0.40373244,-0.01542242,-0.47819291,0.07617237,0.21147014,0.46394468,0.34089026,0.48587734,-0.25443117,-0.45898325,0.29624719,0.40217876,0.27438773,-0.19303052,0.01644830,0.17497964,0.48425633,0.27668090,-0.04134852,0.17510827,-0.49361254,-0.29241873,0.03865610,-0.05923621,-0.48335958,-0.38620158,-0.38333313,-0.08734629,-0.44546855,0.32169740,-0.49327866,0.45822975,-0.19405267,-0.47217681,0.03373477,-0.48285083,0.49206903,-0.12462803,-0.49647873,-0.26229456,-0.08402528,0.29945814,-0.36000759,-0.30925722,-0.39337774,0.15650538,0.36573461,-0.40917626,-0.06680804,-0.17558494,0.26593827,-0.06042057,0.03199634,-0.19540563,0.38034318,0.04863652,-0.08160774,0.49702150,0.46129704,-0.02721775,0.31842109,0.46765880,-0.06912378,-0.37531816,0.49613680,0.46531659,-0.35761794,0.48860327,-0.15914328,-0.35397708,-0.27348642,0.25705696,0.44559597,-0.13338503,0.44786484,-0.44777848,-0.47687282,0.31360841,-0.35695277,-0.04368085,-0.36197653,0.40898550,0.39589857,0.17001981,-0.28642355,0.27623691,-0.28134613,0.13197107,0.27325132,-0.32005770,-0.39512481,0.09190591,-0.35213471,0.03592685,0.21665931,-0.35594181,0.00126907,0.35904278,-0.36730060,0.34217222,-0.49491112,-0.14077174,0.09922890,0.45068478,0.22584323,0.04709373,-0.49709370
0.24897041,-0.13929786,-0.35404647,-0.29471044,-0.00127439,-0.44506098,-0.39881187,-0.33125459,-0.23148112,0.37742991,-0.11259802,0.40049153,0.15068141,0.06734440,-0.49463331,-0.25740744,0.21521683,0.04129709,0.45925254,0.35927571,-0.45743361,0.31829524,0.49197512,0.38473861,0.32338412,-0.14879662,-0.01603250,0.27406890,-0.42295340,-0.46893876,0.27697521,0.32601701,-0.10823663,0.42292873,-0.46869343,0.39048898,0.47786775,-0.36750531,-0.44076724,-0.25362352,-0.49007540,-0.05337147,-0.35314377,0.16059012,-0.48602656,-0.34773927,0.40320912,0.22919760,0.19354194,0.36245112,0.08847331,0.23610833,0.18074636,0.08044843,0.12084694,0.00413049,0.43165180,-0.39518556,-0.22180061,-0.49130159,-0.36412432,-0.44482541,0.33471542,0.02763905,0.47810333,0.36602199,-0.08188492,0.45594552,0.49857794,-0.02257756,-0.29762822,-0.49156450,0.42395590,-0.15078153,0.16898917,0.43792295,0.00146652,0.07223220,0.16716246,-0.30497956,-0.06530301,-0.24434951,0.43113101,-0.38455665,0.33609892,0.05197795,0.11957384,0.26775072,0.15679239,0.39777323,0.27645095,0.29267705,0.45308905,0.11142602,-0.17940203,0.43140490,-0.02236406,0.23907257,0.38769660,-0.02366841,-0.28362620,-0.41015923,-0.01565369,-0.36017065,-0.06134080,-0.34683513,-0.42222962,0.44009478,0.22543767,0.24495316,-0.36488074,-0.33986534,-0.49939635,-0.43374972,-0.22442198,0.33670257,0.11823263,0.39519958,0.10452583,-0.22485156,0.29323735,-0.11860319,-0.43162574,0.24684150,0.49308272,-0.11054947,0.17874440,-0.02874594,-0.37162832,0.06550858,0.44613881,-0.15719810,0.15356947,-0.07094750,-0.01822544,-0.40811671,0.08228861,0.05980095,-0.46796134,-0.19226932,-0.19524590,-0.33284208,-0.03213466,-0.19464181,-0.26653352,0.24361588,-0.35756278,0.35227231,0.13943608,0.24780055,-0.37143300,-0.06612961,-0.37029206,-0.30309004,-0.31981586,-0.37791124,0.08477776,0.35635830,0.09017560,0.20947927,-0.08089784,0.03419071,-0.44920274,-0.42866380,0.46265539,0.03302985,-0.33647050,0.04508744,-0.40717297,-0.30442945,0.35281812,-0.10240940,-0.13717686,-0.17893963,0.20363109,0.09714093,-0.43456195,0.34675329,-0.04978519,0.20539158,0.09398691,0.07651783,-0.36428086,0.21991649,0.26940033,-0.18784415,0.33899761,-0.14802627,-0.33254013,-0.07167668,-0.43970411,0.08406272,0.46062888,-0.38913395,0.15583056,0.42364640,0.14391720,0.31933810,-0.03127657,0.23681759,-0.48494270,-0.17796060,-0.36477842,-0.12137603,0.14331527,0.33865986,0.47559060,0.20793601,0.18313079,-0.07870427,-0.09183742,-0.22731709,0.49502221,0.04241010,0.49256772,0.26537738,0.35658260,0.33265450,-0.38341004,-0.47915631,-0.24199933,-0.32429322,0.10512666,-0.28088354,-0.21334852,-0.23907274,-0.35725713,0.43061029,-0.41942426,0.11194978,0.16792297,-0.40421159,0.43332800,0.30198298,-0.02702150,0.07476075,0.13761570,-0.05559138,-0.22077252,-0.18077758,0.36673368,0.18973732,0.09492145,0.36492204,-0.26441591,0.08911737,0.12954180,-0.41110179,-0.08146083,0.24458712,-0.39016668,0.17702984,0.42049245,0.21494568,0.39613305,-0.29287650,0.47602927,-0.46080991,-0.36199804,-0.44379513,0.15021036,0.30459995,-0.34985315,0.08148455,0.10432380,0.12155079,-0.34416506,-0.25641787,-0.43043157,-0.06015209,0.06715683,0.44007505,-0.36737112,-0.33688218,0.30363850,-0.13511356,0.24912188,-0.06825386,-0.04626596,-0.33191339,-0.32345041,0.06356341,0.34510866,-0.40299153,-0.22150036,0.24131619,-0.19582249,-0.24583923,0.27965896,-0.05943066,-0.19174226,-0.07233865,-0.25561303,-0.04057746,-0.48871255,0.35200710,-0.41440497,-0.32726303,-0.39974185,-0.34155149,0.11444893,0.16711887,-0.40389709,0.24347167,0.32745570,0.39848910,-0.39176286,0.07688342,-0.16967362,0.06196225,0.24496248,0.00681280,-0.37456792,0.08998254,0.10361857,-0.09639424,-0.16952385,0.40629423,0.15573010,-0.39104749,-0.15162032,0.46723211,0.03989133,0.09601501,-0.06933654,0.05644420,-0.04819535,0.01856572,0.22975343,0.05045515,0.17373359,-0.15928945,-0.28453386,0.26909432,-0.41577815,-0.45688331,0.16760091,-0.30754830,0.11999541,0.49787975,0.25429936,-0.13521375,0.00433141,0.37923436,0.45400406,-0.39318316,-0.21841734,-0.21511247,-0.48379788,0.44122112,-0.10360435,-0.13417568,0.41095830,0.44025304,0.46472090,-0.15656310,-0.00345378,-0.08534047,0.35887242,-0.27637155,0.46383830,0.03261325,0.06461051,-0.32050681,-0.19829012,0.14883296,-0.27739100,0.46930221,0.34121725,0.34236663,0.46688988,0.09513993,-0.29343242,-0.02961300,-0.02611657,-0.33833658,0.08028355,0.25805378,-0.05286325,0.09599350,0.20169701,0.34764826,0.46558603,0.11464063,0.28730506,0.42806391,0.45546543,-0.21784211,-0.15767801,0.31476288,0.00614162,-0.19362301,-0.15260715,-0.42924758,-0.01412982,0.14910178,0.21957325,0.20825606,0.11816460,0.06074147,0.05078164,0.08513454,-0.34448397,0.25821103,-0.44266347,0.13033203,0.41889356,0.13660827,-0.10824432,-0.12834897,-0.26195809,-0.40479570,-0.28234847,-0.29976884,0.20705618,-0.49615464,-0.37144959,0.16302206,-0.21370384,-0.02893141,-0.02220302,0.29243647,0.27744559,0.32515623,0.36317215,-0.23681987,-0.02551011,0.08352765,0.47253914,-0.40675505,-0.35567123,0.02376831,0.17850232,-0.20126067,-0.22060655,0.23434218,0.43259221,-0.29544613,-0.12332410,-0.17430789,0.07351554,0.11045885,-0.08180248,0.29051903,0.31102949,-0.37449949,0.29443184,0.43963822,0.28847473,-0.41929467,-0.08929341,-0.23375518,0.37313165,-0.31155076,-0.40752368,0.23767488,-0.04721689,0.06711140,-0.17935186,-0.07544728,0.15879284,-0.03855930,0.44428946,-0.16451707,0.26333365,-0.27044587,-0.42505364,0.19668332,-0.06892933,-0.05225530,-0.47996463,-0.49595994,-0.44183137,-0.06216271,0.29422845,0.36893292,0.06321341,0.08862751,0.30857038,-0.14823726,0.16970418,-0.27968464,0.11936419,0.04405747,-0.09104655,0.21089067,-0.22000150,0.35942185,-0.22483625,0.09687034,-0.21908279,0.43306919,-0.43883853,-0.27009266,-0.22764492,0.32496024,-0.04309969,-0.15573165,0.02000814,0.38743278,0.29119939,0.03877094,0.39035899,0.34862020,0.47639912,0.18457599,0.21755077,0.03982326,-0.22589792,0.02764605,0.39297591,0.44419331,0.24666233,0.01040298,-0.01427143,-0.34680145,-0.28114186,0.26313559,-0.48925500,-0.00676186,-0.13782381,-0.20468222,-0.07094011,-0.07620923,0.02380078,0.19956664,-0.25257630,0.47914087,-0.45820678,0.26508392,0.36481131,0.33196383,-0.19634899,0.25517030,0.18059624,-0.21952284,-0.05864057,-0.09958365,0.32196274,0.21453443,0.42552632,0.21165542,0.15574707,0.16971093,-0.27979211,-0.36002903,0.32152096,-0.06167267,0.40522634,0.33590823,0.43458017,-0.23204308,-0.37017551,-0.13821400,0.18949420,0.15091927,-0.44153617,0.43444954,0.12855071,-0.40053041,0.19944656,-0.00663798,0.43147635,-0.49632109,-0.24969831,0.11471375,-0.21404435,0.19054005,-0.48826717,-0.39647994,-0.09866522,0.43451356,0.31394001,-0.44338024,0.10354332,-0.46599050,-0.30151482,-0.07189754,-0.02538166,-0.39665722,-0.23774517,-0.09351566,-0.13180463,-0.11057600,0.26615431,-0.44395892,-0.46075028,0.32412371,0.49042526,0.16780066,0.42365003,0.19037484,-0.33732178,0.35751073,0.19581777,-0.08736432,-0.03058790,0.47758851,-0.40122500,-0.02209458,-0.42051775,-0.00095804,-0.08908628,0.39256693,0.05662318,-0.48310632,0.42789773,0.25408764,-0.05694872,-0.09998795,0.35509540,0.20336665,0.30543044,-0.27774944,-0.40802385,0.07118971,-0.22179046,-0.36875408,-0.10466370,-0.23110865,0.29983894,-0.17937764,0.46061160,0.46243840,-0.32419894,0.15271928,-0.12898401,0.14171504,0.12774194,-0.03297408,-0.38313370,0.20574945,0.46675673,0.02991092,0.09951327,0.02319012,0.04575139,0.02619436,-0.22367909,0.48780741,0.42552164,-0.36922244,0.19082736,0.23078995,-0.14700405,0.28282355,-0.19801618,0.13128169,0.41435531,0.19791189,0.40074889,0.21392246,-0.48323076,0.35868626,0.17384955,-0.30986124,0.00939708,-0.45790181,0.32944556,-0.36395886,0.01007930,0.44875770,0.34370662,-0.02172475,-0.02081607,-0.05669085,-0.49877343,-0.47538160,0.46906770,-0.22269199,-0.48768173,0.39460075,-0.09191433,0.20314584,0.12539070,0.26111937,-0.01390721,0.42756439,-0.10749732,-0.09972745,0.12483888,-0.20780132,-0.38724834,0.14018655,-0.35037775,0.28555822,0.33002899,0.15969734,0.32934586,0.16191567,0.29775129,-0.15898131,0.11150781,0.14170611,0.31898813,-0.40952884,-0.41520302,0.32018797,-0.38496424,-0.44611301,-0.40250402,-0.37264598,0.44848774,0.00558402,0.33052598,0.07388699,-0.23331852,-0.18350261,0.00128127,0.15878690,0.21597783,-0.37475044,0.45030651,0.32872097,0.26607880,-0.39894377,0.11576087,0.09754874,0.26183328,-0.05408233,-0.24013077,0.05955095,0.28664945,0.37124999,-0.29879247,0.10567460,0.46174616,-0.21397896,-0.07413743,-0.42321809,-0.16009197,0.02335638,-0.29587883,-0.21161292,-0.47105356,-0.46533055,0.36227206,-0.20444051,-0.14897102,-0.13658429,0.45437516,-0.43264997,-0.01080545,0.40543864,0.39710748,-0.24390617,-0.49287841,0.01338838,0.35397511,0.26903116,0.45927244,-0.38613804,-0.17140412,0.24594263,0.48513563,0.02980859,-0.14838278,0.44688178,0.31582964,0.27747979,-0.47633631,-0.34426219,-0.19916089,-0.27219889,-0.05586511,-0.17022060,-0.23756405,-0.19359300,0.12537144,0.11351912,0.16991167,0.07992107,0.18113852,-0.34064348,-0.01445268,0.07842098,-0.08442338,-0.00724873,-0.40815075,-0.23044068,-0.23821559,-0.44887832,-0.11657872,0.09038029
0.29706431,-0.13144309,-0.37981111,-0.35131847,-0.18456131,0.43601852,0.42616133,-0.16089762,-0.40824381,-0.27300033,0.06690200,0.03588964,0.05677821,0.32933742,0.34229728,-0.31783978,-0.05712211,0.01222793,0.26209609,-0.37596847,0.17159382,-0.25233641,0.20246135,-0.41282956,0.24041486,0.29431059,-0.14327024,-0.49780073,0.34543228,0.24015104,0.09257957,0.14249658,-0.39129205,0.21276846,0.29117812,-0.07585336,0.14878698,0.21733944,0.26324918,0.24054419,0.44433911,-0.16984957,-0.22357082,0.00111256,-0.34050486,-0.38124830,0.18329024,0.10236633,0.13095802,-0.05462636,0.22639786,-0.19744816,0.19303723,-0.07114079,-0.11027771,-0.06654791,-0.27683020,0.24645205,-0.06434863,-0.43139792,-0.01339691,-0.47176907,0.21109866,0.09531104,0.24099939,0.00227678,-0.48053953,-0.11020739,-0.28038951,0.28269555,-0.36966758,-0.33597903,-0.38698285,-0.09296607,0.16541451,-0.22737870,0.02559002,-0.15161221,0.37474745,-0.34354392,0.29372384,0.10111035,-0.04099769,-0.01323893,-0.47003044,0.34872459,0.42021316,-0.24686064,0.09517664,-0.14413548,-0.17825798,-0.41821642,-0.11589812,-0.46715302,0.17711231,-0.37489824,0.03510775,0.19657340,0.01495889,0.25488595,-0.02045344,0.14572799,0.41927276,0.09262442,-0.44780972,0.08382200,0.36449752,0.07747006,0.43211129,0.23917153,0.23391602,0.22583513,-0.15971812,-0.30708168,-0.28740381,-0.12974856,-0.45836118,-0.36720006,0.12338971,0.13682544,-0.01133531,0.44511024,0.21855778,0.37264698,0.47761311,-0.10459301,0.49790117,0.01348689,-0.40707974,0.01352956,-0.23155152,0.07187156,-0.34184028,-0.31343692,-0.33635487,-0.29002954,0.27030724,-0.47193438,0.28739480,0.20238313,0.26723714,0.02131082,-0.07178174,-0.39248193,0.21420575,0.14078986,-0.02225432,0.25585139,0.27361387,-0.39886554,-0.10740710,-0.23788022,-0.45400717,-0.38875500,-0.36423960,-0.47440611,0.00893449,-0.36501194,0.03920265,0.10062208,0.14658019,0.30558609,-0.32917592,0.30367801,0.49168625,-0.16566601,-0.48642230,0.26195997,-0.13761456,0.30095678,-0.03565690,-0.37039540,-0.17776182,0.39253118,-0.26283831,-0.46344380,0.03342610,0.21488327,0.29237007,-0.19289610,0.31636459,-0.31399318,0.07136865,0.36499761,-0.20103568,0.20690766,0.38874262,0.30508080,0.33896814,-0.07486214,-0.09691155,-0.01687791,-0.27077109,0.07331555,-0.21334288,-0.27907977,0.40758496,-0.19983325,0.48281311,-0.23005196,-0.39892023,-0.05285819,-0.10031667,-0.07637810,-0.16006269,0.13709925,-0.03937296,0.37440476,-0.14648312,-0.24534928,-0.31697876,-0.32928904,-0.06000015,0.25168415,-0.46798786,0.23547008,-0.04431563,0.41839085,0.03788656,-0.20852503,-0.15921981,0.43966775,0.27415502,0.06992415,0.01281775,-0.43937304,0.29072549,-0.07960491,-0.13920320,0.27363568,0.19059466,-0.03764705,-0.27880725,-0.40917896,0.38670558,0.06257795,0.22962864,-0.15142087,-0.06353353,-0.41892529,0.09974227,0.11562038,-0.25227275,-0.46317583,-0.13489765,-0.22199552,0.26972865,0.31739947,-0.30679613,-0.19446864,-0.39215012,0.03358047,-0.25500831,0.38182550,-0.39653956,0.25780088,0.44245644,0.39433841,-0.32150495,-0.19615731,0.16850587,0.36984660,0.26704647,0.39098948,0.46171861,0.15320247,-0.04917013,0.18718697,0.49764941,0.38438470,0.26546593,0.09536407,-0.00176148,-0.48837152,0.12928607,0.35971910,-0.21386226,-0.10365975,0.17566100,-0.02130594,0.20175881,0.28345654,-0.48768436,0.44676686,0.16528604,-0.38419446,0.20480331,0.10829181,-0.48923616,0.38390935,0.41262139,0.18011006,0.25377776,0.17789001,0.06684840,0.21097612,-0.17145894,-0.48281045,-0.10215202,-0.17503650,0.39966725,-0.33949592,0.41619517,-0.10643315,-0.33143015,0.04323962,-0.24795595,-0.04575260,0.43953957,0.42769298,0.43297706,0.14134489,0.21116636,0.44517426,0.08805518,-0.12334831,-0.43860595,-0.20662142,0.48559686,-0.42688663,-0.32235640,0.39683465,0.24942972,0.42819275,0.07379599,-0.18201102,0.14010621,0.40064493,-0.16856732,-0.46737865,-0.27982414,-0.27346133,-0.30946659,-0.36467200,0.11965189,-0.14100547,0.17854570,0.37168971,0.31325722,0.11811718,0.29934455,0.24602457,-0.24080353,0.01052204,0.19151361,0.34789272,0.38808979,0.25440475,-0.35752036,0.37314828,0.32513822,-0.18183223,0.27004217,0.07577471,-0.25433031,-0.16029329,0.38717707,0.37891069,-0.26502674,-0.28459770,0.41058642,-0.04488702,-0.05793964,-0.39881707,0.09043911,-0.43827644,-0.03982399,-0.23101714,0.43333736,-0.22677359,0.38676559,0.23254341,-0.48057531,-0.35332267,-0.25569248,0.21278558,0.49643404,-0.36715134,-0.03368683,-0.36231213,-0.49426080,-0.20965217,-0.04826650,0.26873400,0.35855004,0.19143104,-0.39526987,0.24417549,0.07031510,-0.15995995,0.45987876,-0.01906708,0.29514133,-0.09805529,0.08211584,-0.11442544,-0.03646167,-0.45792759,0.15415997,-0.10335515,-0.18481850,0.04155135,-0.36951492,-0.16336705,0.19039467,-0.12407844,-0.45054737,0.18575948,0.00719806,0.01222771,0.31740901,0.00536610,0.29633339,-0.23477657,-0.22774303,0.15421385,0.45677520,-0.12270256,-0.10124974,0.02708088,0.21731510,-0.14136949,-0.49198621,0.01245357,0.26044480,0.08985043,0.39753236,-0.27643846,0.13172327,0.05243621,0.12194202,0.44988462,-0.40335582,0.25383473,-0.21348154,0.28571233,-0.37288856,-0.16823506,-0.03459882,0.12826341,0.33961846,-0.21970713,-0.36742225,0.13541724,0.04543070,-0.09487079,-0.20999433,0.00222067,0.28240906,0.18877246,-0.47069691,-0.00027654,-0.45269240,-0.46304237,-0.48833423,0.30734005,0.12710305,0.41068863,-0.46609352,-0.23758576,-0.03434238,0.15622475,-0.28884523,0.06007852,-0.09292033,-0.00699667,-0.15975500,0.02952264,0.32134817,0.30358038,-0.34326151,0.16037568,-0.41623179,-0.21022454,-0.20372553,0.12934790,0.19490583,0.08630361,-0.36843125,-0.02268706,-0.22497338,-0.33950470,0.47649707,-0.17785711,-0.30125006,0.49100846,-0.36675407,0.32873864,0.40211749,-0.33483028,-0.41125245,-0.13484524,0.31844717,-0.20521612,0.42004072,-0.27895061,0.28480459,-0.24156968,0.24988602,0.10597520,-0.43769069,0.40717558,-0.23316626,-0.35372672,-0.30303877,0.06311608,0.27563211,0.39187808,-0.35064803,0.40691978,-0.13128416,-0.07537801,-0.43066272,-0.15126246,0.25000498,-0.23136038,-0.16244230,0.37987942,-0.40487417,-0.26209692,-0.45773101,-0.32148781,0.09787717,0.35644176,-0.02946212,0.01618637,-0.42293338,-0.24431756,0.27509217,0.32743821,0.36201202,0.33752860,0.23461994,-0.37115423,0.48381167,0.43155974,0.19191212,0.25925740,0.32324180,0.34184359,0.16832227,-0.30485166,-0.23167566,0.23667961,0.04121520,-0.48423472,-0.49563612,0.37721549,0.39218342,-0.40641032,-0.39039251,0.43029819,-0.23015387,0.20604333,0.28651430,0.24093921,-0.27729339,0.36404606,0.49687606,0.49789784,0.19148549,0.35888808,0.33540372,-0.07392956,0.48772229,0.31922124,-0.14224843,0.18057434,0.08044688,-0.31671457,0.02303199,-0.25282518,-0.12337899,0.29047583,0.48319164,0.41501436,0.30086247,0.48100344,0.28700436,0.18989070,-0.42677940,0.39579080,0.12030457,-0.15625548,0.10234711,-0.09278388,-0.41514393,0.32513370,-0.22873941,-0.41826370,0.32301886,0.46271113,0.44060917,0.15850317,-0.11080664,0.42960790,-0.02028215,0.24850649,0.11000268,-0.44118752,0.43117386,-0.36725863,-0.19585642,-0.19743417,0.41615158,-0.21864608,-0.28613593,0.21554321,-0.23801513,-0.49927422,-0.09413029,-0.16398013,0.39701905,-0.47353634,0.17985082,-0.00057879,-0.06631324,0.26471939,-0.17544357,0.20495149,0.34645480,-0.35229904,0.16816868,0.28856921,0.30843593,-0.44101790,0.21807201,-0.21325856,0.30625303,-0.17400547,-0.15860606,0.23084700,-0.04781925,0.14130716,-0.46805565,-0.13164387,0.42292918,-0.25391984,-0.41544026,-0.31438589,-0.25279127,-0.00941697,0.02164181,-0.35575004,0.01705401,-0.29849493,0.14367120,0.45075264,0.46622547,0.46830314,0.15595590,0.31386463,-0.38185312,-0.17370491,0.10298756,0.42516741,-0.11726485,-0.18308423,-0.29377095,-0.31727277,0.13834726,0.04546460,0.41362795,-0.40883153,-0.31277552,0.44592555,-0.03999178,-0.38947810,-0.30778726,0.04462502,-0.20386047,-0.06058223,-0.46479015,0.31778546,0.08366773,0.05227179,-0.48070307,-0.27260126,0.00315357,0.48608116,-0.30308772,-0.33904996,0.30090463,-0.18620035,-0.01617183,-0.10091319,-0.26627090,0.36220235,0.21336307,-0.06100481,-0.45489205,-0.14815300,0.48451964,0.45881767,-0.05685090,-0.32820348,0.40474045,0.40318249,-0.21765838,-0.40305732,-0.05219249,0.07848115,0.03636046,-0.01698230,-0.10373419,-0.37994065,-0.46460710,-0.08416782,-0.15213783,0.03903945,-0.09786701,0.04382933,0.19760007,-0.30026824,0.35466592,-0.32084953,0.09742554,-0.41232080,-0.45886532,-0.18958287,0.02640238,-0.41392793,0.16223114,0.01085605,-0.45515793,-0.39461947,0.18265043,0.44957482,-0.49143699,0.46499205,-0.45348249,-0.04362929,0.04348102,0.08291144,0.43947988,0.43991115,0.20319276,0.47509573,-0.14416152,-0.44939418,0.01320092,0.25660956,0.09333305,-0.29000601,0.45567798,-0.05246787,-0.11097786,0.05288735,0.03506408,-0.06995860,0.36323579,-0.43857456,0.01610398,0.02545726,0.07227047,0.06094364,0.13083779,-0.24507910,0.01051846,0.13940080,-0.28008705,0.05703680,-0.40419733,0.26345840,-0.36003981,-0.46484007,0.20312646,0.34282032,-0.49016347,-0.44156551,0.39309886,0.02278450,0.31479313,-0.01369919,0.23274397,0.27044181,0.43381353,-0.37829678,-0.17671249,-0.03112745,0.05174329,-0.31347670,0.03029799,-0.43215273
0.21198056,-0.39743154,0.12879090,-0.15718165,-0.14251064,-0.36069064,0.48221915,0.07740231,0.19634533,-0.42200953,-0.15921154,0.33625926,-0.38685033,-0.45608557,0.17907935,-0.37702202,-0.39766266,0.07217267,0.14576123,0.41712935,-0.44152869,-0.12152198,0.18755776,0.49228484,0.00018124,-0.48915473,-0.03884261,-0.44807547,-0.30263143,0.49145538,-0.38022820,0.40934912,-0.40597616,0.24856270,-0.24783253,-0.04848680,0.38787207,-0.26561338,-0.47108564,0.08421028,-0.18762291,-0.13029634,-0.07952934,-0.07449197,-0.08639502,-0.40044728,0.04850463,0.01595574,0.17172868,-0.30573403,-0.06691491,0.23019998,0.07274399,-0.37935715,0.22248482,-0.42707477,-0.36851188,-0.31635779,-0.37515023,-0.17114332,-0.32490241,-0.25537843,-0.26179419,-0.23087857,0.49318427,-0.00962672,0.22062581,0.38103792,0.22473009,0.24951664,-0.03477447,-0.46289690,-0.38078971,0.38571710,-0.03739513,0.03278535,0.48528895,-0.48885624,-0.45118301,0.15703435,-0.29456555,-0.01808664,-0.11276495,0.27817844,0.10255621,-0.39028013,0.35110368,0.23404433,-0.20663792,0.47595345,-0.43709894,-0.03154459,-0.27942890,-0.19888844,0.23757167,-0.28629733,0.29137948,-0.04187435,-0.40536797,0.01608764,-0.29237465,0.05986789,0.05314848,-0.17318480,-0.05426978,-0.48403358,0.35986556,-0.06885444,-0.47279079,0.40872079,-0.41181879,-0.26735634,-0.10936585,-0.02458373,-0.48917790,0.49319035,0.08513572,0.36192055,0.22722388,0.37849168,0.33788796,0.29013006,-0.15306337,-0.44154030,-0.40859448,-0.41526619,-0.22769866,0.38278015,0.04290279,-0.13252605,-0.10046907,0.25099186,0.42719497,0.45232215,-0.42245522,-0.12708108,0.46837236,0.43743315,0.30410439,0.49558952,0.34615394,0.39228560,-0.27176682,-0.26321200,-0.13229892,-0.26095672,-0.27008421,0.45281266,-0.39903556,0.45726869,0.33141839,0.43898953,0.24770513,-0.32122264,0.49757761,0.33861396,-0.23695991,-0.22994187,0.22219309,0.30667895,0.13711368,-0.37959158,0.05590312,0.06339456,-0.42761789,0.13359404,0.43663740,-0.45900354,0.07108229,0.24073836,-0.46341401,-0.08275606,0.13305235,-0.23512361,0.15408731,-0.49917260,0.00395346,0.38416549,0.45382183,0.10504255,0.34149791,0.28506984,0.04348925,0.08821089,0.46336565,0.04177585,-0.07164319,-0.27272333,0.31120926,-0.35139121,-0.46857794,-0.05321050,-0.23154186,0.08767056,-0.48921308,-0.15863351,-0.27862710,0.44742533,-0.11764437,0.29253768,0.18827866,-0.08092113,-0.29014931,-0.17869382,0.18386639,0.36377582,-0.17812333,-0.31267093,0.24740754,-0.22503225,0.29178592,0.08822539,-0.43981075,-0.16327156,-0.32141422,-0.47540878,0.37778763,0.10477190,-0.25060982,0.18742653,0.25279248,-0.21893100,-0.36511590,-0.47812657,0.36893796,-0.35429413,-0.13676829,-0.40959317,-0.40675603,0.24568709,0.38283530,0.28121370,-0.33564613,-0.40798168,-0.39825073,0.34733406,0.45527746,-0.07652913,-0.46497908,0.20327734,0.20001831,0.32905114,-0.20639661,0.26052055,-0.33539749,-0.02984134,0.28342807,-0.45858870,-0.42551503,-0.46696447,0.22964875,0.32810485,-0.18536455,0.36460119,0.34997635,-0.31637149,-0.48963994,-0.28679972,-0.22621937,-0.39690397,0.45818645,-0.34425634,0.38354191,-0.37806636,-0.25212884,0.48617714,0.47084758,-0.29476934,-0.08780516,-0.49185038,0.40931882,-0.38898673,0.33545571,-0.29830757,0.37145492,-0.49969568,0.17195733,0.15533055,-0.45746947,0.24730329,0.18897751,0.27223876,0.07540413,-0.49637355,0.13681811,-0.07472145,-0.31299782,0.14657422,0.13757649,-0.04033257,0.24910374,0.09590045,0.11648232,0.13432195,0.22064417,0.36774618,0.12358128,0.19302744,-0.42806080,-0.46652479,0.19941193,0.48108764,-0.35436102,0.03601789,-0.31676595,-0.48266566,0.03666223,0.35560406,0.17290897,0.07921415,0.10290273,-0.13816197,-0.14862453,-0.32183566,-0.13474623,0.48759946,0.10248289,0.05129345,0.13404434,-0.25898437,-0.48735112,-0.11438134,0.34055117,0.13309917,-0.47749414,0.06097810,-0.00203171,0.14309739,-0.24762976,0.07027792,0.17807805,0.45288331,0.05169651,0.32360591,-0.01121621,0.23497874,0.34095812,-0.47455541,0.09058029,0.01383295,0.10459332,-0.30662983,0.37551570,0.45530006,-0.12947494,-0.26011377,0.44305576,0.47441349,0.29328576,0.08036468,-0.28042401,0.30946729,0.46677506,-0.44281265,-0.06179518,0.48633541,0.11750818,0.43735161,0.13101427,0.37076682,0.00789473,-0.19098588,0.32353810,-0.44040717,-0.36738020,-0.18767772,0.29457324,0.47357045,-0.16226962,-0.11497476,-0.01278954,0.44162003,0.07742680,-0.13818748,0.39730490,0.44948574,0.10435197,0.34413486,0.42769086,-0.10046469,-0.07720440,-0.35723663,-0.29506393,-0.11223304,-0.29919081,0.14505549,-0.12428133,0.31913693,0.08273412,-0.49316967,0.18992557,-0.40936794,-0.18415490,0.01346386,-0.34977511,-0.05153753,0.32578532,0.44467871,-0.07827415,-0.33724070,-0.17115337,0.40829425,-0.39522622,0.40771808,-0.22730886,-0.49446222,0.36015270,0.37765750,0.34682675,0.28393589,-0.22536561,-0.23047702,0.42832686,-0.01870883,0.15871224,-0.37003625,-0.37312620,-0.46534084,0.44918595,0.20960960,-0.45850909,0.13911155,0.30024166,-0.14266828,-0.34742871,0.45035751,0.30550322,0.47766441,0.39413122,-0.27340614,-0.35929853,-0.27575322,-0.36265036,-0.25150914,-0.36564079,-0.09021291,-0.24871975,0.49171436,-0.21377396,-0.40057507,0.27740335,0.06237594,-0.13007203,0.20654465,-0.45569861,-0.47104888,0.33662209,-0.32882963,-0.43638810,0.28580730,0.38077980,-0.39490487,-0.07512096,0.18093732,-0.03774756,0.07701425,0.13053119,-0.23302967,0.05461720,0.02623936,-0.00370244,0.19830571,0.25222414,0.13291248,0.44455407,0.38466255,-0.45751240,-0.30243240,0.37823033,-0.16961346,-0.20218269,0.15639472,0.39323602,0.16801501,-0.13690174,0.43757100,0.19698234,-0.30028033,-0.39126036,0.26057925,0.48552707,0.48952676,0.36551570,-0.08998748,0.16980785,-0.17277888,0.48745518,-0.19768024,0.09700760,0.04452557,0.32872254,-0.40827522,-0.25957557,0.07978114,0.22528243,-0.31334850,-0.03394985,0.26899011,-0.11489233,-0.15502428,-0.40021334,0.18317198,-0.49836509,0.49316886,-0.14873103,-0.13526677,0.43073275,-0.45173604,0.06454030,-0.46052041,0.30841317,0.04934208,-0.47172393,0.17383116,0.46063411,0.20036150,-0.49663403,0.44858424,-0.49886322,0.09828788,-0.00863157,0.32961997,0.19087641,0.23314164,-0.08931011,-0.08294240,0.42076182,0.37748886,-0.31336859,-0.19375498,-0.27722227,-0.21340965,0.48949827,-0.27558736,-0.22024234,-0.15916485,0.08936214,-0.28935882,-0.11149013,-0.34723986,-0.25088516,-0.30253932,0.20390661,-0.22053504,0.37245759,0.16355118,0.47808906,0.37479192,0.11195514,0.47947294,-0.02655307,-0.39598447,0.31017604,-0.33456740,0.33814105,-0.27851705,0.08304047,0.25921207,-0.40080229,0.26973413,-0.43452259,-0.17802456,-0.44366719,-0.44493065,0.04665712,-0.16368858,-0.10444223,-0.36509361,0.04579047,0.28453851,-0.21083010,0.29645527,0.48207520,0.49203468,-0.42453319,0.35507679,0.15650765,-0.44663022,0.22951359,-0.23142107,-0.46607781,-0.29585126,-0.12645465,0.34454566,-0.13014819,-0.28813567,-0.43378678,0.45294867,0.47109480,-0.33458893,0.22269606,-0.46331302,-0.01230858,0.27941672,-0.40809628,-0.46616575,-0.38484050,-0.01215613,-0.33008858,0.16176482,-0.22832242,-0.04193214,-0.04174949,-0.24541315,-0.04930581,0.03310280,-0.39082355,-0.39252223,0.08768853,0.33990416,-0.12302314,0.12199566,-0.45595630,0.25056593,-0.03332025,-0.08600701,0.46244914,0.03289275,-0.13305475,0.43363932,0.19859003,-0.40994015,0.47056206,-0.31381099,0.36974509,-0.43694539,-0.27923150,0.48424282,0.04892195,-0.11128003,0.14531320,0.32072424,0.34676018,-0.39687496,-0.42459552,-0.20180533,0.13742359,-0.31455464,-0.09379850,-0.27477278,-0.47478768,0.28319003,0.34730863,-0.43069358,0.03376192,-0.18601184,-0.01670039,-0.00376642,0.34707384,0.35061000,-0.06979884,0.04581992,0.44093837,-0.09874122,0.23185176,0.30893261,-0.03835420,0.45047489,0.29219385,-0.48974585,-0.16129194,-0.06280728,0.33126744,-0.31376697,0.04121099,0.40719566,-0.01535959,-0.32138915,-0.40744002,0.39093166,-0.09606238,-0.38220075,0.17412176,-0.24875361,-0.31289433,-0.29207401,0.06537330,0.17064858,0.20433584,-0.08765700,0.02091842,-0.36586966,0.45748190,-0.03938926,0.03389508,0.18829105,-0.23106512,0.49501473,0.13799157,-0.43932027,-0.49451736,0.47750263,-0.00123522,0.33722443,-0.33607261,-0.45994713,0.24440816,0.14865282,-0.28124055,0.33700173,0.03958448,0.12269708,0.45480098,-0.28628774,0.37399884,-0.35802530,-0.07835364,-0.06082893,0.31226773,-0.37440129,0.35122317,-0.16699491,-0.24036233,0.30859252,0.29332027,0.29298653,-0.00365757,-0.43787445,0.28838520,-0.36481472,-0.37637118,0.29424824,-0.38711315,0.12251762,0.13149253,-0.22313014,0.16264691,-0.12407496,0.42552268,0.38140636,-0.28707324,-0.03489312,0.00409574,-0.33229154,0.17874825,-0.12203891,-0.19044467,-0.39966171,0.31718031,-0.37804952,-0.27391170,0.16846435,-0.04515883,-0.01446469,-0.02300217,-0.25170429,-0.22117266,0.47384408,-0.18915285,-0.43261249,-0.39083503,-0.06544044,0.36164603,-0.27792220,-0.44288795,-0.00685380,-0.00105234,0.21975896,0.36907123,-0.07552966,0.10116532,-0.41800352,0.38957348,-0.39473797,-0.25027975,0.06839014,-0.01668516,0.05935499,0.16879258,-0.19946652,0.18129113,0.39486388,0.46904051,-0.36380120,-0.11950407,-0.05383138,-0.11541609,0.15938214,-0.07994818,0.19543608,0.22677097,0.02921679,-0.37000436,0.08841700
0.25129459,-0.31289231,-0.41843680,-0.24975775,0.40686665,0.45063443,0.17471259,0.00803197,-0.46736757,0.06429009,0.11330073,-0.21764183,-0.36731901,-0.40338362,0.34171829,0.30147521,-0.10284306,0.02302454,0.19635741,-0.13378412,0.15923482,-0.42313804,0.31238683,-0.45618128,0.23624410,-0.26756136,0.23925480,-0.03698493,0.26165544,0.36925045,-0.44856792,0.01295003,-0.44364186,-0.36700472,0.26319228,0.46322479,-0.41637029,-0.06209513,-0.02874035,-0.38371992,-0.49780505,-0.41544174,-0.10137125,-0.36510992,-0.31881911,-0.25965587,0.43635408,0.07833081,0.26336313,0.13270857,0.44454669,-0.07740205,0.20957053,0.25693351,-0.03358333,-0.05418537,0.48937216,-0.29432852,0.40882970,0.25102759,-0.42507808,0.46026178,-0.23602238,-0.36871994,-0.40674295,-0.47283010,-0.40547292,-0.32306999,-0.03491111,0.06576880,-0.20681400,-0.03269641,0.15044617,0.19198170,0.10233767,0.33166910,0.43219981,0.03858283,-0.09014970,0.19547132,-0.32879461,-0.14562954,-0.38193110,0.38077591,-0.38869603,0.08448557,-0.17340946,-0.39932387,0.29015705,-0.26457976,0.35170468,0.36509380,-0.30431246,-0.38431240,0.49639930,-0.21101309,-0.35712118,-0.40908749,-0.03403481,0.10810293,0.15695964,0.25936123,-0.42443259,-0.19260963,-0.04893290,0.17750082,-0.36155378,-0.11714794,-0.28416178,0.04826132,-0.42167729,-0.11295639,0.40263177,-0.30360840,-0.23218048,-0.48606426,0.28087810,0.09441958,-0.38535947,0.07108800,0.32983777,0.46630081,-0.06386964,-0.47444250,-0.41794813,-0.06751388,-0.18554821,-0.27518713,0.02314636,0.27960277,0.33188102,-0.32073064,0.03901230,0.40784544,-0.01322883,0.48998249,0.08531139,0.12534371,-0.12715235,0.30114955,-0.32639498,-0.04882965,-0.31180684,-0.42376323,0.14756916,-0.04396077,-0.40976684,-0.07150960,-0.44956249,-0.29522367,0.49952576,0.38034110,-0.32882135,-0.06447076,0.40551753,-0.24735279,0.36721016,-0.28117054,-0.02366305,-0.11025805,-0.50031405,-0.18965965,0.07116939,0.03960579,-0.28140209,-0.44177235,0.02973701,0.30400052,0.18360628,0.40258940,0.10515007,0.35721177,-0.14622923,0.29336815,0.43351980,-0.49866045,-0.25065606,-0.47640614,-0.07024526,-0.20023629,-0.27159174,-0.07081052,-0.32017495,-0.10094375,0.36359454,-0.41585449,0.15055749,0.23096939,-0.19499969,-0.36996384,-0.37605394,-0.19380915,-0.05899040,0.19558492,0.34624580,0.15994889,0.25389327,-0.12400473,-0.03605233,-0.06251078,-0.22142856,-0.43088056,-0.20524016,0.13230365,0.36236227,-0.27193624,0.13358723,-0.38818812,-0.24805427,-0.43637070,-0.08833684,-0.02045850,-0.00910632,0.08929851,0.37718303,-0.14446816,0.17642637,0.03182995,-0.41009959,0.48291114,0.16246205,-0.28556506,-0.21012784,-0.39590177,0.41026632,-0.36381258,0.26405374,0.16414443,0.01215711,-0.27195789,-0.39834833,0.29066838,-0.20295876,-0.10375284,-0.07699205,-0.34038850,0.12477550,-0.44279369,-0.22871572,0.37480420,-0.38239821,0.17998467,-0.14620159,0.11126206,-0.22612602,-0.26428284,0.46980307,0.45144332,0.26810278,-0.43958086,0.43537086,-0.06868713,-0.22465510,-0.27464779,0.03541768,-0.31439108,-0.13847023,-0.20051898,0.34973638,0.37366644,0.02741066,0.45130660,0.16437757,0.32466459,-0.15180311,-0.41200585,0.48336763,0.46983663,-0.35913550,-0.24764767,0.34638058,-0.23652739,0.43815110,-0.29504825,0.37722139,-0.28705546,-0.05882395,0.34769256,-0.33491457,-0.29021249,0.40850431,-0.39949337,0.14110530,-0.31615018,-0.17414590,-0.32348905,-0.13057783,0.18737756,-0.02412200,-0.28089283,0.06099694,-0.49632355,-0.32889999,-0.27431918,0.32625418,0.01487922,-0.19052348,0.30952305,-0.01057746,-0.04288495,-0.43217976,-0.16050296,0.22215130,-0.49359898,0.04460015,0.09959129,-0.28050986,0.48587106,-0.05260563,-0.11541860,-0.30433230,-0.14411038,-0.01495118,0.33674230,0.03978411,0.31097302,-0.48682898,0.40902520,-0.00184085,-0.01054346,-0.37119827,-0.44106995,-0.01004746,-0.20479118,-0.21832213,-0.18112401,0.31696149,0.09826885,-0.36657805,-0.19136903,-0.44408959,-0.29895758,0.14783361,0.27796083,-0.29258240,-0.30766287,-0.12244027,-0.07309333,-0.32178110,0.32494403,0.31142598,-0.12613014,-0.31908660,-0.20345928,-0.28956181,0.22032390,-0.39265804,-0.27589834,0.13006404,0.10448656,0.20960147,0.25428358,0.16241415,-0.29510613,-0.44268515,0.45074116,0.02737710,0.37530067,0.04867775,0.15999602,-0.31669013,0.10438556,0.36100823,0.33104248,-0.11765502,-0.43157614,-0.47661339,0.25990230,-0.00473003,-0.29845159,0.08480075,-0.19335033,0.07518839,0.26549406,0.10346113,0.28654691,-0.01375519,0.20833167,-0.49404744,-0.38762447,-0.18505134,0.22284866,0.37483420,0.48285941,0.42981482,0.43212165,0.43246543,-0.04406297,0.30664852,-0.01902304,-0.38411120,0.48989362,-0.41463602,0.47689605,0.32093610,-0.03228675,-0.45476620,0.34422469,-0.27259200,0.04035104,-0.45441159,0.31232299,0.34779382,0.12177668,0.07717786,-0.05257867,-0.09669251,-0.43856442,-0.33895113,-0.08263575,-0.31889213,-0.02064428,-0.35878859,-0.44473851,-0.03937366,-0.43027918,0.48670878,-0.10699344,0.02558953,0.29333678,0.37398766,0.14147814,0.28323040,0.45934764,0.11829426,0.10402835,-0.07324082,0.16332685,-0.05188845,0.15454857,-0.29564888,-0.00627716,-0.03549088,-0.45237500,-0.38835044,-0.45667243,0.00250133,0.02322526,-0.38985246,0.16505033,0.44100843,-0.20940925,-0.35697634,-0.41876648,-0.15457004,0.10359794,-0.34913467,-0.16786208,0.49660854,0.17645248,-0.37452541,0.37059471,-0.18213002,0.40857070,0.32971629,0.43595276,0.01259580,-0.24313241,0.09971323,0.45960272,0.40837651,0.30006797,-0.04780992,-0.12261153,0.35599499,0.07155597,-0.07559862,-0.14068900,-0.40502854,0.03411619,-0.47668110,-0.46470578,0.32444924,-0.33370960,-0.38354672,-0.33013718,0.26988219,-0.23268444,0.00200294,0.26650519,0.44377361,0.12741229,0.13700320,-0.23844272,0.03625402,-0.03272800,-0.30243060,-0.45303163,0.22095929,0.29424445,-0.49216177,0.13484020,0.10229473,-0.03365590,-0.48512866,-0.04105837,-0.46212170,-0.06120978,0.31740007,-0.36765056,0.47277192,0.34067222,-0.33243710,0.29713331,-0.49309449,-0.21598458,0.46700074,0.27681246,0.05138708,-0.03091331,0.04337704,-0.00468104,-0.40306830,-0.31941517,0.25571100,0.13049527,0.14481221,0.45197358,0.18013580,-0.12900913,0.25314216,0.19248076,-0.49243576,-0.14454864,-0.34164614,-0.47825533,0.31376276,-0.30400056,-0.03946494,0.13101120,-0.17182086,-0.06685862,-0.02838773,-0.00425795,-0.26972741,-0.02145751,0.27985180,-0.30256245,-0.24451327,-0.16864342,0.16663465,0.29825193,0.32455808,0.26076465,0.47682275,0.08111316,-0.10564668,0.12606768,0.03809215,-0.42252489,0.49800646,-0.20926942,0.26924100,-0.49499992,0.14580460,0.42749540,-0.47330415,-0.04060861,-0.37665024,-0.01287485,-0.40962028,-0.04847110,0.42026289,0.06201735,0.44739494,-0.34926654,-0.45930180,0.22710493,-0.15228700,-0.20520869,-0.44365908,-0.48802871,-0.40728523,0.38294289,0.27584676,-0.42703229,-0.03268845,-0.32770361,0.19974485,-0.49484286,-0.25068296,0.19746523,-0.20431908,-0.48146220,0.20246559,0.44140525,0.44598407,0.22913775,-0.09920443,-0.43066690,-0.28374010,-0.00880951,0.02098726,-0.36324865,-0.44661927,-0.03188801,-0.21352560,-0.40791037,-0.30679968,0.13297296,-0.11204739,-0.24806059,0.14780338,-0.01676246,-0.36256239,-0.07434474,0.05709947,0.10485502,0.09796235,-0.24308355,0.10995356,0.34731636,0.45443651,0.40561475,0.36579118,0.15687971,0.34701781,0.31180657,-0.11398256,-0.25218266,0.38123001,0.10246603,0.23908829,-0.09812461,0.23762099,0.29018029,0.36793406,-0.47612484,0.38423528,-0.43625222,0.15929935,-0.22537232,-0.18173660,-0.19048712,0.25900845,-0.04388877,0.23549651,-0.18355828,-0.43896354,-0.16649455,0.07339398,0.17097693,-0.31919248,0.02782186,0.07658990,-0.45336997,-0.31529838,-0.07639689,0.35846214,0.07076278,0.17141010,0.23916537,-0.32819578,-0.09143802,-0.36020767,0.41035392,-0.29855431,-0.48946013,0.43662142,-0.41217150,-0.42328234,0.09818112,-0.13641972,-0.10439666,0.40817938,-0.37704739,0.35174745,0.14369394,-0.06060337,0.41276833,0.47718809,-0.48720857,0.08374494,-0.34200511,0.04061328,-0.33966644,-0.29537416,0.22528484,0.08393138,-0.43696404,-0.20405412,-0.24492509,0.30226830,-0.03134568,0.16541374,0.44385575,-0.11956946,0.36813691,0.45573850,-0.18170757,0.45665091,-0.46700638,0.41701424,-0.17952799,-0.07148168,0.32516396,-0.05659803,-0.21974097,-0.03115098,0.38280008,-0.30697264,-0.05396288,0.39559150,0.27677232,0.10403079,-0.06377584,0.43716220,0.30873418,-0.33834908,0.02118374,0.37184591,-0.04243583,0.27633152,0.17433097,0.42653649,-0.05778183,0.11852556,-0.19265728,-0.18945710,0.07455833,0.12597813,-0.23273490,0.10743611,0.04294448,0.08772529,-0.46404344,-0.13189087,-0.46887166,-0.18378441,0.33695815,0.41392842,0.00924440,-0.21698740,0.30953983,-0.21394929,0.38708068,-0.25420416,-0.27684441,0.19564648,-0.09286820,0.24407204,0.06736411,0.36480987,0.02056724,-0.25825938,0.29136645,0.46278012,0.36034315,-0.40118542,-0.22670184,-0.06516893,0.22477508,0.04056168,-0.45773190,-0.23227889,-0.37171270,-0.42177534,0.13583024,-0.34058435,-0.10555974,-0.02721160,-0.42665117,0.40369477,0.25579812,0.38287337,-0.31029978,0.14281225,-0.37140901,-0.08717911,-0.16150576,0.03583145,-0.34300962,0.40589500,-0.09936989,0.17757938,-0.35234287,-0.30798443,0.14035041,-0.49201247,-0.20917060,0.41364837,-0.05718140,-0.48439552,-0.04578996
-0.01491330,-0.21667441,0.08249735,0.06331137,0.41915584,0.24191300,0.45775162,-0.10805577,0.31525707,0.36143483,-0.35227210,0.19812106,-0.44886671,0.29053884,0.32670977,-0.03604587,-0.37096601,-0.13745716,0.12094704,-0.46506821,0.26317377,-0.20147467,-0.31741152,0.45518933,0.43887574,-0.30942399,-0.25398127,0.35252410,0.13339461,-0.23837679,-0.19326585,-0.38151869,0.04494880,0.38923150,0.18179268,-0.03589536,0.13114449,0.13954430,0.35604829,-0.05360206,0.00097913,-0.49622451,-0.35548918,0.05208839,0.29430311,0.47122596,-0.48393556,0.42334961,-0.16622477,0.13701358,0.45828140,-0.40305100,0.43553891,-0.35913012,-0.44786167,0.37441465,-0.16855411,-0.20184294,0.22693875,0.46484050,0.05978028,-0.46632710,-0.41667819,-0.39527092,0.42290440,0.26511449,0.06882688,0.05403043,-0.09525541,-0.07503202,-0.49955661,0.40551431,-0.07164239,-0.35548766,-0.04266239,-0.27738000,-0.38391143,-0.02624432,-0.35372058,-0.05002692,-0.38916954,-0.39539401,0.04692969,-0.45363063,-0.25452413,0.09906802,0.42078401,0.07692176,0.39722509,0.14772276,0.04176857,-0.04297294,0.18148165,0.12521449,0.06189247,0.10445183,-0.10962627,-0.36918705,-0.34159545,0.29445562,0.05469739,-0.34205815,0.19977428,0.48356077,-0.19644471,-0.34181448,-0.29294667,-0.08002821,0.13206246,-0.14659031,0.36995862,0.24289292,-0.04198432,-0.08311169,0.28926229,0.20349155,-0.48404179,0.21006553,-0.21952030,0.41326293,-0.14201322,0.32254791,-0.12947484,-0.46051553,-0.05260713,0.43174398,0.14282237,0.33656221,-0.43859433,0.30057061,0.13130379,0.11749511,0.46085526,-0.16666132,0.10249499,-0.23541007,-0.00890000,0.30913537,0.18436349,-0.37688116,-0.33745494,0.05432210,0.36601176,0.12056068,0.47124152,0.15537884,-0.17571726,0.48737666,-0.13439646,0.10480715,0.40065542,0.22346413,-0.07313793,-0.22961597,0.26186189,0.37338467,-0.29809605,-0.09465946,0.21122405,-0.23488611,-0.29163485,-0.15531320,0.38391003,-0.33117312,0.17692134,-0.01501321,-0.06746850,-0.33245831,-0.20592867,-0.38310521,-0.20933948,-0.04338778,0.17124349,-0.34327314,-0.42274419,0.14251639,0.31217553,-0.09848861,0.12988632,-0.32235804,-0.49414983,0.02973303,0.40002986,-0.06787791,0.30067697,0.16310323,-0.19298336,-0.49611899,-0.43075562,-0.48158562,-0.23134110,-0.22350200,-0.13823500,-0.34914156,-0.05598411,-0.46222268,0.13570050,0.37653880,-0.29470349,0.42972557,0.49338734,-0.00409346,-0.11360170,0.16472669,0.15275582,-0.03633235,-0.19279068,-0.03531110,0.36489321,0.43658235,0.14102967,0.36986811,-0.03326558,0.04273455,-0.19672847,-0.23258532,-0.29490391,0.10938851,-0.22952736,-0.22636671,0.12708332,0.03818620,0.04915752,0.48794708,0.18866785,0.49300795,-0.47431619,-0.17570911,0.36950319,-0.26911346,-0.24598724,0.36295694,0.22696127,0.14052920,0.02769732,-0.12016966,-0.39595941,0.33386418,0.34292426,0.46775154,0.27068307,-0.01411164,0.33929021,-0.26233203,-0.47217493,-0.35808079,0.00513623,-0.26678137,0.25156476,0.27545918,0.00623236,-0.12207431,-0.18698653,-0.44486251,-0.13415225,-0.49840469,-0.45194337,-0.10861626,-0.17398985,0.41772094,0.12265991,0.08034910,0.28093392,-0.15030173,-0.27983683,-0.19276859,0.22735982,-0.17686558,-0.35778014,0.07317691,-0.20636742,0.41386108,-0.44173980,-0.36777880,-0.34814228,-0.41270047,-0.22462110,0.15759995,-0.17963122,-0.47345027,-0.06741613,0.32649834,-0.09554716,0.24547452,0.38150216,0.27023699,0.24714267,0.42970395,-0.33806041,-0.42642723,0.34780051,0.28442684,0.15297589,0.12721066,-0.36760552,0.37340329,0.43617520,0.36297539,-0.30111084,-0.42119718,-0.06526270,-0.00863714,0.49292138,-0.00518425,0.12569479,-0.35372626,0.08260639,0.40111039,0.30372317,0.40296157,0.42764057,-0.26380990,0.22933889,-0.16795442,0.48174633,0.11083184,-0.39757718,0.22921532,0.04103068,-0.23561826,0.30227214,-0.11215432,-0.45187857,-0.04382398,-0.48304066,-0.31699932,-0.16988339,0.45232392,-0.45590947,0.02764311,-0.46882735,-0.01911761,-0.47817112,-0.47371173,0.47676843,0.14789094,-0.32745858,0.05938312,0.04899173,0.47620715,-0.03775034,-0.02347878,-0.28771072,-0.30858846,0.30850162,-0.30555864,0.30313630,0.41181825,0.42433059,-0.15561250,-0.32373093,0.22726008,0.23332985,-0.27469895,-0.31747106,0.24811231,-0.09460246,0.01069360,0.20011790,-0.04835262,-0.45848119,0.23402714,0.43391480,-0.43615615,0.26033278,0.41070745,0.21173417,0.43286035,-0.02995359,-0.23944279,0.40869686,0.43188740,0.23693790,-0.37852056,-0.37560625,0.04696202,-0.18251832,0.42857645,-0.04140234,-0.25919554,-0.22797002,0.13408312,0.46628962,-0.49767005,0.35574408,-0.35366131,0.25011275,-0.23649410,0.16043971,-0.04668961,0.21667817,0.20246270,-0.31263733,0.15060496,0.26630656,0.44767943,0.06127352,-0.02226063,0.37995295,-0.46944950,0.23799411,0.28920262,0.46387831,-0.02321206,0.41289682,-0.41072670,-0.47709053,-0.27226472,-0.48444774,-0.01959761,-0.03230296,-0.21474346,-0.38874199,-0.06840957,-0.21225400,0.46954297,0.08144752,-0.45908334,-0.26543621,-0.25763472,-0.00575844,0.45124245,0.44482798,0.18162696,0.10183910,0.21069670,0.12842564,-0.33813158,-0.31189206,0.00901278,-0.30571228,0.42871316,-0.19930230,-0.34115802,-0.09622103,-0.28972780,-0.25366316,-0.07279808,-0.06098354,-0.23913919,0.40476224,0.40446690,0.04678618,-0.48133627,-0.16067267,0.33708696,0.48948853,0.42120295,0.37797112,-0.27596083,-0.33643253,-0.12774708,-0.32469563,-0.39214470,-0.44719373,0.27573258,0.31822686,0.18226326,0.44026275,-0.49049921,-0.30623548,-0.36525135,0.43582497,-0.00814290,-0.20643833,-0.15804883,0.20405535,0.03886756,0.26607243,-0.35892625,0.30096416,0.17339754,-0.45183900,-0.15067009,0.19282642,-0.11226490,-0.31367423,0.18229617,-0.19106186,-0.43566831,0.40630843,-0.02801226,-0.06434960,-0.41964435,0.07953908,-0.01042046,0.35868640,-0.09926564,-0.32653778,0.29822809,-0.09217555,-0.13402532,0.43478968,-0.15300832,0.35897419,-0.27380747,0.18573771,0.06230705,0.26700747,-0.04599270,0.20484055,0.06838857,-0.37251401,0.25293067,0.41757636,0.32030603,-0.35933816,-0.39610199,0.00246630,-0.05071315,-0.33208349,-0.09183916,0.42091543,0.10407371,-0.00987738,0.00270931,-0.40532463,-0.15179821,0.40196166,-0.23180263,-0.35078330,-0.18672167,0.13475239,-0.41843071,0.15815744,-0.00573747,-0.19025199,-0.15483114,-0.44340107,-0.42374120,0.29884815,0.26116850,0.14453395,0.42633414,0.01409296,0.06211224,0.24651558,0.15465709,0.16634534,-0.25054671,-0.39604196,0.33363159,0.15737907,-0.47438321,-0.06190869,-0.35277652,0.02809681,0.03391684,-0.00151156,-0.06666068,0.30241096,0.14610300,0.24555233,-0.06228685,0.22889279,-0.09597694,0.43127470,-0.46204228,0.24888191,0.48769349,-0.38581486,0.04773005,0.24886519,0.25875196,-0.02596071,-0.23690492,-0.17870614,-0.27863060,0.41798078,0.48671769,-0.03054902,-0.47870324,0.31983790,-0.37302709,-0.45237093,-0.24037935,-0.22297888,0.07830029,0.29390527,0.27505285,-0.48885000,0.09648475,-0.07861188,0.25668164,-0.46617254,-0.35011731,-0.33957547,0.46494252,-0.31218815,0.40931538,0.45263916,-0.19798181,-0.04298921,0.20160357,-0.43889750,0.43178593,0.46519188,-0.11789349,-0.34814152,0.38189853,-0.13200179,0.12124091,0.40368360,-0.31079309,0.24980561,0.45312339,-0.05039415,-0.47305300,0.03112825,-0.25646687,0.30190211,0.04218375,0.33984491,-0.27707751,-0.20157330,0.37340594,-0.12723039,-0.04112007,0.33834394,0.06057555,-0.13183566,0.29088013,0.36269364,0.32559504,-0.00705928,0.42413619,0.25716397,-0.04241189,-0.19469561,0.40807322,-0.16116986,0.17285745,0.02979223,-0.25638549,0.36301812,-0.21996928,-0.30359149,-0.18772514,-0.19322519,0.22730524,0.05545094,-0.39179847,-0.23090782,-0.10487225,-0.16888366,0.06754745,-0.23146806,0.20387395,-0.47357081,-0.39315756,-0.23554447,-0.10516911,0.39807381,-0.37271504,-0.27993129,-0.10930499,-0.44939294,0.47623551,0.34721551,-0.14484363,0.38454817,-0.31317761,-0.47130605,-0.08559130,-0.07011235,0.39117418,0.19424345,0.12619003,-0.29682959,-0.49932348,-0.14673486,0.25858107,-0.39111810,0.12236614,-0.34629118,-0.06000325,-0.31008779,-0.07780523,-0.35615642,-0.28376261,0.02904603,-0.09158966,0.11106326,-0.07280762,0.03544049,0.33080475,0.31735724,0.08581410,0.30723653,0.16494648,0.44113932,0.19143426,0.35106499,0.46935013,-0.39424632,-0.21908650,0.36041419,0.29983800,0.40695877,-0.43644161,0.30051452,-0.23977610,0.32213946,0.40939642,0.38258930,0.47583143,-0.15064522,-0.42756857,-0.10204195,-0.00683152,-0.21137522,0.42697244,0.40123981,0.39939592,-0.14604759,-0.06313617,0.23052897,-0.32831642,-0.47717329,0.03769888,0.33621398,0.46368929,-0.27088386,0.18725408,0.43301539,-0.16518222,0.46810039,0.29341069,-0.36534422,0.37505916,0.35696907,0.43517031,-0.36471608,0.17910763,0.34454637,-0.48215424,0.15490968,-0.30609696,-0.40973688,-0.44706919,0.18704708,-0.12100378,0.48013144,0.08876126,-0.22106024,-0.16552845,-0.47411795,-0.49033907,0.00602308,-0.45133434,0.04734134,-0.15780482,-0.48765226,0.27643677,-0.47057779,0.44535720,-0.38874545,0.49752260,0.23876789,-0.25408967,0.37258175,0.09573594,-0.31892328,-0.49214117,-0.22515791,-0.47435299,-0.47426356,0.42978134,-0.28043947,-0.38394695,0.48279764,0.40679319,-0.00473263,0.46306499,-0.00430560,0.27436077,-0.20241735,0.02161802,0.28403063,0.30359955,0.07028205,-0.16862803,-0.35420528,0.08262980
-0.39219126,-0.32478307,0.02798700,-0.28093671,-0.32726047,-0.23324511,-0.03502637,-0.45467872,0.36249186,0.14605427,-0.44681390,-0.36266265,0.17170163,-0.42107599,-0.43286035,0.39131038,-0.30496134,-0.45001048,0.29815934,0.19037466,-0.48689759,-0.20612108,-0.03525973,-0.18931494,0.31549694,-0.25122910,-0.38571540,-0.11422100,0.08014287,-0.23992067,0.46840880,0.18795161,-0.06470375,-0.00360420,0.40701490,0.10803578,0.26315069,-0.12801147,0.15335541,0.12563232,-0.48195720,0.20653217,0.26295113,0.18972188,0.28543086,0.33007163,0.08102981,0.48050583,0.38010907,-0.12078585,0.17088048,0.39321148,0.17309307,-0.36437924,-0.29610346,-0.01140999,-0.11560834,-0.18181886,0.37436901,0.46453453,0.07826047,0.34277780,0.15248614,-0.48644328,-0.16082640,0.05950104,0.12157513,-0.39771422,0.43144227,-0.22511994,0.22785692,0.44939410,0.48125394,-0.00937058,0.13903117,0.26674584,-0.17905703,-0.27976076,0.24743127,-0.29882721,0.09954577,-0.08165380,-0.40561315,-0.22736116,0.05396695,-0.20171661,0.26122885,0.43835861,0.11646453,0.13559786,0.40288879,-0.30529842,-0.02174704,0.05517407,-0.29196889,0.31724120,-0.38542562,0.32950412,0.41943013,-0.45417441,-0.39579329,0.14718380,0.49536084,-0.41414838,-0.36154346,0.13503710,0.35327333,-0.04014861,0.35551069,0.10074208,0.16102883,-0.04494354,-0.48091172,0.25541568,0.22769530,0.07305523,-0.44629189,-0.01106952,0.01136382,0.17001605,-0.37575968,-0.08597377,0.36445559,0.10226862,0.46887452,-0.42786133,-0.08091921,-0.41705445,0.40137113,-0.16111859,-0.37006094,-0.49272401,0.48804463,-0.37305311,-0.40560453,-0.37296213,0.26201947,0.44746116,0.08680153,0.11752854,0.04820325,-0.25216964,-0.42741500,0.06729087,-0.49671559,0.30028108,-0.35982219,-0.44341011,-0.21112976,0.15133729,0.22640403,-0.08724562,-0.43509203,0.09071836,-0.48472527,-0.46571799,0.16374097,-0.06411569,-0.38061417,0.06775474,0.27735268,-0.24846882,0.07638497,0.26582176,-0.12174283,0.17034142,0.39249953,-0.35988647,0.11772639,-0.02069797,0.25764207,-0.33406101,0.22717375,0.33019806,0.23291566,0.23000066,0.12997436,0.37305376,0.28672442,0.41891183,0.02445716,0.01362752,-0.16752526,0.09039870,-0.39457564,-0.15077472,0.12666383,0.27142618,0.28716196,0.24783333,-0.15980421,0.06489138,0.49898685,0.41594744,-0.16990175,-0.12316758,0.08615502,-0.27742211,0.01693736,-0.29614001,0.20188183,-0.22550874,-0.13052179,-0.07123444,-0.39551300,-0.39716043,-0.34086669,0.23517200,0.47649816,0.44654549,0.15455362,0.00131298,-0.03940966,0.48808454,-0.40674315,0.06792249,-0.16105270,0.22102517,-0.16029875,-0.37380284,-0.03172439,0.17912950,0.19022665,-0.03332450,0.09487249,-0.47973879,0.34349613,-0.31899724,-0.25718274,-0.13966655,-0.11519286,0.44465581,0.13508159,0.25510193,-0.12569694,0.24060376,0.35833046,0.03347034,-0.02487719,0.33387933,-0.02050849,-0.36988991,-0.16332309,0.44185665,-0.38033290,-0.06923685,0.00945264,-0.04218101,-0.34957725,0.34795393,0.08281646,0.11802568,0.02671521,-0.22701379,-0.41530320,-0.37838322,-0.20671080,0.42822425,-0.19733788,0.03622609,-0.21077617,0.18864187,-0.01790102,0.42500811,-0.05670899,0.35516409,0.16337465,-0.20078848,-0.11299681,-0.36146240,-0.36493575,0.36894572,-0.22978578,-0.02804752,0.30929128,-0.11218452,0.40050014,-0.18286958,0.34449964,-0.44968406,-0.33523039,-0.07270072,0.16833397,0.19153066,0.20039382,0.25320017,0.31321999,0.49390529,0.18225802,-0.38272739,0.03147586,0.47154411,0.30437011,-0.48915340,0.39294256,-0.25589133,0.36395720,0.05686201,0.04647933,-0.24555593,0.19727318,0.18090804,-0.37939713,0.46447109,-0.34952883,0.42860645,-0.14837303,-0.44933391,-0.25437209,-0.30388028,-0.39902316,-0.08955111,0.12355361,0.26959131,-0.39776215,-0.17560629,0.02376585,0.41687979,-0.18073473,-0.29500437,-0.46889993,0.34650126,-0.32778177,0.33224214,0.35634985,-0.43286511,-0.41938830,0.22391142,0.12524023,0.12551590,0.47520514,-0.18045843,-0.19542627,-0.40502720,-0.21629010,-0.04500538,-0.47644251,0.13532228,0.00566068,-0.23076964,0.33159754,0.10693517,0.18003129,-0.04416422,-0.12245603,0.28344550,0.27996618,0.39861107,0.19590858,-0.40521233,-0.39964794,0.22565853,0.44216612,-0.22406115,0.06204008,0.30108357,-0.15687584,0.14061442,0.02242109,0.46632416,-0.23501518,-0.00298577,-0.21432457,0.06955479,0.09198726,0.06936736,-0.47544952,0.11558868,-0.29515733,0.03050107,0.38520995,-0.46273692,-0.36148578,0.06589833,-0.00838858,0.01236955,-0.15508638,-0.23159814,-0.09021974,-0.45885016,-0.13488563,0.01349718,0.26964868,-0.19176146,0.28868579,-0.16944248,-0.39181944,-0.36913226,0.47040766,0.13008968,-0.40296989,-0.26460265,-0.37286965,-0.11730336,0.30495214,0.21916006,0.45220951,0.32984513,-0.16461118,-0.34186613,-0.13863348,-0.27940487,-0.30667577,-0.00363157,0.28343377,0.18337983,-0.49119309,-0.37091931,0.45357692,-0.07937543,-0.32854288,-0.18122448,0.43367356,0.44112662,0.12694030,0.22210656,-0.22887244,0.23472927,0.35285892,-0.25847114,-0.13514153,0.44989012,-0.02307379,-0.00796353,-0.16728842,-0.21767954,-0.28785013,-0.21378840,-0.38673982,0.04724624,-0.05736750,-0.02793266,0.26594626,0.13472315,0.46801932,0.04977182,-0.18088490,0.47730160,0.17811157,-0.22875041,-0.10243697,0.35006438,0.09043719,-0.16879403,0.29094314,-0.28285169,-0.44678511,-0.43790061,0.45195064,0.40610951,-0.19637213,-0.18318069,0.35612335,0.28092065,0.30972656,-0.30998484,-0.43577220,-0.47839553,-0.02511031,-0.32472092,0.06662761,0.41514830,0.14567936,-0.16757907,0.05056078,0.11328219,0.37971078,0.36663465,0.08944555,0.05799055,-0.36136984,0.48714092,-0.09200871,0.22904178,-0.18166323,-0.30093735,0.44630007,-0.12839743,-0.23883779,0.39824031,-0.22230683,0.06487246,-0.28448286,-0.36552100,-0.15370537,-0.47528666,-0.17685763,-0.09151620,-0.45603878,0.29558254,0.08225088,0.11080854,0.21152157,-0.27299540,0.44001742,-0.24149671,0.33879716,0.31979527,-0.37410595,-0.07149346,-0.12208160,-0.23514425,-0.08417226,0.28610910,0.49400683,0.23418174,0.48517009,0.44023323,-0.39440283,-0.25387484,0.33855571,-0.11635260,0.31134657,-0.44635484,0.01711375,-0.34403921,-0.42329001,0.33916807,0.06437823,-0.37805663,0.13544078,-0.35450523,0.23006870,-0.15535490,-0.12798887,0.17067411,0.10400191,-0.28880653,-0.00922436,0.23051100,0.14004104,0.36893709,0.49544197,-0.44413122,0.15503490,0.48926627,0.28958314,0.13971126,0.42939518,0.39558698,0.38633459,0.26808262,-0.22116227,0.19668494,0.32093759,0.29588937,0.35394906,0.39942586,0.13547761,-0.08257175,-0.48015736,-0.22947577,0.06380425,0.25102916,0.11608351,0.43637934,-0.07784631,-0.27940107,-0.35205496,0.41317183,0.45116479,0.28798608,0.28208296,0.44636078,0.34323999,-0.06359875,0.43532508,0.13326533,-0.42303590,0.36549630,0.02917273,0.46296853,0.13298935,0.30831037,0.16120488,-0.04437288,0.10467454,0.01487798,-0.14506694,-0.25870883,0.43385209,-0.12411103,0.01252696,-0.00187032,-0.37271594,-0.37100302,-0.06507038,0.04967865,-0.15032007,0.08286802,-0.03719906,-0.19940543,-0.12979012,-0.25594921,-0.25365576,-0.28639248,0.18117325,-0.31736948,0.34767557,0.25832995,-0.45168626,-0.12211577,0.22327407,0.18313023,-0.31320460,-0.11517025,-0.36040223,0.29309609,0.40078636,-0.00512601,-0.46549131,0.33469813,0.37099356,0.04742233,-0.16673228,0.49848451,0.17648453,0.26818138,0.04813637,-0.47401191,-0.14931250,-0.48965166,-0.17398743,0.22080348,-0.24505275,0.07345824,0.43582764,0.43771162,0.25797964,0.28558930,0.19797254,0.30743631,-0.33613510,-0.07838761,-0.00869652,-0.14858007,0.30618622,0.13026135,-0.35596575,0.20673851,-0.37481643,-0.32126016,0.04165949,0.49625077,0.22617312,0.37491134,0.49473057,-0.09743520,0.14288435,0.04251935,-0.07178592,0.49349524,0.05316055,0.25512018,0.21561314,0.30998318,-0.16921164,0.15348675,0.24911828,-0.41061555,-0.06109412,-0.05342261,0.39629968,0.10186498,0.36670295,-0.11370949,0.45250524,0.17258280,-0.48348516,-0.40348236,-0.12070559,-0.35831175,-0.22474537,0.42094735,-0.36206098,-0.49862427,0.29570570,-0.36761553,-0.09624132,-0.06138307,0.17523500,0.33265409,-0.06697134,-0.27032872,0.08893491,-0.35041644,-0.45978473,0.41970768,0.30254700,0.28802319,-0.49230869,-0.26011376,-0.26700463,0.40280712,0.34118592,-0.40052797,-0.21087598,0.29362204,0.27196186,-0.19438811,0.39013969,-0.34874373,-0.05269986,-0.33460594,-0.42781826,0.08521589,-0.33321307,0.36800465,0.21779327,0.07080070,-0.19302311,-0.10656407,-0.09620715,0.24021494,0.12316625,0.49266133,0.38938832,0.16251558,0.41165290,0.19108346,-0.05027982,0.41887824,0.43074719,0.18260296,0.32171674,0.27187428,0.28200037,-0.38917922,0.06549632,0.05396223,-0.08356733,-0.04436355,0.20522383,0.36374086,0.12103384,0.27742440,-0.05102356,0.28785084,0.14548361,-0.33308956,-0.14121486,0.45252449,0.06038948,0.26258367,0.19263328,-0.31660288,0.25513910,0.08185714,0.34568359,0.16671279,-0.22710449,-0.20463249,0.08558746,-0.29637865,0.47794186,-0.09270207,0.47549563,0.25994223,0.01811871,0.04099194,-0.18609554,0.43455137,0.49662788,-0.48087714,0.29828417,0.11765826,0.29654506,-0.25274385,-0.09448604,-0.05796240,-0.08585490,0.26426874,-0.10547475,0.47451169,0.02683675,-0.41287114,-0.34214401,-0.21802629,0.16898488,-0.49646025,0.44868654,0.44188038,-0.20109274,0.03427400
-0.35449827,-0.22315088,0.44157193,-0.37900264,-0.46320865,-0.04030936,0.16198930,-0.14930419,-0.10575799,0.15861725,-0.13018124,-0.30747380,-0.22372449,-0.33363617,-0.06021764,0.18178615,0.10839331,0.35392397,-0.05394337,-0.49707905,0.32843724,0.47290187,-0.40994600,0.48629323,-0.24512443,0.25903888,0.48983297,-0.29643789,0.20091926,-0.21125977,0.23783611,0.34642099,0.06558935,0.17940804,0.46741835,0.10238070,-0.36090133,0.12940765,0.45307912,0.03335686,-0.21197510,-0.17710395,0.22587588,0.06431505,-0.01073588,-0.33434646,-0.25391125,-0.40234759,-0.48042678,0.19214319,-0.39942664,0.34801046,0.16504505,-0.30937264,0.33430368,0.41992063,0.44966624,0.32413665,-0.37651727,0.15058550,-0.38712312,0.36131884,-0.00299351,0.17846622,0.04072687,-0.03557516,-0.21913148,0.17988582,-0.40610879,-0.26602341,-0.28672272,-0.11805999,0.05701492,0.43932992,0.44649329,-0.45364522,-0.39521290,-0.30766328,-0.35622241,-0.37574232,0.38438755,-0.25569643,0.47226605,0.04943260,-0.06506907,0.30656973,-0.03064678,-0.11540283,0.13070638,0.09283596,-0.46481733,0.24359195,-0.04580089,0.03226855,-0.07779237,0.49509152,0.49685341,0.20318140,0.17510444,-0.40904386,0.43737446,0.38853100,-0.02695921,-0.00568320,0.32731620,-0.08130637,0.03977966,0.43159063,0.11070604,0.18344653,-0.44415546,-0.00490642,0.42775009,-0.47188941,-0.45547382,-0.13731898,0.33468019,0.01389642,0.24731257,-0.03454850,-0.39318861,0.28265388,-0.29063272,0.06133741,-0.18504677,0.13119368,0.05592202,-0.18825467,-0.16541805,-0.26886535,-0.09797273,-0.22922579,-0.38171995,0.37379534,0.26417866,0.44521979,-0.20754588,-0.19590950,0.37682804,0.40318212,0.48753702,0.43267258,-0.10172430,0.41528735,0.46078899,-0.05714133,-0.22188532,0.29566744,0.45699361,-0.47417988,-0.23829192,-0.43587729,0.30790871,-0.03047458,0.12333152,-0.37861539,-0.40015042,-0.32186208,-0.06890398,-0.06816825,-0.09155072,0.33430749,0.20511712,0.02871432,0.20932912,-0.03012812,-0.02597215,-0.49817780,0.27395569,-0.14912264,0.40500432,0.26149364,-0.21645387,-0.19662275,0.17694939,-0.25539447,0.24654796,0.45531774,-0.45980461,0.20297338,0.47936551,-0.20104042,0.26409094,0.28587935,0.26822641,-0.11273212,0.40622161,0.36746982,0.06762678,-0.15786509,-0.19437227,0.48088765,-0.32101140,-0.48845782,0.00967853,0.38828823,-0.01858201,0.48378261,0.39018063,-0.24461474,-0.16530502,0.29533529,-0.48288523,0.11851781,-0.40112245,0.19381920,0.36249117,0.34398127,0.14689608,0.40039650,0.04518895,0.12641649,-0.29937970,-0.18953206,-0.08725865,0.47051099,0.20171536,-0.17506737,0.34440502,-0.22592415,0.16982693,-0.34923191,-0.24485154,0.34879805,-0.33762579,0.26499755,0.23719882,0.14382870,0.24889129,0.12757143,0.39931910,-0.41627884,-0.07720620,0.41606633,0.20126168,0.02015646,0.10841094,0.06239108,-0.13640476,-0.24374552,-0.03568175,0.40993997,0.38406543,0.16789601,-0.27446905,-0.19807235,0.14237601,0.42978795,0.12842859,-0.01231441,-0.29544442,-0.20147192,0.13855334,-0.04013633,-0.35262303,0.30097651,-0.27502951,0.38469807,-0.05502461,0.47393895,0.01215320,-0.15648109,-0.44371096,0.43361133,-0.24134409,0.25726325,-0.04623062,0.36738712,-0.18003996,0.31827639,-0.37468178,0.28788669,0.23339613,-0.48657808,-0.04201631,0.45953395,-0.18366143,-0.39810361,0.39058107,0.44538087,0.08966911,-0.40482766,-0.25605341,-0.27170800,0.05512301,-0.10859473,-0.47059266,0.28001198,-0.22417008,-0.02675214,0.25234355,0.28655129,0.31629005,0.30898157,0.21972587,-0.42613892,0.06529080,-0.32538056,0.44455634,0.39051409,0.49785092,-0.42602280,0.18105065,0.23245692,-0.41106759,-0.35947076,0.19320472,-0.09424983,-0.25744601,0.08383264,-0.14884306,0.33230365,0.17909774,0.09510886,-0.43954679,-0.26600286,0.48587326,-0.41117033,-0.48693647,-0.23902709,0.06213821,0.26515195,-0.45403472,-0.12421989,0.07343624,0.26828265,-0.04358512,-0.35376533,0.44971270,-0.09372046,-0.46058857,0.44901668,-0.01887811,0.22110891,0.18190309,0.07017141,0.36174291,-0.12484766,0.47592392,-0.39564762,0.45905011,-0.17286595,0.43644231,0.13770941,0.42162918,0.49673395,0.37228424,0.40842435,-0.41465546,0.38231043,-0.33562151,0.14333724,0.14810106,-0.28249720,-0.46958848,-0.26843240,0.49359769,-0.00922139,-0.12116192,0.44284036,0.39629484,-0.08196381,0.39180686,-0.12259261,-0.36083850,0.07370945,0.44758113,-0.49908983,0.44888431,0.42356848,-0.39485655,0.40771646,-0.24962183,-0.45773046,0.04714669,-0.32653637,-0.46298275,-0.08788885,-0.42683617,-0.38169060,-0.19982772,-0.24879266,0.27650195,0.45887700,-0.02632105,0.30726322,-0.31141460,-0.03515911,-0.20339088,0.06692195,-0.09228701,-0.30703240,0.48497334,-0.20048040,0.07037499,-0.37586484,0.37321373,0.01799475,-0.37497119,0.32209188,-0.05821139,-0.26858436,0.23136110,0.19267141,-0.23123789,-0.23186192,0.35617563,-0.19576323,0.19229978,0.44759590,-0.06163907,0.49962110,-0.30099493,-0.28808125,0.45468641,0.16940204,-0.48232684,-0.35713980,-0.36562814,-0.18564489,0.20978845,0.04208325,0.00732271,0.19477516,0.34160426,-0.42223616,0.31901356,0.21518747,0.09642192,0.44517244,0.03779748,-0.46417529,-0.33132690,-0.24174162,0.22043910,-0.05921099,0.04237672,0.09582452,0.25966119,-0.26116842,0.04113521,-0.30639875,-0.26595425,0.23696478,-0.09607517,-0.31181358,-0.09369412,-0.07845319,-0.16902851,0.04065129,0.23590370,-0.45921608,-0.41715920,-0.25648202,0.23604850,0.42518708,-0.17778567,0.05552608,0.13856465,0.41269052,-0.00814093,-0.33178876,0.44631190,0.16857142,-0.05751274,0.18428734,-0.37852961,0.48824460,-0.22169800,0.37643070,-0.27757968,0.31627017,-0.43166394,-0.04443886,0.05285188,-0.02800646,0.14361131,0.45911942,0.39354241,0.47461515,0.00006127,0.13011754,-0.48364187,0.08393978,0.37417406,0.25108338,0.00421415,-0.31163082,-0.20042319,-0.36043428,-0.39502542,0.30117659,-0.17797018,-0.43473138,-0.02153497,0.26724754,0.24812122,0.09580608,0.25131565,-0.47633434,-0.02939103,0.47257800,0.33922465,0.03843134,-0.07202435,-0.10793693,-0.48955694,-0.42833965,-0.14834855,0.40512225,-0.45221984,0.35277359,0.03436771,-0.43978165,-0.07064818,-0.09845737,0.30832397,0.43596868,0.09662629,-0.38353072,-0.41335516,0.21135606,0.42305530,-0.09018829,0.27491070,-0.10165898,-0.32591657,0.02075763,0.49258724,0.42416204,0.04349722,-0.03740687,0.39660099,-0.11727813,-0.49894592,-0.17523745,0.27555192,-0.48709359,-0.10184955,-0.37233131,0.41558245,-0.05978259,0.47293985,-0.05437763,0.00152671,-0.09175628,0.35320245,-0.18443785,-0.14861246,-0.04394128,-0.06484977,-0.06223796,-0.33476692,-0.14422958,0.34576919,0.43832104,0.25272138,-0.48108799,-0.04163961,0.24494483,0.44299927,-0.49814239,-0.29243567,0.33987299,-0.11452180,-0.28992785,-0.33401493,-0.33962050,-0.28071976,0.05768011,-0.21776216,-0.36659360,-0.49847936,-0.23867314,0.08307214,0.00561292,0.17295504,-0.06011507,0.32313320,-0.47621645,0.39425183,-0.24313178,-0.03948427,-0.44168976,0.11189980,-0.19425066,0.49614816,-0.13555157,-0.17540145,-0.04549164,-0.39056712,-0.23215570,-0.04285278,-0.18161817,-0.39141213,0.34134934,0.02410632,-0.23096720,-0.50190617,0.24404748,0.33067978,-0.21582684,0.37910638,0.33274028,0.04754774,-0.03500197,-0.15933866,-0.27943694,0.40449053,-0.33621277,-0.25603483,0.29819363,-0.07962531,0.20415609,0.35610349,-0.46791876,-0.49014297,0.35227004,-0.10345659,-0.16538850,-0.19274340,0.00681139,0.10285183,0.26270071,0.32028085,0.20606961,0.10071035,-0.15467993,0.47788531,0.10131130,-0.40917171,0.31019689,0.38873581,0.47378160,0.14588602,-0.06252710,-0.06013968,0.48763497,0.15852003,-0.15564256,-0.34868003,0.40229850,-0.35767895,0.07156855,0.10644051,0.49844293,0.10365145,0.11634624,0.35094922,-0.49937655,0.45112622,-0.34341255,0.00350030,0.04896902,0.41678235,-0.17470685,-0.24112000,0.02144161,0.17412388,-0.25969658,-0.37258614,0.26981384,-0.44587460,-0.48116109,0.24587107,0.20176407,-0.04286875,-0.31407478,0.18940119,-0.38443693,0.03019894,0.34068970,-0.48213851,0.17251981,-0.08774175,0.12432791,0.17105831,-0.48392220,-0.25928902,0.02150552,-0.48480697,-0.31062686,0.17706950,0.02055068,0.24293291,0.09851636,0.34973548,-0.49508266,-0.37658426,0.02763893,-0.25148588,-0.24646682,-0.20041127,-0.19604952,-0.22718204,-0.45445069,-0.49431455,0.22992191,-0.26854014,0.19508333,0.34548497,0.26165880,0.03577303,0.36334799,-0.06579170,0.44814225,-0.01215162,-0.39454974,0.46422216,0.22842647,0.12700609,0.48018142,0.41977212,-0.19382432,0.00228289,0.16367199,0.40560517,-0.14685441,0.16984113,-0.46974464,0.38176939,0.41887255,-0.21603184,-0.31857720,-0.27719358,0.05678872,-0.27302561,-0.27150809,-0.21328937,-0.04156575,0.42357523,-0.36780172,-0.27987702,-0.04058149,0.49565965,0.15437504,-0.09259420,-0.01678507,0.25949324,-0.12858902,-0.28840683,-0.11355836,-0.14853875,-0.36888459,0.19223151,0.35352183,0.29479079,0.09800841,-0.29307608,-0.03522457,0.12831642,-0.41126013,-0.11634558,0.41228517,-0.22983729,0.10646086,-0.03092611,-0.00286290,0.33495277,0.25578452,0.45557135,0.25852885,0.38799129,-0.32430078,-0.28209218,0.38352426,0.32993769,0.12526037,-0.13326007,0.08938789,0.49659644,0.07816018,0.47558864,-0.15207377,0.20919893,0.16779691,-0.29851720,0.00398926,-0.23420556,-0.09159152,0.46876515,0.39411086,-0.00285165,-0.14758042
