-0.14086758,0.27029705,0.40546511,0.03783468,0.32053616,-0.13997537,0.17335255,0.21984573,-0.02763257,-0.16173306,-0.34646738,0.18769561,-0.37840960,0.34993421,-0.18842548,-0.17427148,0.37332042,-0.15764338,-0.44872629,-0.08139637,0.32835149,-0.33813288,0.21073634,-0.22923674,-0.15395191,0.26829094,-0.20762836,0.45240658,0.22332233,-0.00777387,-0.39146936,-0.41754525,-0.23747682,-0.48600425,0.12028943,-0.41694066,-0.12597962,-0.20635802,0.30290276,0.34637346,0.13190892,0.45642026,0.03402685,0.25343102,0.30631461,0.34563846,-0.42077663,0.17969232,-0.31198545,-0.36949846,-0.40170405,-0.48363396,-0.20763134,0.30903229,-0.21287070,0.13841674,0.07732323,0.07950095,0.09082332,-0.19935444,-0.42827292,0.19935396,-0.11689969,-0.16574974,0.21334971,-0.49661026,-0.08271157,-0.41269476,-0.20300698,-0.27982295,0.43362189,0.42874337,-0.32375744,-0.03261902,0.18190992,0.48261737,-0.18660407,0.26165044,0.16271049,0.00151321,0.39216934,0.26101252,0.01787983,-0.31546200,0.07004481,0.30500914,0.32295474,-0.35263195,-0.11548992,-0.08622194,-0.05198670,-0.04376380,-0.38683585,0.33118086,0.29052006,0.32647534,0.33447203,-0.29227371,0.41347591,-0.36919472,-0.07304300,0.34640352,-0.44048091,0.10399789,-0.18480190,0.24286757,0.08769550,0.12894977,0.00458380,-0.24959512,-0.36953596,-0.10324687,-0.48858260,0.14834387,0.08129113,0.08146221,-0.04664659,-0.09574434,0.22885164,0.33792511,0.31816561,-0.32296369,-0.20569512,0.43133046,-0.49188016,-0.41549461,0.25693663,0.34131160,-0.20894552,0.17038044,0.47337886,0.22041730,0.01951934,-0.46510718,-0.17467789,0.33462238,0.27739318,0.41274873,-0.03649961,-0.21802732,-0.33684639,0.09396443,0.17872582,-0.32542859,-0.25771343,-0.23999994,0.25614798,0.19591973,0.16455263,-0.01474499,0.03392503,-0.01720903,0.16205285,0.32759300,-0.08744411,0.16841197,0.41115406,-0.32953520,0.01200890,-0.29507498,0.34334292,-0.01309654,0.42553042,-0.13804210,0.02079851,-0.24990868,-0.30377984,-0.20201476,-0.33719747,0.15971947,0.07995792,-0.17403172,-0.24633188,-0.24124043,0.00083112,-0.00358119,0.01929837,-0.24279259,-0.30762168,-0.31639643,0.24163142,0.22488999,0.16465923,-0.09705928,0.05324667,-0.42061080,-0.42609038,-0.03382496,-0.24919911,0.08564177,0.17010722,-0.40731646,-0.42865513,0.09470917,-0.04599240,0.09162296,0.34465899,0.15023102,0.38962702,-0.49243516,-0.18997960,-0.03027861,-0.16631790,0.06389657,0.22870700,0.33422677,-0.44019082,-0.25309613,-0.40968569,-0.24919905,-0.07053767,0.33217185,0.47723818,-0.40374872,-0.26410096,0.03011438,-0.32554756,-0.19199530,0.49454812,-0.07593376,0.39307627,0.16400138,0.01601395,0.46381318,-0.24150764,0.47000520,0.05546770,-0.39678562,0.12031786,-0.05489241,-0.38943032,0.43003197,0.41448887,-0.05636639,-0.00661228,0.14246347,-0.22278725,0.05234914,0.38875420,-0.13238194,0.30439623,-0.18035132,-0.29962461,0.28111990,-0.08532819,-0.06520750,-0.18981074,0.08910226,0.24354592,-0.19512069,-0.48740616,0.13610571,0.46860866,0.02856032,0.09992278,-0.27290066,-0.00145266,-0.34477663,-0.17007104,-0.38162696,0.09994823,-0.05977109,-0.45184068,0.01444547,0.38382056,0.04153261,-0.34328786,-0.33830464,-0.40446251,-0.45227119,0.03125956,0.40040126,-0.13331064,0.23045972,0.18154042,0.28289406,-0.33265053,0.49274029,-0.12811881,0.41055687,-0.20266097,-0.11556301,0.04663611,-0.23409200,0.41289755,-0.35367023,-0.00745576,-0.08911731,-0.19883293,0.32268421,0.02998137,0.40216974,-0.23634595,0.07864722,-0.08280328,-0.35090207,-0.37771645,0.07605339,-0.18802822,-0.28235535,0.12195181,0.34164213,-0.38134178,0.49152822,0.07496522,0.30158232,0.27470736,0.24227629,0.29419921,-0.35341067,0.15281171,-0.40853312,0.03088301,-0.30071178,-0.14298481,-0.05662442,-0.15443834,0.35043724,0.35596281,0.14836854,0.17389333,-0.11369042,0.05168010,0.43930464,0.46637909,0.46902890,-0.41283380,-0.41357853,0.04199011,-0.10272762,-0.19485556,-0.33237498,-0.25782819,-0.07469309,-0.34032976,0.31732732,-0.27310413,0.43439601,0.05959610,-0.47894408,-0.41910105,-0.28772692,-0.38774886,0.11163697,-0.08816372,-0.02959710,-0.44286593,0.25937682,-0.17818810,0.41312422,-0.09223485,0.49615353,-0.20062190,0.45793072,0.43262311,-0.23842592,0.42262437,-0.48208209,-0.15047373,-0.03134366,-0.08154076,0.15627413,0.13688261,0.16083417,-0.41840834,0.29656303,-0.02183912,-0.19151372,0.23094025,-0.46230519,-0.17062368,0.31179833,-0.24967302,-0.05734643,-0.07480033,0.16408655,0.41433640,-0.01834489,-0.07823364,-0.26514924,-0.10600906,0.32821462,-0.27199292,0.18786568,0.28077889,-0.34167950,0.45115036,0.20746900,-0.32055986,-0.19753699,-0.32314455,0.09807778,0.45874526,0.31374310,-0.24108805,-0.45966537,0.11032779,0.23707706,-0.15126183,-0.15878768,0.27484467,0.17864442,-0.34566503,-0.47314491,-0.37732101,0.07848241,0.18791495,-0.46599801,-0.44071818,-0.39060758,-0.23349193,-0.05223442,0.43209672,-0.00797955,-0.36283182,0.21615654,0.15328995,-0.40994175,-0.07558194,0.33292072,-0.10746206,0.10127404,-0.06900149,-0.14869477,-0.08491880,0.18995264,-0.10853619,-0.47520429,-0.07337984,0.24035908,-0.13268201,-0.29691131,-0.08018077,0.01974233,-0.27399956,0.03899980,-0.40211662,0.41520870,0.07273250,-0.34639776,-0.47968214,0.33738593,0.10241770,0.45471371,-0.16831089,0.24083863,0.17150649,0.48520070,0.33094401,-0.40407553,0.31812037,-0.27650146,0.19730267,-0.25087203,0.07431352,-0.38879967,0.43791993,0.46561153,-0.36246506,-0.13378289,0.20652373,0.00294527,0.06627336,-0.37509951,-0.47562165,0.29568312,0.16544248,-0.37958081,0.20798961,-0.26306565,-0.22521491,0.22998088,-0.42411983,0.37790322,0.18507109,-0.09222622,0.11878233,-0.14342245,-0.10701638,-0.05023286,-0.04732655,-0.28897271,0.17268940,-0.35156071,-0.04157874,-0.25365012,-0.23922258,-0.10183694,-0.28700912,-0.10232080,0.26353432,0.42064017,0.40394398,-0.16615304,-0.45294607,0.42702786,-0.37293296,0.21190035,-0.45156399,0.33648244,0.44952773,-0.17659073,0.06664069,-0.47441670,-0.29868436,-0.24828816,-0.06662859,0.32018470,0.10847240,0.32641538,-0.23021888,-0.43996459,-0.46439603,0.44090695,-0.29147355,-0.00414270,-0.31092740,-0.02988567,0.39502631,-0.09544016,0.37197811,0.16236148,-0.17367775,0.27512794,0.49507361,-0.12643164,0.20308868,-0.37699677,-0.41458575,0.25134978,0.45957837,-0.46493584,-0.42524284,0.02621906,-0.43935605,-0.22380311,0.27817972,-0.00566422,-0.40343849,-0.11385161,-0.18090569,-0.13597911,-0.05519596,-0.14469694,-0.19361256,0.15503738,0.35375868,-0.00044078,-0.37002456,0.25248151,0.40530283,-0.49817165,-0.08543908,-0.26789000,0.27732341,-0.09033733,0.10536096,-0.01982694,0.03273808,0.19082445,-0.26847581,-0.00768355,0.22591282,-0.19355267,-0.48115128,0.28710862,0.08300652,0.29684682,-0.21996289,0.17738944,-0.31911874,0.09859668,-0.45800884,0.12778743,0.45790229,-0.14649349,-0.21234565,0.31461829,0.35374962,-0.08262182,0.06638246,0.25892927,-0.08113668,0.48075853,0.49092229,-0.30388986,-0.10951971,0.09630689,0.17628404,0.42322213,-0.21282704,0.40796626,-0.08417002,-0.48644707,-0.28523074,-0.06522806,0.29987166,0.29628056,-0.26994042,-0.42091432,-0.02611472,-0.08752723,0.18100334,0.02021982,-0.45608814,0.14032572,0.37326770,-0.16970983,-0.04635797,0.22665356,0.24730706,-0.47991472,-0.01434527,-0.33386584,-0.49921531,-0.02347020,-0.13775938,-0.10872126,-0.42715221,-0.46137865,-0.18532770,-0.13978513,0.44680967,0.23064172,-0.12656683,-0.33915043,-0.33555862,-0.32717110,0.45717577,-0.10509232,-0.24692340,-0.06766643,0.30852587,0.43410375,0.45156212,0.35092437,0.07332285,0.32451276,-0.31897904,-0.47306902,0.05099791,0.42817489,-0.45311089,-0.46342382,-0.40569271,-0.45231250,0.01310632,-0.04343542,-0.06096829,0.08600582,-0.00474676,0.25390641,0.44633334,-0.05827750,-0.01624910,-0.18074207,0.10212155,0.14785186,-0.00818679,0.05903378,-0.45724036,0.24444262,0.49080801,0.35044060,0.17791594,0.44203943,0.20100756,-0.24909452,0.26621448,0.38189726,-0.22218720,-0.18280880,0.31007377,-0.17529438,-0.14623261,0.40440357,-0.12752244,0.36692527,-0.13900811,0.31132990,-0.04740303,0.35579576,0.06493313,-0.10107669,-0.20252737,-0.45162716,0.21769061,0.39936624,0.19619816,-0.29054102,-0.04153519,0.23865445,0.45339223,-0.05141101,0.08841241,0.13084801,-0.10968775,-0.21065468,0.38177262,-0.34347585,-0.32875743,-0.34041458,-0.02628464,0.48131976,-0.01567570,0.32749321,0.38555841,0.35635023,0.19390714,-0.25368507,0.16794468,-0.35282405,-0.39741542,-0.26725548,0.04576126,-0.09987223,-0.21865073,-0.23621651,-0.20047459,0.47730070,-0.02731870,0.25721649,0.21538999,-0.07425430,-0.29434213,-0.19623368,-0.44340848,0.09596850,0.09311164,0.43836414,0.25249266,0.26435686,-0.40203081,-0.27378258,0.24547273,0.08191289,-0.44659047,0.13108207,-0.06142181,0.24776260,0.37776713,-0.39330672,0.39499507,0.48048813,-0.16017595,-0.05883688,-0.11934118,0.12104759,0.20464817,0.17992864,0.09819744,-0.32276556,-0.06287387,-0.18641908,0.10297783,0.14278350,0.11734724,0.15956935,-0.26124800,-0.28954112,0.09793349,0.49122582,0.47477205,0.19583031,-0.28258748,0.22047572,-0.22188199,-0.22886335,-0.14819221,0.21696112,-0.48090169,-0.27024194,0.32394033,0.41438080,-0.28953394,-0.33614390,-0.14447273,0.09112532,0.28489626,-0.43983054,-0.22894761,-0.11690630,-0.26259610,0.20817852,0.19667462,0.34038173,-0.14903798,-0.18597814,-0.00004892,0.08971402,0.02448074,-0.40211543,0.08095868,-0.00070617,0.29376763,0.29841136,-0.28022253,-0.42810871,-0.43044521,0.07162906,0.28893972,-0.41125489,0.30147497,0.11295643,-0.49684555,-0.48805689,0.27681141,-0.14131828,0.10306843,0.06170767,-0.08114882,0.37412082,0.44480137,0.15625508,0.08229934,0.14147599,-0.00336319,0.43326136,0.45549785,0.49658789,0.02297539,-0.02002141,-0.40552710,-0.39606326,0.47927242,0.38823697,0.40234093,-0.30094818,0.46012704,0.47190181,0.27068015,0.24907111,-0.43935468,0.07215391,-0.13797246,-0.43620022,0.08409702,-0.36116105,-0.07751850,-0.31283455,0.20054662,0.34133267,-0.43871374,0.14534799,-0.00241224,0.14358560,-0.21317603,0.49422457,0.07684696,-0.25767818,0.49081647,-0.40016206,0.22234684,-0.41467842,-0.29621227,0.20155283,0.47345511,-0.39394389,0.40060460,0.43364027,-0.42200478,0.17129638,0.18272560,-0.36135270,-0.25654443,-0.45524493,-0.29755284,0.32755259,-0.31640598,0.12492866,-0.48528196,0.38414064,-0.03373867,-0.42399570,0.02949234,0.46386303,0.21965117,0.31640904,0.45820225,-0.20335902,-0.44117583,0.44912884,-0.10350224,0.28106722,-0.46579119,0.09999225,-0.01751893,-0.49235387,0.20607036,-0.11689148,0.44133889,0.28411948,-0.44556797,0.12408003,0.42276694,-0.20211240,0.16883510,-0.37478590,-0.37455981,0.35242912,0.25014492,-0.35982657,0.23660868,-0.28352515,-0.28367082,-0.23372501,-0.31941014,0.43614460,-0.41717272,-0.36095934,-0.26701417,-0.35802730,-0.41189287,0.12931928,0.42276043,-0.37810264,-0.27141979,-0.09557861,-0.37095004,0.43453516,0.28756198,-0.42956738,0.21870120,0.34201026,0.19451266,0.14146814,-0.36010215,-0.13665153,0.26670117,-0.23458841,-0.28404697,0.01705325,-0.09430529,0.45263870,0.23372167,0.12224762,-0.28074790,0.41465499,0.05868450,-0.19791260,-0.44696925,0.29082422,-0.05721291,-0.36029943,-0.08156774,-0.13606515,-0.23948768,0.14657017,0.26838433,-0.11043033,0.08108528,0.05574768,-0.04008118,-0.20020392,-0.10224206,-0.34555355,0.44131530,0.03785099,0.01801974,0.20809738,0.30305734,0.23365336,-0.27514606,-0.29117555,0.18638512,0.45856369,0.33082995,0.40506407,0.37220270,-0.11172412,-0.29396553,0.42427541,-0.32220503,0.14732244,-0.43742342,0.09547220,-0.48911313,-0.17725238,-0.25830666,0.27874388,0.21220620,0.32281780,-0.16551791,-0.32784793,-0.37732754,0.23244606,-0.17335041,-0.43639751,-0.23060009,0.34325991,0.27044997,-0.42858970,0.07642138,0.49491875,-0.22027909,-0.23765447,0.45348275,-0.38934185,-0.33247464,0.32571489,-0.00129188,-0.12711800,0.24954742,0.17663112,-0.47962304,0.31184593,-0.22849113,-0.46937595,-0.36559493,0.01320375,0.30937636,0.34658675,-0.16389203,-0.35612794,-0.48155314,-0.04235656,0.37450808,-0.15685422,0.02001860,-0.35695952,-0.31378384,-0.20935860,-0.28410847,0.26494675,-0.21125157,-0.00178812,-0.47070130,-0.25694526,0.11002956,-0.30211993,-0.42902093,-0.38891408,0.07276839,0.32125012,0.28735238,0.09265478,0.13266611,-0.44120494,0.12327938,0.26706725,0.07202871,-0.06755304,0.11294536,0.40647429,0.07443859,0.12974087,-0.13659177,-0.05089185,0.47385963,0.38592517,0.09674770,-0.33393177,-0.31755063,0.31640706,0.43262748,-0.02881166,-0.18500104,0.46339637,0.21841570,0.42964847,-0.33448439,0.29164834,-0.45880571,0.23819651,0.11257122,0.32851514,-0.16918405,-0.25476604,0.38723841,0.45368848,-0.48870442,-0.04241936,-0.11563445,0.12310089,-0.13585767,0.46040814,-0.24382123,0.23311083,-0.08309494,-0.26237215,0.12410992,-0.48549923,-0.09900943,0.30309811,0.32904702,-0.16463299,-0.22044391,-0.34965632,-0.19565092,-0.49880840,-0.41886598,-0.02990942,0.29273215,-0.37766810,-0.29174220,-0.09474293,0.45068030,0.03873795,0.14965435,0.33660775,-0.00882477,0.16029424,-0.20477387,0.37833285,-0.21194894,0.16546286,0.34591495,0.05004303,-0.09980880,-0.24105641,0.28044385,-0.48154455,-0.22884061,-0.31567093,0.32739169,-0.39322395,0.02489155,-0.39006775,-0.24154713,0.32965225,-0.38892047,-0.16039810,-0.20027010,0.40375337,-0.03821272,0.00757663,-0.19182822,-0.08863006,-0.45475648,0.45774217,-0.25018343,0.03998812,0.12271504,0.05013101,-0.07625261,0.41432841,-0.28602722,-0.23776951,-0.04465479,0.10896831,0.02107628,-0.25983781,0.13294842,0.29770070,-0.07149070,-0.03700956,0.40591674,0.45395363,0.07293625,-0.33561101,0.28360337,0.18400236,0.00385451,-0.41717604,0.08699349,0.46477898,0.08994453,0.39592172,-0.12143861,0.13922282,0.35783700,0.13238213,-0.31751188,-0.01829531,-0.32214885,0.09734659,-0.11216815,-0.11082550,0.36207005,0.34774444,-0.49757012,-0.11322139,-0.40928041,0.13776242,-0.31410358,0.01980873,-0.39922974,-0.40817724,-0.02623764,0.17368301,-0.24382796,-0.24307496,-0.14301628,0.25918841,-0.16011293,0.44541985,0.22674295,0.43327783,0.34461952,-0.39193152,0.07385902,0.20050851,0.23333806,0.24777522,-0.32360614,0.41122726,-0.15169611,0.06755491,-0.19692508,-0.28772217,-0.08263516,-0.19249027,0.10029936,0.00869541,0.44529805,0.28619537,-0.47149586,-0.45388430,0.37805539,0.00189323,0.21908816,-0.36648544,0.25922175,-0.42221424,0.39523902,-0.39849883,-0.47489244,0.12316447,-0.46576887,0.36490206,0.22328110,0.10128151,0.06346525,-0.04095558,-0.14814360,0.24182855,-0.12812697,0.20146592,-0.18883296,0.17643723,0.41481141,0.22915121,0.48397509,0.01508854,-0.26215463,0.42930460,-0.19858959,-0.23382118,0.47480781,-0.32120205,0.26840582,0.19531071,-0.18614452,0.02904953,0.27386380,-0.29051139,0.12874585,0.29362872,0.32601098,0.15962747,0.16068365,0.05352956,-0.23625687,-0.27464691,-0.48635357,0.11672144,0.46856262,-0.11367144,-0.18118445,-0.21988208,-0.43727942,-0.26640587,-0.49073875,-0.45328446,0.24886744,-0.25286858,0.47588985,-0.45023465,0.01325292,0.45113169,-0.27065458,-0.21738272,0.14724759,0.04332343,0.30896160,-0.08361067,0.24863527,-0.06150063,-0.28504581,0.07947150,-0.39989927,0.37606203,-0.36649975,-0.13569034,-0.39825753,-0.35289322,0.48100245,-0.42961930,0.03328025,-0.20019401,-0.14953750,0.09604969,0.03359374,-0.13980294,0.14324733,-0.21753401,0.10669539,0.11838188,-0.16780561,-0.37899828,0.07069387,0.06106642,-0.09940674,-0.28577824,-0.39692196,-0.28709337,0.13576578,0.35518085,0.15221567,0.35073606,-0.06536401,0.25187007,0.22609764,0.06741149,-0.38416899,0.32776981,0.21438842,-0.40316654,0.39813766,-0.25218440,-0.10307102,-0.25077469,0.34453134,0.43067102,0.10853588,-0.01349372,-0.28728166,-0.28405339,-0.39489766,0.04302312,-0.16629578,0.17385633,-0.39443622,0.23859711,0.39202714,-0.28977050,0.45142363,0.02737207,-0.43519079,0.10263814,-0.12294958,-0.00129644,-0.14573758,-0.39696555,-0.43395513,-0.02990657,0.43084307,0.28061830,0.06728002,0.32958571,-0.47116214,0.46421430,-0.42222307,0.37194004,0.39381244,0.18612364,-0.14306654,-0.39630011,0.39985091,-0.03721194,0.15050722,-0.26212321,-0.36110146,0.25597100,0.47536521,-0.47023615,0.46504700,0.42595984,0.05653925,-0.47048138,0.02846509,0.43342855,0.02815483,0.38273467,-0.46349471,0.09437932,-0.14688181,0.46781795,-0.12472587,0.42030839,0.29650070,-0.09717608,0.38326164,0.37296478,-0.22733527,0.27502729,0.05889154,0.13289003,0.38345783,-0.03800689,-0.40379043,0.03280241,0.19820441,-0.26596407,-0.21201686,0.17329619,-0.23635838,-0.24705248,0.09909744,0.32000849,-0.21756623,-0.37242316,0.25344880,0.31067369,-0.48955794,0.29006046,-0.09483992,-0.13660085,0.25697264,0.27901009,-0.21786200,0.05171400,-0.31993485,-0.33547886,-0.07342259,-0.04322183,0.44358793,0.48731430,-0.41057353,0.32583135,-0.05181881,-0.31479463,-0.14157182,-0.35360052,-0.08088442,0.14629690,0.31955757,0.18268042,0.39924368,-0.08133077,0.00269085,-0.31829565,0.04637263,-0.24380625,0.49241562,0.05647065,-0.45459864,-0.10402224,0.41805050,0.30108260,-0.32585548,-0.29887302,-0.14413047,-0.14148862,-0.13117467,0.28379390,0.31535092,-0.18800912,0.27091801,0.40469906,-0.36221330,-0.28086405,-0.41028601,-0.00389578,-0.13454047,0.00882772,-0.35759579,-0.31497584,-0.30849186,-0.45830663,0.10382264,0.19428242,-0.27662798,-0.35061919,0.44906341,-0.28618423,0.20424288,0.49400393,0.11067231,0.12466108,0.29852709,0.28876959,0.32861465,-0.34380522,-0.35205210,-0.30225957,0.43999581,0.46306965,0.00955049,0.21079166,0.36764110,0.14729436,0.42987296,0.45736908,-0.35660142,-0.20466751,-0.03380320,-0.21419166,-0.01961874,0.15760933,-0.17300739,-0.41696776,-0.14962332,0.04888089,-0.26810160,-0.19954229,0.26487860,0.43909086,-0.20241043,-0.12140761,0.06646758,-0.40180155,-0.33173164,-0.10448482,-0.24575559,-0.18412312,0.09304839,-0.30585225,-0.22106795,-0.39739507,0.40494680,-0.35341557,0.24989928,0.33481976,-0.39604649,0.39329784,-0.36986266,0.07005421,-0.32144820,0.10974024,-0.27299608,0.00552081,0.19340644,0.07903268,-0.44332350,0.42786131,0.38150296,0.32346753,0.36898740,-0.31940869,-0.29729017,-0.06432832,-0.22134248,-0.12916146,0.33118223,0.03291328,0.18673020,-0.07575746,0.22707717,0.46566578,0.02684747,0.13202397,-0.38774979,-0.22325324,-0.03315627,-0.28384013,-0.33004081,0.09689147,0.28625586,-0.15089377,-0.29252158,-0.48579944,0.35562993,0.40194820,0.09390805,0.41300324,0.33058556,-0.02406351,0.23673915,0.19965794,0.15650472,0.43942648,-0.36463735,0.43517696,-0.18973113,0.46654488,-0.03190977,0.49699907,-0.10921258,-0.30483260,0.46266485,0.41763489,0.32719137,-0.42508493,-0.30561835,-0.20596491,-0.20888121,-0.13557373,0.39103106,-0.42252718,0.21357153,-0.40146409,-0.40831792,0.06926810,-0.49940031,0.18564855,-0.01770801,0.33121186,-0.33840280,-0.28098940,0.03085893,0.31810192,-0.34156292,0.16622159,0.25327887,-0.03129405,0.13276646,-0.27863090,-0.03429498,-0.47644611,-0.08346350,-0.07163013,0.44118878,-0.25627213,0.00328494,-0.36442957,0.03776377,0.29440870,-0.00000330,-0.07120264,0.37188769,-0.28642117,0.02735118,0.46357826,0.28284775,0.02792963,0.14920718,-0.23487168,-0.14085851,0.31080437,-0.01586107,0.39000042,0.12890629,0.14257601,0.05622201,-0.11781484,-0.38871804,-0.31101153,0.10355427,0.07698698,-0.28745764,-0.47990923,-0.49464314,-0.34626886,-0.23616960,0.00869717,-0.21064595,0.30163343,-0.19685598,0.28942553,-0.26937906,-0.32475936,-0.49684618,0.25795659,-0.36138509,0.28579135,-0.21432611,0.28769247,-0.44916885,0.14477669,0.09849225,0.03497008,0.03477712,-0.27260146,-0.32245391,-0.40900087,0.10958370,-0.21117195,-0.22001486,-0.28686105,0.36579360,-0.00749527,-0.26675707,0.37126273,0.14642539,-0.00275523,-0.11991769,0.43598863,-0.20078841,0.18356520,0.22558072,0.02964853,0.35814939,0.22793029,-0.21323056,0.49626569,0.01343027,0.07234539,0.28394986,0.06426142,-0.28287792,-0.11755789,-0.40076849,0.25189920,0.10983888,-0.22322541,0.34289945,-0.28055627,0.06558411,-0.37717214,-0.06749111,-0.06861632,0.11551265,0.16590436,-0.19720864,-0.23780274,-0.33640857,0.18324391,-0.30197043,-0.03786636,-0.13452321,0.42210962,0.49039452,-0.27700689,0.14982275,-0.22281780,-0.28069122,-0.33674168,0.34952759,-0.49674136,0.22751974,-0.43335195,-0.11429739,0.32676327,0.31859538,0.49556987,-0.39653929,0.16128314,-0.28521186,0.16906990,0.28428927,0.14745353,-0.39963376,-0.10018927,-0.18619180,-0.09641678,0.16163908,-0.02378735,-0.41454622,0.35849037,0.43740731,-0.04943932,0.28062961,0.42804100,0.17386167,-0.06940569,-0.29472086,0.39317510,0.09385263,-0.44521364,0.39641303,-0.17863418,-0.37855351,-0.21791463,-0.35205609,0.43969485,-0.22252718,-0.24821161,0.10170561,-0.00679784,0.42199682,-0.11247202,-0.35818012,-0.47736835,0.28612586,-0.04634917,-0.07538453,-0.05304107,0.42951270,0.00971166,-0.19458559,0.36722220,0.46085259,-0.41362006,0.29536810,0.13472979,0.01697897,-0.49936274,0.02786626,-0.38922366,-0.44465586,-0.07597756,-0.06822116,-0.32356261,0.20636805,0.08075973,-0.38192338,0.48598696,0.33444402,0.22083074,-0.02138448,0.25405058,-0.39535771,0.11726125,0.27444000,0.38984088,-0.42964000,-0.30177124,-0.16360643,-0.50002379,0.20861462,0.14226316,0.36736638,0.16951430,0.22866018,0.16269997,-0.19582439,-0.25451485,0.16304842,0.33153219,-0.14419926,0.21850751,-0.24309054,0.28959775,0.39719633,0.46469354,-0.12956314,-0.48645932,0.44764497,-0.29864438,0.23162226,-0.07596655,0.45382090,0.33493642,-0.45964028,0.22728503,0.22438383,-0.38897264,0.42650399,-0.43847938,-0.38859524,0.13516626,0.20378354,0.47869927,-0.19544997,-0.06780505,0.14099920,0.10824871,0.17758785,-0.19499883,-0.05800290,-0.46444997,-0.47495690,0.19827809,0.32332656,0.41889629,0.15961840,-0.30780701,0.43267816,0.10766017,-0.10706059,0.16241996,-0.46931442,-0.15339696,-0.00208950,-0.42774730,-0.42489740,-0.27678406,-0.31628526,-0.49836058,-0.21529455,-0.20492449,0.13667744,0.48818040,-0.22669060,0.44096332,-0.07919478,0.41604578,0.05172458,-0.39948556,-0.27902013,0.49116955,-0.36730946,-0.25704771,0.18839885,0.45746819,-0.33548353,-0.14989538,-0.35103097,-0.40505848,0.45649590,0.04239416,0.25861627,0.48880016,0.38997884,-0.24288847,-0.43876156,0.46509420,-0.01970345,-0.25509444,0.46658271,0.26482517,0.03972711,0.10315441,0.25387453,0.31535274,0.04665932,-0.32442130,0.22946897,-0.40522482,-0.22707867,0.44936768,-0.41256453,-0.09089210,-0.30401491,0.27762836,-0.13529059,-0.14319431,-0.37493231,0.01353280,-0.04732855,-0.41691440,-0.44335683,-0.28850027,-0.42807082,0.44664541,-0.03141197,-0.36686536,0.41161184,0.44873122,-0.12221258,0.37829084,0.21468314,0.41970735,-0.01662084,-0.03181508,0.23187778,-0.47361136,0.14209584,-0.03769410,-0.37538310,0.41909984,-0.08584973,-0.28851755,-0.17628936,0.10447591,0.48524661,0.18752521,0.46189789,-0.38835556,-0.29834168,-0.08533242,-0.30526656,-0.24166081,0.12616413,-0.23334791,-0.29502808,-0.40537206,-0.10052766,-0.38339922,-0.45533145,0.27971052,0.49673405,0.25857069,0.19602195,-0.02275643,-0.27370402,-0.06943035,0.00790987,0.37158425,0.39287233,0.12850907,0.28368127,-0.19933554,0.33619821,-0.39345487,0.40572884,0.32246899,0.29453164,0.36772214,0.43407371,0.49620862,-0.21761028,-0.37120804,-0.24546728,0.40842469,-0.10488973,-0.04054614,-0.49561673,0.29723446,0.07841201,-0.45117492,0.07444260,0.07304532,0.30698273,-0.22751021,-0.44721614,-0.46606596,0.20006148,0.05395406,0.39788764,0.08736938,-0.32035839,0.18080011,0.38837352,-0.48343034,0.28774050,0.29427917,0.33898995,0.08227523,0.16200132,0.27307101,0.07847987,0.44430371,0.40165501,0.33303594,0.35395448,-0.20037010,-0.20472436,0.35876413,-0.40516570,0.37087972,0.40558025,0.16877793,-0.05588693,0.21134104,0.43682966,-0.01058429,0.23842059,0.13288185,-0.45824506,0.13554350,-0.27971873,-0.27811163,-0.18319236,-0.39100862,-0.26152980,-0.39544667,0.40326994,-0.42252677,0.18686102,0.06516048,0.35048494,-0.23488745,0.01030737,0.25425484,-0.39942507,-0.13529681,-0.44830215,-0.10716432,-0.27910464,-0.35510123,-0.23727174,-0.37532892,0.30942539,0.20043358,0.33065217,0.24359919,-0.31117023,0.06831621,-0.12365711,-0.26909138,-0.29566451,0.09703826,-0.04714947,0.02115701,0.20604422,0.19134485,0.12581290,0.10935096,0.26869268,-0.18767705,-0.32515106,0.12055665,0.07940628,0.18566129,-0.12660900,0.17798345,-0.45130877,-0.07639405,-0.43056819,-0.23214007,0.06471982,-0.17269182,-0.11171415,-0.12791155,-0.47334070,-0.28193282,-0.38454377,-0.28417776,0.28685434,-0.00782820,-0.05326306,0.49119968,-0.41076392,0.39963228,0.01254779,0.29546995,0.09086277,-0.36220104,-0.09551600,-0.13967386,-0.04841950,0.08040723,0.48044645,-0.47039514,-0.23531642,-0.14742605,0.20679796,-0.18823905,0.27268585,0.27193855,0.07600251,-0.16420410,-0.40167465,0.46362462,0.20785168,-0.37457677,-0.31778252,0.32364860,-0.15877082,0.46907182,-0.18418510,0.28808852,0.46065497,-0.09456052,0.18749264,-0.02775210,-0.29996553,-0.22144850,0.11107685,0.10558248,0.13881821,-0.43787504,-0.31460920,0.11912556,-0.40829113,-0.05154018,0.46793546,0.29426751,0.25737330,0.23972907,0.06591191,-0.16688090,-0.42417642,0.16475080,-0.20269976,0.28391936,0.29018211,-0.02048228,0.10758528,-0.36838223,-0.05095510,0.42383246,0.41937989,-0.09144621,-0.17208749,0.10655823,0.38149122,0.02871381,0.38550290,-0.00723294,-0.36496992,0.02527928,0.05474085,-0.18211124,-0.35944686,0.14302217,0.26440884,-0.39172258,-0.06259853,0.02198084,0.34845882,-0.49619416,0.35553285,0.42439478,0.16857792,-0.34715299,0.20833014,-0.04105090,0.13282758,-0.18355619,0.09047538,-0.41913410,-0.26105942,0.00892963,-0.01079099,0.06693995,-0.38375336,-0.12825332,-0.40270004,-0.49732883,0.36391207,-0.26977222,0.02521274,-0.08326272,0.04704720,0.16578181,-0.43995491,-0.18806285,0.27461831,-0.00214177,0.33411521,0.12312155,0.00169549,0.18968673,0.04751876,-0.32963211,0.34286696,-0.24369389,0.12943207,-0.02473017,0.07179310,-0.28150104,0.05442807,0.30957227,0.22796055,-0.45472864,-0.12148233,0.34501509,-0.08284819,-0.02464652,0.34688388,-0.21988283,0.20467564,-0.12757375,0.19746973,-0.24772372,-0.46137128,0.25764851,0.06420078,0.31325615,-0.24447210,-0.10164554,-0.06362203,0.25725575,-0.41180218,0.48410142,0.42777626,0.43101384,-0.26023607,0.05579045,-0.09569789,0.31033484,0.27501005,0.46085701,0.12201810,0.00430340,-0.49251208,-0.49854729,-0.15026896,-0.07613068,-0.02382591,-0.30304943,0.20451012,-0.31884668,0.06936893,-0.09813563,-0.06670296,0.10797490,-0.34048113,0.49751155,-0.07876894,-0.08492818,-0.10407367,0.35771412,-0.32748109,-0.01587031,0.34139148,-0.40057356,-0.08544042,-0.41839394,0.15668925,0.32004169,0.39275323,-0.06754844,0.28208390,0.01578499,0.43689547,0.28844437,0.01630917,-0.21366757,-0.28771309,0.49237224,-0.01691052,0.41667100,-0.32660930,-0.44758146,-0.18146463,0.10668774,0.16039344,-0.02194478,0.10421328,-0.41823720,0.39323540,-0.49999738,0.43903119,-0.43477503,-0.01558517,0.28145170,-0.33416012,0.39893149,0.36229847,0.32206973,0.21910771,0.25524855,-0.24619842,-0.00022148,-0.23019704,-0.30999696,-0.21199958,0.28593067,-0.02376038,0.00021043,0.27820903,0.45930011,-0.08311858,0.45159973,-0.48828135,0.23542610,0.05837513,0.17218632,-0.28662597,-0.33767384,0.25362080,-0.39344348,-0.33743975,0.19301285,-0.32813433,0.14632290,-0.02640942,-0.16291832,0.04514858,-0.16410775,-0.34140235,-0.23662262,-0.40970209,-0.08801549,0.26308121,-0.13999072,0.10197250,-0.44895105,-0.35410156,-0.42179697,0.05125938,0.42410747,-0.46249686,0.46814080,0.37570719,-0.45078269,0.20354167,-0.06604416,0.22129293,0.41701709,0.09647360,-0.02493240,-0.47644187,0.25897761,-0.33200692,-0.30449063,-0.09446811,0.14173771,0.03263276,0.45054162,0.47741550,0.19114198,-0.28607341,-0.43228747,-0.39687375,0.47700779,-0.07227820,0.20509876,-0.47194326,0.07362024,0.28330179,0.07931612,-0.00227229,0.32080493,0.04745692,-0.12656510,0.37002672,-0.24898549,0.30742956,0.09136060,-0.33195687,-0.09608902,-0.43356892,-0.30835621,-0.33705554,-0.26552860,-0.11281233,0.06850250,0.37621764,0.41981292,0.01903974,0.35363314,0.11095490,0.23296632,0.42134567,0.21408116,0.20997412,-0.15093253,-0.08082009,0.23803086,0.42268772,-0.29751830,-0.18265302,-0.07958458,-0.47671338,0.36480390,0.29385068,0.39331556,-0.38418160,0.10126400,-0.01538627,-0.21619879,-0.49483430,0.05109324,-0.02449822,-0.33186468,0.28557642,0.36269299,0.23663782,0.16179406,0.28250591,-0.24432244,0.01542720,-0.10653919,0.48864388,-0.06322713,-0.39245803,0.19861800,0.28584034,0.02672188,-0.06335114,0.20852806,0.22920358,0.25399584,-0.37105412,0.25249270,0.11874677,0.42267032,0.14556865,0.23449061,0.02379532,-0.36988917,-0.48179327,0.02897742,0.18140271,-0.00615144,0.19733346,-0.03284875,-0.14332203,-0.06596232,-0.37104703,-0.36081612,0.18971524,0.14438017,0.03264470,0.17835912,-0.41884696,0.14018667,-0.12303419,0.36695448,-0.33325104,0.31340961,0.07528963,0.39582698,0.06731140,0.20399415,0.14787519,-0.31455525,0.12600188,-0.20681625,0.42005831,-0.34938355,-0.07558603,0.43928762,0.18051736,-0.39354033,-0.06649568,-0.12200321,0.07362475,0.29018229,0.31203447,0.20257773,0.42936618,0.00174970,-0.15304552,-0.03803001,-0.31998871,-0.07202869,-0.39804491,0.05690279,-0.20493885,-0.23101907,-0.12996135,0.36922497,-0.33710090,0.43552937,0.07244793,0.31154881,-0.37714150,-0.29908211,-0.39195227,-0.45400000,-0.14608780,0.03321659,0.48528562,-0.46572127,0.13957558,-0.08118140,-0.08772448,-0.28679966,-0.29099911,-0.27568919,0.41577096,-0.36176289,0.22590816,-0.23737154,0.10038630,0.40625583,0.19079771,0.20207635,-0.03818707,0.48337407,0.46828417,0.33070121,0.35370402,-0.36581935,0.26980648,-0.07054528,0.44984190,0.39726808,0.13459230,-0.44046375,0.44314860,0.48771529,0.09203464,0.42816454,-0.47802242,-0.26836795,-0.15301686,-0.06573705,-0.05517422,0.05583040,0.15849055,-0.13941342,0.19467762,-0.11490608,0.12348785,-0.20589270,-0.21093865,-0.18790356,0.49586770,0.25339232,-0.20041064,0.46765938,0.08667930,-0.34455746,-0.39504600,-0.13976345,0.08907500,-0.44249636,-0.24211378,-0.27756079,-0.38445385,-0.29979329,-0.28989492,0.20760940,-0.37159014,-0.26782190,0.43936847,-0.02463169,0.16637504,-0.11554482,-0.46774863,-0.17376274,0.24595698,0.22664573,0.21040724,-0.13038948,-0.47731901,-0.49689823,0.18443519,-0.48038127,0.25546696,0.48336996,0.48778758,-0.15645675,-0.35973536,-0.40628597,0.20352237,0.22785228,-0.35069071,0.46003802,0.44988539,-0.23523468,-0.33970761,-0.33984544,0.47254315,-0.21119500,-0.10767592,0.41250965,0.26610617,-0.43914991,-0.20154222,0.29879304,-0.11314743,-0.45568456,0.02495233,-0.40341198,-0.08864434,0.04409277,-0.40402586,-0.40577587,0.06258878,0.35020132,-0.42513509,0.04725977,-0.30926586,-0.28728912,0.13860166,0.39255440,0.43956659,0.28778342,0.35263991,0.38964593,-0.44717347,-0.48675562,-0.44994655,-0.47328313,-0.19537427,-0.05457638,0.44100558,-0.42939186,0.00394908,-0.26362927,0.36425149,0.38468937,-0.22679928,-0.11646557,0.47877676,0.18471948,0.42740171,-0.42777458,0.27361912,-0.01619060,0.41741192,0.34486653,-0.47134118,-0.39342375,-0.44329236,0.16720307,0.49919226,0.49643169,-0.04466993,0.35239089,0.38691773,0.00985162,0.36848318,0.44032633,0.03785302,-0.32916529,-0.11937542,-0.02800205,-0.26793396,0.37443669,0.19847168,-0.40860990,0.26119454,0.47652596,-0.02222823,0.23888167,0.15678443,-0.10097261,0.30552059,-0.07362398,0.38067116,0.22181113,-0.22902250,0.40935081,0.32845062,-0.17218466,0.07690909,0.32809839,-0.17468296,-0.46573465,0.18354905,-0.28449789,0.04452807,0.04811048,-0.35210191,-0.42769528,0.20700469,0.01606270,0.03584745,0.43901625,-0.10135490,-0.25668539,-0.46301635,-0.33874534,-0.28220045,0.01023567,0.39438514,0.36999774,0.40681201,0.19899734,-0.20364112,0.28749828,-0.07914037,0.06743317,0.19708466,-0.25015486,0.39665190,-0.22367438,-0.41837063,-0.27487512,-0.18938871,0.26000341,-0.06952656,0.34186559,-0.20669940,0.06638452,0.41080475,-0.49137813,-0.40376707,-0.04243877,0.45431410,-0.00359038,0.20026211,0.48730311,0.15166285,0.41256443,-0.00547962,0.04508586,0.28255694,-0.09870230,-0.25590435,-0.42107458,-0.31100765,0.16563339,0.14777311,0.38875883,0.41906659,0.04684515,-0.33620513,0.49418739,0.26054659,-0.04105356,0.23883055,-0.31794014,-0.19458353,-0.45218018,0.26464468,-0.27481521,-0.44110683,0.36052838,0.18182996,-0.49062768,-0.14889695,-0.12365864,0.49362827,-0.49809728,-0.21108924,-0.01186852,0.04698858,-0.42852198,0.38947713,0.29176239,-0.34803097,-0.41875600,-0.04004817,0.30057496,0.46715288,-0.12797719,-0.16371326,-0.38410578,-0.14802909,-0.40845197,0.08678341,-0.38940939,-0.21004276,0.39697175,-0.34331096,-0.44747142,-0.37935457,-0.28802178,0.40744517,0.29716601,-0.28145938,-0.24226408,-0.32646732,-0.28783219,-0.24036136,-0.03752910,0.20034879,0.30783069,0.03579461,0.09205165,0.10022318,0.18609595,0.16842549,-0.44811380,-0.02516052,0.12151986,-0.08707366,0.31255363,0.25509929,0.28777628,0.41994982,-0.15599069,0.39514511,-0.29270899,-0.26146425,-0.45247097,-0.24592745,-0.14551255,-0.24296771,-0.33935598,-0.34828137,-0.02441627,-0.08161909,-0.17468300,0.18812608,0.17956606,0.28971410,-0.10985814,-0.01406647,-0.17877716,0.47534235,-0.42312730,-0.50315446,0.13444771,-0.37403886,-0.01760755,-0.22184499,0.06263574,-0.19215669,-0.46531860,-0.15275255,-0.27433225,-0.12415392,-0.26256390,-0.07284801,0.11030907,-0.21712792,0.18037922,0.46489635,0.03992045,0.34102335,-0.38334868,-0.48383990,-0.23885909,-0.05581615,0.20545458,0.43830600,-0.27201106,-0.41341419,-0.08563530,0.04150166,-0.44121215,-0.00280768,0.05504951,0.21637841,0.14270038,-0.45426203,0.49476425,-0.29732034,-0.14811705,-0.47394516,0.04507131,0.07244759,-0.10148579,0.28089970,0.49900678,-0.49104849,-0.43622227,0.17939729,0.47380211,0.10415354,0.02210204,-0.40658078,0.12219450,0.28076397,0.02984804,-0.18372141,0.20921727,0.25334442,-0.09375029,-0.36479586,-0.18741620,-0.01546632,0.14582012,0.37235414,-0.30003937,-0.21414574,0.41525466,-0.30914780,-0.01543932,-0.23637559,-0.28536433,-0.47129940,0.33583540,0.11331408,0.30960030,0.33483906,0.12205048,0.37341565,0.01543300,0.09929984,-0.01931459,-0.46381417,0.18450831,-0.40924116,0.30807832,-0.28687900,-0.08518748,0.02977961,0.48097035,0.33376126,0.17298854,-0.20449718,-0.18323601,-0.18428778,-0.33514845,0.01343586,0.09907819,-0.42196827,0.20302975,-0.41689268,-0.15840784,0.41778340,-0.38819208,-0.32263087,0.03084086,0.42136430,-0.48682024,-0.34391608,0.29783320,0.02825553,0.24832863,-0.23120531,0.05805688,-0.06555552,-0.13255775,-0.12485695,0.15538675,0.28837525,0.40961554,0.13671002,0.11995237,0.07890490,0.42993914,0.43485604,0.39285166,-0.40659965,-0.05231766,-0.00819941,-0.32841609,-0.34918249,0.07489510,0.01313460,-0.43160257,0.18658527,0.19114805,0.10139984,0.11036114,0.20422194,0.25308255,-0.09723678,-0.27011383,0.00381462,0.17574578,0.29102226,0.43965157,-0.45490174,-0.33213565,0.09393485,0.33022562,-0.42638266,-0.27066778,-0.05100807,0.15133914,-0.34126239,-0.11613459,0.04455085,-0.24750702,0.33163991,-0.46364231,-0.07592319,0.48238718,0.11121475,0.43753914,-0.44785257,-0.20122193,0.12763804,0.15103376,0.40736423,-0.16663218,-0.09307021,-0.18899844,0.06116161,0.40782849,0.48534813,-0.14844303,0.34500370,-0.47320006,0.01684696,-0.06154145,0.35624753,0.08998042,0.16777096,-0.19443293,-0.25831152,0.32670814,0.18944977,0.28624576,-0.42079893,0.02106494,0.32254127,0.00343024,0.00404017,-0.06575001,-0.05963521,0.05462144,0.23333469,-0.42908280,-0.29194402,0.13918426,-0.09997273,0.11047636,0.44808067,0.45982865,0.01549155,0.43050837,-0.19018268,-0.13957714,0.45719168,0.32646259,0.29897909,0.31359746,-0.08341357,-0.03322135,-0.38084099,0.15826228,-0.20651321,0.30858700,-0.05553441,-0.12726947,-0.17010779,-0.23230352,0.37663065,0.33387935,0.20220816,-0.18153181,-0.11019891,-0.06597703,-0.11407426,0.09427553,-0.42834863,0.28460362,-0.29739413,-0.48249329,0.24325311,0.21796726,0.44810669,-0.44696955,-0.42158248,0.40526401,0.37957324,0.37739372,0.21886146,-0.20384033,-0.15582764,0.33801875,0.45442381,0.13772805,0.14691303,-0.10041353,-0.48849581,0.47797659,0.16810840,0.38815803,0.31103245,-0.13174521,-0.29604333,-0.30126872,0.30103568,0.08836424,0.29095827,0.37050783,-0.12826560,0.49305108,0.38796255,-0.38507572,0.21096296,0.33602101,-0.33203603,0.28937527,0.24128502,-0.45246279,0.16676899,-0.03985314,-0.15629052,-0.48898449,-0.20151828,-0.20145913,0.14925328,0.44578913,0.19818700,0.15975476,0.42163645,-0.13635264,0.04588611,0.23144693,0.23074445,0.24840690,0.42832146,0.02997957,-0.16422668,0.21876123,-0.09966346,0.20746094,0.21179005,-0.21171301,0.32237776,-0.07724862,-0.37569200,0.49034173,-0.28787335,0.36559301,-0.46212106,0.37893103,-0.17419095,-0.11832816,0.38993427,0.12394242,0.17971955,0.03845457,0.06880000,-0.12313011,-0.30248537,-0.01004037,0.23995880,0.24269734,-0.27942960,-0.03004600,-0.00928391,-0.35135470,0.49982190,0.32648083,0.36740428,-0.09984157,0.03394176,0.07919433,0.18844542,-0.14368048,-0.49805429,0.31275342,-0.15333875,-0.28592764,0.17834643,-0.11545981,-0.40703200,-0.49591408,0.26611602,0.48280500,0.12799237,-0.05418934,0.02124250,-0.30330497,0.32255412,0.21862759,0.18652162,0.06238788,-0.03872676,0.40704542,-0.46767881,0.45198934,-0.44430927,-0.46785691,0.27847016,0.42309500,-0.06769848,-0.18758808,0.00228933,-0.37925306,0.16873144,0.00423504,0.43350036,-0.48460731,0.21830740,0.11184679,-0.10006500,0.31128852,0.11593271,-0.33392585,0.29415794,-0.25597048,0.11198023,-0.18460201,-0.05934829,-0.06558632,-0.46604952,-0.37285827,0.49680157,-0.00477627,-0.46581285,-0.47087724,-0.05278694,-0.41012212,-0.43873415,-0.27431677,-0.48702712,-0.00643263,0.03809515,0.01526222,0.11431431,-0.29317341,-0.48050275,0.04781467,-0.27776317,0.23784040,-0.34025350,0.12228886,0.04933244,0.27604791,0.28917794,-0.15557554,-0.47923290,-0.09893571,0.15892932,-0.03959138,0.33459663,0.19244542,0.08728110,0.33127588,-0.31234246,0.12146825,0.36039864,0.13487060,0.21134613,0.42166449,0.36055383,0.22431901,-0.08475622,-0.10129738,-0.26034556,-0.47035694,0.10565489,-0.24062747,0.07775339,0.32824934,0.49790099,0.23879844,-0.04761288,0.04867803,0.01509608,-0.25989004,0.39026669,0.03276380,0.13828664,0.04761627,0.49227510,-0.02741695,-0.25995925,0.07955619,-0.19614106,-0.07230171,-0.29897556,-0.33574242,-0.43741840,0.41243468,-0.41393534,0.42329925,0.13684794,0.00131430,-0.17820562,0.37628946,0.03071820,0.42779313,-0.36311236,-0.38967892,0.25765579,-0.36557148,0.34640988,-0.29453402,0.17836503,-0.14234059,-0.05740465,0.06722877,0.38983451,-0.41905400,-0.38507387,0.38211054,0.05352905,-0.14503312,-0.03833327,0.35738818,0.28272198,0.16285668,-0.47820646,0.34516232,0.07479581,-0.39297836,0.26774428,-0.28879141,0.10815068,-0.40989718,-0.41111415,-0.35915313,-0.48116902,-0.27611051,-0.25323325,0.27086990,-0.14550295,-0.40822618,0.47657479,-0.46656646,-0.04988321,-0.08007925,0.10111807,-0.15989900,0.00089031,0.21604470,-0.27778845,-0.44557281,-0.42898330,0.18379812,0.41149118,0.35300678,-0.15452784,0.43219114,0.19771753,0.42089888,-0.45944940,-0.03248973,-0.36611800,0.15014037,0.05673504,-0.28017134,0.28625489,0.07160931,-0.05716077,-0.46447736,-0.15358047,0.29985240,-0.37103589,-0.17588722,0.33418831,0.07947361,0.24414106,-0.06470219,0.41957724,-0.25509186,-0.34877056,-0.35835342,-0.20098843,-0.27851761,0.32437440,-0.29004868,-0.42498130,-0.32811911,-0.35548347,0.27498949,-0.40609282,-0.31533580,-0.26028213,-0.27647834,0.33131527,0.29634639,-0.05332327,0.12346904,-0.12642523,0.39269661,0.16090321,0.22121906,0.19375029,0.29048914,-0.45433647,0.02799151,-0.13002688,0.28972387,0.46317989,-0.21053256,-0.46531233,-0.38589228,-0.06954405,-0.16642608,-0.16351009,-0.24325921,0.04578841,-0.08677097,-0.07159526,0.18771002,-0.31569799,0.01919735,0.37204909,-0.07245813,0.24891450,0.21063608,-0.27092180,-0.30188408,-0.16470855,0.10355446,-0.40761034,0.49738259,-0.17438323,0.28627150,0.28787714,-0.12871524,-0.18581611,-0.34217450,-0.33894409,-0.22289604,-0.05326380,-0.30459553,-0.10807918,0.37893332,0.03145839,0.22945871,-0.36593906,-0.42751797,-0.36197533,0.06128944,0.26312949,-0.17144139,-0.41237299,0.14192515,0.25999428,0.33777662,-0.14729239,0.48977851,-0.46250170,0.18955539,0.09423621,-0.37001282,0.18693180,0.41983299,0.41622440,-0.02510221,-0.20879948,-0.26946298,0.13253756,-0.04789340,0.00827330,-0.41843548,0.14927841,0.39954654,0.45572576,-0.32640054,0.12507401,-0.40816310,-0.24700098,0.27209790,0.16078009,-0.47914473,-0.39825005,0.24723745,0.16180253,0.36200669,0.08621891,-0.48444066,0.35216343,0.12375123,0.20510815,-0.05362452,0.25378950,-0.10764055,-0.13336453,0.17047212,0.36716504,0.15766909,0.40141481,0.00054035,-0.39057993,-0.09386544,0.07471150,0.25230298,-0.19471171,0.03710795,0.43700956,0.44093846,0.13536672,-0.30846133,0.20980818,-0.20780777,-0.28992352,0.31166674,-0.45966076,0.37239812,0.17374632,0.12656281,0.38795414,0.02589829,-0.24949213,0.09344904,0.47277824,-0.49536759,0.48545894,-0.16076288,0.17461571,0.35183057,0.49427418,0.07040218,-0.15402627,-0.39921504,0.48101684,0.43179227,0.36638077,-0.20381752,-0.02724546,0.30075379,-0.26984372,-0.39780429,0.48949627,0.44024264,-0.10477834,-0.30013154,0.25188461,-0.06443936,-0.42773360,-0.07436852,-0.43760956,0.46068355,0.45206400,-0.18710812,0.05400754,0.42550026,-0.18237213,0.03807390,-0.23990234,0.48585359,-0.11474106,-0.24505148,0.06482710,0.24449257,-0.13164759,0.05302942,0.17634838,-0.27148987,0.34032488,-0.35744974,-0.47334262,-0.42933336,-0.25471371,-0.48383571,-0.48917350,0.14050782,-0.28396725,0.26271589,-0.42358409,-0.21118865,-0.31102903,-0.36108780,-0.24966031,-0.35735147,-0.04707368,0.30285997,-0.43762677,0.26414505,-0.16249355,-0.17471598,0.25932602,0.23397934,0.08840649,-0.17341312,-0.02498875,0.44917523,0.37098091,-0.35428380,-0.32428401,0.21138713,-0.21161906,-0.29778515,0.28196007,0.03366729,-0.28162086,0.29273397,-0.32563374,-0.06528900,0.05618488,-0.24817247,0.22580756,0.24807216,-0.10732052,0.47416983,0.38445135,0.33918228,0.27394943,0.45027424,0.11015602,-0.38328415,-0.22343487,-0.13370977,0.34538334,0.35831362,0.18658827,-0.18324592,0.30654490,0.05769191,-0.03774378,0.48214526,-0.23098823,0.25063766,-0.31564014,-0.44909977,-0.21585736,-0.09746960,0.34456775,-0.03943172,0.34125918,-0.09530852,0.21368020,0.06306743,-0.35455974,-0.40059330,0.03425452,-0.46890393,0.44045999,-0.19276850,0.47686309,0.04421335,-0.08180593,-0.25234670,0.40600477,-0.23866200,-0.39408978,0.09288025,0.07795252,0.41250052,-0.34947063,-0.45979025,0.39464731,-0.08050671,0.29030739,-0.42151527,-0.02910351,-0.42274992,-0.01408727,-0.18037012,0.03814190,-0.17824537,0.21649462,-0.25452161,0.38315595,0.36108292,-0.15669787,-0.08711305,0.38544687,-0.22311892,0.21418477,0.35700221,0.31760223,-0.36879563,-0.39441983,0.22443519,-0.10715018,-0.28843223,-0.18273377,0.47080291,-0.37593095,-0.03220001,-0.48945285,-0.48206715,0.38672461,0.30310582,-0.39849906,-0.13725429,0.38076436,0.08200491,0.17479332,-0.08627300,0.40237469,-0.11023344,0.15617788,0.27951674,-0.25664823,0.49253790,-0.31364480,-0.37485680,-0.23202065,0.40086103,0.48340357,-0.41358696,-0.46756501,-0.41098231,0.31080210,-0.07471519,-0.19941367,-0.37186373,-0.10415832,-0.07622091,0.09448813,-0.09305672,-0.05459449,-0.01393903,-0.28827876,0.04379071,0.34369515,-0.41102664,-0.37590908,0.01643549,-0.00089216,-0.47975697,0.39879041,-0.35122820,0.29524878,-0.35938064,-0.35801157,0.48297695,-0.23316995,-0.08957506,0.38399213,-0.24976580,-0.00320776,0.41642712,-0.16073443,-0.19235541,-0.15854306,0.13889779,-0.06604135,0.23663374,-0.43541262,-0.46804887,-0.35444551,0.00883536,0.01599505,-0.14445808,-0.44916284,-0.14289886,-0.05985691,-0.33130881,0.36789341,0.43555451,-0.31211451,0.26774415,-0.41384981,0.48450614,0.40891251,-0.27176320,0.46745801,-0.32433336,0.13859394,0.35145005,-0.07410615,-0.36459836,0.26765840,0.26443544,-0.05853160,-0.39231787,-0.09714128,0.37597288,0.34487854,-0.03239329,0.40901775,0.49174932,0.47659238,-0.07683579,-0.15600811,-0.47544123,0.27951579,0.28528873,-0.30410872,0.14983046,0.22262281,-0.11573241,-0.08257369,0.30851064,-0.13136615,-0.17374594,-0.46329245,-0.16389389,0.00190628,0.17520971,-0.31269448,0.42730454,0.30947977,0.45367099,0.19013839,-0.25066109,-0.43966219,-0.40665474,-0.37177153,0.40914802,0.06437075,-0.46042907,0.40251949,0.04344558,-0.03365477,-0.24959092,0.07121888,-0.25174393,-0.46302013,0.26684563,0.39768518,0.25926565,-0.34894107,-0.18493053,0.06776894,0.01970704,0.14132098,0.10438903,0.35556111,-0.35721728,-0.22112794,-0.45843032,-0.43197813,-0.41348590,0.49462962,0.26013135,-0.15908386,-0.43865287,0.35968691,-0.02548074,0.47481853,-0.07131866,0.01852944,0.38074683,0.47429463,0.48639533,-0.36817968,0.04536658,-0.26563981,-0.33138251,-0.18783330,-0.36796595,0.42788311,-0.03677446,-0.05289648,-0.00443730,0.48267259,-0.41194948,-0.40039131,0.33795881,-0.26926543,-0.12106003,0.38106037,-0.19821854,-0.03054655,0.38021730,-0.43392336,0.31378510,0.44451629,0.42878624,-0.20909397,0.42094670,-0.14173588,0.30991697,0.30198286,-0.16747830,0.29618142,0.43370091,0.37777519,-0.46946000,-0.39768159,-0.31005811,-0.33742595,-0.46980589,0.15306753,0.10954897,0.02570287,0.13590738,0.19781282,0.12563579,-0.02551495,0.42949909,-0.49421084,-0.14292208,-0.26730325,-0.02354266,-0.26196786,-0.20061992,-0.20924162,-0.31737346,-0.27189227,0.08172377,-0.39640280,0.08630105,-0.10840433,0.40551558,0.41877053,-0.31222133,0.33921649,0.29654572,-0.28168133,0.44153532,0.48648534,-0.11911604,0.47174236,0.13964379,0.49052615,-0.00244714,-0.22426293,0.18865811,-0.37646060,0.25058371,0.11844019,-0.37055859,-0.39243933,0.35095002,0.10572074,-0.15456959,-0.34973921,0.39649030,0.02806113,-0.12167440,-0.02179320,0.13166137,0.46462892,0.36980296,0.03717695,0.38339944,-0.44241836,-0.12360656,0.17994516,-0.22410010,-0.18207222,0.16643197,0.15679117,-0.21033692,-0.19391334,0.14736293,0.28725905,0.08184074,-0.16396915,0.41081416,-0.16757270,0.45448094,-0.45969415,-0.05998478,0.30545275,0.14600907,0.28544501,0.45570663,0.04249756,-0.18649386,-0.16596778,-0.47929564,0.44516751,-0.20133886,0.39050732,-0.01765554,-0.31793942,0.44808896,0.35873791,0.36200575,-0.27601073,-0.32333375,0.02843851,0.38078230,-0.03366899,0.33452632,0.02814562,-0.24641425,-0.08363085,0.36418384,-0.33558744,0.24881272,0.31867284,-0.29529991,-0.31118220,0.12412560,0.35070916,0.47426282,0.07983222,-0.10679329,-0.21223104,0.41386444,-0.08608893,-0.26706353,-0.28747442,-0.19558161,0.21528093,-0.10541383,-0.24749265,0.07401884,-0.24340854,-0.02350620,0.25068509,0.28502574,-0.14275604,-0.28303928,0.11952044,0.38541524,-0.02940263,-0.46407411,0.24960838,0.13501441,0.28473861,0.06828122,0.33971450,0.47355642,-0.30759319,0.19042366,0.44781923,0.27223903,-0.41636963,-0.26441181,0.18610348,-0.00245856,-0.03147535,0.39862906,0.30195983,-0.31619442,-0.20678827,-0.44554179,0.25780515,0.04973779,0.03081881,0.00837744,-0.16546168,0.38781508,0.22510897,0.45408035,0.27354015,-0.30393872,0.49030351,0.02327435,0.33114187,0.27505883,-0.40844315,0.17085637,0.24861525,-0.21603634,-0.13871997,0.19643448,-0.44379730,-0.05508960,0.43202263,0.24230363,0.44246235,-0.09943098,0.14094472,0.24436509,0.08422127,0.43392298,0.29846504,-0.15839911,-0.01679576,-0.17100383,0.35001260,0.31834368,-0.28213197,0.07608326,0.27314270,0.49175159,0.27233988,0.26350973,0.01502826,0.10348175,0.03856856,0.10658511,-0.22566188,-0.21281619,0.39054775,0.13561970,0.48362611,0.44676092,-0.41945230,0.41567493,0.18908352,-0.47702238,-0.18399826,-0.17045690,0.26639415,0.39896911,-0.23756994,0.06449144,-0.25878763,0.24734246,0.39602395,-0.40650257,0.06698001,-0.38575823,0.16962423,-0.15991431,-0.39404844,-0.05804237,-0.39640457,0.12097982,-0.45456062,0.14216418,-0.27243876,-0.18021405,0.42942061,-0.38176296,0.45558295,0.41320596,-0.43490863,-0.46395483,0.32840866,0.25316196,-0.44268184,-0.35742387,-0.41830642,0.32407279,-0.45652146,-0.15324334,-0.10777017,-0.21183525,-0.40384059,-0.21141985,-0.11866595,0.16303002,-0.09712846,-0.44892198,-0.49685811,0.00883164,-0.00696436,-0.39325883,-0.37016565,0.03850500,0.24900611,-0.14240370,0.35869530,0.17882121,-0.02390118,0.31398802,0.09110011,0.03942869,0.34771180,-0.08244863,-0.20779613,0.40657899,0.06313842,-0.12283403,0.23448835,0.10996204,0.22627945,-0.37282479,0.39787621,0.32240748,-0.08396883,-0.22052566,-0.01453097,0.31890242,-0.16943880,-0.01132923,-0.17217881,0.32366745,0.09552151,-0.04211875,-0.13734547,-0.15480517,0.31603497,-0.27888585,-0.47713198,-0.20996918,-0.46715577,0.11273750,0.33009462,0.38331080,-0.46635856,-0.37448533,0.29289994,0.09889204,0.00352887,0.02685896,-0.29186887,-0.27040478,0.15415791,-0.39388245,-0.44809539,-0.42985479,-0.11440298,0.03747183,0.38920758,0.21632297,-0.47374287,-0.28262719,0.04073631,0.12263216,0.17574875,0.40307302,0.46628269,-0.01059567,-0.37808226,0.48809719,0.27988369,-0.34352064,0.10280255,0.11231565,-0.45848807,0.13680933,0.23619185,0.33189040,-0.26622452,-0.26111920,-0.14161182,-0.05840771,-0.03179580,-0.48749901,0.04771928,0.02018620,-0.41714657,0.43362825,-0.44205498,0.47255565,0.15071544,-0.41506221,-0.31015747,-0.30992550,0.20520177,0.36306265,-0.40936990,0.16984144,-0.14833595,-0.28674529,0.15953724,-0.36630572,-0.12886858,-0.23814312,0.24297034,-0.09097541,0.39588999,-0.02229884,-0.25979031,-0.37092616,0.21631262,0.09856733,0.07070135,-0.31539545,0.11122265,-0.38134273,0.20513757,0.19444748,-0.44718326,0.26322034,0.16602170,0.20111828,0.34560802,0.35360450,0.38874725,0.04842809,0.21501324,0.48066141,-0.27836353,-0.42968715,-0.30418152,0.38034686,-0.29901076,0.06350389,-0.36037617,0.44246916,0.47181352,-0.46493220,-0.07992370,-0.28797060,-0.33581650,-0.36354003,0.31072066,0.23497095,-0.17878594,-0.07789845,0.35379555,-0.47398582,-0.38482914,0.40463444,0.28777168,0.28008109,0.10345127,0.13017233,0.13233931,-0.00464476,-0.31584543,-0.14790906,-0.02157302,-0.09497330,-0.07970362,0.17179289,-0.21629203,0.12012896,-0.26527726,-0.07695426,0.06260996,-0.29345033,-0.04185126,0.48273168,-0.08135294,0.12239576,-0.38069799,-0.27065040,-0.14285529,-0.06035637,0.15034164,-0.28961985,-0.03413615,0.26480108,-0.38854514,-0.25070116,0.04449767,0.22056555,0.38681219,-0.31806030,-0.28229690,-0.42970823,0.03292009,0.19486696,-0.02559289,0.45228640,-0.13389204,0.25786976,0.07242090,0.10082962,-0.31908153,-0.36496918,0.30737392,0.13908465,-0.38225930,-0.27416240,-0.23926193,-0.26432764,-0.04569633,0.11836887,0.17653068,-0.39712355,0.32384623,-0.36197333,0.37042467,0.44379906,-0.10429708,-0.08097336,0.16468520,-0.21818285,0.10049561,0.38213655,-0.14819512,-0.36717916,0.07657461,0.32606234,-0.41488571,0.44268204,0.08393210,0.15753341,0.04345482,0.26484026,0.29246019,-0.14954146,-0.09716141,0.40886711,0.07548493,0.16425517,-0.35467943,-0.47268273,-0.22202244,0.31984039,-0.36263874,-0.38733060,0.46668512,-0.49005003,-0.44448713,-0.13849479,-0.07084727,0.22065838,0.14342701,-0.47067386,0.10251475,0.49513521,-0.33784914,-0.32091143,0.32119755,-0.25272447,-0.37827171,-0.09485837,0.40462143,0.16469897,-0.33116791,0.19552232,-0.48577405,0.07170313,0.10395377,0.08716132,-0.26669633,0.25160390,0.12470499,0.02326249,0.07899876,0.26279930,0.13444262,0.04479489,0.27319690,0.19058757,0.40637190,-0.29799243,-0.08904125,0.04965540,-0.26869408,-0.48653707,0.04479116,-0.10652755,-0.30738521,-0.13389408,0.14062389,-0.18609693,0.27011094,0.04383611,0.47756270,0.43822394,-0.26144906,0.49029583,0.01029975,0.34868560,0.08897137,0.25460764,0.10525319,-0.28626386,-0.22360086,-0.31600103,0.47694660,0.41123363,0.22861554,0.24974475,0.10153319,0.13482528,0.45171049,-0.48752418,-0.31552213,-0.31696901,-0.47385901,0.22953813,0.07665247,-0.28156025,-0.40535547,-0.28412054,0.03061633,0.36314225,0.25862362,0.00785785,0.30436664,-0.49525102,0.00847213,-0.17757227,0.35588716,-0.40323392,-0.42373181,-0.03832258,-0.18896859,-0.14696240,0.14528348,-0.21247247,-0.23601751,-0.12620963,-0.46272793,0.36550939,-0.49137409,0.48900746,0.37824424,-0.30648087,-0.32738581,0.40438221,0.42198236,0.24715829,-0.38010415,-0.48558221,0.46240743,0.15191987,0.38198620,0.22755443,-0.33274070,0.19113112,0.23384571,0.17570018,-0.48604949,0.09025736,0.27299365,-0.40957248,-0.44842336,-0.41637053,-0.05684483,0.19678802,-0.12882488,0.20713767,-0.42939638,-0.09147577,0.07290663,-0.42027426,-0.10174233,-0.04869121,-0.22784286,0.06815232,-0.14802713,-0.30815723,-0.18454022,-0.02516374,-0.28931496,-0.21772672,-0.36888305,-0.40413336,-0.48817040,-0.20007409,0.28791806,0.24611653,0.47586236,0.30174149,-0.16393930,0.24849421,0.39194765,-0.11237787,0.33214129,-0.16489718,-0.41557931,-0.29658751,-0.45744922,-0.34438808,0.11268378,0.11561341,-0.26577183,-0.49174018,-0.43594238,0.00468653,0.07713756,-0.08117837,0.19946024,0.39487873,0.39614919,0.41325366,-0.31993531,-0.47063418,-0.49016063,-0.30780189,-0.17075963,0.29751543,0.43797888,-0.19523526,0.09913657,-0.22593300,-0.44672829,-0.00891618,0.16170927,0.38550467,0.32645666,0.24672465,-0.41038890,0.36929784,0.40142192,0.20036308,-0.01707003,-0.36529216,0.20935481,0.04784365,0.14023218,-0.21306657,0.46837792,-0.15731444,-0.31523046,0.36599985,-0.24364264,-0.13491939,0.39533017,-0.23395861,0.05696735,-0.27571089,-0.43656893,-0.00504554,0.02904592,0.16260383,0.26903122,0.08235941,-0.34614794,-0.06882526,-0.03154041,0.48045127,-0.32290104,0.05696566,0.34880271,-0.42154500,-0.24256921,-0.16894301,-0.28825636,0.46562052,0.37998353,0.35479368,-0.24511186,0.34937847,-0.30217927,-0.06016528,0.21537505,-0.04589890,0.30471017,0.11051891,0.22007207,-0.13833202,0.33480301,0.28353934,0.35662406,-0.13615119,-0.05385853,0.12585374,0.44661928,0.10051949,-0.44287049,-0.08553554,0.08033059,-0.26631726,0.47081767,-0.07237628,-0.18974699,-0.27321155,0.25942789,0.02420917,-0.30616322,0.14001827,-0.12090670,-0.05113386,-0.01056113,0.07692735,0.38867550,-0.29524736,-0.46899729,0.19337759,0.31527138,0.25107439,-0.44495443,0.15007010,0.03461328,0.41174836,-0.48589163,0.48157586,0.03851570,0.46130079,0.08166857,0.09459120,-0.12540568,-0.33941133,0.32676257,-0.15586543,0.08811599,-0.36215099,0.07164978,-0.15212591,0.16206702,0.26558793,0.48798836,-0.45873914,-0.28550014,-0.02257030,0.11819101,-0.39682279,0.18218234,0.14919372,0.29655480,-0.00254545,-0.09970262,0.35174154,-0.35196667,0.43588087,0.26457051,-0.33719513,0.41686546,-0.19859775,-0.37796483,-0.00340798,0.39449451,-0.00451625,0.15641394,0.22098720,0.33979035,-0.25526622,0.35890906,-0.08848396,0.09273660,0.02109053,-0.32286980,0.08073599,0.06235714,-0.10836820,-0.44183430,-0.31945185,-0.00519099,0.24034425,0.32972608,-0.20854827,-0.26176214,-0.26934620,-0.35638871,-0.11412234,-0.33460088,0.40652455,0.04708983,-0.41913539,-0.29299185,0.16841153,0.07672476,-0.39899715,-0.33620647,-0.26674782,0.32212580,-0.49627962,-0.02190496,0.18110722,-0.08474980,-0.42916424,-0.29779977,0.09238094,0.15157175,0.26455738,0.48401274,0.20973745,0.44510553,-0.02116393,-0.04984613,0.27497321,0.27027716,0.18790836,-0.49512823,0.41315618,-0.42674523,-0.33018119,0.31942461,0.12001393,-0.24970818,-0.47380075,-0.21169351,0.32702895,-0.37274525,-0.04782823,-0.43968689,0.44939175,-0.04410490,0.03840815,0.13049898,0.37114529,0.10924391,0.33269921,-0.03647377,-0.23918434,0.09725658,-0.05246103,0.47055311,0.04236211,0.42636072,-0.07936141,-0.18279050,0.19654628,-0.39147416,-0.17793313,0.10969602,-0.31825705,-0.00818395,-0.07092166,0.30174134,0.24209578,-0.04472647,-0.40993773,0.06913254,0.08252828,0.04223404,0.12944564,0.03192003,0.49812914,-0.33214621,-0.33758099,0.36927443,0.27709770,0.49511822,-0.16719934,-0.46208664,0.09237480,0.28033964,-0.49153354,-0.36526333,0.20669886,-0.07089494,-0.04805453,-0.09675539,0.03761369,0.27399124,-0.48706439,0.21937327,-0.23417067,-0.05797900,0.02111518,-0.49207490,0.39729453,0.11117745,0.07705764,-0.02017719,-0.34658850,-0.29349671,-0.48825717,-0.34845936,-0.12564292,-0.32583816,-0.47918493,-0.34854522,-0.33071994,-0.14638427,-0.31063187,0.26164930,-0.36606005,-0.30218700,0.39636820,0.34062030,0.12693569,-0.15162791,-0.25604165,-0.33535741,-0.37757882,-0.24314211,0.38395294,-0.11181452,0.19886612,-0.09494042,-0.10389410,0.09616053,-0.48376297,0.47316354,-0.42401666,-0.33035148,-0.32033317,-0.41227383,-0.17881084,0.05402408,-0.23811672,-0.15802068,0.20544102,-0.06886201,0.19557237,0.39480558,-0.30724557,0.32948548,-0.40730932,-0.41070470,0.17030126,0.21969113,-0.06238769,0.41415296,0.38421120,0.05992025,-0.32902151,0.26813602,0.44808514,0.36984440,-0.32680440,-0.15580896,-0.03399507,-0.31056738,-0.18264542,0.04199099,-0.14091925,-0.00298850,0.12967821,0.18020760,-0.44900237,0.39156209,-0.47777216,0.25644236,-0.17731169,0.21795382,0.15135481,0.01557475,0.04731693,0.24384289,0.10464082,-0.28235404,-0.03626114,-0.45755140,-0.36808537,-0.15212520,0.10226539,-0.19718735,-0.38399905,0.05035053,-0.32734295,-0.21080345,0.39454213,0.13867017,-0.02138138,-0.28820710,-0.31954122,0.33749853,0.20870069,0.31016922,0.01795006,0.26001254,0.20211662,0.04051493,0.01672984,-0.47521348,-0.24204984,-0.33235859,0.04008736,0.30540917,0.41192413,-0.35464919,-0.47641432,-0.12432035,-0.31247587,-0.34485091,0.22344819,0.28976570,-0.04203275,0.33944914,-0.15988211,0.13061148,-0.37147605,-0.26565900,-0.23107128,0.10697665,-0.05350014,-0.04971613,-0.05461375,-0.34408039,-0.23921789,0.46330196,0.41551936,0.46221307,0.00322181,-0.06805604,0.48709529,0.26139945,0.09993122,0.02764630,0.06738594,0.01190757,0.17252877,0.09032228,0.38727564,0.35997675,0.24546507,0.11072353,0.14967526,-0.29664726,-0.04997276,0.48957944,0.33390971,0.07882283,-0.27493129,-0.39587966,-0.31307335,0.17179557,0.05404033,0.13159284,0.32676591,0.31365459,0.09415300,0.24235079,0.27641211,-0.40222505,-0.32570839,0.26321275,0.35893205,0.27376419,-0.20982668,-0.07436656,-0.21463301,0.46266863,-0.48406663,-0.32735910,0.32260387,0.26132603,0.28329374,-0.02747506,0.46519485,-0.26574537,-0.03662519,0.30005573,0.31348040,0.18804684,0.40353242,0.49921005,-0.14206162,-0.04451911,0.12984276,-0.31499460,-0.22993143,-0.27558440,0.42705277,-0.45458727,-0.17895898,-0.39981849,0.30762803,-0.32057726,0.37392626,-0.40201343,0.10506620,-0.34070458,-0.43936306,0.12099143,-0.16793621,0.38375373,-0.11688973,-0.38361710,-0.14289243,-0.15130077,-0.14964126,0.31951206,-0.35270434,-0.33848461,0.00432718,-0.45204274,-0.34027484,0.36310827,0.00493037,0.29022122,-0.45203346,0.27368373,-0.48704808,0.47325005,0.31779054,-0.16654921,-0.42649195,0.12568143,0.01290701,0.44744697,0.22365111,-0.38197125,-0.39297958,0.28494971,0.23999790,-0.05994173,0.16918504,-0.37691463,0.05558336,-0.47549227,-0.03102961,0.40196107,0.33997557,0.11383401,-0.43615367,-0.15335501,0.16441527,-0.27484747,-0.29012621,-0.33220621,-0.48707875,-0.24460790,0.43984258,-0.47473591,-0.27135854,0.25776212,-0.14127345,-0.19783823,-0.11653902,0.37174462,-0.25004787,-0.39210281,0.49085883,-0.14213356,0.39307679,0.23018800,0.29625454,0.05959359,0.34938069,-0.15259714,0.08071126,-0.18237993,-0.24834148,-0.07556351,0.43488275,-0.18264315,0.27100792,0.09730135,0.03949029,0.47812966,0.26328617,0.05172406,-0.26657822,0.20315822,0.07698007,-0.03792800,-0.03906875,0.43582378,0.26459441,0.34524885,0.30870502,-0.48449076,0.45326304,0.29819299,-0.12931696,0.34277803,0.02444537,-0.33654744,-0.09947307,-0.12512224,0.01425432,0.48547126,0.19554667,0.26715764,-0.09084126,0.12826270,-0.41825617,-0.32236889,-0.27629417,0.12035437,-0.34444142,0.48697946,-0.32793589,-0.11101759,0.19014678,0.24915584,0.35139929,-0.34802972,0.18623106,0.11711781,0.49696416,-0.00711716,0.12906674,0.44648227,-0.21214671,0.49773500,0.28864674,0.31427756,-0.33518259,-0.30722873,-0.30892284,0.17921141,-0.32280327,0.38502761,-0.05557664,0.08421102,0.01147287,0.02511620,0.26159239,0.23515501,-0.35453651,0.41715097,0.22214554,-0.18237125,-0.19345377,-0.08663454,-0.43174732,-0.34103220,0.06462053,0.25192123,0.27249586,0.05840832,-0.25750277,-0.09944429,0.00525790,0.03281014,-0.09852335,-0.20359739,-0.15213127,0.06551419,-0.01191237,0.03789574,-0.25636679,0.16353649,-0.07878491,0.18696194,-0.25257865,0.43266614,-0.28792220,-0.49098626,0.16780311,-0.14239571,0.42664595,-0.10879418,0.17674714,-0.26597885,0.30371021,0.24268202,-0.10986139,-0.13432164,-0.00725863,-0.33804532,0.42504434,0.23747046,0.06451954,-0.06899630,-0.23050716,0.46448080,0.22597849,0.11639148,0.02940452,-0.28715403,-0.34705841,0.27199261,0.37599806,0.07415277,-0.04103932,-0.37658031,0.00678696,0.17101825,-0.36711993,-0.32429677,-0.46996767,-0.43980093,0.06614891,0.20487397,-0.20834843,-0.13286736,-0.05455701,0.18081705,0.23341080,0.43947661,0.34335389,0.15758768,0.17519651,-0.09408054,-0.41297178,0.44378698,-0.12996042,0.31221796,0.05931287,0.39858685,-0.47528371,0.21226115,0.17058849,0.40071439,-0.21360997,-0.37057234,-0.47568332,0.29379342,0.30160003,-0.34223818,0.46896764,0.32987577,-0.28452003,0.03253758,0.03294029,0.00664965,0.40032400,0.47910395,-0.31272811,0.13242409,0.41675929,-0.47101725,-0.21146811,0.09113530,-0.06547768,-0.12487822,0.03444172,0.30402818,-0.31291785,-0.40623730,0.20261832,-0.28819707,0.30599587,-0.12689639,-0.38754928,-0.40744480,0.00327400,-0.36260104,0.38634672,-0.19628253,-0.20694559,0.35326496,-0.36739455,0.00887250,-0.11332960,0.16593731,-0.48488829,-0.21401441,0.14383269,-0.29899962,0.41711611,0.05993341,-0.27027274,-0.29460575,-0.34922379,0.16389575,0.08035715,0.18522431,-0.03207607,0.26744190,0.27891301,-0.32953619,0.47917443,0.08505320,0.04394510,-0.40797603,0.17756905,-0.45348600,-0.27178796,0.06296307,-0.15007077,0.02192693,-0.08312348,-0.01733257,-0.46956235,0.30310007,-0.35208162,-0.45543423,-0.41183497,0.29128469,-0.25452235,-0.49502743,-0.14908589,-0.02516222,-0.28970197,0.00168692,-0.36126647,0.29064428,-0.31316776,0.10661509,0.05802380,0.46589672,0.27730415,0.03743718,0.05089992,-0.17914453,0.12892528,-0.27156839,-0.13212735,0.35776720,0.29159178,0.21739493,-0.12068693,-0.29150364,-0.30009977,-0.09067167,-0.48892586,-0.15243788,-0.04645809,-0.40126509,-0.36155367,0.19879683,-0.39625062,-0.01062207,-0.32637068,-0.18596996,0.49097789,-0.18771889,-0.39542827,-0.32213808,0.41896476,0.16274383,-0.35631855,0.19615161,-0.29974181,0.19519869,-0.48219251,0.32954211,0.42325775,-0.11523986,0.18714620,0.21532332,-0.39749707,-0.43375299,0.42304260,-0.19827779,-0.02517532,0.43352643,0.14892709,0.42837308,-0.46763448,0.28740516,0.12715827,-0.36389037,-0.22327902,0.30069356,-0.04992777,-0.23228953,-0.38698089,0.05475359,-0.05437445,-0.46771212,-0.28211242,0.09013944,0.22910308,-0.08163047,-0.21502444,0.24618179,-0.25217720,-0.29154104,-0.36909357,0.43413294,0.42243203,-0.26779960,0.49946521,0.34499355,0.03369747,-0.02565563,0.27857108,-0.31736807,-0.09729411,0.31093615,0.47001666,-0.47023050,0.44694019,-0.25326804,0.33058281,-0.10286145,0.01456827,0.44382370,0.45228027,0.46088965,0.47659234,-0.32957749,0.05103632,0.20519907,0.08840146,0.33540522,-0.04958749,0.33479070,-0.45767185,0.08012370,0.26823295,0.46454107,0.31221347,0.26770803,0.30953509,-0.15409134,-0.25795281,0.08810617,0.02851306,0.14466779,-0.10103711,-0.00149322,0.17464270,-0.15379854,0.24548030,0.00530494,0.24336733,-0.23979742,-0.05062209,0.19580369,-0.27892561,-0.07437191,0.36561741,0.27104101,-0.37043570,-0.04724748,0.10543737,0.07933470,-0.21279793,0.14772184,-0.34056268,-0.44457474,0.11225249,0.47165078,0.32313329,-0.07821242,-0.18244095,-0.43482216,-0.49007498,0.34617041,0.21009129,-0.09084493,-0.15507120,-0.11525332,0.25514060,-0.40980042,0.39001154,-0.00146990,-0.14972842,-0.16097854,-0.30615625,0.07073258,0.26400170,-0.44106703,-0.15853678,0.39335209,0.01152441,0.44687203,-0.02732530,0.29870747,0.09458571,0.13211202,0.35413273,-0.29316180,0.10376335,0.17727112,0.12863584,0.42137411,0.24254564,0.13864304,0.26753898,-0.04751893,-0.45249070,-0.38780610,0.33708243,0.30260357,-0.29771932,0.22683328,-0.19912228,0.05233308,-0.43433001,-0.00543112,-0.37697851,0.32957696,0.05340465,-0.03553463,0.22292018,-0.43508265,-0.08866516,-0.30440511,0.36362483,-0.49407945,0.32770691,0.21775756,-0.28723773,-0.06851424,-0.10494211,0.34141054,-0.14720765,-0.36252964,-0.02009580,-0.37975228,0.08991740,0.02742091,-0.26763233,-0.07316440,-0.17013071,-0.06551539,-0.34647197,0.13067267,0.48680696,-0.28082651,-0.37477591,-0.39017614,-0.45124955,0.17862874,0.07428924,0.27167063,0.24354609,0.48562408,0.46726552,0.10717092,0.49154463,0.29497243,-0.17507152,-0.29569662,-0.27355786,0.21995207,-0.45431209,0.07923410,0.35742217,0.02559197,0.19944835,-0.05272766,-0.44704793,0.43176258,0.37405340,-0.11720099,-0.13374762,-0.47241484,-0.48652832,-0.14694066,-0.25324135,-0.36130423,-0.03711680,-0.20449090,0.31732451,-0.46282756,-0.43282027,0.06087060,-0.47720348,-0.46555475,-0.33195847,-0.48565885,0.32941768,-0.00703052,-0.28135871,-0.44414017,-0.28708282,-0.23568417,0.13505292,-0.42970055,0.28990592,-0.16546245,0.01761658,0.34287648,-0.23369515,-0.10833002,-0.27432452,0.13255723,-0.08074486,-0.26085284,0.48561657,0.16601380,-0.12215707,-0.05150023,0.46152290,-0.30483256,-0.01432779,-0.47129737,0.25603804,0.00846873,-0.43685212,0.42407402,0.02279456,0.39265794,-0.08285696,0.24148445,0.44837499,0.12993560,-0.49406608,0.08377449,0.20059802,0.29585037,0.41817407,-0.28201433,0.13859278,-0.31563355,0.10960246,0.36426322,0.31692369,-0.47114240,-0.39658962,0.30254026,0.19487140,-0.01874669,-0.24895997,0.15640404,0.17645184,0.23678758,0.18521402,-0.06738072,-0.25454331,0.24858226,-0.14300208,0.26842290,0.14134471,0.27433049,0.01029735,0.09021602,-0.09545176,0.01590399,-0.32686260,-0.39606107,-0.18905257,-0.40918333,-0.17819204,0.44953111,-0.22481688,0.43141042,0.31379433,-0.40789319,0.46026803,0.41720963,0.39471498,0.15527699,-0.10139100,-0.35408314,-0.18809415,-0.42465740,0.38299031,0.49732117,0.00832790,-0.37100626,0.24691815,0.36644388,0.39846739,-0.11166931,0.13980132,-0.09324151,0.47583465,-0.45879768,0.42030913,-0.35231517,-0.35510107,-0.26880813,-0.26150670,-0.03329311,-0.31927702,0.01367642,-0.10188272,0.49454746,0.10596170,-0.14133850,0.41207058,0.00084023,-0.48597584,-0.18905666,0.14722495,-0.17373380,-0.11316502,0.03131928,-0.17461078,0.39709239,0.16113390,-0.42903666,0.25963385,0.05441261,-0.04612341,-0.10582579,0.45668999,-0.07299634,-0.06527181,0.37694692,0.07484857,0.07965854,-0.39187512,0.31334187,-0.45363950,-0.21114520,-0.17285277,-0.05533988,-0.21642603,0.43303886,0.30342500,-0.30386137,-0.06544913,0.31801776,0.00733825,-0.41798204,-0.35502408,0.39423332,0.11231862,-0.03263021,0.28632618,-0.23285802,0.03201367,0.03997840,0.31577202,0.48183698,0.43272831,0.27236908,-0.09083141,-0.13250944,0.14924855,0.48397476,0.44710663,0.25734882,0.29732127,0.49362417,-0.45362245,-0.37549143,-0.06151652,-0.16972880,-0.44197723,-0.25803234,0.02611351,-0.00762171,-0.44064439,-0.46803314,0.07179066,-0.29903202,0.42304674,-0.31930908,0.16466072,0.20459774,-0.05801530,-0.30855770,-0.25801364,-0.24274705,-0.32647359,-0.32528483,-0.47050602,0.08263669,0.04216593,0.17875996,0.06671931,-0.01048710,-0.06364835,-0.13588871,-0.01686558,-0.01730157,-0.01104394,0.42168095,0.31300392,0.04652922,-0.33762520,-0.16323745,-0.46422291,-0.28045035,-0.13159460,0.10865167,-0.07921550,-0.21111280,0.28387867,-0.42013181,0.48983482,-0.27534488,-0.22889529,-0.26822105,-0.01820899,-0.05538880,-0.09354085,0.01125977,-0.47269542,0.44880642,-0.31002425,0.09375335,-0.06212022,0.12620613,0.45835024,0.42165436,-0.39070085,-0.05380734,0.34120031,0.41924365,0.49069767,-0.49623602,-0.24080634,-0.46914100,-0.27411959,0.12583536,0.13384811,0.14069497,0.41039636,-0.08418358,0.21976238,0.40015255,0.14043959,0.49085556,-0.36816180,-0.37787092,-0.06458468,0.03829902,0.13314920,-0.03781921,-0.01348620,0.32337359,-0.44278937,0.42617934,-0.04939650,-0.48610669,0.34458344,0.05702430,-0.03984028,0.18903232,-0.01849927,-0.04415092,0.19488420,0.23769364,-0.02008264,0.41415562,-0.14074809,-0.38806350,0.05414336,-0.23042732,0.02773536,-0.22610941,-0.33035942,-0.33197908,-0.23534582,-0.19858719,-0.21018146,0.19937618,0.33923706,0.42376433,-0.33598642,-0.17114000,0.24831798,-0.28196149,-0.24934833,-0.30336177,-0.26544383,-0.39972995,0.25867945,0.19827610,0.28941778,-0.26438961,-0.35327982,-0.02206707,0.46983927,0.12559280,-0.10826423,-0.17096093,0.23749302,0.44586453,0.09855826,-0.23495138,-0.28040410,0.26796783,-0.06740083,-0.01628939,-0.43044357,0.22391668,-0.31380311,0.41204617,0.14788609,-0.15378738,-0.26389817,-0.10476326,0.06810203,-0.00846648,0.09543811,0.30480783,0.09081729,-0.15075792,-0.00387542,-0.12534366,0.08230088,0.14225089,0.35235678,0.05211624,-0.23219076,-0.25590284,0.38113962,-0.49480321,-0.31019438,-0.02048847,-0.22990104,-0.09040361,-0.25158523,0.20483109,0.39610772,-0.17998179,-0.07253027,-0.42177684,-0.27223995,-0.42403507,-0.07246938,-0.03316386,-0.02646728,0.49743593,0.45748642,-0.43531072,0.29605770,0.04339211,-0.08836551,-0.20844403,0.41784585,0.49392136,0.43378981,0.27020263,0.04601440,-0.29847260,-0.48585993,-0.07281974,-0.29268928,-0.29459788,0.40876640,-0.02079237,0.11593509,-0.34325694,-0.31846376,0.00801721,-0.02668783,0.10957861,0.08767547,0.20275735,0.18721367,-0.48274253,-0.33115118,-0.34346424,-0.49093564,-0.37794466,-0.28091304,0.30443614,0.16521730,0.13068967,-0.40401491,0.08306315,0.12460319,-0.47027466,-0.14670598,-0.32874698,-0.26705917,-0.12985849,0.10078358,-0.05875389,0.07442477,0.00654381,0.41628355,-0.31386885,0.16022709,-0.40248591,0.19487518,-0.36508538,0.20882746,-0.21554916,0.33616883,-0.10811061,-0.20337816,-0.49859628,0.04661646,-0.19514462,-0.37692064,0.26550246,-0.39080075,0.28829660,-0.10380842,-0.29483047,-0.12810241,-0.47746267,-0.26212649,0.22865793,-0.30422979,-0.02988686,-0.40469758,0.29153481,0.40531481,0.16421551,-0.20551015,0.32133506,0.35142917,0.45649237,0.42050760,0.04708837,-0.41100167,0.12462274,0.32621875,0.42175073,-0.48542106,-0.37819816,0.42250665,0.06091634,-0.07347458,-0.45441805,-0.17356614,0.03592943,0.33536361,0.22566044,0.24512018,-0.28940200,0.24848070,0.48000026,0.43296346,0.43687449,-0.05744235,-0.47777625,0.22484043,-0.15157905,0.18829282,-0.47875671,-0.32963483,0.03867078,0.47413170,-0.41449171,-0.41938156,-0.44044782,0.20821607,0.40569771,0.48055245,0.22258322,-0.47254523,0.40304667,-0.21644639,-0.04536147,0.45112674,0.11394128,0.49496382,0.28801698,-0.16253290,0.23441874,0.49041122,-0.42216584,0.20684014,0.41780727,-0.48822842,-0.34944929,0.44213619,0.23767050,-0.00219427,0.12776595,0.25456366,0.16351329,-0.33779300,0.22573172,0.24717690,-0.25831407,0.28463892,-0.04475612,-0.35261637,0.26521124,-0.32194293,-0.32391578,0.17126174,-0.03409799,0.13430148,0.12245184,-0.42390751,0.12227961,-0.09775114,-0.09443254,-0.15029640,-0.11229946,-0.01911905,-0.44212625,-0.19264307,-0.00713407,-0.29368682,-0.25409113,-0.27347636,0.20046447,0.37059535,0.47885948,-0.13757344,-0.46801651,0.20415479,-0.39044953,-0.22633058,-0.01113447,0.06514388,-0.07756596,-0.24313868,0.24692930,0.10104919,0.42770131,-0.29123251,-0.27139077,0.04188808,-0.22263762,0.34446269,0.43934086,0.18024476,-0.30571071,-0.17225376,-0.33938202,-0.25039174,0.13156871,0.14980055,-0.04722837,0.37543929,0.37490950,-0.34789470,0.24540441,0.35342516,0.01450533,0.27737518,0.05763153,0.12436298,-0.44790779,-0.45111777,-0.30745098,-0.02314696,-0.19450216,0.43628109,-0.42810760,-0.27446681,-0.36227356,-0.20593012,0.26219859,-0.08878812,-0.36305498,0.20157991,-0.40905881,-0.17072965,-0.47317198,-0.25124701,0.07676056,0.15685579,0.39755783,-0.47139894,0.03171965,0.27218433,-0.31932337,-0.22289574,0.12560959,0.19527837,-0.44498492,-0.31520799,-0.17849188,-0.39124383,-0.26672092,0.01145880,0.08073684,0.03230496,-0.05881432,0.14598469,0.25185049,0.07457290,0.43832221,0.01470365,0.48606145,-0.42530871,-0.28498524,-0.42450549,-0.09727179,-0.25940095,-0.17653282,0.47884516,0.39716930,-0.27908577,-0.49257343,-0.07113066,0.49309855,-0.31185417,0.20614784,0.11927077,0.38419609,0.26159949,0.30323883,-0.29617993,0.36741811,-0.46720601,0.21128133,-0.05672110,0.06042109,-0.35074180,-0.41127492,-0.18624223,0.22519099,-0.47237291,0.32824312,0.21082095,-0.39821170,-0.45731093,0.28591833,0.00430816,-0.21678992,-0.39064936,-0.01685216,-0.31963316,-0.16973512,-0.00941967,0.10925334,-0.17666801,0.17847881,-0.18501282,0.44197617,0.06192004,-0.42441871,0.24388715,0.26422043,0.44121911,0.27470056,-0.02531052,-0.11507491,-0.16351773,0.12509491,-0.02556504,0.15074880,-0.14954693,0.00196823,-0.02114618,-0.43884230,0.10372995,0.02151136,0.34707121,-0.39196188,0.30472145,0.45642185,0.09118511,0.48506734,-0.21338903,-0.41842397,0.09400709,0.10965471,0.25983259,0.40883127,0.05144519,-0.17831079,0.48442971,-0.20452447,-0.41347235,0.42653392,-0.42865477,0.06189152,-0.18793125,-0.09166794,-0.31275055,0.28652385,-0.44095751,0.03766606,-0.21150825,0.03789288,0.09882383,0.39222170,-0.44059575,-0.05410495,-0.49974163,0.36410873,-0.09771873,0.09133535,0.34902379,0.18879595,0.17293353,-0.05678894,-0.20121031,-0.06659787,-0.14714078,0.35100825,0.25588556,-0.16186797,-0.35282131,0.34288915,-0.23490358,-0.28121367,-0.09508587,0.07718238,0.12711855,0.09216388,-0.13629369,0.18616115,-0.37017004,0.15219806,-0.27594597,0.22865380,0.04441976,-0.21654172,-0.32546493,0.04463968,-0.35246582,0.07682968,-0.36389652,0.49678085,-0.23417449,0.30926777,-0.05973005,0.06488457,-0.25706846,0.29335653,-0.08393454,0.49899100,-0.36833140,0.06336480,0.34195165,-0.10321442,0.28215117,-0.25313421,0.47396796,-0.09073028,0.33902967,-0.16232573,-0.40456913,0.46885964,0.48987233,-0.18051509,0.19751344,0.03429209,0.10294319,0.37206228,-0.42102833,0.25052717,-0.05107197,-0.28490297,0.24732513,0.21479741,-0.47557148,-0.31233845,-0.22027941,-0.23259588,0.48107065,0.19581925,-0.23357546,-0.38725049,-0.24081595,-0.39162380,0.00953509,-0.45866478,-0.14475801,-0.01649694,-0.04939506,-0.30572834,0.32117733,0.04603581,-0.33686870,0.31104966,0.36552072,0.36064474,-0.15465824,-0.03153383,0.23272104,-0.07568657,-0.28100264,-0.31832829,0.13945653,0.46632860,0.39644085,0.16384268,-0.34602225,-0.32384695,0.43124309,-0.36495160,0.37197230,-0.30233237,-0.25220209,-0.36884364,-0.19395617,0.25733301,-0.32750842,0.16128582,-0.25916394,0.12309652,0.35555748,-0.43798661,-0.33086767,-0.48131122,0.37306306,-0.46532101,0.37941030,-0.28154496,0.00315731,0.11217263,0.14289353,0.22261846,0.29451098,-0.21704197,0.18902513,0.19031807,0.44608947,0.34245210,0.36626165,0.37721076,0.47745038,0.23823341,-0.42512161,-0.27475171,0.36938977,-0.11907778,0.48258130,-0.45811866,-0.45779196,-0.27658274,0.16498525,0.39776448,-0.21456523,0.33416323,0.41655386,-0.34139601,0.36893634,0.29607684,-0.12250706,-0.12704636,-0.09092720,-0.47913163,-0.40492415,-0.29796273,-0.19797776,0.28249053,0.39161245,-0.25228676,0.12481440,0.25787313,-0.37507600,0.10226478,-0.00389346,-0.30019760,0.32751307,-0.13450057,0.08072622,0.31009346,-0.09260203,0.12289219,-0.46652904,-0.42754697,0.02079180,-0.18110371,0.40645586,-0.06254757,-0.02155020,0.27692655,-0.26567781,0.35521400,-0.35210871,0.14143228,0.37416061,-0.25896987,0.34229753,-0.32430333,-0.47649025,0.23388464,-0.07658938,0.14832415,-0.00824223,0.04833462,-0.24941044,0.48787978,0.24814439,-0.42189672,-0.14663415,-0.17119792,0.38822210,0.26094124,0.45210171,0.42187807,0.33356202,-0.02633182,-0.25746789,0.24182280,0.41122938,0.21920596,0.01543695,-0.35665061,0.07282585,0.16187937,0.28330666,-0.05375455,0.40296877,0.12562858,0.12207100,0.42650463,-0.14048887,-0.45451838,0.07484770,0.35131208,0.09387348,0.32553773,0.33924628,-0.15799517,0.40376571,-0.30695388,0.17150967,0.29249970,0.45459453,0.12468533,0.21586403,0.28789936,-0.40388849,0.45467589,0.02646433,-0.49404297,0.17319047,-0.45879817,-0.35261381,-0.25550519,0.20256661,0.43071185,0.19100337,0.10556622,0.05631215,-0.18700524,0.03210248,0.41588649,-0.14139287,-0.39297944,0.26717363,0.45243649,0.43268371,0.10671463,-0.20505320,0.33680600,0.30019999,0.46683925,0.12846032,0.25153347,0.08688392,-0.15967357,0.03861835,0.18438974,-0.20325594,-0.43485310,0.18781749,0.46720413,-0.39514673,0.33495460,-0.28816126,0.30740769,0.26556898,0.40272812,-0.08699306,-0.17806976,-0.28422855,0.44503963,-0.26232999,0.07423516,-0.44802688,-0.49485547,0.02722326,0.48532040,0.11233872,0.32109094,0.31867845,-0.09259869,0.28378944,-0.05386717,-0.33820958,-0.12451956,0.29061237,0.20129951,-0.44295479,-0.41616383,0.26413900,0.24408466,-0.44910477,0.36896858,0.07893456,-0.23731327,0.17647048,-0.15546758,-0.33457811,-0.41072637,0.16627403,-0.11893636,-0.46556735,0.40461296,0.45698089,-0.41176942,0.41004512,-0.01876040,-0.43217621,0.01639748,-0.19971079,0.38925977,0.43026798,-0.40902040,-0.15943526,-0.40709852,-0.03649599,-0.37276723,0.29133515,0.01922762,-0.28933744,0.05544355,-0.23672444,-0.23844423,-0.07549492,0.34225760,0.02421691,-0.39932804,-0.31343122,0.18954888,-0.30950991,0.35448967,-0.42635694,-0.27274310,0.25839364,-0.47554540,-0.19295145,0.16224989,0.00615841,-0.11909990,-0.31277737,0.31380999,-0.22564079,-0.38302936,0.40130022,0.11068593,-0.29300370,-0.13660548,0.23750672,0.49828435,0.38260335,0.44816828,0.05371399,-0.35416336,-0.29025974,0.47822377,0.48801360,0.23414457,-0.41998960,-0.32288172,-0.07275602,-0.22746425,-0.47126415,-0.00838764,-0.01061081,0.28181295,0.01991199,0.30554192,-0.04662075,-0.46797934,-0.31204184,0.13823370,0.34173974,-0.04180857,0.25278617,0.24192231,-0.43135337,0.45975217,-0.39470143,0.30615316,0.45800809,0.48787584,0.25434025,0.01185658,-0.36610590,0.46470630,-0.00826219,-0.37505029,0.20197776,0.07211263,-0.20359261,-0.38200887,0.33402504,-0.17713406,0.11692022,-0.16589272,-0.38745000,-0.35978481,-0.36197057,0.06199272,-0.33256021,-0.17793426,-0.30199223,-0.49174233,0.28004198,0.45075968,0.25017460,0.34868916,0.41050061,0.35549132,0.15486119,0.36877630,0.34396077,-0.08937253,-0.11699936,0.48081953,-0.12301753,0.37272461,-0.40267312,-0.43260656,-0.06357299,-0.10375716,-0.30446494,-0.21995238,0.22330513,0.31216935,0.11065085,0.33121216,0.44712316,0.24464161,-0.10916074,-0.38640972,-0.43365512,0.08875696,-0.37815472,0.34638685,0.03950803,0.37204019,0.19517889,-0.04948402,0.22847493,-0.14813126,-0.17834250,0.07435750,0.26191247,0.19982807,0.04514490,-0.37139927,0.06762348,0.14913415,-0.29356529,-0.48902734,-0.45427644,-0.10063939,-0.21265843,0.26412588,-0.29381689,0.39376713,0.09300903,-0.34767497,0.13798098,0.48374628,-0.23408431,0.20432586,0.07249816,-0.11220781,0.05101128,-0.38722932,-0.23878234,-0.25187291,0.06526588,0.49023240,0.09738276,0.37975695,0.05459913,-0.14855985,0.07898168,-0.39158962,-0.01078907,-0.34923543,0.25610797,0.19336907,-0.34120958,0.29672250,-0.41257441,-0.05795255,0.05901750,-0.20718199,-0.16455755,-0.34803740,-0.05484530,0.47342337,-0.36428605,0.21117048,0.17818248,0.20927744,-0.39940564,-0.26882869,0.32330988,-0.13910755,-0.02541850,-0.11929846,-0.15738540,-0.43248724,-0.23730713,0.40560960,-0.07362113,0.34474602,-0.48675353,0.41461709,0.49272368,0.26391010,0.10253668,-0.35215243,0.05935474,0.18954544,0.08970608,-0.38163013,0.48238011,0.42515052,-0.22964847,-0.07220800,0.39923627,-0.09283622,-0.35948866,0.07915456,-0.38270488,-0.26064696,0.30453778,0.43293291,0.09296125,-0.22295047,-0.18333413,0.44376850,-0.14834143,0.08299903,0.34899214,0.27595825,-0.07695930,0.35635580,0.18547975,-0.08693753,0.11950908,-0.21199117,0.06095459,-0.32105486,0.47755994,-0.34933520,-0.20262264,0.46037710,-0.42335274,0.06873117,-0.11054902,0.47715723,0.47649282,0.02725199,0.05010993,-0.41371280,0.26095106,-0.14561463,-0.47658020,-0.13768555,0.13788112,-0.15755149,-0.19611928,0.48461716,0.41927839,-0.35235919,0.25720927,-0.15910588,-0.49639695,-0.05719906,0.25409072,0.12318861,0.23080977,-0.18494933,0.30229591,0.20910593,-0.03320797,-0.39915148,0.17018010,0.04414417,0.16918586,-0.44349760,0.01544369,0.13966230,0.08079320,-0.43306560,0.23062899,-0.15153431,-0.07500200,0.25342952,0.20624655,-0.44281702,-0.40935275,-0.49333577,-0.45985374,-0.49077816,-0.34609095,0.29735275,-0.14982949,-0.34246933,-0.25984632,-0.39572002,0.28090320,0.47175151,-0.07936639,0.08451262,0.18123558,0.38707861,0.18350969,-0.15177157,-0.07365416,-0.15053601,-0.09592151,0.44380463,0.49230017,0.48763453,-0.48899306,0.22026333,-0.16861652,-0.06848283,-0.02962439,-0.46418248,-0.01224393,0.06042885,-0.45793635,0.02782419,0.06962794,-0.30402313,-0.17482506,0.41983410,-0.14632167,0.06602096,-0.47456608,-0.36404807,0.03811504,-0.05483140,0.21827995,-0.28354652,-0.17112276,-0.09957199,0.06437599,0.25600354,0.24971070,0.46770822,0.19829488,0.23964796,0.45252114,0.20669663,-0.04189520,-0.21723323,-0.36254209,0.42791396,-0.18172173,0.12513427,-0.01164718,-0.13965200,-0.34700742,-0.44200882,0.05647872,-0.02137570,0.47875512,0.41114385,-0.45496958,-0.49710814,-0.45536038,0.08017559,-0.05447450,0.26178199,0.29559129,0.27307246,-0.33982784,-0.14160529,0.02874340,0.40959832,-0.17431361,-0.27393885,0.14839257,-0.22259517,0.43217203,-0.39386824,0.06002716,-0.43036461,-0.46592546,0.37830751,0.19480381,0.02242781,-0.26124949,0.34809025,0.08090609,0.29557789,-0.17335385,0.05872637,0.20516137,-0.12993237,0.06067438,0.24941548,0.44904020,-0.49584040,0.00891099,0.24404841,0.27880624,0.17066023,-0.39647453,-0.19258748,0.07994701,-0.07124160,0.03314108,-0.27190355,0.20608574,-0.03470067,-0.16576922,-0.23388795,0.03493276,-0.13169468,-0.35550987,-0.27008038,0.39093473,-0.11681967,-0.42240247,-0.02872713,-0.32170029,-0.09617866,-0.47028875,0.38304482,0.27279313,0.08884401,0.13153249,0.22212588,0.09468672,-0.35808831,-0.03303227,-0.12654564,0.31234398,0.07024111,0.18072546,-0.10788295,0.49893109,-0.28616789,0.12020966,0.20501683,0.17913144,0.45444044,0.47113281,-0.28590167,-0.17723461,-0.38444025,-0.05621258,-0.28658906,-0.00148149,0.02119623,0.18443586,0.17638671,0.42434483,0.21353596,0.05936446,0.19762174,-0.19671431,-0.30863686,-0.08000439,0.39787728,-0.16696156,0.38686315,-0.22870699,-0.35467756,-0.04292961,0.45199462,0.03743625,-0.04399852,-0.33417327,-0.34235409,-0.33898153,0.34495865,-0.38791504,-0.36785772,-0.44098533,-0.06516120,-0.25230609,0.00271213,0.14813813,0.24605263,-0.47617808,-0.16730756,-0.07711290,0.44893352,-0.45310190,0.48255519,0.14676754,-0.14982499,-0.32616854,-0.43323190,-0.25193366,0.00687100,0.45362805,0.01935471,0.15219242,-0.08930155,-0.02865067,-0.31037133,0.36669993,0.13717607,-0.15272572,-0.47228211,-0.01786768,-0.04064538,-0.34014090,0.04115196,0.39418486,-0.09247960,-0.45609283,0.04247033,-0.34612631,-0.43187233,0.37542802,0.07687657,-0.48287604,0.42231046,0.05942334,0.16389946,-0.22751066,0.23325581,0.23066755,0.02055568,-0.25987319,0.18429561,-0.46008961,0.39231923,-0.40500595,0.01125972,-0.41805210,0.46169398,-0.35156421,-0.07077753,0.48941221,0.13057004,0.38858339,-0.35072238,-0.32827334,0.28277642,0.05683864,-0.28429355,-0.17472001,0.21071878,-0.21615684,-0.29928668,-0.21240305,-0.19903258,-0.37697622,0.34702029,0.46486688,-0.10448689,0.08027610,0.19553443,0.41606879,0.32040291,-0.12016996,0.45597918,0.21272214,-0.02517591,-0.03276109,0.29467004,-0.06348193,0.11567438,-0.27610943,-0.07406972,-0.25375726,-0.38753030,0.07520371,-0.08203118,0.39525021,-0.36795452,0.13367785,-0.27946769,0.34276532,0.41752100,-0.07875437,-0.36963773,-0.28151157,0.04426941,0.47738256,-0.31664469,0.43978252,0.05765866,0.37888974,0.35585131,-0.12193843,-0.24128022,0.31183049,-0.40921628,0.23354387,-0.22093332,0.38544512,-0.32994116,0.39473941,-0.39068424,0.09595576,-0.35911324,-0.27832451,-0.32894102,0.05880556,-0.38300601,-0.19684633,-0.30740497,-0.16239817,-0.35398801,-0.38984093,0.25885245,-0.22362574,-0.17135250,-0.19687814,-0.24624318,0.01200281,-0.25709563,0.31141548,-0.10910783,-0.40125486,-0.31061746,0.14945968,0.41041805,-0.21991084,-0.11700651,-0.31046345,-0.33442319,0.05303554,-0.41590004,-0.22534798,-0.35123627,-0.27507003,-0.00342884,-0.17978992,0.28428402,0.11395347,0.12365715,0.47698677,0.45156431,0.26966914,-0.41285416,0.21041676,-0.45395660,-0.08420666,-0.48644564,-0.20017390,0.42777850,-0.24363122,-0.38895773,-0.18147715,-0.14505540,-0.19976055,0.46755758,-0.23525706,0.07948229,-0.15040181,-0.04673051,0.24432957,0.40272036,0.03827660,-0.47930249,-0.44661421,0.26511086,0.01865108,-0.12570131,0.04957724,-0.36743067,0.49795334,0.02656400,-0.41586637,0.26762248,0.11371395,0.29463360,0.31374430,-0.47057755,0.30789849,-0.38667796,0.45710355,-0.43594084,-0.27636647,-0.22568958,-0.08275185,0.02206329,-0.25983950,0.18085259,-0.39833174,0.09137082,-0.36268285,0.35062500,-0.00053426,0.18071782,0.37491115,0.05447107,-0.05395320,-0.10669175,0.42860350,0.49560173,0.02590621,0.42655683,0.02224234,0.11020759,0.19429052,-0.36428966,-0.09568156,0.00755681,-0.33498733,-0.28794395,0.12009866,-0.37956601,-0.22603932,0.34208639,-0.10535955,0.19319475,-0.13214847,0.13941576,-0.12078021,-0.02489735,-0.26271100,0.02306354,-0.16913362,0.23932887,-0.29574586,-0.29462123,-0.20661565,0.15023368,0.09875392,-0.27797364,0.14589345,-0.37517053,-0.35122615,-0.33220402,0.23440106,0.34248262,-0.19639678,-0.36110190,-0.15024735,-0.03228031,-0.14977455,0.47018435,0.09045849,0.12771856,0.31679115,0.48946929,-0.17504104,-0.31213347,0.13210516,0.20793347,0.16692721,0.37245879,-0.26793437,0.49765506,0.11134021,-0.06379771,-0.29690787,0.40480395,-0.41350520,0.30202156,-0.37301171,0.23216575,0.42624019,-0.22455894,0.40069498,0.16155031,-0.38166224,-0.29569363,0.30043906,-0.03153806,0.17256637,-0.34821993,-0.05938359,-0.23437270,0.28191853,-0.24185073,-0.24524352,-0.39324323,-0.05250995,0.38918883,0.31630975,-0.38509375,0.26174868,-0.45165809,-0.38738463,-0.12686962,-0.01537921,-0.18415489,-0.22199128,0.07094608,-0.38228231,-0.09464839,-0.19574585,-0.45496752,0.18133051,-0.29534838,0.20572587,0.29755853,-0.09430362,0.00404839,-0.23340119,-0.41876479,0.15827808,0.20731159,-0.15475482,-0.06148333,0.46574998,0.10191404,0.04758123,-0.08540675,-0.00815362,-0.13601262,0.02953599,-0.24639595,-0.08764059,0.14226101,0.12694896,0.39721226,0.45865113,0.40611933,-0.03057048,-0.42295545,-0.18877556,0.27162887,-0.38191157,0.48667436,0.47116423,0.32219925,0.28720594,-0.11763200,-0.16937627,-0.44522742,-0.03761977,0.48772213,0.26250053,0.30947744,-0.07149595,0.22991333,-0.08784975,0.47620183,-0.35545904,0.40401212,-0.15978468,0.17420668,-0.34212732,0.25317440,-0.18238464,0.28634187,0.15176566,-0.22347957,0.19001048,-0.38403300,-0.15389279,0.49435040,0.38422496,-0.03339964,0.48739259,0.36357312,-0.20536131,0.27613103,-0.25508486,0.12338652,0.33098657,0.20848626,0.11278021,0.09473269,0.01845926,-0.45863938,-0.17531165,0.43062857,-0.48239916,-0.03055505,0.33496892,-0.14130710,-0.35490002,0.49450884,-0.38709275,-0.03812235,0.27670380,0.25708448,0.22948207,-0.03941423,0.37276303,-0.41865004,-0.03532546,0.26737124,0.05367329,-0.04777907,0.12776377,0.34502235,-0.27231155,0.37334585,-0.03028465,-0.44044113,0.08218402,-0.41747867,0.15431801,-0.39935843,-0.37608912,0.47926890,-0.46830873,-0.35757568,-0.05003727,0.36822689,0.00154277,0.09314272,0.35788678,0.10669225,-0.45330110,0.12976076,-0.13416364,0.28475512,-0.39696446,-0.25047181,0.36962273,0.06402777,-0.48914638,-0.08087889,-0.48447207,0.13937163,-0.23466724,-0.25595362,0.01305454,0.23506638,-0.19638167,-0.40476144,0.31761686,0.45813419,-0.30363877,0.44244001,0.43853080,-0.27079693,-0.41535290,-0.11324010,-0.40638619,0.08067150,0.47332822,0.44728917,-0.31042188,-0.47004042,0.09029142,0.06427002,0.31377401,0.18554230,0.30633179,0.17970787,-0.25072252,0.31789241,-0.40008524,-0.23443439,-0.04243109,-0.13474312,0.00961315,0.47062345,-0.39962894,0.31342147,-0.43377045,0.41863465,0.27241140,-0.23654734,0.36095225,0.20966974,-0.01046621,0.44105597,-0.40967536,0.07888593,0.02416380,-0.42638207,0.03742015,0.21859545,-0.40185064,-0.38183890,-0.22362150,0.40998783,0.30404993,-0.41669296,0.09045483,-0.44613547,0.40146215,0.19036173,-0.18058342,-0.14096918,-0.44435335,0.32926632,-0.17013567,-0.34386890,0.14273984,-0.10376946,-0.42546649,-0.08651140,0.15618857,0.43088528,-0.38162879,-0.35602247,0.37694888,-0.28163292,0.23126542,-0.09886802,-0.21551600,-0.23981682,-0.38452742,-0.11762204,-0.12076465,-0.10764393,-0.20714531,-0.31630666,-0.02397350,0.38333678,-0.26245720,-0.12250331,0.07373704,0.05699374,0.23623403,0.12889489,-0.11460458,-0.43480471,0.28374214,-0.47424703,-0.04169392,0.35583358,-0.06106807,-0.38143749,0.29445772,0.06543376,-0.23358483,0.16768194,0.27709535,0.49206609,-0.43285775,-0.43766316,-0.24641249,-0.31666970,-0.05458511,0.13350822,0.07632023,0.23840844,0.31719985,-0.44763385,0.12176653,-0.44545989,-0.07086723,-0.30541956,0.11024351,-0.33582605,0.32157852,0.49349936,-0.27146818,0.10694300,-0.47598574,0.19422049,-0.03004806,-0.03220926,0.31276915,-0.23964517,-0.47042971,-0.42278397,0.42859300,0.30829752,-0.42908875,0.49684005,0.37171559,-0.17460461,-0.31912325,-0.18270981,0.45890361,0.25719317,-0.44432201,0.27564562,0.30862412,0.17618738,0.32894632,-0.26376576,0.36871831,-0.06204249,-0.09794297,0.19518243,-0.06118491,0.13757676,-0.19298135,-0.03508610,-0.16863042,0.27559254,0.43249785,-0.35521405,-0.46234327,0.46415865,-0.27643640,0.46745635,0.27351266,-0.20472265,0.46478311,0.14529959,0.12067274,-0.35435385,0.46252279,0.07908263,0.40185939,-0.48328100,-0.14669224,0.20869916,0.19134089,-0.31777595,0.44857390,0.06624088,0.12744145,-0.14404376,-0.23591597,-0.43261653,0.49460578,0.07287357,0.03458563,-0.17233847,-0.14963463,-0.03107987,-0.02645277,-0.11116870,-0.06613049,0.19782107,-0.14336047,-0.29253468,0.49310818,-0.17860496,0.35266627,0.11335187,-0.03392186,0.31375279,-0.30949822,-0.13431316,0.32895327,0.04468976,-0.42103569,0.02698223,0.23354535,-0.46808420,-0.40454595,-0.13715902,-0.10925278,-0.13634229,-0.06649626,-0.11283957,0.43807150,0.46917888,0.21543877,-0.21114719,-0.06129736,-0.31044165,0.17794911,0.37267724,0.38741711,-0.46541958,-0.41992672,0.38022156,-0.14477434,0.43158140,-0.00812633,0.31938930,0.24414914,0.18347776,-0.31033822,0.07945254,-0.26537032,-0.22664417,-0.39072622,0.47129779,-0.19073794,-0.29080752,-0.16312625,0.20120408,0.07366588,0.27086952,-0.41149528,0.01173459,0.24029133,0.30419761,0.30067572,-0.32096424,0.49379351,-0.02137534,-0.44832336,0.38109340,0.01283649,-0.36872634,0.26055200,0.36703862,-0.43844847,-0.24693745,0.19013652,0.31161824,0.44262488,0.38443089,-0.10580406,-0.31966621,-0.33895251,0.00665250,-0.34701063,-0.02941968,0.21568906,-0.01036054,-0.32863021,-0.21096881,-0.23957866,-0.24012086,0.30076593,-0.49928313,-0.43591361,0.10144165,-0.32027024,-0.44217344,-0.41996908,-0.26832631,0.43949693,0.09327581,-0.13708001,0.20082472,-0.03697265,-0.07127879,0.45753062,-0.34478059,-0.25909866,0.40081841,-0.45921903,0.13669331,-0.41865722,-0.29884193,-0.35765062,-0.26630148,0.17114374,0.35774284,0.22322038,0.34245982,-0.35323542,0.48364172,-0.39766104,0.44753051,0.48435859,-0.33355267,0.04917352,-0.33544461,-0.27500889,0.12974870,-0.10350908,-0.33534756,-0.27639861,0.26020970,0.36551475,0.18558889,-0.31264155,0.32157846,0.34006538,-0.07168095,0.22187580,0.38001053,-0.43583723,0.30265640,-0.41926891,-0.29361519,-0.46370473,0.25183805,-0.43587927,0.25951564,0.09429786,-0.28911469,0.24316741,0.19673235,-0.34145410,0.22778318,0.36344713,0.20777967,0.39192363,-0.41235514,-0.16330317,-0.21246862,-0.24891352,0.05897768,-0.45374901,-0.38487125,-0.25633755,-0.26683004,0.43612371,-0.41675905,0.16118284,0.15774102,0.46303665,0.22530766,-0.03961376,-0.45624216,0.43169030,-0.00331850,0.29559588,0.49581103,-0.24380285,-0.11010625,-0.29329595,0.49938990,-0.41340335,-0.13485024,0.22686077,0.44958683,-0.42749068,0.11852113,-0.46301220,-0.09106100,0.40570203,-0.21229321,0.46765344,0.45183852,-0.09727003,-0.28875952,-0.31511185,-0.16121519,-0.20554442,0.34606421,0.49652583,-0.24250777,0.07137187,-0.04308793,-0.19874993,0.00306217,0.45359357,-0.40315405,-0.00112680,-0.29020928,-0.01326030,0.20556955,-0.29085477,0.07327026,-0.42931828,0.43601571,0.02286299,-0.35681814,0.05451336,0.05982314,0.05210862,-0.03978494,0.34754646,0.01978059,-0.08798116,-0.24974485,0.23102107,0.09690700,0.08903996,-0.47452335,-0.05702879,0.08556579,-0.21703112,-0.48565692,-0.45752214,0.08421895,0.01740525,0.49607142,0.18106490,-0.48372155,-0.29413786,-0.33219371,0.22185850,-0.08499263,0.24107696,0.29253900,-0.14895593,-0.23604387,0.43571662,0.40553691,0.32376099,-0.01217980,-0.13424850,0.17130745,-0.49239921,0.27777034,0.42156261,0.23862186,-0.12532266,0.01060257,0.26409852,0.31764855,-0.40383164,-0.45293260,0.33199163,-0.36135378,0.13128635,-0.15060312,-0.36528236,-0.18763601,-0.13430794,-0.15945289,-0.01987315,-0.41245085,0.25563130,-0.27866951,0.38015349,-0.39329235,-0.01474122,0.31580170,-0.48782897,-0.19106414,-0.19641495,-0.12210183,0.48023701,-0.18881438,-0.34433148,0.40179962,-0.45019252,0.03034586,-0.08759781,0.31390599,-0.15200560,0.00857049,0.36098169,-0.31999115,0.14726545,-0.00767991,0.02942109,0.28192180,0.30460725,0.39509306,-0.37740879,-0.21508433,0.48272291,0.37826279,0.00614006,0.36269256,0.48474773,0.49117534,0.17839944,0.49685826,-0.19990433,0.48198408,-0.12524357,-0.21966732,-0.20683031,0.03042495,-0.31786770,-0.15702274,-0.43924138,0.09452505,-0.34307502,-0.09123286,-0.39686645,-0.48200704,0.08884918,0.25033623,0.01008401,-0.38186472,0.03232062,-0.18533389,-0.48724732,0.15420900,0.09892175,0.49542646,0.03262580,-0.39467082,0.35835695,0.01757454,-0.40334220,0.03680789,0.01444157,-0.10324652,0.01879196,0.38919800,0.17708924,0.31197951,-0.08039183,0.35926031,-0.34486284,-0.01939945,-0.04591328,-0.18780346,0.38947878,0.05709972,-0.17015133,-0.02227713,-0.19332111,0.33879341,0.09455811,0.33792624,-0.34689609,0.10824871,-0.00632223,0.25374366,0.10495701,-0.47287230,0.35953360,-0.03658866,0.04466138,0.45616577,-0.49977271,-0.44089705,-0.14703510,0.01912673,0.44844903,-0.46964455,-0.16858120,-0.13155780,0.38985116,-0.01350260,0.34875530,-0.15676413,0.29770177,0.23699991,0.39896397,-0.37426622,-0.28671091,-0.29485391,0.46576367,0.31060575,-0.45407655,-0.37850122,-0.07928346,0.04082934,0.37585083,-0.47430499,0.06773000,0.23526153,-0.01090189,-0.38760545,0.19158221,-0.01045432,-0.32814873,-0.45516035,-0.49116557,-0.37956236,-0.42509119,-0.16012728,-0.01202818,0.46363583,0.32491720,-0.16465147,-0.19463840,0.12105954,-0.42843461,-0.29524925,0.24928300,-0.21170189,-0.08696743,0.21754904,-0.39956293,-0.03993528,0.33948995,0.02102620,-0.49949245,0.21511333,0.04668285,0.06824270,-0.04951476,-0.46401586,0.18091943,-0.35797374,0.02543044,0.35245845,-0.31358960,0.03377810,0.47188461,-0.23986521,0.37222803,-0.04119901,-0.27714297,0.19658976,0.29427500,0.02946213,-0.17973194,0.36893525,0.23676803,-0.42858142,-0.34180070,-0.34959509,0.28914687,-0.24152837,0.11027062,0.12839859,0.27946997,0.11078118,-0.15644944,-0.17371635,-0.32082277,0.29398668,-0.13783867,0.35975868,0.43568802,0.38678235,0.21128536,-0.37869992,-0.07999768,0.18317104,-0.11848825,-0.20775102,-0.35759507,0.10566572,0.49080021,0.43889727,-0.36326580,-0.18789764,0.30813042,0.37394026,-0.11626925,0.46646570,-0.47552162,-0.32724692,-0.27506945,0.13474914,0.30118010,-0.49552316,-0.25436445,-0.35524976,-0.16937574,-0.07553031,0.43822397,0.19177999,-0.21645043,0.37377593,0.07922715,0.49544295,0.49515610,-0.50114411,0.17883034,-0.12196615,-0.20687042,0.32287993,0.48433370,-0.21591722,0.26195758,-0.37825550,0.09687011,0.07062058,0.49593372,0.48058265,0.03708653,-0.47958730,-0.34664556,0.26207215,0.15524196,0.45449433,0.26641291,0.40035459,-0.40136743,-0.40345834,-0.17513286,-0.46252938,0.28922324,0.10888585,0.41076202,-0.13224896,0.10482672,0.40805656,-0.13097703,-0.21515842,-0.21420709,0.16169695,-0.39191108,-0.22884365,0.44684265,0.37069898,-0.10686372,0.04371202,-0.05867810,-0.11092904,0.02430895,0.47848809,-0.09041472,0.17767157,0.24034662,-0.43573061,0.13175369,0.00693889,0.46564281,0.23146090,0.10359740,-0.21036440,0.26760148,-0.10773812,0.40004184,0.18135816,0.26232774,0.00513264,0.08828231,-0.36929193,0.29044307,0.37528034,0.29350487,0.39917497,-0.35337599,0.24034907,0.26987720,0.03976001,-0.21592352,-0.28873707,0.42890183,0.30835255,-0.31042288,-0.16191469,-0.01404631,0.43047012,-0.09624877,-0.38144914,-0.06390057,-0.13307767,0.34817152,-0.45926183,0.15993256,0.11933179,-0.06561430,0.05874216,-0.20133848,-0.30430246,-0.43586698,0.38811347,-0.17258067,0.35517518,0.26354389,-0.37907268,0.25435176,0.41016790,0.36129376,0.02430024,-0.05004138,-0.35467711,0.23537022,-0.12132917,0.45382488,0.42562598,0.21797895,-0.06031604,0.35362322,-0.38174192,0.05694376,-0.20703652,-0.00995910,-0.09145358,-0.16657240,-0.35275290,-0.47487211,0.26622149,0.20589243,-0.17530301,0.46276868,0.27049455,-0.28706406,-0.20981043,0.12566991,0.47647983,-0.08886412,-0.11992461,0.38666341,-0.22766887,0.40424580,-0.16347079,-0.08206980,0.14015017,0.21562401,-0.12944914,0.06292419,-0.06939903,0.31060898,-0.07914861,0.05392514,-0.12979142,0.21261529,-0.45912127,0.27582851,-0.45579484,-0.31217215,0.30151412,0.31094301,0.39400558,-0.37370405,0.27370146,0.16450063,-0.16076813,-0.43610620,-0.20978774,-0.18430585,-0.02508846,0.17007135,-0.29775326,0.24746877,0.07450422,0.03815532,-0.33667338,-0.28808171,-0.24750639,0.03615440,0.27951448,0.18775811,-0.15122685,-0.30068455,-0.26079829,0.21644311,0.41033542,-0.22020426,-0.00743858,0.45471462,-0.03221929,-0.20586802,0.26563476,-0.13821313,-0.07957233,0.03932950,-0.47373308,0.25951268,0.10293308,-0.18383252,-0.42494781,-0.42207439,0.48599282,-0.22376519,0.32366488,0.05884996,0.31523809,0.49061297,0.27575110,-0.42834236,0.02798803,0.05450991,0.25776265,0.37507171,0.25272784,0.49663655,0.09151001,0.16302312,-0.22342760,-0.41588076,0.11771559,0.24435319,-0.12174937,-0.11664264,-0.39395297,0.29835326,0.42221327,-0.36812415,0.05777160,0.02520086,-0.05234662,0.13220991,0.10232079,-0.06624203,0.41058962,-0.07020307,0.49703010,0.22852959,-0.07913209,0.27219471,0.29929757,0.44799115,-0.17407807,0.05657125,0.32280086,-0.42144268,0.05337391,-0.08560891,0.24157797,0.32994631,-0.00148920,-0.14066660,0.07419935,0.37638190,0.24204636,0.17965849,0.17450487,0.16430497,0.31142155,-0.26785321,-0.31033625,-0.23946270,0.36695320,0.29548145,0.19757771,0.27908166,-0.27461616,0.19419202,0.00734598,0.14580618,-0.03426988,-0.19398535,0.09358278,0.29165225,0.36273955,-0.08352901,0.37021852,-0.08388654,0.33086420,0.11184431,-0.25400044,-0.17087167,0.47057071,0.31959323,-0.29502793,0.21232083,-0.00083352,0.37985341,-0.12248362,-0.18743773,-0.38505551,0.07027773,0.07546549,0.48305604,-0.13402094,-0.22708468,0.26198485,0.09094123,0.46660851,-0.23121961,-0.26341569,-0.06761926,0.07489899,0.33022215,-0.27595914,-0.06236026,-0.25327884,-0.40564146,0.35387202,-0.42244594,0.20583322,-0.40071861,-0.09406958,0.17571397,0.41868025,0.11145825,-0.11050975,-0.08009785,-0.00583112,0.26979277,0.23484977,0.11030295,-0.15956829,-0.18987959,0.09281990,0.20600553,0.08274388,-0.14540808,-0.20320561,0.04938417,0.12342192,0.03344783,0.48177307,-0.30167205,-0.13630992,-0.29403835,0.13611349,0.11044688,-0.19995848,-0.01060699,0.18700238,-0.49513203,0.08807902,-0.40656686,0.18207882,0.00875249,0.20755256,-0.42572368,0.43096200,-0.29718556,0.34416809,0.16517963,0.31253203,-0.31556066,0.47538672,-0.09464463,0.39028606,0.05813179,0.25997976,-0.31285732,-0.39248033,-0.11659130,0.22059378,-0.41063537,0.08195259,-0.41551068,-0.20470843,-0.28246185,0.19395619,0.09417787,0.20647529,-0.11829855,0.10076029,-0.20341008,-0.02289460,-0.21557712,0.30664742,-0.31475009,-0.14132733,0.23738977,-0.11203959,-0.29702150,-0.09732704,-0.29964423,-0.11281261,-0.12197415,0.10574261,-0.22250187,0.43615816,-0.13427644,-0.03535919,-0.45628082,0.24932590,-0.31444130,-0.36669191,-0.16886644,-0.23038066,-0.07193623,0.04848809,0.46415582,-0.47655339,-0.24387083,-0.15338961,0.12436261,0.05272237,0.32389695,0.40926269,-0.14018873,-0.49054116,-0.23203418,-0.40300931,-0.10281855,-0.02927187,-0.00037888,0.09755267,0.35791935,0.37764697,-0.29670471,-0.36458252,0.31380808,0.06907158,0.10010842,0.35752082,-0.18181563,0.28535137,0.49056222,0.14912775,-0.44513958,-0.08136480,-0.30233977,-0.48110560,-0.05828071,-0.04646044,-0.13451818,-0.43361837,-0.49341540,-0.31042190,0.47550255,-0.13382877,-0.30106104,-0.25660507,-0.03686328,0.09611919,0.21412361,0.46275784,-0.30632813,0.07204297,0.34040427,-0.10303654,0.20746028,0.15421184,0.46600019,-0.19246448,0.01172273,-0.21582137,-0.40716847,0.00218054,0.43316175,-0.35241204,0.42069944,-0.36923087,-0.33355304,-0.13755655,0.08434276,0.03203815,-0.07118107,0.09089129,0.22163997,-0.09567526,0.45706315,0.42057972,0.14771985,-0.07980012,0.01669891,-0.13815654,-0.11704228,0.21037078,0.43388672,-0.27663441,-0.39265758,0.14134823,0.37757265,-0.42667579,0.44886837,-0.11073187,-0.14253957,-0.45833152,0.39140586,-0.20938761,-0.31073751,0.31209121,-0.07863069,-0.14424979,-0.32544591,-0.49428944,0.38779090,0.10337369,0.09660185,0.10943088,-0.49230158,0.05366500,0.03001059,0.15541827,0.47386488,-0.45329049,-0.48273827,-0.14317741,0.25708028,0.45114815,0.08018512,0.36441821,0.09249502,-0.04224242,0.43774214,0.04136061,0.34702293,-0.20479684,0.08303454,0.23843468,0.08582129,0.27229820,0.05052360,-0.49281021,-0.37195159,0.22507769,-0.48709965,-0.48416068,-0.17154862,0.10950220,0.12527019,-0.16385020,-0.33683280,-0.34471921,0.49156807,-0.36296792,-0.29800971,-0.49117020,-0.00614533,0.45906802,0.45996211,-0.42596021,0.32348400,0.05243348,0.03173773,0.26120454,-0.40622922,-0.12121371,-0.44356592,0.17686811,-0.38274502,0.14225537,-0.05083369,0.16777858,0.14944516,0.07721472,-0.10714373,0.16234550,0.09305404,0.22130764,-0.22815230,-0.28167577,-0.44254256,-0.06498510,-0.12639499,-0.45097449,0.07204697,0.07556991,-0.44222778,-0.43407545,