0.43418034,-0.17545868,-0.09588245,0.20320559,0.43439587,-0.33453914,0.18613458,0.27811258,0.22904999,-0.19313580,0.10957106,0.12606501,0.27679895,-0.24171953,-0.41186463,0.46981954,0.17003549,0.35267554,0.11411166,0.06461378,0.00129850,-0.34177449,0.27862996,0.39978101,0.26727025,-0.20234021,0.37563664,0.37161058,-0.12772481,-0.48469554,0.12326047,-0.01061119,0.24118266,0.46467529,0.02215036,0.38017283,0.01181967,0.22147101,-0.26404776,-0.05554052,0.47339015,0.34593325,-0.28516011,-0.41771326,-0.10734102,0.22664399,0.21881968,0.31634588,0.02327357,-0.46072840,-0.16114675,0.30596360,-0.27540944,0.26128024,0.11765260,-0.37666788,0.07403370,0.43672779,-0.42177416,0.24235126,-0.48750652,0.13547207,0.47946802,0.25678562,0.48959264,0.45558620,-0.44893148,0.45641078,0.26351412,-0.06432153,0.25761815,0.45953170,0.14462043,-0.26656816,0.49057650,-0.35325426,0.11792112,-0.40410171,-0.33395850,-0.48010395,-0.14973292,0.33693892,0.26889563,0.00257384,-0.20426429,0.40315385,0.38258251,-0.37438875,0.33082612,0.17475828,-0.05366278,0.28104446,-0.14926250,-0.09777025,0.40698989,-0.25807637,-0.05786968,-0.05955039,0.04003467,0.34837904,-0.07609374,0.46646848,-0.40378127,-0.23269349,0.46564787,-0.03339762,-0.06670408,0.22178150,0.04938407,-0.26749783,0.28888171,0.03108278,-0.37224113,0.18070302,-0.04333535,-0.02810108,0.09427979,0.46085862,0.42522803,-0.01919902,-0.27186855,0.09955744,0.32748479,0.25270624,0.42478147,-0.39683221,0.14309297,0.37584913,0.20615848,-0.05657664,-0.41522745,0.31515516,-0.17319929,0.25121183,-0.35484431,0.39340991,0.20497069,-0.42854593,-0.04818656,0.05236525,0.33508156,-0.11197198,-0.07350217,-0.15557753,0.37542267,0.40762789,0.00096226,0.48926768,0.48514399,-0.15340704,0.12483448,-0.07236099,-0.24619812,-0.46333756,0.06970912,-0.48470512,0.13651639,-0.27867117,-0.47998478,0.49044819,0.29802135,-0.45587990,-0.20104242,-0.07340943,0.31985464,0.41266702,0.45338998,-0.31931967,-0.39941153,-0.47592433,0.04382583,0.00866354,-0.29497597,-0.35187619,-0.48650750,-0.33834912,-0.33693596,0.24550260,-0.07316611,0.35753483,0.13729747,-0.15589997,-0.20250699,0.13200942,-0.28839892,0.26537765,0.29169188,0.01881549,0.54166588,-0.31549572,0.40483461,0.09812812,-0.34518730,0.43420446,0.06746433,-0.09310021,0.26538073,-0.08558535,-0.40876126,-0.14118140,-0.14647546,-0.00486974,0.46127768,-0.13192376,0.28367034,-0.38509371,0.33730869,0.43495879,0.43721478,-0.32377336,-0.42849647,0.07633487,-0.20058893,0.16101838,-0.12140798,-0.32392335,0.20039349,0.08905985,-0.23549095,-0.23657291,0.35220998,-0.01208085,0.12521629,0.38792254,0.30126257,-0.16753445,-0.49261818,-0.07698948,0.17356481,0.08522117,-0.05446207,-0.20297747,-0.36640752,0.45180416,0.06889010,-0.21897219,-0.37608440,-0.29553054,-0.43349189,-0.03830897,-0.13094296,0.32713999,0.09781165,-0.30391824,0.33233424,0.34125519,-0.37388936,-0.14600970,-0.09571208,-0.27406249,0.01310427,0.20772829,0.27122100,-0.25488676,0.05072361,-0.22176833,0.44333952,-0.08716565,0.13294473,0.47570443,0.30290245,0.43412052,0.03395571,0.01505369,0.05201831,-0.30667957,0.48269062,0.26553815,-0.30079824,0.28015120,-0.30020943,-0.32635396,-0.12702171,-0.09440102,0.27727953,0.49069124,-0.12448369,-0.34985994,0.41185233,-0.21339365,-0.24553558,-0.18471321,-0.03515590,-0.30163957,-0.25346455,-0.48185172,0.15906347,0.39443373,0.50959290,-0.32885079,0.48991578,0.04307713,-0.00655196,0.27878195,-0.44964930,0.06172965,-0.28107175,-0.37002069,-0.23873775,0.37576869,0.34086967,0.11881360,-0.09864931,-0.28998925,-0.39761565,0.02470703,-0.46978347,-0.09368170,0.17265353,-0.06161260,0.23927555,0.07462207,0.12246728,0.22257672,-0.04538500,-0.10364276,-0.17961808,-0.44050711,0.20379956,0.44202099,0.46438860,0.29432960,-0.42061567,0.44008742,-0.18584922,-0.22914001,-0.37497068,0.34808094,-0.06827073,-0.32952284,0.08732951,-0.01202535,-0.35272454,0.41631571,0.08601118,0.38285158,0.47415046,0.34119995,-0.36562609,-0.17104390,0.15968204,-0.25827551,-0.02659354,0.02147598,0.15715734,0.26981412,-0.27064738,0.42155876,-0.39899623,0.09270357,-0.12871608,-0.31978094,-0.05516343,-0.27968592,0.02088411,-0.49411575,-0.34133531,-0.00338792,-0.21478429,0.47408770,-0.34638575,0.40951962,-0.49792449,-0.11813192,-0.48068446,-0.26295631,0.07443611,-0.27789151,-0.39572352,-0.48626436,0.30595542,-0.05232129,0.12082545,0.32390946,0.13820572,-0.30456304,-0.42192726,-0.00489242,0.01040932,-0.22012356,0.12082890,-0.52770058,-0.28232437,-0.16763445,-0.28741652,-0.23979303,-0.25717115,0.25088250,-0.23361803,-0.16588086,-0.32850911,-0.18811440,-0.23752564,-0.47374965,0.36441676,-0.08994701,-0.30121736,0.02737913,-0.27177295,0.29131838,-0.36238613,0.18688258,0.36427570,0.40008110,0.42009261,-0.29932504,-0.19476882,-0.25958258,0.24998717,-0.02319780,-0.05576208,0.41754523,-0.01129330,-0.34551612,0.08560895,0.06797305,0.02215133,-0.06431012,0.30656141,0.34208516,-0.28864132,0.18192430,-0.28359412,0.28345683,-0.02849677,-0.49379591,-0.21354364,-0.15018571,0.37450152,-0.10315835,-0.33772437,0.19825037,0.36092465,-0.47510930,-0.41056699,-0.31873555,-0.41202229,-0.50691763,-0.37886059,-0.15672071,0.37873656,-0.49760534,-0.00246064,-0.47203009,0.48965734,0.17033409,-0.08274274,0.03598882,-0.24118172,-0.30062330,0.40023915,0.45899643,-0.15540930,-0.33273923,-0.21710207,-0.49115541,-0.27204940,-0.35383040,0.32403203,0.45447656,0.25500683,-0.09870880,-0.51661275,0.02497936,-0.28044091,0.16668450,0.11001411,-0.07286024,-0.34622868,0.15043683,-0.29312039,-0.02224042,-0.04945542,0.08146710,0.34997015,0.14700809,-0.26554297,-0.27219743,-0.29844110,-0.11958377,-0.03410864,-0.17856444,0.12538362,0.40635134,0.08503351,-0.12221091,0.39932364,-0.31122961,0.10169136,-0.31768322,-0.09250532,0.23334912,0.30031617,-0.34866240,-0.24693419,0.26106466,-0.22025343,-0.13314346,0.33067414,0.40709992,0.31658836,-0.14932061,0.25232788,-0.45332405,-0.35570954,0.25920441,0.32830078,0.36055584,-0.33450798,0.05766844,0.05829519,-0.34123628,-0.39575444,0.21592477,0.03965879,-0.26991151,-0.36592955,0.24463645,-0.19033541,-0.49613294,-0.13187215,-0.31247320,0.29461350,-0.25728990,-0.15796341,0.47350645,0.00763794,-0.39559497,0.42694510,-0.48184850,-0.01874019,-0.15263106,-0.48424592,0.10434899,-0.17765487,0.45645778,-0.09359335,-0.17144240,0.44197077,-0.26589205,0.42559537,0.31258869,-0.12377000,0.29270097,0.04534395,0.43556000,-0.35883998,-0.15762004,0.29343561,-0.20005518,0.15863801,0.26656711,0.07065383,0.41956531,0.39764577,-0.47465022,-0.25325725,0.35441384,0.46441211,0.44463393,-0.40877322,-0.09439980,0.16295952,-0.00309096,-0.42809297,-0.24397774,-0.00654095,-0.04627129,-0.18129178,0.07579437,-0.18766470,-0.26607858,0.26963750,-0.10816372,0.17581867,0.35995176,0.38988720,-0.31527033,-0.26145478,0.19678128,0.40740647,0.04994327,-0.42022370,-0.41899509,0.25801769,-0.17146055,0.05185235,0.47257299,-0.04979327,-0.49000418,-0.13701814,0.44416515,0.13063684,0.08131597,-0.23733891,0.02977119,-0.01828903,0.22210519,-0.23336843,-0.03145189,-0.21484432,0.45478712,-0.18152419,0.25151791,-0.06582195,0.41681765,0.19419595,-0.20017273,-0.44206367,-0.35270694,0.44204725,-0.41784534,0.31535300,0.25932294,-0.14734876,0.25870613,0.07316122,0.34403360,0.22031479,-0.00249006,0.32973637,0.44432700,-0.08342648,-0.10430588,0.43461923,0.29619033,-0.14468342,-0.22516161,0.40186850,-0.27434624,0.11941595,0.10069943,0.30264235,0.02917025,0.05258391,0.45492601,0.23893091,-0.33949011,-0.05198596,-0.04714308,0.29398016,0.27391700,-0.38272942,0.49741719,-0.12786567,0.49896241,0.35017483,0.36397177,0.47359484,0.07668521,-0.00555182,-0.07427198,-0.22893309,0.25820685,0.33768903,-0.23499353,-0.33819397,0.54348682,-0.22611287,-0.29561151,0.15355396,0.27433310,0.40011263,0.33555941,-0.47283668,-0.46428152,0.34430759,0.10360832,0.05151792,0.18631947,-0.03201716,0.11401492,-0.41349349,-0.29162896,-0.03914284,-0.30042736,-0.25858751,0.04128849,0.43341217,-0.48266557,0.43934042,0.23566155,-0.25099656,0.28916269,-0.09004796,0.37030224,-0.06853138,-0.27996617,0.13112120,-0.24067799,0.02692589,-0.50329115,0.28599535,0.17090129,0.39147487,-0.11918823,0.28211675,-0.32212570,-0.06075941,0.46299331,-0.36537778,-0.37060189,0.23651118,-0.06880478,0.01290789,-0.07386109,-0.40666127,0.23635542,-0.47060852,-0.07517236,0.26378561,0.24760370,-0.35563086,-0.07342375,-0.48117010,-0.13977457,-0.39577109,0.47712082,-0.06324754,-0.08472150,-0.24547133,-0.26873965,0.30309047,0.15594469,0.22415971,-0.13685344,0.21817039,0.27351055,0.22854350,0.09189951,0.08984734,0.08382955,0.18286252,0.20091692,0.35803741,-0.38634651,-0.43125454,0.05775089,0.25651059,0.26091157,0.13984873,0.40511895,-0.34132560,0.18555262,0.30238134,0.04409267,0.41724554,0.11984540,0.18988585,0.31944891,0.25193977,-0.37946068,-0.30059772,0.13039671,-0.00422503,0.47754305,0.47405962,-0.24760502,-0.20910305,0.20444724,0.09409127,0.00341963,-0.47344982,-0.07403696,-0.22206165,-0.28447785,0.21843318,-0.31921430,0.06386961,-0.33944255,0.45441101,0.20442620,-0.45900647,-0.27517632,0.49119363,-0.19385662,0.03361634,0.01833372,-0.17388105,-0.36617613,0.01462824,0.13740592,-0.40345937,0.26666605,-0.33792239,-0.12493572,-0.12643664,-0.36102656,-0.33651414,-0.04535301,0.29208727,-0.11794414,0.30031771,-0.30817165,-0.33533671,0.34052213,-0.33207308,-0.06453338,-0.03998688,-0.13878646,-0.21379313,0.38388047,0.11232507,0.16993633,0.49745567,0.20206934,0.39355349,0.49125800,0.03616034,0.09152620,-0.34014047,0.00502499,0.15988388,-0.00594629,0.42718384,0.45389898,-0.47452016,-0.31813938,-0.15149628,-0.34738225,-0.26777292,-0.11070663,0.06204222,0.05298284,-0.15447535,-0.16142661,-0.38275034,-0.08592525,0.46413960,-0.39185646,-0.26213098,0.13867831,0.37465346,-0.44001038,-0.24390234,-0.42732433,0.22779898,-0.17576042,-0.32134232,0.25887562,0.10002799,-0.48679785,0.17129448,0.06121462,0.27918627,-0.05880323,0.45126445,0.34975610,0.40094831,-0.08707889,0.39568617,-0.41663783,0.45191671,-0.07213723,-0.29672665,0.44362716,0.07240876,-0.31736613,0.32102796,-0.49100111,-0.49607811,-0.06980580,0.46956437,0.12027411,-0.03234023,-0.27157177,0.49169346,-0.10750141,-0.23198546,0.01208841,0.12382711,0.44723378,0.33442086,0.31607565,0.34741991,0.05210311,0.25642522,-0.11836697,-0.47078865,0.42313876,0.25171823,0.32820906,-0.10018718,0.33245529,-0.02166463,-0.38727276,-0.36495640,0.13559902,0.07841671,-0.01793285,0.03430069,-0.48170031,-0.10942755,0.29423925,0.18187085,-0.47868521,-0.35852251,-0.39728435,-0.31057836,-0.30951922,0.15722341,0.25857128,-0.00698603,-0.22710166,0.42127937,-0.11137691,-0.19743876,0.12119096,0.16334532,-0.37223407,-0.08506261,-0.12451178,0.21987824,0.16369250,0.18704206,-0.04294524,0.20767568,-0.46575487,0.38145971,0.34697161,-0.48373798,0.31376277,-0.36580360,0.14614697,0.23557051,-0.49014180,-0.45348368,0.42363378,0.01801611,0.29863099,0.25524641,-0.11612077,0.09723666,-0.08800586,0.16849750,-0.23804034,-0.29470816,0.36901361,0.44217570,0.40948051,0.09870563,-0.32132479,-0.10289384,0.19891443,-0.38354342,-0.20034620,0.09292274,0.35125682,0.04575484,-0.39121038,-0.39458394,0.45494939,-0.30198001,-0.13276977,0.00424783,-0.35829181,0.49914381,0.48230944,-0.48663371,-0.16683750,0.33434493,-0.35930871,0.45473541,0.01797020,-0.36474675,-0.10442263,0.51307042,0.47545081,-0.19641567,0.17848640,-0.18060606,0.46856065,0.01447919,-0.22491288,0.42771952,0.28959671,-0.09144551,-0.10387106,0.22030612,0.46941103,-0.31085611,-0.03973146,-0.16590742,-0.38470115,0.30768081,0.21870320,0.23914809,0.27998181,-0.04715925,-0.29850000,-0.29134128,-0.08118296,0.04790614,0.32930967,-0.41401869,-0.34304351,-0.30823797,0.11809738,-0.30861899,0.42773533,0.15430269,-0.11167280,0.19480695,0.26004018,-0.05230704,0.08299420,0.37406748,-0.34695922,0.35426128,-0.45999024,-0.34210209,0.43565012,0.26870907,0.49035702,0.41026433,0.10100690,-0.04959548,-0.07330838,0.03248287,-0.35570180,0.18681033,0.51359045,0.07149178,-0.32795462,0.19412764,0.05105826,0.33501294,0.36386688,0.01068342,-0.31842262,-0.26809021,0.12318414,0.17155137,-0.17095457,0.11662377,0.38261937,-0.43576171,-0.45897825,0.15631853,0.05636073,0.32526841,0.06374644,0.42430791,-0.38416995,-0.45504461,-0.20866048,0.29493784,-0.45007288,0.42685653,0.36625653,0.26587024,0.52689509,-0.36777154,0.49800547,0.46231748,-0.18758005,-0.26849926,0.21514337,-0.39037488,-0.11274280,0.17557696,0.28908691,-0.12487922,-0.01401487,0.43679679,0.42158719,0.26522584,-0.17022166,0.20203543,-0.08023071,-0.12137601,0.23881097,-0.23834137,0.43069886,0.28494019,0.47834948,-0.02458205,0.24606196,-0.27234191,-0.44388157,0.23895592,0.11906078,-0.41562795,-0.09347645,-0.38490746,-0.03761721,0.46859545,-0.41888208,-0.21923542,-0.10828024,-0.07869650,-0.23375793,0.03100462,0.31325042,-0.40471781,0.43716347,-0.49738237,-0.29187574,0.27471437,-0.19663862,0.11870959,-0.29888088,0.01025740,0.17864285,-0.25361507,-0.43719431,-0.42758478,0.09254783,0.44939105,-0.17867632,-0.09869850,0.21784120,0.43472878,0.32738942,0.26467011,0.39668676,0.06258689,0.49123450,0.14935426,0.42161570,-0.06399400,-0.05518514,0.11988101,-0.11384116,0.33402963,-0.14138036,-0.05087277,0.49178241,0.45697609,-0.21785302,-0.04292785,0.20857747,-0.42449758,-0.25346591,0.19782875,0.52622382,0.19755778,0.48050466,0.24887463,0.02099543,-0.00555320,-0.27981511,-0.40899107,-0.13767956,-0.18918105,-0.36506727,-0.15826036,0.38888668,-0.36919290,0.32104591,0.38338539,-0.22992765,-0.11689349,-0.22255799,0.40547455,-0.29625554,-0.30081958,0.07398757,0.08532659,-0.42737036,-0.50480264,0.25299906,0.01910974,-0.18945383,0.20518312,-0.38575758,-0.08083838,-0.11231566,0.09817459,-0.01580998,0.18721510,0.10883239,0.07932263,0.40315325,-0.40309710,0.12362697,0.25838048,0.29279781,-0.25117620,-0.26073621,0.07337689,-0.44845443,-0.46483899,0.07324293,-0.33158136,-0.08156083,-0.25112944,0.16521114,0.07155012,0.39005615,-0.22543372,0.21173442,0.48351779,0.24163638,-0.03862099,0.14463016,0.13030352,0.24495040,0.39014113,-0.07539038,-0.08710618,-0.22634368,-0.43198580,-0.46893448,0.16607665,0.20854359,0.10277724,-0.22153922,-0.39401451,0.28301977,0.38917858,-0.43446894,-0.23193904,-0.42300194,-0.48669573,-0.20517739,-0.23505340,0.23651941,-0.18827882,-0.38393424,-0.46034722,-0.38399601,0.15261851,-0.30038578,0.42473124,0.36247385,0.33740708,-0.34312086,0.38352821,0.35914508,-0.10763462,0.31721711,-0.26564797,0.11688200,-0.42164451,0.04371213,0.48423169,0.17875928,0.38253306,-0.15580271,0.15753855,0.32300959,0.06051360,0.01775027,-0.48367727,0.14412259,0.49037813,-0.32999161,-0.40193670,0.35118263,-0.18274003,-0.17559506,0.44115733,-0.03393850,-0.26649504,0.16994117,-0.38150168,0.30467204,-0.45197981,0.05663096,0.03696119,-0.46129912,-0.34166588,-0.31050648,0.04368646,-0.27100386,0.27608915,-0.45655268,0.34488856,-0.12802272,-0.31979608,0.46173814,-0.24757180,0.43416148,0.46654081,0.30228366,-0.35743799,0.36437548,0.44542722,0.42993136,-0.50810197,-0.46128244,-0.12664893,-0.03289888,-0.24119553,-0.42959497,0.39392677,0.42686891,0.08260334,-0.07787163,-0.20773732,0.38211008,0.17658425,-0.10434066,0.20822574,0.14731619,0.01076045,0.04784898,-0.03152057,-0.00268260,-0.35948585,0.06715968,-0.29964426,-0.40676858,-0.43290159,-0.07012811,0.05501642,-0.45622971,-0.41063575,-0.46884395,0.02080597,0.23358237,0.26659530,-0.05985282,-0.02883765,-0.25958652,0.26704350,-0.05494511,-0.34292045,-0.35684933,0.02135481,-0.12005354,0.25937792,-0.01656345,0.32560782,-0.07057659,-0.07881978,-0.18184450,0.40372940,0.23937978,-0.14712744,0.17604222,0.32877689,-0.02438796,-0.11981741,-0.04995445,-0.25005348,0.18413035,-0.22961544,0.20952431,-0.39581463,-0.39948767,0.20915074,0.30733320,0.48569291,0.36692040,-0.32949610,0.30528420,0.21883854,0.27434261,-0.15239252,0.40434417,0.12397092,0.02021914,0.39287875,-0.47897282,-0.03531145,0.29207952,0.40669133,0.23003311,0.00062478,-0.10295349,-0.42434732,0.37761496,0.49447024,0.43026411,-0.33639481,-0.48205993,0.05531600,-0.43432025,-0.08976969,0.47329228,0.29284858,0.39869748,-0.45660545,0.05427216,0.24042573,0.36791257,0.33892113,0.29491870,-0.03871372,-0.42139807,0.20612150,0.23264346,0.44061696,0.05150670,0.27770843,-0.02876481,0.32862825,-0.19593150,0.15559395,0.30226104,0.49946197,-0.12935480,-0.35933550,-0.23548349,0.44222126,-0.16792459,0.16936813,-0.34956318,0.24366938,0.41504619,0.47845045,0.36283494,0.13451128,-0.28653178,0.45103521,0.46231132,0.06663572,-0.07771139,-0.26128181,0.24506860,0.03666026,-0.05345375,-0.29118030,-0.46152566,0.48156118,0.07223597,-0.42752982,0.39817974,-0.42874650,-0.46047235,0.21108616,0.16168481,0.08665178,0.40042451,0.17924185,-0.20090234,0.45046857,0.38909927,0.28803050,0.16330679,-0.03257472,0.13243366,0.11212416,0.05895990,-0.14050813,0.04793442,-0.01573252,0.36237579,-0.20913305,-0.01182899,-0.37808260,0.42810187,0.11893162,-0.47670672,-0.45575623,0.32395066,0.05885134,-0.20878315,0.26568264,0.38152630,-0.32769629,0.02984059,-0.43151356,-0.05765140,0.05639339,-0.09691748,0.48214969,-0.25116437,-0.43949726,0.07699847,-0.05632524,-0.01056485,-0.48519594,0.00664075,0.18812902,-0.24006292,-0.36216039,0.26642477,0.44314965,0.26444776,0.04767296,-0.41831495,-0.27357224,-0.16140235,0.14451680,-0.27335009,-0.22347205,-0.31527726,-0.42647629,0.42774312,-0.26216530,0.28062978,-0.44213593,-0.23123535,0.22591424,0.38854569,0.05064396,-0.47460227,-0.10460141,-0.33134958,0.45301206,0.38900239,-0.18052268,0.40799110,0.43924669,0.06410944,-0.00213038,-0.02161011,0.47624223,-0.21308296,-0.31292925,0.07761222,-0.11052207,0.38304693,-0.40930655,-0.23907933,-0.14607171,-0.20911337,-0.30747250,0.33194187,-0.27097928,-0.40969224,0.27669525,-0.46120432,-0.18135839,0.34795556,-0.36608003,-0.00803296,-0.38123319,-0.27437127,-0.38783339,0.37459878,0.43884179,-0.04692229,0.03760573,0.14469248,0.37456609,0.19153890,-0.44336243,0.10711081,0.17669668,0.01465489,0.27722579,0.10270314,-0.16318928,0.16039940,-0.31628497,-0.01351895,0.38298696,-0.45619486,0.26297596,0.22228657,0.16004196,-0.44049633,-0.21904742,-0.13664960,-0.03335710,0.10712588,0.03188155,0.22710633,0.44770082,0.24940886,-0.23251744,0.33214538,0.24917376,0.08463905,-0.38628760,-0.09763164,0.44649280,0.42114558,0.17820997,0.29503958,0.33240127,-0.07031642,-0.16405445,-0.48938397,0.40763357,-0.40840666,0.05338579,-0.44141931,0.31728045,-0.25407878,0.47556301,0.14242393,-0.40678102,0.06111574,-0.01834557,0.41598104,0.23118008,0.39482985,-0.17251977,-0.24004241,0.03127437,-0.17558249,0.23332739,0.38592712,-0.10924550,-0.28789237,-0.19240547,-0.30632854,-0.32972936,-0.13208809,-0.00734145,-0.24008402,-0.03905117,-0.37798337,-0.00284092,-0.40562465,-0.24930241,0.42104313,0.15317723,0.29373315,-0.33586062,0.17368428,-0.41340399,0.08736716,0.10421762,-0.45205579,0.36662931,0.39797559,0.07956982,0.01096871,0.14856771,-0.26988428,0.34377982,0.37658660,-0.25267828,0.46621777,-0.11395596,0.35670418,-0.40031088,0.01786582,-0.47133437,0.41717465,0.07241092,-0.14162604,-0.05969676,0.21411741,0.13709656,-0.00353651,0.32230859,-0.04957441,-0.38089555,-0.36632423,-0.17576218,-0.03624462,-0.01519420,-0.03874790,-0.38416720,-0.25939053,-0.44770577,0.33162621,-0.01042132,-0.03788424,-0.17453011,0.22197663,0.39927947,-0.36440196,0.36034045,-0.18266176,-0.18172417,0.22491456,-0.13880802,-0.01225774,0.47120683,0.06315768,-0.35207122,0.46294495,0.43623610,-0.28520674,-0.28249601,0.13764817,0.47521810,0.46921141,-0.34109758,-0.13865916,0.03566986,0.40968813,-0.35500119,0.38267266,-0.32663436,0.40839381,0.42626525,-0.31922941,0.47094565,0.00384674,0.48491112,0.04969124,0.29944885,-0.44004987,0.43189613,-0.31511535,-0.26550863,-0.29031861,-0.16507206,0.44062607,-0.42568669,0.10107047,-0.02078547,0.00734393,-0.10632839,-0.29685673,-0.49389544,0.12493825,0.46689980,-0.35129662,-0.01472671,0.27163368,-0.40842660,-0.15237880,0.16883755,-0.32568178,-0.04666187,-0.45142268,-0.09432273,0.24998744,-0.14099165,-0.44788240,0.04349695,0.35337118,0.11096410,0.27184119,0.34490255,-0.40796383,0.03141991,0.02351031,0.19779173,0.32231012,0.13794520,-0.41771848,-0.48754819,-0.13522823,0.25268579,0.09739778,0.49087710,-0.16926565,-0.30727410,-0.34133110,0.12414909,-0.34013993,-0.16287746,-0.05646085,-0.20026309,0.10515876,-0.42276132,-0.17329000,0.06054289,-0.44622392,-0.34618926,0.14568627,-0.34553762,0.36282717,-0.05238239,0.39737586,-0.46691304,-0.06885930,0.35972773,-0.16876180,-0.28327435,0.28078513,-0.19019990,0.33059598,-0.47907808,-0.44004871,0.06546081,-0.02566062,0.11232656,-0.30266856,-0.40539469,-0.30635324,-0.33546782,-0.35340144,0.02316129,-0.02130542,-0.46675471,-0.38490752,-0.10708432,-0.24934791,-0.26670695,0.26558446,0.43252902,-0.12234893,0.25841666,0.37155348,-0.20550926,0.28784369,-0.47047076,-0.28236932,-0.03978447,0.00913961,0.46669755,-0.24464811,0.07654650,0.18131982,-0.42734004,0.46812919,0.31911428,0.12201393,0.38463778,0.42695714,-0.37866683,0.13890576,-0.02702012,0.28986936,0.45318263,-0.31350783,-0.06021036,-0.38499556,-0.45016694,-0.19292814,-0.19446685,-0.29327000,-0.23394634,0.28040714,0.42961357,0.08991567,-0.09204897,0.44771564,-0.12141769,-0.29115587,0.41193539,-0.21310155,-0.49426861,-0.46411622,-0.17866179,-0.47270123,-0.25302914,-0.38175144,0.00773420,0.17668549,-0.08578595,0.02067271,-0.43690598,-0.45948303,-0.23599772,-0.37977413,-0.31032572,0.00361377,-0.08462525,0.13378556,-0.43690805,-0.41282390,-0.49900301,0.07282909,0.21143945,-0.12968255,0.22462569,-0.13193960,-0.50959086,0.05365112,0.03732998,-0.03638195,0.35471143,0.08472718,-0.12848502,0.20822339,0.23979386,-0.49428628,-0.48385365,-0.13126669,-0.01541362,0.35075095,-0.07815517,0.42989348,-0.27353919,0.20491804,-0.06898465,0.08295284,0.23733308,-0.02846892,-0.20341558,-0.28784732,0.31477525,0.19375717,-0.37218364,-0.40877911,0.01980592,-0.36749326,0.47046925,-0.29050680,0.07311506,0.30270467,0.19528416,0.44725844,-0.04146150,-0.15255113,0.21901110,-0.28762090,-0.19544986,0.28798377,0.10397952,0.14867809,-0.06909167,0.16040216,0.25443192,0.44044875,0.18775924,-0.28067977,0.27754826,0.04929475,-0.48898960,-0.47791817,0.26423189,0.30889887,0.38795539,0.29397683,-0.22271326,-0.12852929,0.47654263,-0.44038171,-0.01036851,0.32834855,-0.14777411,-0.47657434,0.40658421,0.44048089,-0.41322871,0.06943454,0.21549602,0.33816404,-0.31466228,-0.22500919,-0.27445235,-0.34369968,0.40142525,0.06226186,0.44167182,0.14616398,0.22218009,0.46094867,0.25893566,0.01509349,0.41257250,0.21650388,0.37885740,0.27990844,-0.20233609,-0.48327328,-0.13154416,0.08377434,-0.47290212,0.45589917,0.26479256,-0.19556143,0.19450572,-0.18895407,0.04279070,-0.04497216,-0.18861667,-0.06438279,-0.25325395,0.18410450,-0.07124555,0.48701049,-0.43240036,-0.26797133,0.12133942,0.37823286,-0.28969036,0.30647597,-0.40778656,0.30717055,-0.26669425,-0.50171618,0.25197196,-0.27637209,-0.13528152,0.13446137,-0.33917201,-0.07880671,-0.02350145,0.48771204,0.25798191,-0.22499411,-0.42252163,-0.18225921,0.39265532,-0.35491673,-0.30653611,0.37882939,-0.16724820,0.31875187,0.34896913,-0.22526819,0.38574104,0.09294925,0.38019117,-0.38820294,0.21779574,0.35315557,-0.20484247,-0.04171903,-0.01118500,0.38182874,-0.39678236,0.24413699,-0.00487018,-0.14957879,0.21220694,0.25023199,0.06818283,-0.04061107,-0.29228953,-0.04719359,-0.22522532,-0.23723831,0.32821635,-0.05763779,-0.12427652,0.40417740,-0.41873686,-0.31553702,-0.45175876,-0.21580077,-0.08189942,-0.06311476,-0.24103030,0.24320094,-0.41026615,-0.09577609,-0.00534835,-0.26876253,0.48416614,0.24682516,-0.33626823,0.48737665,0.40051104,-0.42576037,-0.40273169,-0.13506141,-0.26560781,-0.23192415,-0.41842356,0.42105731,-0.40477961,0.39504226,0.29436084,0.49887840,-0.14435262,-0.42300360,-0.06536868,-0.23407055,-0.40497382,0.16258295,0.19981791,-0.08028700,-0.11921784,-0.14161484,-0.24430722,0.42469450,0.31950251,-0.25624902,0.10167892,0.13361773,0.38384219,-0.42062649,0.37012237,-0.01469034,0.41400085,0.31494310,-0.10702614,-0.35400502,0.41505866,-0.06040164,-0.21211133,-0.17623548,0.39761353,-0.21134625,-0.46816128,-0.36110025,0.04358423,-0.08739485,0.45949107,0.29726385,-0.24514531,0.13303253,-0.47713829,-0.44142429,-0.06250350,-0.18743847,-0.30160663,-0.30021108,0.19814601,0.34412479,0.13534936,0.05131186,-0.18421134,-0.03678983,0.15105149,0.32620763,-0.39486001,0.13567545,0.12816651,-0.04483326,-0.25840706,0.45585596,-0.01853343,0.23163021,0.01967450,-0.14378378,0.33682890,0.42282733,-0.33953708,-0.01646886,-0.08389498,-0.01492567,-0.49903235,-0.46690745,-0.44077899,0.29783668,-0.12032482,0.21253289,-0.15853751,-0.27672776,0.36281159,0.39160897,0.17472550,-0.15189078,-0.35454572,-0.38108046,0.15394165,-0.04356778,0.18984127,0.33257725,-0.33914763,0.25267671,-0.26206671,0.19476940,0.22836775,-0.13018750,0.19308721,-0.41678732,0.18422938,0.21478990,-0.25950724,-0.38545508,-0.11313738,0.25844499,0.06755431,0.32030452,-0.35911573,0.11981111,0.15896246,-0.02214751,-0.28852363,-0.44825239,0.06477286,-0.27471959,-0.16064989,0.25282679,-0.04160712,-0.11170707,-0.14287286,-0.38348863,0.00359236,0.35417319,0.00239225,0.31916102,0.47488226,-0.40357771,-0.39996126,-0.04823318,-0.03720325,-0.24171437,0.11374367,0.25995091,-0.08303441,0.38333131,0.27178337,-0.16434188,0.18806693,-0.08205011,0.30109600,0.11506468,0.26051857,-0.15914328,0.31481873,-0.20246554,-0.47122483,-0.47814334,0.20964203,0.49479578,-0.14340827,0.18826150,0.07761242,-0.20403888,-0.14931796,-0.37347770,-0.46815760,-0.01262298,0.21543236,0.05831389,0.32788370,0.04631610,0.26664791,0.15811794,0.06410439,-0.45614897,0.48490676,0.33237194,-0.18599476,0.30512366,-0.30577467,-0.04035139,0.27443856,-0.21698923,0.16436179,-0.26164789,0.39208101,-0.24006251,0.29042501,-0.09883439,0.27649725,-0.23182554,-0.22740543,-0.42524086,0.08602037,-0.37955953,0.42919391,-0.09907559,-0.36364678,-0.41985928,0.11660116,-0.43688496,-0.29306401,0.29313186,-0.30599018,-0.27028344,-0.38876001,-0.04070037,-0.04033304,0.05542482,0.44333295,-0.07006380,0.39160088,0.31211780,-0.45488508,-0.43281443,0.23386507,0.13118009,-0.14342450,0.28471645,0.49444546,0.40011200,-0.46075591,0.20906005,-0.13716566,0.39407713,-0.29613144,0.24410451,-0.27220721,-0.20103650,-0.09124706,-0.29740338,0.42335560,-0.32953066,0.43574556,-0.35910088,-0.47448380,0.46105842,0.13981479,0.48292315,0.03936669,-0.04487915,-0.34366646,0.18500541,-0.13071240,0.06979480,0.30413202,0.11124285,0.08279755,-0.38623982,0.15301366,-0.22319139,-0.11133902,0.37988764,-0.19885742,0.47010238,0.28359457,0.16250739,-0.07848238,0.24274750,-0.00055824,0.29026591,0.02636392,0.14798687,0.21969254,-0.45493370,0.48941705,-0.33523401,0.24910783,-0.44002539,0.31369256,-0.43316075,-0.09126415,-0.03431426,0.24157661,-0.25624803,-0.30983114,0.18423561,0.25193985,0.00472662,0.03303000,-0.03785004,-0.24007821,-0.18964737,0.02765299,-0.25089829,-0.39949698,-0.39976612,0.20676256,0.38156934,-0.30555194,-0.35372247,0.07073991,0.46431499,-0.04186870,-0.04490105,-0.35948260,0.03401509,0.38851379,-0.09244261,-0.47271378,0.47606640,-0.45725134,-0.47881256,-0.32215986,-0.43230435,0.21939701,-0.44210055,0.42426781,-0.31050398,-0.15999281,0.29604340,0.15363960,-0.38156770,0.24569743,0.08023401,0.01068002,0.42284502,0.16226174,-0.48644302,0.45745373,0.38938012,0.34657976,0.28942373,0.41878909,-0.37563509,-0.33975970,-0.30044017,0.11311567,0.05154260,-0.00626679,0.11962659,-0.27272815,-0.04311223,-0.47283332,0.24857198,0.34691534,0.43775588,-0.02134453,0.28550896,0.42774816,0.44787714,0.47044582,-0.05302111,-0.26023624,0.34764527,-0.33063274,0.33281905,-0.39444625,-0.02544183,-0.08947202,-0.15533121,-0.04613904,-0.03437458,-0.45741090,0.44388253,0.28001814,-0.01504812,-0.07475908,0.23891528,0.08125937,-0.19388001,0.48292433,0.49905987,-0.33643463,0.00695285,0.01887129,0.01488142,0.12099643,-0.43485153,-0.08583629,-0.01232252,-0.11441739,0.40109020,0.44672983,0.41398367,-0.44700933,-0.27322675,-0.19731447,-0.16971315,-0.03099546,-0.48763365,0.27815426,-0.00586193,0.11947453,-0.02566216,0.22411868,0.27693072,-0.01011366,0.22694376,-0.10208757,0.10574544,-0.20200128,-0.44652173,-0.40031802,-0.41094644,0.25499678,0.12884369,-0.23191097,0.24023138,0.02166518,0.13708875,-0.22897059,-0.06127995,-0.13719776,0.14480285,-0.37175558,0.13432263,0.04265761,-0.08281314,0.47730955,0.45220800,-0.43224620,0.11109247,-0.14550905,0.09847841,0.36007137,0.28212271,0.16492305,0.09674669,-0.09913714,0.47372456,0.39749405,-0.28062420,-0.04732968,-0.06449173,-0.03047283,-0.15450820,-0.24968972,-0.32710652,0.20443034,0.25182818,-0.33595720,-0.24243987,-0.03914656,-0.33431864,0.09678957,0.19669111,-0.26276393,0.01161078,-0.16824900,0.38386150,0.39631795,-0.26807417,0.35705715,-0.26232053,-0.31658346,0.33345420,0.33922316,-0.19293281,0.28794015,0.41799153,0.21283883,-0.39005123,-0.27934104,-0.06730968,-0.07874204,0.08520214,-0.27404952,-0.28075186,0.37913045,-0.01071237,0.06220299,-0.19789835,0.27572188,0.13731865,-0.31840933,0.05510219,0.22969086,-0.24277404,-0.45526421,-0.31187828,0.45018394,0.06096612,0.02821891,-0.15786846,-0.17467107,-0.16325030,0.00510617,-0.01129841,-0.20057364,0.45521159,-0.39970224,-0.28029416,-0.13368454,0.35019821,0.15244666,0.50367259,0.06502960,0.09515838,-0.13942603,0.14748814,-0.23118311,0.22686849,-0.32028575,0.21931998,0.03826185,-0.25390256,0.38503176,-0.28107478,0.48066357,-0.40698468,-0.00585384,-0.49714502,-0.39529303,0.35570534,0.07058163,-0.49064878,0.06834380,-0.19137630,0.11745287,-0.24900356,-0.48884630,-0.42833317,-0.47590522,0.30947263,0.41063473,0.22600008,-0.13461173,0.35768725,-0.27291573,-0.30764365,-0.24256921,-0.32256551,0.18882128,-0.16035855,0.05725649,0.46389441,0.15655015,-0.35832022,-0.10502874,0.27541922,0.38462918,0.00492145,0.48113754,0.43128966,0.26937067,0.41329708,-0.29457174,0.36387681,-0.15616304,-0.05748293,0.32316567,-0.06732051,-0.28732430,-0.44939768,0.08678088,0.22771124,-0.19782855,-0.43557965,-0.31882975,0.28581033,-0.11670027,0.34180089,0.49530557,-0.02015190,0.44461193,0.17379383,-0.29130055,0.42772455,0.04059551,-0.40213626,-0.35519220,0.13299238,-0.18122516,-0.46591340,0.34179202,-0.14470021,-0.31444235,-0.40433040,-0.31616188,0.11642833,0.01673521,0.18249224,0.21129057,0.06946874,0.46758074,0.31205860,0.41903792,-0.38807801,0.12713416,0.35547009,0.02611174,-0.19445332,-0.42093961,0.46407848,0.41072672,-0.48761378,-0.21507422,-0.41586421,0.43626352,-0.40570763,0.07953857,-0.00125893,-0.15532064,0.35045933,0.23167867,-0.30916183,-0.33758775,-0.13292623,0.04857886,-0.10639104,0.22777778,0.18948230,0.06697558,-0.36691949,0.29182821,0.24527453,-0.39784502,0.17100461,0.26952686,-0.02199570,0.47326495,-0.39159977,-0.20566760,0.45028841,0.07111013,0.13165060,0.25525010,0.06738873,0.43037485,0.03880943,-0.35598470,-0.22543076,-0.03059947,-0.19409364,-0.22452243,-0.49089880,-0.28656712,-0.48020830,-0.08817335,-0.42284539,-0.22385636,-0.35789226,-0.32420571,-0.40143890,0.10297417,-0.26282685,0.10767370,-0.18139477,0.49629564,-0.36490051,-0.36096380,0.11663447,-0.14480445,-0.48753465,-0.06081520,-0.20606897,0.25302676,0.30428608,0.36959970,-0.09953781,-0.43223638,-0.30853284,0.02232506,0.20949008,-0.43630242,0.05576200,0.09033888,0.45255588,-0.40716932,-0.32053387,-0.36754897,0.42115006,0.40483190,-0.16378921,-0.34315321,-0.20416566,-0.20491248,-0.41593028,0.49895448,0.37368040,-0.34646122,-0.01827903,-0.07597710,0.34580887,-0.15211819,-0.41285546,-0.13838975,-0.14702849,-0.35552445,-0.19553958,-0.24808969,0.44597002,-0.35290541,-0.16855051,-0.08010883,-0.17003668,-0.28839500,-0.40664409,0.39994624,0.24958670,0.26909656,0.34350796,-0.40567066,-0.42680420,0.07313750,0.17476837,-0.18544772,-0.19135890,0.48088803,-0.13144140,0.34587405,0.19417475,-0.10626169,-0.47250575,0.41750495,0.11266045,-0.04829514,0.33269134,-0.13612879,-0.20171016,-0.21927334,0.06871506,0.08134351,0.41423737,-0.35924162,-0.18884974,-0.27938862,-0.55362657,-0.54848564,-0.04609314,0.36589723,-0.03196670,0.44340230,0.45353652,-0.02202418,-0.08393425,0.17117366,-0.36465156,0.16404547,0.19575469,0.26160019,0.38547753,-0.16188339,-0.30525803,0.05731918,-0.32909942,-0.19075289,0.44757084,0.45301303,-0.41564616,0.33252971,0.14588564,-0.28036997,-0.11408546,0.27116649,0.21786883,0.12664515,0.42570133,0.15471284,-0.12118787,-0.48208896,-0.03288770,0.42007414,-0.17047098,0.27550270,0.18087507,0.22919824,0.36209828,-0.18862856,-0.06871965,-0.21502361,0.17981298,0.45550182,-0.24613251,0.39928292,-0.18113362,-0.22938431,-0.44704404,-0.47790252,0.05225563,0.12387385,0.31085641,0.05895993,-0.51916967,0.17108127,-0.08979219,0.16183691,-0.10156577,-0.05329336,0.46550023,0.00669186,-0.41048233,-0.48248479,0.49484123,0.01314034,0.03483527,0.39301050,-0.14818295,0.26829928,0.30854136,-0.32906155,0.09217067,0.18025412,0.49857293,-0.16951250,-0.42696448,-0.08615929,0.14272054,-0.03733059,-0.24352154,-0.00237676,0.15660501,-0.14137055,-0.33820156,0.43458845,0.32967140,-0.44049630,-0.37544582,0.26484369,0.22132125,-0.01599410,-0.35996147,0.07965294,-0.40671821,-0.42519808,-0.03878798,-0.42384966,0.00894100,-0.33311563,0.16318725,-0.37467458,0.32861649,-0.01996885,-0.48373520,0.03547946,-0.31713516,-0.33443834,-0.49307762,0.26159206,0.08191457,0.26381845,0.31213616,0.13254335,0.11547887,0.06800553,-0.32361714,0.47662343,-0.10448163,0.45119181,-0.44585005,-0.18142292,0.33074309,-0.39520944,0.44501523,-0.18835808,-0.08606863,-0.01759638,0.17597803,-0.04067449,-0.24401744,0.13547181,0.26201157,-0.05823345,-0.34517928,-0.43651681,0.10152576,-0.21821557,0.12145932,0.03470272,0.23531965,-0.47931373,0.40300734,0.02141240,-0.45148416,-0.06485717,-0.02851779,-0.09242559,0.42344715,-0.38244170,0.20718353,-0.41036249,-0.09011595,0.51242469,0.30996163,0.20853746,-0.14675249,-0.20884066,0.21089809,0.06411568,0.35944456,0.38990725,-0.08814747,0.45972863,-0.06223800,-0.25672873,-0.25575356,0.04116634,-0.46806936,0.07231425,0.51952359,0.27028657,-0.29864372,-0.05524951,-0.13659069,0.05852607,-0.29338310,-0.47527942,0.31262270,0.11538157,0.00089775,0.41137617,0.31070187,-0.07746384,-0.28179636,0.37945994,0.33628539,-0.07041677,0.05932601,-0.02186979,0.28182749,0.10957180,0.26708973,-0.14480742,0.04887502,0.00931874,0.10549844,0.45916131,0.36853845,0.23355667,-0.30888162,-0.14613016,-0.11444918,0.24061914,-0.42979212,-0.16996314,-0.26498278,-0.29517105,0.35088906,-0.08768793,-0.22892363,-0.43213144,0.10814124,0.34750899,-0.33094557,-0.35468544,0.22691813,0.09333918,0.04018919,0.31261465,0.41016132,0.07310975,0.49669973,0.33875740,0.20923123,-0.10337789,0.16001629,-0.36810425,0.01149022,-0.33729384,-0.09076400,-0.17321604,0.31838948,0.46597214,0.49310881,-0.02079744,0.38099862,-0.17404478,0.19678817,0.27484390,0.33894924,0.04444091,0.11577010,0.22570827,-0.02427591,-0.37654505,0.11318001,0.44348852,-0.28995243,-0.17337480,-0.34498060,0.23085790,0.48533227,-0.27599649,0.05572253,0.04194839,0.04574045,0.35213139,-0.06483692,0.17116446,0.25887250,0.04316893,0.18495478,-0.31438102,0.20642940,-0.04990317,-0.09318093,-0.01147874,-0.28282503,0.30598937,0.19950555,0.12310032,0.30186951,-0.39364336,0.13155861,0.01586384,0.19895330,0.13888370,0.47068865,-0.06351967,0.09575315,0.44753271,-0.18128169,0.00539045,-0.40507819,0.33140276,0.34363207,0.30471094,-0.06483274,0.46268121,0.16570950,0.07967177,-0.05162756,0.11771764,0.44529139,0.20265539,-0.02540129,-0.39436667,0.07011254,-0.30468326,0.31393355,0.10778269,-0.02971624,0.18740037,-0.17820298,-0.18669533,-0.41354576,-0.11596492,-0.08182223,-0.11274027,0.04574572,0.03138082,0.29542891,0.11943560,0.32822042,-0.09837103,0.37613816,0.21334960,0.41771837,-0.05825434,-0.02229993,0.33439845,0.27775001,-0.32523224,0.35759732,-0.39414790,0.47394029,-0.46947444,-0.32581434,0.24870705,-0.02296317,0.03758690,0.43834531,-0.48080776,0.26385145,-0.10767773,0.19454948,0.09191176,0.04362718,-0.23553319,0.48903891,-0.01921923,0.46279208,0.18825782,0.04193064,-0.41070228,0.05126610,0.20019035,-0.46758240,0.42193693,0.36309080,0.45354746,-0.46641764,0.18616911,0.09806246,-0.36042973,-0.20937098,-0.15928772,-0.37400166,-0.34302459,0.41547845,-0.44036119,0.44058292,0.19674376,0.23760835,-0.18121052,0.06803029,-0.47921195,-0.39022686,-0.12586384,-0.27073588,-0.38664664,-0.43061859,0.00753529,0.36084706,0.16712713,0.47841522,-0.26858763,0.00026297,0.21088135,0.09278343,0.04294634,0.48208055,0.22575684,0.22802610,-0.04720390,-0.22245688,-0.28323920,-0.47763265,-0.07427953,0.17192056,-0.27717006,-0.06513476,0.35476246,0.48052254,-0.29484142,-0.40369631,-0.37313193,0.32659143,0.11426683,-0.17900415,0.28406976,-0.17662008,0.08940612,0.34418018,-0.10968443,-0.43978160,-0.45489666,-0.31011643,0.39243118,0.40938186,-0.34628814,0.20803174,0.21397004,-0.16489592,0.43691267,-0.44302166,-0.37214537,0.46447802,-0.44241289,-0.24607642,-0.47416662,-0.01327466,-0.25148793,0.00460928,0.08756043,0.22526293,0.26884233,0.29771093,0.39746439,0.41250247,-0.20228716,0.33957421,0.44472130,0.27782941,0.48222350,0.10350496,-0.21834298,-0.04696480,-0.19770124,0.03762993,-0.44744145,-0.34938021,0.39605532,-0.14212826,0.38703929,0.24233751,0.05833269,-0.42326042,0.09425171,0.13673086,-0.20856394,0.35841644,-0.08475211,0.26593467,0.00351925,0.25335289,0.08853564,0.07774937,0.05680101,0.14284576,-0.15560496,0.28336625,0.45479112,0.18864644,-0.04514333,-0.34337586,0.29934830,-0.03183666,-0.31575125,0.31400518,-0.33751252,-0.49381964,-0.45968050,0.07364534,-0.03513577,0.00845913,-0.42686415,-0.36062135,-0.06174531,-0.27252697,-0.38363147,-0.39179692,0.11114937,-0.46912076,0.02749565,0.32218498,-0.23975943,0.21018267,-0.42227557,-0.41512932,-0.48252067,-0.18821939,-0.42369303,0.00055083,0.23205406,0.09811869,0.30787192,-0.41675774,0.10963543,0.14054463,-0.13730729,0.28390838,-0.44929098,0.10256196,-0.03525391,0.38549905,0.48688862,-0.47362464,0.03617938,0.23787582,-0.32080001,-0.43838616,-0.00652173,0.21049113,-0.22805364,0.38313323,0.37481913,0.00006440,-0.39229775,0.04309960,0.40937775,-0.19096643,-0.45728008,0.40782027,-0.17525717,0.19851247,-0.23214381,0.42608183,-0.19200696,0.15390071,-0.32447913,-0.41481559,0.17565029,-0.06504977,0.43678381,-0.09840843,0.10691582,0.40258670,-0.45345841,0.26890596,0.32932896,0.28689870,-0.28737720,0.49154447,0.10507171,-0.48241350,-0.45028402,-0.14179636,0.05677179,0.49778533,-0.30621426,-0.43255940,0.19927945,0.33290526,0.32528108,0.08588729,0.18088301,0.15649698,0.30501818,0.37984283,-0.42691267,-0.04329958,-0.21193591,-0.48786962,0.34631345,0.46403274,0.15063215,0.38381814,-0.29687528,-0.12276691,-0.26824866,-0.45370335,-0.46468649,0.32883772,0.35220526,-0.30134717,0.39665154,-0.12645560,0.09415743,0.03237398,-0.05341243,-0.27005587,0.25789319,0.02571088,0.27989788,-0.28830740,-0.14089398,-0.34723959,-0.31940033,-0.22789124,-0.14284816,0.14595391,-0.29262954,0.07831456,-0.27183575,-0.27822458,-0.44298687,-0.31482212,0.06002321,0.03576754,0.18873961,-0.12488002,0.12693611,0.15975434,-0.13622923,-0.05073397,-0.49210237,0.47137103,-0.14579842,-0.04398198,-0.35459211,-0.22426702,-0.32870713,0.27282974,-0.01781071,0.35211054,-0.49692579,-0.03523904,0.42246765,-0.35938410,-0.39511183,0.13904900,-0.22190712,-0.28352436,0.02351318,0.21992153,-0.41890361,-0.29701668,-0.33299560,0.07918718,-0.03640358,-0.06900152,-0.12504064,0.28946605,-0.46556330,-0.42156763,-0.07825002,-0.17900949,-0.25774214,0.09666134,0.01842781,-0.09149043,0.04773778,-0.44442674,-0.47787721,-0.21270489,-0.43628873,-0.05470566,0.00046416,0.10627046,-0.09466738,-0.32747881,-0.12780037,-0.29229051,0.20645354,0.01446338,-0.04039200,-0.41794949,0.05899942,0.11811301,-0.18125443,-0.43469731,-0.47839416,0.10782608,-0.24257947,0.36082690,-0.30871536,-0.29836742,-0.29766874,-0.45314966,-0.37030301,0.27229459,0.47797017,0.41629982,0.00536649,-0.05651140,-0.09211117,0.10206497,0.30405581,-0.05893904,0.08303692,0.41589625,0.23019593,-0.21659656,-0.43595508,-0.49236315,0.09767874,-0.28529784,-0.16481200,-0.37943003,0.23753020,0.38830132,0.03190153,-0.28560291,-0.43210423,-0.35552085,-0.48765584,-0.43093793,-0.06641549,-0.12590589,0.11520931,-0.03065886,-0.50748592,-0.01818554,-0.11508823,-0.24182481,0.22084835,0.08175175,-0.22746073,0.07767917,-0.38020893,0.38293650,0.04192893,0.37395064,-0.49375690,0.30179970,0.49533945,0.38776195,0.12221640,0.27949323,0.52351101,-0.29167233,0.37797570,0.39951276,-0.03853734,0.19386075,0.04445564,0.40764815,-0.19920622,0.11541488,0.16637356,0.42381401,-0.44928195,-0.40258354,0.40475023,-0.27645409,0.23945602,-0.30421444,-0.13794462,0.41724051,-0.04306845,0.48142026,0.27293938,-0.14662068,-0.06104855,0.04608433,-0.22570115,-0.11000581,-0.25161446,-0.33257985,0.29984717,0.19714193,0.51914401,0.32575739,-0.34633335,0.28144622,-0.03738351,-0.47815401,0.12666542,-0.10008671,0.16822676,0.25890576,-0.46312048,0.20457823,0.25872956,-0.08291922,-0.15074512,-0.44554799,0.33876889,0.03583204,-0.22191642,-0.05957599,-0.17111530,0.10053076,-0.03542434,-0.26548080,0.10379798,0.00296192,-0.39264339,0.29748704,0.22206390,-0.12811787,0.32524284,-0.27074876,-0.34385548,-0.08703454,0.15275684,0.03239200,-0.34875408,-0.48884853,0.46965721,0.16936272,0.24074417,0.07698708,0.14619675,0.00903939,-0.40206557,0.34443414,-0.41960278,0.24419284,0.29931292,0.41301965,0.29591550,0.47267066,0.50045461,-0.08796157,-0.07842436,0.33434656,0.54138734,-0.45261183,-0.16982677,-0.27350295,-0.00963473,0.31431302,0.42353548,-0.42103035,-0.39101345,-0.45522479,0.04337653,-0.02753321,-0.38548627,0.02210153,0.13787723,0.32896436,-0.17519733,0.30042923,-0.10662716,0.15883752,-0.17285721,0.03359939,0.42708684,0.19362365,-0.25680604,0.11380713,0.00937302,0.28810842,-0.26183894,0.08765993,-0.07214242,0.49615036,-0.21020989,0.38000467,-0.43658746,-0.02753732,0.18999041,0.37157520,-0.10025197,0.11650628,-0.30526278,-0.31575243,0.47373562,0.49007634,0.42876413,0.48144815,-0.29600917,0.18898100,0.20833962,-0.34514514,0.13142949,-0.26798937,0.16484275,-0.07166669,-0.01573464,-0.11273857,0.06860119,0.14510548,-0.38280486,0.01743566,0.06902035,0.02143308,0.48359530,-0.28967197,-0.08650894,0.42541735,0.33855458,-0.18447137,0.13866425,0.48005486,-0.16818142,-0.06310076,-0.25229370,-0.15396707,-0.14732878,0.23203108,-0.05795250,0.07343568,0.13203174,0.11126634,-0.23231337,-0.40668731,-0.20281279,-0.19795243,-0.34312338,-0.31666630,0.06734061,-0.17652344,0.28598376,-0.41597009,-0.09211390,0.22185332,0.21503697,-0.39349596,0.22356291,-0.25171229,0.45454083,0.07907597,0.04765181,0.17241600,-0.24287237,-0.18841110,0.03531967,-0.05277644,-0.11366849,0.03724314,-0.00814835,0.18883937,0.09411656,-0.08712110,0.19803347,0.14386868,0.33558860,0.42432381,0.22963464,-0.41902825,0.32446238,0.45825660,-0.49850053,-0.07496795,0.37501988,0.39968036,0.14258382,0.35601934,-0.19155400,-0.24479599,-0.20616664,0.26921500,-0.03702297,0.47519142,0.19509656,-0.23769045,-0.31354731,-0.37010734,-0.07705603,-0.13823711,0.28521635,0.16338265,0.49157584,-0.14653698,-0.07794441,0.03057070,-0.04356914,-0.05491692,-0.24843157,-0.25016105,-0.01769470,0.32273060,-0.07057293,0.28566294,-0.38353665,0.15001265,0.15795813,-0.08771447,0.40867139,-0.10361274,-0.09966126,-0.41284202,-0.48281064,0.10978078,-0.40233247,-0.37508929,-0.36454090,0.38680875,0.01598959,-0.12947514,-0.44536129,-0.43072258,0.42056789,-0.03672848,0.23013680,-0.13124472,0.02842223,0.42422730,-0.47611137,0.41458492,0.14525197,0.24060718,-0.30332753,0.26319800,-0.18607016,-0.23138858,-0.13316045,0.13030398,-0.01815181,0.21669783,-0.18169862,-0.45298192,-0.49135936,-0.32801110,0.40231686,-0.19237397,0.41963269,0.44813483,0.33136748,-0.48636515,0.20341363,0.48005358,-0.21222181,0.45516103,-0.42101693,0.20172390,-0.27055713,0.40513408,0.39001616,0.17861579,0.15471583,0.38929032,0.10889085,0.00598394,-0.37703472,-0.31257834,-0.31160597,-0.00070209,-0.35632364,-0.19380455,0.27345173,-0.48025376,-0.14562816,0.36732480,0.28278865,0.10980163,-0.04459506,0.29275120,0.33986130,-0.25493082,-0.24400607,-0.16460433,0.33552512,-0.17980940,-0.05148232,0.29781371,-0.31739927,0.21044527,0.19926494,-0.21015291,0.16337097,-0.40583215,-0.16959690,-0.46199514,0.13857897,-0.41691361,0.20029285,-0.10393025,0.24254620,-0.47670018,-0.33580160,0.02473739,0.20898207,0.24722177,0.41559350,0.22404384,0.03201934,-0.11948915,0.20996554,0.31389349,0.33883453,0.01292212,0.48100262,-0.39203010,-0.21820959,0.21166839,-0.04352093,-0.49635975,0.20044031,0.08999129,-0.42543496,-0.14833199,-0.13400798,0.14411714,0.28361897,-0.01434956,0.29186355,-0.16271174,-0.46745708,0.39471954,-0.13230364,0.29625583,0.21897976,0.03088708,0.22782083,0.09884288,-0.09222061,0.25006887,0.47217266,-0.07032785,-0.14870047,-0.16394148,0.10905787,-0.26652802,-0.10797929,0.40647456,-0.32349761,-0.13653041,0.04728975,0.48497706,-0.05082250,0.01829612,0.22075016,-0.12469048,-0.40651667,-0.01843806,0.09814996,-0.30745050,0.41426304,-0.07645174,0.22969992,0.08312078,-0.17686390,0.08982158,0.22752536,0.01503258,0.19773209,0.33229074,-0.41700530,0.07761737,0.27375811,0.21948345,0.06844294,0.13512382,-0.19080720,0.38123621,-0.11553697,0.45752061,-0.44342841,-0.34168154,0.43745718,0.14967500,-0.10356352,-0.48113136,0.26857688,-0.19897937,-0.47423711,-0.30679267,0.32344937,0.26715610,-0.23304175,0.29218722,0.05703995,-0.23981333,0.07378397,-0.26736288,-0.19485825,-0.03792350,-0.09867160,0.45245627,0.28492609,-0.00387899,-0.06988232,-0.40892434,-0.35003194,0.44399940,0.40001707,-0.45762950,0.22195155,-0.10298486,0.20352697,0.21785156,-0.18517683,-0.48609075,0.21189748,-0.25837402,0.19821577,-0.30265416,-0.23995363,0.07438209,0.19852342,0.40577825,0.14620557,-0.13907534,0.30466888,-0.29822111,0.47058806,0.48384072,0.14834107,0.19584115,-0.44144262,-0.11283548,0.16010559,-0.46378645,0.01719941,-0.29529599,-0.06531213,0.09942937,-0.28352135,0.22787992,-0.49386572,0.26196088,0.29671495,0.20758776,0.20569836,-0.21403375,-0.20306067,0.02505535,0.31886269,-0.18796354,-0.42641052,-0.38725808,-0.36506782,0.42192746,-0.10966697,0.21040194,0.47764136,-0.14755569,0.22903756,0.16417981,-0.49169929,-0.48756047,0.44400810,-0.03866773,0.09654162,-0.39613032,-0.10640472,0.48208114,0.27882915,-0.25692654,0.40227542,-0.38415090,-0.00404338,-0.41755835,0.26241266,0.22494728,-0.08964275,0.02615682,0.20804596,0.35561907,0.33395187,0.12693828,0.40289082,-0.40290426,0.25454046,0.32984583,0.24097578,-0.13272627,0.46713041,0.04116182,-0.42593474,-0.11935343,0.29276642,0.33931373,0.22021571,0.46137215,-0.09710150,-0.43114091,-0.10655164,-0.40524117,0.37531429,0.24447482,0.24674714,-0.01476776,-0.09721235,-0.30255880,-0.44420285,0.24355712,-0.01272261,-0.38757679,0.12402231,0.19642843,-0.34573556,-0.05205015,0.45264446,-0.17575922,0.47276427,0.05816357,0.10302076,-0.04332646,-0.44834055,0.07380018,-0.43884819,0.08949822,-0.09342087,0.04743230,0.42584369,0.38863903,0.31051089,-0.27235067,0.25443156,-0.19308886,0.13226401,0.07089485,0.40852020,-0.28217224,0.18464844,-0.45044792,0.28045492,0.32633756,-0.04289433,0.27384940,0.23630218,-0.10755146,-0.27075919,-0.47983840,-0.45462672,0.49671946,-0.09434388,-0.15414732,-0.37880691,-0.04510725,0.01122447,0.45693661,0.10687169,0.22303556,-0.23718437,-0.22799653,-0.11828595,-0.41544860,-0.30548376,0.19180129,-0.17568452,-0.27275246,0.27753632,0.15614493,0.10652417,0.46016798,-0.29942365,0.08775161,-0.16882679,-0.40934424,0.46289340,-0.24005501,-0.24982367,-0.34983870,-0.47969129,-0.30704668,0.12604714,0.43246992,-0.24628105,-0.16652774,-0.50947778,-0.27947201,-0.06010732,0.42345807,0.03904684,0.17310551,0.29503255,-0.39835735,-0.18025089,0.25339992,0.09569092,0.10829169,0.15762207,-0.19307034,0.30259617,-0.33875854,-0.16935707,-0.14039961,-0.49802521,0.06663722,0.34049539,-0.14449974,-0.00156406,0.20840052,-0.34470187,0.03746211,-0.32678060,0.14474486,0.09891039,-0.46905378,0.42599261,-0.52064946,-0.36961875,-0.18286519,-0.01287335,-0.35082355,-0.28822760,-0.34721249,0.48194169,0.19406432,-0.19552651,0.03636210,-0.49518919,-0.09565625,0.08379097,-0.11244017,-0.06128548,0.14973538,-0.29916458,0.18586146,-0.32611054,-0.52223091,-0.45005431,-0.32897163,0.01762061,0.18837476,-0.50130096,-0.12492684,-0.45079381,0.02807803,0.15113075,-0.40298116,-0.50109639,-0.44572200,-0.24449777,0.05233005,-0.00277313,-0.37234701,-0.10358461,0.35669569,0.01953896,0.23534973,-0.44182625,-0.15830899,-0.04136373,-0.12125662,-0.30391056,-0.43314143,-0.32989770,0.03528249,0.00749866,0.30939961,-0.24786427,0.10606831,0.13437634,0.42747582,0.09428295,0.16765295,0.32037331,0.36808960,0.46259413,-0.36246332,0.42662836,0.16114173,0.02767749,-0.21070041,0.25433013,0.16100403,0.40049925,-0.06526642,0.08434979,-0.08188287,-0.17542449,-0.16765186,0.08368973,-0.16598760,0.02726352,-0.10257312,-0.19272714,0.07268053,-0.05590548,0.35979907,-0.44496545,0.11593282,0.07244686,0.17147041,0.12802287,0.42812942,0.26661277,-0.32729799,0.28002016,0.37154515,-0.08403795,0.39231642,-0.48934148,0.30656634,-0.40067315,0.31397278,0.09436732,0.39590635,-0.31141135,-0.35743330,-0.21491963,0.18978516,-0.35285852,-0.41574837,-0.31530897,-0.21238215,0.10047406,-0.16873491,-0.12655385,0.19047248,-0.36272459,-0.16682519,0.07691364,0.08798795,0.38336263,-0.01859273,-0.05340664,-0.48632504,0.48480506,0.01555264,0.35132651,0.26284072,-0.47493726,-0.10291579,0.31194239,0.41485644,0.41171214,-0.19264915,0.46708710,0.25697893,0.34524156,-0.01092689,-0.17943120,0.31553801,0.18642844,0.26179508,0.37184196,-0.01267435,-0.53077138,0.15664098,-0.20167972,0.25052534,-0.05246109,-0.38091973,-0.50954892,0.48114442,0.45280611,-0.14866477,-0.19686398,0.12668749,-0.16380863,-0.47224759,-0.28345064,0.05076720,0.08874489,0.34293744,-0.27767986,0.02173007,0.01542480,0.05403417,-0.08749489,0.38131119,-0.30950881,0.21289769,0.22742870,0.05455716,-0.44888705,-0.37970994,0.27846414,0.15776028,0.26894672,0.26852142,0.47280721,0.46470104,0.02801038,-0.18978726,0.09042967,0.14606544,-0.19247928,-0.32433854,0.36378875,-0.40366155,-0.15970540,0.21338793,0.43360308,-0.11404939,0.38946101,0.44389448,0.10168445,-0.08900017,0.33682179,0.41879866,-0.06425492,0.05093389,0.41195081,-0.03246128,-0.18746060,-0.45849391,0.38963655,-0.16958557,0.13228628,0.44725472,-0.44017757,-0.40562178,-0.34797194,-0.30919269,0.07820908,-0.20293204,0.15928210,0.04822041,-0.20053950,0.02141252,0.47729422,0.30034876,-0.17558187,0.10274832,0.09470482,-0.13169075,-0.43335516,0.38246858,-0.38931907,0.02793818,-0.19406611,0.12839838,-0.46930867,-0.23043309,-0.42538086,-0.03336888,-0.51868741,-0.03759811,0.24429454,0.46895369,0.34008650,-0.33672948,0.05195349,0.35853270,-0.22795171,-0.11259301,0.28757752,0.14984536,0.41577488,-0.37162363,0.35893804,-0.29471233,-0.22642063,0.04241931,0.44435898,0.44123174,0.13014273,-0.09609717,0.42099968,-0.37570889,0.08586236,0.09049158,-0.35577307,-0.01472089,0.41517982,0.38857581,0.23466282,-0.15229157,-0.33560354,0.13952818,-0.08618054,-0.29950605,0.36538538,-0.02024588,0.19981050,0.06261537,0.20659523,-0.28032463,-0.06594729,0.00216335,0.32267743,0.10287710,0.20095109,0.42493025,0.48223807,0.43777181,0.24829900,-0.19165979,0.46098420,0.12443584,0.14001751,0.26684831,0.43250106,0.06189523,-0.08792010,0.26046670,-0.30552726,0.09780191,0.28837758,0.35576615,0.17798118,0.39877307,-0.01488781,0.41703394,-0.04508049,-0.35237718,-0.09145525,0.19838848,0.10029508,0.34475600,-0.48055075,0.51772812,-0.05223139,0.13290034,0.32640910,0.28595961,0.07704083,-0.08347597,-0.18698908,0.22525698,-0.23660531,-0.20803610,0.45218475,0.20424430,0.37159761,-0.08432290,-0.20190120,0.17292533,-0.10694181,-0.28583619,-0.27328051,-0.25660344,-0.24901335,0.00614557,0.13497600,-0.12065742,0.19214408,-0.03087381,0.27978777,-0.00695880,0.06311577,0.18951231,-0.04676869,0.14263975,0.10655455,-0.05461333,-0.46093006,-0.06851463,-0.06909907,0.20932896,0.04829969,0.39588255,0.18814618,-0.34172195,-0.48305813,0.35516040,0.48317273,0.20213336,0.33864198,-0.48631901,-0.41734406,0.00829188,0.14331425,0.29244397,-0.27261066,0.15788341,-0.11929227,0.25743442,0.40719423,-0.13681235,-0.28890459,0.31449038,-0.12551922,0.20175622,-0.25716887,0.40352054,0.43754062,-0.52164845,0.17944484,0.09548157,0.42219008,-0.19235924,-0.06096772,-0.24315662,-0.35277500,-0.16038482,-0.17774708,-0.00774387,0.21225336,-0.35292872,-0.46305646,-0.47227030,0.47418476,-0.41485640,-0.22692760,0.16066671,0.38126169,0.15464228,0.03214154,0.02856684,0.34276441,0.21134968,0.30642066,-0.26785634,0.21573762,-0.13768100,-0.05794382,-0.48013226,-0.02435935,-0.05180787,-0.30460254,0.31409598,0.47864225,-0.36475383,0.45651661,-0.25398989,-0.22447540,-0.39957700,0.19084376,-0.39858216,-0.02480904,0.48405937,-0.31516666,-0.46787007,-0.25447463,-0.35267198,-0.40952155,0.44821132,-0.04255372,0.13478879,0.32071220,-0.41718510,0.43767525,-0.21485395,0.41309000,-0.05710417,0.38125744,0.38189725,-0.04799778,-0.48760608,0.25107326,-0.08550773,-0.29132830,-0.37910149,-0.07204515,-0.13633151,0.35322243,-0.09577683,-0.31103726,-0.35641817,0.37855344,0.37612390,-0.17164627,-0.44926194,0.40474197,-0.09267781,-0.34890341,0.00548259,-0.10234880,0.45395213,0.07408195,-0.42651011,-0.32956394,-0.32638748,-0.24588072,-0.28664232,0.48369106,0.34575713,0.29746044,-0.05377865,0.19311025,-0.22915520,0.46906554,0.12585298,0.42413194,0.31013150,0.05386250,0.05741339,-0.44147101,0.22147180,-0.42227830,-0.27737698,-0.50248166,-0.11144108,-0.04846492,-0.04513225,-0.25611460,-0.14768468,-0.48141121,0.43437998,-0.01437514,0.26810260,0.23901930,-0.42561903,0.12606949,-0.20366014,-0.39709055,-0.34552107,-0.31613605,-0.20301243,-0.38850834,0.17135769,-0.48280508,0.10944465,0.11359783,-0.49213148,-0.49402570,-0.17728472,0.10102838,0.17986433,-0.22612614,-0.27647927,0.07872158,0.22777141,0.26815004,0.34136356,-0.21838656,-0.03586145,-0.46208508,-0.01608761,0.45010402,-0.31421990,0.45852379,-0.13802068,0.41259113,0.24278685,-0.15952982,-0.05564917,-0.47536355,0.31729322,-0.18855636,0.28941523,-0.02450478,0.35958226,0.10146000,-0.23187283,0.20478976,-0.06185742,-0.23591067,0.07348293,0.23833761,0.42988668,-0.06701815,-0.28040486,0.14749787,-0.41843889,0.47918381,-0.10759381,-0.24815343,0.47868240,-0.00597490,0.14994702,-0.29297454,0.06775653,0.04659162,-0.35192052,0.41857240,0.35650052,0.15619129,0.13982492,0.27714617,-0.46007054,0.16719106,-0.47058623,-0.20224362,-0.47573027,-0.24462925,0.31466010,-0.37408905,-0.35730047,-0.23260233,0.47499069,-0.43110828,-0.41669327,0.01403604,0.25695653,0.38478489,0.09706212,-0.09424664,-0.01313416,0.06445096,-0.04845910,0.01186688,-0.00840549,0.35128870,0.11480658,-0.21736455,-0.12114787,0.44152375,-0.43490165,-0.39155393,-0.30317713,0.37208957,-0.10349389,-0.41713770,-0.41545830,0.18019952,0.36982170,-0.27665725,0.32382167,0.45744480,-0.12749673,-0.41866623,-0.23369822,-0.45358280,0.33852689,-0.46134607,-0.29965909,-0.05324034,-0.21113525,-0.35394136,0.30347692,0.32469093,-0.14248556,-0.43324150,0.05841918,0.13252026,0.18678653,0.35274768,0.33875582,-0.49410805,0.11403076,-0.11907544,-0.29315437,-0.07411316,0.08435734,-0.00059695,-0.09134448,0.29473756,-0.31009640,-0.17405272,-0.39911918,-0.47853888,-0.33546410,0.05114274,-0.16099749,-0.34788491,0.48937397,-0.16171462,-0.00388102,-0.09290614,-0.14477559,-0.34720755,0.36949601,-0.32223229,-0.17785829,-0.10622276,-0.36648669,-0.42179471,0.36476805,0.37401266,0.32409451,0.24721342,0.44374914,0.49636524,-0.32944258,-0.43359790,-0.24624246,-0.31029828,-0.45134801,-0.33968886,-0.12109801,0.17699176,-0.00180244,-0.25704737,-0.26633085,0.10187728,-0.26489904,-0.11805689,0.01870560,-0.27718868,-0.19314401,-0.29666547,-0.18694848,-0.32303444,0.14879482,0.22134880,-0.21000237,-0.28064084,0.39253863,-0.38159610,0.03351194,-0.05408289,0.23510109,-0.31534236,0.02200075,-0.38437234,0.34282845,0.39376307,-0.17300761,-0.19141631,-0.32820238,-0.08790044,-0.47502469,-0.43315491,0.20687425,-0.15186553,-0.24470367,-0.06661861,-0.18902356,-0.41542438,0.03086819,-0.29434376,-0.33636467,-0.35142231,-0.38351125,0.36930733,0.10700980,-0.36616717,0.05688567,0.10064086,-0.09340837,0.45357974,0.25362200,0.25142295,-0.13178091,-0.18329384,0.44304687,0.38480776,0.44398550,-0.29495066,0.46178540,0.38132969,-0.18197159,-0.37863156,-0.17036844,-0.28788274,0.41598010,-0.24328926,0.15344801,0.47932534,0.28502103,-0.15894314,-0.12346684,0.22188905,0.45159409,-0.36216289,-0.36271199,0.27185807,-0.18975289,-0.04673853,-0.06280060,-0.44099348,0.21604794,-0.06457658,-0.38646556,-0.05861817,-0.13299165,0.35018475,-0.29696720,-0.49967451,0.48171610,-0.46815904,-0.32002070,-0.39185375,0.01036285,0.48164534,0.48697136,0.07450539,0.13488113,0.09678136,0.29186296,-0.03759613,0.10851545,-0.16372750,0.08194948,0.10836660,-0.34329314,-0.48022623,0.43968272,-0.00959187,0.39798720,0.04871287,0.01642164,0.18694159,0.45828523,-0.47348159,-0.45593604,-0.31412697,0.04574886,-0.20422592,0.28847342,0.15996189,-0.04947673,-0.41637201,-0.38023026,0.38013910,0.13034069,0.32259492,-0.21632919,0.45449960,-0.11981048,0.32090796,-0.30359868,-0.40401151,-0.41834511,0.30834046,-0.26468617,0.36839715,0.16684579,-0.47563808,0.03024662,-0.40903039,-0.17493392,-0.27731382,-0.12034740,0.10262540,0.44606993,0.35730372,-0.27576048,-0.06593356,0.35028168,0.47099146,0.29711953,0.33222076,-0.01562171,-0.11431353,0.13795829,0.18630923,0.00109004,-0.47385350,-0.10152466,-0.15893743,-0.01627294,0.40257648,-0.07442185,0.35321206,0.14505291,0.23035617,0.21070086,-0.35581657,-0.22301514,0.45396361,0.01447622,0.12804380,0.34703581,0.40269897,0.04863791,-0.35162109,0.36826069,0.01639370,-0.42958526,-0.46566898,-0.10074517,-0.19518868,-0.08009035,-0.23016816,0.44185616,-0.46980553,0.30912989,0.12956487,-0.47086135,0.00582863,0.23927242,0.35975653,-0.50062255,0.31457642,-0.19035914,-0.23312884,-0.07015527,0.32559174,-0.22853067,-0.15506783,-0.07344179,-0.37625551,0.37805593,-0.46178844,-0.02298696,-0.42633032,0.24083786,-0.49271362,0.10158666,-0.44015634,0.35933321,0.33470196,0.06881264,-0.02027943,-0.14868764,0.02284478,0.32924901,-0.38356224,-0.12854400,0.35342398,-0.06142272,-0.36612196,-0.33866769,-0.26158243,-0.40052428,-0.39518101,-0.16440687,0.26849612,0.40081349,0.38348570,-0.14688298,-0.40529666,-0.44631856,0.08192845,-0.00538574,-0.18313236,-0.03608094,-0.23649736,-0.37339623,-0.20035281,-0.18396471,0.21808716,0.22875527,0.44582499,0.46466031,-0.16941345,0.30980207,0.42345709,0.08813956,-0.08590447,0.48516009,-0.26112724,0.34480269,0.18334215,-0.08089806,0.39955426,-0.08357295,-0.42344404,-0.28778319,0.47515643,0.36166222,-0.29882509,-0.37698891,-0.26844803,-0.47841265,-0.33305227,-0.48139986,-0.39571180,-0.05792974,-0.47423049,0.20295899,-0.21276161,0.39640338,-0.01924935,0.26096139,-0.08577862,-0.22695077,-0.01253180,-0.21474697,-0.39608230,0.18759323,0.40047685,0.33088354,0.24243208,0.25758374,0.13214849,0.33514901,0.45042356,-0.13339299,0.08440052,-0.42553122,0.41479509,-0.04053118,-0.25587646,-0.44551566,-0.28282310,-0.17574607,0.01304233,-0.36824393,-0.36982143,-0.19049286,0.16248229,0.47944315,-0.07563742,0.34258657,0.08313622,-0.34125016,0.38744745,-0.34938545,0.35329158,0.27179644,0.04712813,0.36580394,-0.15051361,0.13399646,-0.18759903,0.12269479,-0.47813073,-0.44490563,-0.37532437,0.43342561,0.04230190,0.44805534,-0.29357851,-0.04306354,-0.31436526,-0.23374686,-0.48375289,0.27162415,-0.43790316,0.45167226,0.47960459,-0.28305900,-0.23596828,0.08817879,-0.25583321,0.23765564,0.34854590,0.26897748,0.12577673,-0.48081539,0.11296286,-0.13415332,-0.26487521,-0.29704443,-0.09796291,0.28030096,0.00798802,-0.18071300,-0.40306044,-0.05881800,-0.00466630,-0.41439455,-0.36113580,0.41306306,-0.11784345,-0.00181709,0.19092421,-0.31196513,0.02889486,-0.28040607,-0.31976036,0.07426137,0.24036956,-0.44624641,-0.46981689,0.36721028,0.28220549,-0.44515001,0.07128431,0.21486498,0.25452527,-0.21032382,0.30509595,-0.22693251,-0.15672647,-0.37511932,-0.17212927,0.48684228,0.07476303,-0.43170691,-0.43195676,0.03247069,-0.42839880,-0.02058781,0.20461678,-0.09148254,-0.13382533,0.04512294,-0.34115878,-0.22342574,-0.03512627,0.05545804,0.14517944,-0.26121610,-0.35846532,0.47944086,0.06096701,-0.32388580,0.02527828,-0.28590146,0.08652101,-0.21315347,0.26762296,0.27135615,0.38113131,-0.12735481,0.47811733,0.20218289,-0.02412504,-0.18473835,0.48274006,-0.49718309,0.20560089,0.04048543,0.47268220,0.17286959,-0.22804607,-0.47505011,0.49658898,-0.00570803,-0.39734335,-0.43898802,0.29274209,0.15774455,-0.07106006,0.04529795,0.42262923,0.15339903,0.26624218,0.45077029,0.50626182,0.15140505,0.01562609,-0.23028070,0.02120942,-0.46701974,0.20843933,-0.37726093,-0.31647105,-0.18656743,-0.38682148,0.22945634,-0.27557152,-0.00604313,0.20858054,-0.05952830,0.44099117,-0.39183228,-0.03868199,-0.05183629,0.20906215,0.40586830,0.22311866,-0.39650865,0.18521652,-0.10865478,-0.42644344,-0.40150958,0.34569158,0.15570724,-0.12171031,0.10334698,0.23221505,-0.36984335,-0.27087450,0.30772270,0.05758160,-0.16654769,0.30347702,-0.06912680,0.43221559,0.04646505,-0.35049807,-0.38215706,-0.05880861,-0.39026281,0.12521507,-0.16434916,-0.46451415,-0.18347511,-0.41735257,-0.46363824,0.10856908,0.36626395,0.18526818,-0.49077642,0.21823242,0.17014849,-0.42233409,-0.16293009,-0.15091247,-0.16879487,-0.45988301,-0.22699344,-0.13532571,0.21144700,0.46507106,0.46901502,-0.46698734,0.43879850,-0.27531382,0.20091829,-0.36550357,0.02046967,-0.41169537,-0.46139933,0.02381041,0.39240263,-0.38019118,-0.49068495,-0.18521923,-0.47498120,-0.12375068,-0.47348536,0.19910129,0.22594808,-0.27572914,0.24592005,0.40996096,0.19727969,-0.22139809,-0.42173143,0.26859413,-0.19225026,0.48418679,-0.26060903,0.47979410,-0.19146103,-0.15999844,-0.27138545,0.24706675,0.00743453,-0.03136828,-0.06154032,-0.37948965,-0.24020060,-0.22695289,0.41525625,-0.16869630,-0.39620808,0.44957042,0.15131387,0.47691284,0.34282092,-0.34340117,0.26852961,-0.33751137,0.02461359,0.12799000,0.41410960,-0.02803344,-0.48666288,0.49334460,-0.39224235,-0.16821327,0.10512001,0.37705887,-0.20206979,0.47133058,0.02265951,-0.29911477,0.14855976,-0.30257776,0.44158105,0.49741747,-0.04758204,0.16545179,-0.15513204,-0.19223876,-0.12723024,-0.19623248,-0.09643120,-0.49926845,-0.40075961,0.06540833,0.07609364,0.14063400,-0.22696580,-0.23243408,0.20237564,0.05853879,-0.45906824,0.44727342,0.49372260,-0.01122624,-0.36387039,-0.44880576,-0.31139263,0.39649579,-0.07110733,-0.37986276,0.00150656,-0.24972959,0.47643628,-0.42053967,0.36820432,-0.34207010,-0.40866030,0.05558020,0.23289714,0.04707566,0.46433312,0.20430946,-0.20595408,-0.31523457,0.07292671,-0.00676527,-0.20114380,-0.45317004,0.25843622,0.26931817,0.29324642,-0.28799573,-0.05818842,0.41852688,-0.38187854,0.06334279,-0.05348359,-0.48268530,-0.40087384,0.40279424,0.38488787,-0.22258713,0.15758158,-0.09623778,0.30461402,0.05322584,-0.01524819,0.10831149,0.05719845,-0.28323180,0.09472629,-0.27155367,-0.07571750,0.10000008,-0.25391911,-0.07994808,-0.17645114,-0.13088048,0.17968773,0.39984301,-0.01832174,0.11182534,0.43229028,0.20432696,-0.26002299,0.35462958,-0.40750944,-0.37405178,0.18988740,0.23635893,-0.15708201,0.45557563,0.48121236,-0.40010374,-0.21067327,-0.48815761,-0.43342546,-0.48346719,-0.45580299,-0.01191659,-0.19644834,-0.39269226,0.28955783,-0.41677293,0.04430341,0.35887464,0.39561118,0.02640814,-0.47239651,0.49639574,0.10371435,-0.17013082,-0.22331632,-0.08490066,0.02233033,0.26128380,0.36063307,-0.03884175,0.02091518,0.44108445,0.29677640,-0.11137638,0.04140062,-0.26479833,0.21960854,-0.14266617,0.19825582,0.41342384,-0.17439994,0.05615827,0.32080291,0.39495980,0.05715690,0.37385238,0.16313748,0.19976364,-0.27190022,0.45423266,0.49551172,-0.06468220,-0.01396943,-0.39835346,0.47528088,0.45908447,-0.29645824,0.49361748,-0.03258330,0.28800692,-0.31123678,-0.44701590,-0.06809966,-0.48185366,-0.01952909,-0.38626287,0.47107583,-0.49274360,0.16286783,0.20691446,-0.30022620,0.41273115,-0.18697452,0.20369183,-0.19075351,0.36779584,-0.10349637,0.27710247,0.08641682,-0.22223800,0.21401569,0.24119749,-0.11540199,0.32563352,0.29911512,0.18467565,-0.12891664,0.00061855,0.17839427,0.38119073,0.36741923,-0.38307206,-0.40642818,-0.07178470,-0.03571334,0.43249630,0.15990737,-0.32296012,0.46841097,-0.37972047,0.04090898,0.33602667,-0.08975222,-0.28801881,-0.25557008,0.28637472,0.38416181,0.36772519,-0.09088259,-0.36680880,0.21088606,0.16130990,0.33951385,0.13272223,-0.35878545,0.09353334,-0.12975621,0.39376236,0.06931433,0.45478631,0.06494849,0.28014305,-0.06816010,0.08788981,0.16999358,0.38288235,0.41869764,-0.41863878,-0.12975688,0.24421274,-0.42889548,-0.12905832,0.45164664,0.10372874,0.02813728,-0.24459657,-0.36543887,-0.32414007,-0.07608754,-0.21882821,-0.17973589,-0.01527513,-0.42820385,0.21166504,-0.39602200,0.03205756,0.20215418,0.15393516,0.01608989,0.26034179,-0.30669884,-0.30617906,-0.27044400,0.18419804,-0.21768498,0.49658928,-0.21380557,-0.05622980,0.16270741,-0.27082753,0.05794182,-0.23551631,0.12276467,-0.49002306,-0.25602152,0.25164482,-0.43309471,0.18972024,-0.16604431,0.21354308,0.05510059,0.23094436,-0.47762920,-0.38768188,0.46470779,0.11610115,0.10352018,0.31125284,-0.16695171,-0.18257163,-0.33934236,-0.49442761,-0.22658614,0.14435894,0.22510916,-0.31558649,0.42957995,-0.32511879,-0.21372759,-0.03050732,0.25069078,-0.20951187,0.16569982,-0.34067528,0.12437456,-0.49908243,-0.00599233,-0.31064701,0.29298033,-0.26112964,0.41869144,-0.41258865,0.07619108,0.27407844,-0.49845900,0.16598965,0.16291417,-0.37740765,-0.03513831,0.18668625,0.04478987,-0.00167181,-0.12448816,-0.14027952,0.27075613,-0.04487875,-0.06038586,-0.40625109,0.21083918,-0.44563373,-0.01617149,-0.01394864,-0.48304955,0.40512487,0.49008803,-0.01898555,0.27655649,-0.12534225,-0.42081172,-0.35048883,-0.00802201,-0.02347897,0.08406728,0.31832922,-0.04074743,0.23744589,0.44378626,0.24348010,-0.12270455,0.37546067,0.15491339,0.20644924,0.42808753,0.17859657,-0.43621879,-0.10250626,-0.46767667,-0.08088933,-0.23694484,0.40326165,-0.15848191,0.15519130,-0.26350432,0.14300737,0.25674976,-0.21188030,0.13191972,-0.08963673,0.37680068,0.24868698,-0.05628371,0.23171057,0.48177587,0.39472976,0.39536849,-0.21177300,0.17433795,0.48155741,0.21891964,0.37163012,0.07887526,-0.35281418,-0.33840104,0.43601219,0.15723574,-0.17606508,0.01855961,-0.31054912,0.07249247,0.39283672,0.09466626,-0.30293602,0.43709539,-0.16392561,0.15393128,0.39410557,-0.39012340,-0.31298335,-0.18339320,0.09942939,-0.35729116,0.01686871,-0.37216899,-0.49250390,-0.24729477,-0.21283074,-0.30911888,-0.16183024,0.43322793,0.15118921,0.17522968,0.02206497,0.15461519,-0.14837091,-0.27511505,-0.37009362,0.04746957,0.34885640,0.32243303,-0.21484734,-0.22417430,-0.26800796,-0.26500939,-0.01024181,0.45463380,0.00661857,-0.00246235,0.40392322,0.16344804,-0.40746725,-0.26794177,0.18718728,-0.18302947,0.07929788,0.31218754,0.02617491,-0.19619211,0.44831211,-0.33556866,0.09613462,-0.32987378,-0.02870528,0.30622301,0.46678952,-0.26822868,0.37103876,-0.02541369,-0.22925294,0.50181032,-0.06429238,0.27550174,-0.29850256,0.07566871,-0.34496009,-0.28459649,-0.34197904,0.26519300,-0.21789394,-0.41560523,0.03235253,0.20873660,-0.25498583,0.01459126,-0.40966828,0.05422124,0.46661044,-0.31948966,-0.29931632,0.13176587,0.33401814,0.15737804,-0.11488400,-0.40675734,-0.22647895,0.35569063,-0.06913058,-0.03335028,-0.45851983,0.07559591,-0.19170287,0.05681280,-0.07624010,-0.19194681,-0.23000901,-0.08071008,-0.34220836,-0.42598646,-0.17275738,0.39774355,0.30163316,-0.17974875,0.43309914,0.17731886,0.43944035,0.21411909,0.49884486,-0.28033078,0.03554778,0.00300311,-0.01782942,0.42491507,0.00999583,0.30955686,-0.15241333,0.44361545,-0.06927985,0.21511346,-0.45042386,0.39054246,0.48086583,0.40957536,0.01894839,-0.18615337,-0.44611065,-0.12505855,0.33085134,0.13968436,0.39964416,-0.17201826,0.14930799,0.22667830,0.36762582,-0.25434292,0.25354577,0.46055879,-0.44582269,-0.45835420,-0.04609842,-0.09448713,0.17496423,-0.11867961,0.06234655,0.48372036,0.22840933,0.46141014,-0.22918273,0.06344117,0.04344273,0.11751634,0.20565680,0.45047364,0.14698915,0.02718677,0.13391522,-0.25470927,-0.44090902,0.14808503,0.22623130,-0.11956677,0.36757237,0.35692569,-0.27817339,-0.08587291,-0.43380709,0.28792340,-0.23590352,-0.09291712,-0.12227988,0.25024194,0.33545695,-0.00465720,0.12867633,0.25577620,0.02807410,-0.29763796,-0.35338154,0.25843396,-0.35386220,0.13004794,-0.03337788,0.49551961,0.05296964,0.28436626,0.49721787,0.08797128,0.45726950,-0.44852940,0.31064023,0.26313867,0.01814841,-0.23565518,-0.33846714,0.05207537,-0.13772421,0.33070169,0.33195525,0.14676201,-0.46061372,-0.06429270,-0.20078589,0.06576035,-0.20610295,0.26901562,0.49697392,-0.41005839,0.14580177,0.31489319,-0.16957540,-0.08181187,-0.42464365,0.26938900,-0.17857729,0.00368899,-0.35021822,0.31899663,-0.18828106,-0.21663987,0.11032255,-0.31131753,0.23778520,-0.13239657,0.04127148,-0.42863993,-0.11128438,0.28068099,0.05192019,-0.09704641,0.45298860,-0.07046276,0.47396265,-0.42064240,0.31220458,-0.26449802,0.22900919,0.27462935,0.38279252,-0.27168309,-0.37062757,-0.12655387,-0.12062410,-0.03941096,0.48527574,0.34367714,-0.03348670,-0.28443864,0.06116039,-0.17638925,0.49012258,0.35206276,0.34328820,0.35198238,0.11147260,0.43030641,-0.46371238,0.10192094,0.37172467,0.09862975,-0.42057409,0.22778847,0.42132286,0.10910966,0.33008756,-0.18144953,0.29569781,-0.36372148,-0.13277030,0.13435917,0.47874219,0.46813890,-0.04405542,0.35334933,0.47167344,-0.42366298,-0.31754033,-0.07107904,-0.00040942,0.39621293,-0.05923098,-0.19026564,-0.36938154,-0.11044487,0.38032706,0.18762059,0.04257716,0.45735881,-0.16587978,0.36813446,-0.38955250,-0.43865052,-0.07758768,0.33969635,-0.11918970,0.13149228,0.24085952,0.22245271,0.30009482,0.17748759,-0.47013511,0.32635189,-0.11207012,0.33022755,-0.49546118,-0.25634362,-0.37822299,0.39809322,-0.13545712,-0.04241119,0.39222693,-0.44181584,0.22241674,-0.38382945,-0.06141744,-0.07230838,-0.00581346,0.20939693,-0.00772483,-0.10059682,0.32067204,-0.08799769,-0.12636800,0.11746674,-0.29575859,-0.44125124,-0.19877155,0.00706922,0.21163507,-0.18119556,0.15544575,0.19241884,-0.27135496,0.25154662,0.22750615,-0.42164734,0.11574624,0.18968312,-0.17653928,-0.07306265,0.12298382,0.14546699,0.34562353,-0.20575780,-0.43382251,-0.13378037,0.11578331,0.15349117,0.17344731,0.36999607,-0.21224180,0.35789035,-0.26009650,0.10131304,0.20324464,0.20980893,0.39240849,-0.09753950,0.02461246,-0.10762716,0.33569726,-0.48661788,0.16755647,-0.15961355,0.42677097,-0.39933838,-0.02831041,-0.09352756,-0.15842056,-0.42973102,-0.03626224,0.14283814,-0.42602780,-0.38811608,-0.29595581,0.22415845,-0.26467262,-0.07462731,-0.17146766,0.32497051,0.10895658,-0.30552998,0.02236541,-0.48539443,0.08381547,0.35975377,0.12959681,-0.29415268,0.38931958,0.29505729,-0.14038747,-0.39926168,-0.43426422,0.43819961,0.06689847,-0.13627402,-0.17126173,-0.06653744,-0.00622485,-0.05870042,-0.10435276,0.37814494,-0.00807319,0.17062087,-0.49522567,0.30832081,0.32346001,0.45218945,-0.02806129,-0.47953013,-0.45584217,-0.18312060,0.21658599,0.40575315,0.49733239,0.36853685,0.05456389,0.29544190,-0.11748563,-0.37933136,-0.21428151,0.19714156,0.12312779,-0.19589178,0.17532537,-0.31036494,-0.32659493,0.35329319,0.44300797,0.44317622,0.25055362,0.07518342,-0.43109943,0.06684818,0.11100244,-0.06265965,0.35586238,0.13357023,-0.25578020,0.03852294,-0.07177088,-0.15481096,-0.28006623,-0.08909034,-0.35905784,-0.10580216,0.49813044,-0.10503939,0.40040704,-0.00306534,-0.03845453,0.42741362,0.30789560,0.35473725,-0.05557878,0.29523603,-0.37776645,-0.36691591,0.49642676,-0.05411891,0.31439413,0.43083435,-0.06993631,0.07105914,-0.02953321,0.49119746,0.39510294,0.31183198,-0.09893058,0.21345158,0.08424617,0.16737134,-0.27301002,-0.32942752,-0.27208028,0.24326836,-0.44674396,-0.10328831,0.33661740,0.48158588,-0.32470855,0.28645081,-0.39043807,-0.08270692,-0.27295164,0.10927571,-0.42261508,0.03761427,0.12872748,-0.47524211,0.08746832,-0.21338015,0.13786456,0.28589294,0.11431688,0.31742903,-0.43296343,0.17324986,-0.14193203,0.35457738,-0.24872248,-0.20054706,-0.35193819,-0.27989366,-0.25391841,0.00107402,-0.46349714,0.02481273,-0.01009164,-0.23849512,-0.36404777,0.50169232,-0.15581304,-0.40873454,0.35498261,0.25482836,0.42703210,0.07694695,0.36555332,-0.08894577,0.28717664,-0.45461740,0.29554666,-0.38945715,0.07132088,0.45763009,-0.05293117,0.41891363,0.25934724,0.18418437,0.28548019,-0.44113481,-0.22753324,-0.37108414,-0.22730539,0.24891398,0.06426319,0.18655773,-0.44242812,-0.00947901,-0.44021549,-0.22109550,0.19274033,-0.31890260,-0.30727971,-0.37939833,-0.38385979,-0.42768599,-0.05372898,0.47922963,-0.36041418,0.24703622,-0.48445434,0.14032032,0.11521631,-0.30924066,-0.16071079,0.43636120,0.14097739,-0.49342909,-0.30501534,-0.46723638,0.20309183,-0.34634575,-0.19294197,0.10412919,0.32754031,-0.17372192,0.27539617,-0.48883151,-0.31635998,-0.04182863,-0.09050229,-0.01994548,0.11218035,-0.34549505,-0.13933837,-0.43722465,0.22398948,-0.46105840,-0.41192232,-0.41106806,-0.11710570,0.32788947,0.33233623,-0.12008053,-0.19158949,-0.27459748,-0.11096669,-0.38593175,-0.38053154,-0.24303188,-0.13242597,-0.09006245,0.31090702,0.02265301,-0.48135056,0.39012383,-0.24639685,-0.09836393,0.21112176,-0.10593146,-0.23895787,-0.05613433,0.30022506,-0.25065163,0.33406579,-0.21623951,-0.02198692,0.03554410,0.10890990,-0.25522051,-0.48226085,0.28891431,-0.10931685,-0.12444331,-0.35987152,0.44836189,-0.27643794,-0.42632900,-0.04688257,-0.33732525,0.27751601,0.32390542,-0.44811923,-0.32205075,0.08812290,-0.36948332,-0.00013750,-0.01365883,0.45487456,-0.15945024,0.24362643,-0.19749042,-0.19575177,0.27063038,0.24095717,-0.02245653,0.46242270,-0.24927791,0.28505973,-0.20938592,-0.28782828,0.36270143,0.45221320,0.31220632,0.15665199,0.02659299,0.41771176,-0.43160365,-0.37039332,-0.36799827,0.39587056,0.09030682,-0.39631225,-0.46949514,-0.16801991,0.06613645,0.31055352,-0.47130956,0.31078060,0.17599274,0.09898479,0.30427592,-0.37946359,-0.03708960,-0.37905573,-0.24996999,-0.41670979,0.13395763,0.10573160,0.25085688,0.31794063,0.30071186,-0.20822469,0.04010413,0.25530257,0.07634243,0.27631812,-0.05054811,0.04373048,0.24230299,-0.26578384,0.24235818,-0.28918507,-0.40844090,0.02399074,0.14044346,0.36241514,-0.49176508,0.45864949,0.03619555,0.10857702,-0.49605888,0.32030206,-0.21007271,-0.28315860,0.29766270,-0.12054329,0.49408102,-0.22434989,0.32069422,-0.07098998,-0.24229921,-0.03355757,0.47390791,-0.08786561,-0.18569266,-0.39788609,0.15042589,0.10270568,0.02951365,0.43422093,0.02095706,-0.43009121,-0.48339135,-0.05428200,0.42030628,0.14321297,0.41755493,-0.29506392,-0.40424353,0.46743591,0.34986696,-0.40354452,-0.19148835,-0.25916154,0.10592885,-0.05606265,-0.04107994,0.28775911,0.06272738,0.33284952,0.00172237,-0.46375797,-0.31723072,-0.40256203,0.43706922,-0.28793982,0.12900450,0.25731398,0.30582171,0.22965024,-0.01303735,-0.20890566,0.37640725,-0.34086813,-0.37459125,0.13569655,-0.20066672,-0.37137103,0.40428561,0.49805333,-0.33262045,0.22734137,0.49141096,-0.23676406,0.33603433,-0.43977065,-0.06732506,0.30977567,0.48649943,-0.48738971,-0.13384067,-0.21381773,0.05040690,0.03721665,0.03863853,-0.22838007,0.21065867,-0.27279225,-0.43208122,-0.40474094,0.35762411,-0.24540054,-0.20401561,-0.27078600,0.21440095,-0.47713412,-0.29403233,0.19299553,-0.20557068,0.44549398,0.35628721,0.06077209,-0.01480762,0.45143151,-0.33312235,-0.37020826,0.27144822,-0.43348215,-0.37194183,-0.00948538,0.34798422,0.29938689,-0.16909437,-0.08615116,0.35300995,0.23407123,0.04701885,0.35998482,0.19949235,0.35174342,-0.32817829,0.42713608,-0.02148826,-0.01815798,-0.19291889,-0.03245651,0.43584473,0.35267320,-0.02858035,0.35418509,-0.31843038,-0.00939629,-0.45865307,0.45223994,-0.46263521,0.33375156,-0.28024056,-0.07285502,-0.27489689,-0.12118882,-0.00337981,-0.02516512,0.19688671,0.07492403,0.37639585,0.31598570,0.05340613,-0.13280224,0.41477011,0.20872798,-0.06456851,0.18697622,-0.14900680,0.28386972,-0.22223639,-0.42777624,-0.10857059,-0.11946890,0.27005732,-0.00613876,-0.24594304,-0.48806169,-0.19133371,-0.47785529,-0.10923533,-0.04999332,0.03338686,-0.06967904,-0.00057906,0.07110917,-0.32028559,-0.09953794,-0.33987115,0.29246557,-0.07779742,0.40438862,-0.44961494,-0.07661995,0.28951398,0.32194964,-0.00814080,-0.20167479,0.11589186,-0.30480702,0.18346548,0.34451807,0.29935506,0.17487421,0.45895348,-0.37866890,-0.17438395,-0.29328940,0.33349665,-0.16678593,-0.11430699,0.24691525,0.35308490,-0.25761155,0.38559524,-0.07014767,0.30739118,-0.01502450,-0.13202275,-0.35812301,0.08608639,0.36087723,0.40709098,-0.14401098,-0.28706920,0.38974661,0.20503696,0.12736751,0.32572234,0.39843785,-0.34462745,0.21533613,-0.01880783,-0.22818327,-0.34642312,0.48082455,0.26540834,-0.29786293,0.48536567,0.10803895,0.38003226,0.42354932,0.08977216,-0.26694761,0.16084005,-0.13149385,-0.14555729,0.26976142,-0.08475070,-0.08325696,-0.43967696,-0.33526348,-0.20987659,0.36248980,-0.11551113,0.35902702,-0.32235308,0.36521477,0.34208670,0.46655852,-0.15165981,-0.43610193,0.35242438,-0.18211409,0.48535732,0.05464446,0.23637009,0.32501711,-0.33672545,0.06645857,-0.49289112,-0.51275323,0.44831923,0.19102073,-0.26264885,0.11253597,0.22523099,0.11216513,0.16785761,0.14262947,0.32215153,-0.02944815,0.13506078,-0.41773216,-0.41444717,0.01512230,-0.37515550,0.28455461,-0.20195915,0.38009616,-0.26078112,-0.42575718,0.37672723,-0.24104942,0.06035456,0.28388758,0.04531174,0.25006048,0.11618038,0.01787439,0.30375374,0.00213294,-0.37028219,-0.25288354,-0.40239559,-0.07656745,-0.42287593,-0.32267721,0.49735973,-0.44613281,-0.34810479,-0.28665969,0.10722133,0.48283759,-0.10061164,-0.13444697,0.44384140,-0.35088466,0.04794428,0.04021710,0.01859820,-0.27752808,-0.39075097,0.37341821,-0.06066376,0.26435117,-0.50403334,0.21023396,0.19324659,-0.30912468,0.20857256,-0.04691393,0.13514323,0.35236401,-0.47236044,-0.10974920,0.34615058,0.02105890,-0.26224487,0.49536025,0.33348694,-0.35930393,-0.16318985,0.36047832,0.47572542,0.24677863,-0.18149800,0.35221378,0.01272397,-0.38249142,-0.20924752,-0.06495433,0.28678760,0.14582326,-0.17239105,-0.52202140,-0.19699931,0.33654043,0.28453166,0.36373736,-0.03033868,0.40083984,-0.21673158,0.26476950,0.04557223,0.13842139,0.02907349,-0.26136821,-0.29169779,-0.40854764,-0.16409395,0.33170618,0.04695769,0.40033580,-0.34240321,0.30363489,-0.05693116,-0.42740482,0.07849400,-0.41079443,-0.12950836,0.45687371,0.13586459,0.03194886,-0.06078641,0.37865546,-0.49186795,0.00787920,-0.14536667,0.42001432,-0.25136604,0.30360567,0.00509657,0.12200956,-0.32609322,-0.11119564,-0.34675180,-0.46823164,0.44495095,0.32192755,-0.05485336,-0.25505941,0.08100607,-0.25118374,0.36078946,0.02069140,-0.47084108,-0.47417374,-0.44661709,-0.49557198,-0.22798937,0.16244755,-0.21075696,-0.36896529,0.17758722,0.07327424,0.34161536,0.33092440,-0.00677154,0.01998851,0.00116251,0.05508869,-0.45424787,0.13208771,-0.34108212,-0.44002283,0.27332095,-0.02281305,0.44638598,0.47473667,0.15952854,0.14186661,-0.31362280,0.39307908,0.18517088,-0.10206393,-0.40225613,-0.38207176,0.13007160,-0.09577800,-0.43123731,-0.22171882,-0.38016190,0.49640159,-0.06401273,-0.30977184,-0.27723062,-0.21359420,0.39594763,0.01158505,-0.13174133,-0.21128586,0.08227210,-0.31270432,0.09736230,-0.01059788,-0.36419654,0.09932474,-0.14284086,-0.04665754,0.10855906,0.13258800,0.34664538,-0.18722147,0.00393573,0.13054472,-0.45681156,0.16002429,0.47129827,-0.03985178,-0.35042227,-0.46343348,-0.17447496,-0.33573335,0.29612347,0.00887933,0.11422857,0.07832124,-0.48160944,-0.30297675,0.22744461,-0.09553205,-0.12647808,0.07807632,-0.45425214,0.09820497,-0.43301510,-0.33723376,0.18900354,-0.45719474,0.18526683,-0.36418205,0.28989648,-0.18386188,0.15145370,0.29487995,-0.38014998,0.43378183,0.02931400,-0.33725337,-0.35110456,-0.21496243,-0.13879503,-0.32467888,0.05923447,-0.25163482,-0.18179195,-0.27484445,-0.05131526,0.06311942,-0.37528008,0.02306754,-0.12787181,-0.06946638,0.32473452,-0.46458514,-0.47510442,0.19437993,0.13260120,-0.32318967,0.37450694,0.39187667,0.39644398,0.39742725,-0.43427997,0.35361436,-0.02441872,-0.35456250,0.49109730,-0.21305359,-0.21158619,-0.17477394,-0.03024059,0.03502458,-0.09390296,0.35194870,-0.15534692,-0.19476029,0.22612118,-0.38079323,0.39209077,-0.11635235,-0.00045538,-0.17004092,0.40828715,-0.47835036,0.35495305,0.38573151,0.19174706,0.10570743,0.06184355,-0.26072114,-0.18578123,-0.19854774,0.47178414,-0.22264966,0.06607673,0.07467235,-0.38101011,-0.44734938,-0.01225543,-0.07366498,0.29334649,0.35355414,0.45564187,-0.07626821,0.30931939,-0.01572483,0.16151322,0.28123257,0.11154731,0.36358288,0.35874370,-0.43828752,0.35726368,-0.35021442,0.32423064,0.27624756,0.18253754,0.31358732,0.24580806,0.03015411,-0.49299316,0.13413206,0.17325003,0.28236007,0.36618585,-0.09733471,0.21536816,-0.37228070,0.09097285,0.43171398,-0.11113026,0.06703356,0.42555704,0.19937911,-0.01527763,0.49839935,-0.03801045,0.06713454,-0.24364302,0.11138585,0.05687552,0.22540044,0.10128955,0.37264667,0.44070835,-0.28458917,-0.12393910,-0.27507528,0.32064722,-0.26010963,0.18243088,0.00970728,-0.19617367,0.09900530,-0.14077697,0.39936476,0.42701890,0.17674414,-0.00966381,0.24409269,-0.24396061,0.34039915,0.38030670,-0.12987429,0.34698084,0.48273899,-0.07833152,-0.35437537,0.00560661,0.05196783,-0.05193483,-0.02426894,-0.44910828,-0.28470335,-0.18920359,-0.23487084,0.03545751,-0.34155709,0.02466769,0.14655759,-0.26739804,-0.38287366,-0.09058098,-0.48721675,-0.49086515,-0.17842710,-0.18026851,0.29831348,0.46925117,0.00582611,-0.29228579,0.15342618,-0.32654474,0.35202012,0.29498238,0.18136854,-0.33890913,-0.46586919,0.23591040,-0.02876741,-0.21807622,0.05144272,0.03617297,0.19253630,0.30831734,0.29191505,0.45155666,-0.42077285,0.15638664,-0.12105585,-0.15013424,0.31905096,0.36377882,0.14775720,-0.24521296,0.31422765,-0.40044726,-0.49052635,-0.47644813,0.29100040,0.03823268,-0.14138326,0.28925965,-0.34837976,0.14489362,-0.11250417,-0.39256056,-0.29718470,-0.21456458,-0.15354501,0.37463527,-0.37946979,-0.21036383,-0.12851939,-0.49590843,-0.06229218,-0.12836332,-0.02018503,-0.32055529,0.14056766,0.29915127,0.24277307,0.16060570,0.12221511,-0.30737362,-0.17001062,-0.35669038,-0.12637476,0.12293800,-0.10227374,-0.40186010,0.27297608,0.21988744,-0.30193085,-0.19378719,-0.28641258,-0.09406392,0.41543006,-0.33942102,-0.09932567,-0.19345796,0.28582926,0.08492268,0.21735979,-0.48839100,0.15274129,0.25270145,-0.19047776,-0.12810477,0.42214123,-0.37991712,0.43065230,-0.24716458,0.32140618,0.08768715,-0.28219980,-0.30960683,-0.46624291,-0.24940975,-0.23925826,-0.44445791,0.49407867,-0.32147570,-0.13317440,-0.08683210,0.31381638,0.35569235,0.18263955,0.12676235,0.05972674,0.43181077,-0.08514646,0.10309788,-0.08987041,0.05239495,-0.47796683,0.16931330,-0.43167033,0.45012830,0.27936938,0.18626677,0.25939709,0.24148215,-0.04071432,-0.44348089,0.40428552,-0.34931158,-0.14502949,-0.41010848,0.29795535,-0.36039539,0.17293352,0.39402986,0.35468388,0.17091907,0.23396108,-0.08471064,-0.45556748,0.05841311,0.18491005,0.18184229,-0.42136441,0.07727953,0.10884167,-0.22455894,0.05605239,-0.18437151,-0.11834229,-0.05933709,-0.31461702,-0.08405481,0.07303728,-0.49247386,0.16626046,-0.32488761,-0.32339583,-0.26843772,0.31924009,0.42349118,0.37610818,-0.19999213,0.19835663,-0.37937353,-0.09928908,0.36576690,-0.49806817,0.21882895,0.43499226,0.06545595,-0.42820659,0.18039034,0.08682512,0.34383258,0.04664548,0.13386979,-0.49932997,0.17892829,0.10284308,-0.33233667,0.37132321,-0.16425417,0.12534347,-0.22594174,0.36033040,-0.11176281,0.33383476,-0.26960472,-0.24505505,-0.48328520,0.03380554,-0.26206029,-0.31832928,-0.18853407,0.47293519,0.30373330,-0.24607954,0.25475292,0.04181560,0.35650567,0.47816398,-0.02771926,-0.08273947,0.21034557,-0.09380886,0.37465935,0.49813424,-0.30137787,-0.20595940,0.18427740,-0.07846273,-0.31023490,-0.29014461,0.45432633,-0.23395371,0.43370667,-0.19720111,0.10581780,0.35007164,0.19540848,-0.18043333,-0.38289465,0.05781036,0.14911369,-0.06849604,0.11755137,-0.25118700,0.28544185,0.40043264,0.12293903,-0.29164678,0.00914557,-0.32217272,-0.03042774,-0.14652309,-0.23761970,0.40210002,0.21575790,0.24334704,0.35494017,-0.01212896,0.05480744,0.15005343,0.36004741,-0.12614064,-0.39557665,-0.44036928,0.42655849,0.28643324,-0.12214142,0.23229218,0.25189630,-0.21942507,0.13293936,0.33316333,0.42732559,0.34126473,0.47525069,0.48245130,-0.16919630,0.35686668,-0.46852677,0.38641437,0.19524872,-0.11719431,0.37176845,0.27109576,0.13532890,0.14379327,0.16297904,0.08383027,0.24036509,0.25306412,0.03370500,-0.30497208,-0.43370211,-0.47462587,-0.02521585,-0.45758853,-0.10672826,0.10738761,-0.10442784,-0.25550284,0.23957635,-0.06825598,-0.25151782,-0.38968821,-0.41895867,-0.16845185,-0.20956111,0.36095477,-0.43073946,-0.29917866,-0.32424117,0.24003225,-0.19922115,-0.31883965,0.40514130,0.02550357,-0.15665929,0.08910441,0.01709857,-0.08784971,0.49119825,0.46406441,-0.03245371,-0.01589871,0.07756473,-0.06938025,-0.07082211,-0.34922000,0.16143258,-0.30537532,0.27362360,0.30705374,-0.48808353,-0.28323090,0.49941446,0.32530976,-0.27330180,-0.33029319,-0.40299814,0.26536765,0.05685959,-0.38577421,0.20973306,0.03458045,-0.18602668,-0.29833969,-0.27638830,-0.13353668,0.24329880,0.18965159,0.13128005,0.27561654,0.14524831,-0.35954935,-0.21714797,-0.43254791,-0.32227772,0.23493309,-0.46212439,-0.39257982,-0.39775114,0.36738774,0.13851010,0.30778213,0.41568072,-0.21643994,0.13291307,0.46112669,-0.42008351,-0.18018086,-0.35308369,-0.22455655,0.18959086,0.30395550,0.23316966,-0.15219197,-0.26561235,0.39529261,0.42847563,-0.02253187,0.19070899,0.30156234,0.10265622,-0.46580392,-0.13904716,-0.36370719,0.44160636,-0.05847150,0.20618240,0.43641968,0.43086434,-0.16233019,0.44303379,0.09632829,-0.35724944,0.25676932,-0.02239706,-0.27731773,0.30159738,0.04306693,0.11524744,0.34343623,0.33166730,-0.25350674,0.15350273,-0.24550466,0.22753457,-0.09850066,0.36489156,0.18218445,0.41987135,-0.08208546,-0.30579437,0.39754422,0.38163756,0.09290723,0.23309027,0.38229320,0.18682744,-0.01533182,0.04970477,-0.42983284,-0.45882099,0.18179666,0.17361506,-0.46080196,0.39249749,-0.51717594,0.21601100,-0.49019738,-0.26815737,0.12218459,-0.18526793,0.43467285,0.29171533,-0.01676133,0.37586132,0.36669319,-0.42602618,0.25014361,-0.26422204,0.37728974,0.06947162,0.22180058,-0.18172179,0.17909013,-0.38437221,-0.18094531,-0.32826077,-0.17395243,-0.14270088,0.25220157,0.14162795,-0.23037506,0.21140682,0.11154849,0.24515073,-0.28584427,-0.34964391,0.24428443,0.46303025,-0.07293567,-0.01123744,0.23551262,-0.42662012,-0.34299042,-0.18712445,-0.29711135,-0.30349118,-0.11610391,0.35604530,0.18386237,-0.18118208,-0.12331064,0.18031127,0.12317499,-0.02505104,0.44849157,-0.08774265,-0.03833028,-0.40175892,0.11586977,-0.17667986,-0.10090734,-0.15298923,-0.36027562,0.03099598,-0.38688835,-0.20711565,0.34987376,-0.24297759,-0.45171684,0.35501236,0.08765125,0.09351161,0.36574290,0.20337876,0.15072304,0.03969419,0.42025365,-0.12988984,-0.19038369,-0.34048954,-0.26474527,-0.12487050,0.35012920,-0.27297035,-0.41848402,-0.42811942,-0.49673458,0.20294456,-0.41871202,0.11352631,-0.22958718,-0.34819641,0.18002363,0.29915133,0.22801247,-0.31519838,-0.32574147,-0.30411892,-0.40079268,-0.17764131,0.42608787,0.35837176,0.02875776,-0.10798901,0.26564510,-0.20548057,0.38871722,0.06263252,0.34595889,-0.48797448,0.26700726,-0.16418666,-0.21096765,0.33777424,-0.49220137,-0.14632793,0.04883371,0.36332408,0.51920752,-0.16310608,0.36502748,-0.07336946,0.34082681,0.37203126,0.42728294,-0.16740656,0.13684485,0.29699282,-0.28585680,-0.48685091,-0.27168275,0.20541599,-0.13550375,0.37093091,0.11685164,-0.42371105,0.38694678,-0.14337309,-0.47799511,0.15387858,-0.49038326,-0.27653969,-0.48959875,0.35711701,-0.26565663,-0.26643597,0.13901785,-0.32189783,0.23158899,-0.44378115,-0.00066763,-0.30358140,0.16981795,0.12830763,0.10253420,0.14725401,0.40217143,-0.18058756,0.28059569,-0.20987397,-0.06618099,-0.17482491,0.44465489,0.50245692,0.39566877,-0.23183180,0.03091578,-0.41096618,0.30152084,-0.15286343,0.35271937,-0.25376093,-0.14101911,0.31577709,-0.22963066,-0.11953032,-0.25731026,0.43901859,-0.09446842,-0.27226603,-0.29917755,-0.39958639,-0.14180363,0.47439410,-0.48343955,0.39105375,0.23879839,-0.34224096,0.30833778,0.29549393,0.03622759,-0.41748474,0.35166022,0.19006550,0.28648267,0.24602367,0.31630679,0.31776261,0.42112078,-0.01685032,-0.39441947,0.33336493,-0.36151401,0.08038322,-0.05650790,-0.41813190,-0.04997539,-0.26058878,-0.19476828,0.04188504,-0.18346636,0.30482121,0.10887972,0.16480173,0.10247087,-0.00507722,-0.42567216,0.30724753,-0.07406795,-0.04383176,0.33942667,0.25465364,-0.33173670,-0.03813737,-0.23463471,0.09492449,-0.00520660,-0.33216019,0.38262545,-0.02179298,0.22674677,-0.30858561,-0.23568385,0.03166384,0.00909900,-0.04410666,0.47441898,0.10139584,0.00161095,0.04726707,0.21430498,0.38632678,0.49716677,-0.44324656,-0.23960990,0.26222228,0.47843805,-0.30470386,-0.18282906,0.02028599,-0.03859492,-0.18683037,-0.39784044,0.45136090,-0.22851046,-0.36919662,-0.31684907,0.17882920,-0.15001975,-0.48080632,0.35196561,-0.31282015,-0.30673675,0.04584078,0.38433505,-0.31483958,-0.30165308,-0.03770066,-0.27107356,-0.30674534,0.18314548,-0.15252879,0.25463891,0.47362423,0.17447866,0.04854760,-0.01990486,-0.01320460,-0.13141545,-0.07657871,0.09645418,-0.19481291,0.48043193,-0.09307225,-0.22202977,0.19033302,0.44970759,0.30879507,-0.40009390,-0.35600117,0.11281584,0.09487557,0.43993115,-0.22595970,-0.18154251,0.27561171,0.02007385,0.10561322,-0.34005901,-0.15187098,0.28165015,-0.09258956,-0.22768040,-0.36850707,-0.30701349,0.29575107,-0.39810880,0.39994972,0.47104067,-0.04894932,-0.08275764,-0.00493417,0.11806605,-0.08245150,0.41955425,0.14938596,0.33082982,-0.43632207,-0.42534921,-0.48877607,0.03257363,0.30869613,-0.33115282,-0.25000134,-0.07327032,0.37870313,0.35776012,0.25022898,-0.24768558,0.18343762,0.11448249,-0.32089724,-0.18425203,0.39197138,-0.38841834,0.13409970,-0.46414567,0.39331565,-0.43619179,0.35157389,-0.45316179,0.10093587,0.44462357,-0.13165985,0.50610682,-0.45570878,0.45909074,-0.37753342,-0.04175776,-0.21920006,-0.17820361,-0.08531280,0.38781759,0.24587860,0.41778948,0.18464883,0.38303917,-0.03838519,0.39053368,-0.31059579,-0.02035829,-0.04704018,0.08145285,0.10154141,0.27475080,0.24376831,-0.44902126,-0.29576390,-0.03495905,0.19041474,-0.11727425,0.11735653,-0.16099619,-0.33740940,-0.39763187,0.11809908,-0.29017190,-0.42706081,0.45602676,-0.27421800,-0.44040001,-0.09161949,0.30261469,0.08539840,-0.11688402,0.29736649,0.15130879,0.39100698,-0.18211869,-0.02174504,-0.06022477,0.45790969,-0.31639840,0.25661347,0.49941764,0.45352154,0.24250781,-0.10976019,0.09878525,0.40354525,-0.18930116,0.16828961,-0.28776214,0.35422616,0.25876907,-0.04928851,-0.06803559,0.27507225,-0.38589218,0.27876729,0.17739234,0.45448891,-0.47648224,-0.08187682,-0.44050419,-0.25366797,0.37577859,-0.30369456,0.00586042,-0.13782568,0.47383299,0.34366861,-0.27932178,-0.05577556,0.09525840,0.48148720,0.29292088,0.00648346,-0.14230250,0.45348338,0.49046316,-0.35156433,-0.37759899,-0.28554999,-0.16109232,0.23365866,0.26191856,0.29244363,0.47462403,-0.15434215,-0.15712768,0.17670532,-0.29493980,0.14266568,0.38910216,0.32758392,-0.06145829,0.36675578,-0.31460755,-0.33179245,0.19628743,0.22783104,-0.30082255,-0.16156572,-0.43390700,-0.39686252,-0.38227742,-0.27247294,-0.28774294,-0.22891494,-0.22855384,-0.10921361,-0.16468515,-0.18042095,-0.08989698,-0.35740519,0.36736591,0.10640622,0.21322148,0.37415427,-0.07723276,-0.28838696,-0.43476563,-0.25480087,0.41274293,0.26989920,-0.23633390,-0.30242279,-0.13123930,0.30208241,-0.01426029,-0.30988152,0.42443366,0.12006840,0.15391862,-0.10551418,-0.03759795,0.17322448,0.23053890,-0.35944298,-0.29826536,0.07189505,0.23966456,-0.25835178,0.21750373,-0.14868917,-0.49521788,-0.36507778,-0.30389602,-0.05765810,-0.18939575,-0.26998679,-0.02226808,-0.36662776,-0.27608154,0.07568446,0.25166240,-0.23654099,-0.05596531,0.37337477,0.46452042,-0.47996747,0.09979666,-0.10799910,0.11297388,0.17282222,-0.19980074,-0.49954775,0.33889456,0.30924032,-0.44055863,0.03803448,-0.00375540,-0.10279386,-0.39036789,-0.24914258,0.05785301,0.07989493,-0.16492846,-0.42335413,-0.04816652,0.19450539,0.27284386,0.11375380,0.39554570,0.41836553,0.12375586,0.23000624,0.22184237,0.13635353,-0.34495948,-0.51370435,-0.02755399,-0.50232924,-0.27861110,-0.21681062,-0.47842433,-0.48630510,0.49437872,-0.24214959,-0.18161337,-0.41737027,-0.19126757,0.47276102,-0.30352282,-0.32837685,-0.37112709,0.04999729,0.16462571,-0.24967032,0.21687776,0.33005388,-0.47036531,-0.07813362,-0.41072854,-0.16078805,-0.43757038,0.21477433,-0.26078987,0.11812360,-0.29624156,0.25156640,-0.12874064,0.20759284,-0.47179363,0.31860689,-0.28058774,-0.20799368,-0.13068673,0.39423838,-0.34684934,-0.42030794,0.13459293,-0.38880006,-0.24494826,-0.49842628,-0.27903333,0.42304405,-0.32569815,-0.21538238,0.27731588,-0.37672062,-0.00497388,0.19189892,0.44854063,-0.01265120,0.25436675,-0.48876301,-0.18772723,0.41167542,0.48540908,0.42653125,-0.15234460,0.17998307,0.25825396,-0.46936590,-0.06828834,0.29287024,-0.43910799,-0.17345999,-0.32469383,0.46086287,-0.28190029,-0.11746542,-0.14659631,0.29031101,0.31463883,-0.36390430,0.43848093,0.22405522,0.01334770,0.49606845,-0.43922401,0.18695049,-0.03173241,-0.01195128,0.34022777,-0.21791719,-0.16553810,-0.27087707,-0.02421707,0.24630375,0.48330220,0.44422603,0.48789409,0.30270998,-0.16249246,-0.48522389,0.01538728,-0.28381092,-0.33379034,-0.44593618,0.32399387,0.39648301,-0.45298051,-0.10775620,-0.31978153,0.34805931,-0.43322507,0.43202247,0.09544508,0.13797969,-0.08828210,-0.48010294,0.47370493,-0.17415012,0.14639046,0.34508156,-0.35788418,0.12636701,0.10206183,0.29182829,-0.23769557,0.26207639,0.01669282,-0.48989494,0.01626926,0.03418622,0.12213267,0.21669485,0.18872927,0.40411543,0.12023657,-0.05585749,0.16832146,0.14510490,0.20695712,0.25039686,-0.27419796,-0.08288991,0.07124371,0.37075133,0.46495658,-0.33542282,0.33293418,0.43911034,-0.02880957,0.32073542,0.44159216,0.25785703,-0.10349604,-0.13826208,-0.11603937,0.13933385,0.20631655,0.25146451,0.20716128,-0.40132690,0.35053828,0.04457579,0.32193501,0.15000155,-0.42503803,0.43390476,-0.12823596,0.36880635,0.06105625,0.13834323,0.33063073,0.00363306,0.40970008,-0.17670474,0.31721080,0.38397240,-0.27827528,0.17138648,0.15073981,0.33312250,0.31363148,-0.17436716,-0.06072359,-0.11233223,0.34027369,0.19419787,-0.30282623,0.26201923,0.31442583,0.41100552,-0.38972765,0.17034063,0.14770425,-0.46768564,-0.13024921,-0.35636750,0.29104606,-0.10063298,0.18578892,-0.46102461,0.19041576,0.37898263,0.24215879,0.04711795,-0.10822042,0.15646376,-0.16957432,0.21370656,0.33860269,0.39849722,-0.35050467,-0.46434417,0.36387939,-0.29805979,0.15248598,-0.08801955,0.27420772,-0.28371805,-0.24349249,0.16236131,0.25005718,-0.36944292,-0.45436137,-0.26119601,-0.31759995,0.22160797,0.29900318,0.38839109,-0.03546559,-0.10327722,-0.18843875,-0.02460162,0.35667704,-0.32834920,-0.45043426,-0.13340201,0.25694167,0.16077610,0.04606450,0.27753131,0.27888205,0.21829664,0.37186982,0.17289075,0.12759275,-0.27541659,-0.24946445,0.06857302,0.34556700,-0.26700999,0.48686086,0.20165334,-0.09404109,0.54436333,0.18247588,-0.46420955,0.21062530,-0.34037988,0.29249585,-0.28343687,0.31940948,0.38614364,0.26601505,-0.10763711,0.05041724,-0.39812280,0.03971185,-0.02817987,-0.16442141,0.47932121,-0.21812069,0.39603921,0.37453549,-0.15171159,0.08508425,0.20659298,-0.03241191,0.42397302,0.15309064,0.52538085,-0.01218198,0.31342253,-0.45555023,0.36512484,-0.14733421,0.10356745,-0.30591272,0.05521163,0.11783083,0.34234299,0.10901468,-0.00278956,-0.32028204,0.37246363,-0.09205208,0.17180147,0.23721360,0.24156497,-0.13388187,0.40566745,-0.14466773,-0.53018938,0.06888410,0.04214146,-0.53273026,0.25761471,-0.26149816,-0.19335028,0.06282923,-0.37369822,-0.14422012,0.49291784,-0.06714051,-0.23404120,-0.42026311,0.03128536,-0.20796535,-0.00745584,-0.02304955,0.32499958,0.21942441,0.10400127,-0.07004764,0.16468939,0.32687629,-0.10265441,-0.12400148,-0.15898907,0.07689560,0.16901396,0.11916836,0.31082746,0.14897114,-0.49312861,-0.14453294,-0.47233327,-0.11776777,0.19354427,-0.35912355,-0.34980000,0.20790675,-0.50027773,-0.12313244,0.02555420,-0.19792399,-0.38375590,-0.40787013,-0.16618959,-0.14732500,-0.12916751,0.36541576,-0.45856544,-0.42463039,0.13920495,0.00175810,-0.12429796,-0.48796681,-0.42718859,-0.49489749,0.02045392,0.17125980,-0.41712597,-0.16938640,0.04442800,0.22132574,0.33566382,0.25818858,-0.24255271,-0.41323233,-0.38374174,0.28359345,0.43513934,0.42378309,0.27052151,0.28778498,-0.35057891,0.19187094,0.30106411,0.21082535,-0.24647382,0.06818708,-0.00209790,0.25112077,0.38955103,0.21506981,-0.49448196,0.12168917,-0.45100398,-0.49981377,-0.18819357,0.10749331,0.31448410,0.00132179,0.45909695,-0.00592157,-0.46940415,-0.06991583,0.41727353,0.00270399,0.20138223,0.16745084,0.08702662,-0.06910639,-0.37751179,0.22426338,0.20771499,0.36186695,-0.07965001,-0.06676783,-0.02850544,-0.48742585,0.10504874,-0.03295948,0.22624612,-0.20945793,-0.46868203,0.45462722,0.21864464,-0.43508591,0.34130293,0.16594716,0.35524230,0.43435246,-0.14577394,0.28729969,0.23911758,0.05448741,-0.06051474,-0.45990447,0.03640426,0.11520738,0.17937153,0.45047363,0.00093501,-0.04097226,-0.34629760,0.23697558,0.19803403,0.48197975,-0.06212727,-0.27533547,0.33554370,0.29631739,-0.15423568,-0.29588838,0.42976729,-0.47072742,0.28355979,0.44776642,-0.07472621,0.31691140,-0.50323817,0.27625238,0.42104692,-0.39247642,-0.30581094,0.22186682,0.42298329,-0.37686921,-0.39297241,-0.24708791,0.23077848,0.33684554,-0.45652021,0.31430007,0.34483658,-0.05569557,-0.22122391,0.48339238,0.37802841,0.18554718,-0.46986843,-0.41709661,0.03335547,-0.52695360,-0.29006268,0.27826447,-0.06105444,0.00726439,-0.24090919,-0.42264971,0.36584315,-0.44402106,0.29557467,0.08905273,0.14828508,-0.38099675,-0.48360329,0.04621062,0.06353189,0.02382410,0.04815769,0.47806722,-0.21549798,0.25484351,-0.30868314,-0.41151589,-0.25283024,-0.13035689,-0.25933006,-0.21713744,0.26884431,-0.13852982,-0.38356736,-0.50258562,0.13981031,-0.04295651,0.33357216,0.36302900,0.18124627,-0.46820122,-0.29044508,-0.44159255,0.14787268,-0.34077480,-0.22971651,-0.32968948,0.47044901,0.42858848,0.14690983,0.14012535,0.04548569,0.36463261,-0.25437973,-0.24088447,-0.24064836,0.24963572,0.31518172,0.34007505,0.48172409,-0.25561103,0.29600185,0.35859873,0.11908359,0.34073924,0.24134875,-0.07984554,0.41307147,0.04200165,-0.47236898,0.32724596,0.04591720,-0.47132193,-0.37319095,-0.42375350,0.36178825,-0.07782051,-0.47820993,0.31458204,0.42224848,-0.26520284,-0.23405557,0.16611640,-0.10964851,-0.37325717,-0.36254367,-0.06994599,-0.44905618,-0.18890055,-0.30996085,-0.30474308,-0.37483272,0.12862466,-0.38769283,0.48662237,-0.13431729,0.02561273,-0.24970782,0.49908643,-0.07696720,0.33107996,-0.25561473,0.33285074,-0.20576337,-0.49628072,0.00173380,-0.07986526,0.27576935,0.50050267,-0.00891408,-0.34756654,0.46690502,-0.10622789,-0.01559173,0.19935891,0.43588575,-0.40716279,0.21482455,0.26952761,-0.32555660,0.07685370,0.21740784,0.07478770,-0.21925385,-0.45458394,-0.35618209,-0.40035032,0.00812216,0.33952289,0.17466957,-0.37068761,0.37894676,-0.00897780,0.41748061,-0.14401927,0.32618640,-0.46923330,0.30830867,0.30207931,-0.09292678,0.47542034,0.36177040,0.13080449,-0.05019641,0.22399848,-0.12465267,-0.29550616,-0.46894525,0.28587637,-0.47012792,-0.16394482,0.21885157,-0.41743535,-0.15653070,0.33302528,-0.03415591,-0.32333179,-0.21069413,-0.48766041,0.01133447,0.26947790,-0.41370264,-0.24098498,-0.42915257,-0.38419572,-0.00015407,0.10304311,-0.38149735,-0.47093041,-0.19345570,0.28618221,0.10370384,-0.03864450,0.33684807,-0.28357804,-0.46038011,-0.35362055,0.43173422,0.34514886,0.25132960,-0.44828508,0.01398251,-0.39467432,-0.21945287,0.28761974,-0.40733505,0.45819173,-0.10360909,-0.27859644,-0.15543492,0.28530276,-0.21364041,-0.11868814,-0.05898681,-0.41151678,0.23235054,-0.05813044,-0.37808670,-0.05911358,0.12822454,0.25774707,-0.31500902,-0.35327229,-0.22642660,0.16795982,-0.29738363,-0.45821066,-0.40004787,-0.05077998,0.13793596,0.38557721,0.44168243,0.14738938,0.37074517,-0.21880260,0.21062264,-0.41139838,0.37061483,-0.48890668,-0.40232784,-0.41279442,-0.15134509,0.04007938,-0.21327928,-0.27292599,0.07846610,-0.32860358,0.04119024,0.26017042,0.07950128,-0.05361564,-0.42788565,0.45796061,0.28891417,-0.36091383,-0.37375514,-0.34576022,0.38606597,-0.27331498,0.03929941,0.21850570,-0.01205765,-0.25293068,0.27865754,0.05625257,-0.40780406,-0.48211269,0.48036272,0.31763304,0.08282201,0.08539873,-0.07168614,-0.24214162,-0.43353117,-0.28669868,0.27031345,-0.06182816,0.10719773,-0.02878485,0.40391906,-0.08426583,-0.46001453,-0.22110369,0.46721037,-0.43435167,-0.34674651,-0.29372436,-0.26809785,-0.28221492,0.44105096,-0.28914215,-0.43046761,0.03704698,-0.07744672,0.01832288,0.44876204,0.35899123,0.37128519,-0.35467510,-0.46408589,-0.26157706,-0.35413921,0.11510102,0.32231734,