-0.48304435,0.14460038,0.38732229,-0.31021042,-0.13099621,0.15701163,0.17916962,0.33776512,-0.39552417,-0.45063332,0.01625101,-0.03082818,-0.13465962,0.44650108,0.21260678,-0.29983999,0.12791158,0.23657463,-0.36335696,-0.27528920,0.15525074,-0.41280813,-0.39064971,-0.12720911,-0.40215855,0.13720092,-0.06263552,0.48465560,0.37487746,-0.28305747,0.27609779,0.22734978,0.09888328,-0.42071323,0.09497395,0.16362916,-0.15562750,-0.05824472,-0.42474356,0.11784185,0.17536217,-0.35269701,-0.00337096,0.47962248,-0.45770006,-0.00011009,0.17847556,0.45730820,0.38734212,0.38891431,-0.26515135,-0.44691170,0.41227273,0.43526685,0.49367919,0.41808215,-0.39529774,0.49983615,-0.21436909,-0.38431220,-0.00016957,-0.02096628,-0.22295537,-0.28337622,-0.36599246,0.07311160,0.05599563,0.08141901,-0.46555908,-0.15899334,0.23947427,0.06266000,-0.07622048,0.03235673,-0.37948199,-0.07706859,-0.45949516,-0.29985003,-0.23732054,0.02375701,-0.19763275,-0.36832705,-0.26284050,-0.48014036,0.25959434,-0.33742851,-0.17180976,0.08816656,0.25859058,-0.42968944,-0.41564689,-0.14955690,-0.32676660,0.18023610,-0.33868433,0.12341959,0.41451217,-0.23441872,0.26574813,0.48673651,0.05935186,0.33134289,-0.26288282,-0.07695096,-0.35893932,-0.46343790,0.05688241,-0.28714227,-0.49171073,0.24709808,0.16250154,-0.15157786,0.17952515,0.32050172,-0.37351707,0.01140811,-0.25320181,0.43491222,-0.18219509,-0.21264508,0.41937929,0.09567029,-0.28467208,0.30980366,0.25005656,-0.39077643,0.37377083,0.30829514,-0.21290941,0.08744942,0.08519512,-0.22228818,-0.20091193,0.26680238,-0.09513753,-0.03891682,0.28261208,-0.30195173,0.24835188,-0.23393087,-0.43465964,0.01466286,-0.34567458,-0.30229548,0.10208806,0.32249359,-0.49882765,-0.43036295,-0.45625428,-0.35511653,0.15873279,-0.37968557,-0.11456652,0.08283974,-0.34175602,0.47504111,-0.49402624,-0.01848795,0.10466473,0.49308273,0.09916816,-0.23194574,0.10696674,0.43592701,-0.30784228,0.01341717,-0.46468735,0.03342955,0.47948646,-0.38911727,-0.43822088,-0.40808099,0.36830707,-0.13286949,0.44081718,0.09271908,-0.30857954,0.18078407,-0.43981325,-0.09922548,0.42431046,-0.35573353,0.28001412,0.06484495,0.02615270,0.20088603,0.14979313,0.29324933,0.35676020,-0.23971334,0.00827576,0.16100502,0.33154469,0.36136019,0.21346391,-0.33876078,0.04208306,0.27783312,0.31027215,-0.11452885,0.43636862,0.44409453,-0.07160748,0.10105348,-0.35223116,-0.05813025,-0.44456083,-0.27592127,-0.42783723,-0.23951472,-0.03699053,0.47022817,0.25157971,-0.13605868,0.12557726,-0.35048921,0.26529120,-0.27247772,0.06842366,-0.14259647,0.19374168,-0.16379724,-0.13268026,0.37414403,0.48359632,0.21693104,0.45610862,0.23475787,0.48010502,0.39244763,0.44263135,-0.46063932,-0.48576850,-0.49284788,-0.13812215,0.13639707,0.26150570,-0.42267409,0.07508157,0.20453669,0.06114903,0.02239439,0.39455807,0.16404342,0.28861703,0.22761747,-0.45660617,-0.16069938,0.33427636,0.46069312,0.14972676,-0.01600066,-0.15019074,-0.15624361,-0.07516406,-0.18463789,0.18100136,-0.28125828,0.23422586,0.09366155,0.24845946,-0.33229244,0.18180908,0.12349541,0.00375127,-0.04122796,-0.30039912,0.37956448,0.01408936,0.09507878,-0.05902885,-0.32700785,0.31646077,-0.16722372,-0.29164764,0.22956761,-0.46588070,-0.09728162,0.30440427,-0.24114147,-0.16307532,0.03257628,0.36192500,0.09398910,0.45006008,0.18318196,0.25489574,0.44315701,0.38604436,0.15070069,-0.24878485,0.37456173,-0.15666540,-0.45092964,-0.44401080,0.11990129,-0.37448900,-0.48824899,-0.03351547,-0.12360980,-0.00554246,-0.36478063,0.38800016,0.49482212,0.30232211,0.20617535,-0.02655054,-0.36014576,-0.19609349,0.12348662,-0.39574954,-0.10847712,0.37931617,0.32690680,0.16358858,0.13715449,-0.35442220,0.13643075,0.51130458,0.12446619,0.38854091,0.46914477,0.24513388,-0.25285860,-0.35962107,0.46364561,-0.32981328,-0.02210156,0.10150895,-0.49030490,-0.12808604,0.07506710,-0.04261028,0.15205557,0.05567906,-0.04123529,-0.45485212,0.06830963,-0.47946422,0.18186445,0.01759669,-0.30249253,-0.20091825,-0.40182654,-0.01983242,-0.35492706,-0.37907707,0.31220427,0.13632683,-0.34757928,0.14309136,0.33142939,0.22629462,-0.47108133,0.11202533,0.12004133,-0.22080670,-0.30578151,0.38194750,0.05845686,0.24895203,-0.29257390,-0.47601547,-0.14918100,-0.43360660,-0.01208261,0.38841505,0.09333901,0.08512282,0.41460714,0.06370806,0.25906680,-0.47114141,0.30234994,0.09956687,0.00745723,0.43527033,0.20651929,0.22954307,-0.33252813,0.31373434,-0.27927259,-0.10753873,-0.08599068,-0.21568529,-0.38209353,0.12567001,-0.11233554,0.36077319,-0.15410455,0.18355912,-0.30924403,-0.01537035,0.16832549,0.01892182,-0.01107010,0.42148467,-0.26280750,-0.34408480,-0.15067042,-0.35006690,0.09050501,-0.03990870,0.49127081,0.36674797,0.48159325,-0.04738193,-0.51585852,-0.13545638,-0.20208558,0.40693937,0.21531474,0.34500644,0.13918823,0.35666426,-0.01149864,0.20305774,0.25252651,0.23490352,-0.36710054,-0.33362884,-0.10163832,0.30864821,0.23111217,-0.00380065,-0.40328703,0.38623670,0.45126206,0.12505196,0.11807069,0.48030921,-0.39090919,-0.02408448,0.12867488,0.21731730,-0.28608816,0.06832553,0.05636890,-0.30791116,-0.00637524,0.42028534,-0.37079382,0.03878954,-0.08488560,-0.41828634,0.48086527,-0.30245143,-0.13551543,0.06853919,-0.05578934,0.15437252,0.08973505,-0.26818711,0.28302789,-0.48482050,-0.13728052,0.27033868,-0.09569225,0.09540747,0.28508611,-0.10911145,-0.21347368,-0.29772470,-0.10805466,-0.42468050,0.08123989,0.09194154,-0.44732639,0.14948100,0.16152826,0.03383511,-0.38836222,-0.08691451,-0.26374202,0.07480155,0.14485206,0.12654554,-0.37244889,0.22819786,0.15648626,-0.25748728,-0.25431599,-0.37797605,-0.19070786,-0.19885260,0.01182121,0.08311374,-0.48747333,0.06577890,-0.25956843,-0.14353266,-0.47037105,0.25675402,-0.19579471,-0.23219040,-0.40016951,0.11323966,-0.32728809,-0.40582046,0.02906924,0.16865063,0.42795136,0.24665686,0.43410279,0.00767603,-0.49891582,0.49211483,-0.12012825,0.25923616,-0.43154382,-0.15813926,0.07202596,-0.28093759,-0.32589098,-0.07683823,-0.14412337,-0.17351304,0.28932434,0.27452501,0.07327248,0.10664181,-0.21641398,-0.18264561,-0.12182085,-0.47711395,0.04735265,0.23798995,-0.11446510,-0.49536098,-0.47009156,-0.00253631,-0.17348011,-0.08705800,0.49804433,-0.16229186,0.10015707,-0.10537710,0.47575522,-0.35062281,0.20416241,-0.25311236,-0.19753283,-0.40500207,-0.39199395,-0.20151539,0.08163343,-0.00606264,-0.24877744,-0.24858696,-0.25204398,0.05304928,0.41206497,0.14188569,0.23444774,0.20893711,0.15124967,0.33949233,-0.10481811,-0.27775870,-0.45110900,-0.20786176,-0.01743960,-0.15127950,0.13796880,0.24096450,0.02597343,-0.30051716,-0.33232483,0.24461160,-0.36948896,-0.46805387,-0.33963623,-0.43069569,-0.37363468,0.08364134,-0.02395725,0.12121678,-0.42795626,-0.10920869,-0.10316637,-0.39836556,-0.20707107,0.29339216,-0.12612253,-0.21303479,0.42891133,-0.16963374,0.02985851,0.13936952,-0.37591237,-0.10205625,-0.02411194,-0.33549487,0.32024776,-0.35785077,0.41316044,0.45200508,-0.05948968,0.11402837,-0.26790544,0.14899587,-0.19360945,0.22767134,0.19058204,-0.27038655,-0.45517053,-0.00619508,-0.08894678,0.37744662,-0.00006818,-0.45329853,0.22417087,-0.06545745,0.14578874,-0.45391977,0.06926424,0.08120478,0.35147576,0.07397004,-0.01734134,-0.09145786,-0.08800810,0.06956412,-0.14116490,0.43717894,0.49353366,-0.10019602,-0.47592270,-0.32315386,-0.24929000,0.02177266,-0.13853048,0.30224108,-0.25611798,0.21874897,-0.30766594,-0.43481758,0.00111436,-0.30590948,-0.42806536,0.30299558,-0.22492601,0.32682328,0.33695519,0.37133051,0.02483940,0.30624972,0.34515542,0.10080539,-0.33122800,0.15294347,0.00685548,-0.08623125,0.37867222,-0.24387138,-0.43262456,0.28847059,-0.35512984,-0.33063901,0.05917096,-0.36852550,0.07248514,0.47908401,0.11353479,0.00859900,-0.01499213,-0.07902622,0.03621243,0.03373596,0.22751943,0.17733279,-0.04850074,0.22875617,-0.31409819,0.18564628,0.22309052,-0.08843968,0.48201630,-0.06189553,0.39769408,0.40186096,0.18105877,-0.21541699,0.09386245,0.49818727,-0.29944704,-0.19558261,-0.35219816,0.16292838,-0.43363371,0.31275457,-0.07084178,0.08057595,0.49428007,0.29733886,0.19599464,-0.46229755,-0.06490184,0.49013705,0.18877047,-0.02809875,-0.08871340,0.33178624,-0.18095685,-0.37275292,-0.05032064,-0.00081096,0.25696128,0.21275828,-0.34461659,0.03438494,-0.41025362,-0.14991899,-0.03160089,-0.46594494,-0.15943883,0.12781965,0.30668075,-0.33258729,-0.31791174,-0.01972104,0.38219200,-0.46218761,-0.06548518,0.00880497,-0.41982412,-0.46757574,-0.10859592,0.10842151,0.04531781,0.04726795,-0.32120252,-0.24861743,-0.05468268,-0.26296756,0.13848130,-0.24709746,-0.10505553,-0.32321426,0.07904156,0.29962124,-0.06378863,0.32402415,-0.37809856,0.06727446,0.42189787,-0.40211294,-0.04705413,0.47561606,-0.39549356,-0.37509841,0.40487198,0.21899586,0.06185687,-0.14126898,-0.11132417,0.26419135,-0.10164233,0.22338952,-0.28704686,-0.25903222,0.38093657,-0.22234625,-0.27191484,0.36108725,0.31280401,0.05566088,-0.29281426,-0.16111142,-0.38336539,-0.02820793,0.43392789,0.20897649,0.31758796,0.31506603,0.14442829,-0.49312358,0.42536576,0.13051812,0.32198467,0.49296218,0.31865761,-0.44664670,-0.43164690,0.12661545,-0.02968212,-0.30993058,0.15354687,0.01939996,0.46530181,0.39785383,0.32783728,0.00204071,0.08018382,0.08944401,0.44634685,0.40700096,-0.40848306,-0.35977661,-0.29006961,-0.31075678,-0.19001621,-0.07841821,-0.34430372,0.22413803,0.22383147,-0.44743330,-0.35047335,-0.40035332,-0.24796586,-0.05303929,0.26107907,-0.06566155,-0.28357464,-0.42255718,0.46101289,-0.40513510,0.19478432,-0.21456515,-0.26095993,0.20865780,0.24135422,0.42075908,-0.22505513,0.09695907,-0.37264295,0.15334095,-0.22274235,0.10878664,0.27194213,-0.25892358,-0.17558350,-0.31575737,0.05329038,0.12682680,-0.11546075,-0.31117161,-0.05156646,-0.03438961,-0.18960199,0.11349549,-0.06682566,-0.06671368,0.04990197,0.39115866,-0.42373269,-0.24058320,0.20922150,-0.20781015,0.28634528,-0.18974505,-0.44645839,-0.19910008,0.25251378,0.35689359,-0.17945986,0.43597947,0.36507115,0.18808974,0.25350035,0.45544246,0.03101353,-0.40847545,0.04895331,-0.45732977,0.16914194,0.08141642,0.35174604,0.10393777,-0.10972821,0.49156545,-0.38521469,-0.27552332,0.11677950,0.10721409,0.03487999,0.04330680,0.34541385,-0.41997014,-0.32571531,0.45678675,-0.47256462,-0.29801116,0.46791398,0.15102226,-0.48204186,-0.49500436,-0.13370220,-0.43523594,-0.30505727,-0.01438773,0.21858902,0.19915551,0.26715958,-0.23302261,-0.03279985,0.13625995,-0.09853707,-0.03985382,-0.36333797,-0.21110229,-0.01128129,-0.30856754,0.01764223,0.43550871,-0.40829168,-0.40429068,0.42527958,-0.34485261,-0.02261451,-0.10054875,0.10206157,-0.37566670,0.26551163,0.38847885,-0.01150971,-0.45514253,0.48122668,-0.06155567,0.04061847,0.12103904,0.37088332,0.12713548,0.04913960,0.34131634,0.47954117,-0.03397767,0.10161555,0.06886175,-0.45640336,0.19114999,-0.48517386,-0.08092004,0.49338137,-0.22085724,0.17545954,-0.23050303,0.14062999,0.45468098,-0.33319737,-0.10497312,-0.44679618,-0.18883460,-0.08483010,-0.20655207,-0.19270484,0.11857767,0.42100764,-0.17669804,-0.32857623,0.38329421,0.33192149,0.14619805,-0.15092058,-0.06395210,0.01160930,-0.10080573,-0.12217747,0.22360413,0.09843243,0.43059699,0.37597685,0.01680529,0.09091201,0.05861139,-0.46945917,0.39205200,0.23279446,0.04795992,0.43685874,0.18103591,0.42007361,0.09502434,0.18783363,0.37360856,-0.13745620,0.27466849,0.33318480,0.17174569,0.25999189,0.20545421,0.21229487,0.43505325,0.44719738,0.41947995,-0.19069719,0.33609902,0.34187478,-0.36970010,-0.40473898,0.41826112,0.17878700,0.39704239,0.16269195,-0.40881671,0.24844597,-0.28271374,0.11218687,-0.07456450,-0.08633586,-0.18096718,0.25219235,0.06859610,0.19884070,-0.07246466,0.35626283,-0.01226645,-0.36465241,0.25053196,0.21810711,0.31599557,0.40055577,-0.08302524,-0.23770365,-0.21255857,0.36735604,-0.34277074,0.46876909,0.36076895,-0.24988927,0.12782293,-0.26211767,0.45851637,-0.19037920,0.51684530,0.16938466,0.48454197,0.04589100,0.42251210,-0.41297890,-0.49697116,0.38289969,0.35795830,-0.38976240,0.05218580,-0.23982681,-0.42725790,-0.40717222,0.47690691,0.16145557,0.26987520,0.03987060,-0.28947514,-0.36442143,0.31578877,0.03339107,-0.01592269,0.32521663,0.43206931,0.31031162,0.08820870,0.07712980,-0.16045808,-0.08074281,-0.46648683,0.32655139,0.41898414,0.13171984,-0.13751642,-0.33802074,-0.41782497,0.06728966,-0.23964955,-0.40695180,-0.06436277,-0.05645414,0.07963772,-0.12899328,-0.46066256,-0.45947201,0.48012179,-0.25093439,-0.10473246,0.25296375,-0.27212255,-0.30563245,-0.11157732,-0.08256687,0.11705988,0.36589124,-0.10181756,-0.18718530,0.33805835,-0.48807409,0.29365180,-0.09983554,0.47742430,0.27564656,-0.34804906,-0.27520638,-0.03705928,-0.03822196,0.30402163,0.48848710,-0.47197332,-0.03775927,-0.08740125,-0.04602309,0.25269115,0.48150515,0.46055002,-0.04654099,0.14657711,0.09676637,-0.06398237,0.38061166,-0.30919433,0.32557319,-0.13944761,0.04990004,-0.23486941,-0.28661747,-0.07275639,-0.32472673,0.30995730,-0.35244973,-0.34722120,0.03930655,-0.36119177,-0.03748719,-0.30859969,0.10274710,-0.14882490,-0.47904779,0.30306923,0.10862949,-0.33817008,0.45743933,0.42746225,-0.46076114,-0.02083362,0.29731841,0.39482436,-0.35473270,0.08428758,0.44490429,0.10838462,-0.21334806,-0.40257285,-0.12604598,0.19689248,0.13788988,-0.11493347,0.38950868,-0.42568784,0.49374333,0.35970643,0.15685135,-0.02420327,-0.13115839,0.04459274,0.34701304,-0.42458051,0.45253230,-0.48741713,-0.12948493,-0.35898160,-0.01646313,-0.30490930,0.25195904,-0.18459614,-0.54070556,-0.35084168,-0.25523979,0.10816492,0.20507344,-0.09521507,0.07572382,-0.32975535,0.23830459,0.17558080,0.23626875,0.09944913,0.15082435,0.08935965,0.06456185,0.35781897,0.07044128,0.06434803,-0.24960566,-0.34370990,0.41428392,0.10767656,-0.45324661,-0.27048019,-0.00274134,-0.12396393,0.06944385,0.42562592,0.08816204,-0.19236485,-0.52404959,0.31071444,-0.48392297,-0.33564998,-0.36149847,0.39702291,0.29157308,-0.46742111,-0.30823115,0.38612029,0.07730225,-0.44925759,0.33247452,-0.33406125,0.17981216,0.31697750,0.01019241,0.40468724,-0.45180345,0.19158975,-0.26909126,0.04362201,0.39746666,-0.52439681,-0.10162731,-0.43683485,0.13113080,-0.44267007,-0.17806061,0.08215367,0.25760230,-0.01275329,0.42131224,-0.11195050,0.05650972,0.06745394,-0.48453803,-0.24961284,0.01592278,-0.29172993,0.26967986,-0.47395536,-0.35948979,-0.38590916,-0.35929494,0.30351378,0.26088612,0.25535913,-0.04847596,-0.06259327,-0.46737035,-0.09426590,-0.41838111,-0.35758092,-0.21724751,-0.03153804,-0.18966033,-0.35759952,0.06654313,-0.09993380,0.10342287,-0.34808377,0.27427630,0.12459553,-0.02306577,0.13931896,0.18620282,0.15667026,0.46544641,0.29977021,-0.47539951,-0.44010426,-0.34134192,-0.15867862,0.01317616,0.09583412,-0.50793318,-0.19463490,-0.05389735,-0.43763014,0.05293077,-0.34855557,-0.47635942,-0.01545664,-0.33033999,0.26713136,0.43118810,-0.31436409,0.23744671,-0.11065551,0.24628275,0.11922221,0.47632224,0.05395734,0.21984601,0.41647846,-0.40369162,0.29454078,-0.40155071,0.49599681,0.04126869,0.48571219,0.47837470,0.46080698,0.31461090,0.22625185,-0.54438890,-0.12808854,0.32048750,-0.11139801,0.13066421,0.36986079,0.05363244,0.16318811,-0.43415351,-0.22308146,0.15321305,-0.12802618,0.49399000,0.34047692,-0.27279145,-0.04434611,-0.31740157,0.25569715,-0.11611668,-0.33991438,0.42763790,0.01140829,0.07377131,-0.34214201,-0.42392082,0.51095010,0.15051045,-0.01479959,0.25517968,-0.24470681,-0.17839657,-0.13752951,0.30819571,0.28245983,-0.05445570,0.24802188,0.29970138,0.35741513,-0.22306280,0.19700977,0.07266423,0.37881386,0.37274769,-0.03650603,0.06709687,-0.46378596,-0.28281430,-0.48628584,-0.19700275,0.14032916,-0.30233167,-0.22390872,-0.44482231,0.48974401,0.15942912,0.25487392,-0.09803008,0.01732187,-0.24397412,-0.02969101,0.14818422,0.05324048,-0.01973682,0.27804356,-0.14601473,-0.47908776,0.42510991,-0.28255820,-0.03245513,0.21236016,0.06431929,0.35552556,-0.23252238,0.37210132,-0.16984178,0.09632564,0.34172008,-0.17213194,-0.20037750,-0.14673436,0.28235228,-0.40648996,-0.21446447,0.49746155,-0.17418014,0.42504933,0.32876269,-0.05915735,-0.49288107,0.27851519,0.44252769,-0.19041869,0.27316068,-0.00403661,0.38747948,0.10885941,-0.15171251,-0.49012349,-0.17183284,0.49453353,0.25434155,0.19279984,0.09403984,-0.08330322,-0.48755635,-0.33234351,-0.12438377,0.10597225,0.25132548,0.44699799,0.22890832,0.36937862,0.27392749,-0.04044387,-0.24416500,0.23767568,-0.09815731,-0.11831167,-0.47095845,0.47296277,-0.40207948,0.38433068,0.01673712,-0.13054284,0.15955908,0.17418072,-0.31158519,-0.10655737,-0.14781066,-0.06325305,0.46912938,-0.00961923,-0.35122577,-0.35875300,0.10807201,-0.12668496,0.28420611,-0.14731131,-0.07811864,-0.19591995,0.17256970,0.14289556,0.49176353,-0.17691490,-0.42885808,0.21231665,0.23264855,-0.02633208,-0.03244516,-0.10473843,0.12355788,0.19904176,0.39989090,-0.44187409,0.16261810,0.38492644,-0.15119625,0.37499501,0.11473454,0.34706601,-0.19338045,0.26383329,-0.34152710,0.14846994,-0.24792460,0.11801028,-0.35344514,-0.42445027,-0.21585901,-0.22140838,-0.22921400,-0.30095453,0.11805821,0.15666655,-0.34645474,0.15409485,0.48040379,-0.40486944,0.29323143,0.24146206,0.17521894,-0.15141114,0.41587771,-0.45542928,0.40252578,-0.40116172,0.14255997,-0.41699117,-0.19054861,0.28060895,0.10056321,-0.30938665,-0.21709067,0.35448378,0.15418516,0.38754418,-0.17312249,-0.31199399,-0.34708155,0.18965379,-0.37823478,-0.43753904,-0.04517325,0.28783144,0.14218636,-0.21260890,-0.14333400,0.03690892,-0.26633631,-0.41536743,0.46792883,-0.46490529,-0.16929847,0.11243916,-0.28646027,0.43597963,0.49921532,-0.27785844,0.28597560,0.49755159,0.26334565,-0.14689136,0.49620023,-0.16335955,0.07760733,0.16285075,-0.06706865,-0.28961269,-0.36820991,0.08777751,-0.14984302,0.37160366,0.37134112,-0.21378449,0.22401868,0.06549544,0.46356945,0.06379594,-0.08339447,0.28176401,-0.01149672,0.11818358,-0.09944723,0.18641777,-0.20366723,-0.07853083,0.45137328,0.20073505,0.34311695,0.43009015,0.08468212,-0.02440014,0.46889943,0.10357231,0.05510766,-0.13343811,-0.36352956,0.15046991,-0.05768255,-0.04660095,0.01387762,-0.44879324,0.09189076,0.07733439,0.01434135,-0.16955898,-0.29703905,-0.30619976,-0.30941239,0.00119131,-0.11692530,-0.05747300,0.45323569,0.25488787,-0.17176467,0.27765532,-0.01095113,0.16025954,-0.06402057,-0.12739890,-0.09884619,-0.02912852,0.47798956,-0.03363459,-0.06093752,0.07009408,0.31054262,0.22666465,0.10934465,0.16006564,0.39477089,0.07867427,-0.23121243,0.34189034,-0.00675179,-0.29993660,-0.02972619,0.46481464,-0.38144977,-0.07154155,-0.16905977,0.08390282,0.49463623,-0.47041586,0.00681899,0.16066873,0.20279530,0.42199812,0.28817670,0.10052965,0.43969926,0.13311776,0.04471534,-0.41098229,-0.14760223,0.30912324,-0.24214094,-0.24115858,-0.43401759,-0.49891965,-0.10932728,0.05703377,0.40675259,-0.31925392,-0.16588112,-0.46690402,0.44001706,0.40624638,-0.06961003,-0.13942105,0.47102866,0.19145379,-0.47453601,-0.07013285,-0.10103629,-0.41670876,-0.35765408,-0.03432596,-0.42157575,0.00012622,-0.02796825,0.30901958,-0.39229615,-0.13572069,-0.18584036,0.24008212,0.38069746,-0.26214144,0.13425310,-0.21787084,0.22025570,0.44633077,-0.13008258,0.48094071,0.43688986,-0.41416659,0.32224316,-0.31523780,-0.14091918,0.07744823,-0.24257212,-0.31027307,0.18558989,-0.48491239,0.15096703,-0.17445642,-0.12274694,0.26099506,0.06485080,-0.41298146,0.42371310,-0.28458094,-0.04364425,0.05618145,0.43071866,-0.41686636,0.11200332,-0.41495102,0.29986864,0.28801556,-0.13155229,-0.15566148,0.36756662,-0.45937135,0.12521784,-0.45007325,0.14568596,0.42043821,-0.42878145,0.01226389,-0.49721104,-0.02245040,-0.37906425,-0.44343292,0.05743066,-0.06283430,0.07629250,0.45483610,0.42095923,-0.30787959,-0.48580273,0.39036804,-0.48081835,-0.29589266,-0.02380841,-0.38062883,-0.36035668,-0.37864848,-0.02267363,-0.29158085,-0.30026390,-0.34685541,-0.26182466,-0.09116013,-0.06544145,0.34363290,-0.14498479,0.11484185,0.16604949,-0.19998017,-0.42583667,0.19813751,-0.43776259,0.23738078,0.46644508,-0.47299947,0.01226446,0.44489057,0.49031098,0.19601400,0.34664800,-0.25554867,0.09150205,-0.17672764,-0.12176556,0.34427705,0.39837254,0.37114748,-0.25934968,-0.05718386,0.44520451,-0.26489047,-0.25121635,-0.39769514,0.37858165,0.40160071,-0.00422346,0.10987756,-0.12218608,-0.30762081,-0.45357230,-0.16451731,0.27537435,0.21340671,-0.44957782,0.04456833,0.17695445,0.13556927,-0.16638869,0.13479626,0.30175335,-0.00245787,-0.11943886,0.27880589,0.07733277,0.09606560,-0.11456776,-0.48532321,-0.47586236,-0.32675002,0.12009968,0.09237293,-0.29371293,0.20716495,-0.38767502,-0.11715877,0.28729927,-0.32646320,-0.13025028,-0.50292730,0.10032954,-0.43793078,-0.41106230,0.18067327,-0.35439980,-0.48747613,-0.08568047,0.35058066,0.26195514,0.40000417,0.38359248,-0.18005678,-0.16577908,0.17114350,0.17926411,0.22349855,0.06694869,-0.28716380,0.07774693,-0.12576629,0.35564629,0.23587543,-0.29183643,0.13634072,0.38045606,0.25925675,0.31383263,-0.52491107,0.29288267,0.01729603,-0.28288565,0.26486278,-0.38164425,0.30787520,-0.28004296,-0.28308119,-0.46675245,0.27448210,-0.29164763,0.07285431,-0.40280056,0.02877152,-0.08061645,-0.08969587,-0.08547932,-0.40635343,0.34587703,0.24659489,-0.27261970,0.13316696,-0.23111255,-0.15145480,-0.37951625,0.07501793,0.01928446,0.38688981,-0.00002776,0.08677487,0.29957022,-0.50425754,0.37404813,-0.30721828,0.13646109,-0.24426875,-0.09077826,-0.24147363,-0.01217317,-0.10841720,0.13292407,-0.12316079,0.20148394,-0.21635330,-0.04941028,-0.12745095,0.44413805,0.22373169,0.00968628,0.24288405,-0.00637789,0.06181317,-0.35435739,0.43788658,0.05857787,0.12745130,-0.23613400,-0.02581857,0.08012004,-0.04504515,-0.33090764,0.00911188,-0.08636445,0.11960888,-0.11612170,0.41458138,-0.15742365,-0.12607407,0.21819404,0.00078494,-0.26887030,-0.16597871,0.31082789,0.38337862,-0.13158431,0.28183491,-0.18975586,0.06711928,-0.21771967,0.12839051,0.06156704,-0.42369743,-0.33613552,0.39869192,0.45174001,-0.49567829,0.43969578,0.24650415,0.19803907,-0.01708522,-0.31738563,-0.43481274,-0.08914766,0.47186125,0.33249532,-0.22526650,-0.07181950,0.46272535,0.31240095,-0.44199797,-0.27072782,0.44994567,0.18868331,-0.32286184,0.37898075,0.09568028,-0.48516731,0.47965321,-0.10005657,0.10409876,0.27620335,-0.44423796,-0.16936753,-0.17166095,0.25194385,0.39793445,-0.44648129,0.44797213,-0.39056601,-0.50873836,0.42959308,-0.42690890,-0.40837097,-0.23715029,0.38389396,0.39551036,0.27508244,0.27121245,0.20741708,0.48845198,0.22611846,0.28053055,0.05371020,-0.23952919,0.14566449,-0.09001466,0.23274415,-0.41866131,0.14255745,-0.06359294,-0.37658101,-0.02727669,-0.08581313,0.07468659,0.06924151,-0.17698639,0.22599100,-0.35224971,-0.00738804,-0.08522883,-0.16732058,0.15602885,-0.48095956,0.36773435,-0.15204846,-0.06020035,0.06701310,-0.16944738,-0.49436296,0.42609080,0.25587025,-0.28713036,-0.27453872,0.45245944,0.27754644,-0.04087551,0.49236016,-0.14888039,-0.45926848,-0.24765255,-0.52288236,-0.18516955,-0.23487722,0.16953442,0.05940063,-0.46904819,-0.09721360,-0.21812498,-0.40763413,-0.35590841,-0.44450455,-0.05919514,-0.03745366,0.49080834,0.12946965,-0.27791886,-0.08483122,0.42583636,0.21861282,0.24949794,-0.44852914,-0.14011409,-0.05174877,0.30484151,-0.50135633,0.01976285,-0.38738107,0.02534413,0.38950623,0.42014852,-0.00327478,-0.01824950,0.06020443,-0.06945297,-0.04645267,-0.26398727,-0.39707663,-0.25305952,-0.38084005,0.43981729,-0.25150167,-0.40442106,-0.02662287,-0.05898648,-0.49381270,0.42810960,0.06703946,-0.08732392,0.35241812,0.17826764,0.31901883,-0.13066666,-0.25587009,-0.32317451,0.37821148,-0.43718247,-0.05070563,0.17728279,0.38656886,0.32482802,0.41468169,0.42266798,0.39896716,-0.23587579,-0.33361210,-0.28938210,0.41223501,-0.41597107,0.33266480,-0.26974460,0.17891814,0.18452830,-0.48690267,0.17999172,-0.06172255,0.37034074,-0.34192343,0.13071911,0.43589035,0.42320514,0.11016913,0.09795113,0.41196239,-0.46231986,0.08148303,-0.02987359,0.12688125,0.38777226,0.06721132,0.17903955,-0.40162239,0.15619918,0.21068206,-0.40862113,-0.16054404,-0.43452311,0.47593209,-0.09366855,0.04689797,-0.32125239,-0.39619762,0.49728980,0.00927250,0.33240164,0.27551261,0.41132681,-0.17815051,0.02995027,0.06859031,0.03886178,-0.22697792,0.36203294,0.12039101,0.05990298,-0.06215449,0.00332336,-0.27043323,-0.20422005,0.48128873,-0.21472242,-0.45305063,-0.28775098,-0.00245193,-0.39979363,-0.47767084,0.45827174,0.28157636,-0.25374308,-0.18635603,-0.37155469,-0.04450949,-0.31113482,0.19329189,0.05588572,-0.11204380,0.07335395,-0.31098023,-0.29504706,-0.34105929,-0.05262591,0.39698115,-0.30074521,-0.06066425,0.45738946,-0.00585436,0.19725596,-0.06089461,-0.40428619,-0.22219358,-0.32444015,0.38125810,0.45381884,-0.09215478,0.02421485,-0.04520931,0.10864679,0.42444259,0.20291241,-0.09062719,0.49263616,0.34684526,0.00280856,0.48246652,-0.13943453,-0.06758781,0.43789574,0.28307609,-0.32629458,0.35139190,0.33395456,0.19413673,0.38217712,0.39014695,-0.46760714,0.01251813,-0.49295193,-0.20418491,-0.22768652,0.06303499,-0.38187396,0.08791747,-0.45636506,0.00721416,-0.33096127,-0.25353149,-0.36187740,0.38027523,0.10831435,-0.35333034,0.46900418,-0.35169897,0.40810470,0.41165055,-0.27553500,-0.15970467,-0.12944116,0.36748844,-0.35411359,0.32266732,-0.23501752,0.34398307,0.44395202,-0.13407880,0.01769409,0.22245167,-0.21572145,-0.02719203,0.11442209,0.39205949,0.38476976,0.39990111,-0.03027202,0.20215107,-0.28962298,0.30689766,0.47753971,0.17143610,-0.28266858,-0.35038175,-0.07944946,0.18747359,-0.11511109,0.38139778,0.21717298,-0.50644941,0.37497092,0.06578793,-0.39315342,0.47343633,0.18898073,-0.19354713,-0.18609153,0.40234964,-0.35941378,0.04143274,0.38509267,-0.08812459,-0.02636273,-0.17781447,0.19000922,-0.31968799,-0.09018612,-0.47790551,0.07506491,0.08550139,-0.27634634,0.20612763,0.18559730,0.02182062,-0.31522030,0.25714296,0.11903873,-0.31299690,0.28959372,-0.37282747,-0.32316546,-0.02142321,-0.24685262,0.19938480,-0.36314280,-0.32224122,0.01931427,-0.09367613,-0.19508575,0.47055343,-0.28795040,-0.45819357,-0.45899222,0.23660358,0.30707386,-0.05036209,-0.04791950,-0.44372004,0.24704792,-0.16171458,0.12363567,-0.03551819,0.16548489,-0.09331441,-0.47308731,-0.42503557,0.02155892,0.36788518,0.29414433,-0.33754037,0.41967012,0.27771473,-0.23101588,0.16193137,-0.10828033,0.08433880,-0.46009386,-0.09866385,-0.27026171,0.09336835,-0.23100142,0.38225166,0.01782719,-0.05763473,0.35004317,-0.24963662,0.28294454,0.12816539,-0.46333476,0.01011870,0.31178058,0.41246531,0.47814362,0.25457186,-0.25042271,-0.28191067,-0.36762609,-0.02856599,0.07349728,0.04598240,0.15884639,0.24858129,0.19448040,-0.07554653,-0.32424985,0.24370406,-0.37684587,-0.24857985,-0.48023770,-0.49485604,-0.14974404,0.23482459,-0.05984137,0.42402794,-0.18290866,0.21786995,-0.38825251,0.21856083,0.07697381,-0.07432792,0.19817025,0.22485432,0.37615086,0.28364471,-0.08318414,0.37626533,0.19628284,0.01264341,0.48961107,0.37808357,-0.01759772,0.00288277,-0.09782831,0.38428218,-0.21273805,0.05474682,-0.31127748,-0.03973039,-0.42935536,0.11097973,-0.05719085,-0.20564968,0.48894787,-0.16655186,0.15803952,-0.48199035,-0.35818067,0.30051324,0.03973339,0.28726438,-0.43444450,-0.16097237,-0.27856532,-0.43126991,0.02379991,0.36281066,0.44817776,0.06847030,-0.14442269,-0.08412934,-0.26279343,-0.03243840,-0.19415308,0.00946642,-0.39139605,-0.02381236,-0.27617606,0.33475305,0.23156356,-0.48082968,-0.34453256,-0.09212303,-0.45791712,-0.05914043,-0.15091953,0.42530933,0.38294808,-0.15713574,0.27701508,-0.01128651,-0.19404703,0.37383781,-0.30690486,-0.19451031,-0.27338791,-0.16361692,0.21668947,0.32208395,0.39517303,-0.16949360,-0.17328434,0.04083421,-0.26206087,0.00421844,-0.40888264,-0.07353650,-0.28822062,-0.42775680,-0.01512678,-0.30675996,0.46604832,0.16354371,0.26655865,-0.28742880,0.01087498,0.29137359,0.12955160,-0.16648701,-0.28648728,-0.44393602,-0.18091509,-0.26896728,0.21374887,0.43815052,0.26230307,-0.26069013,0.20288666,0.49880740,0.08701320,-0.39227985,0.21386822,0.11272776,-0.02337569,-0.20671043,-0.00353321,0.33115410,-0.12507621,0.05277596,0.12577574,-0.37270019,-0.44021198,-0.04286209,0.23525769,-0.14230304,-0.42933238,0.37943236,0.14269707,-0.13191125,-0.11996394,0.03705709,0.18050825,-0.31144455,0.32102965,-0.33720895,0.33913433,-0.01840145,0.12233250,0.34720943,0.47762594,-0.37132862,-0.01416384,-0.12888571,-0.13978168,0.14982111,0.42774087,0.22609975,-0.21977855,-0.49253909,-0.24845996,-0.07700308,-0.43840921,-0.07278847,-0.18534508,-0.32777170,0.48918669,-0.30810378,0.04693598,-0.25767087,-0.45230182,0.02496501,0.41866752,-0.20075479,0.49244666,0.02890698,0.07683567,0.20570840,0.37918809,0.00729210,-0.07363164,-0.37675961,-0.00771688,-0.04756270,-0.34081413,-0.06562609,0.36947617,-0.09023846,0.42713258,-0.48751240,0.07502932,0.31242110,0.06797591,-0.43932275,0.11341558,0.18599225,0.24391573,-0.49287584,-0.20649106,0.46640596,-0.08153945,-0.06953318,-0.37557003,-0.23288083,0.15419900,-0.03715707,-0.35228352,-0.40473645,-0.07662292,0.00055914,-0.05624917,-0.10430102,0.19392848,-0.47881672,-0.33335826,0.14961234,0.23874296,-0.32708179,0.20890414,0.34935627,0.13473691,0.03786330,-0.47556771,0.03484836,-0.20562895,0.45419613,0.24066380,-0.08495904,0.37769764,0.16117457,-0.20563830,-0.06892611,0.23321320,0.23785313,0.16575825,0.36624862,0.24376035,-0.31902214,-0.02528144,0.09288668,-0.40937847,-0.39179556,-0.23904061,0.03921838,0.16012206,0.09387482,-0.08326945,0.29596452,0.22590963,-0.00887266,-0.06899751,0.02784021,-0.12028506,0.06295664,0.44687295,-0.34130460,-0.36648922,-0.09304609,-0.11223249,0.18696215,0.38890596,0.23751987,0.46387404,-0.12256138,0.24022827,-0.35377341,-0.14474370,-0.03515322,-0.08379961,-0.45197759,0.07169489,-0.39382129,-0.20127898,-0.09154377,-0.41297869,-0.49268635,-0.10151377,-0.37195829,0.07713054,0.24888929,-0.15300295,0.47172269,-0.27154795,0.46478834,0.40369603,0.40148945,0.27467955,-0.43671118,0.19759209,-0.27867203,0.16183782,-0.09579380,-0.45700211,-0.35738998,0.35728651,0.04443968,-0.20425881,0.23748737,0.02081749,-0.16926694,-0.49641732,0.11826827,0.19260410,0.14881672,-0.38436348,0.16002562,0.39383276,-0.23606196,0.06075466,0.05703585,0.17596561,0.18110820,-0.11637282,0.31967729,0.21344277,-0.22862995,-0.42374371,0.23188546,-0.23477088,-0.27486271,0.41899519,-0.17155414,-0.13467366,-0.28539422,0.09578118,0.38467967,0.42903542,0.18149044,0.33846944,-0.49636754,0.25294305,-0.16288604,-0.47931729,0.11401646,0.21816978,0.29510985,0.51085829,-0.23600820,0.13095622,-0.41491632,-0.38641225,-0.45260585,-0.30236752,-0.01936900,0.34697523,-0.05158116,0.33664705,0.42551315,0.22342873,-0.02472653,0.08922585,-0.20545287,-0.20810847,0.40994257,0.02250911,0.03009352,0.38028385,-0.13156865,-0.49531951,0.20293791,0.17669479,-0.03585489,0.04343447,0.09522342,-0.37844786,-0.04543414,-0.10490717,-0.03172519,-0.45464563,0.37124051,-0.08717405,0.07786369,0.09717556,-0.36629910,-0.43838307,0.41975179,0.38022556,-0.49487984,0.23781491,-0.34850978,0.15767592,0.23197658,0.35677259,-0.38069128,-0.04076019,-0.07307850,-0.01481541,0.42518372,0.47929024,-0.30565245,0.47605978,-0.47547245,-0.49858640,0.42343076,0.27338960,0.26553124,-0.34684343,0.40404486,-0.33707791,-0.37117057,0.13452143,-0.23174301,-0.03658692,-0.39386689,0.32558792,-0.47914023,-0.24006636,-0.34824769,-0.31191195,-0.49681843,0.19265952,-0.44812407,0.01976437,-0.11643330,-0.03802067,0.07058206,-0.45137949,0.26071738,0.05192295,-0.43852845,-0.19023319,-0.47590867,0.40702493,-0.17952613,0.27658028,-0.22462537,-0.32340964,-0.06203398,0.49053834,0.26238385,-0.11366832,0.33648415,-0.22712259,0.49146989,-0.30570572,0.34140798,0.31487117,-0.14841483,0.09771166,0.43704557,0.25986593,0.38613952,-0.45822233,-0.23909908,-0.03391546,-0.21465080,0.45346016,0.08071126,-0.29087925,-0.01766635,-0.45409809,-0.00236369,-0.02930544,0.17650414,-0.13329940,-0.11339620,-0.10606808,-0.07580178,0.36827954,-0.40320161,-0.03592356,0.45226239,0.24107009,0.29829590,0.23575722,0.22135551,0.30118334,0.39640841,-0.03216661,-0.45927740,0.03213809,-0.11352584,0.46770586,-0.24254539,0.25101573,-0.08016090,0.39753182,-0.28082154,0.41623864,0.19898327,0.32783728,-0.40819700,0.26265386,-0.28319845,0.19572783,0.22061368,-0.03982711,0.36673470,0.47820022,0.41451225,0.05345893,-0.41094826,-0.45557215,-0.38786559,-0.03834396,0.27548601,0.19484650,0.00338778,-0.24471950,-0.46369077,-0.19782861,0.02505350,0.42883740,0.25995347,0.18127719,-0.19927289,0.31143074,0.38233766,-0.45356179,-0.22731030,-0.20063879,-0.30603976,0.13298892,0.21924835,0.45657101,0.10613356,-0.38524862,0.16486302,0.27945905,-0.15678900,-0.12285326,0.49166058,0.14730357,-0.29417677,-0.27636811,0.25638641,-0.03475129,-0.01306151,-0.03897359,0.46842297,-0.07736113,0.35239666,-0.06147549,0.29264513,-0.02229237,-0.00271843,0.26689743,0.23024284,0.23863761,-0.05026620,0.39018429,-0.44527680,-0.25926108,0.38422008,-0.26456712,0.07861858,-0.10081289,-0.04980916,-0.07586134,-0.18420170,0.27491630,0.35451521,-0.36381853,0.34886513,-0.39905328,0.12490039,-0.02400929,0.08673093,0.06761175,0.33269237,-0.29895360,0.26870334,-0.28622338,-0.17213645,0.15839310,0.19995264,0.42570107,-0.32722666,0.48061922,0.33043980,-0.47290334,0.27220926,0.35583609,0.47829786,0.28023432,0.31741383,0.08661127,0.18838808,-0.40004389,0.42567416,0.28478749,0.18979771,0.35249007,0.06593976,-0.04252425,0.40142267,0.49510458,-0.30817408,-0.27960208,-0.01507636,0.24760984,0.06951696,-0.07361010,0.09622481,-0.41477832,-0.12552977,-0.08793367,-0.44989174,-0.21780206,-0.26568404,0.18990646,-0.03151783,-0.09375906,0.49206714,-0.00873137,-0.43377477,-0.16038553,0.00610967,-0.28553040,0.11051116,-0.03952635,0.12568732,0.06582321,0.12492634,-0.40401818,0.42602552,0.49230293,-0.23081198,-0.00282106,0.26412476,-0.17428551,0.14654438,-0.26380326,0.40116662,0.23370888,0.47166479,0.44131506,-0.09386782,-0.20899243,0.32754156,-0.34731858,0.09100377,0.51090708,-0.04561835,-0.09325420,0.34186280,-0.17209004,0.39169578,0.45867612,0.41609059,-0.39267989,0.09710052,0.50813457,0.11500091,0.14833533,0.26369096,-0.29693475,-0.12858983,-0.25120269,0.24589955,-0.07779608,-0.25385050,0.17165720,0.32412059,-0.47499361,0.17575200,0.27762456,0.49113131,0.38719283,0.23003403,-0.09089731,-0.14308264,-0.02851137,-0.16719033,0.45775390,0.25643805,-0.28578420,0.27433638,0.48842238,-0.12767151,-0.32255206,0.23992242,-0.11601188,0.22921713,0.16885353,-0.16656762,0.17128831,0.13729711,0.12017042,-0.13982014,0.25410215,-0.20563567,-0.42771693,-0.06125368,-0.44397935,0.49705339,-0.44264890,-0.23232124,-0.15481897,-0.15779774,0.10332005,0.50443469,-0.10070333,-0.01594494,-0.38187848,0.49207412,0.46468266,-0.17212852,0.33866936,0.20745816,-0.16046814,-0.46100073,-0.22970621,0.34223271,-0.33992130,-0.29240238,-0.02598135,-0.21641959,-0.04597524,-0.37714828,0.13128920,-0.38633700,0.08358181,0.20029067,0.13267062,-0.32446860,-0.27829242,0.28626798,-0.26740657,0.51783658,0.33259526,-0.26006974,-0.38101046,-0.33325397,-0.40467088,-0.37176642,0.43957088,-0.24687691,0.32542911,0.03124757,-0.04022776,0.34787992,0.37394455,0.25207958,-0.19940849,0.03820169,0.01283658,-0.36599061,0.27292980,0.42207447,0.39468497,0.24670889,-0.28999164,0.48991835,-0.25010355,0.20571013,-0.33742992,0.28884128,-0.37650789,-0.24424135,-0.40654548,-0.13942686,0.03755155,0.12139902,0.00432138,-0.06103519,0.21970942,-0.01341453,0.07002339,-0.11523635,0.45932624,0.28791503,-0.24372051,-0.46274049,0.05338881,-0.42167884,-0.20907211,-0.39994408,-0.14279557,-0.09719457,0.45962979,-0.10006379,-0.16604524,0.00844161,0.25728005,-0.23192364,0.37498695,0.08215134,-0.47308562,-0.29613555,-0.16147420,-0.43684276,-0.29641853,-0.16913772,0.36758778,0.19051326,-0.18109941,0.09805293,0.29376348,-0.25731986,0.05947813,0.22358947,0.37042837,-0.00639170,-0.08902472,0.46311480,0.03445931,-0.07445610,0.02625582,-0.36923601,0.25890029,-0.09809640,-0.07842557,0.08840943,-0.09735680,0.36648270,-0.23614715,-0.26098010,0.24409416,0.12686728,-0.28698919,-0.13797964,0.39137678,0.17147207,-0.44639872,-0.06095276,0.20265491,-0.07938059,-0.48949227,-0.31899035,-0.49710732,0.11350239,0.37411606,0.20973432,0.00479807,-0.19117532,-0.43295837,0.13462830,0.28810789,0.32511664,0.18774481,0.49675855,0.14933200,0.15339511,-0.27663137,-0.10159957,-0.44216075,-0.01258423,-0.49588542,0.11631913,0.09282031,0.29602311,0.11561242,-0.30767965,0.44228160,0.43650643,0.45751725,0.05543996,-0.41603530,0.34454927,-0.17282898,0.09637656,-0.49328526,0.28643194,-0.36943609,-0.46770766,-0.29214570,-0.05365498,0.31566809,-0.22453931,0.02332373,0.06636369,-0.29945719,0.29338323,0.13393824,0.30848049,0.14409877,-0.30393741,0.47340285,0.18875628,0.37483160,-0.05372462,-0.44175914,-0.14875809,-0.25278048,-0.25449845,-0.37997931,0.17756384,0.26281874,0.17844053,-0.04716897,-0.02791056,-0.10155425,0.48502810,-0.39390051,-0.34150147,-0.25576300,-0.47705321,0.10552198,-0.09470692,0.16050281,0.47992540,0.08049569,-0.22513576,0.23987260,0.03958836,0.35966002,0.22633713,-0.23340469,0.04887469,0.01821073,-0.35733957,0.44164309,0.35639493,0.32325829,0.44568558,-0.04271861,0.28183970,-0.46578062,-0.31013077,-0.27818152,-0.14249243,0.32691923,0.22248734,0.33929778,0.10387529,-0.10705613,0.44550582,0.11422292,-0.40483933,0.17228590,-0.25823102,-0.44392976,0.19820627,0.29860904,-0.45720922,0.27896170,-0.41789260,-0.05842458,0.23801478,-0.40100170,0.30249871,-0.02815551,0.01350599,-0.11496193,0.33137380,0.31502802,-0.04687983,0.34669888,-0.27037574,-0.40207756,-0.24456424,0.07766417,0.22539203,0.08415718,-0.48467700,0.27042042,-0.30756794,0.43364686,-0.42195878,-0.02549750,-0.43254594,0.35231225,0.29799057,0.37807920,-0.26815644,-0.22481663,-0.22930643,0.32364106,-0.39458057,0.15495181,-0.06227355,-0.09437240,-0.49395549,0.30321158,-0.38770464,-0.04652267,0.00280624,-0.12437489,-0.18077646,-0.11960737,0.09625921,-0.30058514,-0.19898789,0.37630939,-0.31532551,-0.46622867,-0.15954258,-0.22678990,-0.11614734,-0.06746659,0.40390421,0.18632640,-0.24333685,0.42700796,-0.45006743,-0.09098906,0.08785764,-0.15442324,-0.28252176,-0.07781227,0.05887430,-0.14187058,-0.21916126,-0.45058795,0.03436273,0.31289215,0.03770268,-0.32427298,0.13810406,0.35637763,-0.47033010,0.40586153,-0.29372162,0.11389189,0.41881085,-0.26399263,0.29507612,0.07549984,0.31359651,-0.10112577,-0.16812271,0.25595702,0.08123134,0.19745091,-0.17169021,-0.46894995,0.14218787,-0.10726903,0.01840538,-0.33332419,0.47883249,-0.13120249,0.24526694,-0.45611936,0.26015622,-0.45913563,0.46667976,0.27326014,0.19057077,-0.26140951,-0.29297342,-0.10818011,-0.01895901,0.45254044,-0.24007974,0.16402234,0.33306546,-0.45963769,-0.35780717,-0.17642111,-0.17670738,0.22504008,0.34334803,0.08672500,-0.27065656,0.24814232,0.44984943,-0.30413751,0.43312399,0.15438988,-0.34549781,-0.34841937,-0.51421759,-0.22210699,0.14716394,0.47420230,-0.19532202,0.22812131,0.23327938,-0.06642291,0.44570634,0.39823601,-0.06414634,-0.49412635,0.10424259,0.31279218,0.35463518,0.42935360,0.47319255,0.45760599,-0.46642457,0.33204112,-0.36994155,0.14887958,0.39271574,-0.26498790,-0.02353701,-0.13465397,-0.28723852,-0.07252009,0.07371605,-0.36657009,-0.30786497,0.41118656,-0.04567244,-0.23944479,0.17183080,-0.33783224,0.45218289,-0.25355378,-0.41373477,0.09624383,-0.24667994,-0.11504530,-0.16258980,-0.17482366,-0.46132433,-0.12736434,0.29432211,-0.08315451,0.40376722,-0.35961107,-0.48334315,0.07749983,-0.11961471,-0.49907371,0.06924629,0.05177092,0.00115481,0.36570805,-0.43229577,0.35815487,-0.36556951,-0.00965856,-0.31552488,0.07236134,0.10570648,-0.15226506,-0.05126831,-0.25866335,-0.15837897,0.15893774,-0.18463234,-0.06655945,0.00669696,-0.20905095,0.21555721,0.04673620,0.10367621,-0.39665980,-0.32540705,0.23230704,-0.25293355,0.24882940,0.17068014,0.09146568,0.06608414,0.26245256,-0.41250610,0.41294201,0.00027387,-0.12907437,-0.13912348,0.40311095,-0.24897840,-0.45306353,-0.09618211,0.21444873,0.32764560,-0.01996320,-0.05569285,0.13360367,0.08513173,-0.24616477,0.15283585,0.48573428,0.32289371,0.13107952,0.30605860,-0.24735151,-0.33166258,-0.20371403,-0.13430811,-0.04846698,0.12631720,0.11359596,0.24164758,0.33281671,0.22795598,0.32807015,0.48365729,0.17456623,0.23612075,0.02483885,-0.29531765,0.14731455,0.33711737,0.47819462,0.01578713,-0.16990388,-0.12654481,-0.28945086,0.39919090,-0.25685635,-0.32065254,-0.33181562,0.48495401,-0.43883863,0.23044170,0.00025655,-0.01961526,0.48231695,-0.06544768,-0.45258216,-0.14492679,0.01898363,0.25590437,0.38048800,-0.05525905,0.48344827,-0.03870028,-0.04964758,0.41050458,-0.33933639,-0.24183455,-0.01569076,0.32045843,0.37421934,0.02909523,0.34525884,-0.33005633,-0.14984183,0.06862120,0.28452745,0.14684067,-0.02865640,0.07999223,-0.14268734,0.22525596,-0.29685420,0.02619008,-0.34123916,0.11762493,-0.11708639,0.50954908,-0.33089419,0.21587522,-0.01007870,0.20763364,-0.26123625,-0.19949120,-0.17374224,0.09859741,0.29905919,0.18184297,0.35207573,-0.08707175,0.31375480,0.21641602,-0.27119289,0.14640818,-0.08024863,0.40690227,-0.15520151,0.46090335,0.31015147,0.33765689,0.21684903,-0.02874051,-0.10009938,-0.45288978,-0.11855459,0.36882469,0.00722783,0.16271279,-0.40906827,-0.22169212,0.35896128,-0.42118136,0.15266967,-0.43445812,0.11119608,0.24568630,-0.23081342,-0.44543082,0.02394595,0.20066489,0.31004561,-0.08442226,-0.15721294,0.41022337,0.47327511,-0.10983084,0.00198146,0.51044552,-0.16242809,-0.25168454,-0.02121380,0.02669676,-0.46338995,0.33427361,-0.34622504,0.01667601,0.21050980,0.40365005,-0.27100870,0.06712556,-0.45696854,-0.33539429,0.43954517,-0.14440294,0.39615566,0.29080702,-0.07337899,-0.38084602,-0.13089579,0.32686726,0.27364874,0.05722502,0.00950706,0.10075195,-0.20645182,-0.26022511,0.32594533,0.07360159,0.02855461,-0.08168858,-0.32596026,-0.03009546,-0.23233573,-0.04405820,-0.21986967,0.16554486,-0.08748703,0.03234853,-0.03516760,0.26364078,-0.39822042,-0.41592859,-0.11886499,-0.16733047,-0.11338937,0.25216956,-0.01575738,0.14525605,0.41503928,0.23739326,-0.25089444,-0.35038008,0.45515331,0.44012968,0.18775069,0.23934677,0.04781613,0.35709576,-0.29754035,-0.24339681,-0.12678379,0.00140742,-0.17871808,0.25119958,0.07568460,0.07254142,0.46543204,0.32105026,-0.27273110,0.09799439,-0.08020849,0.32658873,-0.18600321,-0.42340255,0.04986698,-0.33884092,0.25443641,-0.47382626,-0.29445092,0.10912765,0.25545415,-0.17496900,0.31492985,0.37101207,0.32132158,-0.23342983,0.37390509,-0.40764431,-0.45840069,-0.25101982,0.42590375,0.17575111,0.18769742,0.06316818,0.11312596,-0.26799203,-0.36835742,-0.08746252,-0.17028439,0.41742111,0.42702243,0.06707601,-0.38379574,0.49255871,-0.05089297,0.36709252,0.34834866,-0.09872547,-0.02350447,-0.06698186,-0.25122482,-0.35405492,0.42861543,-0.28645540,-0.44887906,0.27076219,-0.43908231,0.28883338,0.12926501,-0.32041430,0.34084597,-0.04171523,0.00664597,-0.43924830,0.30474513,0.20839682,0.42467748,0.45594886,-0.27954464,0.05656298,-0.33051559,-0.12524923,0.06358850,-0.41726886,0.19865825,-0.07892254,-0.29588132,-0.44552485,-0.27716721,0.07817997,-0.52372619,0.33623465,0.08919854,0.29982358,0.11157369,-0.37673885,0.35477675,0.44918126,-0.19578689,-0.19792731,0.16209250,0.17260016,0.42421787,-0.38696961,0.00454649,-0.29772162,0.07570724,0.21826097,-0.00295745,-0.12339499,-0.21346614,0.30847198,0.13571321,-0.26840454,-0.45126137,0.17663728,0.13059812,0.40078479,0.21382704,0.14646993,0.35875639,0.29219058,-0.41256637,0.46909348,0.43036676,0.26215808,0.47206773,-0.50023649,-0.22487879,0.20351312,-0.38879754,-0.29018459,-0.44276892,0.42507371,0.40298234,-0.12735350,-0.49095181,0.21469627,0.16677114,-0.00698252,0.21549115,-0.21860941,-0.18893604,0.24067860,-0.37866764,0.01690575,-0.02311016,0.28216969,0.10107394,0.26676410,-0.15933980,-0.29239586,-0.13966624,0.00263468,-0.47078071,0.37567665,-0.05026080,-0.44378905,0.19530549,-0.29570358,-0.04009161,0.30596244,-0.13916652,-0.44480170,-0.12483805,0.18156159,-0.00538970,-0.03548999,0.10704233,0.17603599,0.14716015,0.33658138,-0.08693976,0.13795064,0.47122526,0.46708559,-0.09867128,0.25668302,0.47949195,0.07094842,0.24770462,0.41160074,0.45400375,0.47778856,-0.18188725,-0.04661943,-0.15921957,0.45346384,0.04701944,0.23313841,0.08480596,-0.03444789,-0.28953677,-0.08350670,0.23635657,0.18052339,0.30257176,0.29934329,-0.18692733,-0.47551723,0.47353529,0.06507639,0.34034845,-0.41382882,-0.28000318,0.35698743,0.12700252,0.38609286,0.43064160,-0.03071480,-0.41725311,-0.23563213,0.30679175,0.41163949,-0.09120884,-0.44827765,-0.25150980,0.16106433,0.09232444,0.35332874,-0.12952787,0.28747626,-0.37029849,-0.00425439,-0.16934125,-0.19431106,0.22674529,-0.23730309,0.35404330,0.13910613,-0.03949294,-0.48587334,0.32057360,-0.27940728,0.18176908,-0.32658508,-0.49997952,-0.34904642,0.23453227,0.34901057,-0.00827845,-0.35822022,0.16290429,0.40590485,-0.08919759,0.23653792,0.41905856,0.16124801,0.38718142,-0.22863041,0.07644165,-0.02578095,0.35502968,-0.28341791,-0.06252722,-0.14044170,0.43717985,0.49376197,0.46369493,-0.42194267,-0.32971898,-0.20114200,0.33102769,0.29084734,-0.16645985,-0.17016057,-0.26624350,-0.15093069,0.04685038,0.41948155,-0.03146254,0.05782004,0.27161050,-0.07746028,0.35107065,0.20294568,0.33492306,0.31792698,-0.16774953,-0.41713379,0.04427050,0.34493804,0.42633482,0.16453524,-0.31713218,0.46766301,-0.43808249,0.33851253,0.48522130,0.27914913,0.44109014,-0.42534577,-0.00177961,0.34607643,0.34165266,0.01232155,0.43769946,-0.05551426,0.13133654,-0.39724797,0.48084209,0.27816289,-0.37586963,-0.02894486,-0.22854976,0.03202365,-0.13445225,-0.20490700,-0.26262691,0.30068272,-0.05992401,-0.32702178,0.12031203,-0.13571194,-0.00178483,0.22159440,-0.33137487,0.38477472,0.00420320,-0.16093931,-0.24657289,0.46152767,-0.21738792,-0.23515180,0.22536460,0.07344706,-0.44248855,0.25792480,-0.32120230,0.42872957,0.29941096,-0.44233897,0.26217494,-0.36391247,0.31594179,-0.23853491,-0.28497112,0.19072713,-0.17613492,-0.09168006,-0.01737955,0.18117766,0.34542296,0.48902718,-0.45719691,-0.26273747,-0.00533580,0.29911281,0.10549165,0.04319099,-0.02992709,-0.29372751,-0.04956674,-0.26847933,-0.10673486,-0.02150214,0.14797308,-0.42586207,-0.27248214,0.43229303,-0.34197446,-0.00095720,-0.39237338,-0.06194093,-0.10473740,-0.13232200,-0.07441814,0.01545033,-0.17902284,-0.08580758,-0.30883695,0.01638029,0.41582650,-0.13086947,0.45541634,0.18095027,-0.27478032,-0.26810696,-0.48341880,0.02912537,-0.34743015,0.23604252,-0.43992517,-0.04959086,0.38101445,-0.29306005,-0.27343603,0.25631594,-0.47627918,-0.49709079,0.32350396,0.33161216,0.49116938,0.34326549,0.02065379,-0.14879416,-0.16899440,-0.04178644,-0.42323034,-0.25033575,0.39923720,0.24021456,-0.07416055,0.10443466,0.00284803,-0.32880530,0.40785727,-0.01525095,-0.15582092,0.10101528,-0.30636992,0.16892785,-0.34724130,-0.16532204,-0.15908495,-0.25745011,0.43436131,-0.24001023,-0.06762196,0.39936270,-0.35435375,-0.01324975,0.41610275,0.03420643,-0.37158020,-0.38529966,-0.50600913,0.14213879,-0.12178876,-0.20628791,-0.26868320,-0.47378916,-0.18359664,0.32531019,0.07423183,0.36410335,-0.33294737,0.47964653,0.04757981,-0.01242137,0.21292655,-0.48576971,-0.20664448,-0.27591161,0.21245958,-0.45888724,0.08138721,-0.10577717,0.07560787,-0.09448145,-0.48541260,-0.10869522,-0.13657839,0.35691666,0.31935740,-0.21183628,-0.30743310,0.24478752,0.03267942,0.11227461,-0.28427185,-0.44347363,-0.28447430,-0.04682926,-0.07588006,-0.48685314,-0.36492470,0.22352083,0.39127687,-0.03055550,0.24464585,-0.18681628,-0.22578482,0.06839043,0.26833836,0.45933242,-0.08446351,0.12514497,0.23174119,-0.24728330,-0.38575856,0.44754759,0.16690657,-0.29871123,-0.28773091,-0.41100461,-0.30213830,-0.45222670,-0.16762561,-0.05706498,0.21018745,-0.09136624,0.14677059,0.05598655,-0.37107236,0.09061991,-0.12460711,0.21220618,0.31902673,0.29560984,0.23606997,-0.48443106,-0.37560068,0.25152308,-0.36932262,-0.05702671,-0.41832151,-0.31613910,-0.38172811,-0.18517473,-0.06434571,0.21235255,0.08438218,0.26846941,-0.14357465,0.10125073,0.30896924,-0.26690598,-0.41619265,-0.17596227,0.24498169,0.35371061,0.18411021,0.16469279,0.01826699,-0.34778558,-0.35438677,0.01769037,-0.16655021,0.40554538,-0.02169458,0.22111165,-0.15600856,-0.18228478,0.34074950,0.25151310,0.26153342,0.36567111,0.51519248,-0.40701540,0.05899117,0.01602757,0.09772040,0.35660355,-0.17306819,0.27213969,-0.09190515,-0.11650689,0.28142945,-0.28721420,0.42513885,-0.25129368,0.05944825,-0.14481108,0.07170838,-0.37612341,0.47328791,-0.05042011,0.36859466,0.48873452,0.00136696,-0.17878308,0.50801550,-0.39281844,0.42236961,-0.06238624,0.26378754,0.03124558,0.28755538,0.01302416,-0.05323530,-0.04789020,-0.46215812,0.20514722,0.18591232,-0.20971955,-0.44551301,-0.42401790,0.42371300,0.00828192,-0.43068034,0.23165459,0.45635942,-0.14306301,0.03797377,-0.04955709,0.25032224,0.01046801,-0.20859661,-0.07998202,-0.20918675,0.05452042,-0.35126373,0.48242848,-0.26864528,0.43020764,-0.24138111,0.44020251,0.06463658,0.23750067,0.39947500,0.00801704,-0.01253750,0.10840392,0.06948314,0.19561669,-0.31164495,-0.27563886,-0.03839906,0.30399704,-0.34115057,-0.25369027,-0.48841057,-0.00796237,0.06278900,-0.44940162,0.33667600,-0.00562178,0.42509070,0.30185051,-0.15897286,0.44854608,0.18369141,0.45445929,-0.37663481,-0.35145068,0.39806608,-0.30918929,0.38534196,0.09365009,-0.29159264,-0.13022171,-0.39712827,0.09110540,0.23458946,-0.07351267,0.09222363,-0.41614425,0.00370002,0.34524472,0.24543778,0.45960622,0.36418791,0.40075412,-0.25380606,-0.26592573,0.12946193,0.13671514,0.29068429,-0.19521738,0.05822910,0.05259412,0.49295040,0.35665164,0.28809874,0.39879754,0.47102470,0.13980072,0.18771169,-0.16088895,0.48386000,-0.27499366,0.33974173,-0.24082709,-0.06817501,-0.02048570,0.15189159,0.25669825,0.01278211,-0.10324300,0.39802819,0.44610781,-0.39229186,0.44481417,0.25429000,-0.19551321,-0.24950085,-0.01099492,-0.11939943,0.45715832,-0.41146938,0.06503205,-0.07870222,0.29226720,0.43974408,-0.39805135,0.47599669,-0.46071559,0.25406207,-0.08167987,0.35860198,0.27236570,0.44801460,-0.09257531,0.08105846,-0.32747433,-0.10289354,0.01388476,0.10742223,-0.21970431,-0.22304679,0.23312918,-0.18654187,-0.12914305,-0.46253840,0.43784431,0.46503752,-0.36517572,0.16497700,-0.27137344,-0.23091369,0.26979193,-0.35035106,-0.06324640,-0.31880648,-0.26845328,0.05804870,-0.43219685,-0.04649370,-0.40485349,0.28045209,-0.32725038,0.12312485,0.08303419,0.38998533,0.29219623,0.10018919,-0.18806397,-0.47637032,-0.09266193,-0.33123501,-0.46543162,0.21534091,-0.21939274,0.34575787,-0.46003929,0.34622117,0.05654835,-0.02103862,-0.09475522,0.31052792,-0.19163476,-0.36781229,0.42498490,-0.20546126,0.24444956,0.39435865,-0.34145636,0.05831168,-0.07889237,-0.43494747,-0.01113408,0.03989113,-0.46568994,0.04031704,0.17728487,0.13765125,-0.38600314,-0.10175416,-0.00734386,-0.05233978,0.11000843,0.23812998,-0.23479749,0.37389360,-0.32002835,-0.15135617,0.45652373,0.30545017,0.26450295,-0.37170977,-0.05446444,-0.08281939,-0.27613107,0.00284650,0.13684062,-0.45581668,-0.17399786,-0.46636016,0.27068878,-0.19691385,0.37312560,0.12697722,0.09168068,0.47992281,-0.20602826,-0.03679162,-0.16204211,0.35750701,0.34185772,0.29582531,0.37633468,0.13984732,0.43225656,-0.10361402,0.11071582,-0.07415640,0.32362094,0.16475103,-0.12892326,0.20676953,-0.09982117,0.07071262,0.19380731,0.25538845,0.14290813,-0.12489310,0.10544316,0.19730705,0.20089455,0.00878468,-0.24274774,0.23308650,-0.18604294,0.36646476,0.30343686,0.07335431,-0.07981611,-0.42043717,-0.14699285,-0.33019786,-0.48274533,0.43170853,-0.25338449,-0.00598779,0.25758948,-0.18568402,-0.44598773,-0.17893214,0.51142128,-0.09928176,0.16327604,0.36253999,0.28680717,-0.40321444,0.23859622,-0.18132250,0.19054163,0.16938395,-0.48510401,-0.41711853,-0.21779049,-0.14734027,0.39727550,0.01952783,0.09255520,-0.13704348,0.27120503,-0.31137508,0.29063807,0.06424137,-0.11568239,0.26686777,0.00511183,0.23482216,0.17808576,0.09698934,-0.26029968,-0.36864481,-0.02200912,0.01071406,-0.21284064,0.04336605,-0.43362243,-0.29482903,0.30971284,0.40222657,0.17069888,0.13831151,-0.21811767,0.12006692,-0.08164309,-0.44682249,0.28173696,0.13115322,-0.06435222,-0.14854771,-0.13947138,0.21709740,0.02216686,-0.33148335,0.16733561,0.15197693,-0.44519168,-0.38905803,-0.25086706,0.25011322,-0.25309229,0.00748778,0.13584269,0.45040216,0.07163786,0.16182526,0.39731836,0.37042112,0.12084797,-0.27503501,0.11336369,0.38403079,-0.32680298,-0.07849542,0.42707115,-0.44474823,0.36020368,0.09176817,0.30661105,0.09547128,0.25923320,-0.41167218,0.14740404,0.07989962,-0.47352651,-0.01450978,-0.38243388,-0.09982855,-0.50006725,-0.02770371,-0.08899101,0.14199266,-0.01066853,0.06893032,-0.27942173,-0.49753741,0.28465490,-0.42784146,0.22985707,0.13829771,-0.22125397,0.18843044,0.38612963,0.04415732,0.35482475,-0.07800611,-0.09090952,0.20889083,0.40929691,0.39277218,-0.40452097,-0.28322520,0.29082117,-0.17379610,-0.22333233,0.03546022,0.12791921,-0.03976434,0.41595914,-0.15277557,-0.28812868,0.28299974,-0.09142517,-0.33853319,-0.28566400,-0.04680565,0.05705004,0.24433544,0.19076743,0.43081010,-0.17611803,0.11012673,-0.23033870,-0.21131304,0.41562686,0.05924112,0.47297535,0.18147993,-0.39067330,0.33070658,-0.27967839,-0.19212488,-0.31861497,0.01002994,0.36109078,-0.22521178,0.42416433,0.30903546,-0.17650506,-0.26134963,-0.41440851,-0.25204532,0.37006910,-0.18769367,0.37185291,0.41199392,0.06775638,0.19351847,-0.10708526,-0.10032680,0.11653035,0.35808586,-0.05701736,0.46481547,0.06792033,-0.04989393,-0.12522356,-0.12979078,-0.21844226,0.47699507,-0.38023571,-0.22646694,-0.40279457,0.32260710,0.22706872,-0.34498879,0.36066974,0.45332921,-0.41325909,0.24839182,-0.25962295,-0.11546754,0.08128909,0.07747059,0.10100639,-0.16383659,0.11578594,-0.13830861,-0.12057594,-0.21476422,0.00898723,-0.16783875,-0.11612378,0.45056231,0.37048182,-0.20730320,0.30416596,-0.20487371,-0.39465185,0.10437237,0.23328099,0.34217606,-0.47791537,0.08923771,0.27121023,0.12381038,-0.31412130,0.11713530,0.29101859,0.42767376,0.37873172,0.27291042,0.14865273,0.20152369,-0.01768119,-0.49434312,-0.19598869,0.24033119,-0.39090699,0.04077166,0.48616025,0.03060887,0.08529364,0.25866541,-0.08880343,0.04014260,-0.40029199,-0.25275253,-0.01931755,-0.34829229,-0.27749279,0.43766574,-0.10452477,0.22400521,0.35789031,0.07830286,-0.39427191,-0.13093735,-0.44662117,0.44526157,0.32033510,-0.21174293,-0.05412991,0.41532439,0.40234825,0.22939217,-0.47275403,0.16232002,0.33492242,0.27844770,-0.49258545,-0.46370134,-0.00376704,-0.45082038,-0.36902082,-0.21662435,-0.32189982,-0.37431790,0.34205874,-0.04859377,0.10549561,-0.09937139,0.01950657,-0.32156576,0.06162992,-0.42068573,-0.12016027,0.13758187,0.28161691,0.32900466,-0.41988512,0.06304342,-0.21944422,0.38447547,0.19824556,-0.19407914,0.40837272,-0.34679288,0.44085952,0.27831562,-0.07995612,0.41708703,-0.28486156,0.46672713,0.25228735,-0.29228290,-0.48464829,-0.06514662,0.24899551,-0.33947165,0.48589157,-0.08727223,-0.03055422,-0.23907969,-0.38799524,0.13384812,0.02423018,-0.33885089,0.15525090,-0.46096914,-0.21867135,-0.45024781,-0.30200888,-0.01137438,0.32109062,0.16327200,0.14132037,-0.30774321,0.38569294,0.11056489,-0.13476875,0.32118548,0.40458845,-0.00563077,-0.23634116,-0.22429350,0.18262421,-0.40459163,-0.02432890,0.29488994,0.16873218,-0.10552207,0.28777796,0.23241650,-0.10194601,0.29983404,0.46435121,-0.35672469,0.41061890,-0.07784550,-0.32146392,0.06200507,-0.02008866,0.35264234,-0.27893900,-0.49315282,-0.12652086,0.04239503,-0.38622135,0.27199478,-0.40933410,-0.42040641,-0.48222670,-0.09232433,-0.16179134,0.26711062,0.44206941,0.36472932,-0.28547416,-0.47600737,-0.37713596,0.12979568,-0.26966677,-0.35761730,-0.44972844,0.07562895,-0.34150893,-0.28779041,-0.01054265,-0.18941277,0.06003347,-0.45035859,-0.25990968,0.31119478,0.05387856,-0.43721341,0.33764646,-0.22031953,0.00847355,0.47148167,-0.24763916,0.26363571,0.42914809,0.14421364,-0.08424071,-0.41896046,0.20514546,0.14498881,-0.22706061,0.17603907,-0.38642749,0.23588923,-0.29220216,0.28261083,0.37346274,0.29905253,-0.10663897,0.32336150,0.47512226,0.42248642,0.42656212,-0.09665495,-0.07965069,-0.08821073,-0.28546727,-0.37041754,0.39746711,0.14864827,-0.18981691,-0.38203662,-0.16865405,-0.03558415,0.47676399,0.48882543,-0.26044261,-0.04719302,-0.20883273,-0.38892613,-0.17003063,-0.22950497,-0.01703928,0.36286284,0.19592204,0.22376821,0.25720891,0.11266544,0.36920674,0.24324405,-0.02419910,-0.04460371,-0.28499958,-0.00721001,0.30812434,0.05769948,-0.38769237,0.29192601,0.45619934,-0.26639971,-0.12248142,-0.22896779,0.00788589,0.23382028,-0.32328677,0.19786330,-0.06086609,0.14700997,-0.25152130,0.26521230,0.15694090,-0.42537463,0.20330736,-0.07992945,-0.09239764,0.02415603,-0.31271162,0.00351781,0.17895071,0.15439747,-0.09503543,0.12501225,-0.19186585,0.07574270,-0.02763765,-0.00396622,-0.39824067,-0.09027474,-0.23316911,0.33487074,0.27549709,-0.02790048,-0.22406043,0.17746329,0.12220176,-0.19428510,-0.10323853,0.33511829,-0.15821833,0.32340556,-0.17905374,-0.23080869,-0.38155061,0.34665548,-0.36988562,0.14028990,-0.38465494,-0.32001518,0.22832474,-0.09708447,0.21575144,0.24730524,0.17534197,-0.02243271,0.19381335,0.29396644,0.39400479,-0.06756798,-0.15611120,-0.24253856,0.30765158,-0.08817286,-0.24145483,0.35811392,0.01313557,-0.31279495,-0.25004504,0.46476178,-0.46601682,-0.12744263,0.08542948,-0.49232117,-0.48840954,0.40742251,-0.44535446,0.22415103,0.20689480,0.02308109,-0.03300967,0.28208899,0.30103653,0.44487841,0.23841808,0.47244742,-0.45022514,-0.16992032,0.11109422,0.31546207,-0.36724509,-0.27314296,-0.03464750,-0.30960547,-0.27617006,-0.20483325,-0.02001560,-0.33120423,0.47853411,-0.44124243,-0.36750631,0.18990233,0.07025780,-0.37814955,0.20488237,0.34888650,-0.32256077,-0.35910351,0.28323851,0.33108416,-0.48289992,0.31354350,-0.17282035,0.24438161,0.10263983,0.34047262,0.28656770,0.26082134,0.38204056,0.28848301,0.31519637,0.40895218,0.42346317,-0.01076442,0.20123825,-0.46489192,-0.39630881,0.04019284,0.19989923,0.24759487,-0.09966268,0.25717697,-0.40658173,-0.32333838,-0.21897104,-0.19704770,-0.01924194,0.20434875,-0.16159073,-0.34758802,0.17710269,-0.31533994,-0.11304521,0.45454878,0.10712569,-0.18215836,0.07856084,0.45766835,-0.21668381,0.35999189,-0.44899697,0.41364256,0.06618190,-0.14749885,-0.33418528,-0.44015083,0.05412796,0.18351129,0.04393547,-0.42414422,-0.34551979,-0.40676086,-0.31885603,-0.49429892,-0.24914869,0.10294639,0.41323319,-0.12344566,-0.06944529,0.17998844,0.02538568,0.39407245,-0.43913818,-0.37002881,-0.44799122,0.36594873,-0.42122520,-0.47427110,0.47537104,-0.41520473,-0.43779667,-0.20883639,-0.12375436,0.39062701,0.16012554,-0.43476598,0.02983259,0.02828777,0.20919128,-0.08527714,0.40332681,-0.46076316,-0.43664333,-0.21718918,0.04642801,-0.19376044,0.49079415,0.18063527,0.19571648,0.34580976,-0.14390664,0.24022342,-0.12734773,0.30555222,-0.13334846,0.26128607,-0.34116359,-0.37616960,0.12457892,0.39953118,-0.01465593,-0.46062602,0.46538800,0.25921719,0.02599838,0.04715852,-0.30636801,0.00488392,-0.27607388,-0.44160890,-0.37655123,-0.31313371,-0.23798461,-0.42334513,-0.49092136,0.27719167,-0.43396441,-0.48635434,-0.36661328,-0.12647570,0.17595281,-0.00926487,0.45761015,-0.17777058,-0.27372681,-0.10972878,-0.22846258,-0.12090635,0.17823144,-0.01700798,-0.31304599,-0.11348346,0.14692660,-0.02979344,0.41254137,-0.23784231,0.02777136,-0.02869346,0.25885951,0.04692677,0.02326892,0.06314169,-0.38047392,-0.03070600,0.30592492,-0.01972778,0.06025549,-0.24175560,-0.19274814,-0.24055250,-0.08783942,0.13005441,0.41784582,0.40014122,0.23627934,-0.38495291,0.47117329,-0.04876569,0.21993547,0.20385482,0.28303260,-0.40126284,0.10320499,0.00745110,0.02615678,0.24248382,0.23844809,0.33584317,0.12000670,0.31502293,0.14365887,-0.12901605,0.46318033,0.00160638,0.47768553,-0.00244002,0.32964635,-0.20661784,0.15010009,-0.10105818,-0.34909327,0.35930125,0.11707655,-0.01167186,-0.23063900,-0.23706894,0.24819160,0.09576623,-0.29141753,-0.51178575,-0.43954695,0.46156072,0.35940692,-0.20422197,-0.41965493,0.47213951,0.35895576,-0.36115267,0.14597280,0.05559904,-0.21004250,0.20416560,-0.33595226,-0.35238271,0.23076588,-0.37009632,0.37315541,0.01133785,-0.45530847,-0.07965129,-0.03725398,0.14949095,-0.42315438,0.27955216,-0.08590679,-0.05444394,0.40667543,-0.32255129,-0.21781658,0.45567674,0.18301479,0.21157506,0.05851352,0.04994341,-0.04866815,0.14461946,0.00978090,-0.39103560,0.27703680,-0.25618260,-0.39112709,0.45360772,0.38170323,-0.48707706,-0.11988537,0.05918294,0.12832967,-0.33421503,0.03144750,-0.47478327,0.33379038,0.45306465,0.40845588,0.33460375,0.00668092,0.37958044,-0.22323784,0.11759640,0.48773966,0.15013750,-0.36948531,0.00449873,-0.25294208,0.19158055,-0.38928734,-0.18526296,-0.28973215,0.03299987,-0.22228213,-0.26525092,-0.05388884,-0.12582602,-0.46606833,0.17573155,0.15159370,-0.04247530,0.10894402,-0.10577231,0.39447701,-0.29320810,-0.34224020,0.48954570,-0.25363934,0.10564823,0.13830268,-0.26480301,0.12635878,0.40792935,-0.25578898,0.32595733,-0.34684872,0.35097341,-0.01235730,0.40590917,-0.44327329,0.10711094,-0.11738868,0.25770804,-0.13035620,-0.06807787,0.17601273,-0.32967714,0.47770009,-0.07789776,-0.47879498,0.00707332,0.33710250,0.36369440,0.49340136,-0.02100652,-0.37938930,-0.33069161,0.06878360,0.07669654,-0.18765323,-0.03797271,0.02139878,-0.34711130,0.33677309,-0.35333348,0.49763263,0.19154177,0.01604446,0.20467241,0.00222870,0.21762328,-0.03961128,0.00448623,0.02119655,-0.44401268,-0.42430345,0.08084314,-0.25836567,-0.08557604,-0.06213356,-0.15694386,-0.48266679,0.03534302,-0.28193442,-0.27878578,0.29877298,-0.20097812,0.26979545,0.46554436,0.22810432,0.30014833,0.04767975,-0.23479955,0.14268217,0.45833453,-0.04812810,-0.09319868,0.16140203,0.10547181,-0.40747944,-0.16511636,0.12663136,-0.50562234,-0.31919973,-0.04511617,-0.32109214,-0.12860015,-0.25224583,0.02194946,-0.01977535,-0.00709908,-0.47103617,0.12879161,0.12315911,0.34673495,0.06501057,0.01018557,0.07079365,-0.16515769,0.29041080,0.18472717,0.23608025,-0.47061179,-0.43349872,-0.21833214,0.31478510,0.09237624,-0.25479263,0.42082407,0.41097537,-0.27650874,0.35846309,-0.08815932,0.27389940,0.14716042,-0.46817273,0.10933353,-0.08254958,0.22067009,0.20084449,0.05743178,-0.48269774,-0.25663216,-0.20957140,-0.26265989,-0.15798968,-0.12222716,0.18607222,0.22390303,0.27873436,0.44233128,-0.03114354,0.26033492,-0.26061354,0.49442392,-0.28718221,-0.24010916,-0.32939292,-0.11938685,-0.14557527,-0.22778551,-0.12941620,0.26275515,0.16938463,-0.35384058,-0.38278540,0.36652813,-0.31760056,-0.39430128,0.04613567,-0.01831829,0.14409779,-0.39146374,0.19552162,0.03063353,0.00976832,0.46499407,0.24152853,-0.35643247,-0.09789736,-0.09498727,-0.17869995,-0.16058530,0.00504688,0.26125245,0.11510474,-0.28480495,-0.35679848,0.22886016,-0.49984471,0.04578561,-0.30114725,-0.37779949,-0.04715411,-0.24125075,0.10935944,0.48446499,-0.16008458,0.32362016,0.23416596,0.25844555,-0.33415509,-0.06667682,-0.35731099,-0.42778536,-0.47020414,-0.32461921,0.41569826,-0.34653460,-0.49449181,0.15150002,-0.05170089,0.42521072,0.17928196,-0.11018485,0.20214309,-0.17439225,0.04282460,0.07648178,-0.21605639,-0.34068873,0.10873728,-0.46597480,-0.49456094,0.47528000,-0.07038162,0.35962996,0.43195745,-0.01556099,-0.42355038,-0.05620466,0.49780731,-0.25649419,-0.17383091,0.08659409,0.13488634,-0.47321745,-0.47932977,0.28221231,0.43938447,-0.18234480,-0.06246607,0.24706128,-0.39235445,-0.37952663,0.25331267,0.39264896,-0.33915398,-0.39843091,0.30612776,0.46439924,0.27822336,0.13140251,0.01467648,-0.16467946,-0.09999615,0.41581014,0.15683023,0.32900540,0.46744507,0.00305586,-0.22943966,0.46336737,-0.29955839,0.23223775,0.17188888,0.17254829,-0.20538374,-0.30939402,-0.44263655,0.25919573,0.49631712,0.46758704,0.04011967,-0.25383324,0.14024331,0.04257374,0.46525339,-0.40878265,-0.46827290,0.22101210,-0.37354527,0.09613672,-0.31004032,0.09889570,-0.32875256,-0.20729764,0.42519930,0.27852131,0.05068110,0.32096638,-0.45681795,-0.02015104,-0.31124797,-0.05058082,0.01792106,0.00085753,0.32842915,-0.28161242,-0.26871586,-0.26544159,0.22810902,-0.40083288,0.39512654,-0.01017895,0.06994494,0.37662368,-0.24265877,-0.42962893,-0.26490295,0.45000971,-0.29118947,-0.08551778,0.40691955,0.00479357,0.36603731,-0.08067003,0.40343991,-0.26625160,0.40745671,-0.13456780,-0.01329578,-0.08922192,0.00066219,-0.35459923,-0.06443287,-0.11822696,-0.44992625,0.27426001,-0.12426473,0.42512975,0.33354159,-0.07321240,-0.42312292,0.24095673,-0.19482613,-0.07424300,0.37752699,-0.00505137,0.27682155,-0.12148623,0.42898598,0.23112467,0.12643944,-0.34733231,0.09756713,-0.14580496,-0.23136259,0.00623411,-0.12285054,0.20821511,-0.36089179,0.25790908,-0.19166783,-0.18364289,-0.31979181,0.15104960,-0.05268628,-0.41571946,-0.27015777,0.00809242,0.22298559,-0.34813142,0.10007910,0.39473716,0.29106866,-0.17581835,0.15022643,-0.00518366,0.04911763,0.04300014,-0.42493490,-0.04939655,-0.37326054,0.35591293,0.36967978,-0.18640745,0.09683215,0.37915076,-0.33014424,0.10756079,0.43808065,0.42816248,-0.21894609,0.41952244,-0.44608348,-0.43369600,-0.27765617,-0.42450200,-0.29575401,-0.03749718,0.02400807,0.22331733,0.01829405,0.10213336,0.33403329,0.01818245,0.46917298,-0.26205812,-0.19357681,-0.16932642,-0.11983419,-0.00988824,-0.17381527,-0.23805717,0.26056745,-0.42590730,0.46673511,-0.38604913,0.45470119,0.18844089,-0.15506872,0.13235816,0.37393630,-0.17843379,0.44876858,0.20540005,-0.29027878,0.10797656,-0.24700715,0.37891299,0.13522337,0.10665148,-0.14239431,-0.03560806,0.11755571,0.44819805,0.24398137,0.26421817,-0.19208759,-0.05911547,0.06122243,-0.07982948,0.49525418,0.35939201,-0.26631417,-0.22319006,0.40413436,0.16708053,0.34145952,-0.01806027,0.13960308,0.17412121,-0.20799006,-0.23110404,-0.03303255,0.27309206,0.12316954,0.21952945,-0.29036872,0.47019113,0.46187830,0.28893196,-0.06925132,0.29439405,-0.43191968,-0.48387670,-0.15173931,-0.23426268,0.16038504,0.11936513,0.24148613,-0.12846305,0.14301220,0.11473268,0.46776713,0.39429034,0.00066914,0.23537373,0.43642695,-0.29172208,-0.19883816,0.45910226,-0.07055790,-0.44501202,-0.15907770,-0.07736775,0.15253208,0.16284127,-0.06354912,-0.11526709,0.23591714,0.48857683,-0.31726348,0.39915564,0.01280676,-0.05608228,-0.13119870,-0.32005197,0.45575982,0.23782671,0.45054931,0.04803843,-0.21937740,-0.32765098,-0.44661584,-0.21226812,0.49951132,0.45345140,-0.37086714,0.32184385,0.42457474,0.34886837,0.26745100,-0.32114409,-0.17112280,-0.47994336,-0.48585726,-0.13610449,0.39862670,0.46942607,0.18722075,0.47705062,0.06291827,0.46184065,0.27183463,-0.25636530,-0.20217692,0.41490764,0.39939938,-0.20371656,0.50280703,0.06668658,-0.45840527,0.29693738,-0.39514225,-0.04548366,-0.50300074,-0.28252674,0.14356105,-0.32300413,0.32815361,0.24692412,-0.12958458,0.47284779,0.50808085,0.01246390,0.03751283,-0.00750230,-0.12768346,0.20525404,-0.05142974,0.05414515,-0.12983441,-0.36482996,0.27871272,-0.26112378,-0.00465932,0.01892248,0.13436469,0.10037128,0.35594673,-0.03291329,0.46422157,-0.43280663,0.31723215,0.29321899,-0.24656350,0.10435492,0.48128355,-0.35701472,-0.05148390,-0.00870124,-0.40764612,0.16677019,0.28359421,-0.34742223,0.16801945,0.30961758,0.21280135,-0.28310911,0.22795514,-0.49696355,0.43386652,0.43012299,-0.38633569,-0.03893344,0.24721324,-0.24117967,0.04111657,-0.07599346,0.25731141,0.07976967,0.48182852,0.25189613,-0.27007991,-0.49198157,0.37377663,0.40295454,-0.21246292,-0.09622715,-0.17993442,-0.18014067,-0.21883501,0.43424557,-0.11375226,-0.47973362,0.04028313,0.39996445,0.05281150,0.01513452,0.49684718,-0.29895110,0.39194864,-0.42988908,0.01770230,-0.38616262,-0.33674973,0.29073682,0.31100276,-0.21090351,0.10342476,-0.40118555,-0.04309588,0.47287389,-0.10585103,-0.35005407,0.26760863,0.21064719,-0.47824767,0.31890540,0.26142209,-0.05428261,0.19332085,-0.11852998,-0.29350429,0.06534995,-0.18888502,0.09534785,-0.46625984,-0.15996681,-0.30706951,-0.34329043,0.18719358,0.45544604,-0.12607831,-0.36678744,0.45184357,0.40212517,-0.04386413,0.08644145,-0.16614250,0.01753493,0.12164136,0.36165825,-0.31990507,-0.02570398,0.22378905,0.21600971,0.23383993,-0.39724429,-0.03433573,-0.03391086,-0.29196541,-0.48900952,0.19742649,0.26369150,-0.49459124,0.29434530,0.35346529,-0.19365317,-0.48791558,0.24453567,0.11729760,-0.43962735,0.02166467,-0.12902218,0.13673240,-0.15443091,-0.36236310,0.04257826,-0.06071182,-0.06794454,0.28988623,0.35770341,0.23284525,0.09608266,-0.12148685,-0.36151529,-0.31779262,-0.18283987,-0.16154441,0.42497864,-0.22886895,0.25443319,0.25738651,0.21109978,-0.13425818,0.48111184,-0.39006250,-0.09619249,0.10678163,-0.04632160,-0.49117633,0.25785835,-0.19586195,-0.37098575,-0.19172710,-0.39058806,-0.30806534,-0.09338841,0.33935910,0.33652990,-0.22183088,0.45238984,-0.37202248,0.21923977,0.23619945,-0.48813631,0.03385637,0.08456512,-0.03388459,-0.13389087,0.47422498,-0.32439181,-0.11260022,0.47198354,-0.37036649,-0.06979241,0.27780224,-0.19193950,0.01913934,-0.40544650,-0.07520106,0.01069627,0.17237359,-0.07020033,-0.35916405,0.05474417,0.31047904,0.08779784,-0.12698386,0.09861279,0.37975317,-0.19544640,-0.16302643,0.45472256,-0.48664414,0.25398418,0.07116124,0.22713252,-0.22892321,0.48733384,0.02613227,-0.18533565,0.47068103,-0.40788873,-0.29490661,0.46784621,-0.26153178,-0.14386876,0.22802798,0.12126223,-0.16583743,0.28972341,0.27250127,-0.07665734,-0.37954202,-0.26067361,-0.41576589,0.32469959,-0.12839478,0.36809958,-0.47739057,-0.50093334,-0.40659105,0.10720443,0.00568334,0.38652729,0.45009035,-0.13803839,0.22627093,-0.11363610,-0.00087675,0.18011111,-0.23525738,0.32509298,-0.13277975,0.43174347,-0.26882177,0.30968154,-0.27372763,0.02471138,0.09107348,-0.31515423,-0.04897659,0.42998178,-0.17643362,-0.00892023,0.17819293,0.48167350,-0.33325867,-0.27437808,-0.28772825,-0.47075506,0.23673385,0.30897165,0.13359233,0.36505210,0.06632367,-0.49098249,0.15458162,-0.05007377,0.03363160,0.10133502,0.03249518,-0.18387977,0.42706070,0.44626854,0.36170556,0.48381090,-0.36361020,0.44888601,-0.39881129,0.10249837,0.12823184,0.27339635,-0.22364738,0.40872487,-0.19096843,0.28017482,0.16117254,-0.04899590,-0.27624661,-0.31418585,-0.34463757,0.19229903,0.46878680,-0.38973240,-0.23352472,0.24786291,0.12779232,0.46905759,0.16491954,-0.01097098,0.35430777,0.24232151,0.26086614,-0.37962727,-0.34720093,0.07672452,0.43513492,0.05314021,0.16384026,-0.32678501,-0.17215390,0.00581812,-0.29487764,-0.15074651,0.25524139,-0.17357552,0.48093312,-0.30817358,0.06745732,-0.24522422,0.28031741,0.30048589,-0.30286277,-0.15432377,-0.31074055,-0.07601207,0.07410570,-0.12301483,0.03123618,-0.18289016,-0.42884061,-0.00583957,0.48980556,0.23363862,0.30146688,-0.41972651,0.29535127,-0.17666268,0.34641911,0.18644803,0.13930805,-0.47107620,0.14819888,-0.18523976,-0.46945129,0.19553653,0.01288177,0.17436020,0.16256474,0.25910532,0.11150408,-0.31174779,-0.48150852,0.02397777,-0.25530137,0.43164542,-0.20515927,0.10529315,0.42430101,0.02239118,-0.07327146,-0.29662220,-0.37711666,-0.35852543,-0.12589675,0.37638265,-0.40791296,0.42942784,-0.28674220,0.15201632,-0.39852097,-0.25607062,0.29424724,-0.18460388,0.20255789,0.40783864,0.35923462,-0.03998585,-0.37874791,-0.16432334,-0.28697225,0.37961883,-0.11119574,0.48991713,-0.36876247,0.00688681,0.44748593,0.41533313,0.16625326,-0.26988298,0.43672832,0.23741343,0.23401122,-0.15884982,0.15002411,0.08312661,-0.20082874,0.44034317,0.49164451,0.05092603,0.12129105,-0.05549404,0.00018637,0.21620478,-0.48927599,0.07378214,0.20670734,-0.12200331,-0.40259291,0.07017985,0.12907094,0.47349631,-0.29010077,0.44742978,0.43085682,0.15909818,-0.00233538,-0.05510154,0.05806074,0.02098903,-0.43156080,0.14184831,-0.47409223,-0.35799110,-0.47003198,0.10968899,0.04486708,-0.14737636,0.07116010,-0.12654088,0.28407008,0.16256667,0.13843061,-0.08321793,0.44097753,-0.02313085,-0.36335048,0.17628411,-0.04753577,-0.42007686,0.49326106,0.44751333,0.12067815,0.47354032,0.34107328,-0.09106904,0.21880675,0.20249911,0.27157305,-0.29334113,0.24657928,-0.37949805,-0.40263298,0.00485050,-0.25666507,0.23539440,-0.33887811,-0.40481429,-0.25651426,-0.43324829,0.38986592,0.25601076,0.01808706,0.26800254,-0.05709242,-0.36782559,0.36571938,-0.29300254,0.28944659,0.11061266,-0.17017893,-0.15881485,0.33365104,0.17386700,-0.48355347,-0.26816619,0.25541320,-0.08139771,-0.29857246,0.29876433,0.45933702,0.27618830,-0.21550527,0.39882931,-0.42346903,0.15768971,0.41164701,-0.42528289,-0.41288099,-0.49102134,0.24785812,-0.11087093,-0.00514149,0.13773856,-0.16391113,-0.08344755,-0.45926428,-0.25089833,0.26327178,-0.20321474,0.21464500,-0.46663749,0.01419628,0.32383429,0.11875464,0.49463664,0.45354040,0.42786773,-0.15636564,0.48912619,-0.24789333,-0.20999239,-0.35126837,-0.30230798,0.46036413,0.36271324,-0.25455581,0.25257616,-0.32508550,-0.22670210,-0.03020546,-0.02346317,-0.30555461,-0.29416172,0.29758898,-0.32911249,0.46689954,0.17964414,-0.20026748,-0.13926386,-0.43178498,-0.09277175,0.26416359,-0.05171876,-0.03678404,0.06112696,-0.28521179,-0.23868397,-0.21777237,-0.04214410,-0.39207827,0.01984089,-0.41959752,-0.10866998,0.03420724,-0.49790767,-0.15048959,0.23981670,0.10087566,0.12656151,-0.20336711,-0.17124671,0.03768623,-0.09643625,0.14132098,0.46737171,0.33641719,-0.03717554,0.01900649,0.01007679,-0.32588605,0.34049637,-0.18718469,-0.02434115,-0.30809479,0.07265028,-0.42205819,-0.24652572,0.35728131,-0.31572310,-0.15857635,0.33062580,-0.24420525,-0.37909814,0.31482014,-0.27071480,-0.38975643,0.38278514,-0.31177742,-0.13904198,-0.18006787,0.01144668,-0.34944749,0.23650213,0.11481656,0.38374763,0.00702973,-0.45094283,0.41663415,-0.00461335,-0.34821124,-0.25981440,-0.36018904,0.20815022,-0.14311124,-0.34984124,0.04615647,-0.46924908,0.38317051,-0.08292357,-0.19344237,-0.39435544,-0.07934941,-0.35961501,0.28002299,0.02608707,-0.44159984,-0.16810966,0.36459847,0.26927468,0.40670490,-0.16722654,-0.23049658,0.10589989,-0.27568254,-0.39893745,0.47844604,0.31593699,-0.30370886,0.33142993,-0.30508237,-0.25843757,0.02343154,-0.08341864,-0.07702397,-0.49514816,0.11130452,0.40448366,-0.46379358,0.11188807,0.43150948,-0.40044563,0.09219350,-0.19888728,-0.30506746,-0.09503664,-0.12239645,0.21744575,-0.24433360,-0.36237276,0.25696023,-0.30319994,-0.32761857,0.43280482,0.00515186,-0.40652506,0.05396378,0.39143456,-0.29073735,0.08603972,-0.31273286,-0.18562751,0.31216839,-0.29830484,0.31094899,0.23921828,0.49169328,-0.18231490,0.10814424,0.45050508,-0.03786289,-0.16892980,-0.41758001,-0.27219105,-0.36623662,0.27727027,0.47831847,0.19789106,-0.24084487,-0.39316531,0.36492698,-0.09800952,0.33726869,0.35897995,-0.33941424,-0.23956423,0.48977106,-0.41701275,0.32261455,-0.25659843,-0.10448975,0.38607701,0.37501758,0.26045031,-0.20228255,-0.30170449,0.47536678,0.22041213,-0.14550117,-0.32370247,0.10283879,0.42475465,0.26914615,0.47327174,0.28427604,-0.15320276,0.40107781,-0.35298735,-0.39201583,0.01356736,-0.44027106,0.17187092,0.15876986,-0.31033379,0.31851792,-0.41097234,0.30367098,-0.37198820,-0.21035230,0.10909414,0.11495164,-0.43343721,-0.15512250,-0.16084796,-0.32559021,0.29607387,0.08316388,0.19882381,0.41924194,-0.22167708,0.08657428,0.47757990,0.10805021,-0.50037728,-0.39160070,-0.33079272,-0.28174113,0.04874003,-0.16023121,0.07637437,0.49166026,0.01010765,0.40986218,-0.44001093,-0.10051596,0.48378999,0.32217157,0.06380650,0.12431932,0.41662979,-0.47468559,-0.07245561,-0.01549101,-0.18188908,-0.33745776,-0.38425705,0.18986644,0.31450810,-0.10194824,-0.09792614,-0.09167695,0.47456117,0.34194335,-0.44207013,0.01185787,0.07447083,-0.31403842,0.42796540,0.08295098,-0.00349056,0.40699329,-0.28663116,-0.13539461,0.41641468,0.19624543,-0.18709936,-0.02872570,0.46657553,-0.35632274,-0.29856912,0.29138673,0.30679536,0.49282911,0.30632196,-0.40195160,-0.27193986,-0.02333420,0.38696585,0.08737572,0.12774530,-0.41403538,-0.46766341,-0.07728998,0.20512498,-0.11173150,-0.20024001,-0.32720480,0.31271974,-0.06531444,-0.13922479,0.37246550,0.40068938,-0.09294351,-0.29800237,0.32574322,-0.22745319,0.02445187,0.24631813,-0.08591382,0.10408522,-0.17525415,-0.46561964,-0.16477109,0.48145010,0.01401895,-0.27978941,0.46705615,0.19653376,0.08301235,-0.13686063,-0.48544842,0.44571725,0.11471220,-0.27073598,-0.44510176,0.35783790,-0.37589601,0.20278617,0.41735490,-0.07307274,-0.11421849,-0.16248830,0.13537389,-0.07216860,-0.28930722,-0.39304308,0.19735595,0.11089238,0.48015792,0.20557976,-0.03758438,-0.03376020,0.02914155,-0.21384133,0.29875887,-0.52891258,0.28229324,-0.09981547,0.26702491,-0.45577170,0.22036398,0.27827844,0.03145172,-0.15008197,-0.11187510,0.08110332,0.48783031,-0.14140027,-0.39736874,-0.39717333,0.18629572,0.19904451,-0.47213224,-0.43983209,-0.14263379,0.27426834,-0.08177220,0.51624606,0.04510379,0.03350429,-0.26368069,0.12563504,0.35539781,-0.31510641,0.26973490,-0.49991274,0.37195352,-0.17331975,-0.26807554,0.39440104,0.00521746,0.15004102,0.05138493,-0.24036861,-0.13594583,-0.44762577,0.07762506,-0.33735679,-0.36103025,0.35217046,-0.25622757,0.07762766,-0.17621310,0.17387128,0.50586897,0.45860830,0.10769831,0.33363046,0.45618376,-0.25558782,0.12865528,0.39624377,-0.05594996,-0.02257933,-0.27316013,0.41879631,0.11572940,0.20671338,-0.26177735,-0.08923174,-0.18787119,0.07086604,-0.26552904,0.09948963,0.10121082,-0.19181726,-0.31368547,0.12312027,-0.31369101,0.38763542,-0.07241539,0.41296355,0.12094245,-0.24569369,-0.18043928,0.35765110,-0.09843546,-0.07736472,-0.08995476,-0.07760386,0.07295703,0.44393880,0.40831628,-0.01761891,-0.27420936,-0.00400428,0.19757587,0.01600156,0.17390157,0.26028091,0.00161208,0.38644233,0.07498087,0.45487474,-0.39827759,0.24169723,0.36074495,0.14084629,-0.03930678,0.34013966,0.34908271,-0.02032054,0.28536038,0.48649387,-0.38117084,-0.12400714,0.38427515,0.39629730,-0.16794891,-0.30469660,-0.37493555,-0.03742640,0.01306896,-0.18564577,0.30785699,-0.40572001,-0.20719307,-0.21110037,-0.19440402,0.04245303,-0.31007540,0.19245885,-0.32553126,0.42708906,-0.39111336,-0.10630190,0.06801904,-0.25354496,0.28728817,0.08538757,-0.30634085,0.49979579,0.01792487,-0.28819855,0.01998115,0.11074301,-0.03260800,0.26992424,0.06472748,-0.09053753,-0.49416170,0.09980507,-0.42676434,-0.42108774,-0.44905873,0.47596086,-0.26781219,-0.16106994,-0.32929465,-0.17632334,-0.48306589,0.41536599,-0.15024707,-0.46175540,0.10669525,-0.25883026,0.07895669,-0.10938417,0.26179321,0.52280286,0.51349217,-0.07825117,0.31913648,-0.04490302,0.45994493,-0.37409850,-0.25022031,0.32248642,-0.16077569,-0.21734978,-0.10488055,-0.42597646,-0.00396573,0.12095126,0.49142202,-0.14972051,-0.19230025,0.40807881,0.40582946,0.18421544,0.03103186,0.37403080,-0.12521291,0.08289814,-0.43847338,-0.00644576,0.22530474,-0.38449832,-0.33668149,0.36687610,-0.37234590,0.29062382,-0.31342655,0.39931663,-0.17060054,-0.33410524,-0.07013025,-0.23359148,-0.49268080,0.17126912,0.46494854,-0.24615368,0.09829807,0.48471271,-0.29881279,-0.34696906,-0.02444212,-0.40863961,0.11991001,-0.20392835,-0.10974269,0.15863361,-0.02178075,0.41138742,-0.16411124,-0.04109886,0.19369159,-0.13722375,-0.13438368,-0.25751441,-0.12475817,0.07264681,0.20172580,0.00422002,0.40850386,0.32501938,-0.43569985,0.38770500,0.24192573,-0.48782949,-0.12419844,0.01493889,0.03736433,-0.38969680,0.07580826,0.32198610,0.44663037,-0.41041057,-0.41547046,-0.23811955,-0.48305811,-0.49240613,-0.44190839,-0.25097188,0.44831963,0.06743295,-0.46635207,0.45388719,-0.24293060,-0.04506309,-0.48136510,0.25109605,0.14930000,0.03831683,-0.46327100,-0.32613405,-0.42640440,0.39615634,-0.18928310,0.32205853,-0.16962300,-0.36951652,-0.14974077,-0.43609729,0.19762423,0.48332850,0.04227302,-0.40033443,-0.09983604,-0.03946559,-0.15012584,-0.24907075,-0.08761922,-0.16809856,0.36205611,0.38785525,-0.31319454,0.45810745,-0.36068853,0.13568238,0.01926997,0.34562031,0.19287145,-0.42395649,-0.30580142,-0.43668308,0.31403384,0.19606356,-0.10783979,0.44189877,0.20648327,-0.18250160,0.09759404,0.05331923,0.16409748,0.43003563,-0.28135782,-0.35883004,-0.02896343,0.18560154,0.37557329,-0.41894811,0.46889232,0.01619981,0.48158766,-0.13969686,0.07727358,-0.13298993,-0.06950507,-0.09468067,-0.47710733,0.13171570,-0.34120494,0.05970687,0.19914002,-0.28121060,0.20150179,0.09025920,0.07449242,0.34991520,-0.16658377,-0.38940197,-0.22772768,0.08098723,0.35976349,0.33388755,-0.24467747,-0.23692839,0.23418887,0.04349999,0.02485132,0.25271281,0.20472884,-0.37552705,-0.15565145,0.21092279,-0.24007908,0.39261488,0.07203809,-0.06513483,-0.38561017,-0.05326368,0.49521800,0.24903393,0.35572035,0.10476732,-0.02897824,-0.29372227,0.25187892,-0.48803183,0.25405917,-0.24628021,0.17378957,0.36148145,0.36044555,0.19661492,-0.23571471,-0.07261144,0.13554256,0.41460615,-0.13119903,-0.13321709,0.41871791,0.09780069,0.32735745,0.35866876,0.36262756,0.18779947,0.48260891,-0.07700083,-0.44878359,0.43343393,0.41014406,-0.11045484,-0.17931024,-0.15077307,-0.25456170,-0.34673594,0.36072953,-0.31436512,-0.24460703,0.43980739,-0.09452425,0.10680945,-0.26456320,0.30964432,-0.10018091,-0.01642217,0.39948677,0.35800979,-0.09077853,0.19081686,0.26571891,-0.34548225,0.45500474,-0.20391436,-0.21464339,0.15593624,0.22043230,-0.46848117,-0.44197953,0.30770028,-0.41510467,0.05996013,0.39599004,-0.40336459,-0.09960825,-0.40681197,0.33192529,-0.42884587,-0.00183759,-0.20009164,-0.03457163,-0.26001373,0.42909287,-0.22219663,0.22365097,-0.19624502,-0.06149376,0.47247269,-0.00731729,-0.08702423,-0.07196940,-0.31308093,0.33970916,-0.18422067,-0.29182436,-0.46681586,0.03607976,-0.08377687,-0.20744134,0.36594826,-0.09042083,-0.09216806,0.38646023,-0.29272392,-0.19095527,-0.29473617,0.06775730,0.23581036,-0.27864929,0.27241348,-0.39485015,-0.09993095,0.05771764,-0.27429709,-0.02476225,0.31009626,-0.49290796,0.19101407,0.38249900,0.32726172,-0.12469643,0.28178695,0.20707706,0.47953028,0.36753394,-0.19376060,0.10377153,0.14094549,-0.22396159,0.38792620,-0.32781471,0.03012511,0.29553012,-0.10655971,-0.33658267,-0.34742281,0.22098563,-0.38247393,0.09666506,0.11218252,-0.23955075,0.21060887,0.29914343,0.28697094,-0.04489028,-0.16148329,0.09538157,-0.46897115,0.03117870,-0.26957861,-0.30836412,0.23666599,-0.41761739,0.11640988,0.19484197,0.14726191,-0.42616762,-0.10212111,-0.19216112,-0.15626315,-0.12590719,0.25823050,0.26958587,-0.38043911,-0.39963284,-0.17839440,0.30587956,0.04517466,0.01737456,-0.15788366,0.29365561,-0.33359091,-0.14906421,0.07209675,0.11811880,0.31672254,-0.28546290,-0.08956271,0.47515310,-0.49280479,-0.48319220,0.18864340,-0.05011553,0.31488006,0.30551773,0.27891780,0.38056507,0.26261457,0.07572026,0.41827469,-0.44970977,0.33755565,-0.49284277,0.10227552,-0.14481618,-0.43175674,0.33913929,0.03638137,-0.24851142,-0.29778375,0.03784362,-0.06667214,0.42724534,0.06204401,0.00132409,0.39808048,0.47132484,-0.09448751,0.28615417,-0.10376268,-0.18251143,0.18869095,0.26577422,-0.46426162,-0.35810384,-0.48327198,-0.49388237,-0.43720933,-0.16428068,0.35811060,0.41597669,-0.23794489,0.28508582,0.23503140,0.39561157,0.15952547,0.10406357,-0.00782806,-0.19979249,-0.32026384,-0.47204685,-0.24213658,0.10216305,0.19251350,-0.28383731,0.21130387,0.49966703,-0.45103105,0.13511051,-0.21416572,0.33013607,-0.13683940,0.45668565,-0.31984880,0.47295459,0.15099809,-0.22694120,-0.37592458,-0.25478505,-0.20842976,0.30007215,-0.33765929,0.21119767,-0.04584318,0.47411101,0.45342821,0.25316615,-0.15856728,-0.39440290,-0.41340436,0.40364518,-0.24877106,-0.25473559,-0.13286754,0.39429129,0.01355974,-0.44350052,0.47777148,-0.22254430,-0.47324999,-0.27232038,-0.41273820,0.31457984,-0.26792276,-0.47311089,-0.38186206,-0.21103754,0.37052412,-0.21545536,-0.32210517,0.34653367,0.14310174,-0.10562516,0.29794324,-0.18693518,-0.13901164,-0.47032628,0.23910356,0.48006482,-0.42658142,-0.32721771,-0.36982257,0.28005986,-0.37781505,-0.14706615,-0.31740835,0.35078496,0.08661392,0.38585395,-0.47846628,-0.10948720,-0.33924845,-0.15157681,0.01124919,0.30011223,0.40954817,0.13282720,-0.40503067,0.44074648,0.25058961,-0.32498023,0.10122467,-0.43325598,0.13313278,0.39988907,-0.35859966,0.05188831,-0.00330148,0.40718479,0.27350985,-0.26759823,-0.03861387,-0.08854759,0.19404046,0.09849445,0.21355440,-0.38010432,0.21908416,-0.28000252,0.37475165,-0.12979150,0.15437301,0.33945393,-0.52841741,-0.33669055,-0.48372469,-0.23094758,-0.38542784,-0.15760919,0.33791343,-0.19282066,0.27872670,-0.43165264,0.29231885,0.06440400,0.22622796,-0.28362962,0.37328932,0.23078608,-0.17879504,0.01711981,-0.46344832,-0.49585395,-0.08844781,-0.48183232,0.29489495,0.14105727,-0.29132174,-0.23899681,-0.39597338,0.21610685,-0.44940596,0.26752811,-0.24204445,-0.50707274,-0.43123856,-0.20652578,0.01884033,-0.33691992,-0.27665518,-0.25605120,-0.35731994,0.07162954,0.44726729,0.22455883,-0.48477476,-0.00389583,0.32599609,0.13765959,-0.08630765,0.48224316,-0.36673509,-0.25514193,0.25764562,-0.10895005,0.01332101,-0.11324169,0.41967084,0.47061793,0.33271998,0.14663863,0.40729951,-0.40253904,-0.32182645,-0.23750040,-0.27740755,-0.09336716,-0.22031945,-0.45023459,0.28513937,-0.21990559,-0.32331702,0.40973234,-0.41277461,0.39035424,0.08338907,-0.09381113,-0.07090095,-0.38858315,0.22208106,0.09423601,-0.23821085,-0.40688078,-0.26326141,0.31500945,0.04190334,0.16829620,-0.23216764,0.28165700,0.10348494,0.05628095,0.24137366,0.31544636,0.33209865,-0.03814893,-0.28378363,-0.08164151,0.48761181,-0.19479641,0.20678822,0.17027584,0.49222361,-0.49093969,-0.28609536,0.49686062,0.30009923,-0.08520843,0.21818612,0.34102682,0.17916775,-0.46223748,-0.28772790,-0.16551371,-0.42522546,0.06472701,-0.35179649,0.44102888,-0.48896257,-0.10161460,0.06980459,0.09294502,-0.42261173,-0.48971246,0.28277070,0.24641215,0.49956967,0.19253261,-0.12287192,-0.38422742,-0.14970196,0.12010383,0.16859670,0.20468133,0.33174795,0.45116236,-0.46006401,-0.38088165,-0.48193359,0.07124452,0.00005400,-0.33413881,0.25288285,0.30200247,0.01680769,0.01614271,-0.19076018,-0.18083168,0.12865466,0.36843173,-0.20537129,-0.36685853,-0.18309451,0.45890719,0.48427498,0.27830549,-0.36810712,-0.08619044,0.25127639,0.47897961,-0.39188505,0.44101797,-0.30612727,0.39322172,0.33040685,-0.14134137,0.30747264,0.28392436,-0.01992963,0.40605483,-0.34051923,0.47530457,0.32618110,-0.19700780,-0.09584580,0.10401824,0.37144321,-0.28794392,0.18322131,0.08200241,0.28516531,-0.45341196,0.50437499,-0.48053671,-0.46463457,-0.11700857,-0.25605083,-0.25214772,-0.24971954,0.04393324,0.41602670,0.08577372,0.33048080,-0.26953424,-0.43192352,0.15484981,0.02398217,-0.28829487,-0.27308415,0.05648801,-0.41714081,0.01790213,-0.36295696,0.40556093,0.26552381,-0.31633414,-0.23280541,0.04779960,-0.04329267,0.08817716,0.01809449,-0.37455898,-0.10688137,0.28592827,0.42866599,0.10500453,-0.39250452,0.18507216,0.22517961,-0.29543917,-0.15521598,-0.24314257,0.48240827,0.50330096,0.16933344,-0.08254893,0.25907750,0.32859944,-0.17671633,0.28680864,0.38842813,0.32350489,0.50315052,0.30761950,-0.03884813,0.15168608,-0.02883076,0.42962619,0.06472879,-0.10040412,0.12433828,0.08237792,-0.46095293,-0.22817299,-0.25149227,-0.15619687,-0.02149113,0.08336131,0.04666555,-0.26667065,0.36861638,0.01128829,0.37770286,-0.11755279,-0.00139145,-0.28176815,-0.10637534,0.14342302,-0.29764472,0.15854963,0.19390340,-0.30859208,0.14190917,-0.14472910,0.17709515,-0.14259354,-0.31145905,0.10734406,0.22505808,0.05562127,-0.30948814,-0.00685393,0.08092731,0.22676792,-0.21712456,-0.25808625,-0.48846714,-0.32858382,0.21175980,0.23289910,0.17935763,-0.06855518,0.28822724,0.27840665,0.24588325,0.13051988,-0.07182588,0.07204328,-0.43821008,-0.17925095,-0.31423821,0.08837195,0.12234039,-0.43825884,0.33167305,0.34445931,0.22851831,-0.25557576,-0.30385663,-0.25229878,-0.21971250,-0.07986262,-0.32022027,-0.18700540,0.21562519,0.28478868,0.27263547,0.02011628,-0.15846922,0.42664206,0.39985920,0.12674788,-0.23588647,-0.00784442,-0.29632025,0.29244462,0.18315678,-0.43656032,0.29512858,-0.48729625,0.12244132,0.34335998,0.07057442,-0.28920448,-0.05056959,-0.23005347,0.11772759,-0.28838421,-0.14737567,-0.08110987,0.34767936,-0.27406811,0.28283145,-0.01266757,-0.28255930,0.17880151,-0.09656585,-0.45527101,0.40135460,0.11289586,0.45916433,-0.06729872,-0.33289928,0.44965865,-0.00212940,0.11985434,-0.06672094,-0.31249100,-0.39718355,0.15295345,0.03978317,0.47606332,-0.44202083,0.03310042,-0.32162297,0.40067290,0.48973438,-0.43639165,-0.34913763,-0.10409380,0.43044072,-0.35701623,-0.48629676,-0.52596065,-0.06561285,0.24312771,-0.41886788,0.40653157,0.10432472,0.22701161,0.46903348,-0.09498252,0.29348432,-0.08170533,-0.29153598,0.38212266,-0.47007629,-0.28987896,0.10424610,0.28960282,-0.15280498,-0.20751160,-0.34529387,-0.48093934,0.35060954,0.06950642,0.22726836,0.36611211,-0.11719042,0.00804231,0.43696477,-0.36078143,0.31631990,0.20105546,0.32388003,0.37587714,0.41883936,-0.32915807,-0.31353027,-0.38662777,0.15368853,0.21470507,-0.24823802,0.46854952,0.19830771,-0.07178893,-0.02714582,-0.48868425,-0.28394504,0.39257243,0.33199344,-0.03131270,-0.29658682,-0.22220149,-0.42049467,-0.25555089,0.36369443,-0.32458719,0.06544363,0.13026458,-0.00476956,-0.03340039,0.35277682,-0.51728081,-0.19861598,0.02345883,-0.11275636,0.16685493,-0.26062281,0.34784276,0.14168380,0.13455833,-0.38320040,-0.48777512,0.25108341,0.08884941,0.42541579,0.36381515,-0.22812215,-0.47738684,0.34644219,-0.11854237,0.14544259,-0.34725441,-0.29134910,-0.41882507,-0.06243646,-0.30060039,-0.35385030,0.07000542,0.20840250,-0.01737106,-0.07757624,0.07082953,0.08877348,-0.11509961,-0.20105331,0.18555375,0.26941811,0.09790619,0.18714235,-0.38902810,-0.16528592,0.06761048,-0.21610846,-0.32402213,0.37178079,-0.32975160,0.41107150,0.22164676,0.29981933,-0.45311935,-0.47289489,0.19877083,0.48745614,0.16172803,-0.08750116,0.18741862,-0.02484832,-0.48497500,0.14429126,-0.32486819,-0.22392298,0.30513728,-0.31320567,-0.38374564,-0.04641148,0.29532745,0.11026942,-0.12763193,0.05074478,-0.22521493,-0.04989140,-0.22090763,-0.18433632,-0.10643043,0.24553772,0.10241365,0.32174007,-0.33791042,-0.38633504,0.42330059,-0.49472594,-0.22880746,0.23415660,-0.14102817,0.42843928,-0.21517474,-0.20110290,0.39118076,-0.08305851,0.03076028,-0.33835339,-0.41932383,-0.42446798,-0.11105701,-0.04288581,0.32323667,0.13145951,0.30640959,0.31184299,-0.38078326,0.28649276,-0.15959895,0.05205085,0.25028396,0.06409001,0.11786508,-0.06127178,0.30651660,0.30110140,-0.03849547,-0.31848014,0.24704643,0.26397705,0.27990514,0.31579793,0.03802349,-0.24944784,0.31749953,0.09236009,-0.43457105,0.04001115,0.12844832,-0.06505690,0.05317881,-0.21931449,0.15333314,0.19060866,-0.07100342,0.27823879,0.00011555,0.47050739,-0.38064831,0.30694098,-0.19213073,-0.22667000,-0.15520742,-0.19984827,0.42697886,-0.23376327,-0.04944403,0.42019273,0.03953293,0.37697253,0.49646425,-0.16032926,-0.12957340,-0.03596687,-0.29652088,-0.36948630,-0.37586158,-0.13287633,0.06207068,-0.17286265,-0.32826394,0.45192338,0.01310670,-0.06208209,0.26319417,-0.38878853,0.20886558,-0.24654084,0.32930494,0.04980493,-0.38602644,0.47440695,-0.35384967,-0.13757249,0.32871375,-0.17510915,-0.05381703,0.36631986,0.04112135,-0.31654105,0.25410361,-0.43145259,-0.37679492,-0.48807165,-0.14280574,-0.08500329,0.44209437,0.20324761,-0.19369916,0.21535801,-0.26329266,0.34905028,-0.28718672,0.29798416,0.47455866,0.44293781,-0.18649504,0.16317899,-0.38310258,-0.17141025,-0.39167582,-0.14873429,0.16947614,-0.41331964,-0.07206424,0.39197597,0.49353508,-0.29299838,-0.39937075,-0.49001314,0.09276935,0.49118497,0.45108065,0.05216539,0.10014636,-0.33774361,-0.09871852,0.08048115,-0.06454467,-0.26862772,-0.36376471,0.28340187,0.32521278,-0.26489611,-0.17948852,0.22634802,-0.42963573,-0.09278001,-0.18445941,-0.45448990,0.45334142,0.03042062,-0.40850297,-0.12262925,-0.22774436,0.13897289,0.18765041,0.39250845,-0.28019053,-0.39027417,-0.20113109,-0.21172547,0.43533650,-0.30645623,0.34147692,0.21265049,0.48283009,-0.07867444,0.12543018,-0.27642400,-0.24555620,0.29773138,0.34972854,0.13107306,0.18469419,-0.01166739,-0.00703420,-0.17321557,0.32865572,-0.17867321,0.26546403,-0.17515013,-0.37038893,-0.32765976,0.30787127,0.14942652,-0.15882473,0.41418226,0.23181113,-0.20912901,0.46191480,0.47021622,-0.27829406,-0.16431306,0.44620098,0.44517126,0.28835455,0.13632810,0.43263506,-0.36062375,0.30624107,-0.28733345,0.46859611,0.31676327,-0.44529025,0.42368899,0.49506731,-0.33232247,0.47399732,0.26039751,-0.43262415,0.26232368,0.39079382,-0.14123672,-0.18238709,-0.25334829,0.39367679,0.17500672,0.41533704,-0.44008722,0.32547191,-0.40130026,0.49266334,0.20260530,0.31703787,0.35595569,-0.40382880,0.02497597,-0.12087827,-0.47705312,-0.06403224,0.38534919,0.01390992,-0.25085588,-0.30690844,0.45769658,0.32787309,-0.22382683,-0.04812600,-0.10445665,0.05738268,-0.11382771,-0.10348588,0.43425574,0.02860599,0.03871696,0.17621972,0.17629948,-0.14122465,0.09390144,-0.18573074,-0.19128504,-0.17138007,0.49708705,-0.18220200,0.44202310,-0.34153755,0.40133675,0.49635570,-0.49570811,-0.18987011,0.06042017,0.03118506,-0.10050436,-0.17310467,-0.17908000,0.28105999,0.33553061,0.47786100,0.07112135,0.06144360,0.15539557,0.07498582,0.17720421,-0.26154208,0.10600797,-0.07975693,0.03703024,-0.34693341,0.46361478,0.27786307,0.46461580,0.46337843,0.11783844,-0.10878404,0.26264951,0.01860068,-0.41403851,0.40739604,-0.15479113,-0.28942497,0.02299223,-0.22612102,0.07002969,-0.00954808,-0.44053606,0.07816297,-0.18000544,0.27093682,-0.31289171,-0.04988512,-0.44710888,-0.16721777,0.09873988,-0.19432057,0.00133600,-0.34410789,-0.15452940,0.03050641,-0.19336357,-0.34977702,-0.25767995,0.44987896,-0.04103969,-0.23579538,0.37689478,-0.35096183,0.16335778,0.26114068,-0.23078601,0.18814006,-0.35679853,0.38660478,0.41952805,-0.01901113,0.34227716,0.38699869,-0.47238707,-0.00292015,-0.09946600,0.23449522,-0.51874237,0.15652067,-0.29559707,0.03705789,-0.10677694,0.47180011,-0.20233018,0.38164043,-0.34531255,-0.21938036,-0.34988422,0.31724366,0.17223647,-0.26727685,-0.25841361,-0.32865924,0.38602432,0.43405436,0.00508626,-0.11774057,0.36195795,0.21394270,0.08614022,-0.36291972,-0.39976178,-0.51719480,0.24567587,-0.50830045,0.06337965,-0.04560877,-0.38962292,0.38062469,-0.39802222,0.03445314,0.46978238,0.09741944,-0.19017830,0.19576901,-0.44928093,-0.43407026,0.28855570,0.40385635,0.35951635,-0.19800935,-0.24062457,-0.45917247,-0.02974815,0.34601615,0.22017006,0.02203687,0.14781001,-0.28667737,-0.03272488,0.34088372,0.08210589,-0.20246024,0.35401156,-0.36263801,0.45631635,-0.38051196,-0.04077322,0.41468350,-0.48193560,0.41236675,0.16032413,-0.01817198,-0.45057869,0.13543432,-0.18755803,-0.34831189,0.29169962,0.10974147,-0.33244528,-0.20414472,0.32272632,-0.27763170,-0.00022192,-0.06937567,-0.25677105,0.39261977,-0.38510999,0.37650567,-0.47451045,-0.16599412,-0.48115634,-0.02460385,0.15860866,-0.29696012,0.26882264,-0.25741459,0.45927304,-0.19487081,0.42523818,0.08169723,0.05559846,-0.15153429,-0.46102787,0.15839117,-0.34668763,0.20144261,0.44839069,-0.22171182,-0.16646434,0.45160036,-0.46631305,-0.36505099,0.17891376,-0.31678132,0.15932922,-0.46366019,-0.48472622,-0.38018751,-0.44016595,0.23713212,0.03758487,-0.35010832,0.45743148,0.05886895,-0.27547285,-0.38084257,0.06818307,0.27106528,-0.02513487,0.38301342,-0.44003792,0.04946109,0.13168048,0.17471821,0.21128268,-0.32093187,0.25604656,-0.02105729,-0.46143134,0.35256418,0.18113369,0.08858812,-0.14479024,0.14253500,0.09431130,-0.34379269,-0.19683609,0.32404711,-0.05691982,-0.22533269,-0.17044248,0.16507552,-0.41805565,0.41551335,-0.23233456,-0.18028174,-0.10023565,0.26031893,0.02786984,0.24681436,0.08845271,-0.41867431,-0.10108456,0.06529969,-0.07172977,-0.17391045,-0.40109022,-0.18521376,0.07742857,0.08821441,-0.08026647,-0.24549988,0.38516859,-0.09085904,-0.06446653,-0.38880957,0.13098255,0.36057318,0.12185950,-0.40957624,0.24695971,0.46651384,-0.17985236,0.34317490,0.08768424,0.23817271,-0.09134666,-0.37121570,0.18505557,0.15253432,0.52067483,-0.26796097,0.43065830,-0.35363449,0.08080916,0.38162315,0.50676389,0.08321945,-0.18175847,-0.46179817,0.22186089,-0.25706709,0.22782666,0.19447696,0.26522291,0.25518555,-0.08342697,0.02493381,-0.23336694,0.30134046,0.27945938,-0.32784756,0.37730180,0.30858239,-0.03471600,0.21849705,0.42261298,0.00208489,0.39484387,-0.00992154,0.00162722,-0.00344504,0.20854262,0.16191268,-0.00477985,0.14901168,-0.32217285,0.22279224,-0.14938587,-0.10615541,-0.34817716,-0.20061217,-0.09090781,-0.40469119,-0.26960238,0.03019113,-0.17220842,0.16117129,-0.31824536,-0.31639034,-0.24172997,-0.48282415,0.24167381,0.14621270,0.46929575,0.22200266,-0.10324918,0.28976163,0.18700428,0.03685432,0.37895788,-0.34053045,-0.23250196,0.11398089,0.14829879,-0.48773032,-0.00108128,-0.15554168,-0.19061154,0.31699762,-0.42099515,0.11061276,0.36789053,0.37566326,-0.28222238,-0.21637857,-0.17548386,0.12528156,-0.16669389,0.15892767,-0.35881406,0.04407818,0.12439715,0.23121495,0.29693246,-0.50453658,0.42585831,0.38912042,0.18833141,0.14142272,-0.13270238,-0.10806905,0.25285261,0.03929222,0.17302551,-0.02445539,0.04324669,0.30312611,-0.10831887,0.21067962,-0.23577076,0.06051551,0.16951449,0.36870025,0.27964556,0.24897928,-0.30360870,-0.15900331,-0.01751208,-0.12988332,0.24415014,0.29189979,0.05559640,-0.45070658,-0.51874494,0.16776723,-0.29561275,0.10959790,-0.27843144,-0.29679361,0.49873167,0.26604787,0.45641159,0.24603605,-0.47237769,0.26408220,-0.22088121,-0.18345117,0.03195423,0.05707551,0.38431456,0.15745640,0.25509196,-0.10933082,0.40792256,0.06775467,-0.44208006,-0.45358741,0.10631217,-0.00061526,-0.24301674,-0.21918869,0.32105762,-0.06622988,0.47254355,-0.33512495,-0.40626222,-0.21886190,-0.43450466,-0.29715727,-0.29604188,-0.31556884,0.31145226,0.01984595,-0.22858359,-0.19956172,0.47841263,-0.33768221,-0.36612567,0.00023576,0.23726334,0.23458368,0.32606116,-0.45205925,0.35359115,-0.19602609,0.16294486,-0.17917333,0.09852692,0.24705144,-0.46735531,-0.10441383,-0.11979173,0.40660217,0.42929220,-0.04781471,0.22415968,0.16541765,0.42939622,0.12998242,0.32539710,-0.01749915,0.40233019,0.01873459,-0.09307673,-0.04731694,0.32060966,0.29593910,0.04435533,0.28637466,0.37500288,-0.43186478,0.00620803,-0.30853571,0.09745951,0.44140606,0.13421388,0.07904144,0.30884055,0.08678194,0.43604237,-0.22291475,0.04629005,0.42054891,0.39214450,0.20343722,0.18933837,-0.43959261,-0.35866470,0.14274826,-0.35127324,-0.07149148,0.11079559,-0.32159911,0.44965870,0.41084209,0.20807973,0.24009946,0.32766158,0.32132536,0.46616144,-0.49513402,0.43359664,0.23126450,-0.47889514,0.19856740,-0.12404823,0.03674096,-0.42989794,0.26325127,-0.28376074,0.30849222,0.38303556,-0.45413265,0.36699029,0.49548426,0.15211494,-0.14575711,-0.45078969,-0.45588752,-0.38020529,0.46374174,-0.39376483,0.43974688,-0.14409914,-0.01868047,0.25435139,0.18099254,-0.48557495,-0.12506754,0.07342851,-0.46833178,-0.23606736,-0.51101310,-0.24446761,0.32548680,0.42886485,0.09094013,-0.37821174,-0.46985611,-0.44431982,-0.11197633,0.17964759,0.41771917,-0.10253165,-0.04150201,-0.12712105,-0.08541667,-0.19404307,-0.18624250,0.16327727,0.43052055,-0.08593668,0.41687475,-0.23222957,-0.06177713,-0.44128368,-0.12623148,0.33711532,0.26231375,0.47639648,-0.01729539,0.23878865,0.41359137,-0.49217719,0.11765808,-0.43420148,-0.12502681,0.19076080,0.46899553,0.48155656,0.10397092,0.45911712,0.49347949,0.33920531,-0.20222068,-0.17339739,0.42730551,0.31561354,-0.17579260,-0.12841132,0.31184298,-0.18033492,0.25876251,-0.19359860,0.40717823,-0.34708877,0.43231190,0.31556529,-0.47395044,0.14507874,0.11906299,0.19584800,-0.43957504,-0.45158713,0.00665133,-0.48947967,0.46298405,0.33240536,-0.16829789,-0.05107022,-0.24881819,-0.43090347,0.37653850,0.03773122,0.44016914,-0.12604581,0.27616283,-0.10638982,0.42698437,-0.43851549,0.47051273,0.37968099,-0.00276727,-0.12465488,0.17563998,0.20578428,0.42282023,0.19195468,-0.25607687,0.40934873,-0.39772870,0.44518357,0.30025918,0.34755924,0.06693569,-0.09131984,-0.11229122,-0.40989620,0.37620882,-0.32806276,0.32576139,0.23192655,-0.34612191,0.15700795,0.45377790,0.08220002,-0.04079599,-0.41487678,0.45766468,0.30535465,0.37706873,-0.38282488,0.26471089,-0.38048413,0.07934377,0.03672467,0.42538369,0.27683065,-0.21182297,0.04929380,0.21092537,-0.15162462,-0.28318783,0.35033097,-0.18864197,0.42170821,-0.43795443,0.25558070,0.00965648,0.08949069,0.27848916,0.09088306,0.01107160,-0.45169522,-0.33859343,-0.37931930,-0.13891356,0.26250777,-0.41153329,-0.20416880,0.41415218,0.06319559,0.31783199,0.32284185,-0.08865212,0.11380247,0.29881299,0.24976982,-0.49878055,0.41033902,-0.20921179,-0.49098982,0.40102145,0.10633030,0.43114400,-0.04576924,0.31397364,-0.08745338,-0.10151695,0.25030170,0.37534562,0.39163760,0.12125551,-0.25098436,0.15635157,-0.32134206,-0.30037458,0.33173027,-0.38504819,-0.09942938,0.38506557,0.20728494,-0.23764152,-0.22004581,0.24755858,0.27448209,