-0.27545131,-0.18915548,-0.48882784,-0.05607994,0.37236215,-0.30231562,0.30788863,-0.33292806,-0.01864040,-0.27154888,-0.20507748,0.33681556,0.07849480,0.30164000,0.18425422,-0.11819285,-0.12001194,0.01477865,-0.22352564,-0.17786226,-0.21412890,0.27303941,0.44434810,0.17803214,-0.15181853,0.04425238,0.26534507,0.06461082,-0.14019166,0.18288242,-0.23179211,0.19794660,0.38373998,0.46254587,0.38918619,0.29072399,-0.01109385,0.06924676,-0.05031680,0.34162731,-0.45663225,-0.37584792,0.42147798,-0.23698373,-0.43086006,-0.34574730,-0.02246674,0.30952632,0.34731650,0.46753374,0.12067511,0.10792338,0.41744608,0.27693308,0.00718758,0.34791849,0.44361767,-0.49171149,-0.23727950,-0.42847941,0.28960754,-0.21168258,0.26847555,-0.43902955,0.10230244,-0.10026690,-0.36660497,-0.36510557,-0.29007155,0.39840106,-0.09787263,-0.06950101,-0.17965033,-0.24480520,0.47511444,0.24247336,0.04957633,0.44825000,-0.19331435,0.41082016,-0.20712179,0.01159832,-0.25238254,0.18985048,0.33886503,0.48369097,0.26873184,-0.17192232,0.41236681,-0.28733325,0.17176678,0.27225038,0.18268962,-0.43892722,0.12910628,-0.04263285,-0.05260192,0.15165486,0.42837877,-0.00275412,0.25652176,-0.42425971,0.24691753,-0.09672595,-0.05522786,-0.21888924,0.10776422,-0.19404722,0.21155754,0.23864300,0.35147618,-0.30496106,-0.41198142,-0.40553421,-0.20783655,-0.45725114,-0.25889615,-0.41972325,-0.04015737,-0.02299128,0.18406344,0.04764428,-0.20204973,-0.29393205,-0.14979865,-0.23587900,0.49413745,0.04117258,0.38831133,-0.14967216,0.11071192,-0.25062231,0.20687359,0.48312248,-0.18422141,-0.08643079,-0.45966555,-0.12642713,-0.47552899,0.15653995,0.34951168,-0.25976776,-0.15410078,-0.48081980,-0.20579759,-0.28677599,0.26038329,-0.43541453,-0.32304370,-0.33773738,0.33939744,-0.00710465,-0.23283850,0.16347654,-0.07803760,0.05596073,-0.34334555,-0.25284492,0.01787995,0.40896745,-0.00870389,-0.15044689,-0.22237450,-0.32675527,0.01402364,0.15673050,0.12245695,0.18496711,0.48879515,0.21782906,0.18731617,0.35891678,-0.23776231,0.37800128,0.35351311,-0.22425194,0.24937227,-0.11436406,-0.33339348,0.42483095,0.28697303,-0.42845896,0.00688431,0.11550666,-0.07587177,0.28944170,-0.08329683,-0.38963067,-0.11599138,0.16345309,-0.10001004,0.09743971,0.14839490,-0.16109452,0.40380990,0.03797089,0.35237264,0.31012286,-0.16272446,0.47501718,-0.45784396,-0.50710431,0.28223455,0.22302000,-0.20893899,0.13542166,0.26431074,0.09939199,-0.13385369,-0.09817258,0.32846516,0.26543985,0.21364547,-0.31891245,-0.23260612,0.34063697,0.43702925,0.05818852,0.14578895,-0.05557183,0.12617231,0.43887214,0.19743363,-0.45125600,0.33043345,-0.31937340,-0.19264040,0.09082837,-0.28085475,0.38855604,-0.07443484,0.17819372,-0.21283016,-0.13460635,-0.19530749,0.31868479,-0.23913425,-0.13389487,0.12722529,-0.48009416,0.43225075,0.20818075,0.18194508,0.08756861,0.17059663,-0.37192842,-0.07869136,-0.16366667,-0.37289940,0.03892274,-0.17349557,0.40721037,0.24282948,-0.23690615,-0.33522825,-0.51979988,0.21455068,-0.11591587,-0.31222995,0.12662179,0.02555239,0.01176503,0.39992478,0.02192705,0.36927105,0.25385178,-0.19669900,0.07632206,0.06439824,-0.27166704,-0.33175638,0.19470432,-0.02030061,0.15935607,-0.07496953,-0.37403286,0.02865683,-0.06469340,0.26327861,-0.38404894,-0.07944465,0.24589514,0.24953165,0.15968574,0.07507252,-0.31075769,0.21096646,-0.33800739,0.29015124,0.47060223,-0.49806436,-0.24837335,0.04676324,-0.23974979,0.29197103,-0.43731302,-0.09748011,0.05842188,-0.46800335,-0.15358398,-0.23257171,0.03660237,0.29055799,0.08892367,0.15799463,0.32321505,0.38415684,-0.36110437,-0.23303122,0.35845669,-0.42708350,0.12096743,0.43624011,0.29809527,0.34009054,0.10182048,-0.06551593,0.05030417,-0.18905073,0.38526391,-0.46291084,0.45387882,0.06504240,0.37823116,0.34071786,-0.36367025,-0.20386188,0.07817918,-0.29463433,0.39708111,-0.31019398,-0.26676600,-0.25731275,0.35961739,0.28824923,-0.15662382,0.15810693,0.03689041,0.38590103,-0.44663839,-0.46328464,0.45894304,-0.22756073,0.20367085,-0.39963880,-0.07398978,-0.46990309,0.07172208,0.29289885,-0.05917384,0.58203925,-0.18455065,-0.44219506,0.55058001,0.27820539,0.36914531,-0.42887905,0.12963522,0.42550018,-0.24009073,-0.16325500,-0.25978004,-0.24274376,0.05702766,0.33978892,0.26402496,-0.28385044,-0.07367205,0.48991199,0.30423187,-0.17137970,0.15779938,-0.35309238,-0.06608007,-0.12818981,0.20242660,0.58230963,-0.04145507,0.47040237,0.05089159,-0.41789329,0.43515355,-0.28061155,-0.04252449,0.19408062,-0.25065546,-0.21750302,-0.05472257,0.23609163,0.14824467,-0.32050929,0.14090851,0.16710587,0.29066047,-0.29436487,0.24224680,-0.27743878,-0.02179722,0.21948630,-0.22063900,-0.33070831,-0.21587865,0.06623208,-0.15185793,-0.10181240,0.04014460,-0.10748446,0.43985148,0.31699867,0.05334597,-0.46201033,-0.45658544,0.38464673,-0.03734888,-0.37776352,-0.31524959,-0.23562053,0.40024860,-0.36172822,-0.36759904,-0.11551499,-0.04274994,-0.46029079,0.23838516,-0.12001398,-0.33837572,0.31901044,-0.13169218,-0.47317681,0.02654402,-0.36637126,-0.24341678,0.53287698,0.50218649,0.04478920,0.04401296,-0.50626174,-0.11231470,-0.10157502,-0.18847209,-0.26825062,-0.30894266,-0.39527490,-0.29658540,-0.37669419,0.19615809,-0.05703655,-0.15664594,-0.38896240,0.02103206,-0.04276911,-0.30657500,-0.47158942,0.41910741,-0.05730395,0.05126082,-0.09319394,0.19074040,-0.22666086,-0.35244877,0.24416702,0.07258953,0.35648652,-0.28579381,0.31456739,-0.25112599,0.33863182,-0.43774554,0.18306386,0.13215166,-0.54580720,0.07436975,-0.17217938,-0.16054771,-0.38329197,-0.36871054,0.30675931,0.09727637,-0.18936466,-0.28109763,0.05190234,-0.03807368,0.17893278,0.14904661,0.39205648,0.28314150,0.09206551,-0.14244279,-0.30331782,-0.47683591,-0.50028755,-0.24938140,-0.06593918,0.50048727,-0.30993970,0.45350419,0.00902599,-0.11688144,-0.45606472,0.43149527,-0.40928917,0.38377484,-0.02692046,-0.41378408,0.10574215,-0.01758978,0.06221928,-0.16101357,-0.24718155,0.44159718,-0.37631725,-0.01608059,-0.42963834,-0.27605321,0.39293406,0.11201173,0.08597783,0.01204158,-0.28982550,-0.10037150,-0.45537150,-0.30996451,-0.28332218,0.17922737,0.25695809,-0.12101364,-0.17641829,-0.41255216,0.12625026,-0.16642369,0.01689823,0.49552972,-0.32553963,0.08011130,0.19745449,-0.26717785,0.15437599,0.31826115,0.35118088,-0.24911855,-0.11577344,-0.07369682,0.32824576,0.27499377,-0.37511033,-0.36483178,-0.45306042,-0.03282591,-0.40849233,-0.06481033,0.04689172,0.13414470,0.08260240,-0.22385070,-0.37513584,0.49609059,0.15853814,0.02583580,-0.04721372,0.47541154,-0.43484253,-0.07696079,0.28348579,-0.39417712,-0.11707237,-0.25606596,0.49885805,-0.13582414,0.47665834,0.14156628,-0.44319065,0.13688417,-0.30964562,-0.35868912,0.15108533,-0.19572174,-0.33845194,0.24374396,-0.50056557,0.09036067,0.17502353,0.38779695,0.09901024,-0.47554311,-0.07403377,-0.06850789,0.30106043,0.20344879,-0.27249354,-0.39687404,0.25195323,0.28722895,0.23084358,-0.07661799,0.42643225,0.40848836,0.34543775,-0.13938101,-0.00115368,-0.14025581,-0.30701890,-0.18031673,-0.18696838,0.50658189,-0.12552021,0.28229992,0.36799911,0.09637237,0.17941977,-0.13910019,0.42423241,0.00739832,0.43479337,0.48101830,-0.06449010,-0.36879730,-0.48138362,-0.49477513,0.06871045,0.24277260,-0.30546919,-0.19450103,-0.42100271,0.17809760,-0.25580030,0.45221770,0.15997777,0.09612477,0.26510753,0.40915675,-0.13977231,-0.28387913,-0.01428449,-0.16814472,-0.30590453,0.30160119,-0.43017823,-0.40804498,0.06449255,0.51483016,-0.07791195,-0.09620334,-0.29539438,0.48142074,-0.35711132,-0.07839227,-0.24815201,-0.06752849,0.22021269,0.25378250,0.30114616,-0.27614664,0.01478864,0.23521915,0.32746931,-0.37493663,0.21426084,0.10124681,-0.32678597,0.38836978,-0.15065340,-0.07738306,0.44542939,0.06863480,-0.31084575,0.29804495,0.44782126,-0.03521795,-0.03466845,0.29919626,0.32178243,-0.45768062,0.36979000,-0.25077254,0.06201096,0.42455359,-0.29248418,0.16561278,0.27139007,0.40560937,0.28122947,0.09664186,-0.21131525,-0.01701164,0.16869433,-0.24340046,0.30691548,0.34778818,0.23812423,-0.00966524,-0.29335864,-0.26494534,0.27902699,-0.38941836,-0.15593538,0.50833879,-0.16497318,-0.46929287,0.04805731,-0.12122696,-0.20414193,-0.15742407,-0.34607923,-0.36945199,-0.34657124,-0.22559910,0.10566332,-0.06750389,-0.10583733,-0.31303394,0.48283822,0.18763869,0.23704091,0.47531890,-0.33031133,-0.04218017,-0.35661071,-0.41964947,-0.02531205,0.47581741,0.10535667,0.33885724,-0.38108033,-0.14992042,0.21053881,-0.45147346,0.14757615,-0.12052218,-0.26819873,0.40576670,-0.15653661,0.36695191,0.20304859,0.16832569,-0.26052918,-0.26175749,0.03684525,0.35206415,-0.18783144,-0.12999372,0.06128031,-0.16023899,0.23823701,-0.01739516,0.22122817,-0.23162727,-0.04874718,-0.44942321,0.12836953,0.22665542,-0.14952925,0.00096569,0.39813981,0.32622981,-0.33258152,-0.04282576,0.05490381,-0.08418361,-0.17329142,-0.24561227,-0.30197986,-0.23255618,-0.01935107,-0.38024213,-0.01980412,-0.23427793,-0.43905794,0.31611156,-0.04299308,-0.25102942,0.37290845,0.49486051,-0.26779294,0.38031413,0.17717356,0.06627477,-0.19538171,0.18214605,0.38032120,0.21853572,0.31259486,-0.11577778,-0.08838921,-0.39061026,0.42834341,0.44303158,0.47421461,0.24815614,0.19456934,0.35019666,-0.14322262,-0.13289060,0.35982676,-0.19981975,0.44293335,-0.10477277,0.47606978,-0.45816698,-0.07200335,0.46120336,-0.33543383,-0.18753530,-0.22985063,0.30939733,-0.32951507,0.30426585,-0.14972329,0.30869125,-0.13075983,0.34867674,0.30571427,0.37616348,0.44255968,0.48852235,-0.30395055,0.42763519,0.47335553,-0.13195487,0.23605335,-0.37361393,0.48188483,-0.00895016,0.48302512,0.03978300,0.06477107,-0.32609518,0.38949141,0.40033894,-0.23819030,0.45184616,-0.21644947,-0.20537224,-0.21637997,0.06729764,0.42703974,-0.01017076,0.10387517,0.47974319,-0.31853106,0.41817520,-0.40693532,-0.29876931,0.01326988,0.42080319,0.19592226,-0.43376875,0.14851239,-0.08618243,0.33077911,0.45396132,-0.37783774,-0.26910009,0.41253769,-0.23322469,-0.34913208,-0.28316769,-0.29361679,0.14753551,-0.02757593,-0.45252270,-0.30978388,-0.44262477,0.31610262,0.06581839,0.25291850,-0.19334139,0.01134083,-0.07471087,0.21653474,0.49682536,-0.26392766,-0.13116036,0.49293642,0.30354462,0.01467068,-0.02785484,0.06543677,0.29210815,-0.27559860,0.29602007,0.00662289,0.21847354,-0.02903986,-0.41030703,-0.30229063,-0.02505611,0.28884414,0.40671922,-0.25563523,0.10720921,-0.38149491,0.47158228,0.14937398,-0.24679893,-0.48203398,0.23834766,0.25523339,0.08359631,0.28146215,-0.16135832,-0.48924128,0.25527726,-0.36432649,-0.08770137,0.17788733,-0.02589059,-0.32675237,-0.33806284,-0.07477227,-0.43820471,0.29935808,0.07173949,-0.20781815,0.46817638,0.15796938,-0.18674857,-0.42979580,-0.27238466,-0.30589242,-0.42395895,-0.02031610,0.30223099,-0.29481835,-0.43651485,-0.47078759,-0.22264162,0.10420586,-0.49535326,-0.08997547,0.04403087,-0.47841947,-0.19513499,0.48836774,0.37199864,0.35611570,0.24655371,-0.15028547,-0.29235346,0.21956723,-0.29913552,0.43208405,0.04998835,0.02199755,0.38163490,-0.24375912,0.41680944,-0.38606826,0.13212821,0.07975327,-0.09370665,-0.12481073,0.23177189,-0.02414998,-0.41819965,-0.31400078,0.27114619,-0.24845219,-0.01331666,-0.18300924,0.24438955,-0.05547265,-0.02204886,-0.34000631,0.02014089,0.45524518,-0.28539638,0.47939415,-0.47472179,0.27170467,-0.46379463,0.39521450,-0.49265365,-0.19576535,0.38145542,-0.15077086,0.28735437,0.02282127,0.29979616,0.04837916,-0.40115350,-0.02147829,-0.37379479,0.22483435,0.08494364,-0.48032292,0.41629854,-0.40496128,-0.11200505,-0.14491356,-0.27441353,0.20558081,0.24798339,-0.21265480,-0.32200888,0.18222124,-0.19167197,-0.50208776,-0.50600607,-0.34319242,-0.53863949,-0.43543419,0.33985884,-0.48272590,-0.37652984,0.38833978,0.45863514,0.16208772,0.37381957,0.45153689,-0.44641249,-0.29684724,-0.03792399,0.12777397,0.29022825,-0.14281875,0.01474272,-0.22316419,0.19836299,0.35185667,-0.08077707,0.06061645,0.09937367,0.12866577,0.22288232,-0.37030249,0.14067192,-0.21397812,0.09011706,0.19725932,0.34798628,-0.38599994,-0.17778348,0.14756026,0.34527688,-0.47470618,-0.24406839,0.28507480,-0.31752376,0.48512590,-0.11041248,0.25153790,-0.17886064,-0.26647204,-0.26137119,0.41371877,-0.01799574,-0.43263819,-0.34818372,0.57619909,0.49090802,-0.29405143,0.37684985,0.48636607,-0.30535536,0.26663093,0.39318443,-0.44251968,-0.15745119,0.12525393,-0.34909183,0.29166947,-0.19673507,0.14096845,-0.11256286,-0.48513174,-0.33412991,0.04895109,-0.19159562,0.47034336,-0.21264522,-0.47133868,0.49081868,-0.26737152,0.39766672,-0.38419812,-0.11569357,-0.11203512,0.49022886,-0.02436765,0.41671788,-0.23377910,-0.05428751,0.44091898,-0.45278762,0.20389962,-0.11011415,-0.26304573,0.24182718,0.44813463,0.01908353,0.17345721,-0.49730457,0.24389090,-0.02673016,-0.07552238,0.16424509,0.44646032,-0.22736330,0.12064283,0.49978017,-0.12210028,0.27620167,0.57983490,-0.08680228,-0.31511938,0.45582061,0.44643595,0.09329831,0.33666910,-0.00300632,0.04483186,0.53037831,0.14842887,0.21673182,-0.30552447,-0.17832885,-0.47964183,0.32893852,-0.39945590,-0.36758810,-0.02400598,-0.23082954,0.27058954,-0.05479063,0.10359302,0.37423299,0.53928378,-0.29372977,0.26047136,-0.23610524,0.51507701,-0.19623705,0.46443085,0.17004787,-0.53536789,-0.50176712,-0.48958382,-0.05084182,0.30316213,-0.28841456,0.27936234,0.35064916,-0.26807874,0.40515651,-0.09061895,0.24692486,0.10662076,-0.49438612,-0.13229091,0.11131004,0.42259478,0.03899312,-0.02107366,0.24719579,-0.07349361,0.47307472,0.10762971,0.61203076,0.36763013,0.36102910,0.12546087,0.41205325,-0.09300458,0.30096574,-0.28395067,-0.09286170,-0.10160557,0.21356472,0.27300113,-0.02306447,0.32335679,0.37170284,0.21608018,-0.26749346,0.13990294,-0.13479539,0.20254479,-0.12184868,-0.11932320,0.05696793,0.19343804,0.55497983,-0.10757415,0.43460126,-0.30299712,0.58911964,-0.42527680,0.45159415,0.11572970,0.39566558,-0.26835547,-0.49400279,0.32403478,0.15286353,0.49670664,-0.02143292,0.47837687,0.28396558,0.16515909,-0.25013468,-0.45589981,-0.49675977,-0.46778846,-0.48267790,-0.28633637,0.06546656,0.49362595,-0.26461239,0.44455459,-0.02474602,-0.19658990,0.58684444,-0.15839732,0.20636893,0.41801018,0.28127126,-0.13152478,0.19523144,0.22542826,-0.08265885,0.07903813,0.22682058,0.12045865,-0.16749219,-0.29547650,-0.32072160,-0.45615809,-0.28959659,0.41026731,0.21586899,0.33579465,-0.31925238,0.42952450,0.47154948,-0.05130767,0.46650161,0.23639882,-0.16367088,0.26388853,0.45503689,0.00850816,-0.36675271,-0.39482470,-0.53124309,-0.19678491,-0.59094127,-0.39094154,-0.27214180,-0.49180568,-0.35935023,0.03509830,0.24410938,-0.01045878,-0.05888643,0.44403485,-0.43610850,-0.01449566,-0.32890576,0.40875944,-0.26874397,-0.10420396,0.23221920,-0.48384453,-0.41103895,0.50688267,-0.39337660,-0.45843083,0.03391475,-0.29713392,-0.03049103,0.20743202,0.14180680,0.27338761,-0.09334661,-0.17789485,0.39443453,0.51759092,-0.13845129,0.29590467,0.14487000,-0.32587454,-0.18893764,-0.04551743,0.33356393,-0.00659110,-0.09649945,0.28417163,0.19839551,0.24824279,-0.46412007,0.28086844,0.11275393,0.28338214,-0.43485475,-0.44458456,-0.32028093,-0.49888554,-0.01469410,0.23235456,-0.48731818,0.34701514,-0.54476992,0.41764011,0.02200688,0.30578535,0.08522665,0.48794579,0.48642384,0.06933011,0.57675973,0.26544106,0.04672049,0.23708754,0.30749089,0.20023080,0.49944872,0.26630819,0.34758851,-0.17169566,0.43828470,-0.21550568,-0.29644453,-0.24780064,0.02258637,-0.23851743,-0.34489337,0.33481314,-0.57847481,-0.03973274,-0.14110851,0.28882169,0.56622546,0.40556489,0.46995709,0.25998411,-0.00815842,0.19280042,0.41527406,-0.23190646,0.32979181,-0.37563970,-0.05507785,-0.18207894,-0.01324024,-0.22247798,-0.38882898,0.39421265,-0.18924309,-0.10742760,-0.17315977,-0.20807228,0.15659188,-0.42977198,-0.25298220,0.06418067,0.15921689,-0.36719323,-0.12507626,0.51273070,0.48812041,0.43920856,0.35339999,0.01604993,0.02834001,-0.23275719,0.29625350,-0.39750947,-0.03097542,0.49868582,0.17910036,-0.48215984,0.49027808,-0.15734689,-0.21785469,0.19131528,-0.30511716,0.42130144,0.12502629,0.34795666,0.10657676,0.47816882,0.11263420,0.11650308,0.13766331,0.29867847,0.40600790,-0.28958128,-0.35123764,0.06619476,0.19078061,-0.20651876,0.13330434,0.04422857,-0.16351555,-0.14387411,-0.25877736,-0.39822844,0.30735571,-0.27715262,-0.12207080,-0.38427885,-0.24323088,-0.10740990,-0.27779081,-0.31069003,0.35737574,0.09336953,-0.18034392,0.10514899,-0.05272064,0.16771506,0.34345065,-0.41158978,0.49721778,0.43116351,-0.08445571,-0.37096781,0.23335459,0.22369717,-0.30851159,0.05190842,0.36628408,-0.47255864,0.07786702,-0.19116535,-0.39111637,-0.28000591,-0.11556523,0.13829566,0.49756457,0.34034877,0.27617883,-0.07007582,-0.13799779,0.27626977,0.30121781,-0.39027810,0.23752122,0.36210868,0.23294107,-0.32854717,0.00793318,-0.04703163,0.31279795,0.15899591,0.29551220,-0.33834333,0.09133303,0.15285745,-0.48996206,-0.02234663,-0.45540027,0.21371887,0.16535157,-0.35207466,0.23984254,0.33547103,0.42086845,0.17216249,-0.36380323,-0.27349763,0.47100154,-0.48557142,-0.14269822,0.47007437,0.37837756,-0.29791926,-0.07813743,-0.43442731,0.04505616,0.20515059,-0.16436982,0.18393222,0.24202226,-0.38937295,-0.23331031,0.13443916,0.49583154,0.20464333,0.29644419,0.19300154,0.28830516,0.49733142,-0.01845261,-0.13982299,-0.04301629,-0.23094643,0.40788614,-0.16223236,0.06540376,0.06193192,0.41734238,-0.10378494,0.19360094,-0.02275888,0.25961234,-0.02775607,-0.08549139,0.41881766,-0.01996444,0.01782368,0.20704560,0.09610859,-0.32539206,0.33742266,0.24060820,0.31034142,0.09514413,-0.03169606,-0.28460874,0.08764163,0.41177081,0.06942382,-0.08703969,-0.08791408,-0.35229732,-0.09125139,-0.13413612,0.14468668,-0.19821509,-0.32444596,0.34946058,0.10316884,0.44270358,-0.03943774,0.10864000,0.45803461,-0.22201566,-0.23329717,0.01417684,0.49854672,-0.33152546,-0.01380139,0.07433182,-0.19583605,-0.43097466,-0.04379682,0.01807960,-0.32078695,-0.31762356,0.12980630,-0.02422348,-0.29522345,0.35121920,0.06282272,-0.36712486,-0.26084527,0.36421602,-0.45132510,-0.22676293,0.11634273,-0.41581700,-0.37742429,0.25837199,-0.40325752,-0.27325295,-0.13831747,0.20051223,-0.05858779,-0.46422238,0.25400371,0.01015304,-0.45112291,-0.38559136,0.29872592,0.02937182,-0.45838102,0.06872295,-0.00279731,0.23109593,-0.25597609,-0.14215951,-0.21629209,0.07520561,-0.24793749,-0.45746587,0.43479116,-0.16315375,0.25061272,-0.43723220,0.20288952,-0.16707385,-0.17268583,0.45124941,0.14836159,-0.05507301,-0.08729970,0.49329264,-0.00972206,0.45065757,0.39512209,0.46649324,0.02655369,-0.06996975,-0.42600921,0.42887928,0.32833781,0.19219735,-0.33630003,0.48255101,0.09469564,-0.26416786,0.26627291,-0.11146367,0.41001351,-0.39216325,0.18463352,0.06210974,0.13959762,0.07708469,0.40531198,0.32761123,-0.03662954,0.30522269,-0.18019759,0.19473959,0.39985354,0.36277136,-0.13283664,-0.03210710,0.02135348,0.35889889,0.07719566,-0.12630901,-0.00016420,0.07339685,-0.20417622,-0.26640963,0.09293342,0.32876892,0.22843825,-0.15672944,0.11314536,0.13164670,0.01931939,0.02816122,0.08098489,0.24343147,0.25275173,0.42031329,0.21950553,0.01131899,-0.35319800,-0.32299317,-0.38148104,0.27129518,-0.38946886,0.16928587,-0.01135736,0.37990661,0.41615873,-0.18438749,-0.33738375,-0.38732207,0.29473978,0.30226721,-0.03008241,0.10169258,0.28464088,-0.36894066,0.21962500,0.19832462,0.47745346,0.26378376,0.07311690,0.35407009,0.37731363,0.11608413,-0.31859780,-0.48109717,0.42653955,-0.07623013,-0.42593485,-0.23221518,-0.35744268,0.12349824,0.49237220,-0.41307857,0.28621287,0.23484542,0.39162728,0.37796181,0.40998488,0.39518797,-0.40327041,0.03483480,-0.50535196,-0.18924035,0.06200543,0.17177987,-0.42718017,-0.24566577,-0.03700977,0.14717114,0.03385267,0.00154030,-0.14218715,0.48909650,0.44376021,0.42847468,-0.11434513,-0.35403040,0.01210849,-0.14778692,0.49948849,0.36006164,-0.43504201,-0.10107435,-0.13724424,0.20441025,0.28798111,-0.22859703,-0.35113668,-0.38984034,0.20039028,-0.26316040,-0.30469539,-0.48238407,0.49870515,0.40386252,0.02891607,0.52645116,-0.02150271,-0.14023274,0.02295347,-0.21819349,0.06997093,0.00758281,-0.18601393,0.18936813,-0.12725708,0.49857740,-0.14624650,-0.30406586,-0.09386895,-0.33148203,-0.32062104,-0.31885595,-0.28132753,-0.38130652,-0.07737958,0.16982829,-0.52829954,-0.51962902,0.19939147,-0.02118071,-0.44964377,-0.33384775,-0.01813031,0.21761899,0.35858213,-0.52268054,-0.11457697,0.37953646,0.17712176,-0.29787745,0.03197409,0.18179563,-0.13126675,0.16691220,-0.13373956,-0.22055211,0.20427430,0.15740001,0.13008061,0.00579879,-0.24605879,0.03580907,0.10926531,-0.45107875,-0.18456344,0.15552762,-0.09402789,0.40890580,0.08514118,-0.29412315,0.48074815,-0.00328520,-0.28697845,-0.05738605,-0.10381910,-0.43445543,-0.40894737,0.43360001,0.25145380,-0.49191697,0.44081095,-0.02766720,-0.42161873,0.43129005,-0.34195661,0.00360752,0.39613235,-0.17938367,-0.36191545,0.13526169,-0.08970045,-0.29859834,0.16406546,-0.11577893,-0.07988849,0.13350787,0.52546129,0.22909288,-0.29266148,-0.06156022,0.04102548,-0.33245408,-0.29531666,-0.25555667,-0.39225396,-0.01498414,0.10204524,-0.14584646,0.01203745,0.11386213,-0.41720648,0.38225507,-0.43249311,0.29255533,0.34607617,-0.28967302,0.30990895,0.29350861,0.06796150,0.01446545,-0.13552958,-0.07654702,0.03959527,0.46963133,0.40760243,-0.06175690,-0.33917181,0.11865670,-0.29314486,0.39514875,-0.25775101,-0.08320649,-0.23321793,0.27012798,0.30036401,-0.43663849,-0.48261616,-0.15918487,0.35930329,-0.44512351,-0.36042434,0.19043762,-0.33953202,-0.17176016,-0.38145599,-0.50218044,-0.31852027,0.31388575,0.24850564,-0.23597078,0.02415571,0.29782666,0.43515030,0.12385050,-0.40971546,-0.46358194,-0.43702417,0.25992386,-0.32517650,-0.37141838,-0.17105132,-0.34421406,0.17136138,-0.18106651,-0.08817774,-0.37708679,0.14704686,-0.29920948,0.25905696,0.00066221,-0.13419975,-0.39573400,0.25600934,0.30496824,0.18909178,-0.00143521,-0.25920746,-0.26060516,-0.04106435,0.16909083,0.62698528,0.40419314,-0.45461554,-0.24967474,-0.52972506,0.14193059,-0.41077790,-0.03029811,0.41014098,0.27878781,-0.21129860,0.42134094,-0.34289970,-0.25621105,-0.23322194,0.33073298,0.08228282,0.25715311,-0.32778566,-0.07520775,0.13524086,-0.25067339,-0.30619761,0.23007094,-0.06495306,0.29453468,0.48378316,0.66140017,-0.21881143,0.39999828,-0.07803239,0.19783882,-0.31579591,0.29911248,-0.57531488,0.32362363,0.17856181,0.12624149,-0.15260929,-0.39577672,-0.11568102,0.24409594,0.10132297,-0.29214568,0.39085475,-0.26642890,-0.45716554,-0.35577138,0.25787184,-0.41548025,-0.49481693,-0.37113731,-0.45379598,0.37467542,0.15345716,0.21442987,-0.17313011,0.05698755,-0.21748445,-0.39592776,-0.17075119,-0.68874478,0.12292627,-0.15377312,0.45275392,0.22834279,0.08110265,-0.25918261,0.24440528,0.17119967,-0.42717371,-0.25941782,-0.19163077,0.13642450,0.48306422,0.09077304,-0.18240181,-0.48443201,-0.16458260,-0.21842440,-0.39989945,-0.06551464,-0.27729269,0.54779656,0.30625819,-0.35797899,0.40950283,0.09872827,-0.49864426,-0.10888254,0.15388246,-0.36552179,-0.22759714,-0.11336754,0.07475103,-0.45714705,-0.03704900,0.07462714,-0.08680928,-0.19138963,-0.25015021,0.34256700,-0.16432995,-0.08573986,0.43905713,0.43410137,-0.06067619,0.19854052,0.33685502,0.27512673,0.34526190,0.36940875,0.34693913,0.33485281,-0.06738659,-0.07476821,-0.13304211,0.09762322,-0.45906492,0.16538069,0.22161525,0.11173114,-0.39105016,-0.11841617,0.32005464,-0.47593558,-0.28110445,0.13966821,0.13535035,0.40576970,0.48872642,-0.24232329,-0.27036566,-0.05203290,-0.52779068,-0.09948319,-0.28248651,-0.39284196,0.06691666,-0.26780335,-0.27388727,0.11552957,0.36158878,-0.11543621,-0.39476800,-0.03299226,-0.25859181,0.23158944,-0.26915772,-0.14583890,-0.11436191,-0.03098382,-0.23210278,-0.52466939,0.04710784,0.42191426,0.35390293,-0.37858079,-0.36086911,-0.09308103,-0.27148367,-0.43580795,-0.37460555,0.17035187,-0.27323263,0.02434043,0.45093905,0.00352000,0.19189202,0.43279053,-0.46014156,0.36349714,-0.19068891,-0.35849974,-0.26597872,0.09802999,-0.17535420,0.28932392,-0.42255066,-0.17193626,0.28392973,-0.47055145,-0.35310375,0.35682355,0.26458597,0.37375242,-0.02908266,0.05224738,0.20946948,0.27051910,0.40080360,-0.02933888,-0.31888760,0.46638119,0.26584913,-0.30732934,0.23549135,-0.00916356,-0.51592054,-0.47891990,-0.52092905,-0.00745015,0.25961916,0.29952735,0.07063262,-0.14297405,-0.35770011,0.17913646,-0.14316477,-0.49059731,-0.33346477,-0.11912333,0.45962446,-0.44919029,-0.28420836,0.25747207,-0.05135267,-0.32195818,-0.22598702,0.32300593,-0.35551510,0.44616941,0.44284973,-0.15562824,-0.13242491,0.00755606,-0.42421088,-0.15197429,0.07419280,0.02007959,0.31838664,0.40545722,-0.00574021,0.23830031,0.08786448,0.35748082,-0.19304091,-0.47756010,-0.39941011,-0.40950993,-0.07526387,0.22034167,0.37977380,-0.19329882,-0.46638488,0.06733454,-0.22356512,0.25441229,-0.20278130,0.16665203,-0.30300473,0.22863318,0.41987017,0.34001717,-0.14769509,-0.52050481,-0.44873247,-0.53505040,0.02892850,-0.45967140,-0.42714065,-0.07144602,-0.05392108,-0.35555158,-0.46750801,-0.49164485,-0.02621561,0.41180461,0.22137011,-0.09981850,-0.28468310,0.48513414,0.49219176,0.07026593,-0.43709900,0.00947758,-0.03951576,-0.08476008,0.25686102,0.37630763,-0.04432188,-0.22462452,-0.33620885,-0.03267132,-0.33121365,0.23394764,0.45190977,-0.31598426,-0.10153010,-0.14308929,0.37714530,0.22628296,-0.36003563,0.29357562,-0.11883994,-0.11915093,-0.01568408,-0.23773247,0.12792009,-0.22365657,0.40606673,0.39085060,-0.40951713,0.26836226,-0.06702127,-0.09907737,-0.44117661,-0.19374619,-0.09286417,0.50624786,0.12526758,-0.19738840,0.44838580,0.27340675,0.10373728,-0.39146959,-0.10123407,-0.01727214,-0.12060915,0.09824966,-0.20310444,0.09438141,-0.08848045,0.28500579,0.38466553,-0.19797655,0.10746994,-0.31799986,0.02503540,-0.02919503,-0.08203463,-0.45128705,0.20982631,-0.29496769,-0.22178969,-0.37575187,-0.24956305,-0.13957779,-0.02793525,0.49474836,0.12897759,-0.13243552,0.53536689,-0.24156419,0.00332252,0.35457929,-0.16287883,-0.45628905,-0.11908331,-0.15390080,0.40822484,-0.32976136,-0.01349675,-0.49339517,0.17299172,-0.23441960,-0.17024159,-0.37537672,-0.19648317,0.31835168,-0.10436342,0.37562888,-0.10973091,-0.42645887,0.11591562,-0.17526106,0.12983369,0.02380944,0.16137586,0.38351085,0.02114966,0.42754499,-0.45418259,0.36780027,-0.03620351,-0.30910497,-0.06906386,-0.34901106,0.26043184,0.10182445,-0.14710680,-0.42237309,0.23955642,0.14772290,0.47579273,0.14466242,-0.46422231,-0.20456597,0.37932601,-0.17962910,-0.50814908,0.15005701,0.01384974,-0.50538453,0.31799717,-0.00136885,-0.30126034,0.14006178,0.22853709,0.24632302,-0.04628196,-0.46597436,-0.34561606,-0.36371387,0.26581008,-0.48982079,0.01237416,0.35617453,0.25838606,-0.17547060,0.36438188,0.37895933,-0.19278485,-0.46334399,0.08187444,0.16499308,-0.01255367,-0.09685942,-0.05415881,0.26833312,0.13006245,0.36491566,0.04470374,0.19411877,-0.37682299,-0.33463261,0.46078600,-0.14475319,0.25048229,0.18118736,-0.48723587,-0.10133081,0.13032915,-0.19987109,0.31543189,0.27941773,-0.46132469,0.28923752,-0.46422760,-0.44483249,0.42191271,-0.43847723,0.49699974,0.40890077,0.46282026,-0.13192014,-0.24653717,-0.37246053,-0.46196491,0.35198179,-0.49824484,-0.39295269,-0.24994540,0.03064317,0.19985484,-0.10499256,-0.42498576,0.06904564,-0.46796853,-0.25308866,-0.46476516,0.28411573,0.20245726,0.23428592,0.34154108,0.18365078,-0.03529332,0.36397571,-0.01243509,0.22679789,0.12570434,0.34000342,0.13646795,0.25498645,-0.17236987,0.33595666,0.44764051,-0.10972147,-0.14254973,0.25060164,-0.23370398,0.45362920,-0.39082164,0.44046991,-0.14290551,0.25121103,0.36273380,0.32480614,-0.30672607,-0.12945627,-0.02313327,0.46506538,0.24277400,0.03066826,-0.14997459,0.35342853,-0.19799566,-0.06331499,0.03833355,-0.23533903,0.03416647,0.04997947,-0.02871588,-0.46199442,-0.35769786,0.12426768,-0.34931715,0.20321255,-0.04209185,-0.32397352,0.18672616,-0.08038659,0.24039110,-0.17708112,0.49270120,0.38525629,0.18558017,0.24073116,-0.28951682,0.39389366,0.10082177,-0.39188479,-0.20814880,0.14702298,-0.16070720,0.27221668,-0.48952899,-0.35686492,0.13908791,-0.02210571,-0.23183985,0.32052608,0.44963521,0.22677499,-0.46866534,-0.15129004,0.14019457,0.04442354,0.24113930,0.49937895,0.23539268,-0.40029299,0.19801843,0.01570927,-0.04166667,-0.40528636,0.24857785,0.33468034,0.34765494,-0.48796771,-0.22002517,0.06372521,-0.47793223,-0.44338586,0.47785485,-0.10111267,-0.41403053,-0.32507403,0.36026127,0.42772722,-0.19233973,-0.03425118,0.36126561,-0.14730629,-0.25856097,-0.35089878,-0.33263377,-0.30749134,0.37327672,-0.34107023,0.38528151,0.35081742,-0.09662690,0.13929165,0.01898521,-0.03662947,-0.00319483,0.35805249,-0.48666585,0.03530307,-0.25648396,-0.20383788,-0.08538115,-0.20916968,-0.07681926,0.23614777,0.03364228,-0.12030898,0.39782657,-0.07320636,0.36460458,0.43288622,-0.08161170,0.17810055,0.33055729,0.26291381,-0.14007535,0.29604909,-0.41570664,0.27625839,-0.38040699,0.03757833,0.37279196,-0.13799090,0.14463263,-0.39544537,0.21542312,-0.12737540,-0.38503843,-0.03247048,-0.44169471,0.46653648,0.39901659,0.39540834,-0.24595592,-0.19723635,-0.20085455,-0.05389257,-0.01891883,0.31270200,-0.40672488,-0.12221006,0.25684290,-0.23062384,0.06656422,-0.14195957,0.38914661,0.30566543,0.25339476,-0.40057427,0.36947890,-0.45808994,-0.22134233,0.28235178,-0.18339989,0.26953032,-0.38459642,0.42018631,0.09030928,0.16723856,-0.00938933,0.18260729,0.07408263,-0.36679989,0.20376588,0.09302437,0.03071928,-0.30473882,0.47533079,0.32228222,-0.26831127,0.32908426,-0.06364663,-0.18564193,0.37951431,0.44250134,-0.09527266,-0.09186104,0.34060623,-0.21261991,0.50233442,-0.46087396,-0.35131446,0.23347570,-0.42276069,-0.07012719,-0.33729022,0.02335606,-0.39299415,0.50594375,0.26519608,0.13249748,0.51897148,0.26958997,-0.01786231,-0.00219348,-0.08079004,0.02487603,0.17817334,0.30283184,-0.13531115,-0.30445847,-0.25513375,-0.37148134,0.43508793,-0.41058058,0.06052951,0.54093089,0.09692488,0.29257451,-0.09919965,-0.32741313,-0.33385026,0.16841794,0.11016080,-0.01147158,-0.29184654,-0.33053031,-0.08789181,-0.11875568,0.20551227,-0.18948375,0.31308722,0.36179521,0.29380468,0.19189717,-0.47051844,-0.45677581,0.40899935,0.13119409,0.20586045,-0.42224449,-0.41636017,0.05147667,-0.11046589,-0.08889612,0.50010198,-0.03462510,-0.32565696,-0.36490547,0.41107199,0.48761130,-0.08043304,0.14051358,-0.11816775,0.35652830,-0.31377220,-0.09488880,0.04034223,0.23587126,-0.10299201,0.00582216,0.40963776,-0.40719366,0.28990429,-0.38356806,-0.54558298,-0.28645977,-0.40565498,0.01881124,-0.48762151,0.03463078,-0.04068652,-0.15195010,0.06190203,-0.49693514,-0.45517635,-0.10063547,-0.33968385,0.35653537,0.17174943,-0.47125693,-0.34474743,0.08722694,-0.41932527,-0.12173658,0.02295496,-0.36888826,0.10413025,-0.20479769,0.38182988,0.10206134,-0.06671032,-0.50218026,0.05907630,-0.02738226,-0.49395590,-0.40899198,0.19520340,-0.10584149,-0.01129605,-0.19813251,0.10941525,0.47724190,-0.24824040,0.33923156,-0.13066460,0.02862754,0.15780130,0.26008954,-0.02402049,-0.35380486,-0.01110046,0.25135386,0.06641000,0.06641903,0.08808606,-0.31409529,0.10812544,-0.12726163,-0.54827747,-0.31746800,-0.60546477,-0.26935924,-0.38950450,-0.19298510,-0.08886422,-0.30356301,-0.30571329,0.45219336,-0.26453641,-0.47231801,0.11345619,-0.43495334,-0.19663332,-0.16267641,-0.44801361,0.29156286,0.39732029,-0.02999056,-0.17896926,-0.23793639,-0.44995271,0.41164905,-0.18632175,0.49321827,-0.21511941,-0.04297125,-0.27396407,-0.36161147,0.15343188,-0.16362632,-0.02047452,-0.18632965,0.14234839,0.37466643,0.15673297,-0.17327658,-0.19649383,-0.44214375,-0.43385062,0.26565090,0.49408078,0.00582922,-0.44611521,-0.37640837,-0.13629376,-0.28848871,-0.40059377,0.14748775,-0.07566964,0.38711645,-0.45559409,0.48017167,0.42101284,-0.25455083,-0.49395943,-0.16301666,-0.23872794,-0.07627465,-0.49091889,-0.37236764,0.12894750,0.06959265,-0.33756058,-0.14098995,0.33377339,0.39316896,0.42216521,-0.40808311,-0.37431046,-0.35658857,-0.13131794,-0.20366537,-0.46046620,0.40755067,-0.30506940,-0.05481066,-0.15622800,0.11350592,0.28142194,0.07046541,-0.22341031,-0.02576788,-0.22322407,0.07271797,0.30528994,-0.32437639,-0.32609131,-0.16364441,0.00321357,0.08263144,0.44575824,-0.25539727,0.07049494,0.10646042,-0.24253016,0.11363601,0.31733991,-0.06689895,-0.38009996,-0.42221437,0.30220699,-0.06996711,-0.54471596,-0.19619753,-0.23301707,-0.31347426,0.25778780,0.08397845,-0.20647893,0.16287122,-0.12987072,0.16645326,0.27511444,0.08177822,0.28877099,0.01865995,-0.24720712,0.41836977,0.08554844,0.06652841,-0.13792214,0.41998504,-0.29375495,-0.13982087,0.13226060,0.40371278,-0.15964306,0.01626091,0.16632132,-0.63778536,-0.53483433,-0.22329504,-0.70928476,-0.27802133,-0.56146046,-0.17663076,0.21830390,-0.11410397,0.14934896,-0.03979556,0.30131621,-0.15113880,0.14096128,0.30286707,0.36302178,0.58883756,0.47043063,-0.05953488,-0.06321601,0.49513321,0.28403825,-0.11840641,0.48447044,-0.05168413,-0.14826637,0.04880024,-0.31503222,-0.00898108,0.14209114,-0.17662552,-0.64348937,-0.30117324,-0.28628930,-0.82588496,-0.59681304,-0.67761897,-0.46035377,0.13238729,0.25075415,0.36258271,0.03681597,-0.00929460,0.37056995,0.29951469,-0.34072498,-0.03346348,0.42272801,-0.44079716,0.38573557,0.09177896,-0.00447174,0.38369672,-0.30867800,0.30229872,-0.37164206,0.32070534,-0.07305623,-0.06687803,-0.56733928,-0.68938022,-0.47982633,-0.06178710,-0.01277116,-0.05689893,0.09898991,-0.35574875,-0.26805325,-0.10045840,0.42614625,0.55102772,0.08962608,0.15157084,0.51640621,-0.21169693,-0.34478200,0.32968330,0.29050969,-0.25845451,0.36512269,0.36019294,0.39338359,-0.18025186,-0.10435901,0.30278705,-0.43400810,-0.37780540,-0.35083886,0.28285683,-0.52321835,-0.04449835,0.02080785,-0.49663359,0.29557235,0.36681657,-0.20140976,-0.25641066,-0.10350194,-0.28764987,0.10007613,-0.29956576,0.38787284,0.31478033,-0.32078561,0.02591790,-0.05840509,0.49395266,-0.07657602,0.17490263,0.04554301,0.43383299,0.10822281,0.28833230,-0.01453443,-0.26140773,0.09356406,-0.15178381,-0.04705198,-0.28784795,0.38588448,-0.26423271,0.07415099,-0.30681380,-0.31712376,-0.13030549,0.24361784,-0.09219729,0.09218827,-0.37811549,-0.43823931,-0.42850219,-0.39114551,-0.33411537,0.16138228,-0.13719553,-0.15257954,-0.24268431,-0.15219665,0.05751193,0.29343386,-0.43913568,0.03107440,0.37410265,0.28901824,0.06715234,0.24383545,0.14965982,0.31919426,0.02011943,-0.16304671,-0.37555144,-0.01236815,0.35630182,-0.02357593,0.44047358,-0.11323374,0.32962915,0.25199318,-0.07155132,0.39229573,-0.31825291,-0.03877753,0.16353195,-0.06533465,0.25706291,-0.23496198,0.27203403,-0.46229984,-0.00907800,0.37991695,-0.31636793,0.38062178,0.36259644,0.39538914,-0.29986442,-0.02645766,0.05830380,0.28777209,0.17001707,0.30734523,0.06121723,0.18925246,0.25679628,-0.12809800,0.38749090,-0.34639529,0.07011233,0.45719712,-0.09920838,-0.41634400,-0.25442248,0.39770119,0.13895943,0.33242233,-0.34132913,0.17336996,0.36305129,-0.33764358,-0.17511368,0.54455454,-0.00562627,0.00121248,-0.30566077,-0.09223417,-0.20501930,-0.07483006,-0.33592805,-0.18705784,-0.37085983,0.25935600,0.13132146,0.19457997,-0.19808660,-0.11932916,-0.10378650,-0.36149302,0.10497904,-0.25388020,0.32092513,-0.29298339,-0.28831170,0.15975548,0.21705996,-0.09841123,-0.10960088,0.37757952,0.09366952,0.54832781,0.30581706,0.25967077,0.16805233,-0.01278595,0.42724619,0.32292273,0.30740047,-0.22079315,-0.34711363,0.45645804,0.09827023,-0.37960703,-0.21132769,-0.18645517,-0.21086234,0.43054654,0.36291989,0.49448409,-0.20787694,-0.39599170,-0.23866396,0.07310750,-0.09895660,-0.45394824,-0.31335766,-0.23595040,0.36081247,-0.00235437,-0.30606416,0.01683158,0.08429261,0.30378623,-0.21926875,0.37731397,-0.40875330,-0.40959601,0.17552009,-0.35768669,-0.04361572,0.13247691,0.19247383,-0.26267506,-0.08547821,-0.20506592,0.46730238,0.14569985,-0.40994371,-0.31365192,0.25625017,-0.43604556,-0.25918780,0.19271351,0.14997406,-0.15040430,-0.06304173,0.43717096,0.48641431,0.25823409,0.24982684,-0.21049060,0.02932989,-0.41492429,-0.31220174,0.14836321,-0.06729833,0.46026483,0.34962728,0.07105052,0.14918520,0.33642775,-0.26167557,-0.24704544,-0.39351862,-0.14514571,-0.04638680,-0.46215448,-0.05558490,-0.05010786,0.29428067,0.16753995,0.39792534,-0.35910678,0.21419283,-0.05181797,0.30557677,-0.36263941,0.44597523,-0.22056356,-0.49741465,-0.27482592,-0.23678205,-0.35444498,0.28687862,0.47144309,-0.43910131,0.42656547,0.11422886,-0.12953890,0.02286371,0.32330777,-0.45365237,-0.09900450,-0.11257035,-0.41197230,-0.12852517,-0.35645488,0.44020111,0.39598154,0.21424073,-0.49173256,0.18925069,0.32385933,-0.01574432,0.27347193,0.48610489,-0.48805968,-0.23061480,0.00387138,-0.03068360,-0.10134898,0.10662278,0.23583073,0.38861417,-0.13573080,0.43095854,-0.26392513,-0.06435695,-0.17371540,-0.12645600,0.44128155,0.22374421,0.30076952,-0.18691341,-0.31947563,0.15285867,0.08062822,0.34457082,-0.31130073,0.11666247,0.19188619,-0.13886195,0.29416442,-0.45119890,0.29261405,-0.40690670,0.47267155,0.24935708,-0.35321423,0.00324185,-0.46379784,0.03514106,-0.04556226,-0.18722028,0.02011513,0.44192285,-0.03870026,0.09960005,0.20229937,0.44207398,-0.20648294,0.15214911,0.49139019,-0.44701366,0.29183052,0.11468450,0.37083159,-0.34778041,0.19711726,0.30068044,0.15679534,0.37489602,0.04992831,0.00513963,0.23749907,0.40207987,0.26087917,-0.30849186,-0.16183750,-0.43501576,0.22765830,-0.34135940,0.20757710,-0.28543352,0.35010623,0.02011422,0.22338267,-0.35584518,0.22151855,0.01246098,0.13131172,-0.36854778,0.47949692,-0.37499871,-0.34741626,0.18743576,-0.05203068,-0.08078291,0.19396251,0.31654672,0.00912360,0.38837013,-0.07398669,0.13033674,-0.28115758,0.18286764,-0.00639622,-0.45282354,-0.05708647,-0.21496319,-0.24042595,-0.31716079,-0.31254546,-0.25347339,-0.18161925,-0.01465831,0.05925522,-0.30887658,0.13338933,0.41610841,0.21120986,0.46019392,-0.10832387,0.05774954,0.04822954,0.15979564,0.14796484,-0.15491828,-0.15381528,-0.39120574,-0.37845476,-0.23211958,-0.43114060,0.46182713,-0.14286074,0.26586508,-0.50400269,0.21582725,-0.38626479,-0.19286753,-0.45033565,-0.27952927,0.09341942,0.03139513,0.14996326,0.33513451,0.32791060,0.09739016,0.07843440,0.34690188,-0.05501426,-0.46705674,-0.18719415,0.26565862,0.19036682,0.05632074,-0.19498648,0.45190919,0.27057816,0.04171989,0.33249341,-0.16276545,-0.16726969,-0.29093356,-0.05812313,-0.07737140,0.40400024,0.24739833,-0.35414341,-0.44429003,-0.22416936,0.47860705,0.30438937,0.37904886,0.39172503,-0.00267880,0.08819584,-0.08063604,0.23485951,-0.25346741,-0.24304032,0.42299939,-0.05716412,-0.03748275,0.33704070,-0.21016709,0.23143820,0.03037896,-0.36064831,0.20776919,0.37491014,0.10830002,0.13117667,-0.31391593,0.36418331,-0.33205040,0.01918972,0.35484630,0.22440467,0.45263798,0.38810308,0.42114853,-0.34931036,-0.47386518,0.31880364,0.27393783,-0.44584626,-0.11421136,-0.46847342,0.41850972,-0.49330284,0.14696717,-0.48462197,-0.15296850,-0.44691430,-0.21687473,-0.43942539,-0.12935180,0.43724211,0.05472137,0.05068086,0.31875702,-0.47068420,-0.42219590,-0.17238156,0.45275951,-0.39023734,0.16978355,-0.44404897,-0.39922354,-0.06313311,0.35809831,0.33309795,0.36304108,0.11831260,0.42385716,0.42529236,0.40174598,0.15947519,-0.46056565,-0.22915813,0.28509622,0.34217425,0.28561997,0.41521496,-0.32779355,-0.28103968,-0.37182081,0.11615286,0.22089218,-0.48955062,-0.24216369,-0.15602698,0.00056058,0.42164054,0.00031841,0.39127542,0.50095038,-0.30316042,0.40063322,-0.14101217,-0.33863755,-0.37635044,0.05090542,-0.31208208,0.27708419,0.02413261,0.13773015,-0.29333748,-0.03153384,0.24501330,-0.13823532,-0.01063260,-0.32046490,-0.06206077,-0.45773515,-0.15084116,-0.11537861,-0.09182845,-0.28234569,0.03753659,-0.32401994,-0.15217004,0.00606660,0.10901728,0.06831905,0.40132352,-0.43586119,0.13740702,-0.13485721,0.17337534,-0.30794536,-0.15666691,-0.43939576,0.47687987,-0.32912117,-0.01980890,-0.31226345,0.53443905,-0.34982467,0.20070958,0.34655023,0.21383200,0.31182359,-0.18092109,-0.38177858,-0.04624471,-0.19672274,-0.34761071,0.32501627,0.08616876,-0.08546688,-0.14994984,0.48753954,0.34281947,0.01432694,0.08073981,-0.25639757,0.33755926,-0.21982875,0.28424088,0.26101287,-0.06686976,0.02266713,0.43074829,-0.04073582,0.39544572,0.17715556,-0.07596849,-0.25883207,0.11909616,0.03383081,-0.39517287,-0.18252556,-0.06207293,-0.05417772,0.33279690,0.42546840,-0.43551052,0.03222335,-0.06924986,0.12796772,0.13927313,0.33548534,0.11901812,0.17709685,-0.20925319,-0.09840766,0.06620638,-0.25252556,0.16985744,-0.05111328,0.20604276,-0.40379270,-0.18045836,0.02126710,0.37246856,0.15700632,-0.05229196,0.48144649,0.16670222,0.07929199,0.19612362,-0.13247029,0.47924582,-0.01750995,-0.33631965,0.14102968,-0.48905166,-0.48420765,0.49321586,0.27878078,0.33369828,-0.00186715,-0.17846343,0.39995616,-0.39617821,0.25150285,-0.44699488,0.17614835,-0.51792668,0.43834942,0.23683044,0.39703900,0.15287174,-0.47086334,-0.36642042,0.16973596,-0.42577361,0.18710588,-0.20754521,0.11882461,-0.25513556,0.37303423,0.06586484,-0.00023238,0.24610049,0.21103411,0.37523706,0.04018641,0.41973274,-0.21167424,0.23256760,-0.46838987,-0.30214220,-0.03897608,-0.25318129,0.22129499,-0.06843694,0.47340555,-0.05756812,0.38911931,0.17325995,0.44872524,-0.32834458,0.27108509,-0.37651362,0.24082595,0.20654541,-0.18135725,-0.28652431,-0.41410221,-0.00572722,0.43400053,0.46952291,-0.00536286,0.25000386,0.24602828,0.45344825,0.33667192,0.29094015,0.27999356,-0.27358117,0.09601095,-0.47391503,-0.22436465,-0.42412535,0.07220355,-0.31752331,-0.21441758,-0.38762154,0.27444112,-0.42867082,0.10617599,-0.03565019,-0.16249624,-0.07230697,-0.38033073,0.09863289,0.07630265,0.15739950,-0.05948909,-0.48285161,0.03612437,0.26749837,0.30814127,-0.09721490,-0.43156206,-0.08168254,-0.27934861,-0.50942374,0.06734611,-0.26563608,-0.02361951,0.11535010,-0.06947347,0.54263017,0.18530247,0.01499990,-0.15859519,-0.07709318,-0.11904152,0.24409321,0.03709150,-0.24676897,-0.08590854,0.33652896,0.17871433,0.32424189,-0.42030126,0.06377859,-0.28140366,0.37293709,0.46102757,0.04241146,-0.44032254,0.02394468,0.03323470,0.01803110,-0.27125285,0.08111962,-0.07870482,0.34173909,0.46822588,0.26990136,0.30368727,0.02449356,0.50021867,0.42394435,0.35365499,0.29346135,-0.34170509,0.33417907,-0.13496037,0.16411707,-0.34353992,-0.04828892,-0.18926216,-0.21774830,-0.33272335,-0.33642786,0.13230189,-0.47883821,0.26718453,-0.07761335,-0.38999234,0.07226321,-0.14675723,0.38157073,0.51133439,0.50850327,0.12220323,0.10283262,-0.20043830,-0.20806045,-0.12926164,-0.37931110,-0.39747338,0.20015669,0.04126985,0.11197271,-0.01906797,-0.45430018,0.24599014,-0.01187535,0.35947247,0.39004755,-0.15384069,0.31572762,0.22040451,-0.48108584,-0.34523197,0.45607531,0.24253574,0.22237552,0.50913353,-0.26856800,0.47216408,-0.11592991,-0.17961261,0.31227303,-0.34677317,-0.09088823,0.00429649,-0.04959990,-0.11737304,0.06003107,0.39031824,-0.21060580,0.09708387,0.22681975,-0.49295604,0.27147697,-0.16745764,-0.39792581,0.03894039,-0.37149476,0.40083364,-0.43011500,-0.30410088,0.38839966,-0.19151762,-0.50462939,0.14322423,0.00188768,-0.25735475,-0.29010386,0.31959177,0.06449962,-0.42920649,0.11740092,0.04834325,0.28687656,0.00025104,-0.34207246,0.46372659,-0.14291798,0.35645160,-0.18890454,0.23343238,-0.12644346,0.48410414,0.25402585,0.46975097,-0.34416106,0.15534222,0.31032453,0.17674656,-0.14775727,-0.16289663,-0.00405529,0.04756695,-0.50024166,-0.34024309,0.26164612,-0.18312362,0.14334709,-0.15642492,-0.05373141,-0.22164272,-0.20774837,0.36301165,-0.00824537,0.15521051,-0.02660856,-0.38643854,-0.01338925,-0.42606042,-0.02188317,-0.31409999,-0.08989315,-0.10046524,-0.27964666,0.50304473,-0.37772078,-0.03603655,-0.39507397,0.02809384,0.36521254,-0.40427655,-0.17708183,-0.12427277,-0.30036754,-0.39271892,-0.20515086,-0.33915418,-0.14588028,-0.09581924,0.01320280,-0.08346761,-0.10237451,-0.19079581,0.37465197,0.06263950,0.27510614,-0.08771410,-0.04855559,0.13237873,-0.04509486,-0.02393280,0.06441479,-0.48459688,0.41116319,0.40849319,-0.36061868,-0.13893903,0.05425296,0.16667966,0.00996352,-0.41447540,0.41997918,0.02542569,0.45687323,0.30804973,0.30968087,0.44958316,-0.31733248,0.37243993,-0.03401870,-0.21089049,0.42710426,0.41496773,0.32479032,-0.09173495,0.08879242,-0.30444902,0.03987346,-0.24199704,0.41676317,-0.14806864,0.23512042,-0.33459415,-0.47575766,-0.34426366,0.02012417,-0.34218200,-0.02496488,0.17824083,-0.44882484,-0.23581241,0.05700888,-0.19416265,0.41370301,-0.27080874,-0.14006305,-0.08039332,0.03731350,-0.44170953,-0.06841010,0.13243176,-0.32519790,-0.49501615,0.02218442,0.26714472,0.07051926,0.15534997,0.45704502,-0.10856746,0.23519761,-0.30629003,-0.10341678,-0.17273822,-0.28247748,-0.29665249,-0.23783054,-0.26941048,0.47351288,0.23578788,-0.29892310,-0.05548618,0.31208117,-0.38305672,-0.21182524,0.04865696,0.23556270,-0.26822435,-0.01224574,0.37386565,-0.33476588,0.13261168,0.18631873,-0.39856153,-0.14853874,-0.35305710,-0.16417612,-0.02741880,-0.01012972,-0.49323631,-0.04925045,-0.00826455,-0.11452046,0.43105566,-0.19518770,0.13233860,0.20064352,-0.47581859,-0.10504813,-0.43387355,-0.09026947,0.21251390,0.17840935,0.47895538,-0.45536032,0.03374379,0.48240418,-0.24828638,-0.11959130,-0.04731834,0.01894564,0.35832181,0.13076379,-0.20470622,-0.02331031,-0.11387264,-0.16308316,0.32155875,-0.36377209,0.22614282,-0.06737732,0.30701990,0.06706558,0.04187702,-0.38770764,-0.13230373,-0.38172397,-0.18418528,-0.28506659,0.15021031,-0.01901541,0.38451489,-0.32260791,-0.36637513,-0.45147433,0.04508238,-0.42864907,0.09883609,-0.41890334,-0.05275910,-0.42338006,0.14268904,0.43224838,0.18584867,0.41805411,0.32345794,-0.36366808,0.26054489,-0.11238998,-0.17073403,0.46856597,-0.48250047,0.04929359,-0.39370577,-0.08076729,0.47800553,-0.21278677,-0.47595998,-0.45843657,-0.25907756,-0.18117998,-0.11820627,0.48164904,-0.45374023,0.13770427,0.13183594,-0.11711702,-0.30682211,-0.18998945,-0.07877953,-0.35035317,-0.12692828,-0.24700598,0.39482187,0.45054362,-0.02835644,0.02031411,-0.39987954,0.29623596,-0.11841252,-0.24055591,-0.45521776,0.01147515,-0.15245102,0.33782323,0.25732462,-0.33516412,-0.38349543,-0.07930436,0.22388761,-0.24571449,-0.24198570,-0.14164980,0.21388317,-0.42810565,0.37938886,0.30465938,-0.12818847,0.34092801,0.16615348,0.07390895,0.30762057,0.12132433,-0.15215681,0.04783826,0.01308535,0.03726032,-0.22423712,0.33391743,0.00965830,0.13179730,-0.15027169,-0.47627648,-0.47612594,-0.34485787,0.31799710,-0.48115798,-0.22595636,0.42564113,0.00645165,0.16502200,0.37709954,-0.12328541,-0.22388539,0.18237589,0.26903207,0.46965584,-0.13502282,-0.36431682,0.34098062,-0.07878104,0.15464831,-0.34383549,0.24725900,0.03850944,-0.07020152,0.01419902,0.03570135,-0.24818931,0.16775312,-0.44600298,-0.01460429,-0.25561734,-0.17173092,0.19406875,-0.09588556,0.15749467,0.16548809,0.04817804,-0.40874022,0.34047901,-0.46124435,-0.21349455,0.22992407,0.01350668,0.06580268,0.19147470,-0.26765003,-0.33861921,0.13409874,-0.24230974,0.13730120,-0.12482701,-0.21876606,-0.00761594,0.20016194,0.14245746,-0.00558162,0.44280111,0.30964638,-0.16463032,0.35149858,-0.40688048,-0.46073789,-0.27988175,-0.05486707,-0.29348278,0.08470089,0.31655498,0.09700146,0.04643462,0.41480198,0.32399615,0.01921432,0.14988600,-0.19632343,-0.29830723,0.45144377,-0.29405190,-0.50415855,-0.45198523,0.16933764,0.11710223,0.03522909,-0.37111916,-0.28753955,0.03758195,0.06529738,-0.47107570,-0.28694795,-0.45417189,0.16422529,0.34972645,0.08848022,0.41195907,-0.01602808,0.45512451,0.36405357,0.08169102,0.34525643,0.09813382,0.47809495,0.18314543,0.18347504,0.00525566,-0.48951382,0.09600607,-0.47764548,0.28685303,-0.34838580,0.53916903,-0.37790145,0.17929388,-0.13564943,-0.45527813,-0.15687013,-0.34582647,0.12366070,0.13569032,-0.05132759,0.42501177,-0.17704783,-0.27290303,0.36340614,0.16049216,-0.42499669,0.21404829,0.16126119,-0.34827806,0.26393617,-0.51720837,0.44048855,-0.47196896,-0.61241542,-0.40221405,-0.06136994,-0.46762098,-0.12495572,-0.29091877,0.01146768,0.40080244,-0.21294839,0.18916406,-0.07174637,-0.34686292,0.13417242,0.20422483,-0.21192085,0.00520786,-0.50924682,-0.28489171,0.44477109,0.16770326,0.23954456,0.08728413,0.40391720,-0.16872908,0.18051408,0.30819207,0.39884307,-0.08410478,-0.11267339,0.12686601,0.36424753,-0.03753616,0.55365117,0.17816641,-0.40087157,0.09033704,-0.47436430,0.08637157,-0.10158082,-0.02126162,0.00262748,-0.18612908,0.31187249,-0.55380262,-0.00024155,-0.29990446,0.01383686,0.44194407,0.07983069,0.42323272,-0.16020143,0.10857880,0.26094345,-0.21714073,0.29813796,-0.26960076,-0.15717600,0.11023891,0.42742107,-0.04880555,0.51670355,0.16324687,-0.52516109,0.17236164,-0.35743120,0.28495602,0.02395642,0.10736274,-0.16703412,0.33464709,-0.37058034,0.01320658,-0.14404582,0.19890411,0.25391985,-0.35884165,0.37563688,-0.37552542,-0.26459059,0.02847757,-0.29863423,0.10471423,0.31024344,0.08944638,-0.22670835,-0.01994131,0.26036758,-0.42279833,0.30768626,0.52712827,-0.21071719,-0.40707552,-0.18883631,0.02921780,0.39373174,-0.14410525,-0.18941414,0.41424816,0.12656024,0.11665399,-0.43616281,-0.00463855,0.33456005,-0.21383873,0.32998475,0.35116689,-0.41364369,-0.16002766,-0.19282296,0.10407292,-0.52488025,-0.08649027,0.35784453,-0.07131576,0.18081448,0.40507680,0.50942687,0.22016958,0.16634758,0.18424683,0.27083210,0.18172613,0.28691751,-0.09058087,0.46303076,-0.09120275,0.13333851,0.20103579,0.18723725,-0.05747231,-0.13051646,0.46781358,-0.04688601,0.31503587,0.06167474,0.38665967,0.46285237,-0.24010445,-0.00871978,-0.46164587,-0.05790332,-0.27169044,0.41214092,0.19435409,0.30037698,0.09801472,0.20380350,-0.04917272,-0.07091604,-0.41639610,0.28506974,-0.46001124,0.14983029,-0.44429503,0.37762546,-0.12119190,-0.22455897,0.46521721,0.34579349,-0.45744827,0.14150089,0.16940872,-0.07068406,-0.40329864,-0.35771340,-0.19621580,-0.49510582,-0.05477697,-0.18929780,0.23873535,0.12021682,0.11795569,0.28335494,0.29998577,0.39020496,0.42326396,-0.23232396,-0.06234119,0.33589105,-0.30636999,0.38719957,-0.47062620,-0.34153119,-0.18502528,-0.04053093,0.10682754,-0.30165852,-0.07176050,0.03048540,0.08446539,0.39912642,0.42008056,0.31367998,0.29523485,0.15825021,-0.32245285,-0.21631959,-0.30633896,0.03334130,-0.39921874,-0.46602649,0.02124690,-0.30781999,0.04642472,0.34138516,-0.40775665,-0.06184589,-0.17658574,0.29592159,-0.17471878,0.35065822,0.27717506,0.49251780,-0.24071334,-0.02592963,-0.20176056,0.15020097,-0.13139036,-0.36614047,0.30053595,-0.55168509,0.39927306,-0.51559825,-0.54521128,-0.03282954,0.13170981,0.00232779,-0.28492099,0.36900043,0.31794952,-0.29060142,0.30554430,0.29562369,0.01778069,0.16858582,0.10043409,0.38519995,0.20529860,0.14234997,-0.16461064,0.21131229,-0.27981864,-0.45519362,0.26718940,-0.08362236,0.15202736,0.46038131,-0.14332818,-0.06167437,0.09569100,-0.04985828,0.12328290,0.21383353,0.36530828,-0.37664075,0.37957822,0.23348109,-0.43239831,-0.31503857,0.03844121,0.31536678,-0.00702779,0.03201902,0.37383908,-0.43977270,-0.43090183,0.12780007,0.16714791,0.19621157,0.48780203,-0.23432858,-0.08424593,-0.39481622,0.21821182,0.45600513,-0.39121335,0.07871033,0.05639606,0.41784505,0.17491773,-0.14792203,-0.18778046,-0.25246515,0.34749730,0.39000142,-0.02297924,-0.25673936,-0.42076929,0.39298130,0.19517158,0.36625112,-0.33650794,-0.02161914,-0.22044561,-0.14421795,-0.28715090,-0.01596710,0.49140488,0.16004243,0.18624514,0.37569681,0.30183487,0.28110543,-0.22003289,0.43954229,0.40664245,-0.00440170,0.36529602,-0.01574997,-0.05396567,0.42717330,-0.17071911,0.50626963,0.07507947,-0.17393756,0.06761842,0.21886259,0.13141204,-0.46177003,0.32696798,0.01134058,0.39282600,0.36462402,-0.50631011,0.23978637,0.21732579,0.03201113,-0.14580712,0.41684979,0.24038888,0.09161705,-0.50175211,-0.31877672,-0.13223020,0.22250390,-0.09914477,0.18009260,0.25053019,0.40142227,0.36209207,0.17368604,0.24828158,0.40064800,0.39534367,-0.08503610,0.14703804,0.11389394,0.27271742,0.04869179,0.14793997,-0.53712572,0.33729329,-0.25530544,-0.01559806,0.14328775,0.21297578,0.15826402,0.29491969,0.39496663,0.23572471,-0.29867365,-0.15378562,0.17812199,0.33146666,0.11933248,0.17035082,0.30134936,0.44530445,0.51870020,0.32713641,0.10286378,0.20613978,-0.46471293,-0.47757770,0.03516195,0.04676230,0.07668924,-0.45525676,0.33883872,0.44410179,0.01991180,-0.43644411,0.25602507,-0.04720176,-0.09220199,-0.34575707,-0.35300126,0.34896944,-0.40041893,-0.46911575,0.42230294,0.40121316,-0.52685076,0.06421381,-0.07627852,-0.33832100,0.35253613,-0.25777052,-0.41266366,0.24117428,0.19574195,0.28486568,0.01113857,0.16952669,-0.02038028,-0.13580831,-0.17672616,0.22494386,0.06961966,0.42308776,-0.22412535,-0.47289806,0.29621537,-0.42446697,0.31060801,-0.12761136,-0.01708219,0.22474231,0.19406125,0.27818244,0.43362790,-0.14631219,0.33975463,0.33033377,0.06216738,-0.21295886,0.21073370,-0.45335235,-0.26697403,0.18352799,-0.40691611,0.31177258,-0.50787848,0.26325184,0.08458460,-0.06452126,-0.30483083,0.27898794,0.43307935,0.42864690,0.02942995,0.43857995,-0.46210372,-0.38305274,0.26154823,-0.31677039,-0.03571194,0.15959888,0.16776526,0.23978006,0.38568491,-0.17479232,-0.18907872,-0.28849460,-0.04969435,0.40996027,-0.44272937,-0.22657657,0.01484261,-0.28157554,0.09223703,-0.09990629,0.11427830,-0.35770343,0.28394506,-0.03891666,-0.31191781,-0.40722904,0.06181580,0.48327955,0.20229169,-0.18256837,-0.41578560,0.35818738,-0.00461088,-0.46924765,-0.00660978,-0.03200597,0.06946554,-0.25954969,0.23950185,-0.32509999,-0.12924051,-0.07368955,-0.37212846,0.06306803,0.15032178,-0.44547536,-0.28018367,0.16077592,0.04735927,0.38376527,-0.38510524,-0.45576866,-0.34517327,0.35420855,-0.45408280,0.23935026,-0.03946485,-0.30708541,-0.12495605,0.20473724,-0.30535389,0.29975045,-0.08671585,-0.26959563,-0.02593440,-0.02528039,0.17635422,0.27092765,-0.32963055,-0.27472410,-0.04742268,0.07957471,0.16103456,0.21389639,-0.31357532,-0.48684566,0.42758516,0.06733818,-0.29439288,0.38612924,0.47132859,-0.29377024,-0.06255921,0.37693264,0.12487872,0.32604788,-0.08900783,0.49948158,-0.09635227,-0.05046636,-0.04343151,-0.40810713,0.41676948,0.40358923,0.34642098,-0.41023631,0.44310404,0.36546468,0.01321475,0.48609260,0.35363243,-0.46407486,-0.20093578,-0.15378972,0.10523417,-0.09537207,-0.43178388,-0.09364357,0.42236855,0.43575607,0.46009255,-0.34904472,-0.08811127,0.47873885,-0.13401695,0.49263606,0.33625653,-0.18335352,-0.13931155,-0.32720644,0.21332156,0.37244517,0.18520466,-0.46653181,-0.29234165,-0.07401356,0.47996976,0.49166499,-0.21555791,0.09267707,-0.01801571,-0.24808751,0.32869652,-0.39517243,-0.34418865,0.29322547,-0.30991575,0.08091340,0.46687540,0.13514380,0.27707726,-0.28911190,0.19124342,-0.20617853,0.26001895,0.07175857,-0.03103965,-0.19052052,-0.06825019,-0.37244991,-0.06458468,-0.31659474,0.03729495,-0.46907264,0.00625445,-0.45215595,-0.49214634,-0.18645180,-0.00513938,0.07175472,-0.06966653,-0.09251092,0.22497179,-0.11451934,-0.32169132,0.36060641,-0.27099344,-0.32213654,0.45295722,-0.18182985,0.04316783,0.39292817,-0.18784105,-0.04950507,-0.48845049,0.02732516,-0.12956753,0.27184724,-0.47629429,-0.00723501,-0.40476175,-0.40372163,0.50090081,0.05375374,0.48844447,-0.27320802,-0.21112434,-0.21122291,0.05712134,0.30132647,0.13161656,0.48036821,0.42446442,-0.39602444,-0.37546150,0.25725539,0.17384243,0.10056063,0.23950798,0.33342457,0.45435238,-0.21995480,-0.45042884,0.14266940,-0.10806195,-0.24192722,0.28508395,0.42544374,0.36643315,0.35618873,0.12583669,-0.34538302,0.29362872,-0.08074674,0.23669763,0.28947824,-0.24270958,0.17437906,-0.38322227,-0.49916020,-0.26832264,0.00597756,0.22573557,-0.36167531,0.47587543,-0.02059798,0.47025108,0.20517569,-0.31566878,0.32872128,-0.36532352,-0.11383684,0.16242782,0.28802824,0.00566156,-0.19144219,-0.33463132,0.27758943,0.27997648,-0.42283983,-0.40336085,0.42267787,-0.16720027,-0.05849679,-0.11601092,-0.33136527,0.22518755,0.43216660,0.13341706,0.17515590,0.09722910,-0.37360280,-0.40798529,-0.16235368,0.01535805,-0.04599924,0.31594680,-0.00022520,-0.48751081,0.51788531,0.38407649,-0.17340113,0.38243014,0.38787855,0.15447746,-0.27784072,-0.00734895,0.05821289,-0.20534026,-0.32310780,0.32942127,0.20166404,-0.34534069,0.39721842,0.29811510,0.02307844,-0.24082066,0.41312150,-0.46502905,-0.16840433,-0.33654590,-0.22402125,-0.43323826,0.21395724,0.00547414,0.02655147,0.45623832,0.36231751,-0.41550784,0.47813546,0.39811498,0.00065709,-0.27776238,0.41102642,0.03622940,-0.00482280,0.33774034,0.15759719,0.14166602,-0.34025734,0.26254844,-0.06873729,0.33591696,0.33880526,-0.05973642,0.37743655,-0.24138928,-0.30981752,-0.13491231,0.29481865,0.31226287,0.34504820,-0.47024947,-0.46701067,-0.07854924,-0.22985851,0.23595435,-0.35542374,-0.33207903,-0.18629346,0.13053186,0.21124829,-0.26797369,-0.51650939,0.09208279,-0.00113704,-0.38887477,-0.05923596,-0.40169038,0.15823725,0.12429665,0.25974691,-0.16560805,0.13397670,-0.09218977,-0.30046162,-0.37065322,-0.17203937,-0.44105968,0.23110049,-0.44974081,0.33012877,-0.23468764,-0.32816690,0.41841585,-0.46781062,-0.03493957,-0.49440677,0.07446870,-0.25855139,-0.27693421,0.28065434,-0.07300355,-0.37819767,-0.40621005,-0.45078828,-0.14588068,0.06681192,-0.18170810,0.12709574,-0.20090083,-0.45794468,0.49110105,0.10727695,-0.24032289,-0.18744340,0.21195046,0.00035151,-0.32727512,-0.39487437,0.20887558,0.04268543,0.18431918,0.09339850,-0.18029872,0.11348158,-0.61235665,-0.09655755,-0.01020076,0.29743754,-0.49948796,0.32155259,0.04449657,-0.03977825,-0.25722336,0.44969233,0.16657105,-0.24130572,-0.29490451,0.33091096,-0.29964967,-0.12973193,0.09738085,-0.39692989,-0.32783767,-0.03113872,0.37917664,-0.37803895,-0.09824777,-0.18491054,-0.35155623,-0.25443863,0.36053237,-0.08371691,-0.48538757,0.33225564,-0.34449888,-0.01465279,0.16602039,0.00988273,-0.47252552,-0.22764018,0.25578876,-0.16529480,-0.37015574,0.46001748,0.24794236,-0.26920935,0.16377981,-0.01883722,-0.40442836,0.34878564,0.01224298,0.26648879,0.41292256,0.50785543,0.05584295,0.38346073,-0.43906660,-0.23691011,-0.20245612,0.01317977,-0.42762665,0.15320041,0.17303077,0.47219446,-0.46661212,0.29312289,0.07501196,-0.43491383,0.48172055,-0.11549724,-0.01414338,0.11550025,0.18396465,0.13209946,0.04854164,0.22693629,-0.19838039,0.25174638,0.28217382,-0.09146234,-0.14776479,-0.28738166,-0.35072390,0.50953150,0.23942545,0.43424183,-0.01232461,-0.00961938,-0.03505745,-0.12972231,0.02635028,-0.43659102,-0.14589329,-0.16466882,0.43108624,0.39787675,-0.17669021,-0.40200359,-0.39690435,-0.10546444,0.10392628,0.47963566,0.22888966,-0.01235298,-0.22832190,0.01163063,-0.45662559,-0.25779887,0.05137908,0.27194582,-0.07088854,0.40725546,0.34307671,0.22477668,-0.35609164,-0.53202858,0.33510736,0.30147431,0.10858327,0.26400359,0.20250799,0.16870903,-0.06409736,0.22870044,0.01527159,-0.20842481,0.37401495,-0.05713403,-0.30183273,-0.44726504,-0.12183723,-0.24589062,0.50385370,-0.09447771,0.09549582,0.53515536,-0.00602537,-0.01524014,0.50809713,-0.13170923,-0.24071178,-0.01340641,0.30382374,-0.06177107,-0.47008875,-0.05622693,0.17658770,0.20479220,-0.01565888,-0.23119718,-0.08628091,0.55218819,-0.12723793,-0.34191307,-0.14511063,-0.13053480,0.47238112,0.10140739,-0.38627353,0.47986917,-0.09947095,0.06229684,0.26610765,-0.27163820,0.53512505,-0.30610367,0.34252878,0.60624698,0.02283121,-0.39661482,0.27723368,-0.10788477,-0.33651270,-0.12352546,0.46405828,0.19033313,0.42497729,0.16835212,-0.08816598,0.42826139,0.62663993,0.38496983,0.15470518,0.22122490,-0.05411651,-0.21571720,-0.10744155,0.39902731,0.22505387,0.39204190,-0.33624192,0.29945012,0.56455391,-0.30933568,0.51326733,0.14854379,0.22041976,-0.43583839,-0.05006071,-0.50132220,0.29865915,-0.17637025,-0.37441078,0.39967946,0.00714095,0.12408311,0.09731042,0.46001179,0.63065204,-0.40298282,-0.45099653,-0.19007814,-0.09298580,-0.06330501,0.33118913,-0.15759901,0.03001000,0.05552299,-0.12244872,0.44041308,0.53735563,0.42927684,0.41413486,0.12333799,-0.18522886,0.27094905,-0.44652259,-0.27865409,-0.47374749,0.08369345,-0.22335620,0.35868474,0.35478568,0.07067738,0.53511116,0.37604795,-0.02941689,-0.04080372,0.39979891,-0.03433415,-0.11328888,-0.34468059,-0.21385607,0.21292540,0.41703191,-0.42773536,-0.05073292,0.20130286,0.03484377,0.00546253,0.28810132,-0.23797464,-0.50969003,-0.49589668,-0.28679099,-0.03463595,-0.19116735,-0.39919375,-0.40104820,0.34378526,-0.19285611,-0.21395162,0.21985789,0.19851842,-0.30534702,-0.11307852,-0.13140655,0.35134373,-0.32336441,-0.04176065,0.36472772,0.17756370,-0.16496019,0.15779356,0.12334908,0.06393430,0.45684983,-0.48562230,-0.33572550,0.13413670,0.37867706,-0.09549424,0.35186478,-0.49051016,-0.33871732,-0.11731105,-0.29334369,-0.30459964,0.32364508,-0.19186532,0.04125283,-0.09417780,-0.29186797,0.15450860,-0.52433323,-0.29107452,-0.27406816,0.45641504,-0.49771838,-0.13316150,-0.33439864,-0.34877344,-0.16744846,0.20191359,0.20571629,-0.16111087,-0.49350761,-0.36442508,-0.11163550,0.01453784,0.11521290,-0.47576624,0.06501678,-0.13838943,-0.35731520,0.33539302,0.24630049,-0.15374727,-0.10856570,-0.02772633,0.03144185,0.10101494,-0.51296330,0.48826554,0.16951057,0.46067126,-0.30196504,0.12455482,0.45103070,-0.29446062,0.15275813,-0.01099483,0.24474240,-0.31476013,0.42072651,0.28070736,-0.06593509,0.06161366,0.35263500,-0.15063037,0.36920237,-0.15678958,0.16828566,0.39726641,0.30614660,-0.15968505,-0.37228380,-0.34493237,-0.49208876,0.10310767,0.09594868,-0.07666337,-0.38698624,-0.14921185,0.14582020,0.48006347,-0.50943052,-0.34957764,0.39330847,-0.24220388,0.28690627,0.11140476,0.00212862,0.44984433,-0.12165626,0.50557652,-0.17415188,-0.43961782,0.45301668,0.29834670,-0.41805732,-0.06607601,0.05163468,-0.12687939,0.45983513,0.38706455,-0.44537093,0.42057768,0.09082016,-0.26210175,0.02117010,-0.33903986,0.31728619,-0.11675095,0.43179250,0.36548085,0.06265884,0.09535262,-0.04406699,0.30878935,-0.32845354,-0.42507793,-0.00639113,-0.10532615,-0.12984639,-0.35075295,-0.36499960,0.34716475,-0.36663457,-0.19168196,0.27837374,0.06589633,0.02271478,-0.40643185,0.17341380,-0.38358056,-0.32262536,0.43896462,0.15199784,-0.14532205,-0.05393632,-0.44727892,0.38264128,0.18829365,0.03312432,-0.22749748,0.31166168,-0.17142777,0.31270430,-0.04327240,0.29652962,-0.52777038,-0.20618930,0.19361381,0.36373646,-0.24238718,0.25287233,-0.20271419,0.35346508,-0.30995633,-0.22446085,0.20228963,0.36643864,0.39709744,-0.49617566,0.39105875,-0.31771139,0.35088295,-0.03784463,0.26277628,-0.30128530,0.31300893,-0.19585069,0.40531719,0.14675956,0.00248891,-0.42282910,0.21568121,0.39151516,0.04078815,-0.33312536,-0.07647412,0.18714415,0.26708269,0.20576569,0.35178745,-0.46501020,0.35827878,-0.43599684,-0.38808012,-0.05116951,-0.04254685,0.09419091,0.16085202,-0.31909863,0.34607385,-0.13306246,-0.00229261,-0.10928205,0.10598779,-0.43582795,-0.33946143,-0.41231363,-0.07219243,-0.12284107,-0.29064072,-0.13692828,-0.41917846,0.34731579,-0.35145273,-0.48152819,-0.02870573,0.01453774,0.43986133,-0.24832227,0.36519190,0.28962354,-0.13189005,-0.05686658,0.31463904,0.13524962,0.20667623,-0.28397835,0.12891025,-0.42509587,-0.20975462,0.06175908,-0.01499686,0.45441534,-0.22526523,0.40265618,-0.31236419,0.05862363,-0.36642277,-0.24345946,-0.29487461,0.24947796,0.23868354,0.33559270,-0.44017187,-0.13681516,-0.21137137,0.19174121,-0.40751926,0.22003531,0.30532770,0.45418375,-0.39879587,-0.14318469,0.03960429,0.01491366,-0.26105319,0.35079107,-0.37356037,0.03590546,0.43842017,0.13624946,-0.08289370,-0.40816513,0.08490141,-0.00538182,0.44705829,0.18313272,0.01822033,-0.13780770,0.42899485,0.44836095,-0.22269747,0.16183033,-0.18606232,0.02163891,-0.38425145,-0.37796267,-0.22361499,-0.45883505,-0.06508968,-0.31433052,0.49060781,-0.07696035,-0.19642852,-0.17585690,-0.29324282,0.38165042,-0.35586253,-0.26308681,-0.45562212,-0.31976386,0.37913722,-0.20977822,-0.39284523,-0.26447051,0.05404673,-0.27596453,-0.34393000,-0.49139689,-0.01798716,0.18550444,0.20484877,-0.01072350,-0.47647564,0.29439338,0.44824990,-0.16262533,0.16494345,0.24493282,-0.34487299,-0.15246543,-0.16180255,-0.09707055,-0.41554673,0.33548323,-0.44541022,-0.23341670,-0.04618095,0.11574118,-0.43888403,0.32955100,0.35260357,-0.10709545,-0.09498219,-0.04191429,-0.33405119,-0.36140495,0.18428960,0.15027264,-0.35501517,0.02584297,-0.05715426,0.29836567,-0.34000280,-0.10644974,0.04860437,0.36204156,0.42239098,-0.14973777,-0.15431055,-0.05927759,-0.31839305,0.13446038,0.11636911,0.15401149,-0.17048852,0.37947937,-0.48361863,0.02587950,0.06998587,0.23139899,-0.12774860,0.43879201,0.14600455,-0.44296113,0.38607371,0.29335802,0.05543348,0.08586558,0.35096624,0.17616280,0.22707853,-0.25197279,-0.39232890,-0.36788502,-0.49433730,-0.04931599,0.00319496,-0.27664180,-0.25429270,-0.14880787,0.15475132,0.17400160,0.19283295,0.25466813,-0.45946152,-0.32632014,0.14090827,-0.36535728,0.33951771,-0.08708231,-0.22179507,-0.05612091,-0.05349745,0.29728909,-0.03086030,0.27125309,0.24517268,0.21218603,-0.25506826,-0.11971774,0.20143020,-0.32691655,-0.03348765,0.42934414,-0.34127576,0.17753023,0.15741809,0.19834002,0.24087260,-0.11783313,-0.29735335,-0.50533448,0.36667005,0.18275205,-0.04266350,-0.34471067,0.05550741,-0.52377449,-0.21715094,-0.36484411,-0.05176693,0.42257921,-0.42790998,0.25831235,0.05406690,-0.07238079,0.39096947,0.16656093,-0.12571036,0.17601967,0.29567929,0.07561992,0.01897366,-0.17941237,0.20860179,-0.28680936,-0.33761836,0.26644399,-0.16636864,0.10281463,0.40251756,0.28311802,-0.27058100,-0.30491580,0.19473030,-0.32388040,-0.34053318,0.38152105,-0.04752264,-0.43592860,0.49755411,-0.25019486,0.29041113,-0.30593956,0.37908886,-0.06926699,-0.18281600,-0.02614365,-0.02043816,0.30497650,-0.48156021,-0.26880606,-0.02755193,0.23103435,-0.10635646,-0.01434952,-0.36771352,-0.09291752,-0.40417999,0.19751719,-0.13380812,-0.23440247,-0.19915597,-0.26975549,0.10175274,0.39226008,0.30332682,0.02118592,0.05572939,-0.30157318,0.20782422,0.24488304,-0.37412800,0.30234294,-0.21561523,0.18757746,-0.00124135,-0.24559741,-0.08531774,-0.16617947,-0.42493543,-0.41775741,-0.02196531,-0.36237682,0.03613664,-0.11938141,-0.31156179,-0.08879807,0.13449923,0.27533501,-0.35488330,0.52592275,-0.09437652,0.43159201,0.30226357,0.45800722,-0.37906085,0.51451736,0.19526380,-0.17310062,0.27136726,0.24453253,-0.47242331,0.28067781,-0.40656587,-0.37521577,-0.38246094,-0.25186471,0.11522286,-0.33174937,-0.25131082,-0.04146591,-0.39854105,0.09041767,-0.12313803,-0.08174916,-0.31226627,-0.45848185,-0.30068869,0.07095467,-0.46187838,-0.26434158,0.05857008,-0.48571879,-0.41225384,-0.41455880,-0.24327368,-0.06498440,0.13777522,-0.06179217,-0.21998696,-0.26367866,0.12707895,-0.10139260,0.27736409,-0.24939200,0.19427674,0.25791630,-0.47113347,-0.41695279,-0.57829025,-0.01377263,-0.00698449,-0.25558240,0.16961906,0.22674094,0.09795290,-0.02195918,0.23349410,-0.32098412,-0.23641765,-0.12568392,-0.36604691,-0.50356003,-0.01624197,0.01352115,-0.20591024,0.43896670,-0.44773391,-0.47509212,-0.19822402,-0.33635573,0.31464516,-0.15620915,-0.08913842,-0.33106593,0.26052916,-0.30577358,-0.53594606,0.40963921,0.37232370,-0.37117280,0.27904487,0.01369532,-0.26125032,0.39681000,0.40458210,-0.11265982,0.31044183,-0.55877568,-0.43159839,-0.32684576,0.13733656,-0.22624615,-0.40499195,-0.39560379,0.48277823,-0.30198626,-0.33484245,-0.28903771,0.42718080,0.12107324,0.10283580,0.45903728,0.11739299,0.24264426,0.13251749,-0.17708657,-0.50724583,0.26421277,-0.32943714,-0.09694748,-0.30413024,0.39797285,-0.31341881,0.08643217,-0.48485709,0.02590692,-0.05491340,0.26922977,-0.00719463,-0.18334022,0.14857397,-0.16644464,0.42788590,0.27622136,0.21302982,0.28855305,0.20288600,-0.42685415,0.27493254,0.46641791,-0.12139472,-0.50629379,-0.51193451,0.02470166,0.15748343,-0.16209208,0.43705935,0.07591214,0.21161396,-0.05221900,0.24236890,0.56309648,-0.05724146,0.40219301,0.17186449,0.42834558,-0.11023565,0.18051041,-0.09428545,-0.08667223,-0.50878105,0.00872572,-0.10843686,-0.32789842,0.40359666,0.14457571,0.39970921,0.44643892,-0.48794530,-0.08065025,-0.45685106,-0.11046099,0.34964105,0.03862617,0.49947225,0.57647309,0.50862099,0.05801015,0.27016575,0.24960203,0.15870372,-0.40030256,0.18779564,-0.25138627,-0.24649653,-0.19727717,0.39737131,-0.21158458,0.09493707,0.29020245,-0.46366581,-0.00518575,0.29286609,-0.09095626,0.39919047,0.20434232,-0.00888737,-0.08049086,-0.11058628,-0.45701815,-0.00808641,0.34591191,0.37177428,0.08803788,0.32964774,-0.22438831,0.17617771,0.09160420,0.47713162,-0.01192272,0.19581117,-0.03888916,-0.03613983,-0.41480530,0.35834544,-0.26050726,-0.18374432,0.21328996,0.30303716,0.03295236,0.34549522,0.12542288,0.06183352,0.34735304,-0.04807826,-0.03341150,0.09076294,-0.32365417,0.22081088,0.04632630,0.38773580,0.21132978,0.28838433,-0.22468163,-0.20560072,0.10576304,-0.10327407,0.14496692,-0.11791632,-0.26841275,0.35476340,-0.32631534,0.23081380,-0.24841638,0.01532463,-0.27977356,-0.36941476,0.23072551,-0.21869287,0.37620137,0.43209445,-0.06843776,0.26505512,-0.14653040,-0.57740608,0.25506895,-0.19062535,-0.04402523,-0.43355925,-0.15954537,-0.10326917,0.05564908,-0.27435886,0.01331754,-0.23058298,0.28620630,-0.50364823,0.42403919,-0.52799016,0.29971086,-0.33825373,-0.29370260,-0.41594490,-0.14089746,-0.07084694,0.01309906,0.47566317,-0.11982448,-0.46150897,-0.09318503,-0.50461931,-0.12053522,-0.32732358,-0.57535202,-0.49413320,-0.11463113,-0.29815761,0.26355447,-0.11606718,-0.36441150,0.28129074,-0.18270324,-0.31760114,-0.12438901,-0.23178380,0.19239276,-0.14085677,-0.02097269,-0.22138676,-0.13547521,-0.28054034,0.43732546,-0.43054448,0.07493415,0.36218875,-0.39480106,0.32106896,0.02748251,-0.20591589,0.29545461,-0.14067023,-0.12915508,-0.39339633,0.26035687,0.09854872,0.18679388,-0.02611864,-0.25822185,0.05649393,-0.17485514,-0.32537794,0.37859879,-0.09705207,0.15953645,-0.17504794,-0.36591206,-0.59384664,-0.06968721,0.10295704,-0.28992467,-0.22937464,-0.20127479,0.03791347,0.02751882,-0.08224642,-0.35971337,-0.14799580,-0.34798970,-0.26440926,0.09933789,-0.48958260,0.08417175,-0.41997588,-0.07115249,-0.32308301,0.03805096,0.42305996,0.46253381,-0.26339424,0.06066018,-0.56128943,-0.31680295,-0.43784223,-0.51156086,0.02665854,0.35311063,-0.42596186,0.41101067,-0.30422286,0.03820980,-0.29514151,0.06424218,-0.35920817,-0.28275043,-0.28263231,0.20696386,-0.27164175,-0.09498630,-0.33019538,0.31442761,-0.01794102,-0.29085308,-0.17114281,0.45156353,-0.24206023,0.06133678,-0.04320579,-0.07204157,-0.06762021,-0.35945674,-0.28383269,0.12882650,-0.06563736,-0.30871011,0.17527525,-0.01898739,-0.22355326,0.17052685,0.20562622,-0.44053451,0.13223725,0.24811994,0.08200471,0.21141147,-0.38473818,-0.48601553,-0.19817787,0.19955571,-0.21498707,0.21751846,-0.39058522,0.16788709,0.31883747,-0.35096515,-0.13262861,-0.23628683,-0.19212142,-0.53564578,0.05910675,0.16930937,-0.42323154,0.38692107,-0.28753222,-0.19645770,0.02878222,-0.13865823,-0.45390998,-0.37161192,0.46246840,-0.25920231,-0.26150840,0.02281743,-0.22664196,0.12739432,-0.34588536,0.14192534,0.30880978,0.20693318,0.30396345,0.45134174,-0.41358590,-0.16523269,-0.50334813,0.37814597,0.20021059,-0.40962612,-0.00114169,-0.37990729,-0.44263952,-0.25633848,0.15718944,0.04792984,0.44007318,-0.24685972,-0.24995265,-0.35801429,0.29337086,-0.19808365,0.10799517,-0.05942705,0.02462319,0.17923754,0.36033449,-0.04078212,-0.05164408,0.39354239,0.00945612,-0.34579005,-0.35749262,-0.22115312,-0.43828446,0.04073398,-0.00345604,0.20839467,-0.26095215,-0.44374464,-0.03979421,-0.04085482,-0.01386032,0.45629885,-0.10554659,0.31071596,0.20456508,0.32818148,0.08533100,0.17863882,-0.17988702,-0.11723236,-0.31688332,-0.06141261,-0.19758825,-0.04284610,-0.22736226,-0.36351062,-0.24651904,0.21826764,-0.46216390,0.33879480,0.26878014,-0.35033426,-0.08154799,0.04595703,-0.46563839,0.49697003,-0.42449779,-0.38176840,-0.37456366,0.31427421,-0.03539902,-0.30704672,-0.22801063,-0.41294037,0.39994624,-0.11966750,0.35867950,-0.11861460,0.35189836,-0.05050300,-0.42911067,0.00000728,-0.45343473,0.22997960,0.29173443,-0.53445068,-0.48659598,-0.13450601,-0.01077113,0.25223363,0.07250541,-0.19064642,-0.32078588,0.06379578,0.29852342,0.03575805,-0.23292825,0.08251866,0.10051261,0.11024313,0.46812627,-0.09262909,0.29055500,0.00773591,-0.33615262,0.44941549,0.42797753,0.24849450,-0.11943904,0.19335725,0.31732837,0.13074681,0.33144237,-0.31884505,-0.19753904,0.51058589,0.40957798,-0.00946089,-0.39472612,0.19679023,0.29011764,0.47974574,-0.30608914,0.38419027,-0.20587959,-0.09006573,-0.02174831,0.11540807,0.43927421,0.27209563,-0.11561654,0.17115164,0.39064600,-0.12880750,-0.47220918,0.49300252,-0.08625763,0.33881265,-0.24156224,-0.48737016,-0.29608129,-0.20918692,0.16672526,0.10370170,-0.17989306,-0.10152174,0.44043005,0.11367792,0.23373752,-0.45909686,-0.33985154,0.34669728,0.15780727,-0.39608446,-0.49492899,-0.34339651,-0.48754886,0.38878292,-0.33512335,0.43235981,-0.29820716,-0.42429460,-0.14874148,0.15074970,0.41230084,-0.03246954,-0.39305843,0.04914023,-0.23460503,-0.12026714,0.46252050,0.21567090,0.18667772,0.32955268,0.42956731,-0.37849964,0.15036935,0.17011999,-0.12613369,-0.43702836,-0.33773656,-0.23728571,0.47852411,-0.09175453,0.42146051,-0.14037341,0.38855451,0.07348410,-0.10605971,-0.35512287,0.12343603,0.22812519,0.33494395,-0.09553905,0.03810602,-0.46079153,-0.47353893,-0.26456778,0.18345503,-0.38519960,-0.15182802,0.00012296,-0.19161447,0.12272365,-0.09574369,-0.04922632,-0.33928358,-0.31105134,-0.45979385,-0.38068775,0.49852156,0.39334103,0.41099135,-0.25404352,0.41462820,-0.19969323,-0.36384492,-0.40700339,-0.24328199,0.13603983,-0.42446915,0.21803813,0.02805912,-0.28822427,0.08056237,0.25912167,-0.17487965,-0.48577324,-0.15277160,0.00708671,0.25075831,0.40850076,0.17856057,0.14866936,0.39577288,-0.47339143,0.08678942,-0.17444349,-0.24753877,-0.06516630,-0.24509723,-0.18593739,0.06790434,-0.20698070,-0.40880274,0.34730723,0.41150229,-0.03130639,-0.31689010,-0.49578314,-0.26946669,-0.49838639,-0.23724103,-0.34394696,-0.01142204,0.05691705,0.37819611,-0.28479972,-0.19752718,-0.05534221,-0.38038992,-0.10989396,0.28605871,0.30823171,-0.45117390,0.21358861,0.11597047,0.34404755,-0.10116974,0.40753615,0.16498019,0.30603152,0.42161862,-0.11305518,-0.44550281,0.11574668,-0.19288545,0.39838239,-0.19294569,-0.08743872,-0.31770435,0.22981564,-0.48862095,0.33346559,0.42305119,-0.42975782,-0.13892628,-0.31670720,0.31226319,-0.43696227,0.20639334,-0.20341598,0.49717844,-0.43247277,-0.14184336,-0.18560228,0.12615075,-0.45209883,0.48114387,0.24118709,0.46108991,-0.40427136,-0.40207880,-0.02209225,0.46612401,0.16742790,-0.04085883,0.15219990,0.42170217,-0.26637162,-0.41455560,0.15070948,0.25201009,-0.24945597,0.17308186,-0.23020916,0.37124425,0.10395539,-0.33412285,0.15666601,-0.44219537,-0.05442021,-0.24311578,-0.43372125,0.13462604,0.11442108,0.48518302,0.08643584,0.03324497,0.44058781,0.48230918,0.12028434,0.20783308,0.58295286,-0.17121996,0.24303726,0.61688958,-0.10589237,-0.02443083,0.01617303,-0.42807219,-0.14024924,-0.05341441,0.42867731,-0.22147486,0.43446743,0.47779075,0.25802914,-0.09158874,0.28842277,-0.32921705,0.31143581,0.12783303,-0.26941647,-0.08841805,0.29811208,-0.31866705,-0.01516459,-0.44823737,-0.17451841,0.07494158,0.59522623,-0.12260384,0.13361128,0.03560987,-0.47383191,-0.04924213,-0.10468457,-0.36500737,0.23893357,-0.12438723,-0.36135919,0.10493040,0.35722132,-0.06040827,0.45255020,0.07426197,-0.39731094,-0.17432507,-0.16845888,-0.03667436,0.08392583,-0.17197131,0.47101371,-0.46869290,-0.23587654,0.25909869,0.44151140,0.02037542,-0.10253437,0.49287443,-0.26361926,0.39150219,-0.43911530,-0.05526205,0.16248575,0.33616220,-0.28906042,0.13984267,-0.06050001,0.47263606,-0.32228340,0.46942897,0.54905747,0.21648617,0.33405988,-0.31182187,0.39680268,0.19592794,0.24429501,-0.44779593,0.33772746,0.47167494,0.22285149,-0.07322592,0.15745431,-0.24240630,-0.14470448,0.53384537,0.01604520,0.36215994,-0.12967860,-0.30931336,0.00220484,-0.12850429,0.43243393,0.17802680,-0.12138864,-0.13281202,-0.06921760,-0.02966476,-0.36843655,-0.26366036,0.33770189,0.14247096,-0.40249317,-0.31603417,-0.22739703,0.21804563,-0.09469608,-0.43994858,-0.02541143,-0.28221502,0.23503908,0.23669651,-0.26886718,0.55344193,0.23339803,0.38766652,-0.09399524,-0.29116309,0.08957860,-0.37155238,0.40054648,0.56810052,-0.36087534,0.35850934,0.36039450,0.40316665,0.34341972,-0.05727629,-0.17907489,0.37739291,0.30052330,0.02216446,0.42510866,-0.15433875,0.46951566,-0.05426533,0.35674772,0.15454443,-0.32420004,0.04229685,0.01292174,0.06585770,0.48125555,-0.39542426,-0.24192970,-0.20684586,-0.02381354,0.38003806,0.40073193,-0.36455774,-0.18461317,0.04318648,0.14081448,-0.18337951,0.24349343,-0.05324389,-0.18772986,0.00477160,0.33709674,0.02735880,0.11753399,-0.13589853,-0.07424696,-0.21670332,-0.41579443,-0.27671296,0.44593790,-0.19476493,0.49693806,-0.28432219,0.02496371,0.39654104,-0.18687460,0.01702373,0.38869494,0.14306383,-0.03144683,-0.20755209,-0.24977007,0.37309822,-0.31871050,-0.05769424,-0.03974273,0.25029945,-0.08081576,0.42032672,-0.48538748,-0.24225264,0.07321018,-0.29625820,0.33240922,-0.23413180,-0.17054306,0.24793770,0.07644411,-0.21090032,0.36523520,-0.06131071,0.09674970,-0.25780771,-0.49496114,-0.44872419,-0.57136422,0.17722847,0.41079169,-0.23527008,-0.03043938,0.20549177,-0.40463374,-0.28318853,-0.52474248,-0.49846631,0.14922335,0.46169138,0.45264507,-0.14802241,0.47916544,0.23113501,-0.17705053,-0.42216968,0.34072998,-0.02150413,0.28780295,-0.42188092,-0.12253732,-0.13756294,-0.10203194,-0.15022026,-0.54358354,-0.49138470,-0.08898908,-0.34455267,0.37572875,0.38003963,-0.26980972,0.05863336,-0.04302699,0.13867171,-0.48897046,-0.37637557,-0.33572168,0.42025110,-0.42859268,0.05943454,0.46626979,-0.05892302,-0.03573565,-0.45302400,-0.32631684,-0.05795662,0.27709294,0.26658645,-0.20852713,0.13068926,-0.56264000,-0.36476125,-0.06350183,0.14766847,-0.04246837,-0.52481414,-0.11085369,-0.20780321,0.14116014,0.10228081,0.44228571,0.34369458,-0.13504336,0.17589933,-0.29207081,-0.03803801,-0.16710232,-0.24931605,-0.16394415,-0.17942510,0.12181975,-0.25703565,-0.08091632,-0.02103505,-0.05974775,0.17901533,-0.43121057,0.21876746,0.35749498,-0.29812828,0.22673644,-0.44586596,0.42117349,0.14479949,-0.40264212,-0.29771940,-0.13156512,-0.36099808,0.17120365,-0.27337781,-0.39936861,-0.13149335,0.02938620,0.33508033,-0.04938930,0.44245923,-0.05857252,0.48199503,0.38834019,0.41335725,-0.19285548,-0.01329702,-0.26762668,0.16961451,0.19283289,-0.36790561,0.50608380,0.05703220,0.13468617,0.09124987,0.41458520,0.27615183,-0.10029205,-0.02995449,-0.45276851,-0.40027499,0.19794596,0.15920847,-0.25749840,-0.26499842,-0.46818223,0.45607002,-0.36760825,0.11520167,0.42408907,-0.19206332,-0.24050240,0.42742930,-0.02285888,-0.45399002,-0.36816406,-0.03120602,0.46488779,0.34249117,0.23481377,0.62039763,-0.14942455,-0.32279959,-0.30841081,-0.10205646,0.00644520,-0.13619006,0.16353517,-0.34736988,-0.11405586,0.09452520,0.31535954,0.32049065,0.03274916,0.26934555,0.31378748,0.16100376,0.10337281,0.32726713,0.06575695,0.22333246,0.04106926,-0.02847055,0.08576255,-0.05716641,-0.25966115,0.31528532,-0.26574845,0.30239804,-0.09771442,0.33985774,-0.48064211,-0.45957333,0.20157812,-0.40188046,0.28741042,-0.34301460,0.19362549,-0.29850349,-0.47062779,0.01569261,0.05626719,0.12558849,-0.16699036,-0.25061144,-0.17502538,0.48448433,-0.36780863,-0.27701128,-0.07024124,-0.44479420,-0.28549755,-0.00124491,-0.39402386,-0.17028874,-0.27301142,-0.18368438,-0.06664181,0.24284647,0.30818800,-0.37319131,0.39949988,0.22502917,-0.07753549,0.18153599,-0.32637341,-0.15138935,0.12663449,0.37428032,0.22328839,-0.23414820,0.11104485,-0.31228869,-0.49963838,0.29600922,-0.36507043,0.44975027,0.25851596,-0.29362171,-0.42102690,-0.44799896,-0.41594766,-0.33101635,0.44783569,-0.19474761,-0.11307086,0.20735611,0.25331538,0.06050837,0.39501374,-0.14275564,0.05495190,0.00010232,0.00847864,-0.23234031,0.27957004,0.17577662,-0.15586781,0.18366748,-0.39250965,0.38401761,0.11051673,-0.03147376,0.05582124,0.06482054,-0.37345100,0.12427229,-0.44349340,-0.13435223,-0.42665243,0.05526849,0.32948942,-0.27506060,0.04808500,0.05405148,-0.30443055,0.36981605,0.08469111,0.05518542,0.21401040,0.24151959,0.34917432,-0.32487629,0.40195771,0.14318480,-0.38053580,0.31518047,0.24877566,-0.30861709,-0.25578940,-0.46894155,-0.22972503,-0.34021822,-0.27323103,0.01757425,0.01418357,0.11835208,0.37972825,0.37149309,0.09887365,0.44047491,0.41042359,-0.04419835,-0.35092745,0.19110574,-0.25557109,0.00616502,-0.13001754,0.50775939,0.33848217,0.44494847,-0.49447901,0.33724310,0.23111013,0.34495507,0.28358542,0.19922443,-0.08936235,-0.22226562,-0.28288948,0.32546144,-0.39556968,-0.15210856,-0.29284015,-0.44489941,-0.38465106,-0.34460785,0.20055544,-0.09100581,-0.14959283,-0.20083535,0.24044837,0.23714815,0.13748619,0.10251336,0.14549400,0.23588796,0.39386595,-0.30920434,-0.09865796,0.33499738,-0.19025007,-0.10177267,0.46011009,-0.19366084,-0.10487380,-0.27453234,0.42038621,-0.07248816,-0.31653815,-0.24236405,-0.14366537,0.14546430,0.35739944,0.25301828,0.35092791,-0.17826987,0.06161583,0.20305482,0.42135470,-0.37503207,0.04785299,0.43273408,0.45528337,-0.40112852,-0.01934534,0.02044718,0.35454665,0.20877418,0.22577956,-0.07762884,0.03656640,-0.12920174,0.22508735,-0.28808995,-0.07437785,0.13988001,-0.03524607,-0.40806969,0.43900934,0.44982736,0.12526353,0.16115595,-0.13284092,0.34472071,0.01917460,0.31580862,-0.02188622,0.40904527,0.10199578,0.11298890,0.50117420,0.46129920,0.36641043,-0.05133888,-0.45752490,-0.42002574,-0.01714364,0.27652763,-0.19994467,0.38571436,0.04263907,0.16183302,0.08291883,-0.16321126,0.28630862,-0.09539952,0.25563494,0.29296245,-0.08571616,-0.09289756,0.31830624,0.32998127,0.19986130,0.04592228,0.11714372,-0.22552361,-0.23713607,-0.46523580,-0.27132064,-0.37012858,0.26399443,-0.12887643,0.31486556,0.24579213,0.11846855,-0.06420767,0.19229876,0.10333612,0.24372992,0.28283046,0.16726160,0.23278265,-0.14548810,-0.23168364,0.13527900,0.11396392,-0.39525984,0.44683463,0.22133726,-0.36465898,0.38676297,-0.44691768,-0.19304109,0.35160466,0.05671310,-0.29199870,0.34397115,0.15421001,0.05776876,0.37486944,-0.25522853,0.26262084,-0.46695163,-0.14753448,-0.46844134,0.33383825,0.33916346,0.48527456,-0.32355935,0.49755994,-0.19861991,-0.39781716,-0.22558101,0.05618939,-0.28539104,0.10902566,-0.02598108,0.32678462,-0.34658270,-0.06460802,-0.33745736,-0.12587924,-0.18770128,-0.38653459,-0.18723360,-0.07260648,-0.42906586,-0.49528313,-0.06550426,-0.03911469,0.27058645,0.46808468,-0.01740791,0.36644305,-0.40331683,-0.03498889,0.38546392,-0.48344978,0.03067892,0.45598922,-0.37577145,-0.02403883,0.05010803,-0.05864633,0.18044735,-0.43714263,0.36288509,0.20916263,0.44066371,-0.11471445,0.41684542,-0.20016681,-0.07877193,-0.25104592,-0.30745979,0.15643043,0.15749190,0.05804293,0.03237539,0.48838091,0.14874940,0.37497226,-0.45041191,-0.34307361,0.23135155,-0.09566464,0.31538498,0.39475663,-0.13991548,-0.18261014,-0.39731285,0.26014927,-0.14904083,0.50076250,-0.00136641,-0.01173452,-0.34098022,0.21281199,0.45501069,-0.33102675,0.15153580,-0.14524770,0.40999195,-0.13135596,-0.37906111,-0.10463270,-0.15913172,0.35811167,-0.10475950,-0.15799600,0.44662023,0.21714003,-0.43567716,0.48834114,-0.16168012,-0.32051860,-0.20260991,0.13620460,0.15727750,-0.08620630,0.20286424,0.33243765,0.42010966,-0.08924169,-0.36118513,-0.49560582,-0.01104276,0.28200334,0.46684557,0.27644362,0.12002270,-0.46283839,0.14230881,-0.48079851,-0.14659417,-0.23260080,0.26969043,-0.05858563,0.33146867,-0.42135246,-0.47985269,0.16148700,-0.48968047,0.07259733,-0.16601635,0.40788090,-0.42829557,-0.09831991,-0.38112426,0.07671197,-0.14895695,-0.57057031,-0.47948296,0.09257530,0.29829544,-0.08639717,-0.54734005,-0.05842255,0.34786610,-0.12443993,0.15254645,-0.13516608,-0.24258255,-0.32300717,0.38600616,0.33032302,0.25819520,0.34455394,0.44470921,0.23532064,0.18510110,0.51167529,-0.08704952,0.45002026,-0.19322900,0.45824157,-0.01956603,-0.50081560,-0.09845110,-0.42584535,0.35187121,-0.52392821,-0.43884840,0.15927931,0.02548996,-0.29693319,-0.01357011,0.28939765,-0.22189505,-0.44103261,0.30069225,0.04214115,-0.34683773,0.44417677,0.37227401,-0.13229643,-0.12901839,-0.36871579,-0.29310606,-0.40920842,-0.08574425,-0.00926396,0.51197222,-0.36708802,-0.09969599,-0.03013687,-0.02245930,0.09060462,0.18166491,-0.13311269,-0.00763745,-0.32789492,-0.33002136,-0.50375230,-0.33249756,-0.42442743,0.07225711,-0.35120550,-0.11835874,0.19607544,0.41585380,0.27302750,0.20091244,-0.00893702,0.18751269,-0.20347918,0.27415264,-0.33640475,0.17972405,-0.29830566,0.41285614,-0.15508291,0.10633472,0.44667049,-0.14532746,0.01421224,0.07069718,-0.43491932,-0.40368179,-0.16345983,-0.28166983,0.43078030,0.02520786,0.07857819,-0.00012488,-0.38904370,-0.01199546,-0.06589364,-0.43380352,0.49099448,-0.18440552,0.47338033,-0.25631629,-0.21842865,-0.15551739,0.37877026,0.08647211,0.15332511,-0.12524552,0.25892567,0.44264070,0.32708812,-0.02232038,0.48913386,0.08475378,-0.23455564,-0.50972085,-0.10760721,-0.34045707,-0.06364902,-0.38498329,0.45396308,0.25963175,0.32425290,-0.06128659,-0.42826379,0.38024241,-0.34663368,0.30664630,-0.40247058,0.27298267,0.20531824,0.34027983,0.47839503,-0.34139608,0.11599468,0.47346925,0.32312353,-0.11344610,-0.38547038,0.06711012,0.48790295,0.40420269,0.14916708,0.17785287,0.18520133,0.05525734,-0.13185463,0.51605993,0.13069158,-0.39800407,-0.29316533,-0.21076100,0.07393346,-0.29771021,0.11965271,0.21260235,-0.34332992,0.08025447,0.48160603,0.37159362,-0.09049603,0.26898028,0.08017579,-0.29560019,-0.06388957,-0.22656725,-0.06385286,-0.06707843,-0.38646691,-0.13132748,-0.27029424,0.03039126,-0.21462321,-0.17650248,-0.11537107,-0.38791714,0.36224620,-0.11738145,0.15308648,-0.02450458,0.31887927,-0.24813686,-0.46940847,0.10699196,0.23916436,0.24115857,-0.12739724,0.48267767,0.36220904,-0.01471362,-0.26897958,-0.31708785,0.06013321,0.19699503,0.18881509,-0.03084559,-0.28999533,0.34953258,0.06766003,0.23008440,0.06071835,-0.29507665,0.06825439,0.29971798,-0.09749028,-0.21939956,0.43145617,-0.13331614,-0.01207353,0.00917557,0.26688525,-0.43958386,0.19208292,0.05613111,-0.42267259,-0.00407944,-0.49536310,-0.06421828,0.10535150,0.01198223,-0.10054189,0.32194379,-0.56801209,-0.48946227,-0.41212717,0.45445322,-0.10459181,0.28890884,0.16965074,0.05350356,0.24612243,-0.23596429,0.42773316,-0.10864885,0.44188114,0.29638003,-0.49363591,-0.02654249,-0.18466685,0.01895026,-0.18347602,0.23018254,-0.14315405,-0.11453794,0.40603032,-0.33889232,-0.29527818,-0.24449592,-0.05668790,-0.32583904,-0.27167999,0.23966237,-0.04557794,0.17812987,0.55370224,-0.35359866,0.37255477,0.41988049,0.03605598,-0.21306324,-0.39624542,-0.11540412,0.36587559,-0.07198273,-0.34638757,-0.43581380,0.20833287,0.07062538,0.48412317,-0.00991542,0.07702335,-0.22358900,0.27659322,-0.17784220,0.29850693,-0.16712244,0.13760335,-0.30996515,-0.50693388,0.27529721,-0.02912161,0.11726157,0.21973817,-0.15020846,-0.01045075,0.01536877,0.17951967,0.03470074,0.46000255,-0.28588059,0.35185147,-0.38408929,-0.40293210,0.28982568,-0.36919229,-0.22133706,-0.19374273,0.08659312,-0.28054775,-0.47734942,-0.30712528,-0.46215450,0.09443312,-0.19978335,0.39850361,0.19464997,-0.28211951,0.43288721,-0.43402485,-0.15832574,-0.22809726,0.49923449,0.39454024,0.50971042,-0.15139970,0.02034624,0.15755578,0.36303736,-0.47156160,-0.39114706,-0.34330233,0.12622432,-0.03081860,-0.04883101,-0.25736042,0.03091204,-0.12491536,-0.22859915,0.40758916,-0.31690801,0.00537169,-0.37816371,-0.38744678,-0.13329633,-0.40266782,0.22793503,-0.27249063,-0.25002753,-0.41379595,-0.40325409,0.44240526,-0.05950420,-0.25712129,-0.38176608,-0.17605255,0.32124395,0.13129882,-0.29359566,-0.18906628,0.13109184,-0.13872543,0.09551709,0.18495592,0.32594038,0.23972312,0.20402689,-0.53573885,-0.40554225,0.29085389,0.43284460,0.48231722,0.29166182,-0.05122340,-0.03857927,0.11168100,-0.04287345,0.35656914,-0.06697261,0.18391427,0.40584638,-0.33993567,0.38406720,-0.42189894,-0.51173116,0.14552466,-0.35245575,-0.16598980,0.23298505,0.32853526,0.36152631,-0.06474599,0.41471319,0.48934164,-0.23094586,-0.48992980,0.25554726,-0.31983434,-0.49346464,-0.34986119,0.05955273,-0.17577423,-0.11557622,0.33406671,-0.16458249,0.10948523,0.13909942,-0.44314580,0.10417249,0.28872069,-0.58451180,-0.43753729,-0.33454008,0.15205292,0.25418193,0.37416889,-0.44010596,0.23083856,0.27579039,-0.09834380,0.24841556,-0.35087429,-0.09934926,-0.36727802,0.36880684,0.01500555,0.08983683,-0.05643152,-0.04687154,-0.09042616,0.05986845,-0.24987958,0.38059595,-0.16972625,-0.52312098,-0.05187721,-0.16785440,0.29707121,0.15002326,-0.46083245,-0.47784778,0.28056986,-0.08137603,0.01602256,-0.27670045,0.03435400,-0.36282127,-0.41992825,0.09813246,0.04250201,-0.31958514,0.16710480,0.02978116,-0.43737248,0.09602094,-0.13495348,0.44972260,0.11240588,-0.38369580,-0.46245934,0.22808167,-0.48371460,0.06724130,-0.18885560,-0.32162676,0.25123655,0.33050046,0.18570619,-0.00424972,-0.06460043,0.44452001,-0.00687042,0.41688559,0.29988044,0.27016228,0.07212657,-0.47879787,0.24955365,-0.28982870,0.36145772,0.06125910,-0.18939083,-0.08066612,-0.48025802,-0.52904068,0.36187761,-0.24131700,0.17806094,0.07813489,-0.13614426,0.23746228,0.08118916,0.09539310,0.20333617,-0.41483029,-0.41518390,-0.15657379,-0.00469831,-0.45343683,-0.20480058,-0.41975745,0.04042798,0.31799276,0.44039023,-0.37065784,0.41612914,0.10155563,0.28185482,-0.48688399,-0.31956459,0.15743823,-0.10590137,-0.29524652,-0.13223076,0.23322751,0.08803579,0.34315014,0.49933253,-0.04417294,-0.05923832,-0.21993497,-0.24652598,0.43749062,-0.14567166,0.23210621,0.25672288,-0.35582158,0.13534936,0.06699373,0.47598739,0.17263138,0.46886300,0.48249538,-0.00022445,-0.19262488,0.13723846,0.33628326,0.02771603,0.36231889,0.08574911,-0.49483823,-0.34937360,0.08681643,0.00870197,-0.25376124,0.15706888,0.19924590,-0.11390988,-0.16278939,0.38651920,0.45629041,-0.23008165,-0.32714747,0.30749260,0.02567743,-0.46921905,0.27897262,0.41793745,0.18116586,0.30840025,-0.15482142,0.45316020,0.01609137,-0.29667242,0.36995316,0.50012209,0.50257621,-0.23754691,-0.03698523,-0.02255461,0.43786220,-0.33270291,-0.22185052,-0.39917068,-0.16305740,-0.45238217,0.04130299,-0.47529469,0.30579641,-0.20752766,0.40825508,-0.31127119,-0.44484552,-0.39674791,-0.16646918,-0.49576443,-0.24820686,-0.08571395,-0.47165830,0.47745486,-0.12772889,-0.42124444,-0.11515474,0.47630654,0.05310267,-0.07860022,0.20556375,0.09965712,0.16883358,-0.17319156,0.17354826,-0.38451722,0.15371123,0.06272310,0.06873937,0.41262933,0.38208032,-0.02697152,-0.09476444,-0.21458879,-0.32562961,0.29009538,0.41363606,0.27338201,-0.46000649,-0.12798292,-0.02132008,0.00992720,0.23657923,0.00018249,0.28173055,0.00264365,-0.10490019,-0.11231308,-0.29348512,0.28457824,-0.48851457,0.26605782,-0.15894966,-0.21718589,0.47116907,-0.48863419,0.26120114,0.28941412,-0.00078595,0.08876646,-0.41492965,-0.19788639,0.42733146,0.24264040,0.24641588,-0.15511465,0.02410411,-0.44322065,-0.33583780,0.08049225,0.17863063,-0.13766522,-0.30241925,0.32801705,0.01997177,0.06230236,0.12373283,0.33088346,0.35536210,-0.32855429,0.12287581,-0.24743287,0.34374352,0.34328465,0.29354490,-0.04286110,-0.04054615,-0.00886446,-0.12329663,0.09558060,0.13154636,-0.06568411,0.01281178,0.27341264,0.31149380,0.34438925,-0.17441898,-0.34871656,0.42606779,0.17732772,-0.04330606,0.11538067,-0.06266941,-0.31561476,0.43397036,0.27431523,0.10031630,-0.26215284,-0.40269067,0.30166324,0.09349287,-0.38399307,0.30276128,0.46360922,0.39630534,0.37686034,0.32186658,0.30935578,0.14854423,-0.24042851,-0.34223240,-0.29954511,0.25011121,0.00402740,0.43864555,0.35271558,0.47107987,-0.49127381,-0.11180705,-0.31708020,-0.43158928,-0.37989344,-0.32655072,0.06608025,-0.19557664,-0.36219150,-0.39106204,0.32081264,0.48180071,-0.24751858,0.29085807,-0.34303952,-0.00316680,0.35739169,-0.40401979,0.08252161,-0.10898535,-0.26469389,0.36090466,0.06183434,0.43409637,0.01698782,0.20619500,-0.37484321,-0.46098165,0.01551092,0.11883673,-0.07786292,-0.45250958,-0.20744725,0.06341857,0.18760095,-0.02563991,-0.20941860,0.32190405,-0.03665046,0.08208144,0.02946533,-0.10538042,-0.27922628,0.28017405,-0.04174186,-0.31798727,0.10588082,0.18169968,0.35993031,-0.19148994,0.09486105,0.23994165,-0.19320625,-0.02555211,0.36885659,0.22763727,-0.01594158,-0.31355690,-0.43650599,-0.35709121,0.29539725,0.28286959,0.38921260,-0.17987053,0.37993370,-0.05567604,0.04002792,-0.40207403,0.09769134,-0.22749506,0.08771285,-0.31604928,-0.46915046,0.00786185,-0.09160399,0.25218457,0.44871582,0.11904822,-0.14068555,0.34413781,0.08369466,0.44959948,-0.16721725,-0.41771617,0.41465142,0.05018670,0.35052731,-0.31216012,-0.42765139,-0.15148332,0.14186342,0.29292424,0.30022217,0.26579273,0.49551568,0.27810583,0.03772368,0.28248435,-0.20149842,0.01834015,-0.07754450,0.05133341,-0.47222539,-0.46121343,-0.19446858,0.23079778,0.31538282,-0.13304330,0.33296073,-0.11192675,-0.20969697,0.02930147,-0.16566703,-0.01750465,0.16939259,-0.06225513,-0.17613769,0.06881738,0.06625797,0.39535558,0.28217508,-0.16840728,-0.39380001,0.25562757,-0.42811308,-0.38974953,-0.31465939,0.19735553,0.30957655,0.28431921,0.39588254,-0.21059193,-0.30037537,-0.09354414,0.41796513,0.44187257,-0.48592730,-0.04825938,0.16238855,-0.13162788,0.47726797,-0.18758767,-0.39206988,-0.08668429,0.02815892,0.13323711,-0.12622298,-0.38933043,0.17775949,-0.01666542,-0.52036705,0.00425377,-0.46543732,-0.55225549,0.19260342,-0.56163130,-0.47617651,-0.49232107,-0.52650201,0.09544599,0.11343391,0.46858242,-0.33522519,-0.36613823,0.27790834,-0.45841691,0.44093209,-0.02294808,-0.32996512,-0.05462603,-0.10706229,-0.24454908,-0.17272211,-0.01012680,-0.35585702,0.12434860,-0.16419684,0.11964067,0.40707005,-0.26432170,0.16529555,-0.47189730,0.27124736,-0.32918981,-0.21415405,-0.05413025,0.12582408,0.03829497,-0.02011252,-0.22590580,-0.29264512,-0.13614153,0.11621243,0.11536300,-0.02289002,0.47374808,-0.14492778,0.42407463,-0.30635835,-0.34456646,-0.33670383,-0.39221661,0.36517156,0.03658338,0.11693845,0.05193745,-0.28881958,0.32479937,-0.38514740,-0.26850393,-0.15894837,-0.32525846,-0.46358242,-0.00223036,-0.45944170,-0.12711356,-0.09835957,-0.13400852,-0.07890543,-0.20793909,-0.03339756,-0.06110328,0.01677767,-0.01077085,-0.23024838,0.25568680,0.09505032,-0.27472679,0.17354580,-0.27146310,-0.10421914,0.12997249,0.17929539,0.46458839,-0.30649989,0.17770145,0.02449394,-0.36993367,-0.10347386,0.00527479,-0.37658065,-0.18429698,0.17213846,0.20119584,0.33921769,-0.33648552,-0.29274278,0.18985935,0.42057786,0.09508599,0.40822749,-0.19479162,0.01033276,-0.02361034,0.07501138,-0.26891566,-0.37288944,0.19010812,0.10496274,0.05122330,0.01466436,0.10336657,-0.19362015,0.20343081,0.18258626,-0.28977460,-0.19079431,-0.12574049,0.38884731,-0.55522638,-0.15998563,-0.06506668,0.49317561,0.31323031,-0.18059916,-0.09247703,0.29563902,0.15508276,0.01188367,-0.41952352,0.24616531,-0.19904034,-0.17628679,0.46351337,0.23772558,0.23554333,0.37536811,0.33078084,-0.30242565,0.21041180,0.27809660,0.36937226,-0.02902198,0.28631050,-0.37155365,-0.16580451,-0.25899269,0.41055707,0.27227356,0.35664655,0.09648436,0.34590633,-0.24677102,-0.18415389,-0.24710758,-0.47241239,0.41025595,0.33907102,-0.46915902,-0.23417761,-0.30163045,0.18955325,0.45413146,-0.20293445,0.36713940,-0.18983688,0.28272115,-0.04707535,-0.26724849,0.36732935,-0.12195870,-0.35796506,-0.34642541,-0.46847696,-0.29348268,-0.49391004,-0.25691353,0.17326766,0.46118833,-0.48332218,-0.15148597,-0.25124203,0.03719901,0.48196954,-0.43711171,-0.40750832,0.39118187,0.12725851,-0.43869205,0.48655507,0.14296428,-0.50391576,0.13351563,-0.34673641,0.17696709,-0.16242907,0.44265512,0.45948792,0.28222366,0.39780330,0.24835696,0.28873215,-0.31804512,0.20480939,0.26290559,-0.31150359,0.41489394,-0.23104062,0.45029636,0.10301836,-0.05627958,0.17997983,0.44969918,-0.04594146,-0.10209660,-0.47157712,0.14499457,-0.41442131,-0.42010109,-0.14511218,-0.41345986,-0.03573102,-0.25668231,-0.34849226,-0.25075487,0.24573924,0.16338039,-0.27744327,-0.03425880,0.12781825,0.55226332,0.03793705,-0.43194919,-0.46965242,0.20698383,-0.06112241,0.11867934,0.26440750,0.47802022,-0.36194584,-0.25070131,-0.16121227,0.03813534,0.43588894,0.09616563,-0.03597276,-0.44674162,0.31161031,-0.28038048,-0.07843141,-0.08427389,0.28172905,-0.34208802,-0.45521086,0.17777104,0.00553018,0.40848548,-0.44989371,0.51358354,0.26720945,0.13424905,0.20853591,-0.19164988,0.29555908,0.43124179,0.29530681,0.33312332,-0.10008039,0.11653808,-0.15632364,-0.38348141,0.06098993,0.09731411,-0.45685259,0.22057494,-0.48566938,0.38008823,-0.18708694,0.18705855,0.42389378,0.22319426,-0.27754186,-0.20186075,0.32309773,-0.15560735,-0.08017466,0.43747722,-0.21236739,-0.47172622,-0.11947288,0.00122661,0.34212489,-0.30015493,-0.34263531,0.37335559,-0.42791977,-0.09934489,-0.51205563,-0.16617698,-0.52103607,0.04925855,-0.12770805,-0.40684675,-0.58759800,-0.58696451,0.48081560,-0.10142699,0.20893771,-0.27234744,0.15699806,0.44464990,0.17203859,-0.25949622,0.48822985,-0.39810023,0.04616787,0.20945507,-0.39509332,0.23598243,-0.23165259,-0.43548401,-0.25365971,0.29066515,0.16855842,0.22734293,-0.25932756,-0.14265964,0.11227399,-0.53645065,0.38686964,-0.42490273,-0.17248895,-0.06567855,-0.46888064,-0.28833120,0.36190154,-0.05022831,-0.06518390,-0.02539635,0.25903296,0.22333304,-0.28634687,0.11624969,0.27031978,-0.18536587,0.45473600,-0.21003308,-0.18024067,-0.31733089,0.40317528,-0.12725892,0.38209988,0.19470997,-0.41020313,0.50632672,0.24864956,0.13445224,-0.39277093,-0.17282265,0.37251776,-0.43960127,0.34404892,0.43090582,-0.31829607,0.20395053,0.30769890,0.29914680,-0.23613957,-0.40999435,-0.34801283,-0.44531873,-0.25211769,0.28792895,0.35656912,0.11269796,-0.23556667,-0.17454124,0.44834731,0.34797689,-0.04656127,-0.46160806,0.44368493,0.50720591,0.05723342,-0.28488211,-0.46558950,0.28334864,-0.19233231,-0.35303225,-0.38158193,-0.16104897,0.13578308,-0.16318453,0.36565895,0.23376158,0.26300101,0.27631469,0.49053993,0.34875236,0.30733596,0.37239622,0.16768933,-0.23424638,0.31933155,0.14933200,0.01890825,0.05567204,-0.37867504,0.07859850,-0.41579056,-0.08720323,-0.20759812,-0.30939609,-0.02626076,0.34979942,-0.50637230,0.41414068,0.43952302,-0.09189596,0.23998817,0.06579127,0.43078892,-0.18965816,-0.10025969,-0.28611038,-0.17891488,-0.24972328,0.27206468,-0.41611252,-0.23388806,-0.11104184,-0.04715481,0.18524543,-0.26171553,-0.02824958,0.21042750,-0.39741352,-0.06032354,0.33733104,-0.14321998,0.43147865,0.01109100,-0.29051048,-0.43305180,0.09826200,0.29064168,-0.32444300,0.02781333,-0.40770994,0.56694186,-0.19730798,-0.21410300,-0.31045683,-0.24788411,-0.03243187,0.30044728,-0.06313554,0.30203566,0.42251249,0.40532682,0.47549644,-0.42839442,0.46073014,-0.30879452,0.06862378,-0.39110246,-0.04743380,0.13408762,0.47622519,-0.29919251,0.11656570,-0.01953251,-0.44393018,0.04296362,0.00163221,-0.05426472,-0.07038513,0.41309253,0.29526647,-0.21269147,0.08750544,-0.05661763,-0.05464325,-0.16414831,0.40128550,0.06215026,0.20221403,-0.42949114,0.21218642,0.24537710,0.40738254,0.09849405,0.37472813,-0.01894783,-0.33885171,0.37293262,0.52116302,0.10276283,-0.02948580,0.16938984,0.41215186,0.44690894,-0.30579809,0.06552657,-0.51241808,0.47065992,0.49208525,-0.28836952,0.24570564,-0.45123312,-0.29463279,0.21226549,-0.32692991,-0.39126016,-0.35161849,-0.06953002,0.35038702,0.07661414,0.22246682,0.09905479,0.15776482,-0.06628303,0.16438860,0.03624795,0.46464009,-0.19037120,0.13383839,0.18178979,-0.21741801,0.25206835,-0.42019756,0.22899987,-0.08600663,-0.25568050,0.46573454,0.22561918,0.45363783,0.00267419,-0.07957062,0.10989350,0.34505442,-0.43943400,-0.27865021,0.06968473,-0.39456450,0.44080982,0.22731424,-0.39344523,0.35103409,-0.47401481,-0.40364866,0.01883926,-0.17689597,-0.16516992,-0.15353638,0.12524665,0.07003585,-0.36796185,-0.16490125,-0.22268533,0.45138761,0.33769161,-0.39807483,-0.05893472,-0.10460794,0.00440605,-0.03535617,0.33066612,0.27377107,0.04684393,-0.11896517,0.13261074,-0.10680806,0.27467375,-0.13548012,0.00671708,-0.13228280,-0.36634906,-0.47395939,0.27180615,0.47346669,-0.32574351,-0.26638982,-0.39664349,0.44046352,-0.48121563,-0.43484932,-0.35293305,0.06677433,-0.30340951,-0.26823675,0.03299879,-0.47396550,0.03922152,0.36214025,0.06246416,0.42484430,-0.37144117,-0.02306388,0.02143790,-0.40963707,-0.13659191,0.04251414,0.47210042,0.20621019,-0.20838658,0.15810036,0.15462449,-0.17468510,0.33496776,-0.44083543,-0.30249625,0.47890969,0.45659977,0.41051516,-0.27420043,0.16762565,0.44980832,0.23670332,-0.37222911,0.38731732,-0.44920855,0.36408128,0.24416830,-0.16859320,0.36225659,0.21764516,-0.10714578,-0.12065754,0.37607926,0.00907080,-0.26068457,-0.30965045,