0.10219615,0.33781593,0.08689988,-0.48420889,-0.11320986,-0.41635691,0.06652718,-0.36795510,0.26006940,0.45638425,0.13841572,0.41405765,0.43914599,0.03375936,0.06331690,-0.43008292,-0.44722757,0.18733825,-0.36327306,0.02505259,0.37230918,-0.33245213,-0.39457341,-0.08233042,0.07597261,-0.49401025,-0.19290630,0.32012996,-0.29135486,0.15769556,0.09111625,-0.42480392,0.36357438,0.17189096,0.45645722,-0.14241894,0.06810421,-0.08246445,0.23126947,-0.21312214,-0.08945737,-0.07472547,-0.41080295,-0.47094582,0.40975268,-0.03553366,-0.49980535,0.13144214,0.09189314,-0.09968257,0.28018806,0.49724851,0.38621641,-0.47453755,0.43247964,0.10761798,-0.17170384,-0.20974302,0.32680196,0.37578499,0.11146269,0.41717817,-0.13539700,-0.26055331,-0.02420176,-0.44231999,0.13002135,0.37137841,-0.02985573,-0.24161468,0.30532990,0.24047041,0.49134924,-0.47770090,0.30486090,0.00268495,0.27801130,0.30574350,0.33861625,0.40848918,0.29928063,-0.29195685,-0.07330215,0.10956251,0.07049225,0.32212492,-0.37641306,-0.38110379,-0.45989079,0.01809070,-0.26109188,-0.47467209,0.46483189,0.45505367,-0.38944610,-0.37154561,0.03138872,0.07481000,-0.37241454,0.13494197,0.28478357,-0.47567777,-0.20707390,-0.36266326,0.24724184,-0.07263112,-0.30893874,-0.16698599,0.38054706,-0.01951487,-0.24246287,0.17478584,-0.14970761,-0.49829406,-0.18078207,0.43659606,0.12060193,0.10372633,0.47792296,-0.23406811,-0.48332425,0.09083082,-0.40918700,-0.39387832,0.08371406,-0.31210462,-0.44279240,0.05875503,-0.12732220,0.19247598,0.00530688,-0.38496611,0.06395082,-0.30719159,-0.02290125,0.01211457,0.01192447,0.18605375,-0.07601431,0.00347187,-0.19951427,0.39070676,0.22124226,-0.35682243,-0.04095837,-0.45109557,-0.28290476,-0.30167558,0.27602919,0.00786255,0.28311847,-0.42199475,0.44030021,-0.14199997,0.39756986,0.04944460,0.52374705,-0.19071551,0.05543198,-0.22294964,0.19307636,0.02733926,0.20220557,0.45908091,-0.13497502,0.17475430,-0.05189674,0.22325308,-0.42037022,0.16718663,-0.27444980,-0.20729846,-0.18922395,-0.44419889,0.25325189,-0.16223856,-0.24297744,-0.02481856,-0.12255078,0.16269440,0.41203382,0.10293692,0.40242204,0.11485677,-0.13880760,0.15808962,0.38540872,0.23174047,-0.44865988,-0.21321410,-0.16672618,-0.03984356,0.36414776,0.31955366,0.36482849,-0.24807577,0.26469735,-0.36902501,-0.03505858,-0.09326417,-0.50778127,-0.27901345,-0.31445290,0.41400644,0.16655965,0.18161801,0.41325275,0.09446976,-0.38736140,0.10900446,0.42084323,-0.23285051,0.62174983,0.21044107,0.30759875,-0.15280667,0.16480250,0.30917879,0.00155927,0.03985751,0.38236528,0.43458654,0.11983214,0.49884148,-0.11489932,0.26152083,-0.34796966,-0.16230490,-0.38526735,-0.04973750,0.17887260,0.04131022,0.14855155,0.38421329,0.35116213,-0.38557386,0.00280705,-0.33116253,0.54762123,0.50917465,0.18851997,0.21543601,-0.31952928,0.05121356,-0.35293185,-0.16697595,-0.06705164,0.36909603,-0.19769458,0.21230397,0.16678098,-0.04765088,0.00908887,0.23878107,0.13648478,0.11387297,-0.42326764,0.21879528,0.22795502,-0.34192654,-0.42941944,-0.17076163,-0.29723786,0.36790859,-0.17939765,-0.27645292,0.21894377,0.07159900,-0.16824442,0.06293374,-0.14240760,0.21113563,0.31878916,0.02468341,-0.48609174,0.46762938,-0.17575318,-0.30736348,-0.16472716,-0.48506606,-0.49880180,0.42253716,0.27197407,-0.07312110,0.20906992,-0.08564885,-0.43192073,0.00962832,-0.23185859,0.39598934,-0.27440453,0.01170244,0.26289175,-0.16116883,0.73248819,0.41949241,-0.15932695,-0.23856563,0.21633765,-0.04669952,-0.36886787,0.19786903,0.28874435,-0.16265343,-0.05954642,0.14207697,0.01827688,-0.10573703,-0.02159781,0.27145644,-0.32083950,-0.13995994,-0.21536048,0.49078296,-0.06908796,-0.32490416,0.22959438,0.19326665,-0.23678796,0.34241009,-0.42007395,0.50569766,-0.04577034,-0.38181648,-0.43587543,-0.18769097,-0.06583848,-0.32918401,0.04999126,0.29268215,-0.40814613,0.04031519,-0.02298194,0.27481335,-0.12865872,-0.05720314,0.45058781,-0.19325506,0.36066919,0.30866486,-0.28755817,-0.37205988,-0.31787088,0.21464272,-0.42052571,-0.33386564,-0.42441775,0.27778264,0.36578329,0.24135046,0.38553082,-0.46215903,-0.51198782,0.14496074,0.06481418,0.37277667,0.20133461,0.40130468,-0.11299070,-0.39562748,0.22296256,-0.45411093,0.03906278,0.28843715,0.49952181,-0.42050611,-0.13861597,-0.17710007,0.12695645,-0.09119825,0.32714743,0.12218800,0.19967445,0.17388731,-0.22624053,-0.10708996,-0.29485825,-0.09538033,-0.23026509,0.01077392,-0.41861280,-0.49743695,-0.07179598,0.43045042,0.08361073,-0.39436419,0.11816125,-0.41317321,-0.31882840,-0.00568335,-0.48334303,-0.14619274,0.13135382,0.09906645,0.11202663,-0.02193928,-0.17635337,-0.10239869,-0.23750988,-0.24059383,-0.48451156,0.42459691,-0.26872424,0.29100846,0.28572672,0.21721727,0.24524678,0.42800321,-0.11697732,0.02496044,0.04678297,-0.44816707,-0.29628197,-0.07458316,0.18755801,-0.16537655,0.07877706,0.14313403,0.04927523,-0.07147346,0.19963497,0.23328639,-0.28749200,0.40029622,-0.49315933,0.34926421,-0.47517032,-0.28927653,-0.12550057,-0.10512077,-0.40671661,-0.12402416,-0.05622843,0.42884055,0.30191304,0.43398091,0.28823482,0.43624618,-0.36719226,0.37021048,0.24322372,-0.47130913,-0.53273995,-0.10842881,0.14853486,-0.36975596,0.28560271,0.02968739,-0.40737160,0.15725703,0.23110449,-0.42595222,0.29502893,-0.05256505,0.40123977,-0.36917592,0.12307626,-0.14149169,-0.05657732,0.00186773,0.21327648,-0.30160139,-0.18354176,-0.43741335,-0.02705983,0.08947233,0.41558526,-0.09143728,-0.52750433,-0.08661001,-0.25250590,0.11223778,0.38167933,-0.39866193,-0.47165091,0.01510912,0.17233044,0.41301313,0.22064758,-0.05463464,0.31882654,-0.35112814,0.11790507,-0.01767502,0.07359641,0.21884051,0.18547597,-0.45438568,0.35776304,-0.20498300,0.29432792,-0.18472080,0.14456974,-0.08633084,-0.39233293,-0.25435875,-0.42351299,0.38736470,-0.29759868,0.05245405,-0.30657372,0.23925050,-0.31838409,0.24896789,-0.20874138,0.25640120,-0.17773730,-0.40363547,-0.40116864,-0.33231865,0.12495564,0.12232974,0.00396275,0.43629261,-0.34313900,-0.22242182,0.09581244,-0.54212343,-0.51385274,-0.38182705,-0.01904265,0.45044562,0.39739845,0.05449035,0.31082275,0.07566853,0.17380560,0.18017822,0.48363032,0.17200272,0.14927639,-0.02147528,-0.10766952,-0.27077243,-0.06434000,0.22796365,-0.43573233,0.05801066,-0.14985421,0.33528406,0.33686062,0.08013942,0.51472189,-0.40592273,0.19423348,-0.17393888,-0.42986658,-0.14998823,-0.22519405,0.11595886,-0.37879179,0.34410803,-0.35016789,0.26135968,0.51277793,-0.35944919,-0.01620964,-0.40296073,-0.15936995,0.10899993,0.03934457,0.01889441,-0.07667477,-0.02379464,-0.02499397,-0.41012880,0.14574569,-0.30850815,-0.23998213,0.17064709,-0.08365251,-0.38075405,0.22882636,0.33309866,0.20164583,0.03826311,0.24559254,-0.13267056,-0.40361115,0.30256894,-0.19963964,-0.19525477,0.50794052,0.49013102,0.16488273,0.36142107,0.48521915,-0.34206248,0.00838513,0.40313928,-0.15917681,-0.10097060,-0.09944091,-0.15670823,-0.24267080,0.05713781,-0.14751838,-0.14932971,-0.03221419,0.43651311,0.33197822,-0.36839373,0.43279495,-0.19035138,0.12487317,0.22495736,0.10622705,0.13845404,0.47565270,0.21669301,0.10844394,0.44349331,0.09449103,0.24256794,0.08136227,0.31435205,0.03230498,0.36542994,-0.48252591,-0.22124004,-0.35166690,0.10619369,-0.18285551,0.03418389,-0.35290951,0.10352601,-0.24733886,-0.03839535,0.07838042,0.13347458,0.59052342,-0.00753711,-0.33605430,0.18316560,-0.12321412,-0.34905156,0.37443395,-0.02217767,0.35632952,0.38764502,0.41148332,-0.34669762,0.19677483,-0.17578436,-0.03883165,0.34065164,-0.31141612,0.17643622,0.05410094,0.13851966,0.23280858,-0.25466668,-0.11205774,-0.04466210,0.46069102,0.53861833,-0.05480369,-0.28843525,-0.14440321,0.43522846,0.14154997,0.08231515,-0.08570319,-0.37306567,0.06726992,-0.08169996,-0.38115399,0.40136345,-0.02315552,0.03298482,-0.30855910,-0.20085080,0.47371743,-0.24543222,-0.34293992,-0.35044446,0.26886341,0.25323699,0.23584934,0.41947638,-0.36793027,-0.40602180,-0.06462526,-0.41422549,0.18154203,-0.10266837,-0.45609755,-0.18473927,0.17484355,-0.31282853,0.46479469,-0.45626468,0.38802866,0.17601409,0.31449661,-0.25566892,0.36185877,0.22700852,-0.22749675,-0.25470029,0.21242525,-0.39915908,0.49544282,0.17462995,0.13996025,0.33905468,-0.20970180,-0.21403569,0.37617949,0.23229601,0.29344889,0.26413154,-0.25702433,-0.30549764,0.43232474,0.29512901,0.33907111,-0.05185188,-0.15027383,-0.35101105,-0.30539280,0.10059576,-0.48094807,-0.10374533,-0.21849110,0.46511918,-0.35876970,0.37202054,-0.09104523,-0.21598867,-0.26243619,0.40144873,0.44326610,0.04807853,0.38462147,0.15082299,-0.07926850,-0.07092019,0.38372822,-0.25880298,0.08100677,-0.19557340,0.42832111,-0.42087185,0.23809259,-0.24289941,0.39203240,0.17814732,0.27837282,0.34171342,0.33286851,0.23920444,0.24879730,-0.11436579,0.05201475,-0.44680554,-0.04489615,-0.41161856,0.37501491,-0.27363824,-0.26328154,-0.37655708,-0.16308216,0.13856260,0.34977731,-0.28811478,-0.25084139,-0.33849358,0.17169620,0.42146411,0.36044831,-0.20718875,0.01401947,-0.19214993,0.45641345,-0.35556177,-0.13824449,-0.18797848,0.04271706,-0.08920547,-0.36491536,-0.04672008,-0.02517492,-0.48906745,0.22507332,-0.37298016,-0.25450067,0.09123872,0.41946419,-0.40127082,0.43498742,0.20274213,-0.00550384,-0.43128059,0.36804609,-0.11170341,0.15214317,0.23177695,0.00062319,0.45379095,0.38815302,0.25908478,0.36031862,0.29653992,-0.25475788,-0.12289842,-0.23021766,0.21092324,-0.17034141,0.22561757,0.27890271,0.00113289,0.14797104,-0.22521489,0.13769591,-0.36932103,0.42156540,-0.28524604,0.15039928,0.12508984,0.39800533,0.15596110,0.03974826,0.03606436,-0.33575870,0.21008118,0.49523902,-0.22331995,0.15531390,0.33019565,-0.39798073,-0.39561738,0.31043127,-0.18641158,-0.49322835,0.32728015,0.04903257,0.06164703,-0.46231478,0.02589904,0.32751406,-0.04195185,-0.05879963,0.40193708,0.44399462,0.48583708,0.47517660,0.19944735,-0.08198203,-0.35209770,-0.02023425,0.03951524,-0.07507926,-0.26746907,0.12096290,0.33961060,-0.35456820,0.03402901,0.19676230,-0.42899081,-0.33768735,-0.06786078,0.49311253,0.46771799,-0.01881139,-0.49018016,0.01383999,-0.07333767,0.11635045,0.24401571,-0.48631368,0.27035383,-0.29063353,0.13288837,-0.11995698,0.44515835,-0.46171873,-0.20722803,-0.24092193,-0.20530035,0.06608572,0.24536360,-0.22559829,-0.29834821,-0.52511579,0.42447227,-0.10753353,-0.23656670,-0.15878967,-0.11627781,0.47883465,-0.18573622,-0.37872922,-0.20476210,-0.04776317,0.25381166,-0.01514352,-0.04444200,-0.08851239,-0.05110540,-0.04902090,-0.34899517,0.41044459,0.29702417,0.45410381,-0.08697286,0.26613712,0.27749292,0.45404014,0.17136180,-0.44867771,0.33816643,-0.27386064,0.42341605,-0.02125637,0.25781825,0.36990892,0.40330758,0.39246369,0.25970904,-0.30054491,-0.11632512,0.43060276,0.14587285,0.08946570,-0.41256506,0.07852370,-0.43446576,-0.33176212,0.15068820,-0.04197978,-0.32912082,0.15330582,0.21263182,-0.27452863,-0.13878138,0.15173636,0.30637743,0.09902709,0.17160119,-0.13311053,-0.01144570,-0.13530088,-0.25603922,0.51197248,0.10295955,-0.32344780,-0.20534168,0.24142507,-0.01991602,-0.24513802,-0.39366799,0.37921341,-0.45872373,0.27701167,0.11829780,0.35084902,-0.21302101,0.28745388,0.19571006,0.47940446,0.12260082,0.19773322,-0.17069460,0.16950365,-0.36153625,-0.22879966,-0.55346178,-0.12541257,0.18473784,-0.23060810,0.44618861,0.19739204,-0.18489970,-0.08322408,0.41612761,0.47170239,-0.27205065,-0.22753233,-0.11308278,-0.39809780,0.23272130,-0.49129705,0.07411551,-0.42667815,-0.23852337,-0.06843583,-0.36607785,-0.32817661,-0.20820435,-0.13974671,-0.26062865,0.05546894,-0.22340514,-0.59119961,-0.29728814,0.39309063,0.08878677,0.38450909,-0.22617902,0.33225118,-0.10397262,0.32997054,-0.38860782,0.29106440,0.00393903,0.46413120,0.41499989,0.22483021,0.06883928,-0.08819745,0.18932119,0.50233052,-0.33391252,0.53378527,0.30381230,0.11792802,0.03258168,-0.51561576,0.25320098,-0.07371450,-0.20281249,-0.51364783,-0.24881750,0.32298105,-0.14052822,0.20106706,0.27044162,0.01429943,-0.52265764,-0.18149823,0.17920372,-0.14443869,0.50133160,0.10910962,-0.22101647,-0.10235800,-0.20646073,0.48311009,0.22190482,0.45913025,0.00044083,0.03939678,-0.41141678,0.12932193,0.23710187,0.38952804,-0.25196319,0.38599772,-0.25533102,-0.38590409,-0.20836697,-0.27703448,-0.40358545,-0.09555554,-0.18747904,-0.36482431,0.41101324,-0.16222584,0.23759978,-0.20698519,-0.08941167,-0.25075044,0.47435835,-0.04103542,0.01823651,0.23128969,-0.08683585,0.19283777,-0.00599484,0.24784755,0.06822376,-0.21961813,-0.34866145,-0.05122914,0.24613566,-0.42471639,-0.32290856,0.30081585,0.56962517,0.05136748,-0.46105986,-0.23353605,-0.22798280,-0.20576155,0.18358790,-0.39251375,-0.41846977,0.37181115,-0.06396967,-0.43359542,-0.04769543,-0.12226491,0.20558744,0.19879278,-0.01357448,-0.36047520,-0.40506877,0.41563702,-0.21447029,0.25381376,-0.26468287,-0.00820830,-0.37882275,-0.03895077,0.07385300,0.20327154,0.42744863,-0.34073996,0.40367278,-0.19102542,-0.47427619,-0.48150342,-0.37135625,-0.37374855,0.37205422,0.16061347,0.22038518,-0.15822032,-0.39134113,0.15784768,-0.24089047,-0.16659234,0.23163682,0.45914668,0.11586047,0.24797027,0.07817544,-0.07445756,0.24659568,-0.04619150,0.29572056,-0.42082119,-0.41282892,0.04166575,-0.22899091,0.30405302,-0.41316449,-0.36231676,0.30842484,-0.52689568,-0.36238742,-0.37593612,-0.31543509,-0.04263551,0.22230350,-0.32563549,0.12872243,-0.09612583,0.32789974,-0.06065670,0.39670068,0.28517345,0.26286781,0.04093917,-0.06464184,0.05516477,0.31614103,0.23143323,-0.19929533,-0.37705088,0.35841509,-0.25897174,-0.16384875,0.37760513,-0.53075427,-0.53658245,0.04519467,0.03800550,0.34196833,-0.04655274,0.38999653,0.43023060,0.43197625,-0.03073857,-0.33812676,0.27586706,0.26636066,-0.11273601,-0.01591564,-0.34729753,0.17576018,-0.26802748,0.30921141,-0.11705290,0.23496905,0.15731588,-0.13720639,0.16432002,0.43822831,-0.04254645,0.16607542,0.05175690,0.23880707,-0.26277580,-0.24426812,0.27520578,-0.06317285,0.28963808,0.16136607,0.41478405,0.20925695,0.40455388,0.02178703,0.48538478,-0.45475401,0.05420113,0.25561752,0.43539813,0.22063422,-0.05357917,-0.16008601,-0.20858844,0.46266882,0.53359034,-0.29217742,0.30932273,0.08009934,-0.15260905,0.42708300,-0.45911857,-0.26061352,0.41170641,0.05779670,-0.33465163,0.38170106,-0.17666480,0.44420641,-0.19314862,-0.35970395,-0.03581184,0.06323618,0.06534820,0.48902185,0.23892419,-0.11066324,0.18321398,-0.23288980,-0.26733158,-0.09506233,0.47896779,0.08282162,0.21036514,0.28540231,0.37530366,0.57236080,0.05459823,0.12348416,-0.09206278,0.20058973,0.40227750,0.18315418,-0.23195018,0.23394720,-0.36650461,-0.19152840,-0.38574319,0.02870126,0.28167883,-0.30466231,0.35351160,0.36238163,-0.29339048,-0.10419879,-0.17170417,-0.21066823,0.32825804,-0.33255451,-0.00069274,-0.07374225,0.37667070,-0.15871672,-0.06649313,0.16931122,0.06771709,-0.41226469,-0.10749075,0.42866131,0.25841649,-0.42642395,-0.17310314,0.35036505,-0.27957407,-0.25291307,0.16189030,-0.22771090,-0.30412531,-0.01513282,-0.38285467,0.09381499,-0.05351870,-0.34782636,0.09080858,0.46132072,-0.16402072,-0.04369316,-0.35891001,0.17373013,0.05086582,-0.18142336,-0.14103264,-0.26775488,-0.33802031,0.28898384,0.18112608,0.18521519,-0.12659400,-0.03817274,-0.39828056,-0.44973867,0.38500829,-0.11752422,-0.26466824,-0.39461968,0.34986664,0.38633182,-0.21270065,0.37075176,-0.10888492,0.04734124,0.27428421,-0.35904729,-0.19000742,-0.42292709,-0.34428447,0.18529941,-0.21824880,0.16599869,0.21059874,-0.06649769,-0.21579127,0.00752288,-0.38644420,-0.35229164,-0.25697029,0.23669231,-0.06692408,-0.30294241,-0.25381761,0.11250077,-0.11624097,-0.46302930,-0.02718490,-0.39279107,0.39891211,-0.32896135,0.14363713,0.21751042,-0.01419367,-0.48148617,0.17296060,-0.44401800,0.23352694,-0.27967824,0.00034111,-0.13259866,0.46251086,-0.38990732,-0.34959668,0.34455626,0.37719986,0.45371755,0.37366535,-0.32141686,-0.40309224,-0.02682576,0.19048328,0.21021202,0.04926810,-0.39994542,-0.36390065,0.11168149,-0.03850602,0.22856839,0.08598939,0.27542436,0.23055902,-0.21558906,0.01337973,0.11975772,0.05773772,0.24612978,-0.11873303,0.42979143,0.44957402,0.10058427,-0.54924028,-0.07979895,-0.37140437,0.29773154,-0.25682052,-0.38161174,0.45257059,0.43525028,0.29981979,-0.18752306,0.23603656,0.26478313,-0.00701278,-0.31896285,0.27455241,-0.09967060,0.43969565,-0.27073663,-0.26935993,-0.04223733,-0.10127139,0.13788629,0.28878666,-0.31278875,-0.49371437,-0.28008418,-0.25115024,0.36523999,-0.13920663,0.25170756,0.33434255,-0.36799336,0.44394764,0.07475397,0.28672861,-0.37857407,-0.29391822,-0.24522955,-0.29534275,-0.11873934,0.25395167,-0.21412643,0.34875795,0.29729492,0.43894138,-0.29705796,0.31343925,-0.40443276,-0.50751064,0.01316510,0.29095426,-0.13673387,-0.26345863,0.00602325,0.26165202,0.27635017,-0.50508674,-0.07638626,0.36727466,-0.29168047,-0.27011386,-0.06998321,-0.36174498,-0.07673703,-0.20768976,0.00759110,-0.29008910,0.43898944,-0.37950225,-0.39234423,0.19630506,-0.18882397,-0.03741242,-0.41506851,0.48341383,-0.07461432,-0.19146802,-0.02684663,0.19346311,-0.27476165,-0.45372816,-0.45462054,0.13787170,-0.44661911,0.19418799,-0.24163214,0.16273288,0.36250336,-0.29245095,0.30722170,0.12381807,0.09156481,-0.48126520,-0.48163683,0.07772722,-0.28697890,-0.18434994,-0.33968357,0.42496289,-0.35670402,0.47795105,-0.24341116,-0.15005366,-0.39232256,-0.02902625,0.01249933,-0.50230825,-0.28767728,-0.12563768,-0.21548244,0.05126468,-0.03616627,-0.14746318,-0.25742198,-0.26212425,-0.11465537,-0.12689440,-0.11892226,0.36924406,0.17055094,0.46431574,0.27101937,0.21869994,-0.32051997,0.41430035,-0.21105305,-0.46234880,0.20033712,-0.03157297,0.40480747,-0.34331418,0.13209325,0.20732639,-0.07096103,-0.10401775,0.23805994,0.19204711,0.29042017,0.35477363,0.09579882,-0.08423439,0.15751405,0.42185963,-0.13341964,0.27975076,0.04123049,-0.25231603,0.46575161,-0.21132148,-0.27807477,-0.43108187,0.28696399,-0.38188812,0.38813610,-0.24853455,-0.26525136,0.09569946,0.45712406,-0.29415060,-0.36943034,0.49084123,0.05278444,0.21663155,-0.16985805,-0.06231976,-0.29417571,0.28348412,0.45252701,0.10180404,-0.47537723,0.36896312,-0.06357941,0.12663632,-0.40749094,-0.46049423,-0.33981621,-0.05479682,-0.38700644,0.33365709,-0.29112783,-0.09558390,-0.41564436,-0.41938658,0.49909419,0.07260801,-0.25219370,0.44394120,0.31851483,0.34494430,0.32318819,-0.23522235,-0.36100845,-0.37406476,0.24983293,-0.34343904,0.15087106,0.36737940,0.21815447,-0.06279552,0.30373058,0.46945475,0.35560451,0.01016549,0.30083257,0.47544989,-0.26938453,0.25608838,-0.44912934,-0.30327994,0.34850460,0.03356417,0.16963909,0.45858006,-0.25955404,-0.08793065,0.43530999,0.39889813,-0.00895309,-0.28463351,-0.02175471,-0.31441540,0.34835467,0.00127538,-0.14286802,-0.21403038,0.05761251,0.37144025,-0.25724046,0.48020524,-0.34438555,0.07183933,0.19854844,0.34901711,-0.08987756,-0.37751875,-0.21870444,-0.31402365,-0.44668963,0.00447997,-0.22855748,-0.49888029,0.08068168,0.37149408,0.35079070,-0.32860214,0.29272859,-0.46517103,0.32262771,-0.00592851,0.34496053,-0.42519144,0.37172224,-0.17963812,-0.28763818,0.32392639,-0.16983611,0.05128875,0.39106305,0.39545803,0.14100132,-0.17892518,0.32169191,-0.23337702,0.08772773,-0.49853045,0.23980726,0.45087188,-0.39140450,-0.24114889,0.19086410,-0.49990918,-0.30781229,-0.34934252,-0.20899395,0.21036541,-0.25088987,-0.30713383,0.48089271,-0.14425501,0.27205221,-0.11243801,0.47540653,-0.13854868,0.15012578,0.44800707,-0.02034301,0.30803000,-0.39361857,-0.21114507,0.26355645,0.07315999,-0.20736636,0.18600664,0.12826781,-0.04214574,0.41938236,-0.41370907,-0.37097833,-0.27048269,0.24765256,0.20749082,-0.13081458,0.27564855,-0.27811076,0.17850899,-0.25402836,-0.36200104,-0.22638495,-0.12089756,-0.04552865,0.36754504,-0.45869973,-0.10499549,0.11615128,-0.26541911,-0.14463774,0.19192653,0.27552330,-0.45160112,0.17230441,-0.32054967,-0.34415020,-0.08563419,0.34275955,0.11958139,-0.35307023,-0.49499662,0.01609860,-0.27496369,0.29667188,0.03098264,-0.32962438,-0.34676344,0.40221979,-0.23357782,-0.39797684,0.54577515,0.05192706,-0.42391740,-0.44462204,-0.09604558,0.08075409,-0.12532978,0.33021932,0.11471425,0.20815869,-0.14593357,0.28171847,-0.19599071,0.02007209,0.47090849,0.25226674,-0.32899448,-0.42960824,-0.09103867,-0.06209966,0.20949675,0.49245383,0.02632415,-0.04299469,-0.12592732,-0.35845765,-0.22736215,-0.13036222,0.02423990,0.40578074,-0.33560996,0.23196377,-0.36396812,-0.14946100,-0.11753452,0.31968203,0.19209733,-0.47820766,0.41601502,0.08890138,-0.26782224,-0.20000574,0.33660825,-0.26117104,0.28065927,-0.38403418,0.47740428,0.41050501,0.16268895,0.29956134,-0.33051460,0.32058554,0.23437681,0.16575740,-0.32494269,-0.15856351,-0.15909440,0.35705096,-0.00395515,0.46125445,0.06470290,0.06225953,-0.41592184,-0.32032890,-0.53645865,-0.08510510,-0.02758536,0.30581445,-0.43241784,-0.44132071,-0.22480899,0.35341024,0.45811640,0.08418659,0.02968968,0.44227691,0.25792922,-0.25002958,-0.39702436,-0.06038796,0.24442229,-0.25349535,0.12762271,0.43867906,-0.03532620,-0.02361291,-0.30921656,0.33812589,0.36506884,0.26841106,-0.06816489,-0.28620292,-0.05317485,0.38766589,-0.45676108,-0.20313845,0.24018525,-0.47537214,-0.37387049,-0.16938083,-0.20805172,0.02530191,0.28673351,0.29871165,0.10199212,-0.30021131,0.38086718,0.08116796,-0.10132422,-0.20562458,0.38060274,0.41055177,0.27444481,0.45518527,-0.02765837,0.06491421,-0.32390723,-0.21892163,-0.03620725,-0.16076583,0.16255188,-0.49682334,0.23387223,0.43513160,-0.43303505,0.21276977,-0.31105605,-0.30713497,-0.46420245,-0.00153703,-0.00349229,0.31171200,-0.39555082,-0.38129852,-0.26231529,0.40521237,-0.42160752,0.51568189,0.24781836,0.36682996,-0.00750882,0.35925275,0.27576887,-0.13165537,0.13632944,-0.09026619,-0.10055894,-0.43232429,0.44703663,-0.35032267,-0.21910605,0.35966484,-0.35116290,-0.11470291,-0.33385708,-0.26854899,0.31832753,-0.34383135,0.32647689,0.31921073,-0.22239394,-0.33195761,-0.08396516,0.22301634,-0.28536049,0.39037374,0.21217609,0.50972620,-0.42415166,0.37589587,-0.12705471,-0.33912577,-0.01908168,-0.28172331,-0.31474580,0.43325765,0.17654001,-0.29324477,0.37488931,-0.08905364,-0.23510595,0.35797791,0.13968374,0.04632872,-0.36598525,0.50703999,0.11694999,0.35049420,-0.34501309,0.46169546,-0.16119467,-0.50522111,-0.16407272,-0.34300759,-0.28385115,-0.56633717,-0.34183043,0.08073243,-0.23294821,0.28308906,0.41890718,-0.32930175,-0.02444243,0.32311062,-0.37897610,-0.08460032,-0.34244529,0.44424943,0.27284627,0.29870768,0.03252322,0.18152819,0.32055207,-0.00403186,0.48798397,-0.24681714,-0.17400335,-0.15940824,0.34614635,-0.23467183,-0.06024911,-0.46797125,-0.42166218,-0.16758447,-0.59582950,0.13078364,-0.21518801,0.39098109,-0.16154171,0.44296950,0.22190959,-0.13241932,0.23126299,0.48095709,0.02701699,0.04703996,0.31216941,-0.04078196,0.45419746,0.32046654,-0.19250971,-0.42990436,0.40473439,0.21389734,0.13382016,-0.00027973,0.25546669,0.18729849,0.14514544,0.21662014,-0.17802263,-0.09683398,-0.63997550,-0.37528982,-0.12560090,0.05627754,0.55918953,0.11139101,0.55627262,-0.28885385,-0.26069992,-0.19740751,-0.39603866,0.27923422,0.49737312,-0.09850049,0.37803306,0.16629185,0.47357465,-0.20265838,-0.39423390,0.00962641,0.09160135,-0.06313228,-0.15211219,-0.38869046,-0.41125587,0.46891958,0.21590737,-0.07334942,-0.53411495,-0.52221831,-0.15062433,0.12048635,0.33831887,0.15127265,-0.23664832,0.11394914,0.49067102,0.14778372,-0.03053732,0.32169454,-0.02540631,-0.23062947,0.31212392,0.44405194,0.39090464,-0.06230295,-0.28896047,-0.02390939,0.52373483,0.04487257,0.35309664,-0.27878840,0.42974792,-0.09490597,0.21320797,-0.24233336,0.22623747,-0.48466272,-0.02222325,0.00724823,0.42639642,0.51775387,0.18944180,0.16891496,-0.23664176,0.51510309,0.50790999,-0.14844344,-0.09719008,-0.05040313,0.21115651,0.17735148,-0.15917365,0.36018103,0.11451192,-0.05914772,-0.03474798,0.19962548,0.03289297,-0.10802177,0.34493036,0.12389147,-0.03593865,-0.12651896,0.38282778,0.39930489,0.12524506,0.36670884,-0.01163388,0.10682372,0.00392778,0.14019389,-0.28152797,-0.22458404,-0.10335120,-0.21100346,-0.00368967,0.17307564,-0.20403668,0.01581747,-0.11741179,-0.32641110,0.15791905,0.44815814,0.15988182,0.42778840,0.51899532,0.39387074,-0.15151213,0.63415273,0.54151172,0.60252695,0.33156599,-0.00180486,-0.37819741,-0.31123823,0.32394834,0.21292447,0.52522394,-0.31736791,0.39124529,0.33910377,-0.27551119,0.03374636,-0.20631739,0.42418150,0.22518526,-0.15226027,0.23538966,0.21937988,0.06923129,0.48835747,-0.01898852,-0.37923482,0.10585433,0.42740896,0.49197065,-0.24195327,0.24708275,0.53124710,-0.39782660,-0.45260673,-0.02424212,0.10739375,-0.15435464,0.16642617,0.23014338,0.37854896,-0.29635249,0.07489161,-0.17542308,-0.35472449,0.47202785,0.08537664,0.39112534,-0.13143621,-0.49706307,-0.18616707,-0.15161129,0.11474313,-0.05412392,0.27279930,0.44670287,0.34194044,-0.04402765,-0.15542660,-0.22293897,0.41829830,0.29084308,0.03549122,-0.51304782,0.05277572,0.36788108,-0.04181706,0.03690966,-0.31454428,0.06489460,-0.30103441,-0.21606445,-0.07479198,-0.27484436,0.28215311,-0.10451974,0.33780853,-0.42972370,0.00297094,-0.14807003,0.29954900,-0.11307018,-0.47531338,0.08550078,0.19811634,-0.08339089,0.21467846,0.38156972,-0.01048881,-0.31668499,0.25903521,0.43863516,0.17161272,0.01173110,-0.36574439,-0.07598670,-0.37585371,0.10523414,0.24564906,-0.02025088,-0.38323378,-0.13507703,0.21459264,-0.25214338,0.43173988,0.46479334,0.48421217,-0.10319401,-0.19944915,0.34066163,0.07769084,0.32097014,0.16739263,0.04323368,-0.46894027,-0.16964950,-0.10354840,-0.17671067,0.26820198,-0.18328079,-0.33222783,-0.37851838,0.28422679,-0.07839684,0.35615936,-0.08170880,-0.02491675,-0.38259621,0.12431163,-0.48018084,0.26918568,-0.16579201,-0.19788335,-0.18120983,-0.03036287,-0.32727626,0.00663172,0.12793509,0.31099518,-0.28601484,0.22103784,-0.15004534,0.38393559,-0.16676394,0.33056912,0.18168929,0.25843700,-0.30502265,-0.28797490,0.07936238,0.10289399,-0.24035906,0.39289859,-0.28476527,-0.38115188,0.44534800,-0.48669455,-0.30543189,0.19490524,-0.38689114,-0.17295250,-0.14688206,0.43325369,0.07684336,-0.30331321,0.25900059,0.06848004,0.03635263,0.17631794,0.24057064,0.19394150,-0.10822383,0.37323294,0.36336203,-0.24525332,-0.19954643,0.00481741,-0.30110288,0.10469652,-0.34625867,0.43107399,-0.17078350,0.36299270,0.33869666,-0.14509135,0.37016269,0.04024761,0.03353920,-0.26477090,-0.44110627,-0.37029702,0.43308867,-0.32380651,0.31855303,0.04581928,-0.47677055,0.12689382,-0.43253974,-0.31946158,0.30238666,-0.10707313,0.43593990,-0.21870417,-0.40990514,0.30365663,-0.29895419,-0.29506250,-0.01101099,0.07578628,0.14926963,0.06464019,-0.10542170,-0.10461562,0.40527198,0.18931918,-0.26926884,-0.25436369,-0.26894619,-0.10404572,-0.09624538,-0.25764500,0.22104037,-0.24934804,-0.00952927,-0.13044807,-0.24408551,0.46673933,-0.38931542,-0.22586073,0.23184794,-0.04347279,-0.42436100,-0.14832277,-0.31785935,-0.47590555,-0.46494566,0.12266223,0.34871827,0.42977615,0.04133523,0.15476435,0.37200267,-0.07106041,0.34949374,-0.07784528,0.00117225,-0.41123278,0.46567470,-0.12325942,0.32277160,0.13010116,0.07713928,-0.29472409,-0.41339044,0.34170364,-0.36782627,-0.06760437,0.04710389,0.37226112,-0.25510207,0.26109906,-0.21925785,0.25590391,-0.07777072,0.12965458,0.12069805,0.35153902,-0.48821805,-0.19244905,0.38103408,-0.49568626,0.41244196,-0.22608876,-0.32411115,-0.17194015,0.40374331,-0.17821767,-0.14884568,-0.02019026,-0.49284826,-0.29689401,-0.37299453,0.12195426,-0.11040651,-0.46199045,0.45026108,-0.26403010,-0.15124129,0.17297966,-0.41142521,-0.19311643,0.44735968,-0.46321037,-0.44604482,0.23324754,-0.37295355,0.17807885,0.14670514,-0.07729623,-0.16671423,0.16666423,-0.13820947,0.06136506,0.08537016,0.18380182,-0.41387614,-0.27689123,-0.40073306,-0.20354541,-0.41673061,0.19622692,0.11074469,-0.05849724,-0.00657264,-0.45639868,0.10893850,0.42792217,-0.48963066,0.35604539,0.42618176,-0.40218103,-0.25613619,0.29059054,-0.14688665,0.36141757,0.07540908,0.27939870,-0.06621607,0.13841334,0.21236296,-0.10437266,0.25809675,0.34060546,-0.30539583,0.03336728,-0.14494444,-0.17846671,-0.17120788,0.13806089,0.13457821,-0.43175884,-0.44694623,-0.35046436,-0.25767647,-0.27612937,0.03280290,-0.40162701,-0.48808833,0.41595880,-0.02224840,-0.47342911,-0.49526911,0.23437567,0.14565427,-0.18356804,-0.01594743,0.41132535,-0.36382999,0.22878271,-0.19984339,-0.37416381,0.20064658,0.11723511,0.04762900,0.31157581,0.05304120,0.00754140,0.44784785,-0.42460160,-0.24313750,0.16100005,0.05549191,-0.13849720,0.46763198,-0.49982877,-0.08507600,-0.09590440,0.02444141,-0.14507263,0.44293604,0.26414690,-0.37183383,-0.29017837,0.29948807,0.14427997,-0.43101410,0.39551619,-0.23611281,-0.01187769,0.47708439,0.44543893,0.48243999,-0.04265912,-0.13255906,-0.24208727,0.34948212,-0.07993668,-0.03798359,0.17131253,0.51661008,0.16722684,-0.10665232,-0.20095075,-0.34395686,-0.43683889,0.14738018,0.01082085,0.29271589,-0.25215232,-0.35638766,-0.08660969,-0.44603236,-0.00152269,0.22800870,-0.48314972,-0.42381116,0.31546751,-0.12465263,-0.27489232,0.43506106,0.12061222,0.45145190,-0.42771087,-0.43479072,-0.10642494,-0.38519016,0.13644767,0.39420154,-0.40645832,-0.03496685,-0.15219867,0.46351006,-0.22795406,-0.49779911,-0.40406646,-0.08856588,0.45097681,-0.12447107,0.07596688,-0.02856374,0.02884830,0.20666993,-0.06364937,-0.12595331,0.03555167,-0.33199256,-0.21446156,-0.09948217,0.26420614,0.48984047,-0.14995051,-0.38150538,0.19164345,0.28579444,0.10371587,0.19758424,0.28392733,0.44865325,-0.28222518,-0.24931144,0.29677182,0.10593055,0.39005627,0.16743730,0.29563500,0.39838997,-0.23454246,-0.49024873,-0.49359627,-0.46187087,0.09367767,-0.00992777,-0.41270082,-0.09997603,-0.09867974,0.06828909,0.01911554,-0.19013143,-0.05096261,-0.29802534,0.06436350,-0.37343544,-0.09689402,0.30107142,0.05453711,-0.22313727,0.28211662,-0.33101471,-0.50743250,0.33889563,0.31561455,-0.20700143,-0.08997270,0.24525631,0.38089720,-0.42628985,0.40469269,-0.14298420,-0.10045796,-0.24091522,-0.13630048,0.41539221,-0.25174620,0.46525257,0.36291144,0.03381683,-0.20590418,0.05316712,-0.29493776,-0.51618022,-0.08235127,0.18019029,-0.29438807,0.43123992,0.26941246,-0.18099274,-0.46018538,0.05187239,-0.25399554,0.36931311,-0.14126156,0.20894779,0.15431996,-0.47094922,0.07008250,0.44925711,-0.27831665,0.05161154,-0.45150966,0.45020663,0.03472200,0.39637275,0.01933614,0.11331964,-0.09175762,-0.01018778,-0.11994082,0.35760630,-0.06869905,0.47749778,0.47057917,-0.34211780,0.20683632,0.07746661,0.30773305,0.01352490,0.28364987,0.23267468,0.13616663,-0.43087858,0.13376704,-0.22527029,-0.19045358,-0.16643063,0.03863189,0.49109882,0.25629331,0.21054473,-0.15659365,-0.08441614,0.20486927,-0.37533666,-0.00081784,-0.50801225,-0.23879590,-0.53461306,-0.08634905,-0.24397861,-0.02249971,-0.26624018,-0.31547201,-0.11059544,-0.14784406,0.34407006,-0.48173082,-0.34854164,0.16212143,0.25951661,0.14403037,-0.42298105,-0.44284595,-0.42841382,-0.13070638,-0.42671876,0.29413923,-0.41256427,-0.07008643,-0.35320025,0.30183543,0.05356875,-0.36038137,0.37006729,-0.37956094,0.13087841,-0.18851405,-0.04264381,-0.12797353,-0.39101574,0.05666094,-0.42204752,0.13015618,0.05505712,-0.29224248,-0.08293217,-0.25652749,-0.41567909,0.46071608,0.39282671,-0.16672199,0.02471689,-0.33002387,0.26216071,0.48856207,-0.25711272,-0.08115645,-0.33391550,-0.33931487,-0.39889878,0.03761631,0.28042630,0.38781848,-0.33817738,0.48762533,0.44131916,-0.38044195,-0.04458316,0.21069765,-0.39959743,-0.22427026,-0.25487723,-0.06989463,-0.04517435,-0.33456809,0.43799125,0.19149101,-0.49505814,-0.20193524,0.21028396,0.29961778,-0.08117880,0.33433550,-0.42153908,-0.26484742,0.06620141,0.15301366,-0.33602920,-0.19704144,-0.07936980,-0.07467394,-0.40102555,-0.02683101,0.11677429,-0.28174575,-0.24351016,0.50759366,0.07597329,0.15662520,0.49166806,0.40120968,0.09569842,0.32345758,-0.11246089,-0.35030092,-0.12754629,-0.27029053,0.23478162,-0.02496938,-0.44754850,0.15600654,-0.33539760,0.28116308,0.19525221,0.18096639,0.47458952,-0.28023705,-0.14969154,0.25397190,0.44155945,0.43831458,-0.24189948,0.00167914,0.23113849,-0.06305562,-0.14980994,0.36537432,-0.36392211,-0.38374442,-0.18609749,0.44837054,-0.29189926,-0.41545940,-0.17968649,0.41901192,-0.37363212,0.06013219,-0.43061404,-0.29501745,0.00681625,-0.19071298,-0.07675407,0.11938508,-0.29543325,-0.32386718,-0.07285959,0.30255794,-0.08117280,0.04552223,-0.40552528,0.22131840,-0.12640616,-0.15396503,0.00249391,-0.24052519,-0.11234706,0.43972362,-0.16450436,0.41328841,-0.22367159,0.25152752,-0.15721821,0.02848785,-0.33363083,-0.44852383,0.33709611,-0.01753222,0.34659307,0.39736494,0.40724267,0.51567356,-0.04731422,-0.28138435,-0.06187800,0.46921534,-0.09745880,-0.22566846,-0.05532671,-0.05985986,-0.33369625,0.48631623,0.37825391,0.47852992,0.48629073,0.14175778,-0.27356625,0.29436614,0.28229119,0.14847402,0.11383936,0.22698339,-0.30204608,-0.18031613,0.37562963,0.20768042,0.43769900,0.46231068,-0.30298614,-0.32825456,-0.45131126,-0.02925786,0.05574130,0.05007714,-0.13598340,-0.46911680,-0.14103472,-0.41550180,-0.30925014,0.46800675,0.01396300,0.06416497,0.43597016,0.40549825,0.38675535,0.37825564,0.05638945,-0.30399658,-0.03178994,-0.39189673,0.21994918,-0.24315239,0.18560989,0.10207536,0.34542554,-0.02896190,-0.11274992,-0.29015912,0.28625231,-0.28183950,-0.15914540,0.20070975,-0.29140551,-0.05121444,0.30549919,-0.09081261,-0.17287886,-0.42709345,0.10592553,0.31223251,-0.03297360,0.27114974,0.20247997,0.29652802,0.41215713,0.16372419,0.08062420,-0.42847299,-0.49482102,-0.37722609,-0.28783427,-0.38091713,0.25951314,0.49567344,0.31946576,-0.24490500,0.00321141,-0.05663548,-0.04745230,-0.01549989,0.37593077,-0.48840751,0.48891647,-0.20565142,0.16603547,0.00699256,0.08468440,0.21393862,-0.20700148,0.29332570,-0.14866559,-0.10520378,-0.03874024,-0.42407968,0.23063781,-0.10483939,0.05614245,0.31460359,-0.10093672,-0.36301076,-0.28246685,-0.23919050,0.48218585,-0.08408488,0.22727196,-0.26194247,-0.00534516,0.20864037,-0.39425506,0.22382417,0.32465269,0.02384228,0.31103456,-0.35700032,0.30081808,0.42218178,-0.22661292,-0.26089622,-0.44466524,0.42186026,-0.29622812,0.08208271,-0.07180435,0.38537554,-0.43411013,0.00485291,0.39239214,-0.23581440,0.31128646,0.13738448,0.28648330,-0.10475699,-0.10996991,-0.17207079,-0.28585779,0.18332545,-0.10949706,0.14588773,0.44325775,0.52865043,0.20482397,-0.44702734,0.13165734,0.09504866,0.52773534,0.15427149,0.33525771,0.42220053,0.07426609,0.35673564,-0.38187532,0.03766157,0.08189260,-0.46245932,0.26179309,0.10719019,-0.33754547,-0.34520965,-0.47119750,-0.18511113,0.12420383,-0.36373876,0.38062188,0.23347482,-0.16262234,-0.35366375,-0.11888434,-0.03632348,0.10860119,0.31330704,0.14905674,-0.06886838,0.22162245,-0.44871816,-0.41352581,0.22684318,-0.09467453,-0.45893640,0.02929881,-0.24453246,0.00091582,0.32358949,-0.48899786,-0.31641586,-0.11058523,-0.34929816,0.18842168,0.16564697,-0.25656810,-0.27111259,0.03305874,-0.12675670,0.07895043,0.15631648,-0.17033621,0.48755782,-0.10760135,-0.11386248,-0.41694392,-0.13437322,0.16217457,0.48949676,0.18905448,-0.09126610,0.37624124,-0.14749463,0.16593736,-0.19192253,-0.16603894,-0.49785023,0.05628481,0.17062945,-0.26216161,0.01473345,0.45540418,0.41379130,0.44657625,-0.15955176,-0.46040800,-0.29677165,0.34372922,-0.33979586,-0.44069793,0.27556178,-0.09232215,-0.39886142,0.26939065,0.26108850,-0.42237108,0.29336466,-0.33115966,-0.43299378,-0.31173377,0.05193236,0.06278991,0.16974231,0.07815612,0.20960745,0.07161248,0.23255626,-0.12969492,-0.18359168,-0.45280771,-0.30265211,-0.35971687,-0.35253849,0.06058885,0.42025198,0.06665606,-0.17016670,0.11604929,-0.05710867,0.02101601,-0.34741199,0.29892513,0.20362750,-0.45936028,0.29620234,-0.49913269,0.08462441,0.46173280,0.08731193,-0.01584540,0.27976937,0.19689709,0.04583677,0.09177018,-0.11231780,0.19872090,-0.49799652,0.28817763,-0.35632368,0.35481796,0.48004865,-0.32984498,-0.48436565,-0.19710780,0.35065030,0.22777745,0.26940060,0.16232205,-0.48380471,-0.27103135,0.38702267,-0.03496581,-0.28848109,-0.01358276,-0.37597961,0.25457488,-0.15067015,-0.32574760,0.13437240,0.04821022,0.25103838,-0.40240594,0.21649951,0.11777792,-0.13060220,0.41751740,0.17925404,-0.02691423,-0.05160654,-0.02859756,0.18250892,0.17644621,-0.16662937,0.45377394,0.24276175,-0.00979251,0.49374205,0.27730939,-0.47688708,0.19117418,-0.43395440,-0.40832920,0.12495655,0.31950165,0.34437207,0.16684176,0.30512708,0.27091769,0.09703077,-0.21844389,0.20890944,0.16635717,-0.04592439,0.34581362,-0.38216924,-0.42826274,0.25504647,-0.25886728,0.15955592,-0.16894353,-0.40200869,0.40179360,0.00027299,0.14480476,-0.45935435,-0.01651864,0.11641410,-0.37786071,-0.38328430,0.09958814,0.48457530,-0.04115080,0.27064588,0.30434251,0.39155565,-0.02334093,0.12131143,0.22446220,0.32038088,-0.01822368,0.08119592,0.07078251,0.48334981,0.01202686,0.34932306,-0.10506499,0.39602929,0.35564507,0.19925834,0.02488802,0.34714338,0.01225906,0.16520511,0.24102079,-0.35653850,0.16669818,0.17027640,-0.38041089,-0.24401379,-0.06134989,-0.17287917,-0.36292728,0.07575485,-0.46909746,0.12102408,0.16487858,0.11416294,-0.43883398,0.39166898,-0.39767012,-0.07604643,0.05117948,0.32462051,-0.17670810,0.01058320,0.41638694,0.39387744,0.14625675,-0.02608278,0.45245438,0.40550173,-0.39523176,-0.28526827,0.36160023,0.00708574,0.39351388,0.08740016,0.28840646,0.41137393,0.20862871,0.11122732,-0.24021354,-0.01069359,0.43468465,0.17788956,0.04683725,0.35600572,0.26542271,-0.48680663,-0.19346142,0.00297333,-0.19393094,-0.43912974,-0.33126571,-0.20246906,0.24570989,0.50084719,-0.32241999,-0.43550984,-0.51484355,0.23435854,0.10769108,-0.06982135,0.42399346,-0.39737056,0.16724032,-0.46667421,-0.15131356,-0.00430547,-0.24320576,0.14928463,0.34047250,-0.00173100,0.30991172,-0.02027474,0.09604130,0.03858526,-0.22520941,-0.22449457,0.34353409,0.25771938,-0.32433378,0.50944962,0.18250926,-0.13735617,0.29499855,0.38101464,-0.40352588,-0.15784667,-0.50599808,0.35310271,-0.46608557,0.31284676,0.09757111,0.30245245,0.04446799,-0.11109249,0.47547627,-0.21046500,0.34595285,-0.00907426,-0.26059902,0.22883081,0.06764153,0.40475342,0.05833324,0.43859455,-0.26129844,-0.07947853,0.07837530,0.23251418,-0.29826979,0.34998956,0.27798741,0.13938323,-0.31033173,0.30918948,0.36679928,-0.12277120,-0.27161308,-0.16697786,-0.38794695,-0.43047549,0.21941133,-0.29652765,0.32100640,-0.07949120,0.32244358,0.18836902,-0.45624627,-0.34080897,0.05639519,0.01933854,0.01446839,-0.10663609,0.39057045,0.00128312,0.01394793,-0.24476894,-0.05585990,0.48675595,0.12664923,0.09249037,0.01266283,-0.03800725,0.00272967,0.40734421,0.37942132,0.43532372,0.43094495,0.28924845,-0.43043248,0.22559065,0.25495700,0.26212512,-0.21318245,-0.37590933,0.29163244,0.30727932,0.32099669,-0.41186329,0.56888179,0.49084682,0.02451123,-0.27942978,-0.17394550,0.26420600,0.12449226,0.32410437,-0.37801295,0.28706339,0.12211622,0.17483161,0.25751234,-0.06507590,-0.35326402,0.41994411,0.17032087,-0.17127193,0.26033257,-0.06875677,-0.28566754,0.00571310,0.42001931,0.47760736,0.41103749,0.40857676,0.37774389,0.03998621,-0.09935901,-0.01188733,0.16862769,0.58190911,0.04877224,0.39706154,-0.34085322,0.50760323,0.29543788,0.37939605,-0.26806373,0.02119965,0.02186677,0.30809090,-0.27094273,-0.28430446,-0.22393196,-0.49105851,-0.10988522,0.45387361,0.00039394,0.48992720,0.40824850,0.45759863,-0.53298340,-0.00929440,-0.25286669,0.08322167,-0.25485302,0.49080391,0.12686359,-0.27995535,-0.23575007,0.18643747,0.20115570,-0.37567830,0.37101524,-0.50087608,0.11767300,0.21669974,-0.01986248,-0.12628256,0.10646501,0.08753795,0.03052867,-0.03414469,0.08148911,-0.36278865,0.20025767,-0.24784953,-0.29411071,-0.23938204,0.34365126,0.21575501,0.44959935,-0.13722351,0.05985395,0.00052456,-0.65659947,-0.65960466,-0.59158678,0.12365098,-0.25571672,-0.12784453,-0.01728340,0.12442399,0.12756073,-0.41563972,0.42304825,-0.49544454,0.25185726,-0.09573284,-0.08591629,-0.47215049,-0.30382200,-0.07253471,-0.05926488,-0.26038413,0.03407893,-0.03669965,0.00851260,-0.08382719,-0.20160454,-0.27844116,-0.55245939,-0.44339556,0.05342216,-0.40996928,-0.22238012,-0.15210604,-0.43837118,0.43156059,-0.18949170,0.33196431,0.24563310,-0.03128291,0.47206544,0.45891490,0.24155828,0.26367239,-0.36377119,0.03503490,0.06572843,0.15822670,-0.27272173,0.23428312,0.18717080,-0.47584218,-0.12117512,-0.47200285,-0.46928401,-0.58040778,-0.76937184,-0.36124852,-0.36706934,-0.72668328,-0.05371789,0.00913738,-0.01790232,0.17930687,0.21008609,-0.37239891,0.14511034,0.38903286,0.24399102,0.42705045,0.12256696,0.34444583,-0.00939014,-0.44660239,-0.02531208,-0.08389656,-0.38991317,0.18117546,0.15197194,-0.41709220,0.21654775,0.02599324,-0.64345453,0.13800030,0.08380455,-0.68570797,-0.21314117,0.11496266,0.08054894,0.29618336,-0.31888809,-0.05608506,-0.21498767,0.16670468,0.36632521,0.18024147,0.35945101,0.29678155,-0.35482534,0.35557669,0.23360499,0.06794541,0.15945085,-0.14701352,-0.43300220,0.23382475,-0.32380330,-0.61550445,-0.42015063,-0.18087957,-0.45094570,-0.29841934,-0.00923166,-0.27837673,0.22077544,0.39132648,0.30543736,-0.03856922,0.36957714,-0.06144340,-0.26321230,0.32997413,-0.42541266,0.02291496,-0.25033657,-0.15533204,0.43064490,-0.12385842,0.23956330,-0.42279240,-0.46555957,-0.30735108,-0.14462408,0.07967457,0.08429348,-0.08771744,-0.53616990,-0.50539471,-0.40662738,-0.10658709,0.43381499,-0.27292577,0.59452905,-0.17191856,0.17939945,0.40835510,0.05432858,-0.33573768,-0.15638774,0.06896322,-0.20777448,-0.23954932,-0.46432698,0.23971105,0.32140988,-0.44841701,0.16323033,-0.43042917,0.38474236,-0.24302590,-0.42082619,-0.40201099,-0.02252078,-0.27953096,-0.34512654,-0.48911882,0.07542140,0.25242210,0.23096153,0.38487856,-0.21606713,0.00288353,-0.04609828,0.16456464,-0.28722200,0.52833890,0.00622593,-0.32518859,0.26584071,-0.42076873,-0.35902354,-0.59815488,-0.19488383,-0.12374906,-0.13379812,-0.11629545,-0.29801291,0.46706698,0.48176732,-0.01727241,0.37843850,-0.20320153,0.01594192,-0.44302578,0.32970007,-0.09919743,-0.26038571,0.22695634,-0.13247985,0.48107081,-0.09882691,-0.12556668,-0.05715438,0.06053556,-0.21417853,-0.22392040,-0.15193652,-0.38699283,0.35873413,0.18424532,-0.39564412,-0.28551091,-0.42217978,0.34506508,-0.14519052,-0.44198802,-0.04770058,-0.20419893,-0.18479595,0.22170579,0.09429117,0.03324221,0.30975199,0.26951964,0.44567740,-0.12062932,-0.41929861,-0.04449018,0.11901113,-0.23553949,-0.38774131,0.09219083,-0.24368040,-0.06232938,-0.29138693,-0.39445055,0.03221087,0.08345299,-0.17560032,0.00234791,-0.28934271,0.45511502,0.45755635,0.05674910,-0.44049658,0.03889930,0.36894270,-0.02655283,0.50917744,0.15173775,0.09408849,0.01441583,0.48480398,0.28571932,0.16840368,-0.02454207,-0.44765272,0.08679531,0.34275593,-0.17111746,0.04197689,0.27698418,-0.20373560,-0.55228496,-0.23350345,0.02350377,-0.43179054,-0.09839520,-0.01260582,0.16289923,0.15319845,0.14054114,-0.35072492,0.33929015,0.52887243,-0.01487689,0.32551065,-0.12923324,0.14060325,-0.04916630,-0.21856057,-0.48158812,-0.52691357,0.14980988,0.27877747,-0.22357415,-0.37867923,-0.36098186,-0.38541697,0.03658024,0.04721604,-0.42263971,0.30438460,0.41548380,0.05384088,0.24820657,-0.38310844,0.45141195,-0.19502864,-0.41066762,0.07899230,-0.42918269,-0.17054910,-0.36180536,0.33304277,0.15165752,-0.33501143,-0.43040135,-0.42297024,-0.08954466,-0.12644291,0.40745001,-0.31731962,-0.08368496,-0.20670008,-0.25584579,0.31144772,-0.37962713,0.06182531,0.01196665,-0.13810348,0.47786894,0.38349489,0.45082656,-0.18588484,0.30455444,0.12353603,-0.06293006,0.10113268,-0.12259812,-0.14576659,-0.27755554,0.00788657,-0.28060128,0.16756040,0.05018801,0.08829158,0.10127186,-0.22158927,-0.50565898,0.30289306,-0.38154947,-0.09744513,0.48230547,-0.48431446,-0.45503472,0.36334328,0.24592019,-0.44192807,0.21092415,-0.36297612,0.23613000,-0.19811071,-0.35205002,0.24804984,-0.03193065,0.48676981,0.28812475,0.27133615,0.02659204,0.17186551,0.53893979,0.44376861,-0.16112384,-0.36872677,-0.15042237,-0.36041542,-0.33016062,0.17243623,0.27476291,0.05301682,-0.24605597,-0.42100173,-0.43628117,-0.50240439,-0.00569634,-0.23052145,-0.00595164,-0.13109400,0.40004170,-0.24523967,0.36225960,-0.36291084,-0.38083740,-0.30704918,0.44703497,-0.22751137,0.24471450,0.19867737,-0.43735218,0.22152650,0.15162147,0.07945655,0.07952011,0.33269508,0.36419270,-0.12206301,-0.47624668,0.14074126,0.27401114,-0.34888006,-0.28482758,-0.24236076,-0.48805628,0.07146686,0.34902835,-0.49866644,-0.27980723,-0.41639986,-0.12579729,-0.09396480,0.43113837,-0.11459902,0.45725375,0.15689675,-0.49912881,0.12830664,-0.07893669,-0.19643290,0.18861639,-0.03576277,0.26108657,-0.47383146,0.29672615,-0.12801555,-0.23044003,0.03337746,0.48175957,0.17460178,-0.33239749,-0.22881549,-0.00753390,-0.08797314,0.48076775,-0.30938775,0.36686622,-0.16509339,-0.04236568,0.11516553,0.00770692,0.48900584,0.25673379,0.01133625,-0.44909916,-0.05074707,0.43112057,-0.05524855,-0.34299598,0.25372085,0.21721659,-0.13617929,-0.08972883,0.01994322,0.29564716,-0.11295895,0.24649833,0.46909809,0.07166196,0.43074009,0.47197607,0.23140038,0.04601068,0.14102210,-0.39785205,0.10070348,0.13795263,0.20085906,-0.02290887,0.20833419,0.42075733,0.02497095,0.12597803,-0.09967521,-0.36358786,-0.00471444,-0.43023245,-0.12476484,-0.41182381,-0.03904587,-0.07335770,-0.06411384,-0.14884660,-0.23976761,0.08376186,-0.23121292,-0.06057110,-0.13967011,-0.45750766,0.33757509,0.41621996,-0.35502978,0.10215993,0.44630843,-0.45336283,0.41768023,-0.36825751,0.39870330,-0.47027136,0.20695050,0.15194447,0.15842981,-0.40660543,-0.39634583,0.42051471,0.26900848,-0.25592209,0.22265241,-0.29342438,-0.17836314,-0.13864227,0.31444227,0.04929212,0.12063563,0.13804069,0.03682951,-0.34219635,0.46198823,-0.39823926,0.26499932,0.07935909,0.42485667,0.35968638,0.19175027,-0.16730694,0.25843068,0.26608767,-0.42798479,0.14814207,0.40975902,0.15209875,0.34002762,-0.31036629,0.29988479,0.04349019,0.06472920,0.42889730,-0.01245062,0.24004771,0.34703537,-0.48626989,-0.34793123,0.17579468,0.16824669,0.49444355,0.20616589,-0.13644151,-0.18221174,-0.03688894,0.10447742,0.10932792,0.24499442,-0.31973857,0.18233413,0.35773512,-0.04052196,-0.29504087,0.27531418,0.00887263,0.32242397,0.44435189,0.16717806,0.39670667,0.04264322,-0.13108277,0.02410426,0.16471480,0.28769986,-0.46434081,-0.12048248,0.33824926,0.47370960,0.00681378,0.38549593,0.25896436,0.34911139,-0.31128074,-0.33325119,-0.09748418,-0.36231532,0.34176430,-0.47492274,-0.00741466,0.32951589,0.11377273,0.14775444,-0.40854194,0.17251872,-0.41340339,0.47107403,0.52036731,-0.13206105,0.08285687,-0.22868583,-0.30366803,0.43101642,-0.05194355,-0.04020035,0.03952381,0.35864307,0.18445228,0.01764194,0.19457636,0.08789297,-0.27037698,-0.32672535,-0.17120192,0.30320328,-0.49806379,0.22025206,-0.16007710,-0.17540912,-0.44859898,-0.27804163,0.29035254,-0.27165611,0.07178393,0.46546438,0.07072033,0.21787231,0.26615200,-0.27380156,0.54747531,-0.12402663,0.36010697,-0.49900811,0.23045138,0.31617972,-0.53191924,-0.35202859,-0.26177857,-0.04844632,-0.43077011,0.41778274,0.07945712,-0.13525049,0.40333683,-0.24028866,-0.14804456,-0.49260050,-0.03429491,0.44325659,-0.15773292,0.02917027,0.34364024,-0.03639274,-0.27144309,0.21033527,-0.26739832,0.50780968,0.53574432,0.41950678,0.21139802,-0.35784607,0.19047081,-0.56465829,0.29804241,-0.53415207,0.00878373,-0.00262342,0.23199289,-0.01163811,-0.41175776,-0.10744896,-0.07252241,-0.29979813,-0.47013897,0.26667210,0.06906655,-0.34706853,0.36139630,-0.03941741,-0.43430470,0.28885780,0.13864762,0.37784597,-0.02320344,0.10933497,-0.00172401,0.06639436,-0.37244265,-0.24628876,-0.47621393,0.26407745,0.18703049,0.17094210,0.01698555,-0.50677771,0.28015892,-0.14724151,0.21658875,-0.24014645,0.07924427,-0.38075856,0.19160022,0.34755313,-0.03116790,-0.17441954,-0.34076231,-0.29073824,0.11511891,-0.24885823,0.09798355,-0.12823815,0.05368031,0.26156245,-0.53359017,-0.44353873,-0.50954928,-0.01777200,0.12614562,-0.30145491,-0.16695147,-0.23562204,0.43268184,-0.33768926,-0.36551798,0.36421541,0.16543290,-0.09652420,0.13574949,-0.46621055,0.16813977,-0.24457940,-0.03674341,0.26264540,-0.48430750,0.30253139,-0.09032371,0.19534114,-0.19695781,0.17777097,0.22368467,-0.29885370,-0.04686593,0.06063013,0.18523087,0.36911642,-0.10233828,0.35573603,0.42935569,0.00379941,-0.20883567,-0.28007508,-0.32444779,0.42291626,0.39191641,0.35085750,-0.15186222,-0.20233122,0.05251556,-0.32475149,-0.36671630,-0.23002792,0.23679889,-0.30720037,0.22899638,-0.16061276,0.31257007,0.14797386,0.29297565,0.35615731,0.53170451,0.18463881,-0.16581443,0.41633166,-0.26243660,0.41329445,0.33092709,-0.40930810,0.48226029,-0.23012897,-0.31602138,-0.42340875,0.25555320,0.05239068,0.10212194,-0.17074915,-0.19674463,0.47291615,0.22851876,0.00722860,-0.20658133,-0.21063258,-0.42858066,-0.32694376,-0.20242202,0.13620961,0.14009839,0.59806046,0.38375484,0.04641861,0.41311134,-0.19552967,-0.11714950,0.52481723,-0.18719032,-0.02733963,0.50326700,-0.19062672,-0.45777152,0.00672206,0.22437272,-0.16473680,-0.18041999,0.07795649,0.11465137,-0.19398359,-0.43744151,0.14230056,0.33673886,-0.23836761,-0.09987957,0.18723604,-0.20037146,-0.35923110,-0.34099828,0.44112899,0.29069454,-0.10441977,0.35705441,0.25776625,0.43972042,-0.36633097,-0.31817277,0.47733098,0.39915868,0.44235915,0.35453130,0.45885701,0.26053750,-0.32535324,-0.25001335,0.36133176,-0.29026954,0.18795982,0.24413067,0.18407197,0.32011112,0.21234098,0.07897906,-0.48932618,-0.24974090,-0.19297255,-0.18155638,-0.27387669,0.50927520,-0.32831462,0.36942548,0.48842098,-0.17068717,0.43603321,-0.06440662,-0.18056910,0.32784350,0.03499534,-0.13506343,-0.10297103,-0.20397852,0.49270083,-0.23068616,-0.03032026,0.05891059,-0.41273244,0.00042333,-0.36854385,0.25956272,0.19154293,-0.51996461,-0.03460182,-0.32633466,-0.46262912,-0.06219845,0.31553859,0.12713023,0.16878223,0.16995034,0.42446417,-0.03887901,-0.15707765,-0.37865999,0.04655662,-0.43783376,0.11795030,0.46959473,-0.28333860,-0.09294600,0.17832085,-0.22171496,0.35931896,0.18292044,0.06553653,0.42990609,-0.06427140,0.39987102,0.38264435,0.32490831,0.14094340,-0.28251597,0.30349862,0.05224913,0.28126019,0.21468150,-0.20746246,0.00696440,-0.40212289,-0.40529363,0.25992690,-0.37466671,0.15348077,0.41465764,0.28529091,0.04217308,-0.40428293,-0.17320532,0.00854050,0.26689710,-0.46255275,-0.34963438,-0.04354416,-0.15497198,0.27521368,-0.15529465,-0.01214276,-0.41384372,0.16672231,-0.10176165,-0.31741540,-0.18148426,-0.53145401,0.34923518,-0.12289914,-0.28356207,0.29719484,-0.13184624,0.22714586,0.25699629,-0.14879467,-0.16931550,-0.10504216,0.45905424,-0.47902915,0.47178288,0.11838296,-0.18616903,-0.26670222,-0.35151349,0.03309418,0.29613761,0.06270645,-0.38081833,-0.08732404,0.17947589,0.38300450,0.33015979,0.40194852,-0.18419462,-0.11344319,0.28188337,0.30736046,0.26037937,0.22680555,-0.01698395,-0.34966983,-0.24316412,0.18672100,-0.25649480,0.09052145,-0.44245818,-0.33874518,-0.11841009,-0.01053994,0.43251159,0.14457946,0.17687886,0.16839481,-0.03477720,-0.54476397,0.45752182,0.10250452,-0.23745422,-0.38657287,-0.41101513,-0.00030762,-0.19637160,-0.19575180,0.24583210,0.36725534,-0.39045818,-0.33787237,0.08709626,-0.50768794,-0.36077326,0.16475492,-0.18487883,-0.10945200,0.34043039,0.17024403,-0.06180282,-0.23924704,-0.25364217,-0.11188760,-0.18486798,-0.44098866,0.32723357,-0.25461133,0.24160224,0.45193822,0.19591218,-0.24060401,0.29882661,-0.42959423,-0.26666126,0.12029929,-0.37415141,-0.22554031,0.09842340,0.22428005,-0.09891679,-0.12552207,-0.34427913,0.49428114,0.33655173,-0.09627987,0.16595090,-0.48144473,0.07876805,-0.27073358,-0.16223239,0.36168294,-0.09616644,0.11240254,-0.26566121,0.46686947,0.15639605,0.13364208,0.16370980,-0.26403228,-0.15424826,-0.27455175,-0.25403116,0.41838730,-0.03855489,0.14499845,-0.13919956,0.44591357,-0.41193612,0.00387296,0.37504728,0.38634789,-0.42988328,0.15868900,0.14990083,0.35951252,-0.31824342,0.41261622,0.29635746,-0.38093104,0.31519098,0.48857252,0.23183124,-0.35011483,0.18846921,-0.43059855,0.27533663,0.17922026,-0.07162115,0.48134267,-0.46518029,0.27071824,0.34006355,0.23988327,-0.40770703,0.16382191,0.29639397,0.11730393,0.40012004,-0.40266496,0.29342347,-0.07533502,0.42390782,0.10150234,-0.44377943,0.02983231,0.35495417,0.40970303,0.39004797,-0.20154883,0.32677366,-0.15163289,0.07328641,0.13121090,0.34051627,0.07133572,-0.08734357,-0.21616523,0.02816647,0.00519513,-0.32647617,-0.38558823,-0.05894205,-0.25127918,0.38949300,-0.43865423,0.04558675,-0.17659232,0.10548570,-0.01516934,0.09985872,0.34030057,0.24022009,0.49195271,0.43007467,0.30846340,0.17546602,0.38614683,0.29597303,0.16670482,0.42554099,0.02217483,0.09883421,-0.45189548,0.39173793,0.13625223,-0.47222516,-0.01603710,0.09217611,0.42716379,-0.12634444,0.16531620,-0.43390791,0.25081502,0.04296002,0.18043311,-0.44462435,-0.28196886,-0.43782198,0.13165687,-0.44776711,0.19703686,0.19594400,-0.08290681,-0.27045271,0.28913921,0.11628190,0.12167030,-0.16848982,-0.38041885,0.20627729,0.45279964,0.22675711,-0.01808740,0.33531964,0.18299095,0.29200326,-0.32756461,-0.26720365,-0.34568787,0.11566259,-0.41804333,0.31622303,0.20589653,0.20632960,0.37321708,-0.13206628,0.07088535,0.23348509,0.42261975,-0.05703496,0.01211280,-0.07833689,0.40987109,-0.19495096,0.39915257,0.35640360,-0.19637576,-0.22523601,0.31923338,0.05502883,0.30802234,0.17068558,0.11793268,-0.36139098,0.16849140,0.25888224,0.45173221,0.04436797,-0.33682614,-0.38456646,0.01016032,-0.20805256,-0.36078700,-0.16075772,-0.11923807,-0.07850232,-0.30053723,-0.23337379,0.01458135,-0.21108519,0.32946871,-0.23399197,0.20355924,0.35737931,0.39093392,0.12208923,-0.41004282,-0.31024660,0.05305842,0.18147059,0.22980381,-0.19599705,0.22249395,0.18102056,-0.19759644,0.08124633,0.20037627,0.42891389,0.12040013,0.21611213,-0.09826435,-0.48358600,-0.24865530,0.35289734,-0.38135742,-0.23172274,0.46470935,0.32551541,-0.40794466,0.15322725,-0.16349390,-0.08216345,-0.30066067,-0.20508445,-0.50376395,-0.27420696,-0.33682702,0.18536852,-0.34547553,-0.47414573,-0.05582293,0.42396462,0.00723091,-0.05840991,-0.45439770,-0.37722069,-0.39176279,-0.38734585,-0.38144966,-0.07494601,-0.30216490,0.36289399,-0.06637361,0.23797356,-0.09077876,0.34628376,-0.43746640,-0.36355054,0.05140069,-0.28880805,0.12290808,0.34125685,-0.29732820,-0.12684041,-0.07962326,0.44879654,-0.13317589,-0.25011315,-0.24942098,-0.39571152,0.28296797,0.19207030,0.01351375,0.27807844,-0.22891917,-0.39644179,0.49972781,-0.13876307,-0.47516316,0.41636899,0.15956711,-0.43193817,0.30727475,0.17643097,0.15064108,-0.29012319,-0.20944732,-0.31327554,-0.32220727,0.04958988,-0.02450392,0.46746858,-0.32204487,0.24480896,0.43417105,-0.39315100,0.07146695,0.05028206,-0.18039873,0.22833168,0.45331587,-0.48313668,0.37543351,0.33049906,-0.15603012,0.49562577,0.29588350,0.28070894,0.19843213,0.37590294,0.35308370,0.42469638,-0.13633992,-0.40115271,0.39383462,-0.22323061,0.44937972,0.24003691,0.42634190,0.25555910,-0.37576213,-0.05851822,-0.30264627,0.10314959,-0.35589191,-0.03259914,-0.24692773,-0.28273749,0.19179483,0.01268998,-0.30078595,-0.26041751,-0.01334742,-0.00327587,0.37700888,-0.21955154,-0.45417546,-0.44476337,0.00292565,0.36444236,0.11828749,0.16006179,0.13961120,-0.08741960,0.42159116,0.06427025,0.17013401,-0.39389167,0.23393703,0.16696702,-0.09376827,0.11020315,0.01888571,-0.39809564,-0.22059976,-0.02594098,-0.16364140,0.12020466,-0.29388859,-0.30579104,-0.14708466,0.08232105,0.45595044,0.40248672,-0.42543767,0.02763184,0.16291763,-0.11756503,-0.41227097,-0.38369758,0.27723491,-0.24034747,0.18765830,0.43775538,-0.31514979,-0.47684426,-0.20268055,-0.29715424,0.39032906,0.08850658,-0.31144729,-0.42061052,-0.31648664,-0.37883814,-0.10421397,0.42081603,-0.45166424,0.34983572,0.22892905,-0.48289342,0.34290741,0.20305408,0.44141165,0.43524283,-0.40051850,0.33562560,-0.15487743,-0.43730183,0.43570215,0.29362476,0.24742582,0.16677613,0.44340578,-0.10996755,0.09034968,0.45440533,0.49330455,0.01450951,0.43110058,0.29196031,0.18991512,-0.13926070,0.10627159,-0.32589515,0.02982881,-0.21521462,-0.22032389,0.22340844,0.06388401,0.43116532,-0.14255730,0.28503587,-0.16990646,-0.10464872,-0.45347436,-0.03710160,-0.07414530,-0.22321014,-0.33954073,-0.23236434,-0.11834697,0.29028543,-0.40090537,-0.36401769,0.08446268,-0.14738974,0.06553185,0.46169263,0.42415894,-0.06995795,0.35967197,0.05545935,0.26786148,0.19631355,0.17570408,-0.30770921,-0.36256631,-0.02506655,-0.37640452,-0.03204584,0.08970237,-0.06917614,-0.28647565,-0.31081465,-0.17917854,0.09445461,0.24277692,0.07389736,-0.02314352,0.21767195,0.35563145,-0.16282816,-0.21254053,0.02983774,-0.00476485,0.19504111,0.51066663,0.65403866,0.18448665,-0.23848360,-0.22319047,0.37899097,0.17710736,0.07919992,0.21827940,0.37398808,0.17530138,0.29348975,-0.05780494,0.38589209,0.21141490,0.39347509,0.11378661,-0.22412407,0.40953190,-0.32706876,-0.34965918,-0.39081241,-0.06452073,0.25953979,0.47809627,0.40365591,-0.24736027,-0.32243665,-0.19548126,0.57323701,0.03859159,-0.08063396,0.00464638,0.26875750,0.53280259,0.44507042,0.37160053,0.40733151,0.05275271,-0.29994740,-0.48485416,-0.41847217,-0.21343937,-0.34824971,-0.09591222,-0.28831981,-0.25086046,0.41181342,0.30850928,0.48650797,0.17201940,0.54571442,-0.12017781,0.22511576,0.11352107,0.57417750,0.58714730,0.15460385,0.35195315,-0.12363225,0.30635219,0.30203112,0.45323411,-0.39257208,0.24752962,0.18476870,-0.49137693,-0.48718830,-0.49722214,0.48139240,-0.49437210,-0.22796631,-0.37246773,-0.51304023,0.26506654,0.10032430,-0.32132140,-0.02520906,-0.16114357,-0.08992249,-0.03418077,-0.36653804,0.16133131,0.58404387,0.34126482,0.27689413,-0.27393487,0.47977020,-0.37405697,-0.27933385,0.09493979,0.48053134,0.18564845,0.36268385,0.10516018,0.28580324,-0.08747833,-0.28638961,-0.20038841,0.46374584,-0.34787349,0.41566976,0.39547874,-0.04814989,0.16508944,-0.03741881,-0.37994147,-0.42229677,0.06071590,0.10878684,0.06962356,-0.18025204,-0.18742203,0.37370831,0.41097051,-0.06942239,-0.12508987,-0.34995079,-0.14015185,-0.02821393,-0.39280214,0.39862341,-0.26379246,0.05096131,0.18761521,0.12572646,0.29463555,-0.27850531,-0.37358252,-0.29447845,-0.16537909,0.17948506,0.28669874,-0.18254140,0.03772681,0.41102232,-0.05801942,0.07919864,0.45294115,-0.19224630,0.17734444,0.07190300,0.42379117,-0.07438740,-0.27829270,-0.11227480,0.60068192,-0.29967198,0.16210944,-0.20970548,0.20122920,0.37654030,-0.38377651,-0.04325821,-0.00428205,0.23476015,0.29776371,-0.34479587,0.01245527,-0.12926805,-0.18600046,0.33994689,0.36570121,0.13900314,-0.06601653,-0.27507437,0.16178351,-0.18129382,0.08476093,-0.39544558,0.13869563,-0.52628573,-0.49212044,-0.25868384,-0.15761442,-0.18283222,0.30593970,-0.08963501,-0.04522956,-0.20031619,-0.43005372,-0.27622063,0.04329087,0.30978701,-0.22730342,0.49538846,-0.23602031,0.44410305,0.30582425,-0.39103912,-0.07916692,0.44961578,0.14038714,-0.22345314,0.27815707,0.18444804,0.13481431,0.09090768,-0.17499129,-0.32041117,0.17103891,-0.16489288,-0.20129773,0.37966589,-0.44844521,-0.42597279,-0.46790948,-0.07701325,-0.33563830,0.30434477,0.25319960,-0.31139747,0.07662548,-0.48094684,-0.37091387,0.01548400,0.16411088,0.06106528,-0.17448571,-0.12860331,-0.31783092,-0.39992499,-0.44148180,-0.04370060,-0.24962525,-0.05339411,-0.36351961,-0.14671793,-0.51348204,-0.26791722,-0.06445746,0.29364088,-0.38495201,0.42757819,-0.26743279,0.39862270,-0.34421698,0.36242150,-0.36678335,0.25883401,0.47610359,0.28760559,0.21778197,-0.15874549,-0.03491190,0.05507355,-0.26533001,0.10000534,0.47056606,0.03551827,-0.04372795,-0.13341763,0.12250765,-0.56244066,-0.42560649,0.15690845,-0.08233243,0.38228540,0.08972904,0.06912821,-0.14949820,-0.39245217,-0.37941065,-0.41414274,0.39692654,0.36704910,0.39836504,-0.03593547,-0.49286994,-0.27803153,0.31206582,0.23437466,-0.32171195,0.07032112,0.31914636,0.44092247,0.10534232,0.01173617,-0.27469126,0.17543485,-0.16178828,0.13217778,-0.42519632,-0.46344727,-0.13343628,-0.26737341,0.10313402,-0.49254038,0.41594347,-0.03684184,0.18378126,0.29331441,-0.40954584,-0.39370738,0.08885567,0.27721898,0.42711896,0.09408782,0.32696311,0.15929341,0.32905211,0.29738263,0.06655716,0.07367018,-0.29955483,-0.41209642,-0.52535757,0.34820790,-0.56639440,-0.26451993,-0.39597962,-0.13646154,-0.15595172,0.11219378,-0.27117106,-0.08853703,0.46553795,-0.21212363,-0.45335201,0.18080570,0.11827659,-0.04872504,-0.43560968,0.45345941,-0.15238436,0.06274408,-0.26459032,0.60882934,0.07623762,0.75913400,0.53023129,-0.13695540,-0.48866755,0.03131708,-0.03936273,-0.18515292,-0.43718416,0.44017500,0.08281041,-0.15571310,0.01596693,-0.28235615,-0.24079151,0.37666144,-0.10437619,-0.16132364,-0.02778365,0.15680623,-0.16799214,-0.30601545,0.22118642,0.19834162,0.33712367,-0.21716558,0.20672173,0.44912505,-0.01148426,-0.08896672,0.08176608,-0.00888371,-0.62008938,-0.55608324,0.00833469,-0.37436110,-0.17685589,0.47908937,-0.31198820,0.39119855,0.54022164,0.26303917,-0.27311431,-0.08782519,0.43690370,0.39916637,0.42673400,-0.46530076,-0.17518156,-0.46841546,0.23527914,-0.32599446,0.18265263,0.46029075,0.01253797,0.12398477,0.66442412,0.45025795,-0.04767297,0.28096754,-0.22153478,-0.17770327,-0.56581326,-0.05064908,0.21100734,0.28714449,-0.34566172,-0.22117097,0.40676611,0.19091843,-0.18638227,0.14125504,0.44376502,-0.15363827,0.35686386,0.12036985,0.47207813,0.21546423,-0.01197239,0.27749075,0.41925528,0.54313047,0.00843522,0.03513681,0.24940966,0.49341720,0.27810477,-0.45572748,-0.30992133,-0.39949883,-0.03514527,-0.35946447,-0.23220776,-0.08113281,0.27779870,0.19655624,0.11541758,0.51954550,0.13284749,-0.48897490,0.11958349,-0.19794314,-0.08158531,-0.21857857,-0.14644083,0.40697465,0.26728658,-0.10678605,-0.30115192,0.35972227,0.48451955,0.25286224,-0.22320427,0.28448629,-0.30476328,0.33831825,0.42711568,0.54865253,-0.23444600,0.55392467,0.12539928,-0.38771094,0.02027743,0.48258774,-0.06245136,-0.18992898,-0.06782278,-0.43751627,0.38992891,-0.38577505,0.08551098,-0.05781062,-0.45491830,-0.26168040,0.42878160,0.19238646,-0.10069797,-0.09093173,0.20346830,-0.40763328,0.01575436,0.33296579,0.07741655,0.37224508,-0.08844519,0.29482749,0.27913674,0.33443353,0.32083989,0.45469865,0.23792700,-0.08483919,-0.27806784,-0.03177485,0.41938916,0.17137139,-0.02998189,0.40226636,-0.34715170,0.27754830,-0.03051361,-0.24414317,-0.28390487,-0.29780278,0.29031063,0.46469011,-0.09578881,0.42416075,0.14038834,-0.30634778,-0.39187308,-0.10958433,-0.08043678,0.10699726,-0.03329692,0.38104133,-0.31039272,0.25974796,-0.03385097,0.30507124,0.33178026,0.32277488,0.38579242,-0.25093760,-0.43817816,-0.10147535,0.17999978,-0.04120262,-0.03757590,-0.39504795,0.41348468,0.46252343,0.18074222,-0.11024368,0.32615126,-0.13727621,0.50878822,0.40520093,-0.37866308,0.32554387,0.20607992,0.16230648,-0.45566105,0.21973874,0.09020411,-0.00632150,-0.11191548,0.36746094,-0.01600670,0.36893656,-0.36550259,0.07222453,0.10937298,-0.36439690,-0.07659181,0.30236179,-0.38923846,0.49086177,0.33653834,-0.03858198,0.20813443,0.23094260,-0.11457640,0.29268995,-0.36051615,0.26014658,-0.42620176,0.20745706,0.24831684,-0.12412608,0.35001673,-0.12563931,0.39204207,-0.34519218,-0.35310285,-0.46981773,-0.47577293,-0.09063561,0.44217628,0.33237835,0.23550763,0.12803462,-0.30689341,-0.36834889,-0.26652591,0.35858432,0.33774481,-0.26340336,-0.17813505,-0.01571499,0.26880270,-0.25003954,-0.16652356,0.22768076,-0.00707090,-0.32932091,0.03711381,0.07678817,-0.02552482,0.30145399,-0.22995937,-0.20019488,-0.43915008,-0.17008631,0.03626994,-0.08973386,-0.20049445,-0.41548771,-0.27588341,-0.29545238,0.01734663,-0.19456244,-0.22914365,-0.31168967,0.23776661,-0.32506495,-0.24755763,-0.12628656,0.32097990,0.07938262,-0.28601158,0.00071740,-0.11584503,-0.11404626,0.03265688,-0.24564784,0.26812270,-0.32419923,-0.12177403,0.15838383,-0.39074783,-0.13620392,0.16604142,-0.13461235,0.18563005,0.42891200,-0.08956461,0.07843648,-0.45050982,0.12088911,0.43577911,0.32912610,0.04737967,-0.47438255,0.24980048,-0.39255620,0.08242923,-0.18489487,0.49576327,0.01251125,0.24781437,0.28105251,0.24153863,-0.44363915,0.31355747,-0.19411589,-0.28744607,0.39544351,0.20209056,-0.01619350,-0.18105314,0.00808810,-0.39800673,0.41999339,0.20008934,0.49177515,-0.48578744,0.15262397,-0.05092076,-0.32104396,0.31897238,-0.04912791,-0.12454106,0.27316845,0.41348581,0.36541516,0.32724342,0.40773075,0.16125180,0.02988751,0.07383805,-0.17087384,0.11107019,-0.31778038,-0.43340046,-0.41778645,-0.36471819,0.49623071,-0.24917875,0.34751605,0.06966438,-0.40822556,-0.46454852,0.08233986,-0.02661058,-0.08766136,-0.45254848,0.25878957,0.32553963,0.29339320,0.17118062,-0.03291474,-0.28179265,0.33871279,0.25415899,0.16680578,-0.14924449,-0.26302512,0.04979913,0.33433352,-0.25304926,0.29385399,-0.34372897,0.17561922,0.39820369,-0.40968161,0.05522267,-0.39336517,-0.32074708,0.02824467,0.22355983,0.37964575,-0.36321316,-0.38913079,-0.03656964,0.22641480,-0.08786176,-0.49055738,-0.39991134,0.42676439,-0.22039816,-0.09636529,0.08020091,0.02398798,0.09588354,-0.23403687,-0.44812711,0.20631111,0.39772948,-0.02483292,-0.17371012,0.40356432,0.17461816,-0.33776077,0.45910048,-0.22296469,-0.27358132,0.30099683,0.06708798,-0.29251530,0.20751524,0.22568003,0.12648040,-0.43369527,-0.18702105,-0.43643214,-0.53552538,-0.32343782,0.03617972,-0.38712292,-0.36750965,0.28382110,-0.03470146,-0.20811242,0.23852340,-0.17201742,-0.59010523,0.30190308,0.05357642,0.28667564,0.41136927,0.42097484,0.39477169,0.46040090,0.20019471,-0.35363909,-0.17761716,0.25757239,-0.42946067,-0.40728800,-0.38690318,0.16872313,-0.10994071,-0.47208921,0.25858077,0.39031348,0.31227180,0.26304769,0.07736717,0.38370266,0.14797446,-0.47850545,0.03837979,0.31568050,-0.44405981,0.41029154,0.04526154,-0.32093103,-0.27247711,0.31764872,-0.24136516,-0.32072190,0.51915253,-0.47217694,0.13220372,0.26877694,-0.18117069,-0.18894359,-0.02366491,0.43709852,0.41808703,0.26318702,-0.20837333,-0.19686414,0.33614321,0.33720497,0.52375173,0.14611100,-0.04222643,-0.26591792,-0.31679689,-0.28010135,-0.03229840,-0.32274535,0.24866792,-0.35693501,-0.17092292,0.48143268,0.43966052,0.37546028,0.37271897,-0.24130129,-0.08631594,0.33192545,-0.03167151,0.41374266,-0.09044137,0.10948105,-0.54087379,0.02759216,-0.39280760,-0.39660429,0.01907058,0.56985352,0.49866453,0.03784807,0.12426334,-0.29026120,0.11037107,0.28250089,0.13043803,-0.08125465,0.12697141,0.22148056,-0.10276217,0.18945755,0.13723025,0.30028969,-0.18934626,-0.37017788,0.06068653,0.26391526,0.16520140,-0.41935938,0.48002190,0.37886169,-0.41004801,-0.25978010,-0.00385866,0.52538699,0.22123557,-0.15762048,0.47337083,0.30478893,0.22444794,-0.52586710,0.05852288,-0.75261380,0.01564934,0.13944152,0.04491853,-0.48266291,-0.52470964,-0.06346731,0.30979434,0.31578018,0.43855023,0.09594946,0.19184228,-0.00786989,0.13086670,-0.01499386,0.41967760,0.27709445,-0.31175199,-0.28070123,-0.40587479,0.20243306,0.37999366,0.17610985,0.47888166,0.63934690,0.38378027,0.04960747,-0.30080771,-0.53539059,-0.16971767,-0.03664985,-0.01915584,0.27967187,-0.24715734,-0.36841126,-0.35539297,0.02894493,-0.10655821,0.48648423,-0.17486778,-0.06284868,-0.39490023,0.28180872,-0.34805731,0.34833733,-0.08485002,0.56683803,0.46559647,0.51719831,0.32690269,-0.14433085,0.45086778,0.00641442,-0.59073258,-0.10316560,-0.06731396,-0.03854382,-0.33747401,-0.23252153,0.20950332,-0.36234019,0.32142015,0.08472649,0.32914999,0.56729125,-0.34029791,0.13100800,-0.03686134,-0.09092750,0.33110078,-0.45426082,-0.15102881,0.27156636,-0.30190679,0.39582349,0.18166161,-0.26816089,-0.01024543,-0.08914750,0.21316511,0.29729091,-0.02243274,-0.43927753,-0.29176939,-0.33994359,-0.44655257,0.18840032,-0.21835361,-0.15829681,-0.54749285,-0.12335805,-0.02748558,0.18409791,0.26214739,0.32952704,-0.10954595,-0.30860113,0.07571390,0.10256269,0.36701198,0.29771569,0.49822493,-0.06828406,0.62405971,0.34629872,0.41154101,-0.25461100,0.44438849,0.31420802,0.23726275,-0.29754042,-0.42006312,0.41694417,-0.59108744,-0.05590693,0.29835714,-0.34056460,-0.15710844,0.36762100,-0.10182003,-0.03681677,-0.29958494,0.38582451,-0.48255250,0.22188187,0.20703940,0.32160654,0.33198865,-0.45819194,-0.00614043,0.08632218,-0.23336721,0.00026390,-0.38494786,0.02848973,0.29847941,-0.35631520,-0.24656781,-0.56522503,-0.02365849,0.02238188,-0.30278028,-0.03783259,-0.31176328,-0.39930812,-0.33028459,0.08720396,0.29326005,-0.01328719,0.30166853,0.21731343,-0.24690697,-0.48928639,-0.38616498,0.37456831,0.43615330,-0.40730203,0.44138648,0.03421229,0.13932657,0.28672016,0.50831218,-0.33727593,0.05518295,-0.45952122,0.02883339,-0.37885839,-0.30055626,-0.50270314,-0.59614869,0.07621548,-0.28258652,0.13443053,0.15640840,-0.01091999,0.00135657,-0.12366692,0.37246106,-0.09520766,-0.01113402,0.24851048,-0.17784469,0.43897331,-0.38027772,0.26527417,0.25041191,-0.14948100,-0.03519604,-0.22831268,-0.09591987,-0.46093233,-0.06098576,0.41984873,-0.20741358,0.02184209,0.03581067,0.28958908,0.33743565,0.24991108,0.18489752,0.48378681,0.27593456,-0.30354033,0.49643135,0.51209324,-0.38685721,-0.13535486,0.18934694,0.09087511,0.01867356,-0.25036958,-0.21804161,0.43851751,-0.54522226,0.34933343,-0.29246977,-0.42504518,0.39084631,-0.10946683,0.38319388,0.47678624,0.38049435,0.11747665,0.16759033,-0.33647740,-0.52375982,-0.23156893,0.21581729,-0.27176609,0.18021982,0.24688939,-0.13872484,0.13099399,-0.22595575,0.14191734,0.44985634,-0.26123131,-0.38656363,0.23879594,-0.26648709,0.37232040,-0.56922564,0.12668562,0.23695371,-0.42210026,-0.03696986,0.46880374,0.41465914,-0.01651420,0.32036372,-0.24248750,-0.05714231,0.43986818,0.09497583,-0.05809590,-0.25777434,0.12374987,-0.07317554,-0.24124208,0.45281046,-0.13924807,-0.43328213,-0.29294359,0.19238994,-0.22917592,-0.04549682,-0.14059416,0.06123736,-0.09071152,-0.08303459,0.27250962,0.11140864,0.25587871,0.11198306,0.32349346,0.18874740,0.08840774,-0.09644170,0.45020161,-0.22151059,0.38108832,-0.29493092,0.40081090,-0.13001948,-0.12910645,0.40607416,-0.28468203,0.27867238,-0.12731646,0.25532962,-0.13980530,0.24057339,0.23918217,0.20958299,-0.32186728,0.21797070,-0.03690240,0.41953958,-0.34851533,0.17636968,-0.45546286,-0.36448055,-0.14947785,-0.33078224,0.23749342,0.35051997,0.19143069,0.08467351,-0.05211936,-0.42797709,0.35999817,0.33685011,-0.45057311,-0.11298367,-0.48489190,0.10537800,-0.02392381,-0.38905003,0.27556009,0.22678019,-0.48010374,0.25047919,-0.18787872,0.11574570,-0.28511065,0.15512919,-0.42861319,-0.48197261,0.01822394,-0.11290239,-0.40339006,0.43892635,0.43478915,0.23524360,0.00721368,0.33461998,-0.39269359,0.08069752,-0.08760989,0.08477426,0.26792315,-0.06062714,-0.21682222,0.28091893,-0.24095244,-0.15495246,-0.30083042,0.14570440,0.01816088,0.39756017,0.32975156,0.10856507,0.00392375,0.41377957,0.23071570,0.31814141,-0.08993575,-0.47959508,-0.16039977,-0.10761205,0.16677646,0.10136978,0.22870519,-0.13847132,0.41069729,-0.18861074,-0.09514363,-0.42400386,0.28986485,-0.23109208,-0.05853930,-0.22821805,0.04995656,-0.34778199,-0.25578032,-0.24610653,-0.13465520,-0.30604549,0.30765052,-0.00095624,0.44062183,0.19838505,-0.37020291,0.13335291,0.26742255,0.36870753,-0.22327675,-0.02023552,0.35214063,0.12481162,0.20660015,0.27607880,0.52038830,0.01924065,-0.14200848,0.06339877,-0.10737350,0.25450517,-0.14214880,0.07331610,0.42278957,0.20390887,0.19754456,0.49524498,0.02021557,-0.12745731,0.03866695,0.02360637,0.15723892,0.19977300,-0.44075167,0.35030998,-0.06588526,-0.05977961,0.08248674,-0.32334852,0.51524758,0.41433979,0.20674229,0.11873967,-0.01915670,0.15157814,0.50400841,-0.05507598,0.39298138,-0.03093865,-0.25519621,-0.11607099,-0.19871926,-0.05992819,-0.06335636,0.43662294,-0.49270024,0.06497891,-0.05230374,0.43930535,-0.34595130,-0.41081207,0.19805266,0.41866929,0.11761701,0.12025931,-0.26611008,0.37836374,-0.48242239,-0.46518920,-0.32073840,0.25097876,-0.17979019,0.28350424,-0.16796612,-0.46873553,0.20083099,-0.44294535,-0.29817457,0.27216053,-0.10852695,0.38124789,0.29928430,0.39777686,0.43279353,-0.45316487,0.29404729,-0.23632168,-0.14427083,0.19137363,-0.07998730,-0.28309291,-0.02311951,-0.29266699,-0.35335740,-0.18766196,-0.00017584,0.14480854,-0.31307866,0.19855390,0.33299449,-0.17542609,-0.25545459,0.11596347,0.25156195,-0.27020876,-0.21347818,-0.18634206,0.31709505,0.28245430,0.40803221,0.12150356,-0.36511761,-0.03556732,-0.35121450,-0.02709790,-0.10440940,-0.19276538,-0.02444356,0.30737698,-0.31317913,0.12167978,-0.08556283,-0.16121250,-0.43706062,0.03351923,0.45494144,0.26568609,-0.46856437,-0.25426975,-0.43219478,-0.20198166,0.17722368,0.05914245,-0.20576379,-0.07895907,-0.00735508,0.00268802,0.22874102,0.03881530,-0.18822717,0.33021627,-0.40265309,0.02728447,0.20064419,-0.43331011,-0.01465034,-0.21177965,0.24312368,-0.33809948,0.19033072,-0.21349467,-0.30758741,0.08529040,0.26792620,-0.39331268,0.10142236,-0.47139819,0.35533701,-0.22955731,-0.03459290,0.27448757,-0.27188337,-0.11971914,-0.04611532,-0.25090693,-0.37089293,0.34805370,-0.35204796,-0.48974158,-0.04331867,0.20053592,-0.37483494,-0.34639856,-0.39052605,0.18263655,-0.38771967,-0.16350234,0.09745915,-0.12081286,-0.24986623,-0.35510522,-0.33646247,0.35234972,-0.11705676,-0.38413814,0.45196481,-0.08286315,-0.05692426,0.12465436,0.34601351,-0.46207139,-0.00894600,-0.17109435,-0.34994946,-0.30426318,-0.19075370,0.04285561,-0.31167796,0.38147004,-0.19490206,-0.28385249,0.02002272,-0.47887727,0.43271936,0.46153401,0.38391715,0.36641702,-0.41423644,0.18387853,0.27738923,-0.35610157,-0.15914356,-0.16898152,-0.34497235,0.45049842,-0.25183865,0.09212655,0.19539894,0.19562486,-0.25896961,-0.25319438,0.28112251,-0.26868967,-0.13311281,0.20481474,0.41199162,0.47403204,0.20667576,0.17283342,0.09871152,-0.48656579,0.43866978,-0.41027515,-0.00466602,-0.29956958,-0.06701201,-0.12925491,-0.41554668,0.03612600,0.01585529,0.08253189,-0.29904366,-0.23780234,-0.27119386,0.09261308,-0.18485598,0.16519077,-0.05695376,0.17768089,0.15667214,0.08331068,-0.21799969,-0.12444489,-0.24787560,0.46077662,-0.40044076,-0.36016379,-0.23803012,-0.46323373,0.45469258,-0.36190481,-0.21516574,-0.16655227,0.50656187,0.38866076,0.43888661,0.02919001,0.50913885,-0.20693625,-0.45218410,0.48445224,-0.47225910,-0.46513063,0.28997235,0.20675857,0.36119241,0.19215783,-0.04680560,0.43675320,0.10228837,-0.00646252,0.15958428,-0.32401544,-0.19280020,0.14586189,-0.02821700,0.25893800,-0.11051284,-0.42320338,0.22327086,0.28526992,0.26981520,-0.42908343,0.53830919,0.34889944,-0.40169328,-0.00526660,0.28928585,0.08587802,0.23556007,0.08544329,0.42408873,0.29976995,-0.46084203,-0.49333985,-0.02186058,-0.33921550,0.32317098,0.27220137,0.21588819,-0.24075369,-0.13724776,-0.36833922,0.36248945,0.03273563,-0.20932470,-0.33743808,-0.21713570,-0.22433700,-0.09570127,-0.39742848,-0.36678528,0.06395396,0.25487060,0.02539149,-0.48583007,0.40134115,-0.40673243,0.21430811,-0.01530719,0.42415582,-0.38797129,0.49518143,0.20735187,0.48151704,-0.36050923,-0.00107184,-0.02966994,0.17851642,0.43158172,-0.16455803,-0.44631834,-0.17180120,-0.14247856,-0.33817155,-0.46691293,-0.46436853,-0.06338399,0.37297577,0.15434466,0.19862064,-0.43641338,0.07569333,-0.34216707,0.01924503,-0.33422835,-0.02105945,0.48984793,0.27200280,0.11880041,0.46293522,0.44120576,-0.39063879,-0.09607605,-0.40594270,0.11837472,-0.00835737,0.37299285,0.35412845,-0.40097914,-0.03841770,-0.34839577,-0.19821067,-0.29414312,0.40668655,-0.24582462,0.51022143,0.30245209,0.42786844,-0.07288490,-0.34021651,-0.46940804,0.29166770,0.49091402,0.24308702,-0.15161170,-0.37643704,0.51266184,-0.24276438,-0.36284767,-0.47145294,0.00122668,-0.40441608,-0.32214098,-0.38463874,-0.43158977,0.15685658,-0.42979266,0.42605274,-0.19843408,0.00550805,0.32953806,0.45430751,0.16632052,0.15717449,-0.28572236,-0.30324299,-0.35077545,0.04679991,-0.13053907,-0.11253936,0.46432338,-0.22341456,0.45299106,-0.12946595,0.16408790,-0.00972652,0.44746404,0.06152325,0.13631715,0.03765697,0.46375186,0.27437991,-0.23808068,-0.05359432,0.33338064,-0.25937147,0.20686744,-0.23428636,0.10441805,0.22692221,0.32063062,0.29419425,-0.29204773,-0.18951728,-0.16636024,-0.01564949,0.16423666,0.40756353,-0.37208292,0.04295999,0.20031068,-0.07630915,-0.23430048,-0.42086220,0.08495264,-0.23400299,0.45567419,-0.07151556,-0.21093669,0.02423006,-0.19156470,-0.29626004,0.07699841,0.51727244,0.37287705,0.32288912,-0.24598554,-0.01969788,0.15092343,0.34650858,-0.03101874,0.30918784,0.02520952,0.03270399,0.16472549,-0.00509614,0.36770021,0.16665883,0.48469968,0.15687280,0.21460404,0.38378323,-0.45941755,0.02258070,0.41743659,-0.11120407,0.13990834,-0.13221612,-0.29842061,-0.40930123,0.48630340,-0.16318480,0.16477005,-0.30483254,0.05433143,0.49819116,0.03417446,0.27548251,-0.10799262,-0.46485671,0.26930794,-0.18766360,-0.16910951,-0.31740901,-0.16814460,0.16025900,-0.04675775,0.24481221,-0.48276080,-0.33378166,-0.28612154,0.06337735,-0.19010270,0.32725366,0.32707306,-0.10349690,-0.04218844,-0.48117081,0.13010790,-0.26250023,0.16801451,0.29525486,-0.15867980,-0.33303713,-0.46808177,-0.52957352,0.10782153,0.11185182,-0.04014948,-0.05064958,0.03202126,0.49948536,-0.11338451,-0.24866686,0.36909486,-0.03177936,0.12909220,0.46295695,-0.07072070,0.37805667,-0.17852563,0.41173619,-0.40306641,-0.27032982,-0.35053066,-0.01788773,0.15850880,0.02161661,0.46239047,-0.01779919,-0.41703454,-0.18808029,0.34746043,0.08181800,0.17387276,0.44045382,-0.01076726,0.43171079,0.18279185,0.53481848,0.49914080,-0.19507592,-0.00450640,-0.22774634,-0.03344162,-0.13980205,-0.02058507,0.20384277,0.08738756,-0.20922018,-0.46646841,-0.13091344,-0.19258068,0.37444091,-0.42040619,-0.15924194,-0.47081442,0.06312398,0.28873687,0.25278281,-0.12395260,0.38898834,0.20343381,0.43934387,-0.12799877,0.50468266,-0.30789598,-0.10173256,-0.29356091,-0.39057324,-0.39563698,0.06449026,0.19103351,-0.39573246,0.43491790,-0.46436325,-0.37061463,0.00689692,0.49060335,-0.36897967,0.30693921,-0.42766152,0.04923609,0.18557085,-0.45041328,-0.08888561,-0.32639430,0.26532619,-0.46218591,-0.17566884,-0.41767822,-0.14896671,-0.08805756,0.09384026,0.49774894,0.13340683,0.22751536,0.17769065,-0.05597319,-0.02836180,0.13609424,-0.46112870,-0.30294735,-0.12585520,-0.36972755,-0.39496261,-0.25678259,0.42331784,0.44052316,0.26921784,-0.28653970,0.26686686,-0.46205262,-0.47806427,-0.27926435,-0.22375487,0.34496450,0.30096306,0.41762466,-0.28901670,0.07066369,0.30988646,0.35490853,0.19860142,-0.12032899,-0.21987995,0.50983689,-0.30567271,0.25835276,-0.36935637,-0.12891649,-0.25388443,0.27471441,0.09093231,0.11555756,-0.22097476,0.06424802,-0.11379880,-0.23591075,0.49476913,-0.18152635,-0.43825651,-0.09944217,-0.24951943,0.16337432,-0.40104368,-0.48182305,0.26698262,0.37108230,-0.23180639,-0.51929452,0.36144094,0.36023755,-0.27122022,-0.04267494,0.18948700,-0.16418021,-0.29419721,0.46060731,0.38111394,0.30835911,0.47065144,0.00200991,-0.32622153,0.46558879,0.36756641,0.32572214,0.26256025,0.34579786,-0.01489520,0.45030168,-0.14358810,-0.43331722,0.13650699,0.01960865,-0.40422078,-0.15529683,0.34974480,0.43556757,0.11450595,-0.21832952,-0.22558190,0.04404538,0.24338723,0.50500479,-0.37831295,-0.23417268,0.08669230,0.25168262,-0.33954109,0.06992728,0.35542782,-0.16800355,0.14366368,-0.09753782,0.00843302,-0.03375227,0.36283608,-0.38645657,-0.12016644,0.34120319,0.18984761,0.34781477,0.38297691,0.24198398,-0.26201424,-0.31547161,0.10427174,0.02739322,0.49614357,-0.38248662,0.35251568,0.03129626,0.09522722,-0.40084126,0.37123027,0.30068577,0.34845268,-0.09175005,-0.16273998,-0.07334201,0.21645869,0.00358390,0.26038126,-0.04147282,0.13082646,0.32133833,-0.25452508,0.15095699,-0.23032348,-0.19098996,0.02490722,0.31557949,-0.07518562,0.33021912,-0.36146750,0.28052473,0.14073778,-0.24858059,0.26604379,-0.33126936,0.00513678,0.27873523,-0.23725563,-0.14122016,-0.48945008,-0.05484875,0.12037111,0.02535278,-0.10124448,0.36560921,0.33261506,0.20979381,0.12915868,0.06743626,-0.05725755,-0.32280902,-0.34890982,-0.45916165,0.06167683,0.00511405,0.06024167,-0.15095282,-0.23039373,0.30174013,0.39151243,0.07951837,-0.29979931,0.16628662,-0.11878231,0.28306280,-0.03109261,0.02718488,0.35419772,-0.01263932,0.01109198,-0.16788444,0.18708547,0.43405005,0.39106500,0.22964234,-0.06163060,0.00937898,0.06223771,-0.30311118,0.13078946,-0.13490978,0.00464410,0.29112198,0.36089993,-0.42371299,0.26874066,-0.24285941,-0.01726545,-0.32102504,0.28647694,0.35303061,0.18932223,-0.03919935,-0.26589235,-0.07126274,-0.33755740,-0.18458690,0.08870144,0.33663502,-0.31652084,-0.10830187,-0.46007613,-0.05806672,0.23631201,-0.35783641,0.49537546,0.16511176,0.31658833,-0.26544436,0.32447874,0.27404478,0.19427900,0.29051294,0.30325040,0.15984548,0.14205369,-0.08218149,-0.04472403,-0.48438988,-0.49210150,0.28850411,-0.23291503,0.47052523,0.18261590,-0.09922768,0.16001692,-0.36121659,-0.02247700,-0.26514906,0.17505548,0.41924621,-0.37145966,0.11553942,0.42292016,0.26703081,0.23569032,0.22661060,-0.17445684,0.40940900,0.03999512,-0.03875318,-0.03605315,-0.45815454,-0.30999263,-0.32859850,-0.16652199,-0.07137981,0.20462331,0.09621133,-0.36445170,0.20686519,-0.18311656,-0.47792134,-0.01955940,-0.22389940,-0.34325460,-0.33603892,0.37975447,0.46372583,-0.48209789,0.06660597,0.06661757,0.09897950,0.11671095,0.12962330,0.44634192,-0.09151426,-0.43806395,-0.45217789,0.10096475,-0.18825510,0.13525651,0.23163579,0.01400854,0.21859733,0.14698176,0.33831810,0.39058969,-0.10795895,-0.47771708,0.08119669,0.17026821,-0.19269096,0.02279742,-0.25281627,0.29950200,-0.14737851,-0.19057367,-0.06527312,0.22790871,0.18577735,0.48272657,-0.29313514,-0.17406444,-0.33150339,-0.15554688,0.45570183,0.14544820,-0.29536244,0.22127979,0.01194491,0.42977091,-0.31406246,0.48162343,-0.06073295,0.30897817,0.23415219,-0.15979704,0.46400853,-0.46066752,-0.44351086,0.20964540,0.14819509,-0.35162757,0.32290925,0.21684908,0.42902432,-0.38555826,0.26655122,0.37225125,0.13004538,-0.16507018,0.44075340,0.03683470,-0.30449683,-0.10035661,-0.49072835,-0.12804340,-0.19037426,-0.45696305,0.09577206,-0.32488766,0.24330780,0.33179254,0.28347333,0.20280052,0.11526573,0.12292671,0.13557613,-0.20069530,0.21286133,-0.25898407,-0.38655067,0.40473422,0.16652377,-0.48343184,-0.01745913,-0.11786974,0.34649254,0.05074159,-0.21940799,-0.30179029,0.27139773,-0.43705171,-0.05940003,0.01419468,-0.13021867,-0.35795858,0.02049561,0.29457547,0.18918387,-0.14805028,-0.29944652,-0.34616129,0.44897329,-0.01388930,-0.01966442,0.37988562,0.12548049,-0.41280656,-0.17015430,-0.02222701,0.39157447,0.00980553,0.46810536,0.33464163,-0.39933641,0.21627389,0.34616528,-0.13694935,0.17462665,-0.10882668,-0.02076205,-0.40807294,-0.11476063,-0.19432040,0.14235394,0.08233971,-0.38363156,-0.46512620,-0.23560150,0.10443679,-0.11939586,-0.46018456,-0.13862808,-0.34241208,-0.41074402,0.17069801,0.05822590,0.15688921,-0.42067610,0.03936512,0.18902360,-0.40371272,0.15052266,-0.15115973,-0.35547091,-0.17850908,-0.12614360,0.39045759,-0.39388945,0.20603117,-0.22591757,-0.45245710,0.26781057,-0.29432683,0.15047537,0.47658747,0.17936226,-0.12080711,0.45706524,-0.42591286,-0.46763853,0.25198904,0.31370990,-0.16974899,-0.22657599,0.22836693,-0.31735180,0.43806305,-0.09249839,-0.03550889,0.39350630,-0.36275206,-0.16668968,-0.29794305,0.00209278,-0.33570820,0.49427930,0.03597794,0.07941745,-0.40744536,-0.47108430,0.30599807,-0.02979648,-0.35016588,-0.10839877,-0.21889507,-0.46360314,-0.33325753,-0.44993900,-0.10694093,-0.07008825,0.17255657,0.23760852,-0.43902983,0.44632762,0.31890314,0.24543438,-0.19165944,-0.11265862,0.38371019,-0.09986087,-0.08056189,-0.26337965,-0.41206093,-0.15253703,-0.12293286,0.21528515,-0.15016878,-0.10681897,-0.30369823,-0.26696178,-0.38760120,0.45256972,-0.15252871,0.30300549,-0.20979782,0.25859294,-0.11612878,-0.33251131,0.44015648,-0.11850138,0.48869668,0.27735260,0.31084475,-0.25124676,0.26292377,-0.39940631,-0.14070832,-0.34930619,0.28687825,0.30592906,0.10557775,0.30567420,0.04590654,-0.08513642,-0.18136949,-0.14728659,0.20720862,-0.26361063,-0.12891634,0.16881750,-0.08221475,0.30946334,-0.03461345,-0.08756286,-0.07883812,-0.15002806,-0.19194407,-0.12679274,-0.01033011,0.41728999,-0.50363589,-0.37296374,-0.29021057,0.05005924,-0.16104719,0.21129250,0.16290739,-0.28504711,-0.45960097,0.36088396,-0.18769504,-0.28449635,0.38224246,-0.07785896,-0.12703010,-0.00401221,-0.03724053,-0.41245817,0.39970056,-0.21341371,-0.46701497,-0.39920498,-0.40239215,-0.22128723,0.14680795,0.20514793,0.02168839,0.45875283,0.23258182,-0.26459238,-0.39953295,0.01200541,-0.03101787,0.18462347,-0.19459641,-0.18043187,0.14711889,-0.39584316,-0.32407402,-0.44399496,-0.52314606,-0.34207244,-0.07206558,0.23333722,0.33265837,0.23348772,0.24332967,-0.33760314,-0.18524022,0.23429728,0.39526587,0.40688484,0.35110801,0.52077024,0.21902660,-0.22518640,-0.19444679,-0.44375561,0.27186026,-0.41294959,0.08427117,0.44763848,0.31310450,-0.20059384,-0.11214241,-0.61613159,0.24559723,-0.57360260,0.07434717,-0.29749121,-0.24979956,-0.16507352,0.17373601,0.28503206,0.11690057,0.25085120,-0.11666981,0.08988564,-0.43067238,0.18278974,0.15365362,-0.19330598,0.12852879,-0.06882472,0.26894538,-0.06961646,-0.28268186,-0.04692153,0.12002900,0.42994125,0.27126859,0.04147535,-0.04601320,0.14314418,0.19980910,0.05965352,-0.18454360,-0.00014836,0.05029126,-0.12627929,-0.06884955,-0.15177173,0.12248789,-0.39006276,0.28217638,-0.23352418,-0.19634459,0.16994626,-0.42156181,0.28352375,0.44104377,0.60132421,-0.22835362,0.50235898,-0.16256774,0.18346389,0.01866128,0.08129906,0.41938060,0.13516677,0.20994424,-0.32910743,0.22084431,0.04065027,0.33629855,0.16812233,0.11380302,-0.19697566,0.19584414,0.23090600,0.23711050,0.32093643,-0.48609165,-0.06610803,0.41270625,0.27463903,0.46796337,0.06177591,-0.28888988,0.21871689,-0.10100572,0.01517192,0.19230363,-0.06207442,-0.41933864,0.32515441,0.15339914,0.24889569,0.20504399,-0.47971736,-0.00030027,-0.11941766,0.37241980,0.13398646,-0.10087950,-0.44296722,0.34698068,0.41804249,-0.17657980,-0.13890227,-0.37233602,-0.36286635,-0.09056510,0.27457017,0.14880893,0.11746418,0.17403306,0.21956581,-0.12376722,-0.02809550,0.15076186,-0.19449380,0.07487207,0.06730343,0.18205387,-0.14557576,0.28239013,-0.08248741,0.13702604,-0.02964086,0.24295259,0.25843536,0.22115004,0.43850409,-0.17895451,0.48004458,-0.16967294,-0.37889736,-0.22337965,-0.04472127,0.50560173,0.22655601,-0.46411812,-0.11247307,0.44032082,-0.26005218,-0.14969550,-0.48471242,-0.39631125,0.19371613,0.01722408,-0.30928687,-0.39113992,0.07010580,0.49630416,-0.31841010,-0.03676061,0.02025946,-0.45894901,0.11767568,0.25363776,-0.22531989,-0.36675925,-0.24227862,-0.01030500,-0.30722932,0.47597434,-0.09718097,-0.14482881,0.34410570,0.24251270,0.13304454,-0.11372094,-0.03310156,0.23073844,0.24660552,-0.41565609,0.03944187,0.46080998,0.06979209,-0.36300672,0.27262413,0.27573275,-0.18105558,0.32017144,0.13145279,0.38903687,0.27780739,0.19883467,-0.15806142,0.17217208,0.00227811,-0.30637555,-0.07859177,0.38084317,-0.05604840,0.02917291,0.27629764,-0.37780973,0.13040999,-0.38912449,-0.10289360,-0.39789079,0.04810625,0.30386023,-0.44415919,0.56455481,-0.23226497,0.34936439,0.10354783,-0.10549188,0.50119961,-0.38364371,0.20003100,0.12390517,-0.14043725,0.41647532,-0.19488218,-0.10030921,0.16328968,0.30152222,0.23938008,0.45945844,-0.05854619,0.29688592,-0.07115704,0.17985116,-0.26022855,0.28462348,0.04097247,0.12720635,-0.09246304,0.31851722,0.01837777,0.41444226,0.39983377,-0.02391565,-0.26868989,0.13093307,-0.30956464,0.24535338,0.20028359,0.26180238,-0.46398483,-0.34538003,0.21904720,-0.23911438,0.27080286,0.49624611,0.39406159,-0.16653440,-0.45370505,-0.18087859,0.09584540,-0.24729551,-0.10735298,-0.30608266,0.06550125,-0.08620990,-0.31889868,0.54542183,0.05722147,0.35139979,0.49273633,-0.01034886,0.16829596,-0.43491920,-0.32684919,0.32186774,0.05024750,0.01396123,-0.29310061,-0.16524939,-0.26063844,-0.09126290,0.37484999,0.38338457,-0.45633397,-0.08726236,-0.05995554,-0.05837576,-0.32587085,-0.31769111,0.23791479,-0.18705716,-0.12116488,0.05679681,0.31329180,0.38675332,0.54891199,-0.17999912,-0.19252706,0.22793061,-0.42132633,-0.03371084,-0.37872495,0.28481121,0.00284590,0.07854372,0.08984281,0.41055984,0.33236255,-0.06942657,-0.29964476,0.44906888,0.47120311,0.00533605,0.43347019,0.09015725,-0.02227863,-0.39596372,-0.29863869,0.28997464,-0.28213418,-0.08468192,0.34576397,0.29156675,0.34381874,0.34379714,-0.39009064,0.42070439,0.23739380,-0.00372486,-0.30891091,0.06245022,-0.43091798,0.20562564,-0.19257343,-0.32209638,0.46031466,0.23389576,0.14880037,0.21773083,-0.05457672,-0.46570000,0.24773579,0.12954516,-0.10793752,-0.49217120,0.27261547,0.32040858,-0.44994136,-0.08875101,-0.43410780,0.15571842,0.02630876,-0.41414809,0.32944566,0.43630997,0.42223243,-0.31754890,-0.32343266,0.20283275,0.44724053,-0.13399981,-0.25543328,0.43412982,0.32394622,-0.16329786,0.01761108,-0.45813907,0.25737906,0.20720151,0.10137699,0.43912350,0.27186557,-0.51800406,0.36086599,-0.41081191,-0.45388680,0.08455436,-0.05478650,-0.41861955,0.25055308,-0.06366663,-0.24913147,0.15100802,0.47426361,0.24909898,0.26917387,-0.30793364,-0.31420255,-0.23140175,0.13950733,-0.06756124,-0.16726336,0.10897866,0.34466856,0.19260198,0.44602933,-0.19333943,0.24833794,-0.45790453,0.25705429,0.25497957,-0.19495934,-0.42131463,-0.05161508,-0.29369251,-0.53819817,0.38631100,0.00778850,-0.03058989,0.18179181,-0.29204323,0.26690477,-0.39143388,-0.12138590,-0.08355270,-0.17717155,0.00327598,-0.29029981,0.37818688,-0.17538301,-0.34229448,0.44676756,0.27805716,0.12100803,-0.17257817,-0.14642620,0.50001438,0.50933017,-0.15814979,-0.23715958,0.34193974,0.10892578,-0.22855398,0.35251498,-0.07508769,0.37070060,-0.27595938,-0.19273412,0.30698899,0.11342321,-0.48756335,0.42359490,-0.32603375,0.25983020,-0.43578489,-0.02894152,0.22352220,0.31826262,0.46240517,0.42406585,0.38179358,0.09872930,-0.29576427,-0.08986592,-0.33921799,0.50754902,-0.11190748,0.20282617,0.12078780,-0.11202379,-0.24577482,-0.15586403,-0.21348830,0.09215818,0.18315587,0.27803471,-0.39256367,0.44177903,-0.16091456,0.27001302,0.31163442,0.40633381,0.45032116,0.35081393,-0.02483783,0.48349062,0.07239936,0.02782849,0.43091302,-0.49961373,0.48861353,0.14390849,0.30075038,-0.31347247,0.08862014,-0.08302264,0.40244057,0.50993060,-0.23406316,0.38240270,-0.30542260,0.26562313,-0.23065548,-0.24324555,-0.22386725,0.42131388,-0.05110061,0.17931957,-0.01667315,-0.14190602,0.14083700,0.42116214,0.13608412,-0.40990695,0.48583155,-0.18992266,0.49408700,0.30057633,0.16115602,0.34140130,-0.03172877,-0.33732044,-0.44293301,0.29700661,-0.19170086,-0.44752518,-0.01007673,-0.12616931,-0.35698473,-0.00029530,0.35608578,-0.05329041,0.14207244,-0.13895504,0.49229253,0.39266966,-0.46221778,0.13350809,0.17813167,-0.14194650,-0.01985361,-0.06271388,0.33835703,0.20335813,-0.17121539,-0.02810719,-0.36630233,0.22790582,0.17747216,0.48033380,-0.24645044,-0.46434675,-0.19455238,0.03136567,0.21167419,-0.07500121,0.15630755,0.37039239,-0.38894277,0.34789284,0.38349021,0.09209773,0.30419089,-0.47042377,-0.27740316,-0.40471067,0.32119748,0.26700662,0.14328757,0.06547728,-0.38241125,-0.00741901,0.36874688,-0.11415627,-0.11621549,-0.17654603,0.04938163,-0.02854359,-0.26203570,-0.04017008,0.24096626,-0.10633434,-0.41431351,-0.37321866,-0.09162844,0.45017671,0.11918463,-0.05930056,-0.02555453,-0.36437148,-0.01517481,0.15316839,0.38057376,-0.30858583,-0.20548048,-0.20564324,0.03442780,-0.00561984,-0.19666931,0.20376065,-0.00609706,-0.32040006,-0.17193466,0.27181839,-0.40316603,-0.37721955,-0.32309803,-0.02766150,-0.28374508,-0.25091767,0.10436971,-0.29030703,-0.42483515,-0.19756870,0.28909405,0.35094168,-0.36535629,0.43857687,0.12155196,0.09475677,0.34825027,-0.30137368,0.35263375,0.12602636,-0.45118181,-0.01127570,0.08968386,0.16404047,-0.26969980,-0.29062807,0.33246956,-0.44483179,-0.44403789,0.34979209,-0.45110796,-0.20441674,-0.13595497,-0.21399210,0.15486352,0.13791966,0.37367623,0.15453117,-0.04818603,-0.25089344,-0.10275925,-0.31191907,-0.30483851,-0.12994199,-0.49927358,0.35989769,0.15280226,-0.11354231,0.34619301,-0.45881451,0.36708330,-0.33391405,-0.07674135,0.14371219,-0.05318822,0.10206031,0.27226231,-0.26450168,-0.42061663,-0.45299945,0.01479049,-0.23065663,-0.34054261,0.04077765,0.17540559,-0.16210292,0.03000326,-0.09564689,-0.25194392,-0.33297588,-0.40685586,-0.48301084,0.15768696,-0.13880517,0.03474722,-0.02589746,-0.16953900,0.09156415,0.25148063,0.11534999,-0.10847990,-0.40967055,0.13557793,0.48735937,0.16960687,-0.05234382,0.24688333,-0.07310909,-0.46356916,-0.53218466,0.15854887,0.33011771,0.03143855,0.09848260,0.30940365,0.51276453,0.10894230,-0.13420765,0.01765527,-0.14036313,-0.07044264,0.40799482,0.28238379,0.03775512,-0.27005134,0.26779446,-0.41956232,-0.49397457,0.43702201,0.32453374,-0.18594937,-0.21527014,0.39014772,0.43740011,0.17613786,-0.47672345,0.15592102,-0.04035507,0.39031367,-0.11795919,-0.14085817,-0.21510362,-0.14278256,0.07688186,-0.18141682,0.38907676,0.16528275,-0.41755153,0.10184714,-0.41992648,0.04439333,0.12375109,0.24276865,-0.15602030,0.14115341,0.15423658,0.41014261,0.14738159,-0.06184681,-0.34114894,0.40663306,-0.01186149,0.21440389,0.35881269,0.02425646,-0.29712363,-0.10433739,-0.27796175,-0.06845051,-0.09537023,-0.28230678,-0.05084613,-0.22156810,0.46058186,-0.32918638,0.15636516,0.06062556,0.33869896,0.10735771,-0.01715254,0.42199167,-0.06848074,-0.48002054,0.06671051,0.04506262,-0.28559207,-0.37396834,0.21327267,-0.24461960,-0.26218837,-0.32347395,0.28944505,0.33022208,-0.48590744,0.39414919,-0.37836890,-0.46911646,0.13538835,-0.05635293,-0.07399617,-0.39002213,0.40695817,-0.40876203,-0.20161504,0.21597882,0.47162690,0.51050851,0.50921965,0.04114251,-0.26146362,0.04694643,-0.00339086,0.46227997,0.06567957,0.07134003,0.24638490,0.30253209,-0.17802976,-0.40317901,0.09298240,-0.46610125,-0.37025957,-0.22269588,0.30673073,-0.49624690,0.47575253,0.01706860,-0.28505819,0.36466389,0.41370202,-0.23951599,-0.26879749,-0.13833188,0.13098296,0.40007444,-0.37955022,0.46982523,0.25183744,-0.24769794,-0.00667106,0.04688262,-0.29375833,0.05784978,0.00960327,-0.44585698,-0.03577739,0.42226201,0.47890396,0.16533686,-0.02534409,-0.34294176,0.10674613,-0.33123416,-0.23445952,0.10641324,0.49307190,0.20888568,-0.39376222,-0.07630695,0.07048086,-0.35847753,-0.09703903,-0.47890643,-0.38145377,0.31135906,-0.34380226,-0.21010460,-0.45234868,-0.39369729,0.05340589,-0.11604071,0.48524966,-0.03208615,-0.39357479,-0.14586422,0.41618185,0.48332989,-0.28749555,-0.36438327,0.44556034,0.44232450,0.02483115,0.17487377,-0.13767151,0.07209228,-0.20833741,-0.20249206,-0.39632626,-0.44432575,0.20991232,0.48284901,-0.08512407,-0.22166178,0.19374508,0.15830669,-0.47068679,0.46204173,0.17680234,-0.37701148,0.28217101,0.00993133,-0.21088412,0.26273245,0.35724853,-0.11798397,-0.22467005,0.29277416,0.28550252,0.05206941,-0.34329444,0.37395742,0.12744420,-0.48982280,0.19313497,0.14401540,0.40731837,0.08737552,-0.25122287,-0.15457068,-0.13203332,-0.10487815,0.06243952,0.46027354,0.14237958,0.36461164,-0.21179881,0.26893567,-0.27323185,-0.27598112,0.24176085,-0.29306674,-0.05160018,-0.18338448,0.13800242,0.00738243,-0.19213208,-0.44586984,-0.33492605,-0.01516465,0.19646029,-0.34321788,-0.37658922,-0.04992800,-0.33896105,-0.39415388,0.03369756,-0.36458267,-0.31275740,-0.20565475,-0.27570660,0.10327619,0.37613751,0.31178113,0.46599048,0.46997674,-0.19698120,-0.48525754,-0.45572387,-0.02701123,-0.44437687,0.17289816,-0.06110589,-0.25495924,-0.37718758,-0.14149137,0.19231915,0.10837976,-0.05248189,-0.31058048,-0.18508954,-0.18997183,-0.39444313,-0.47258872,-0.19212780,-0.21005734,-0.51251256,-0.47641933,0.36644511,0.36940701,0.03537082,0.31717360,0.22764826,-0.41768223,-0.14023526,-0.34142021,-0.40854631,0.34623628,0.49886827,0.15165580,0.07634961,-0.11788820,-0.13391739,0.01625428,-0.10977448,-0.49895624,-0.36754205,-0.10812503,0.06213228,-0.55197302,0.33965061,-0.17517936,-0.38475736,0.32875453,0.11853646,-0.48498749,-0.37097549,0.01311255,0.02759075,-0.05332026,0.01482494,0.07885092,0.03628468,0.40887271,-0.28608734,0.30964244,0.36959275,0.22576321,-0.43693241,-0.13845500,0.23562554,0.02111341,-0.37351896,-0.35537035,-0.33256995,0.35514326,-0.57072595,0.32443704,0.04989946,0.33451708,-0.47468360,0.30805724,0.04276587,-0.17364064,-0.04146954,0.07520100,-0.02471302,-0.00437576,-0.00329773,-0.33214842,-0.27032458,0.00011161,-0.17148618,-0.25970289,0.38804563,0.21520498,-0.22209984,0.16529608,-0.03068111,-0.38535086,0.44240424,0.23061865,0.50711791,-0.38100846,0.05255174,-0.29027630,-0.51158958,0.30087299,-0.02042932,-0.01097373,-0.02334516,-0.40687600,-0.14497924,-0.39343885,0.15201054,-0.48414266,-0.11774708,-0.16885423,-0.37125997,-0.22357389,0.22319939,-0.20283619,0.28407815,0.30095916,-0.27068305,0.40681822,0.02297379,0.46435186,0.22880019,0.17703150,0.03248799,-0.41030284,0.35243791,-0.19932129,-0.11385310,0.18313134,-0.41698083,0.15928646,-0.27541869,-0.16808289,-0.31244603,0.24929644,-0.03989437,0.16909636,-0.09615481,0.00539147,0.04696338,0.20198859,0.12606381,-0.07511380,0.43742978,0.50068725,0.32956408,-0.33987361,0.36877027,0.37715213,0.58227326,-0.32854476,0.01751585,-0.21981062,-0.44115391,-0.11013586,0.18553934,-0.34126980,-0.13030978,-0.21712295,-0.06802144,0.16662710,-0.04466321,-0.41981309,-0.05096252,-0.38174701,-0.24346193,0.20772612,0.29653464,0.10178351,-0.42825915,0.37024333,-0.56010841,-0.27211069,-0.09282526,-0.38657567,-0.14933045,-0.32586825,-0.29643347,-0.12077607,0.00436685,0.23418211,-0.33319588,-0.56942816,-0.51223941,-0.10216037,-0.53861671,-0.03587866,0.39618585,-0.27660676,-0.13515496,-0.17786098,-0.26614860,0.43071635,0.42685997,0.30621057,0.00169312,0.25993933,-0.07131963,-0.02147997,-0.03620121,-0.48984743,0.02733475,-0.32016871,-0.29600141,0.32595729,0.45727715,0.33687554,0.05345249,0.04363820,-0.24577993,-0.32205734,-0.37608911,-0.25569067,-0.20663902,0.46109477,-0.45663020,0.34440063,-0.19314500,-0.12638926,0.34503385,0.10974078,0.47313583,0.05579456,-0.28506328,-0.47594018,0.34944606,0.09644949,-0.17750490,-0.01240141,-0.18081778,0.00900188,0.16205327,-0.21691239,-0.31962075,0.25690563,-0.46359382,0.11096202,-0.30064180,-0.46416561,0.11351258,0.41958654,-0.25765233,-0.13603899,-0.01745066,0.26790283,-0.05260224,-0.48416690,-0.30677001,0.36377379,-0.17519217,-0.31759044,-0.06688091,0.03739484,0.18433186,-0.12534405,-0.42816118,-0.39243260,-0.35857565,0.22241836,0.30690751,-0.22001150,0.40816827,-0.06019114,0.18163663,0.24636872,0.31354306,-0.45179950,0.06758104,0.35653650,-0.28639603,-0.34430605,-0.32255895,-0.16054901,0.09695222,-0.02436292,0.35488846,0.46999632,-0.17685201,0.42510654,0.38689410,0.20734350,-0.11079121,0.04501798,-0.33842885,-0.23642361,0.26297863,-0.07576541,0.30980403,-0.35191447,-0.44037746,-0.33324439,0.28764581,-0.47875878,0.17399941,-0.39031234,0.46300289,-0.16435297,0.37352119,0.49271414,0.26613826,-0.37008681,0.10009251,0.30819998,0.43528536,0.41386942,-0.38977673,-0.38279477,-0.46025038,-0.28853166,0.20106285,-0.35979268,0.06102206,-0.27934099,0.00625620,0.22435695,-0.15341857,0.12706720,0.22926700,0.44340609,0.21290603,-0.14226482,0.36612043,0.08448565,-0.40775587,0.00451338,0.44299347,0.24645056,-0.06714981,-0.45948629,-0.19108420,-0.36527339,-0.38091920,-0.44836452,-0.37059059,-0.49802388,0.31364411,-0.32764849,0.35231896,-0.14454172,-0.16238565,0.13453167,-0.42487399,0.02009249,0.41279499,0.19002041,0.06914772,-0.21979515,-0.06000273,0.02838706,0.20271937,0.31161250,-0.20453277,-0.01933656,-0.47451390,-0.33403109,0.02023213,-0.34971507,-0.27249600,-0.20955727,-0.22263476,-0.21387317,-0.44628741,0.08009786,0.32514235,0.15371841,0.02323059,-0.44555158,-0.34152110,-0.34831435,-0.01629118,-0.23002001,-0.37820153,-0.04839824,-0.18908277,-0.40477563,0.11015277,-0.03678622,-0.25757519,0.33466784,-0.35588769,-0.07680426,0.42546331,-0.01507427,0.15663783,-0.39762769,0.09851669,0.37685370,-0.32702419,-0.11840353,-0.18866685,-0.34682220,0.30838961,-0.32268595,-0.33299300,-0.31385527,-0.02738368,-0.25336330,-0.48409270,0.03296152,0.12104821,-0.00851104,-0.14949256,-0.02717293,-0.25864974,0.19967055,-0.03102324,-0.39569567,-0.08513863,0.04470128,-0.16481204,-0.18400979,-0.39593409,-0.02451568,-0.29278427,0.05676484,-0.18582725,-0.29548629,0.35847754,-0.38282055,0.09599202,0.07703576,-0.18317573,-0.05556684,0.28970851,-0.11266418,-0.07376998,-0.39390517,-0.36520426,-0.40414544,0.43193446,0.02473034,-0.33594675,0.12640820,-0.27119970,0.02765316,0.41006426,-0.07737785,-0.28101480,0.26480696,-0.46436048,0.40796700,0.13583158,0.48810514,0.15354014,0.32961987,0.44412670,-0.18890605,0.31879202,-0.14441934,0.49870750,-0.35298387,-0.37396089,0.02378049,0.39337235,-0.03827555,-0.09555885,0.45589053,-0.46189104,